ERR2146881	5.465455	9.1467495	-13.6233015	-3.636534	-5.292233	-9.350652	-1.7931825	-19.268091	18.571909	-3.6179292	33.00868	1.3675051	-4.494495	2.4217827	-4.466612	-12.333048	-3.0778146	1.8335909	-5.0305476	11.378211	1.4105996	-2.1876981	11.114036	-1.9441578	2.919033	-0.33431166	-2.1449783	6.4671507	4.2944565	0.93821955	-2.4804802	-1.2979943	-0.8445282	-3.8508775	0.9608289	3.0760024	2.7139137	-1.0724057	-0.33671272	-2.7883584	-0.31980136	-0.69912267	-1.5421697	1.9614019	-0.92588204	1.533336	1.7982868	3.6067805	-0.85673726	-0.65951943
ERR2146882	-2.7650738	10.319096	-4.321435	3.5775473	-3.1689122	-2.2128012	-5.30083	-10.525263	-5.3392897	7.5193634	-15.845941	-3.5896933	8.217846	-5.142748	-2.9174087	13.6887455	14.029319	0.8153258	-0.014658851	27.164648	-3.1678731	-15.280936	6.921299	-6.410667	1.0115638	7.6400094	5.6151967	2.8660986	-2.3824058	2.8964164	1.7162068	-3.6760008	-0.46123832	4.0322714	2.304384	5.5308256	-0.9338468	-3.245304	-4.6583443	-7.337611	1.5446873	0.31372133	-2.438785	-4.986737	-5.1739616	-0.33345526	0.18831785	1.7078052	-0.7348031	-1.2544558
ERR2146883	9.62924	18.564888	-5.6560845	41.291157	34.617695	4.208192	3.99029	3.1776955	1.4884535	-3.6021247	-1.1977203	9.414637	-1.8764507	6.623395	-2.762891	-3.1768234	-1.4477481	0.4795901	-2.1955938	-2.733354	0.8350666	-5.329601	0.79758877	0.7746423	2.075577	-2.9947581	-2.3608952	3.220721	-0.86477774	-0.110855944	1.7351822	0.046201184	1.0626177	0.81481546	-2.3524628	0.5426823	0.62945575	-0.34166542	-0.8755138	0.56203747	1.4619311	2.3908632	0.2721901	-2.8173258	-1.7689555	-1.0530702	1.1953684	0.9792231	2.6574626	1.6461982
ERR2146884	-10.948135	-1.4762626	-11.168151	-24.398355	17.27598	31.113264	31.567892	-8.125228	2.3528547	-1.5499834	0.18788932	-1.9842392	2.1957	7.726573	-2.1724033	3.5262194	0.31020752	1.1120979	-1.3254023	2.0489326	0.83612764	-3.5621002	2.7443812	0.75951517	-3.2287667	-1.5658467	-2.8550818	-0.58971155	0.99946564	-2.2492108	-2.075896	0.5440686	3.4676425	2.226025	-0.77609134	-0.76658815	-1.5427613	1.4840114	-1.5825456	-2.3491201	-0.5478949	0.602921	0.9041846	-1.1866668	0.2510567	-1.6870553	0.6037934	-0.91339386	-0.14966716	-3.0588384
ERR2146885	-2.090013	-2.9823134	-1.1441684	1.6338826	-2.7676456	1.5642692	0.94510776	0.84811836	1.2168041	2.0538878	0.4326646	3.3643348	3.1995609	-2.6934175	0.22069451	0.7180832	2.6776195	0.38881603	-0.009233396	0.45223466	-0.8175336	-0.94477373	-2.5992546	0.901866	-2.7425013	-2.5783932	0.86686546	-4.89177	-2.4852006	-0.22475564	3.96033	-6.2938566	-1.4498415	2.809549	2.558638	0.618544	1.3040999	2.9407432	0.7976781	-0.6492741	0.22273189	-3.3152542	1.5325919	-1.772877	1.4980292	-3.3121932	-0.18301319	4.4721875	0.19720289	3.3806407
ERR2146886	0.15090458	-5.703476	1.6426857	0.76542306	-0.15756562	-3.0357394	-0.55304146	2.5996287	0.16554931	-3.0052142	3.9856367	2.7903817	0.6098373	-0.059379727	0.5819705	-0.06516878	-2.7144203	2.6366582	-0.51889944	2.0960336	-5.0786796	1.4958955	0.007643325	-2.7107415	1.5749707	-5.2307506	-1.5244678	-2.3043554	-2.6841967	-2.8306901	-0.2931967	-2.6835868	3.3588657	-2.839115	-3.4389212	1.0656325	0.07079849	-4.6824865	-2.8775487	-4.7740917	-3.5489545	1.7212793	0.3950917	-2.8398151	-5.373629	-4.089033	0.21591158	-4.729057	-1.5276872	-1.5666717
ERR2146887	47.167698	-15.373816	-10.021552	-7.905419	1.8427496	-2.6239078	2.850754	0.32314605	4.2271204	-4.7801447	-13.980872	-4.6540823	-11.865972	6.3958383	-1.335422	-4.358439	7.1426125	4.22838	-0.17412479	1.4363902	7.2124248	5.335869	5.2492166	-6.724756	-3.73186	-3.4408846	4.9280787	-3.3461123	2.396744	1.524467	-0.2653687	0.6095806	-1.1365801	1.0633736	3.6442199	0.4596972	-3.5966518	2.2655761	-4.281589	1.9397048	3.2843122	-2.5254304	2.4544032	-3.546733	-4.0278125	1.0461882	-1.5098596	0.68640536	1.9191631	0.47882375
ERR2146888	-1.3458993	1.6829493	-1.1642488	2.2604585	-1.198894	1.66988	1.1806844	3.2354198	0.8904958	-0.43060508	0.9368306	1.2017969	-1.8679926	2.3322926	0.45367333	2.0307329	0.6244359	-0.8967255	-1.9878211	0.15387565	-1.3824574	1.678917	1.4038874	-0.78177464	-0.6775105	-0.50644886	-1.322404	0.80406964	-1.2906625	-0.30012777	-1.465632	-1.7604973	-0.33828124	2.625072	0.53088564	-1.9404815	0.36054203	0.072963394	-1.2013656	-1.6911682	0.30642012	-0.92114145	1.115653	0.39024174	-0.46995646	0.042778507	-2.693053	-0.28988138	-1.1900226	-1.714809
ERR2146889	1.6182691	-9.975712	6.987079	1.1412866	0.2302682	-1.1509594	-3.664222	2.5952976	5.1289744	-3.7626035	-3.2219288	-5.771036	-2.5325348	3.0181324	-6.215973	4.591048	-1.0505809	-2.486419	1.3407807	-0.5875288	-2.9474597	-2.7254913	-4.253452	-3.9325128	6.8083825	0.9018787	1.8871993	7.053828	-2.9158425	-6.6657395	-5.307933	-2.7988336	12.080228	3.1443543	-7.827861	2.2562208	3.6766264	6.614792	5.1372113	-10.826702	-1.9034013	13.810366	2.0947244	9.377906	-5.991057	-1.9321747	3.227931	3.5315344	3.4914756	-6.736379
ERR2146890	1.4955508	-0.25422925	0.6467908	2.1224895	-5.2808075	6.773934	-0.85709107	-0.63854724	-1.5097661	-1.1330734	2.1367505	-4.1532316	-3.5326786	4.345998	0.29723665	2.0913322	-0.47273156	1.8243198	0.6688639	4.889729	3.7207959	-1.6140898	-5.950022	0.2222378	2.5876987	0.55172896	4.388379	-2.653137	-0.30671042	-0.5022546	-4.5881763	3.300589	-6.7218356	-1.7251201	0.033208575	-0.3817355	3.7666109	-0.1133011	3.070934	1.0995116	-0.42711252	4.4724965	-4.03962	2.9783645	2.5661912	-5.317238	4.702922	0.34356228	1.6562183	0.781386
ERR2146891	-2.8475294	-3.6501837	-6.16826	-7.112465	8.105107	-2.84133	-4.145253	0.7764069	-2.1584153	-0.6540117	0.1622159	0.5417843	-1.3518896	-2.4889586	-0.6483116	-2.7065585	0.8910387	-2.2135856	-1.0795602	0.6038893	-0.7853408	-0.5416677	0.91385853	3.6213977	3.0702374	4.389248	1.6529348	-6.296148	-3.863555	2.348454	-2.450864	1.6233144	-2.5036783	0.5884343	-3.294655	-0.59443843	-2.4235134	-4.6950574	0.05196211	2.4978917	1.7585115	-1.897178	-2.9615195	3.0140395	-7.0234494	-1.339577	-1.7454507	4.3052363	-1.8310087	1.6223015
ERR2146892	-1.1565171	-4.8524575	-1.9403045	4.998645	-2.7871175	3.54805	-0.18765661	-0.026706373	-0.3092276	0.011956877	3.0615628	-0.62351596	-3.0586216	2.2361968	-2.86851	1.9831744	-2.1037138	-2.3577635	-0.795438	1.421077	-1.4148678	-2.3122504	-2.54088	2.3044658	-0.42271042	-1.7452906	5.14712	1.0555506	-3.4068604	-0.7973059	-1.9794098	0.61923945	-4.5443144	0.79835594	-0.29730093	1.7399793	0.8473292	1.2670085	1.5528175	0.06350675	-4.3353915	-1.9970893	-3.043743	1.5480701	0.14964548	-3.4833822	-0.33264902	-4.523677	1.7742708	-2.3232925
ERR2146893	13.323395	-7.435641	-5.0706506	2.047482	-2.2973456	-2.2095058	1.8649682	-1.2218199	0.85507315	0.45707437	-1.875713	-2.5357046	-5.4844227	1.2793343	-0.4393317	1.6666635	3.2998292	1.2462448	-0.7172873	-4.3065567	1.1479741	-1.5200438	-3.7888248	2.5890853	-4.0845833	-1.69864	3.433302	1.8013593	-0.42656267	0.19446051	-2.8990307	-3.9947214	0.39120883	1.0357732	3.2484288	3.7971203	-0.72438574	1.5661018	3.6862602	-7.818693	-8.575924	3.2823064	3.4889112	7.6042724	1.0809247	-1.5714543	-0.051613532	-5.0241847	-6.1445007	-0.54248995
ERR2146894	-0.09667588	0.7286872	14.200638	2.515063	8.971721	-4.8987155	11.590562	-7.664227	5.9590025	-4.981894	1.6060675	5.4425607	7.618563	-18.458883	5.8858366	7.7251663	-0.93971765	10.782482	3.547358	1.901384	-3.0703268	18.897736	4.216844	-5.2169037	-8.729607	2.4211943	19.340748	6.490016	-5.726069	-6.3263893	-9.205309	2.1101806	-1.8472384	-5.944426	-8.403259	2.6103728	-3.887592	1.9744184	-1.0348414	2.9029443	3.8636758	-2.3448744	1.3054292	1.3286703	-0.04122349	3.7433221	4.5033913	-1.4716699	-1.3943975	2.524465
ERR2146895	-1.9759754	-7.9967647	-2.9956882	9.352703	-1.1529038	-2.1852143	1.5754299	-7.5596786	1.331468	4.731801	2.8615537	-9.096296	7.294717	-4.0718164	-0.7167476	-0.61919224	-3.740843	-2.8954697	6.1293135	0.07463249	-0.71701175	-6.33633	-7.1436996	3.4943287	-8.181068	-4.293225	3.042123	2.5512586	9.546384	5.1986423	-0.5068267	-9.846633	3.4374814	-2.8449001	1.9668045	10.133163	-9.643959	1.6304643	-5.2200065	14.689799	-10.618065	-2.684958	1.4364957	-1.5350193	6.2553344	-5.6645093	-3.5590777	-4.100227	0.497889	-3.5448809
ERR2146896	2.8989215	0.5305205	17.430822	0.81610894	3.0986946	5.823622	-0.30021995	-5.6118	2.560787	-5.100716	7.4420238	-2.598998	2.3362408	-3.704943	-1.175187	-0.75891906	-7.1225805	-0.15863094	1.5853592	4.4369617	-5.6249895	-8.265492	-6.43893	-1.2915728	14.122782	-3.5712664	12.373187	-9.590721	0.6542606	6.5743704	1.1249393	6.4896593	-4.4292774	8.926585	13.14588	-9.022061	1.8394789	6.2091103	-4.470034	1.3331132	7.1149035	-1.8518382	12.394644	7.4020176	-4.1547413	0.8587831	-8.387086	-6.4476185	-3.0012305	0.4446322
ERR2146897	-0.5382457	-1.5513905	7.4555016	-2.7205205	1.8535427	-1.2113621	0.39005423	-0.394752	0.31739104	-4.7644477	-0.77700365	2.2941153	-1.9361794	-3.0846426	-2.0820024	-0.33094433	-2.2722847	2.3786345	4.6087027	-0.9343711	0.461849	5.2323375	-1.9721353	-4.396157	3.9039574	0.47064945	-0.80002135	-4.1465187	1.8813394	-6.062864	3.4766362	0.7860509	-0.0820339	-0.8872897	-0.2741605	5.0776687	3.691251	-6.563798	3.6007748	-4.99536	1.2204763	0.54615	1.0826712	0.23032439	5.176457	-9.194029	-10.597501	1.4980006	11.461045	-0.45603743
ERR2146898	-1.7333863	-6.563391	7.911987	2.2031283	-1.266572	-20.02557	14.571257	-11.271788	5.4614744	-4.2518425	-5.379035	12.764528	-12.5342245	9.915472	11.591838	16.855045	-3.0878065	-15.685956	-4.2915225	7.938346	-11.698214	7.7306676	-1.3015698	13.58946	-3.398563	0.81608754	-8.199399	1.9941419	5.6597958	3.4865303	4.711351	3.208747	2.4538064	3.6035032	3.0984473	-3.6458502	-1.1307316	-1.2258534	0.49059963	0.30082065	0.85330135	-2.6001148	-1.0813491	1.2303342	0.20817296	-2.7640135	-2.0188475	0.41513905	0.8031105	0.1827371
ERR2146899	-1.5862993	-4.7032127	-1.6926849	2.5756137	-5.849058	0.48706484	-0.4868848	6.834013	-4.2993584	1.0316287	3.4825826	3.7120705	-3.9482505	3.323585	-3.9123924	2.5297425	-3.6051383	1.9408756	-3.183998	0.26532137	-0.81289524	1.9437544	-0.067868225	-1.9928547	2.740814	-4.987559	7.9418	0.81092376	0.41997612	2.1566725	8.128566	0.56559074	-7.030981	2.9245157	-11.407001	-1.991313	1.619328	-1.6464971	-11.052038	2.397843	-1.9861791	-1.3984156	5.193193	-5.9794145	-2.8605487	-13.528739	5.311882	7.703973	-5.6132874	-12.768672
ERR2146900	-3.2725778	-1.3208752	0.6318798	2.9632502	-1.9601998	6.188581	-2.8912094	3.64473	3.088201	4.1592255	0.77292776	-2.019373	-2.6940362	3.8396645	-3.9846427	7.440245	4.2716875	-6.5363564	2.536809	-0.23110639	-7.2790923	4.3384576	-1.4725211	-1.0908438	6.861975	-11.409982	4.9332156	10.613672	-0.5430917	2.5882494	-9.536928	4.5663686	3.1265802	-0.13393573	1.6179091	-3.2657692	6.9450884	6.617696	-3.1536527	0.21387827	-8.934304	-2.3912115	-7.640034	-2.0497448	0.34144413	10.637517	-3.7316449	6.468166	5.9288335	4.4327383
ERR2146901	-2.2281296	-7.120251	-3.9761345	-5.444269	6.3356028	-1.2070539	-5.7026286	2.1019046	0.47280177	1.6285576	0.1472954	1.872942	-2.7635	-1.0189232	-3.1635878	2.0033374	1.28008	-1.3275265	-3.2405212	-1.2806953	-0.50696945	1.0290148	2.9502196	0.57559544	-1.6213642	1.166657	1.6313304	-3.0222986	0.11911211	7.14617	-5.2062683	-4.2268496	-0.4188204	0.7658591	-0.73409086	1.6815645	1.0255766	-2.952558	-0.90906334	2.7120833	2.9632344	0.69701713	-3.4548943	5.970206	1.3536001	0.79725915	-2.0519063	7.1602783	-0.70650727	1.8586434
ERR2146902	-4.5542088	-6.961549	-3.0950227	-4.677742	10.326073	-2.2157798	-5.112797	4.6547184	-0.628048	1.0959803	-1.3119756	-0.11844605	-1.9157763	-2.9473364	-0.69484234	-0.8114752	-3.2114809	-5.334852	-2.8420517	-3.700298	-4.6245904	-2.755605	-3.9321783	3.6781037	0.620835	3.3659194	3.7325013	-0.12357416	8.176493	8.656545	-12.912591	1.0072398	-0.59246796	1.5793767	2.2623754	2.8033783	-1.0104071	-2.3424628	-1.290766	1.4278578	-0.29487297	4.973895	-0.08447762	5.3586464	-2.6335046	-1.3045123	3.184478	3.912513	1.6239674	-2.2639215
ERR2146903	-3.9402893	-9.501946	2.0712488	0.22278088	-2.421948	2.440019	0.2759596	3.2787485	0.13635564	-0.38470027	1.4807332	10.540203	-1.7997746	5.4794555	-4.19138	1.3802077	2.8693154	4.0730457	-4.6297317	-0.92046905	3.694484	-1.8840781	-6.661341	1.303186	4.078863	-2.3297892	-5.6485724	4.5211034	-2.509516	-1.7905661	-0.698054	1.5605363	-11.395981	2.3167768	-2.2127488	1.8515177	-3.7706025	0.937178	-5.937497	-6.301953	4.2272873	-13.783814	-4.4378667	-4.868295	-3.3505437	5.0867996	1.4839114	-10.824308	-1.136124	-5.7331877
ERR2146904	33.971416	-1.7616462	-6.9228487	-3.3045106	-7.8459163	9.87487	1.4981778	5.197214	-1.2208598	3.0316775	9.021597	14.338521	27.759377	-11.290857	3.660308	9.976258	-3.0193155	-9.957963	-2.1457057	-3.9593596	-9.749382	-6.1152787	-4.9841995	4.497616	1.000259	2.6020474	-7.065669	2.6377065	-0.89111465	-0.51145035	1.0539504	2.2960415	-1.9330629	-1.5887161	-2.766288	-0.5240114	5.378997	-3.7187197	1.4416177	-0.88567793	0.8228333	2.3986018	-1.040743	0.7543705	5.0098476	0.7804301	0.54620343	0.18923233	0.8527055	-0.46188426
ERR2146905	-3.870323	-10.351432	-1.8720188	3.7264147	-4.0270705	-1.0764248	-0.13802987	2.6119998	-0.3371501	-1.3499694	2.163464	6.810949	-0.78222525	0.05788269	-1.9531898	0.004253494	-1.4585452	4.2296243	1.9443475	-0.38905224	0.048202317	0.6457971	-5.931985	-0.69774485	-0.5270606	-3.6149979	-0.88964814	-0.70884585	-6.7553864	2.4817162	3.5785723	-6.0109563	2.060733	4.4915667	-2.4586015	6.372312	-0.94514793	6.3323865	-0.062053334	3.4521575	-3.3240335	-3.4358537	0.4760382	0.5290472	-0.6979321	3.4619026	2.020257	-3.5591059	0.90357196	1.1615115
ERR2146906	-1.1372302	-4.367163	-2.9091477	-0.7904465	4.2761517	-1.6632949	-2.6846054	-1.9808336	0.874975	0.92435783	-0.5288686	-2.0425246	1.6551194	-0.12874086	1.882535	-0.56947476	-0.6384328	-1.0220406	-1.8185583	0.8934483	-1.7944921	-2.514618	-0.98505753	2.4632795	3.91855	-1.4626275	0.012103176	2.2726126	-1.8833548	1.8591554	-0.1420337	0.66420585	1.4726514	-0.7730391	0.69581866	0.58384395	0.9157804	1.4148166	-3.1664782	1.2656561	-1.402535	-0.6311008	-1.4233307	-1.3213067	-0.6316168	-1.0852841	-2.0876482	-0.6660862	0.31219962	2.9383333
ERR2146907	-1.8131905	-7.173752	-1.3538245	-3.9201264	6.674363	2.2837887	-4.503665	1.7835188	2.100783	0.8959646	-2.0203898	1.7957745	-2.677032	-1.9068732	-2.7188597	1.6283703	1.6090595	-0.82107663	-3.1471455	0.22543773	1.067695	-1.494555	-1.6138682	2.3283842	2.2565606	3.507433	1.7698288	-1.2800901	0.54723537	3.3387077	-4.1585345	-0.22580881	-1.6463253	-0.91528654	-0.32058114	1.6277574	-1.2857679	-2.8060634	-2.1934106	0.48787344	-1.3071078	-1.7430485	-3.9448054	2.4341266	-0.5312753	-0.012749441	-1.9216402	1.5972306	-1.9457548	1.5655748
ERR2146908	-4.187808	-9.623888	3.7992024	1.9405084	-2.393842	2.0692122	0.5337489	2.8848946	3.3265257	-0.12837565	1.3100052	6.0114946	-0.7136002	3.7340143	-6.194826	0.20326638	-1.6202345	4.109944	1.8986604	0.31275398	-1.7920604	1.5063753	-2.930835	0.66994506	2.5538073	1.4942234	-1.7930993	3.1713665	-5.3602457	0.31389037	7.22169	0.9023499	2.8043408	-2.4506552	6.037561	2.8385715	-7.888036	-0.8468027	-0.25605908	-4.7882457	2.5604188	3.8193064	-5.002303	-3.39146	-4.0715737	5.116293	-2.9136672	1.629321	-2.7908204	1.3018159
ERR2146909	-0.78847307	1.7002805	-2.3828783	5.0201006	-2.0462623	3.1802561	-0.21451858	-2.23118	-1.5656866	1.1032846	-0.8565218	0.25945306	0.53255075	-1.9768996	0.6195305	-0.5196507	-1.2719008	-0.22001964	1.6071231	-2.7750719	1.1559726	1.7355003	0.87248915	-0.0287698	-3.132785	0.2248427	1.101318	-4.2141185	-4.2889414	1.7255234	1.0119671	-7.529134	-3.5152051	1.4290998	2.902977	-4.9123807	-1.9203743	1.5885812	-1.638522	-1.0841205	-1.2371204	-3.67047	2.0412517	7.5542736	6.5407867	1.8721037	-2.9058115	8.020544	-10.378987	0.5387607
ERR2146910	-0.15991206	-1.3193121	10.292267	0.44203696	1.4846112	3.263892	-0.8481361	-2.3366199	4.1730676	-1.5485973	0.6326315	-3.8910487	1.7808806	-1.0130639	1.0367559	0.098692745	1.316016	0.21300496	0.35397255	-2.003612	1.9811925	-3.2636645	1.2841723	-0.39100152	3.4772465	-0.25894043	0.13266069	-2.0201716	0.17118327	-0.41181573	3.8642888	1.191739	-0.6658782	0.47341353	0.9419155	-2.202746	1.5666488	1.0437417	6.1407785	-2.3196976	3.237984	3.3143382	-0.24492656	0.8226855	1.1523144	-1.7270007	0.04998531	-0.64997774	0.52667236	-2.860133
ERR2146911	-3.563114	-1.901001	-4.6855097	-4.6303496	5.1673365	-6.4244466	0.19996762	3.0631187	-5.1904874	-2.889543	1.3363204	0.20522965	1.4144503	-4.4849567	4.4522395	-1.7223552	-1.6648463	3.2157965	2.2695434	-4.114876	-0.5020965	0.43055257	0.9453939	0.51784545	3.6633887	2.9642777	-1.4247259	-9.149607	-2.9862254	0.5406978	1.6039999	-0.75750804	0.6483449	-3.7986546	-0.67237306	-5.151303	5.185401	0.6154211	-12.72765	0.5458752	-6.267873	-1.9862382	-2.2549498	4.5457516	-5.032305	0.9284142	2.1061504	-0.61344826	0.42293963	7.226036
ERR2146912	-1.6480863	0.4507093	-1.3120412	3.7771037	-5.4659243	2.533155	0.7338673	0.717316	1.4672898	1.4534975	-1.9478341	-3.1509829	-3.5422313	-2.055481	-1.073224	-0.87451756	-0.6161287	-3.865808	1.8506849	-5.163924	-0.44457862	-1.2121332	0.83756405	0.5602775	-4.653578	-0.21055128	-2.1378543	-3.6179786	-2.6756036	-0.9188703	2.645141	-1.1649879	0.9949549	-1.3769668	-0.3460737	-0.06472009	0.034912214	1.230238	-1.1542246	-5.363618	0.8255979	0.9650713	2.1358826	1.5485789	-1.634466	3.163712	3.0103676	2.9582903	-5.5773234	-0.17336448
ERR2146913	-2.5452216	1.915027	-4.366697	-5.8399696	6.8850346	-8.270954	-4.0910077	4.660749	-1.4244757	3.276169	5.486977	4.2413907	-3.4354405	-0.07387399	-0.69696647	0.40348956	2.1580515	2.1546078	-2.854662	-3.4074118	2.7020485	-1.0823584	-0.5374658	1.0079798	-1.7303783	8.052334	0.57710326	-4.2548947	-4.9111485	6.307951	-12.651578	-1.6505498	-1.07175	11.956482	0.7431464	-1.679762	3.434307	-4.958076	1.8573123	-0.06963662	2.3643637	2.128139	-4.999859	-4.198697	12.495956	-4.543631	0.15338428	-10.970745	3.584366	-6.250555
ERR2146914	0.4567068	11.812652	-1.7120291	-2.4738848	-4.6567726	2.0452213	-1.9411385	6.5905943	-10.0996475	-3.2954419	-1.1780143	1.7936351	3.0265722	-5.2660403	0.8404512	-1.0862348	4.5833187	-1.7678212	-2.6148398	-4.462589	-2.959225	7.7332854	11.367174	7.3314223	10.736901	-13.69802	3.582985	-0.8891202	7.3616443	-8.043797	-3.4862733	2.7452242	16.264114	1.2509974	12.295548	4.516265	-5.373769	-11.245929	0.08111579	1.1476177	0.35930896	-4.252178	-5.0647244	2.5623205	-9.109437	-7.5005407	1.7667534	-6.3843775	-3.3213618	-1.7214882
ERR2146915	4.9066324	-0.93941796	11.453143	2.0927985	1.2340517	0.66553247	0.11905126	-4.4651313	6.572284	-6.1720314	-1.7465901	-5.4230943	-1.906249	-7.142315	3.2136402	-0.04938266	-2.3949304	-0.2810086	2.5252857	4.8461366	6.197426	-2.158833	4.532308	3.0817213	4.6585703	-4.6830316	-4.4650683	-13.333842	-1.9627115	0.4460589	6.262281	-0.18729036	4.154693	4.0768237	-2.1783633	-3.9661176	-1.8596822	0.83195096	-2.2926414	3.873058	-1.4457399	3.9890273	-14.746034	-0.7170498	8.454545	15.894659	11.232892	-7.0695934	3.443596	-8.442205
ERR2146916	-1.5627569	3.585664	-2.5010617	3.480108	-1.3329858	-1.3205405	1.4142408	-0.37158525	-4.2112546	-1.60494	0.29560262	-2.576669	-1.0768864	-0.8592763	-2.3103602	-0.20557494	-0.63464034	-1.4331293	1.6583743	-0.88874316	0.14714167	-1.7851431	1.510694	-0.7527598	-2.6003625	1.6629201	-0.99822545	-0.9511651	-3.302097	-1.3503529	-1.1436774	-1.3334053	1.1131035	0.5099242	-0.5118206	-1.1080419	-0.42872941	0.7732023	0.36579463	1.7364482	-2.3191965	-0.94518954	-0.44613317	1.3825119	-1.5046957	2.870909	-5.1612716	-2.982761	-6.606371	0.52318096
ERR2146917	1.9108309	-5.544489	7.9943266	2.0139604	2.48753	0.9336519	-1.7490484	-1.0051135	2.798662	-0.36705068	1.8770733	-1.226012	-0.46707886	-3.888597	-2.125484	3.5184054	-1.0535334	1.5621669	-3.3510764	3.1523044	4.0322328	2.9589438	2.5749273	-5.0518384	2.6685708	2.5115893	-3.5454245	-8.24036	-1.9296286	2.8908143	8.431552	-4.5599847	7.4432797	1.1676432	-8.652986	-3.044583	-0.71416605	-8.818716	11.023243	-1.7776545	-3.0150304	1.0751127	-5.0360775	3.45165	-1.2082293	-3.4640634	-0.99276876	0.8869711	-6.945017	-5.429314
ERR2146918	-3.8572657	-2.4899428	-2.0570168	3.9558132	-1.4293945	1.0897974	2.0491586	0.94286335	0.87379074	5.2304034	0.9100239	-1.2855461	1.9103684	-0.7774736	-2.7397223	0.58350027	-0.5769515	-4.8861213	3.0414472	-1.4093597	0.87792856	-0.06320951	-0.53493625	4.154358	-4.426448	1.3319929	3.7223082	0.15991908	-0.06016001	-4.9277134	3.0666423	-0.6077514	-0.9450143	-0.95724374	1.6606187	6.835194	-3.705076	0.0319094	0.21511848	-6.4854236	5.201265	-7.1048245	-0.48031452	4.406224	-1.7601442	3.1556795	1.3797963	3.0762413	3.2316852	0.32176337
ERR2146919	-1.8846482	-7.1607623	-1.5356796	1.7297983	0.39476025	-3.7376132	1.3466947	-4.440032	-3.0890214	4.617312	2.4312165	-3.4160604	3.308485	-0.19966468	0.68579143	-5.7772093	-2.733221	1.9609231	-1.0284362	-1.8827463	0.98712546	-4.273634	-4.151241	-1.7116475	3.5578728	-3.2894142	1.3954066	6.4735003	-0.76977307	1.4978658	1.0111599	5.532765	0.9516275	2.2236679	2.4789708	1.3023937	-4.4276385	-2.9960115	6.846612	-4.9422903	2.7499883	0.069463894	4.1408052	-1.4560655	4.404941	3.728419	-2.4973576	1.3446424	-4.8161798	-1.035709
ERR2146920	-3.1553962	-6.748765	-0.005067446	6.360884	-5.0707755	0.28171316	4.9120655	-1.2958839	0.9661156	5.811307	3.9610732	-4.790183	-0.1847959	-4.196336	0.6597532	-3.1459363	0.84835863	-4.25791	0.93185925	-1.1878585	-1.0690715	-0.9414759	-3.6495678	1.8912994	-5.0977626	0.14765717	1.4814163	-2.0569706	6.0682836	0.3543133	-3.8533323	-2.022559	-8.107318	-3.5739274	6.9486303	-7.2871385	-8.434895	-0.9925322	7.4331026	-2.9938047	7.9428535	8.733909	-2.927575	-8.726495	-11.995066	-7.286898	12.563573	-7.1146607	4.3017616	7.6327806
ERR2146921	-0.3834107	-0.1760376	-0.7443	5.989431	-2.8017466	5.5691075	-0.9008526	-1.0008322	1.5347183	3.642651	-1.0281748	-4.0561953	-3.2081602	-3.72195	-3.0960996	-2.7411532	0.8378639	-2.434338	-1.3964101	-0.6177126	2.0679142	2.327208	-1.6678487	-0.0798458	-2.9672503	-2.0696697	0.8263583	0.39291057	-0.056001153	0.2771797	2.1357381	1.9648554	-2.851236	0.29751304	4.693579	-0.4067296	-2.3493729	-3.6197324	-1.3966296	1.3574628	2.0415478	-4.601205	-0.2299989	-2.8500166	5.198169	-0.9660089	1.6284524	-0.0033807526	-4.700095	4.089052
ERR2146922	-1.1762549	-4.693874	-4.538828	0.034373682	3.0567572	0.23896928	-1.5638703	-6.532653	-0.2639207	5.120616	-3.5527372	-8.238939	4.2358418	-6.3983874	10.213595	-0.27308032	8.013117	-0.86650926	4.362597	-3.571068	7.6865864	7.808448	14.027018	17.00574	18.359177	-2.3395376	-10.425996	6.8094893	-8.930566	3.1831822	0.46617728	-4.8640027	-4.2062964	4.999076	-3.5519164	5.1412716	1.1755545	15.049976	3.5193121	6.1457505	3.3022046	1.1529058	4.409913	-1.999034	0.49207214	-7.0462556	1.8927636	1.6373612	-4.0871935	1.1898031
ERR2146923	-2.8191707	9.930256	-1.245271	-0.4111878	-6.7820153	0.6866412	2.8108733	7.47806	-3.9750009	-3.4913683	-1.2679604	0.07350954	-2.849031	-4.64352	-0.3748258	-5.517738	2.2755363	-8.473047	-9.884414	-7.4299026	-4.7768607	4.551451	11.629239	-10.482689	-1.3841946	2.9683778	1.5850055	11.530205	8.398882	-5.8448057	3.3664412	-9.494265	-9.177062	15.1932955	-2.2873137	-2.3384843	-10.511872	3.9876974	-7.185908	-6.703807	-1.1433171	6.5258026	-2.6060936	7.015183	7.994215	1.1750252	-3.154665	-7.7231545	1.4183301	0.528097
ERR2146924	-1.2716986	4.5669475	-0.4638736	3.4560618	-2.129028	5.382822	-1.9953886	3.7207148	-4.1442876	0.57415444	3.6277964	-3.6340153	1.0155256	-4.7093005	0.5918406	-1.0733616	1.574415	-3.8808167	-10.787645	-0.6300143	-5.972141	6.2474413	8.202877	-7.005018	-4.87516	4.9670053	-2.435568	-10.978584	3.2512827	12.395697	2.6682522	14.787657	0.42690417	-3.1077168	-6.3482885	6.0932555	-3.1769753	16.194254	12.811503	-5.6702104	-10.620464	-8.849407	1.6573118	-5.223682	-5.5495157	-1.2343856	-5.7259717	-2.4380186	6.504877	-2.7023597
ERR2146925	-4.5928397	-7.0844607	-1.4346648	-0.4159464	3.3026958	-3.6614618	-3.6739368	-1.0831506	-2.8447006	1.9814544	-1.4448143	-1.411943	4.484265	-1.5455914	8.76874	-0.8908843	-0.23691897	2.972173	-0.075803936	-4.718256	3.9473088	-1.6774677	2.82481	0.6673218	6.476934	0.18161678	-0.0473211	4.242383	1.7348567	-3.6364288	-0.7977891	1.1768613	-5.5850744	-9.448085	3.4793084	-3.97298	2.4943411	1.3295164	-9.984491	-7.9985433	-4.1383834	1.9339725	-1.5481608	-0.31569734	-1.4372059	5.9377675	-1.3639209	-3.193477	5.6591344	0.013463537
ERR2146926	-4.3203144	-2.4822447	-6.2174125	-2.1929657	0.044116102	-7.6024947	5.2064853	-2.8297164	-3.5232408	-0.1283268	-1.1605935	-0.64638835	2.9039173	-2.2223792	7.2873282	-2.789039	-1.4165839	3.8175418	4.1915793	-0.45442745	0.27050114	0.27405143	0.14878651	-1.8342476	3.1449547	-3.715819	0.8697516	-1.6729255	-1.5318823	-3.044921	8.868176	-1.4885583	-1.0728972	-6.4158564	-0.34367526	-6.4067845	-2.4818203	-1.7848045	-7.3963704	-3.010131	-2.2073948	3.8016238	3.8537023	-3.804619	3.6287196	-2.5765126	-9.18713	3.1576807	11.667532	-6.133513
ERR2146927	0.56412745	-2.4001286	-0.028045997	6.5872254	-2.133624	3.7925105	-1.605419	-2.1264648	1.0580417	3.8523788	2.4959512	-9.618839	-2.6942887	-0.3044204	-0.10056382	-2.6346536	-2.621136	-10.031577	16.301886	-4.586455	-2.506042	-1.54405	8.470917	9.523249	-7.565226	4.877681	4.7959905	-6.6418786	9.449472	-9.013333	-3.768688	-8.900239	1.8913094	8.299685	-6.5860467	-4.1324954	16.790781	-3.0970087	0.087703325	-8.094821	4.256298	-10.402948	3.960402	-7.85024	-2.8337696	3.7316804	-1.5118712	-0.93790025	3.5503156	-0.9087474
ERR2146928	-2.6685338	-6.4706306	7.2400584	1.0598783	0.33440968	-0.61141795	1.3442767	0.14605135	1.8968273	-0.6401802	-0.30809245	0.2440123	-0.7654762	-0.824133	-2.8847802	-0.6535179	2.4926178	-1.8795639	-2.4732132	-1.5369538	2.7159956	-1.3333405	-4.242946	-1.6342638	-0.16024432	-0.80205667	0.8073192	2.6696525	4.856002	1.0967855	-1.2275051	-4.1017504	4.73657	-2.3073628	-1.489033	3.403793	4.627735	3.0397806	2.460973	-0.657597	-2.8700168	0.03203501	1.2962334	1.7793095	5.229036	-2.0802236	0.4138742	-2.0679502	-2.892441	7.4411545
ERR2146929	-1.7634337	-1.6474637	-3.3830483	0.4766192	-1.6739229	-8.482212	2.579479	-3.7404227	-5.139487	3.198928	-3.725949	-6.2729483	3.9901102	1.627695	4.9569864	-2.92478	-4.2468715	3.5749078	-1.1783162	-3.032868	-3.308468	-3.3556688	-2.1188562	-7.720368	-5.385542	-2.5922415	-5.8340893	-0.49984154	2.3573825	-2.1213036	3.7365162	7.4692926	3.6628735	2.9743805	-3.446579	0.88003045	10.600983	-0.32143483	-7.3321824	1.8270574	1.1737036	-4.7061334	-1.9705187	2.3568952	-2.8770216	-1.3447963	4.6090097	-1.4596182	-1.9128269	4.782556
ERR2146930	-3.855327	-4.337855	-4.1479545	-0.004781138	2.5042715	-7.372421	5.166282	-2.5696425	-5.469396	2.9461854	-3.1965485	-0.64072037	5.1559873	2.0811517	3.6422386	-3.1121094	-4.150868	3.5945346	-6.2519355	-1.6128799	-1.4506731	-3.365037	0.31142637	-4.9328566	0.18619554	2.950259	1.9906716	0.7487632	2.5199633	-1.9490112	0.8887157	8.515836	1.9238172	4.3782954	0.093069576	2.7607617	5.8479123	-1.9244285	1.696376	3.7873433	-1.2338784	0.6002671	1.5952961	-2.7772377	2.874305	-0.008759139	6.1784253	-1.9330636	-0.6221748	-2.631159
ERR2146931	6.2817016	3.826488	-5.01277	2.2633796	-8.749353	2.6994371	-0.52185345	-3.2821548	-13.156713	-1.362727	1.0710343	2.8892872	-5.330652	3.1664748	-2.4849489	-6.794087	-11.64403	6.917109	5.2442484	7.299661	-0.71748734	0.5162258	-4.241714	9.948523	4.4804635	15.3369465	-0.79950136	-2.1603346	-2.5967295	-10.018376	-6.3993664	3.6744509	11.913091	-0.004540847	-4.4366684	-2.3072422	-10.647457	7.1029983	-5.700129	-2.3477113	-0.110554606	2.4551804	-4.075252	-4.4069495	5.6652007	-2.5682533	-6.551851	2.0295496	-1.2046272	5.031184
ERR2146932	-1.8706409	4.2987556	0.7777272	6.2527122	-5.9148755	4.743694	-0.9300799	-1.380311	5.3243566	5.1821623	-3.2479157	-9.105293	-3.5448794	-2.4327066	-0.48504177	-1.2956429	4.106078	-5.412317	-5.09367	-1.911477	5.5603514	5.5241323	0.7215058	1.0138259	-4.2895975	-0.35673705	-7.650642	4.581561	-14.453067	7.1860776	-3.1212227	8.515612	3.747029	-10.886143	3.0080206	-1.8414323	1.6380515	-9.6677	-6.105551	-8.580971	9.601543	-5.504356	9.591108	8.757559	8.852089	-5.7004876	4.7493973	-2.3656096	5.853266	-3.004646
ERR2146933	-2.5083995	1.0336682	-1.3892816	0.066721424	-1.1786801	-2.6314414	1.8609803	3.5110328	-0.88773835	2.4221203	0.39784312	0.50372195	-1.641012	-1.0357497	-0.8760162	-0.94872147	-0.11824954	-2.8063045	-4.9162602	0.87244856	-0.32791153	1.2654285	0.9359317	-2.7545455	0.6630826	1.0342783	0.114409104	-0.4122962	4.0837197	1.2450386	-1.1166136	-0.17517465	-1.2705624	-1.6461749	1.14103	1.99612	3.5875657	3.550276	-2.0547848	-0.76970524	-2.0215435	-4.516781	-0.35682368	-0.5632981	-0.6040457	4.263948	-2.9225705	1.8745817	-2.549237	-2.5041502
ERR2146934	-2.9677708	-8.868107	-2.6873717	2.2299867	0.539427	-3.3253694	-1.1389006	-2.0840807	0.7797295	3.6526523	-2.3957355	-0.8699298	3.3654385	1.0204531	2.6491604	-2.3488288	1.3197571	3.1147792	0.14226405	-2.297773	-1.3720709	-2.5563858	0.5734436	-3.3522153	0.67728984	0.37616447	0.414971	3.7310903	-0.50851923	-0.78114396	-0.12841992	2.5001013	0.4714141	1.3114626	1.9601659	-0.22280818	1.7232952	-4.224714	1.7679352	2.268049	0.5305864	2.1070201	0.44386983	-4.482495	1.7958038	2.311734	0.75617343	-0.8765849	-1.3173692	-2.3514082
ERR2146935	3.6586876	7.9630804	-1.1017544	0.14407334	-5.262214	1.7600393	0.021793889	-1.4263892	-10.51184	-3.3690774	-1.2075945	4.1126356	-2.9754329	1.3019742	-0.059592582	-3.460115	-3.5191793	1.0877993	1.6584758	5.6106005	0.7519545	5.565481	-4.316581	3.9181828	2.3970225	9.329889	3.176314	1.6551715	-0.18778291	1.2627605	-4.704489	4.4520974	0.6240288	3.6078353	2.8573804	-4.0403423	-0.9176979	5.031127	2.654316	1.569357	3.0166154	-0.0029510031	6.341943	-1.3900397	4.518921	-1.7632923	3.241043	4.4511766	1.445912	1.86162
ERR2146936	-3.4578795	-9.533945	-2.9553037	1.706194	1.7853618	-3.9206164	1.547536	-1.9714302	-2.6939862	2.5901911	-2.4795842	-1.7513267	2.3836007	1.645933	3.0323982	-5.4002934	1.4512306	-0.09272792	-0.6095184	-5.809293	2.580708	-1.88481	-1.0777558	0.20744355	2.249262	-2.8555996	3.3139203	5.016361	3.6509085	1.4041483	0.44167587	1.2706562	0.11603003	-4.2479606	4.9062095	-0.30240846	-4.176588	-1.7976556	9.139883	-2.75845	2.1559165	0.027757932	1.0835541	-4.4519205	0.074618705	10.944736	-4.0588503	6.0451674	3.9311879	-1.8652945
ERR2146937	-2.268356	-3.4489872	-7.4059215	-1.6821051	1.7024933	-6.0764995	0.4956091	1.380733	-2.8021073	-2.4621005	3.1630402	0.20864816	0.16631842	-0.3545698	1.2145405	-2.1421094	-1.7592311	2.2082503	-3.4792113	2.3537402	-3.1996639	0.12379243	3.827397	-3.3340456	3.9382303	-5.2172346	-0.63060445	-5.8121367	-4.8569155	1.9840407	1.4286491	1.6163057	-1.9876981	0.83770657	-6.41919	2.446673	3.527133	-1.2440794	-4.7619224	-0.88946474	-0.84959394	4.1722407	2.2987761	1.7047459	-4.354337	-2.8389733	-0.5130772	-4.5782895	4.4350343	8.63045
ERR2146938	2.1421983	4.3642364	-3.1359262	2.4309695	-2.338711	2.7076828	0.71096605	-1.1020896	-5.147523	0.32013425	-1.527799	0.64321923	0.90292215	1.0321708	-0.20930871	-1.5675344	-5.8625817	-1.4959942	5.642489	4.4337068	1.2628917	8.208345	0.3280319	-6.559659	-4.9842877	-0.30834636	-7.759371	4.2533545	-11.623421	-5.996989	-6.2041407	-5.5820923	-7.0108876	-0.815028	8.527165	-14.845201	4.5156198	-2.8713598	8.495702	2.9595037	-11.217474	-5.271541	-5.7546782	2.620913	-10.3266	0.15782839	-4.005672	1.0490354	-4.5374966	-3.523541
ERR2146939	-0.29889494	-5.548176	-3.5612686	2.5672781	1.5839278	-6.396076	4.854686	-3.8832762	-3.3371725	7.7322316	-5.1674356	-6.128073	2.756617	0.10958116	3.114236	-7.395668	-0.8316799	2.8975377	-5.0154977	-2.4459233	0.89334375	-4.326532	-1.7600391	-6.5845246	-2.1544456	5.011113	-2.5949476	6.5814214	4.465119	-5.963811	-1.0071765	13.622105	7.384445	4.992762	-4.038602	-3.9640386	3.890501	0.6895628	3.2132254	5.673185	5.178175	-4.6843514	-5.7603836	7.7196517	0.016219383	0.07965357	-0.027628474	-0.78495014	-8.471279	1.2934576
ERR2146940	-4.5699162	2.2301974	-2.212952	1.7180147	-4.924523	-1.4172066	3.9968975	2.577551	-3.624213	-3.5256276	-1.2029982	1.4381444	-1.3715283	-1.1864932	-3.5535417	-0.38293657	-3.6399894	-1.4849017	1.7294588	2.6805453	0.9962548	4.285066	0.11109457	0.9724376	-4.952325	3.0312653	-8.485021	-4.674441	-3.6479602	-3.072349	0.42481244	4.0324078	-5.800076	10.938592	3.7447307	10.828675	2.4467385	-2.6563017	-2.0717688	5.2546644	-3.06866	9.985339	15.0181465	4.244785	-5.369568	13.237448	7.071247	2.8893843	-0.74832195	-1.3782932
ERR2146941	-1.6003637	-2.4700816	-4.362376	-0.10913329	0.6322066	-6.24021	3.300201	-2.3093314	-5.6989913	0.96309465	-0.3074572	-0.02832965	5.169576	1.5437411	7.1205587	-3.2956243	-0.31356388	5.8274074	-1.9168336	-1.4226011	-0.503566	-0.83426684	1.0410379	-1.3535403	3.5543182	1.493979	1.2775719	0.15589981	-1.3385727	-2.4369438	0.7954183	-5.2513933	0.2552932	2.2593915	2.2946064	-5.7437725	-4.8616967	-5.7106647	10.576939	0.48504338	-4.348764	1.4714899	6.2340894	-4.0693126	1.42317	4.5536613	-0.0999541	5.2123666	7.0159793	-6.1246057
ERR2146942	-3.7739027	-6.92275	-1.0278678	2.9263818	-4.016717	3.3327286	-2.0249424	4.5709677	-2.7878664	-0.44050384	1.9517168	6.4824715	-1.5042771	2.8170102	-2.972033	0.94010144	-1.7902557	3.7269294	2.4777563	3.0141275	3.5939589	-0.4849414	-3.1193542	1.5157412	1.0353124	0.86825264	-2.8531182	1.9977702	-5.6072507	-0.5346885	0.80432016	1.0389683	3.310661	-1.3704144	-0.74334127	3.7035322	-3.3814197	0.015576364	-0.72795165	-6.1878715	2.1769087	-6.536121	0.41870806	-2.0946476	2.5711637	2.1650136	1.3567169	-4.1389437	-1.9985852	1.382159
ERR2146943	-1.7470039	3.8915884	-0.28762677	3.850727	-3.599083	0.70436954	4.4554677	0.44134364	-3.2544262	2.31669	-1.0881144	-3.0466423	-1.327651	-5.0832653	1.2811296	-0.46161532	-3.111939	-5.9606276	-3.685954	-5.419452	-1.8295572	3.8123524	0.50895536	-4.627351	-2.8666337	1.6167902	-3.2231736	-7.7819743	3.043065	6.600019	2.4990792	0.9635331	-4.150506	-5.0686135	3.2305963	-2.5981417	-0.33357266	6.3264494	-4.454086	-1.9452904	11.924583	11.993261	-10.590474	-6.289983	0.11384712	0.71963346	-3.4440536	8.456925	-5.391363	0.028301597
ERR2146944	1.9326715	-1.2550639	12.656499	-1.5748823	4.350127	4.3454885	-1.88485	3.3917196	5.8943834	5.1144094	-2.892277	2.8689308	-6.297028	-1.7526338	0.08884997	1.0960467	2.6339455	-3.7889135	-12.9405775	-1.3874294	5.6693263	-6.6015134	4.664568	3.6932113	6.290108	20.843254	1.7113109	1.9361849	6.1208053	-9.922568	6.8038454	-2.359116	-1.5001086	-13.53198	5.474065	-6.254623	0.8779863	0.36556575	-1.3994421	5.2634797	-13.713941	-2.9580112	8.146719	0.9207848	-0.2226715	-0.44974935	7.1894417	-2.736276	-1.0747212	1.0420637
ERR2146945	-0.6707111	-2.7748337	-2.1120949	-3.345168	7.8988385	-3.3119142	-4.6813097	3.6599305	0.9606409	4.281174	0.20408985	2.4883845	-0.7875827	-3.598004	-0.7463175	1.4687912	-2.8480422	-0.61937356	-1.6692852	-1.2990931	1.1918957	1.353658	1.1741424	2.4944408	1.478897	5.310951	3.676651	-0.67683184	-3.0841966	3.0139897	-4.076942	-2.9150064	-1.7860098	-0.6953185	-1.3528236	0.24387583	-3.157764	-1.5554203	1.5478323	-3.9084253	3.3910801	-3.309519	-4.049037	1.4115255	0.7516921	1.2317938	-0.5945357	4.551533	0.7733593	0.9078517
ERR2146946	-1.9505625	5.876345	-2.423356	0.1676238	-3.8844774	1.5426074	-0.86790264	1.2225854	-13.765889	-4.148966	-4.1841426	7.5914764	-3.163491	0.9513566	5.8767657	4.335699	-0.6414154	-0.43342334	1.4675734	9.352618	9.037151	-2.2681372	-1.2096034	-2.8676915	5.8340645	-11.053964	-6.9507923	-3.9310098	18.911726	1.7078054	-10.595872	-4.708959	-4.419619	-12.655011	-14.04614	-1.4587758	-2.130079	-2.2283251	4.2496266	-1.1187942	6.074174	-0.8314385	9.73498	6.9711304	2.465358	7.711176	0.2622147	-0.9388138	-3.2055964	-0.31869325
ERR2146947	10.9683485	14.733829	22.05747	-14.173303	8.288175	-9.791239	5.4010167	-4.217424	-14.381136	31.742264	9.290059	6.3696365	-8.282993	0.16160043	-11.593044	-0.30590123	8.330525	3.1259599	8.372326	-4.309359	2.6603413	-3.465074	-0.22032443	3.3460639	-4.521526	-7.0371137	-2.5423832	1.3871187	-1.3640287	1.2352515	4.3721843	1.7824978	-0.7197623	0.44799176	-4.133581	-0.6199945	-1.3739864	2.058724	-0.14926608	-0.2893241	-2.2902212	3.396283	0.2216827	2.5594563	-2.051122	1.1967878	-1.4532185	-1.2224592	2.4267187	1.5163037
ERR2146948	1.4710882	-1.316474	17.461018	-0.37266663	-0.5231531	6.6241446	-5.4215918	-2.1789896	6.5574527	-4.713788	-4.7975135	-5.0011363	3.8964756	-12.150277	-7.4346185	-8.8372555	0.9220256	3.0864675	-4.287404	5.4850335	0.8364672	3.6517568	-5.9722013	-1.5750765	-4.465137	-0.5550658	-16.97022	8.987064	5.5287685	8.6655035	-6.863724	-2.590073	8.002369	8.175144	-4.8439727	-10.450293	-5.2908497	-4.009068	-7.986646	4.678423	-1.5310923	-3.2746758	4.5925746	-5.602249	-4.9426794	-0.60242504	-3.224388	3.29873	6.93255	0.43945676
ERR2146949	0.44999593	4.671968	10.578059	-0.07048364	1.5827127	-1.617472	2.8390727	-0.7686756	-0.94285446	-3.5265863	-2.4368837	3.0447533	-2.6873438	-5.9340434	0.62035054	-0.84439844	-1.8053896	2.2458236	4.648317	-0.64806414	5.3884854	1.2710444	-2.7664976	-5.7701063	-1.9931488	2.7340086	-11.5887985	-2.0060468	3.1776216	-5.8713384	-11.660859	0.85102916	-5.6040025	-6.4273186	14.31803	16.377003	10.145068	4.2113028	-4.0333486	0.9793927	-1.0951322	4.678384	-4.193291	-5.31181	-0.44955075	-5.3679647	-4.7296033	1.6513883	-2.4039228	-12.0714
ERR2146950	0.64731747	8.329838	1.6223098	-2.022285	-6.6020327	3.8313687	-1.0964702	0.31862566	-8.657191	0.24195632	2.162353	3.7367792	-1.5882485	3.5853202	-3.793601	-1.351643	-1.3664091	-3.32234	-1.3461471	-1.9766443	0.03790912	5.2317195	0.3280788	-0.6427837	2.6810744	-4.2952075	10.958881	1.0693051	1.1667107	4.468282	2.8212664	2.062278	7.2137785	0.2989522	5.7759366	-1.3603706	1.0410427	0.7891779	-2.027004	3.4023855	-2.0791655	-3.6896374	-0.7434207	-4.38186	5.008657	2.6708248	15.444933	10.593637	1.9516232	-9.844447
ERR2146951	-0.9936595	2.4313676	-5.464703	5.2163324	-0.15833615	0.24132676	3.2796528	-2.5006757	-2.4978034	1.1137441	-0.18219282	-4.182322	3.8893914	0.76663524	-0.9440444	-2.222107	-3.866872	-2.163256	0.844555	0.93312085	0.67899793	-1.6832306	-0.9066754	1.2372686	-8.55686	-2.7711174	0.1976864	-9.425098	-2.1648662	1.9211833	3.8185096	-5.7580323	7.8858624	-7.366548	2.469835	0.47410235	-5.9307833	4.0771236	-3.541455	-2.4119987	-1.0934081	0.23254655	-2.515746	12.05193	0.46311954	-1.6694045	1.0284569	-0.21141312	4.973821	-0.58271724
ERR2146952	-1.5935942	-4.008628	6.739783	0.30536273	-0.38460246	-1.0455778	1.7866806	-0.3789259	5.1194644	0.79697895	0.12531124	2.2203233	-0.14330056	-1.3271292	-4.40293	-1.3237593	-2.9235935	1.8185359	1.4398638	-3.922203	-0.3224689	1.3730053	-0.48367062	-4.5245943	3.2109153	-1.3344629	0.21774557	-1.3355037	3.5072825	-2.9045072	1.6613872	-4.96886	0.5817037	-0.4756365	-4.7859836	-1.2195933	1.3405331	0.231712	3.585404	-1.7814397	4.8946385	-2.2826753	3.4049253	-10.265922	1.1342841	-5.0322905	1.4463327	2.5315568	-8.11063	0.4099867
ERR2146953	-2.2656825	-1.1577785	3.2603235	-5.5632915	-1.7884423	-2.8505068	4.8735366	3.549557	-2.2067077	-5.1009817	0.79686075	2.2277207	-2.385858	-0.2304973	-7.5417647	3.73667	1.50557	-2.6261969	-6.1359134	-1.3754269	-3.8495007	-2.3464043	3.6569996	-9.376839	1.0383954	-3.9351084	-1.8556124	1.6739233	-4.8736496	2.346831	1.5708116	-9.4991255	9.549818	-6.348953	4.8617296	-1.4181482	9.719823	2.4890885	-1.2855878	-0.036886368	1.5499277	4.7767506	3.6817496	-9.535805	7.3199463	0.19443148	1.8697996	1.3768803	-4.892432	13.228371
ERR2146954	-0.38378572	1.148245	-0.8731705	2.3092926	-2.1197588	0.83593947	0.55064964	-0.6519786	-0.13004015	0.6065297	0.18078727	-0.7664786	-0.6782786	-0.468839	-1.627971	1.3042707	0.08972173	0.44697624	1.8234495	1.0469403	-1.1891389	2.7857542	0.6368593	1.0031902	-4.2821326	-0.20372371	1.0300262	-0.88556075	-4.6701303	-0.58503497	4.4581494	-1.4999373	-3.4274464	1.0738561	2.7275589	4.1904483	-0.45224607	-3.0450168	2.3845742	2.6367695	0.61159027	1.2180402	2.6254342	7.1082473	-2.5747688	-1.0388644	-2.6501856	-0.21476507	1.7075936	-1.9027473
ERR2146955	-4.854221	15.211681	-10.79577	-4.24166	-13.2270565	6.3478875	-10.65042	-20.533224	18.85674	7.2569785	-19.528774	19.963293	-5.3752856	-4.3685985	0.062983096	3.3174088	-10.326271	6.6113935	-0.6479619	-17.458925	3.2532127	-5.8981595	-0.3739984	-1.4240803	0.2999921	-3.7428448	2.998893	-3.1450353	0.26169676	1.2674978	-1.584498	1.4733503	1.6277981	2.4384181	-2.8919663	-0.86063606	0.13839722	1.4429461	1.506914	1.171166	-2.0446053	2.1763885	0.4310838	-0.38531893	-4.2925696	-1.291325	-0.6355508	-1.3590544	3.1881976	1.7200665
ERR2146956	-4.3578167	7.902287	-9.527688	-8.784107	10.270741	-2.3143065	-13.724349	-1.6092149	3.8329577	-4.7606635	-3.4985902	3.1225116	4.173402	-4.590141	-2.149411	-10.889743	18.507858	7.971804	-9.932275	6.9156866	-9.416837	9.607355	-17.690422	13.003705	-9.153328	-5.7055883	-0.12870826	-3.9613652	5.1195936	-9.905848	7.855896	-2.1951687	0.061310437	-0.08848326	2.5649757	-3.4871824	6.7974896	7.9010715	2.7535748	-4.874308	1.6890006	1.6893785	1.7031996	0.14338833	2.7280104	1.2267444	1.440899	-0.37479714	-2.3999474	-3.0836508
ERR2146957	-4.0314126	-2.9905915	-4.003735	-5.142775	8.033145	0.7487832	-3.9781718	3.8513315	-0.53224605	0.51897	0.82346016	3.1412053	-0.50580066	0.24531074	-2.535187	2.2391007	1.6173723	0.06359651	-0.94793344	-0.2597236	-0.297395	1.6102294	2.000238	0.6596412	-1.572197	3.1268525	1.4487199	-4.093939	-0.15560113	3.0598273	-0.8335771	-4.0218883	-2.294126	-0.6129475	-0.3314726	-2.118292	-1.0260537	-8.09909	1.2524855	5.8674583	0.0033655888	-2.4895146	-2.4937732	-0.18969318	0.5685133	1.7682779	-1.3327857	5.397441	1.4373218	1.6884378
ERR2146958	-1.2036506	3.244157	-0.8973263	2.7315588	-5.57571	6.5556583	-2.2996793	1.8178697	7.408445	5.0782785	0.6872174	-7.746187	-3.7032194	3.2485125	-0.8763124	-1.3323609	5.7197194	-8.5004225	-5.48628	0.3997217	-2.4220538	3.9726784	-0.06663408	9.296897	-1.7067273	-1.0427285	7.043501	-1.3032523	-4.45585	-5.135005	-0.093405575	9.73967	-0.4110753	-6.3951254	-10.292707	1.831659	0.03854629	-10.735336	-3.9048736	8.891823	-1.1692873	12.681128	2.9820323	-7.5337653	-0.59605896	7.383132	-14.676912	-5.6327734	-8.458918	-3.2032542
ERR2146959	6.8506336	12.266611	14.864223	-9.876272	1.0276507	6.0215163	-7.7888002	3.1904552	-2.158942	4.2308626	-4.0057797	-7.9413977	-1.3274188	16.095959	19.614063	-8.013016	-14.533145	5.760315	-10.5820875	1.0834291	-16.655746	-3.2141392	0.7707284	1.482982	-4.0924726	-0.5805013	1.0962855	4.283691	-8.624329	3.910056	-1.9779528	-14.425893	-0.13097204	-4.5258436	-1.6909676	7.32882	0.6542916	0.12801051	1.8716084	2.5478468	6.5094705	-1.9618745	0.4859192	-2.088934	-3.4094958	2.8651984	1.3148016	-3.4291966	1.3807735	-1.8186035
ERR2146960	1.1623003	0.61758757	0.67682695	1.701351	-3.8132787	3.9623022	-1.2868038	-2.0733516	-3.374221	-2.9283347	-4.270715	-2.4683557	-5.5094366	1.4520516	-1.2442219	1.1876053	0.684308	-0.2867736	0.9618346	5.4052925	1.9059929	1.621311	-1.517071	-0.24797194	1.6020554	-1.4657707	5.267899	-2.4040544	1.4414743	-0.18544513	0.2721054	0.0018235255	-1.4482554	-4.2490177	-1.0735649	2.118572	6.260137	2.123598	4.746574	2.2493083	0.24194844	-1.5493493	-5.8682294	-1.2364787	7.811352	-1.1735983	0.5698474	-9.015661	1.9131328	4.7224813
ERR2146961	-2.700659	-2.3224187	-1.6118199	0.3653344	-5.1470337	-0.9689267	2.1590402	0.88256496	-0.97584856	-0.20186034	3.7340643	2.5167308	3.2905004	2.1287057	-3.0631728	-3.554285	2.0043178	-0.9359891	0.20994593	-0.014195708	1.634087	0.8628761	-2.4623778	1.1948855	-0.6524286	0.2716815	-3.3199642	-2.926505	-0.7600363	-0.11479505	-2.8162017	-0.9705736	0.028898159	0.28687993	-1.5042728	-0.6410982	-5.072806	-1.3839248	1.2946533	1.7395077	-2.526732	5.986725	2.4373417	-3.9663439	-6.903743	0.36007252	6.2218785	-3.289871	0.35746008	6.3044205
ERR2146962	-0.25354078	8.384125	-2.7990975	3.2470727	-0.66808313	-1.5199733	-3.3379507	-1.0840291	12.937231	9.95883	4.113845	-6.7036047	10.068431	21.052979	1.6276976	10.246535	13.440015	4.1393356	10.441848	-6.569822	-9.290826	13.789278	-6.4883404	-14.819783	11.495401	9.013024	-6.575771	-10.090728	5.987153	-2.4492402	-3.6359675	-2.017848	1.1981612	0.22443385	1.2155696	-0.43129164	-7.4169607	-0.14214137	-3.449734	3.249652	1.2922735	-2.3381422	2.4428906	1.7716396	3.0536327	0.44047713	2.3822877	-1.3538924	-1.2629763	0.29037258
ERR2146963	-1.9746238	3.4640763	-1.9623342	-0.23549889	-2.8472214	1.3173982	1.9880804	2.325774	-1.5385991	-3.2074678	-0.6117834	0.65171224	-2.8215034	0.3812318	-1.8649657	1.2250323	1.8239233	-0.33004192	-1.2796774	2.1783106	2.622648	1.5993677	2.2643287	-2.977436	1.0422633	-1.2735802	0.79114586	-1.9544216	-3.7971368	-1.6149067	3.0150814	1.3461584	-1.2251636	6.5388603	4.3176365	4.586689	2.6955888	-8.497907	6.267088	5.053628	-3.5577946	-0.15574016	5.2465754	-3.6269894	6.119578	1.2702247	-2.461552	-0.07850923	10.076629	11.327158
ERR2146964	1.1499242	8.975444	-4.634227	-5.1876287	0.50488186	6.8462577	1.0317187	-3.7785892	-5.9855976	-10.712343	-0.16311555	-0.4082596	-3.8371613	-1.2568262	3.8173735	-5.0940957	2.7613854	-0.21141015	16.975185	-4.4043407	1.9721764	8.623841	-9.7853985	-0.46509698	3.8792932	13.39682	3.4309843	14.975566	6.6042166	18.685839	16.207949	-1.4479498	0.4858836	-2.4425898	-2.1727333	4.2256274	7.4815626	-6.974799	0.46576682	-1.4888513	-0.7398736	2.6702728	-4.78533	2.3550656	-6.1106863	1.8607912	0.5121364	-6.094158	-1.4056057	0.5614972
ERR2146965	1.934911	9.239658	-3.9039013	-0.34821567	-6.254398	-6.9902544	8.215578	6.7329226	1.1058384	-14.039901	-1.4819585	-14.229102	-9.445406	-7.661905	-13.82962	11.37302	2.3685155	20.07724	4.077811	-10.367203	-19.463434	-13.469117	3.8919044	9.141633	1.8319744	0.51188445	-6.6431217	3.1350553	1.191622	0.5078285	-0.28071252	2.9059308	-7.3177524	-5.896406	-1.4638414	-2.5047271	-2.6912687	-1.6899543	4.973165	3.6942954	1.1371074	-4.296316	-0.896451	1.270009	2.4153461	1.1121293	1.5898305	2.4015176	0.3819909	-1.5219096
ERR2146966	-1.1796862	1.3533045	-0.70729434	1.3039579	-4.586768	3.9600778	-2.763823	0.046390273	-3.7623568	-0.8179912	1.540622	0.74388635	1.5479323	2.2229116	-0.22115724	0.5073623	2.651957	1.2719615	0.5116875	4.2408457	1.9409608	2.3499038	-1.059211	-0.48266238	-0.2769563	-1.9540468	-0.8731414	-1.8708949	-2.807713	2.1476295	-3.860949	-0.8633071	-1.862205	-0.9029959	-3.628733	0.7971452	1.1792616	-0.9873596	2.542474	4.2041383	-1.5910875	1.2140341	-0.0074795354	-0.80497277	-1.2463408	0.66243285	3.0495389	-2.771379	0.5438855	4.567872
ERR2146967	-2.4239805	2.7803698	6.677527	-3.929609	-3.1667972	-0.9363391	-1.261673	-0.97122306	-0.4181712	-16.799408	5.4835763	8.943234	-5.9902163	0.5515024	15.874113	-9.245453	23.404106	-13.90521	10.657392	-7.217694	-2.0342638	-18.108337	-2.2827	-7.0893445	-5.49763	0.72623104	1.5625982	-1.0145684	-10.402158	-3.5178833	-4.8739514	4.2129927	3.1874127	-0.9583705	-4.8986945	-0.8043361	-6.4504232	2.651201	-0.62404245	4.5323687	0.36859682	-2.556885	0.3786427	-1.1340117	-1.4022311	-2.9072974	1.7242748	4.375785	0.28635892	-1.7813708
ERR2146968	-2.214932	16.597786	-2.9599187	-6.198612	-6.034242	-13.346444	17.626265	31.220585	23.315844	6.095945	-8.4924135	1.5353427	6.7648716	-1.025858	3.8159862	-10.25775	-4.120376	-0.6965147	7.945528	10.286735	8.461046	-3.9601681	-2.8341818	4.0549827	2.7099023	-0.90732867	4.502187	0.095621325	0.21069239	5.7377553	-1.4058305	0.94942266	2.2273316	0.3158389	-0.6447104	-1.2424538	0.63478994	2.8913577	2.317115	-2.1148648	-2.2771358	-1.6184901	-0.16455755	-0.28445992	-0.29633334	-1.0791394	-0.9782305	0.012643273	-2.0159035	0.089272685
ERR2146969	-1.1975751	3.73124	-11.006652	-16.725878	18.080528	-5.391165	-19.588863	3.8371253	2.3271744	-2.3910742	-2.7846308	-4.7365246	-2.2402177	-3.7197788	-7.513049	6.755801	-16.520113	-17.150303	13.399586	5.178543	-2.786931	0.20849806	0.8072174	-8.510412	-2.3789601	-4.334665	-4.2180943	6.2520356	-2.4344838	-7.708118	6.5459795	6.4601293	-1.2977477	-4.294115	0.68714184	-1.8395137	-7.9341893	5.199043	3.0757089	3.6022778	3.1065226	-1.1071961	4.7395916	-4.0465813	3.4205735	-1.2521162	4.3335605	-5.8191566	-1.6968105	-1.2424254
ERR2146970	2.954143	2.4234724	17.32961	-5.477787	2.9693809	5.3158336	-6.910835	0.032085396	5.751703	-4.8588786	-1.979899	-5.194258	5.5312934	5.8484917	4.475117	-3.9120474	-4.9336457	0.6050553	1.7237426	0.060851146	2.304822	-1.1830148	0.87677157	4.9967957	-0.64636064	-2.4496815	-2.807345	-1.6426549	5.4752164	-6.807299	3.5331302	8.299505	-9.957553	5.7767806	-2.477463	11.910241	-5.907133	-7.1488457	-2.2090313	-7.544512	-6.67192	-2.693695	-5.9453382	0.83444977	2.8255453	-2.319452	4.0444946	12.977735	-0.8609933	11.484884
ERR2146971	-5.5716095	-13.294702	4.5115685	3.1968412	0.009426678	8.552953	-13.777104	10.456104	2.8622081	0.6053953	3.4899712	12.5935335	3.4080312	8.544843	6.1092134	2.235949	2.2166536	15.959661	12.513031	4.0768304	-2.356778	-1.8009435	21.663698	3.4905627	-15.667756	0.11664357	-1.8480419	3.0973773	7.4823003	6.6420054	1.9742192	7.658662	4.58061	-0.41278166	6.820639	-5.466154	1.3036458	2.75239	-0.866004	-0.38177297	0.58923656	7.3015556	3.5249906	2.2275608	3.8164797	-1.4933066	-1.3335718	-2.668163	-3.3923905	-0.49709272
ERR2146972	-3.5680988	-5.9802856	-1.0242628	1.6616731	-8.442432	5.221734	-0.32166594	8.742882	2.7001588	3.7646062	3.6661475	3.4002082	-0.28330874	2.4134085	-6.102761	1.2581818	1.5262768	0.2763562	-4.102899	3.6967425	4.500741	-1.0542121	1.183287	-1.3136461	-0.50813454	4.388286	-0.18814842	4.4876504	2.572404	-10.031137	7.299188	-2.484718	0.8451846	-1.5566385	-1.9035512	1.7624099	4.092451	6.245014	0.92986476	17.514473	15.928953	-0.8047717	-5.376554	8.577093	-6.3283186	-0.5468196	-2.8255818	2.9778666	13.5295515	-1.5841724
ERR2146973	-0.63487655	0.97396964	0.7247659	2.9600327	-3.4629543	3.1800053	-0.8444972	-1.4215068	-0.52025145	1.0187013	-2.2839363	-5.658811	0.99365014	6.7046957	5.0531106	0.6577939	0.16538586	2.1881719	1.2626162	6.3955956	1.7107176	0.75409645	-3.0650961	0.08474981	-2.732008	-9.194926	1.5188993	4.853136	0.10525463	-1.3939416	-0.16312654	4.9096847	-10.489734	0.73418385	-3.2067251	-10.641569	2.2538962	0.7424212	2.357725	1.4942478	-6.9359736	5.9549274	-6.6699944	4.10008	4.871693	-8.917812	1.844583	2.6446998	1.5417814	1.7349285
ERR2146974	-1.3233893	7.2897873	9.595082	-5.076226	-1.7418448	-14.031789	-1.4577532	-7.596709	-4.498247	-17.949724	-5.526096	-2.1229546	24.182499	19.944742	-18.419666	2.315768	-0.5323817	-4.940128	-4.786758	-9.01287	13.858864	-0.28785676	5.8461523	7.8672504	-6.335164	1.7632806	4.739529	0.59994626	-1.9753462	3.8225107	-2.0827484	-0.31873766	-2.1237662	-2.9074948	-1.6710619	-2.8887556	0.9264741	3.2493324	-0.26294902	0.31904423	1.8209759	0.12909374	-0.5353133	-0.8592979	-2.5361145	-0.45774204	-3.0718703	-2.7298253	0.026848234	-1.2793857
ERR2146975	-2.0733275	1.9130466	5.0901446	-1.0987595	0.97223103	1.5260966	0.16872236	-0.97164637	-0.42487985	-3.3329358	-0.7241782	4.6989756	0.44265264	-1.2077416	3.465823	-2.674226	1.4969687	-0.87019694	-1.3231865	0.6614608	3.0601087	-4.4109063	0.96675545	-5.5846934	2.3541262	-3.7070158	-0.6369931	1.463652	1.3653401	-2.5141106	4.8507657	-3.0319233	-1.3726085	1.3763804	3.716424	1.6485	-0.489956	-0.85195655	6.4719706	4.758053	4.2974563	-4.540488	-3.5233023	3.4448729	1.9755622	-1.1128314	-8.196226	0.42716324	-5.7517495	1.8673933
ERR2146976	1.4246969	11.888084	-4.6758595	-2.8371217	1.0686408	-1.1181798	-6.416505	6.865309	-0.18590665	-3.668658	15.885679	-11.661868	-4.8717294	-2.689754	16.104399	26.22532	-1.6418481	7.43156	-8.295653	-5.295284	20.719036	-2.590112	-9.466518	0.9153973	-8.168388	-0.7628217	1.007698	3.3550272	1.7531452	-2.1405814	2.4002402	-0.060076103	6.956036	7.109629	2.6686728	-1.6902086	-1.6426369	2.2246554	-1.527198	-2.0185668	1.2074594	0.045176767	1.5488918	-5.1149497	-5.4493575	1.0835823	-3.3386538	2.2607913	-0.46794713	2.1209445
