,E0,E1,E2,E3,E4,E5,E6,E7,E8,E9,E10,E11,E12,E13,E14,E15,E16,E17,E18,E19,E20,E21,E22,E23,E24,E25,E26,E27,E28,E29,E30,E31,E32,E33,E34,E35,E36,E37,E38,E39,E40,E41,E42,E43,E44,E45,E46,E47,E48,E49,E50,E51,E52,E53,E54,E55,E56,E57,E58,E59,E60,E61,E62,E63,E64,E65,E66,E67,E68,E69,E70,E71,E72,E73,E74,E75,E76,E77,E78,E79,E80,E81,E82,E83,E84,E85,E86,E87,E88,E89,E90,E91,E92,E93,E94,E95,E96,E97,E98,E99,E100,E101,E102,E103,E104
target_dataset:OVKATE,0.40317303,-0.14215484,-0.7139722,-0.7578597,0.48537305,-0.53391486,0.26219496,0.06769991,0.20182016,-0.22231434,0.5028071,-1.2224926,-0.8579717,-0.57532406,-0.7091855,0.95374876,0.6413905,-0.0547387,1.3322884,0.41840902,-0.37831536,0.043537505,0.20488344,0.8304226,0.66066974,0.062030464,0.13985556,0.06300907,-0.061406888,0.97494256,-0.80361795,-0.47561938,1.0669079,-0.06534113,-0.13957208,-0.5386504,0.15236127,0.096918374,0.022227239,-1.468017,0.89936274,-1.1735595,-0.5997155,-0.08524131,0.714406,-0.101223595,0.2986534,-0.8165759,-0.49548933,0.7164798,0.9965393,1.2419319,-0.8619455,0.6333344,-0.014145505,0.65965664,-0.30868894,0.5565974,0.56183875,-0.080163896,-0.1773133,0.027633488,-0.38432044,-0.32430246,0.39288807,0.57822067,1.200205,1.9635988,-1.0484812,-0.36807722,0.2080682,0.1385978,-0.939254,-0.012464073,-1.304969,0.37795392,-0.66564304,-0.26719144,0.34334496,0.24623592,-0.013086963,1.227586,0.09743637,-0.31263694,0.34148386,-0.30533192,-0.71070224,-0.9026139,0.6224934,0.39717042,-0.32042328,0.80929685,-1.1798383,-0.38836938,0.37528202,-0.4077658,-0.34696,0.31824696,0.3208449,-1.0495782,0.46198484,0.683792,0.2955454,0.59482414,0.67952776
target_dataset:RVH-421,-0.13539003,0.5054557,0.81954944,-1.0000339,1.5644189,-0.9674572,0.61980075,-0.4262193,0.65878975,1.4906292,-1.0402254,0.20552717,0.84856606,0.053865448,0.2245655,0.26596197,0.9987105,-0.8867297,-0.8381387,0.30210662,-1.3109021,0.43630442,0.6203202,0.4765637,0.30202013,1.2981366,1.5223715,-0.1675041,0.56189054,-1.3459435,0.8357515,-0.3871971,1.4053366,1.2035481,-1.2577455,0.96755517,1.0390487,0.9220624,-0.26443818,0.25699556,1.539407,0.67531484,0.21016258,0.0028652358,1.6572034,-1.579782,1.2726723,-0.13235316,0.17341128,-0.04829093,-1.0690453,0.9906264,1.0441716,-0.8146219,1.255386,-0.83420604,0.65644217,0.042169563,-0.23927855,-0.034507148,-0.76014996,0.83835936,-1.0205561,1.5434891,-0.08983662,0.06990279,0.39736214,-0.54781234,2.419366,1.6285938,0.66892844,0.78548366,0.52837557,1.4292482,-0.4029827,0.46231598,1.462811,0.16090883,-0.83865154,0.56508785,-1.4515523,-0.9255831,-0.5833999,-0.049200475,0.5528628,-0.65697956,-2.2359061,0.55831504,-1.1658788,2.0181935,0.5418743,0.1697006,1.1496626,0.40525955,0.39706254,-0.385425,0.974772,-0.96350616,-0.86653197,1.1112025,0.3938324,-1.3913682,-0.078775816,-0.82702136,-0.29005352
target_dataset:TE-15,0.06622309,0.8202133,0.6551259,-0.4347599,0.7951265,-0.48126054,1.1781049,-0.093093395,0.4088832,1.8066177,-0.15279837,-1.1719875,0.017933682,-0.30683124,0.5737761,0.41534343,0.71401805,0.16844952,0.08546317,0.35155314,-0.9166663,0.30383596,0.7848381,0.046938375,0.37931436,1.3660579,0.7684353,0.30068892,1.0815574,-0.9306472,0.8833663,-1.0374253,0.98172814,1.3559998,-1.2797892,0.68468165,0.74587715,1.2328755,-0.250003,0.2520058,1.8652017,-0.23741114,0.75636446,0.2953052,1.5030466,-1.2708343,0.7005778,-0.8331315,0.8573255,0.048940174,-0.8911963,1.6188082,0.87850446,-0.32772303,1.129556,-0.93115956,0.13837379,-0.069021314,0.4529907,0.58117235,-0.51079595,1.3054693,-0.4245233,2.2789853,0.7932983,-0.070571244,-0.20334184,-0.036575004,1.905357,0.40565392,0.64035994,0.47986513,-0.52975154,1.395807,-0.5652637,-0.020419866,0.61897576,0.2429316,-1.4521174,1.5406331,-1.7419455,1.0975697,-0.64755327,0.1641315,1.2405373,-0.5287338,-1.4849881,0.7961551,-1.2840633,0.815323,0.22300404,0.005643524,0.9374175,0.39876005,1.097115,0.013163937,0.9694541,-0.2573939,-1.0439159,0.5535235,-0.43578053,-0.87579036,0.33317924,-1.1036417,-1.0202982
target_dataset:Hs 571.T,0.64647794,0.2895946,-0.006506823,-0.17474608,0.04623857,-0.2391215,0.45521086,0.18189082,0.38884416,0.76588094,-0.1936273,-0.24583763,0.12290242,-0.54210377,0.21159562,0.32425362,-0.2011226,0.113507144,0.13777342,-0.28932908,-0.5962115,0.0040059905,0.048845872,-0.26467308,0.24791686,0.4710593,0.61060095,0.0706034,0.47757354,-0.45735186,0.07709128,-0.47299567,0.7042973,0.525367,-0.31658506,0.18435143,0.14385563,0.24586701,-0.09735526,-0.10882471,0.7993014,-0.39433232,-0.17454207,0.19113237,0.20255235,-0.3546396,0.28278238,-0.4946066,0.0628479,-0.1451804,-0.23496386,0.58078706,0.17029229,-0.21433604,0.31750825,-0.34116265,0.38916418,0.10284996,0.52002466,0.26555055,-0.02004619,0.6706755,-0.4081425,0.6666353,0.30460903,0.2834154,-0.2865236,0.29189393,0.39016297,0.12111179,0.5266372,-0.2084086,-0.057445068,0.3419483,-0.17697518,0.118356265,0.2397743,0.22657159,-0.23924436,0.5238065,-0.44375756,0.41075274,-0.115481764,-0.14930284,0.41128993,0.16139206,-0.78104925,0.29038548,-0.4245556,-0.08110955,-0.10685093,-0.12137332,0.5693841,0.31745452,0.5730545,-0.1731699,0.5469424,-0.22636798,-0.55354387,0.41595575,0.23350579,-0.53353834,0.13874507,-0.35969472,-0.12138011
target_dataset:SNU-C2A,-0.955532,0.63110673,-0.07772298,-1.2582688,0.83591133,-0.5040669,0.8450023,0.32822242,0.54710734,1.0525602,-0.44964832,-0.6995041,-0.33148614,-0.8743448,-0.53673303,1.0525703,0.41513762,-1.0311989,0.37449065,0.006362723,-1.4286686,0.53217375,0.09841389,0.47247306,1.0247958,1.2008759,1.7104206,-0.61114347,0.3788314,-0.27588168,0.58305806,-0.41687724,2.1570022,1.0238496,-1.1566714,0.1476772,0.85682416,0.22301711,-0.06926105,-0.6631564,1.306736,-0.07335532,-0.35255253,0.05532878,1.0704234,-1.3210144,0.6135852,-0.7327038,-0.42754093,0.13191432,-0.568804,2.2289543,-0.1441432,-0.4480858,1.101069,-0.09526238,0.7446079,0.5676222,0.43656665,0.12624514,-0.39198488,0.6689836,-0.30528134,0.40573502,0.41097102,0.7347946,0.41294026,1.5958654,0.14354944,0.4444636,0.61292034,-0.2184718,-0.8664643,0.7428736,-1.2004681,0.58855444,0.5611139,0.25786307,-0.2674723,1.0932031,-1.4439243,0.015285909,-0.8832041,-0.176126,0.729787,-0.43273848,-2.1827803,-0.09782229,-0.53792703,1.2620502,-0.24013534,0.14563294,0.1252424,0.15867923,0.417762,-0.24286999,0.7225196,-0.59989995,-0.16437314,0.26431835,1.259686,-0.21346387,0.3854817,-0.40923357,0.43862396
target_dataset:IM95,0.18142362,0.08286706,0.084321745,-0.24500121,0.47057632,-0.4527347,0.08184161,0.20215872,-0.4497978,0.05847156,0.044534355,-0.9794875,-0.9760426,-0.08600085,-0.5818984,0.7554271,0.8373176,0.26867384,0.9492781,0.8816061,0.08072297,0.186079,0.55307937,0.6736744,0.19232973,-0.14062743,-0.13886675,0.3865102,0.05083589,0.44111273,-0.44775686,-0.66293454,0.12515825,0.22017635,-0.065211855,-0.2587977,0.02780857,0.12492574,0.40741092,0.0051430613,0.5167968,-0.70192873,0.44489563,0.1149658,0.97350025,0.01726881,0.29177615,-0.62179744,0.40722337,0.44550884,0.61920226,1.1771406,-0.28508458,0.19237079,-0.061609156,-0.13354257,-0.7244437,0.24774587,-0.05886064,-0.19385378,-0.47556898,-0.07911742,-0.09517093,0.5300346,0.28090754,-0.21930856,0.5384837,0.8069163,-0.18610732,-0.28956217,-0.4233281,0.041478008,-0.87021154,0.124375135,-0.68238544,0.34111926,-0.655181,-0.20237625,-0.19314152,0.23911719,-0.17946182,0.403139,0.19146933,0.52311444,-0.030854613,-0.19076332,-0.26171133,-0.4308255,0.4647664,0.31203642,0.65724546,0.748617,-0.72740126,-0.4383054,0.59006995,-0.16597068,-0.25423902,0.49011427,0.21406443,-1.1217823,-0.82654047,0.6093455,-0.06350708,0.41633028,-0.6206449
target_dataset:CMK-86,1.3055792,0.26852056,0.14872235,0.31648326,1.157898,0.25331008,-0.18234079,-0.48572668,-0.41037107,0.36914462,-0.77668214,-0.7513062,-0.63583404,-0.44266498,-0.496213,1.0310267,1.1150745,0.7223565,0.078444116,1.225284,0.0012486461,-0.33368665,0.29713762,1.0899987,0.13123389,-0.73068184,0.3755756,0.77647966,1.0587853,-0.06911401,-0.08346549,-0.44230413,0.14371362,-0.19730195,0.44150186,-0.4159399,-0.06297018,0.45406723,-0.12714842,-0.20723878,0.63735366,-0.109603,0.40248317,-0.3557586,1.3026457,0.01286074,1.0539976,-0.65030926,1.2590071,1.1004026,0.22342542,0.6885768,-0.4613177,0.57317597,-0.8201642,0.31376004,-0.42309806,0.050540023,0.816378,-0.33696237,-0.017041218,0.2717359,-0.24709532,0.82062,-0.008563079,-0.063469276,-0.10196569,0.4593644,0.42928752,0.49182707,0.33811644,0.12667485,-1.0620112,-0.111849725,-0.0024027228,0.22541429,-0.3518128,-0.22110002,0.08201925,0.15950556,-1.0538453,-0.48024386,1.0500624,0.7013022,0.28972775,-0.4794138,-0.6982451,-0.84903634,-0.048698194,0.30304986,0.8667964,0.34225768,-0.09464959,-0.27135935,0.8005573,-1.1004345,-0.42177573,0.15568502,-0.7287778,-0.3393182,-1.4570043,-0.064142965,-0.37699443,-0.21630225,-1.1640978
target_dataset:KLE,-0.0011427253,-0.75177246,0.408127,-0.30879605,0.3847288,-0.7777842,0.49295378,-0.058493584,0.71250945,-0.18041137,0.6062361,-1.4936208,0.9984602,1.7811756,0.6105857,-0.7714217,0.50852346,-0.14474162,-0.27685136,0.85565376,0.7063206,0.6983755,1.0333008,-0.014365376,-0.2963015,0.7677249,-0.60249484,0.30561543,0.4778137,0.24166869,-0.19946069,-0.870636,1.052416,-0.7223397,-1.2108979,-0.4751992,-0.2150461,0.78624165,-1.4127493,0.4375686,1.2250768,-1.2103754,0.6956862,-0.8362268,1.6096653,-0.7738756,0.48316425,-0.88257813,0.92262447,0.15082985,0.11407835,0.7247689,0.28972423,-0.37300062,0.6041833,-0.13314427,0.5416393,-1.5559564,0.6407702,1.9032515,-0.020434689,1.3677496,1.0784768,0.7333434,0.5880793,0.90145713,1.6317594,-0.10774911,0.9416798,-1.0211966,0.16222334,0.49801165,0.023185816,1.1269709,-0.38283804,-0.2663591,-0.49997944,-0.01237607,-1.7198629,0.1152159,-0.5230557,1.2761668,-1.3796166,-0.07880296,1.4139942,0.83669174,0.24276601,0.6682927,-0.63265526,-0.22946958,0.4384773,0.23913169,-0.0120214075,-0.6130877,1.03296,-0.3666518,-0.1027276,-0.75430983,-0.13214406,-0.8538261,-1.0390724,-1.131093,0.33295912,-0.09202007,0.27834737
target_dataset:UACC-812,0.51693463,0.030088648,-0.2692766,-0.19065505,0.15040964,0.043523192,0.16391017,0.15430227,0.31151396,0.1504401,-0.055942535,-0.36599383,-0.35878322,-0.8434803,0.0349276,0.76126903,-0.2769206,0.15171403,0.34750092,-0.3047483,-0.5431916,-0.19094683,-0.22093041,0.013724517,0.4394439,-0.05679543,0.17821297,0.12379548,0.16760194,0.13056792,-0.015490574,-0.3362091,0.6025421,0.049673356,-0.064258546,-0.123937234,-0.016699113,-0.31196958,0.010991717,-0.7523979,0.34722137,-0.22599,-0.7210152,0.2349649,-0.16578738,-0.021007895,0.023183718,-0.6531143,-0.26905042,0.0035351068,0.41205782,0.17377228,-0.23449819,0.18170425,-0.19544806,0.2293693,0.2579879,0.27582026,0.7535055,0.03651777,0.44420022,0.20679475,-0.034786,0.02040017,0.10058599,0.5221549,0.00621292,0.8383149,-0.4632349,0.09292135,0.44531977,-0.31902093,-0.14940894,-0.05246087,-0.3028235,-0.054968253,-0.18617499,0.20521758,0.5179086,0.072432466,-0.07552538,0.4676543,0.3016041,-0.043397874,0.2610117,0.19385155,-0.51326245,-0.21167052,0.19640562,-0.22450514,-0.21164072,0.25822687,0.07622172,0.06486825,0.3423912,-0.3163665,0.1399785,-0.078904964,-0.16581866,0.16332209,0.594335,-0.14621767,-0.11685443,0.105107784,0.37624606
target_dataset:TE-14,0.7524127,-0.16608535,-0.15986396,0.18393509,0.10741934,0.32251424,0.07044288,-0.08579895,0.18912438,0.20453504,-0.24292868,-0.5254959,-0.28534016,-0.45525903,-0.121168695,0.7054098,0.029394891,0.5692138,0.37454644,0.18019271,0.00033014733,-0.2648674,-0.19312727,0.14641602,-0.08118786,-0.26016247,0.32183075,0.4543036,0.524412,0.069403976,-0.2132583,-0.28222716,-0.00573826,-0.07807654,0.22951132,-0.30761513,-0.05117006,-0.090893775,-0.10674295,-0.36862493,0.36001623,-0.4058376,-0.21139142,0.22551869,-0.1251064,0.12767571,0.23511484,-0.3956365,0.2767581,0.21733528,0.35770145,-0.05622682,-0.38187218,0.17233169,-0.64705706,0.2651002,-0.04524908,0.19124463,0.7482006,-0.0848109,0.37735257,0.32729235,-0.0043578222,0.25446814,0.2070633,0.07971487,-0.14077349,0.48008242,-0.13404068,-0.10484772,0.49984488,-0.09142301,-0.4772517,-0.46405888,-0.001029931,-0.021893453,-0.29869932,-0.16784866,0.32569125,0.13522525,-0.018519875,0.20251992,0.42910567,0.11003101,0.0232509,0.14043707,-0.25945914,-0.37707224,0.13577913,-0.58731365,0.21909483,0.05880232,-0.0056676976,0.12953855,0.5384872,-0.6297889,-0.20779799,0.2087804,-0.45145953,-0.123845056,-0.37698832,0.015140681,-0.1451287,0.07847256,-0.38431036
target_dataset:CL-11,0.9607278,0.2564473,0.30190334,-0.13491626,0.7956492,0.07722683,-0.012959227,-0.26165324,0.09576941,0.40827483,-0.8494325,0.06231481,-0.4655008,-0.6598526,-0.20820445,0.959177,0.5369121,0.6241198,-0.23378468,0.49007636,-0.37768054,-0.45208395,0.16273525,0.5183557,0.24416265,-0.5517728,0.34763318,0.5532806,0.5315746,-0.22737078,0.08490046,-0.29942924,0.19216967,-0.09039986,0.38066176,0.20437236,-0.25823003,0.0744568,0.11970177,-0.36426666,0.36106336,0.4354904,0.013379309,-0.16132356,0.366418,0.21374774,0.73813885,-0.5713921,0.3946854,0.20591995,0.28955242,0.35491666,-0.07633883,0.26686227,-0.58045995,0.13731423,-0.22691971,0.46306577,0.6728055,-0.34596893,0.12649661,0.1771496,-0.52991056,0.78516847,-0.18863751,0.07584423,-0.46751434,0.30295873,0.51311016,0.81126744,0.47337934,0.19935083,-0.17272443,-0.010821838,0.1759176,-0.33959475,0.058871046,0.47636726,0.3548025,-0.13114294,-0.46650332,0.043450937,0.9783477,0.618853,0.45686436,-0.17289579,-0.57381725,-0.34567547,0.0011864491,0.06775808,0.6957486,0.20335935,0.32549858,0.068917125,0.5550533,-0.47512692,-0.038767464,-0.06929403,-0.71654624,0.250043,-0.17735732,-0.50184596,-0.14577526,-0.11256714,-0.8496265
target_dataset:Becker,-0.27568847,0.40143138,-0.080033794,-0.46153733,0.7136907,-0.8247885,0.756842,-0.57680976,0.75308007,0.29927152,0.040597033,-0.6335591,0.20215946,0.056320913,0.059705622,0.85089755,0.76329565,-0.22557256,0.14366488,0.17899111,-0.61186713,0.05317491,0.57935023,0.4372584,0.10346914,0.79676694,0.35877383,0.16209033,0.3245006,-0.028927341,-0.23663378,-0.6467319,1.1609474,0.3080758,-0.7710259,0.10075734,0.49111545,0.5084636,-0.47503325,-0.5549154,0.9408968,-0.09888297,-0.31587577,-0.09073714,1.1300092,-0.49438798,0.5773239,-0.64862496,-0.17983447,0.020755127,0.07430464,0.6746991,0.047422018,-0.2920532,0.55145,-0.020747488,0.31434307,-0.120256595,0.37443155,0.42151374,-0.103544235,0.6704564,-0.17383732,0.51105785,0.3009431,0.4285501,0.8250906,0.7550934,0.7422303,0.23102221,0.47648656,0.5056984,0.111126214,0.982587,-0.7491625,0.32222068,0.21395308,-0.21005689,-0.8194129,0.14108995,-0.76873684,0.6155158,-0.090589,-0.04068066,0.7766299,-0.03916937,-0.9278414,0.0087031685,-0.30315548,0.76081884,0.14698717,0.60347366,0.113556415,-0.30732632,0.43816555,-0.23612727,0.3225806,-0.31490546,-0.35735437,-0.38520962,0.027346425,-0.43018073,-0.004211244,0.1990377,0.49767914
target_dataset:JIMT-1,0.9552057,-0.41276658,-0.22042078,0.17512992,-0.2697151,0.5396698,-0.13170177,0.10937906,0.03497901,0.06318786,-0.1414988,-0.15001103,-0.20988038,-0.5678992,-0.29577002,0.6252238,-0.33003017,0.56896913,0.54963255,-0.056552656,0.16887352,-0.20601486,-0.24823152,-0.090851456,-0.32823914,-0.5067612,0.1760084,0.43850398,0.29838347,0.10869008,-0.2981532,-0.09894109,-0.16694753,-0.17795868,0.6136833,-0.5853084,-0.023369446,-0.54106677,-0.050709337,-0.43963298,0.08103713,-0.5442246,-0.30879214,0.031364493,-0.6044628,0.24896955,0.08633347,-0.16961835,0.19073246,-0.027533904,0.47337788,-0.260575,-0.5666933,-0.02980396,-0.78251076,0.30126366,0.05567214,0.20204318,0.6101636,-0.082034186,0.3639915,0.16703276,0.14426422,-0.03603828,0.058125593,0.2901004,-0.10744198,0.19728278,-0.48084405,-0.2787948,0.42517728,-0.298799,-0.347359,-0.5604707,0.17167239,-0.12482065,-0.33597496,-0.21965502,0.75912505,-0.041510146,0.45988074,0.25608227,0.417037,0.060162842,-0.20783211,0.2868264,0.055106066,-0.35236767,0.4054162,-0.8600423,0.09187189,-0.1263265,-0.036637317,0.25922552,0.09761387,-0.6891318,-0.33730543,0.2921153,-0.33727002,0.007818033,-0.16145717,0.1916954,-0.30731755,0.13765633,-0.18225622
target_dataset:COV434,-0.18411729,0.46743846,0.5113293,-1.0650078,0.10297817,0.050223026,0.40149724,1.0960476,-0.33431715,1.2321109,0.23860441,-1.4862802,0.32244712,0.23428121,0.26728064,-0.1932402,-0.13150255,-0.12117348,0.120385334,0.5077365,0.085147396,1.0579933,0.57578033,-0.17798945,1.0883973,0.79983246,0.3306868,0.033407375,0.62340283,-0.93363124,1.4048725,-0.46305946,0.9591861,0.31035998,-0.9943983,-0.3055737,-0.30331033,0.19429627,-0.27407944,0.9376107,0.11747891,0.03138109,1.0311147,-0.40092134,0.64266133,-0.52721554,0.19998765,-0.73721933,1.2466831,-0.4095805,-0.97006434,1.5012255,0.34781775,-0.1864934,0.8143662,-0.7511092,0.6667682,-0.5254712,0.4252798,1.3013664,-0.25323927,1.1886578,0.9371877,1.1230557,0.51946807,0.7622752,0.1953812,-0.1087724,0.50099367,-0.4584917,0.18166625,-0.9064289,-0.8030772,0.60977554,-0.012308985,0.029353775,-0.2154564,0.7433553,-0.35209626,1.4630362,-1.6103971,0.90932655,-1.0369315,-0.21460246,1.3994973,0.3590619,-0.7208011,1.1593722,-0.79008895,-0.31313625,0.15489864,-0.4818185,0.5519764,0.49075627,1.0469594,0.24900612,0.4410845,-0.8540132,-0.1834803,0.41692644,-0.184926,-0.719897,0.8913149,-1.1961157,-0.5920235
target_dataset:VCaP,-0.73486125,0.8697696,1.9951135,-1.2718862,1.4162872,-0.88352907,-0.7873765,0.604636,-0.30320904,0.0056509157,-0.9806453,1.3844982,0.91682804,1.89677,1.3394574,-1.7733154,1.3066313,-1.0060308,-2.5265856,0.954247,-0.024946034,0.9670486,2.0508828,0.2899052,0.9422865,0.8580712,-1.2837002,0.2401326,-0.94548917,-0.45807815,1.5717245,-0.45644334,1.5067321,-1.2386556,-1.2071986,1.0028753,-1.4113979,0.35969043,-0.31173617,1.4121677,0.058154166,2.221501,1.8551334,-0.85146356,2.5978196,0.61433625,0.989785,-1.0616199,1.5544615,-0.5839916,-0.33863357,1.2942839,2.025789,-1.3565391,1.6936105,-1.780212,0.883235,-1.9045942,-1.7004769,1.9562124,-0.84762496,0.63407254,0.46981978,1.7780788,-1.0438285,0.9190448,0.36462218,-1.8607242,2.6028266,0.9648398,-1.4443628,0.753013,2.578195,1.5532347,0.9134352,-1.4287277,0.13117072,1.858093,-1.5353576,-1.0252576,-1.6124868,-1.0172428,-0.36533636,1.4923658,2.3354366,1.4828904,0.056900054,2.4131885,-0.528151,1.7671876,1.7088902,0.3175182,0.98827064,-0.49182573,0.5836899,1.4359936,0.56418014,-2.742098,0.27411622,0.638089,0.41366884,-3.0220175,1.6183282,-1.2905704,0.17286494
target_dataset:Huh-7,0.61412346,-0.05650202,-0.0020912644,-0.8609917,0.17486586,-0.32437435,0.23614126,0.768924,0.086206615,0.47544524,0.7045458,-0.9390027,0.008093057,-0.10659369,0.6293583,0.3384553,0.3533299,-0.20420128,0.714727,0.37943983,-0.104672894,0.43033284,0.30157098,0.18367726,0.23254593,0.74667287,0.20738582,0.070694074,-0.015377551,0.14144689,0.14906758,-0.5009312,0.8640787,0.2133276,-0.58172107,-0.21150285,-0.21452184,-0.06957671,-0.15160616,-0.16479443,1.1034025,0.13359562,0.4545282,-0.036257986,0.7479651,-0.038333714,0.18620948,-0.61860263,0.28843698,-0.041822255,0.32506362,1.1332417,0.046577252,-0.10312639,0.4997219,-0.18335025,0.0428075,-0.05320288,0.12985313,0.62432086,-0.46553385,0.6837171,0.41349936,0.41033542,0.4757716,0.46277535,0.59259975,0.46238726,-0.08561166,-0.5960018,0.052378055,-0.31998563,-0.606365,0.46830365,-0.6057753,0.2001675,-0.5468322,0.24899252,-0.18356302,0.5690894,-0.4852224,0.81107044,-0.30643737,-0.043860406,0.7410779,0.26756778,-0.32397676,0.1578742,-0.005232485,-0.30933985,0.31154013,0.20173699,-0.18428889,0.08149348,0.8025034,-0.12364683,-0.045226004,-0.23561643,-0.27231959,-0.5414697,0.08602085,-0.10495112,0.43265516,-0.25049415,0.013785476
target_dataset:TM-31,0.074687995,0.32375017,-0.013506331,0.5935963,-0.5891339,0.10754846,0.5341295,0.09096067,0.548693,0.55255896,-0.014952244,-0.30223,-0.12018156,-0.604522,0.31380725,0.2524617,-0.55293393,0.22962019,0.20322375,-0.7766348,-0.4659463,-0.28821862,-0.20953761,-0.6136031,0.15161891,0.30515185,0.5886474,0.0957008,0.49225637,-0.22617887,-0.007106811,-0.5070569,0.01197581,0.6501577,-0.42968097,0.39615852,0.7506486,0.5117859,0.05594859,0.027358498,0.5981504,-0.53247446,-0.46520337,0.42555577,-0.14934419,-0.62943256,-0.3828665,-0.3392622,-0.20341314,-0.19969195,-0.37662253,0.09750234,0.22768858,0.06383005,0.14510132,-0.18883416,0.16303122,0.323299,0.5377354,-0.106163986,0.5875597,0.46259215,-0.5750215,0.43515366,0.44319513,-0.009761152,-0.32773066,0.3619413,0.23605235,0.01351326,0.52839714,0.14723127,-0.104053706,0.328169,-0.34427562,-0.05764754,0.3491499,-0.06767829,-0.070092924,0.442194,0.03082195,0.5716645,-0.27898803,-0.17497995,-0.09695077,-0.06934978,-0.5171422,0.29281887,-0.2966203,-0.1317047,-0.59644103,-0.11001464,0.50472856,0.15939356,0.20535725,-0.1225276,0.6773042,0.12598455,-0.5217699,0.18827653,0.2056644,-0.22375931,0.033931226,-0.11032088,-0.09722498
target_dataset:U-251MG,1.0083632,-0.27532366,-0.07335299,-0.21330464,1.179994,-0.1527353,-1.1533442,0.07001236,-0.70493394,-1.0493453,-0.6965518,-0.11701266,-0.9925227,0.13819087,-0.70769835,0.77213347,1.098501,0.6045761,-0.17617491,1.3321791,0.36417562,-0.20936224,0.6341606,1.5754758,0.6579683,-1.52132,-0.85196364,0.98716,-0.24032131,0.754128,-0.8799867,-0.22681484,0.4631554,-1.8686489,1.1765375,-1.0183675,-1.6180141,-1.0039083,0.11058842,-0.7148265,-0.2999669,0.57410145,0.18882208,-0.9995481,0.9860305,1.6428094,0.5352823,-0.928578,0.6846557,0.49252957,1.5598779,0.5956181,-0.70124966,0.56101066,-0.9733218,0.4024438,-0.18741208,-0.64520216,0.2633769,0.081769556,-0.15150015,-1.0067719,0.09187688,0.0041155852,-0.76457214,0.4659655,1.6423669,0.68759567,-0.72014594,0.6832787,-0.8097488,0.024289738,0.08336584,-0.7907381,0.38043922,-0.90698993,-1.1658248,0.2507989,0.6741871,-1.3993596,0.031088503,-0.077534765,1.6093267,1.2709589,0.6597829,1.2550571,0.43165937,-0.6207986,1.4786255,0.32847482,1.6587049,0.6715382,-1.6123607,-0.8852371,0.34724063,-0.7036627,-1.0066168,-0.2186259,0.5797917,-0.67424977,-0.6140834,-0.09013304,0.24479303,0.4475987,-0.053058196
target_dataset:NUGC-3,-1.4524385,1.3373859,1.3176377,-1.1262666,0.43241003,-0.87118757,0.24919993,0.76931936,0.46052808,0.66757053,-0.3739251,1.1969016,0.69763255,0.3629763,1.0125878,-0.869271,0.12117236,-1.2153741,-1.2099732,-0.81560016,-1.0944242,0.62059283,0.9984821,-0.25743577,1.1602863,1.2824112,0.2754852,-0.6877461,-0.5765014,-1.1975634,1.5267426,-0.3926897,1.0911423,0.72861236,-1.3658662,1.5138148,0.29012078,1.3637013,0.36014166,0.97552454,0.69759566,1.2695767,0.6442183,0.115280375,1.4993674,-1.0277127,0.3210307,-0.4250707,-0.61953497,-0.8004275,-1.3164946,1.1748322,1.6295439,-0.70261234,2.0460525,-1.7087896,0.72498035,-0.19950055,-0.8962923,0.46008784,-0.48965183,0.3501873,-1.0245385,1.0594615,-0.19873986,0.29042518,-0.10738653,-0.5435317,1.6087347,1.0450515,-0.62836176,0.5825398,1.2537484,1.4200515,0.28451228,-0.3206163,0.94928825,1.3377953,-1.0415589,0.34492388,-1.4478648,-0.30100727,-0.8669597,0.11619446,0.9807662,0.16327326,-1.0242158,1.7379626,-0.7721421,1.7730156,-0.14797683,-0.0761337,0.8712541,0.032692876,-0.20387714,1.3427402,1.523688,-1.6519907,0.05346813,1.1820097,1.5675081,-1.836874,0.4227032,-1.0317975,0.33614868
target_dataset:SU-DHL-6,0.6943145,0.21088693,0.36332262,0.108911246,-0.120559596,0.46973142,-0.4261002,0.29398084,-0.08988206,-0.25784537,-0.3710533,0.09530334,-0.05176229,-0.06774827,0.3904429,-0.05966715,-0.397201,0.551664,-0.4273118,-0.071058884,0.16832349,-0.24871853,0.06347184,-0.18587612,0.24317922,-0.6633096,-0.35396963,0.5656183,-0.027741887,-0.06525497,0.19689743,-0.1655983,-0.092795864,-0.7893571,0.51313937,-0.09988554,-0.9077979,-0.34378427,-0.061607853,0.13245529,-0.23906782,0.26007867,-0.05006525,-0.20654967,-0.32849962,0.59896535,0.031101678,-0.55038106,0.36689538,-0.14549506,0.4307971,-0.1031534,0.24327728,0.2810795,-0.5725462,-0.071533,0.32338852,-0.4012174,0.5353974,0.3885672,0.38375086,0.026551928,0.20459354,0.23910835,-0.29759276,0.5212277,0.065342225,-0.2800628,-0.1359517,0.023443665,-0.06521112,-0.5192845,0.18782258,-0.41010138,0.6271977,-0.8288097,-0.34295312,0.49384815,0.35199016,-0.61108196,0.21771462,0.2947238,0.48812872,0.38868818,0.57469237,0.87986434,0.5408285,0.39242274,0.30492613,-0.63027996,0.20663543,0.019518249,0.25654534,-0.18445589,0.2834163,-0.11941804,-0.056208417,-0.40048215,-0.13876872,0.35269442,0.09167221,-0.62380975,0.2061965,-0.02074822,0.0053142663
target_dataset:SU.86.86,-1.6892958,1.1382632,0.9650776,-0.23207302,-0.3806293,-0.729491,0.73903227,0.64450216,0.85809076,0.2600811,-0.17345068,0.43913895,-0.21921639,0.01136744,0.97854364,-0.9847205,-0.44124705,-0.9845903,-0.65919566,-1.1164132,-0.80529505,0.07031599,0.48534682,-0.7088298,0.8968575,1.2450458,0.31229368,-0.82194924,-0.57306457,-0.2858299,0.8913632,-0.6588655,0.8005744,0.94520754,-1.6079217,1.463777,0.91605496,1.4051445,0.4221534,0.7013384,0.76103234,0.22400573,-0.01210938,0.7634259,1.011238,-0.94135684,-0.47644427,-0.4553645,-0.89695466,-0.59624004,-1.1819519,0.6461307,1.3759694,-0.06776711,1.8830432,-1.5800523,0.40012223,-0.1442267,-0.61497796,0.27875128,0.18094645,0.25264847,-1.0277576,0.47650996,0.42623374,0.11525068,0.67341876,0.16244325,0.6544679,0.32422757,-0.5631045,0.68093145,0.905342,1.1899912,-0.75801766,-0.082826115,1.0213604,0.82500553,-1.3540046,0.15444282,-0.5922668,0.39269802,-1.533584,-0.12866399,0.49705487,0.13174348,-0.6808025,1.525282,-0.5418092,1.1706868,-1.0308613,0.07333818,0.78826714,-0.38043907,-0.24220772,1.4019023,1.6567781,-0.8511583,0.21702145,0.40635884,1.0665712,-0.9500557,0.825875,-0.38336757,0.78028625
target_dataset:SNU-449,-0.49199682,0.28775546,0.6414332,-0.5480981,0.754111,-0.46935654,0.06911039,0.16679299,-0.117767125,0.8208765,-0.6704919,0.3149827,0.46680018,0.44822788,0.17968524,-0.3622518,0.5171635,-0.778805,-0.87096053,0.44152147,-0.17931099,0.5689287,0.047741428,0.42236754,0.42589995,0.61263585,0.53523195,-0.24424566,0.052979946,-0.92780656,1.090228,0.13562402,0.92624193,0.14891139,-0.7410867,0.34271944,0.14876798,1.0715768,-0.07274057,0.48637912,0.47400072,0.65530235,0.7876571,-0.19263184,0.992298,-0.5700239,0.79949963,-0.03611687,0.5106495,0.07644496,-0.96020085,0.6421742,0.44424748,-0.3386949,0.5982615,-0.54207426,0.5820189,0.44521394,-0.2161071,0.18157451,-0.6334562,0.44627893,-0.0011800211,0.6876778,-0.101887904,0.22664087,-0.16441616,-0.21122254,0.9437597,0.4637121,0.2373478,0.052115187,0.04664824,0.4080532,0.37230206,0.22430158,0.44752005,0.60712785,-0.29733872,0.5631496,-1.6035614,-0.28893355,-0.5657081,0.08566913,0.56854934,-0.33993244,-1.3896995,0.25476632,-0.5712415,1.1205602,0.46683154,-0.3631413,0.71956813,0.52393186,0.08329627,-0.05657603,0.13755836,-1.0080957,-0.3996267,0.7679357,0.13400604,-1.0220639,0.073735416,-1.058971,-0.34045812
target_dataset:IST-Mes1,0.51765704,-0.09985963,-0.42599764,-0.14985232,0.05536768,-0.11885089,0.24912855,0.16852808,0.097512946,-0.16016635,0.47740313,-0.6779861,-0.76601076,-0.7650198,-0.86790526,1.092395,0.20517506,0.067158036,1.0032579,0.17049116,-0.115824,-0.117896535,0.34122953,0.43545353,0.30522832,-0.16557804,0.2556035,0.04422257,-0.11377271,0.59729373,-0.6382264,-0.38638297,0.54377514,0.16167833,0.14377117,-0.49422747,0.17543803,-0.5954337,0.13139972,-1.1058103,0.4364949,-0.00812754,-0.5012183,-0.0075788493,0.29164475,0.07188504,0.19695494,-0.66022974,-0.36414233,0.19175915,0.8333491,0.5352339,-0.6571211,0.2498161,-0.2554442,0.37729385,-0.07616543,0.36549124,0.4930703,-0.108772404,-0.1418498,0.009906279,-0.2445219,-0.22224943,0.22940576,0.43487033,0.6291988,1.2855961,-0.8967863,-0.10706903,0.09690623,-0.06723867,-0.6099776,-0.13366145,-0.7828517,0.15051992,-0.5965588,-0.13870303,0.5056832,0.02317784,0.21090147,0.81353974,0.5927441,-0.089056954,0.17171353,0.10043606,-0.37788138,-0.73383164,0.653509,-0.1092636,-0.21325575,0.64386433,-0.80260783,-0.2886597,0.37207657,-0.38466078,-0.21448728,0.22589156,0.18152428,-0.58480406,0.3443022,0.60258836,-0.14911172,0.39521053,0.40997958
target_dataset:Panc 08.13,1.4879856,-0.070814654,0.24401043,-0.26711518,1.1058432,0.31597647,-0.77020997,-0.07000859,-1.0562464,0.022054508,-0.7524339,-0.4879091,-1.0466369,-0.2848497,-0.6428198,1.0264622,1.0646024,0.91148394,0.012013651,1.3190318,0.19869918,-0.22992414,0.6907549,1.1362119,0.19676706,-1.2212193,-0.10691717,0.94083256,0.48660707,0.016118612,-0.13095579,-0.2393747,-0.20642015,-0.89329576,0.9609492,-0.50304294,-0.7660283,-0.23553205,0.21182853,-0.17920473,0.2832467,0.6747029,0.5264211,-0.44040075,0.79674095,0.82651174,1.0284271,-0.7368905,1.2407715,0.8019485,0.6131588,0.69763076,-0.43117735,0.44026452,-1.0132583,0.13905348,-0.49582514,-0.25891653,0.49415067,-0.3463205,-0.16947319,-0.3473807,-0.1356305,0.62782806,-0.37379467,-0.1771786,0.16958651,0.088488646,0.11661818,0.6068565,-0.22863807,-0.020076998,-0.816407,-0.50566804,0.5344485,-0.2919003,-0.67160803,0.03379983,0.6271827,-0.32029596,-0.68550956,-0.51741546,1.4291036,1.0973326,0.26433653,-0.11573313,-0.20717007,-0.61507887,0.5439969,0.13075498,1.5504291,0.41324383,-0.27336493,-0.37175286,0.6691882,-0.8435893,-0.726706,-0.06755377,-0.22997701,-0.44877473,-1.3923529,0.010322701,-0.21980453,-0.17376554,-1.2111752
target_dataset:TE-9,0.25382054,0.4595783,0.5593562,0.2373972,-0.56676555,0.61245686,-0.24292938,0.51352507,0.010337844,-0.2261251,-0.0152701335,0.2634847,-0.43905103,-0.40845,0.64249855,-0.11088681,-0.62558323,0.6494664,-0.11132325,-0.6556673,-0.015226452,-0.51556295,0.05205492,-0.51169604,0.28007287,-0.5526615,-0.46487302,0.4057664,-0.26316646,0.079519495,0.21042392,-0.5046615,-0.5707667,-0.23137069,0.3438053,0.5366258,-0.53028333,-0.2092711,0.5329895,0.3157594,-0.044618893,0.21087201,-0.0075667803,0.38660476,-0.56971586,0.40645954,-0.6702546,-0.5853942,-0.06586872,-0.6986192,0.34131646,-0.03505904,0.48082232,0.4686849,-0.19092375,-0.47269407,-0.23867436,0.0022011027,0.123224884,0.11659687,0.7087301,-0.21957839,-0.26180375,0.21591753,-0.022467308,0.011357885,-0.418863,-0.3230475,-0.2894319,-0.09571763,-0.57430196,-0.36564377,0.48194808,-0.16139351,0.40733027,-0.6479242,-0.49071285,0.687662,0.24626675,-0.40933666,0.5704947,0.32397842,0.3660755,0.46074656,0.07867442,0.6070717,0.77174073,0.6219002,0.3719767,-0.8032121,-0.21270947,0.15361598,0.2757147,-0.24950618,0.18458466,0.5179227,0.31294042,-0.057789985,-0.074602574,0.1290812,0.29056022,-0.47917694,0.32282773,0.08891341,-0.05242701
target_dataset:NCI-H929,-0.14491248,0.38296628,0.5086301,-0.39958626,-0.065628275,0.11523655,-0.30814302,0.52845114,-0.4053332,0.085150346,-0.33796212,0.40918902,-0.78152,-0.2568428,0.06734331,0.11076036,-0.11796807,-0.10210803,-0.021049974,-0.12605375,-0.084596045,0.08317833,0.1313449,-0.045789342,0.45232886,-0.22598995,-0.15412742,-0.038170632,-0.4165344,-0.21812709,0.32332456,-0.28469077,-0.013221234,0.20698476,-0.011421146,0.3939578,-0.16655536,-0.40834185,0.72693634,0.2789965,0.17474763,0.54146594,0.3891731,0.22593059,0.35508054,0.20019528,-0.048018187,-0.25316557,-0.040559098,-0.25521085,-0.16948757,0.119820535,0.3869337,-0.0597421,0.27000803,-0.819256,-0.12789306,-0.0026468337,-0.42567125,-0.18678613,-0.20133172,-0.37115222,-0.24697965,0.3192771,-0.102738395,-0.017771475,-0.5609504,-0.20548956,-0.066097006,0.24975254,-0.72428364,-0.4689241,0.10381436,-0.03645627,-0.16429815,-0.2422681,0.041819014,0.5400976,0.20039599,-0.05451922,-0.13022156,0.104234055,0.1681906,0.42198598,-0.28741407,0.2590306,-0.11940323,0.48065895,0.40105554,0.19449271,0.029369842,0.07228856,0.09425336,-0.036654238,-0.14724389,0.38737312,0.5413202,-0.3771646,0.13523203,0.16406375,0.037091345,-0.19776079,0.4382043,-0.33261153,-0.31955215
target_dataset:TC-71,-0.026932001,-0.14527352,-0.2167143,-0.25613287,-0.101258546,0.10477743,0.26288137,0.30340537,0.38203588,0.059180435,0.2657675,-0.6488953,-0.24528484,-0.45353267,-0.20428285,0.44969973,-0.32683358,0.11992816,0.7540219,-0.28524894,-0.19060142,-0.087229624,-0.10731001,-0.07068294,0.106934205,0.12791362,-0.07053371,0.22783452,-0.20059846,0.3731479,-0.34595573,-0.4271561,0.3486406,0.079820275,-0.31899077,-0.21830496,-0.1779876,-0.31327575,0.027905932,-0.5116128,0.4470717,-0.57558477,-0.28015652,0.31494573,-0.13169995,-0.10288275,-0.18506022,-0.5083662,-0.3213893,0.269599,0.5145173,0.18894859,-0.24742225,0.049927477,0.055532325,0.038615495,0.06134192,0.16434819,0.53019637,0.20670782,0.12567846,0.3421174,0.17258935,-0.08286801,0.41208294,0.32618374,0.21231188,0.7525364,-0.60696685,-0.49603757,-0.031103358,-0.18493031,-0.33053255,0.107216604,-0.57535034,0.026850574,-0.4493222,-0.012162376,0.13073513,0.22230634,0.304052,0.8907609,-0.11355466,-0.19893534,0.217601,0.28256938,0.0025965888,-0.029942038,0.27326244,-0.60852337,-0.47573933,0.4262185,-0.20120785,-0.061750744,0.30921024,-0.019137552,0.10144392,0.16041045,-0.004243996,-0.31883258,0.40741357,0.11565829,0.18961935,0.22114192,0.41194156
target_dataset:CAL-29,0.040528446,0.59366655,0.45112225,-0.425871,0.10730714,-0.408551,0.7422689,0.2152212,0.3663517,0.6978553,-0.086717844,-0.1017468,-0.03339863,-0.27260035,0.2648466,0.24928918,0.21936661,0.05493065,0.2560154,-0.33470207,-0.5205114,-0.16555713,0.2230193,-0.02164907,0.005253263,0.600101,0.46692768,-0.22447722,0.34756744,-0.32760498,0.3322999,-0.727751,0.05555466,0.9349224,-0.7101377,0.71917987,0.80806446,0.7826754,0.33627066,0.36878812,1.0039532,0.1102144,0.28747323,0.43443596,0.583287,-0.80532813,0.03395613,-0.35980666,-0.06437643,-0.24063227,-0.42719743,0.6205504,0.7234697,-0.036626253,0.6485326,-0.62867725,-0.3336318,0.38354132,-0.09053915,-0.11210568,-0.12765877,0.46142152,-0.6925601,0.88310146,0.53532195,-0.36051545,-0.46705994,0.05715181,0.7720458,0.10803352,0.017341366,0.22408992,-0.07390996,0.70561093,-0.3566437,0.3523303,0.3431018,0.029438328,-0.7827844,0.43073174,-0.45026094,0.4349796,-0.031318992,0.20254534,0.21647327,-0.50525814,-0.54960454,0.43081143,-0.42500067,0.2953049,-0.1055926,0.17949162,0.47922128,-0.0007334724,0.54946303,0.38476995,0.6846468,0.12845372,-0.35957944,-0.06401481,-0.10825831,-0.26700345,0.10151318,-0.2522104,-0.46353844
target_dataset:Reh,1.0689608,0.35871136,0.42549703,0.2987664,0.7301218,0.0095266495,0.0104385605,-0.5696311,-0.15363744,0.30793375,-0.39406073,-0.58655846,-0.826384,-0.46599615,-0.23450463,1.0698029,0.94867986,1.108478,0.30827102,0.7540401,-0.09211761,-0.7341307,0.4343585,0.65946996,-0.1015431,-0.69011664,0.26643217,0.8782616,0.8406762,0.129745,-0.38908303,-1.0583467,-0.53683645,0.13532345,0.4078391,0.25068003,0.2666247,0.54640704,0.24586792,-0.04174001,1.0103145,-0.2577843,0.19314247,0.15217711,0.53744495,0.17283158,0.6851787,-0.60851854,0.80152595,0.8424151,0.27803478,0.50865304,-0.00024922565,0.6556675,-0.7230511,-0.098500095,-0.8239302,0.38669923,0.54475486,-0.6254125,0.17469741,-0.079305075,-0.6035382,0.8299773,0.2594642,-0.55428475,-0.5696693,0.2006439,0.5815523,0.54298234,0.17142719,0.46180105,-0.43514296,0.024219953,0.0816708,0.08509145,-0.26626846,-0.34114856,-0.1403991,0.03233128,-0.3120911,-0.32495967,1.0430086,0.74649316,-0.13393442,-0.5957555,-0.3047875,-0.4448108,0.093693584,0.35147616,0.75447094,0.49129924,-0.027283695,-0.2601025,0.69775426,-0.59036,-0.22472645,0.5771108,-0.7352616,-0.5719477,-1.4422429,0.09296968,-0.5176028,-0.16280255,-1.2444674
target_dataset:Hs 746.T,0.712981,0.90568984,0.832756,0.019999605,0.35516292,0.11082937,-0.33853596,-0.022098415,-0.22835505,-0.024691043,-0.6659659,0.07296627,-0.9482971,-0.6498911,0.3999483,0.6751822,0.4091098,0.9996038,-0.39382833,0.2824628,-0.36417377,-0.83238363,0.6810781,0.22654198,0.47380635,-0.8161281,-0.25022197,0.80678934,0.065772824,0.14585567,-0.040095434,-0.61635375,-0.45764053,-0.040256634,0.54535824,0.87794495,-0.28867608,0.37867895,0.7036023,0.20050083,0.5337764,0.45174843,0.15325464,0.12430663,0.65029734,0.21795611,0.10406068,-1.0188246,0.37203792,0.30126256,0.41615918,0.38056713,0.80127364,0.7517421,-0.37847212,-0.49790087,-0.72349566,0.13769649,0.2704649,-0.37021354,0.44840148,-0.38763207,-1.1237577,0.8188021,0.12083496,-0.2869401,-0.60923105,0.17170835,0.3678271,0.60099876,-0.53374285,0.19491096,0.29098898,0.10300484,0.30177003,-0.6562098,-0.38939348,0.74133706,-0.03923071,-0.41793817,-0.33464503,0.34343588,1.1416091,1.0886184,0.21611765,0.06245866,0.25122324,0.3259539,0.2718781,0.042792507,0.5821891,0.60306716,0.08838062,-0.5101471,0.6253202,0.25115806,0.1607226,0.069340356,-0.2779095,-0.21266527,-0.4683914,-0.41361272,0.15773885,0.06265717,-0.7248458
target_dataset:SNU-C1,0.05981052,-0.17417805,-0.60321504,-0.5516573,0.498361,-0.13546643,0.10883066,0.013020158,0.047727678,-0.015309975,0.7606381,-0.9354001,-0.7369733,-0.63266224,-0.7555287,1.238396,0.44009435,0.120317474,0.98694044,0.44724265,-0.4672366,-0.022424096,0.22496724,0.7784581,0.36913806,-0.2143725,0.26656154,0.42940083,0.055266425,0.5112601,-0.5379008,-0.4725535,0.89861006,-0.07668258,0.008140057,-0.4549443,-0.14104918,-0.6076548,0.05612016,-1.2420126,0.59180564,-0.3980152,-0.41465378,-0.083398245,0.37570506,0.25011575,0.4435067,-0.7891889,-0.17411992,0.2925816,1.003863,1.1355195,-0.6734907,0.032098252,-0.2947471,0.5229258,-0.17199694,0.39150044,0.52207685,-0.07126895,-0.10181417,0.1422439,-0.353647,-0.093609855,0.15968943,0.5061587,0.7617831,1.4378316,-0.761852,-0.16353415,0.2794043,-0.086406276,-0.6777815,-0.12092396,-0.8248341,0.11949148,-0.6220718,-0.041782074,0.6198362,0.080031775,-0.07399134,0.9418961,0.6206027,0.049964502,0.34485793,0.18274727,-0.65026635,-0.74851114,0.5964637,-0.03024326,0.34402865,0.6122685,-0.7740851,-0.16781864,0.40956843,-0.5116456,-0.24172032,0.0685929,-0.043694124,-0.61023927,0.3665528,0.36261225,0.0054255947,0.3299078,0.30295217
target_dataset:TO 175.T,0.2724254,0.22703636,0.5790127,-0.6527896,-0.23569067,0.37364915,-0.14052053,0.9070754,-0.21616581,0.6299807,0.047599718,-0.737103,0.5091095,0.24573892,0.69554883,-0.5616298,-0.4518799,0.24338524,-0.209262,0.25271085,0.45788473,0.48538035,0.37197426,-0.4105842,0.38399255,0.26792854,-0.30318332,0.5063686,0.3231979,-0.7046126,1.0490712,-0.33296534,0.3694001,-0.2788377,-0.38897914,-0.24962501,-0.8503556,0.07422655,-0.22841296,1.20053,0.28219706,0.13241857,0.93754935,-0.3001674,0.32290596,0.11619465,-0.24091104,-0.6846306,1.2704146,-0.2724404,-0.42521012,0.8441764,0.430384,-0.08248258,0.17435429,-0.7675959,0.43409052,-0.57918674,0.4435198,1.1454926,0.1795415,0.8914056,1.0060519,0.85467315,0.23084441,0.5594319,0.3223677,-0.53846306,0.21111329,-0.6336526,0.08563541,-0.6722574,-0.39249986,0.24345738,0.1704056,-0.5493314,-0.47348684,0.78815776,0.010926131,0.62173074,-0.8074527,0.5975676,-0.4893768,0.09318268,1.0867354,0.728748,0.104421884,0.98702335,-0.43924904,-0.94766116,0.2869728,-0.7145269,0.59802955,0.41818476,0.9202899,0.19373062,0.12886441,-0.6716321,-0.23425508,0.4458797,-0.18163899,-0.83955127,0.7945253,-0.9240557,-0.7065766
target_dataset:Hs 695T,-0.43887872,0.8968333,0.52652365,-1.0830544,1.0957524,-0.024931312,0.3575402,-0.09773028,0.26345825,0.98701304,-1.1806458,0.6021716,-0.18424588,-0.73797506,0.1562915,0.55213124,0.5342773,-0.6488584,-0.83489543,0.033155188,-1.5417352,0.2601578,0.38608384,0.45433462,1.0021163,0.6330698,1.2296009,-0.20755775,0.39252692,-0.6791035,0.6838121,-0.34363914,1.5811619,0.5493454,-0.72129935,0.8426707,0.4371928,0.3306417,0.12593521,-0.3175525,0.99060434,1.0918646,-0.19870773,-0.15761471,1.1152825,-0.9219036,0.9400922,-0.55979025,-0.36999843,0.22471505,-0.6704669,0.99559253,0.58581907,-0.3467274,0.89792114,-0.4606701,0.7109815,0.39367607,0.15077083,-0.24224573,-0.2949357,0.13625,-1.2895635,1.1084641,-0.2459842,0.42701513,-1.0035938,0.5998281,1.0403323,1.586021,0.46678814,0.72018456,0.4805376,0.6876902,-0.18098432,-0.13046086,1.0641476,0.63377005,-0.42166847,0.15805362,-1.5586513,-0.51493,-0.1023408,0.21054703,0.59027267,-0.2713278,-2.008734,0.38505694,-0.55316025,2.001341,0.23328844,0.27394542,0.8871311,0.15237224,0.18654737,-0.13246648,0.94054097,-0.9838014,-0.427933,0.96817636,1.0853919,-1.1191434,0.77249944,-0.54615724,0.28188807
target_dataset:Hep 3B2.1-7,-0.78143346,0.501205,0.8935037,0.6624499,-0.9114873,0.07249258,0.67476785,0.140687,0.59851867,-0.070382,0.5473407,0.3271837,0.25013223,0.60366863,1.1305966,-1.0963513,-0.5996684,0.032327976,-0.5091267,-0.9084386,0.20609082,-0.4219577,0.26490128,-1.1378645,-0.21952182,0.55029494,-0.25686955,-0.14902987,-0.013606265,-0.3075794,0.31531268,-0.66381824,-0.7726868,0.48050267,-0.83414626,0.91064596,0.8387566,1.011169,0.16836828,1.4330784,0.20165733,-0.38795567,0.34389508,0.8658807,0.32957885,-0.6215102,-0.78047454,-0.11704873,-0.41372648,-0.44720495,-0.7298809,-0.063296035,1.1400586,0.09432727,0.8575536,-1.186152,-0.10770707,-0.3049837,-0.6801222,0.24237508,0.55332196,0.29873618,-0.34116817,0.4518521,0.5092435,-0.46193472,-0.5780869,-0.78269666,0.7153204,-0.40738034,-0.5112352,0.33092266,0.9309011,0.7389944,0.07977775,-0.37347758,0.46176702,0.20350462,-1.215483,-0.0050619766,0.23153065,0.60184383,-1.2091557,0.032170057,-0.24735595,0.05756695,0.5973363,1.2560289,-0.3262432,-0.052502252,-0.7837135,0.04508663,0.8099907,-0.39425313,-0.10019083,1.0102971,0.8875948,-0.17515586,0.0027157143,0.0038015507,-0.09136824,-0.79280764,0.05473949,-0.02877383,0.06733363
target_dataset:Panc 03.27,0.27905226,0.6749396,0.6818327,-0.5659723,-0.020202957,0.16440079,-0.37072772,0.68397987,-0.12510984,0.42986,-0.7811374,0.4091425,-0.30431038,-0.7158896,0.50120795,0.10936938,-0.3584443,0.36892915,-0.60286427,-0.33160138,-0.6369305,-0.13012606,0.18898386,-0.2160019,0.8379898,-0.35367745,0.14149511,0.4418885,-0.11706839,-0.5092997,0.9596864,-0.31828412,0.35308784,-0.0908625,0.16878824,0.5173156,-0.73174345,-0.3803122,0.37770107,0.10156484,0.09431811,0.88899016,-0.021838719,-0.10250915,-0.10888113,0.31351998,0.20940907,-0.73795485,0.17274415,-0.3373072,-0.043602705,0.44325516,0.59880143,0.14736226,0.011525869,-0.5517511,0.35583508,-0.07108945,0.29240417,0.14576328,0.30833903,-0.013805479,-0.40449822,0.5289303,-0.36273503,0.46650162,-0.91873676,-0.09512072,0.16471745,0.5909842,-0.09514499,-0.3285416,0.4845007,-0.024057832,0.3913155,-0.8282901,-0.04361938,1.005911,0.611446,-0.1972644,-0.3937706,-0.23488343,0.48855755,0.42937118,0.63482386,0.76883626,-0.21866493,0.63989806,0.050022297,-0.0002942686,0.20700555,-0.15483934,0.69131356,0.12956285,0.31073245,0.18703982,0.5456955,-0.73976403,-0.28820038,0.9308942,0.8641968,-1.0214398,0.61038107,-0.44737047,-0.08568248
target_dataset:A101D,0.67717284,0.28780502,0.8971137,-0.770192,1.6370554,-0.059494257,-0.9700422,-0.24681811,-0.535481,0.1359443,-2.0223503,1.1665193,-0.1900321,-0.2922195,-0.2135424,0.69795805,1.0856636,0.12159207,-1.3280532,0.9156743,-0.65286386,-0.31992015,0.59770745,1.20408,0.67535084,-0.9902306,0.026557205,0.4858249,-0.13435079,-1.0457335,0.41312888,-0.06637247,0.81611264,-0.8579382,0.77891123,0.3879304,-0.78201705,-0.38001955,0.20339733,0.0015983284,0.0470046,1.8551842,0.32736915,-0.9535854,1.1264173,0.7577999,1.1656582,-0.5972467,0.43626255,0.008675851,0.2059554,0.6020881,0.38972002,0.21740268,-0.5534126,-0.15333746,0.14846441,-0.039531253,0.031520583,-0.28006658,-0.16980489,-0.5450709,-0.8969782,0.89585584,-1.1208247,0.12835443,-0.05507011,-0.36901355,1.0163535,1.7881032,-0.1435819,0.52058816,0.749495,0.052904077,0.91539645,-0.7358952,0.095136344,0.811361,0.4077063,-1.0895804,-0.99626535,-1.3666683,1.5916436,1.2467054,0.9153707,0.019231237,-0.7638969,0.20416644,0.17411532,1.5109049,1.4519778,0.43663543,0.45509538,-0.17583743,0.058068685,-0.4982192,-0.16616903,-1.071198,-0.38032973,0.7763468,-0.077252924,-1.2807798,-0.030843496,-0.126584,-0.6306932
target_dataset:SK-MM-2,-0.06916916,0.18061236,0.36695907,0.16521196,-0.0066169947,0.76724446,-0.7701421,0.37928504,-0.63917255,-0.11421949,-0.61949474,0.33707407,-1.0589122,-0.6211183,-0.21541826,0.32562897,-0.48007318,0.62066483,-0.24591777,-0.18946648,-0.09679739,-0.29428843,0.015202045,-0.076744035,0.5672132,-1.0539851,0.18065405,0.35389295,-0.0037261443,0.04944116,0.23610725,-0.18177223,-0.39972094,-0.7526524,0.74194396,0.017231751,-0.36695364,-0.24249214,0.72557116,-0.10354073,-0.55959,0.52317464,-0.30759934,0.035056412,-0.10168907,0.6084978,0.01341325,-0.3713599,0.10966787,-0.14737242,0.04819995,-0.12661159,-0.2563782,0.4376047,-0.6876893,-0.25672773,-0.07402136,0.25246623,0.30959746,-0.509242,0.556581,-0.68059456,-0.26566124,-0.057606235,-0.35619962,0.17489733,-0.4192842,0.30696002,-0.61059666,0.5995056,-0.38983887,-0.65956646,0.1374508,-0.7150527,0.32931298,-0.5497105,-0.03130308,0.30899766,0.8191457,-0.47705066,0.08987534,-0.3813757,0.69579226,0.5402284,-0.2897771,0.4858965,-0.06390424,-0.011105843,0.6022495,0.07950907,0.1279032,-0.024600696,0.11160788,-0.2688815,-0.26090106,-0.18930751,0.2548785,-0.21299289,0.09000125,0.40960044,-0.05053547,-0.07078644,-0.6022697,0.046625778,-0.34858638
target_dataset:HPAF-II,-1.148366,0.99014413,1.1108699,-1.185018,1.1101669,-0.42269737,-0.08669585,0.42042354,0.18265286,0.75334364,-1.1718812,1.2034813,0.29364035,0.06731486,0.79152423,-0.4406078,0.29278132,-0.84639585,-1.5118729,-0.1795485,-1.1240715,0.3992379,0.77255267,0.030659275,1.0214208,0.74617416,0.54131293,-0.28073725,-0.19280742,-1.0733495,1.4664068,-0.25078723,1.2724051,0.29876864,-0.9466778,1.1352972,0.012140672,0.27297756,0.07783521,0.68270546,0.7100818,1.5266122,0.32742667,-0.24970129,1.2967839,-0.5635813,0.28182864,-0.52721196,0.26213008,-0.90303516,-0.9770948,0.92772526,1.4095262,-0.82696515,1.324547,-1.0926381,0.96660703,-0.6059993,-0.37695742,0.6004238,-0.13700287,0.32744613,-0.9830526,1.2801973,-0.6471484,0.51770186,0.29197007,-0.46719208,1.8957596,1.5467981,-0.17230806,0.24241433,1.5345886,1.0412405,-0.13851154,-0.47949338,1.089423,1.1892138,-0.6748989,-0.3300627,-1.3455596,-0.78691065,-0.39483896,0.67171013,1.0069157,0.40456894,-1.3123769,1.3872441,-0.7270319,1.8401507,0.362283,-0.1504947,1.2083341,0.1064615,-0.10261254,0.49795824,1.1928303,-1.7140611,-0.39166027,1.4261837,0.9022733,-1.9928851,0.9317301,-0.89689904,0.25897813
target_dataset:AMO1,0.62722623,-0.2097297,-0.34593135,-0.1298375,0.09555229,0.16267718,-0.06959189,0.15781271,0.05818857,-0.058135252,-0.25022376,-0.19567293,-0.6515158,-0.57354486,-0.39713153,0.97525704,0.023344597,0.3112878,0.7817025,0.069813654,-0.3438886,-0.16476059,-0.12239738,0.25402087,0.14958037,-0.30750304,-0.05529605,0.049259067,0.03927733,0.46069843,-0.42285046,-0.41321445,0.3218696,-0.054750185,0.4660176,-0.2969601,-0.2713177,-0.46686575,0.23705819,-0.7742331,0.30669403,-0.0740266,-0.436709,0.018579286,-0.12826493,0.26854244,0.07899664,-0.5718738,-0.21472518,0.10864416,0.7866045,0.23227736,-0.49841833,0.13822803,-0.4104884,0.24980363,-0.16549687,0.24642164,0.47959533,-0.10865284,0.1300545,0.03886779,-0.119249836,-0.17715098,0.124754496,0.2785023,0.33319977,0.88449746,-0.70852727,-0.36050296,0.17935589,-0.1842407,-0.35382113,-0.27945945,-0.44870454,-0.061458837,-0.4327944,-0.12656674,0.57080454,-0.0627778,0.3177968,0.4272357,0.5563114,0.18173832,0.08158225,0.29632476,-0.16624416,-0.45045543,0.5962486,-0.36951357,-0.2743269,0.37551,-0.43251452,-0.044052303,0.30782354,-0.3399649,-0.115245074,0.1662305,-0.05850542,-0.4100608,0.2848727,0.29695255,0.2725278,0.37846684,0.22019841
target_dataset:B-CPAP,0.7805867,-0.7077558,-0.36085263,0.46548316,-0.39050582,1.0115012,-0.41663444,0.27135688,-0.46026963,-0.19109339,-0.28257918,-0.22796729,-0.20774572,-0.26647824,-0.41005933,0.21595077,-0.82001317,0.3341943,0.007936522,0.073671706,0.5902502,-0.004242149,-0.63844013,-0.055565994,-0.056070182,-1.0063885,0.06765434,0.6217664,0.1484808,0.0521871,0.0134972595,0.25407174,-0.27530178,-0.82663804,0.76202,-1.0888107,-0.66163576,-0.8439142,-0.21623246,-0.1938198,-0.6992966,-0.15812884,-0.35460427,-0.38716164,-0.8943664,0.71624196,0.06910446,-0.0618128,0.4884891,0.26641697,0.27560022,-0.49303666,-1.0067596,0.09110886,-1.0449388,0.4794503,0.45783082,-0.01638667,0.80218774,-0.020056337,0.41767573,-0.070645005,0.92864794,-0.58166754,-0.15274191,0.5084069,-0.10416874,0.08836698,-0.74952,-0.15684012,0.3435809,-0.8490984,-0.39677638,-0.97252464,0.60404426,-0.3817851,-0.46737647,-0.10911136,1.10819,-0.25766468,0.32566243,0.007764058,0.40178236,-0.041167535,-0.28972483,0.5214625,0.21840352,-0.52241886,0.55045754,-0.9710177,0.07153619,-0.46032205,-0.013676934,0.27235767,-0.11834256,-0.9583834,-0.43844444,-0.2515034,0.010656863,0.3708212,-0.2324074,0.16382657,-0.43693876,-0.034910046,-0.14436167
target_dataset:CGTH-W-1,-0.38184044,1.1992346,0.827835,-1.0895154,0.59041524,-0.082915574,-0.28457886,0.8490214,-0.079269335,0.4838072,-0.63907564,-0.14332019,-0.5140782,-0.6402332,0.65892744,0.28292298,0.15671986,0.052665893,-0.7275641,0.11788222,-0.87860215,0.047507096,0.8101436,0.10677002,1.401721,0.1879445,0.012466334,0.45354268,-0.089762814,-0.25611034,0.9413399,-0.72169745,1.1248971,-0.27359572,-0.42322952,0.72678673,-1.0806272,0.4644209,0.17682901,0.10206829,0.79785573,1.0716835,0.20225249,-0.38974285,0.49872106,0.25718078,0.17433031,-1.5174799,0.39261806,-0.25141814,0.04440718,1.4160117,0.9114666,0.21092504,0.54958856,-0.6819398,0.26916113,-0.43048662,0.47798616,0.6241127,0.13454019,0.196668,-0.5964792,1.1535475,-0.10523935,0.8167804,-0.0859683,0.6751041,0.3943417,0.9082945,-0.21516298,-0.6462724,0.35212183,0.5200843,0.01741721,-0.74158293,-0.18448386,1.4101202,0.1325737,0.02624043,-1.1351904,0.20975995,0.4240982,0.69151646,1.3747793,0.65482706,-0.54115725,1.1052366,-0.23826158,0.58766514,0.52261966,0.1886733,0.5001199,-0.13842747,0.7810913,0.50989956,0.61192346,-1.0962257,-0.010393189,0.46500003,0.86364865,-1.4071544,1.8901348,-0.6374693,-0.045981243
target_dataset:NCI-H2171,1.0617754,-0.32370976,-0.2691002,0.20783429,0.44282988,-0.16837126,0.045911916,-0.13592614,-0.19615021,0.0053475387,-0.001547277,-0.4812771,-0.7665684,-0.67336345,-0.74415684,1.2464902,0.4952528,0.5567021,0.80714244,0.4774679,-0.23082586,-0.37055197,-0.03043441,0.73380333,-0.06455881,-0.63509375,0.12279113,0.5473846,0.35409078,0.41635412,-0.7020733,-0.36294752,0.10464996,-0.11442552,0.44980425,-0.369901,-0.17186439,-0.3776108,0.24103756,-0.8680393,0.4145521,-0.47472024,-0.2649669,0.33783016,0.30033058,0.2824097,0.42412826,-0.48522383,0.13119285,0.49216506,0.8163939,0.4257245,-0.6630632,0.2561205,-0.73401755,0.39749852,-0.41583154,0.4875066,0.48568648,-0.45459136,-0.14746256,-0.08073044,-0.11136668,0.1648466,0.16812815,0.0015298864,0.101891704,0.79060817,-0.4489965,-0.025646996,0.22790413,0.060319286,-0.7151306,-0.27209637,-0.33786187,0.12240819,-0.60808396,-0.33148772,0.5615331,-0.040617228,-0.08650334,0.6669534,0.8964286,0.3684454,-0.14193031,-0.14352922,-0.36974528,-0.83148557,0.58434653,-0.1772322,0.3278131,0.4877125,-0.5032283,-0.100400634,0.39604998,-0.6994344,-0.33199626,0.47585323,-0.19659728,-0.5763603,-0.43369508,0.49270588,-0.34705752,0.37783858,-0.33177018
target_dataset:ONS-76,0.704036,-0.6597342,-0.2637877,0.50750506,-0.8081902,0.68782413,0.09243196,0.009938426,0.14166032,-0.06940726,0.15642603,-0.37652698,0.0017888919,-0.1221737,-0.06912838,0.023675334,-0.6999568,0.4567269,0.4092711,-0.28019527,0.62616175,-0.23551793,-0.603512,-0.3845095,-0.45997718,-0.43629724,0.12935807,0.3327586,0.5141096,0.07514786,-0.27509123,0.06082858,-0.5437274,-0.16426875,0.1823731,-0.7429562,0.19464935,-0.3169096,-0.21005803,-0.10303588,-0.26478365,-0.7316622,-0.2650474,-0.028883457,-0.87391764,0.034955382,-0.21243477,0.17320754,0.16750325,0.13310286,0.1757158,-0.5107342,-0.66859746,0.0386926,-0.7615109,0.23374847,0.121452086,0.16510046,0.60893583,-0.06324537,0.4409719,0.23827446,0.61821836,-0.43026784,0.1649045,-0.11727458,-0.3091806,-0.029005228,-0.6163538,-0.5620947,0.40809244,-0.4248622,-0.30578563,-0.45559266,0.25511822,-0.00032217428,-0.28756717,-0.39601618,0.4836105,0.027691651,0.4445832,0.4277401,-0.10056102,-0.2156917,-0.50114316,0.084350586,0.25745553,-0.3724127,0.26599854,-1.1048796,-0.35431919,-0.2885269,0.07515444,0.22274327,-0.06865579,-0.67915356,-0.2035755,0.2552585,-0.3532788,0.08610781,-0.38361767,0.27252647,-0.7458058,0.14366479,-0.23309892
target_dataset:SCC-9,0.22559378,-0.12004255,-0.26078877,0.5058192,-0.6863485,0.3461884,0.19004866,0.35835138,0.27064905,-0.048876703,0.65775156,-0.27261358,-0.319556,-0.42927438,-0.010924498,0.33139643,-0.5092882,0.17715105,0.63134116,-0.3521906,-0.04396405,-0.17725371,-0.29264414,-0.19150756,0.06335284,-0.017985724,0.088302135,0.1631397,0.05137812,0.36395416,-0.118543535,-0.35079613,0.041911367,0.3115862,0.042578846,-0.08720429,0.1453029,-0.22480015,0.08999321,-0.2792672,0.2010777,-0.580022,-0.32851574,0.38737547,-0.45474043,-0.23758683,-0.25833046,-0.3482778,-0.29219943,0.018867627,0.3347367,0.2041068,-0.28039443,0.26303208,-0.11587997,0.065041244,-0.062255118,0.24506544,0.42745155,0.03443671,0.30988154,0.29353768,0.12252422,-0.1915167,0.28055274,0.09426977,0.0138548855,0.5651143,-0.69219744,-0.60828865,0.115613684,-0.2539324,-0.22473033,0.032688424,-0.40557015,-0.027008021,-0.41644806,-0.037129544,0.35262418,0.11522767,0.36308616,0.9222497,-0.18473032,-0.2135881,-0.08713209,0.29153243,0.12257128,-0.089113116,0.34590796,-0.7327951,-0.51681554,-0.014676362,-0.13279074,0.0043029063,0.16970827,-0.07779405,0.10027498,0.21204267,-0.09138618,-0.19554228,0.31877583,0.23265626,0.029563386,0.14256698,0.28931317
target_dataset:59M,0.5195322,-0.043919474,0.12743625,0.18995124,-0.12552835,0.4077633,-0.16040872,0.20242421,0.09408907,-0.12603003,-0.20867305,0.026005995,-0.32482678,-0.49368986,0.19577557,0.42344484,-0.3152655,0.6141069,-0.07029443,-0.35949084,-0.0025299974,-0.4034019,-0.05502418,-0.21361518,0.033667058,-0.5549359,-0.19392613,0.5580613,-0.071500055,0.15067738,-0.20001635,-0.37728977,-0.21212116,-0.3328125,0.5398301,0.010089129,-0.35601658,-0.34634027,0.20788895,-0.101000614,0.057290208,0.048541356,-0.2546109,-0.09740038,-0.26873875,0.47030622,-0.27907205,-0.53889763,0.025070285,-0.15999642,0.58045566,-0.09670131,0.12077862,0.26226234,-0.52330005,-0.102815375,-0.06764771,-0.035313517,0.45506376,0.01943987,0.56509167,-0.04109452,-0.110621914,0.17664623,-0.038272604,0.1431742,-0.13006295,0.18099682,-0.2507232,-0.13560629,0.02240679,-0.059355766,0.16156389,-0.28497863,0.2350844,-0.6431485,-0.29374734,0.19404177,0.38373423,-0.34127814,0.38657406,0.14066875,0.5376642,0.3456027,0.10807213,0.424061,0.3776294,0.13004047,0.39300263,-0.7108337,-0.0059023425,-0.08712742,0.107852474,-0.14365803,0.28242263,-0.0938147,0.044493422,-0.050745625,-0.34237397,0.0013413383,0.09045363,-0.24290973,0.1442256,0.24228624,-0.03822624
target_dataset:TE-4,-0.20364359,-0.37329128,-0.1274272,-0.109002344,0.015134908,0.37080127,-0.8148047,0.6898332,-0.30673677,-0.13252482,-0.32124174,-0.9302887,0.38172618,0.31967005,-0.22882393,-0.6926724,-0.95456845,-0.65954685,-0.3440733,0.24631317,0.74692225,0.95561695,-0.38614112,0.15159908,1.0562872,-0.29862705,0.2112238,-0.3889339,0.09880288,0.21676181,0.9116797,0.61218435,1.4285973,-1.3668227,-0.21668182,-1.1090268,-0.9595905,-0.16691433,-1.1396112,-0.24800222,-0.6649799,0.055762433,0.016595788,-0.9670318,0.2066246,-0.13502228,0.13827588,-0.39169782,0.64829385,0.16602308,-0.458792,0.20017236,-0.9222532,0.4538491,-0.42287827,0.5537013,1.3478767,-0.55191904,1.2599173,0.8803991,0.3802521,0.70229536,1.366232,-0.5556567,-0.21477875,1.3765346,0.55382115,0.856798,-1.1794797,-0.3788569,0.61629766,-0.9654354,-0.64058936,-0.3157803,0.2252284,-0.14391656,-0.6159102,0.56783223,0.6473624,0.19143082,-1.2571987,0.99891543,-0.76998764,-0.79739,1.0744395,0.5918166,-0.2932938,-0.12902392,-0.100879416,-0.13197936,-0.24807137,-0.8053198,0.100081265,0.053815857,0.019009313,-0.7127797,-0.5349444,-1.2077773,0.22352043,0.75061685,0.36793008,-0.6652645,0.7481265,-0.71548814,0.5721174
target_dataset:MOLP-2,0.8719721,0.35776007,0.5771626,-0.41732365,0.15640903,0.64092743,-1.1544074,0.6525717,-0.82454264,-0.011296015,-0.7568455,0.3374585,-0.5007474,-0.5737193,0.176643,0.4053921,-0.25762752,0.6601395,-0.67479575,0.24579035,-0.16274987,-0.26776236,0.19268811,0.14293623,0.8588409,-1.1058185,-0.30830103,0.7661555,-0.11013975,-0.28120184,0.6875424,-0.12214379,0.08199241,-1.0621402,0.86894166,-0.07791141,-1.3736217,-0.62934875,0.30233356,0.07841866,-0.52193993,1.2604381,0.14493245,-0.49922487,-0.2906962,0.96238625,0.32067215,-0.8037163,0.7067536,-0.22526996,0.4815514,0.31406626,0.06447233,0.3403715,-0.772782,-0.16168304,0.3391418,-0.27190655,0.58204335,0.15685001,0.37184015,-0.36302358,0.15965228,0.36133227,-0.67307234,0.57451177,-0.25355676,-0.072924875,-0.45915303,0.587833,-0.2174832,-1.0433648,0.47006106,-0.674462,0.80535275,-1.0876461,-0.6201941,1.0793568,1.3097389,-0.6005955,-0.3497626,-0.25478414,1.1129116,0.6596583,0.4094103,0.94221985,0.16494963,0.3875467,0.45775986,-0.30698943,0.5768284,-0.21787815,0.35778588,-0.027028915,0.32988626,-0.19772793,-0.02171173,-0.8311211,-0.15715623,0.80639464,0.27294526,-0.8440934,0.86116815,-0.39760104,-0.32217628
target_dataset:KMRC-20,0.024689432,0.43352824,0.58153445,0.5048849,-0.87078047,0.82078093,-0.45419395,0.5748826,-0.2516992,-0.4998776,-0.025822522,0.5016892,-0.6596406,-0.4161262,0.49374285,-0.08919947,-0.83061135,0.73233604,-0.27008155,-0.6265993,0.20135662,-0.71936846,-0.13763939,-0.51190186,0.2746002,-0.9464884,-0.54369503,0.4231911,-0.61571,0.20745274,0.21705642,-0.37425968,-0.9549685,-0.37311506,0.57038647,0.59949446,-0.5210174,-0.28343803,0.7553892,0.34345818,-0.47395113,0.19989905,-0.07205131,0.25435716,-0.5408466,0.60327625,-0.7110016,-0.45578748,-0.118756935,-0.56960475,0.30263746,-0.4057142,0.444869,0.61966676,-0.45444706,-0.6134309,-0.36967924,0.016127292,-0.004003316,-0.114949495,0.7841656,-0.5939676,-0.27312857,-0.066492885,-0.14347942,-0.09005689,-0.6078428,-0.3809198,-0.6630304,-0.18565683,-0.8656414,-0.43509814,0.6032929,-0.49683586,0.66832036,-0.77887994,-0.4881173,0.63534635,0.49173483,-0.648167,0.7204823,0.13836497,0.43898064,0.5317026,-0.23830585,0.68219316,1.0205978,0.6328064,0.6843991,-0.72144973,-0.32204878,0.12050906,0.20355554,-0.32574823,-0.08702968,0.48137364,0.27349445,-0.08027097,0.28138536,0.14838792,0.23566668,-0.2277389,0.15796888,0.1775958,-0.057846952
target_dataset:A-204,-0.67868674,0.22101034,0.54425734,1.6220661,-1.0043355,0.4532872,0.21425183,0.35034335,-0.07103727,-0.31714064,0.7344028,0.3021164,-0.29422367,0.4804725,0.49639913,-0.94071496,-0.94746673,0.30289555,0.15389162,-1.0697527,0.7212427,-0.5355969,-0.32873097,-0.8400038,-0.4198042,-0.18611783,-0.31833535,-0.20018363,-0.05482915,0.2320762,0.07303232,-0.35614783,-1.5819645,0.40057233,-0.15183902,0.7102865,0.7069568,0.40688792,0.6124382,0.80162936,-0.22366333,-0.68762064,0.33726338,0.9936913,-0.4996484,-0.42012647,-0.9986364,0.24974266,-0.5289034,-0.3445906,-0.59935665,-0.7524215,0.39175445,0.8805569,0.32642385,-1.1487627,-0.5437715,0.36159062,-0.49341083,-0.3814944,0.5597181,-0.32428098,-0.047674205,-0.34537616,0.44682592,-0.81517506,-0.81713337,-0.638545,-0.36865363,-0.7758921,-0.846004,0.001740396,0.26372057,-0.0165895,0.11967541,0.014670088,0.028356388,-0.078299284,-0.53094566,-0.26772445,1.0037055,0.34212235,-0.91833544,-0.04548777,-0.7830831,-0.09825152,0.9380404,0.49088213,0.28881168,-0.71680063,-0.92763156,0.008069705,0.20283312,-0.28891057,-0.533121,0.7290505,0.4059431,0.50994235,0.26117343,-0.21390373,-0.41604385,0.22840543,-0.37818983,0.07310419,-0.15016922
