,E0,E1,E2,E3,E4,E5,E6,E7,E8,E9,E10,E11,E12,E13,E14,E15,E16,E17,E18,E19,E20,E21,E22,E23,E24,E25,E26,E27,E28,E29,E30,E31,E32,E33,E34,E35,E36,E37,E38,E39,E40,E41,E42,E43,E44,E45,E46,E47,E48,E49,E50,E51,E52,E53,E54,E55,E56,E57,E58,E59,E60,E61,E62,E63,E64,E65,E66,E67,E68,E69,E70,E71,E72,E73,E74,E75,E76,E77,E78,E79,E80,E81,E82,E83,E84,E85,E86,E87,E88,E89,E90,E91,E92,E93,E94,E95,E96,E97,E98,E99,E100,E101,E102,E103,E104,E105,E106,E107,E108,E109,E110,E111,E112,E113,E114,E115,E116,E117,E118,E119,E120,E121,E122,E123,E124,E125,E126,E127,E128,E129,E130,E131,E132,E133,E134,E135,E136,E137,E138,E139,E140,E141,E142,E143,E144,E145,E146,E147,E148,E149,E150,E151,E152,E153,E154,E155,E156,E157,E158,E159,E160,E161,E162,E163,E164,E165,E166,E167,E168,E169,E170,E171,E172,E173,E174,E175,E176,E177,E178,E179,E180,E181,E182,E183,E184,E185,E186,E187,E188,E189,E190,E191,E192,E193,E194,E195,E196,E197,E198,E199,E200,E201,E202,E203,E204,E205,E206,E207,E208,E209
source_dataset:NCI-H2810,0.43290925,0.11762744,-0.44333538,0.508166,0.48052862,0.8821339,0.14520295,1.0730047,-1.1004839,0.035104334,-0.6152246,0.24403144,0.63367355,0.26590505,-0.6817413,-1.6605214,-0.1876492,-0.6754836,-0.4571659,0.60482234,-0.24511926,-0.54711294,0.34937668,-0.8870929,0.065684125,-1.7286456,-0.01752621,-0.46195242,-0.4949078,-0.94737136,2.0659113,0.6500466,-2.1198852,-0.5923586,0.8451918,-0.5943709,-0.574049,1.4438089,-0.10655953,-1.1890016,-0.7674325,-0.432319,0.5654447,-1.0734475,-1.440203,0.66958785,-0.09124336,0.62789357,-1.712903,0.5872767,0.8799746,-1.2436649,-0.30744246,-0.3162775,-0.6267318,0.8975642,0.72312605,-2.243884,1.2898157,-0.015377104,-1.4172525,2.2197013,-1.3398448,-0.7498714,-0.3639105,1.3435197,1.6674987,-0.71918803,-0.62203026,-0.34634042,-1.130541,0.822507,0.7721824,-0.46313944,-0.26350367,-0.10987635,1.4261336,0.21094391,0.4991973,0.9490929,-2.1065192,-1.5668132,1.0117972,-0.7991587,-0.5008181,-0.16385184,-1.4482259,-0.57803476,-1.1081388,-0.34649104,-0.3930714,-0.33648446,0.32509992,0.07693246,-1.2909384,0.18044275,-0.8856915,-0.3186407,-0.39112502,-0.26260236,0.5081489,1.4780059,-1.0657237,-0.4171627,-0.94122684,-0.17169443,-0.4696266,-0.4789253,0.067673355,0.8576689,-0.81306124,-0.33587813,-0.20518002,-0.7960855,-0.67323047,-0.67339486,0.073586375,0.057803154,-0.102189705,0.7193676,-0.15981832,-0.07218172,-0.62819636,-0.092681736,0.02113375,0.48381618,0.46924514,-0.74413645,-0.19841738,0.52852935,0.7472255,-0.8508245,-0.5954122,0.98283476,-0.11340278,-0.7547276,0.5102727,0.6028398,0.84780365,-0.720992,0.50466406,0.45160636,0.22588088,-0.228256,0.78586113,-0.107564986,0.09502372,0.018423155,-0.9675194,-0.33720124,-0.6520113,-0.32522225,-0.6145447,-0.1791313,-0.10640551,-0.5081121,0.7884254,-0.4204842,0.68372905,0.6301377,-0.5392002,0.27199984,-1.0059643,-0.6663015,-0.40732473,0.5414746,0.6940489,-0.9194962,-1.2135758,0.64588964,0.16060159,0.066364735,0.4254739,-0.26495022,0.7183746,-0.012241572,0.49826097,-0.34839076,0.7998076,-0.44181347,0.4091013,0.9152217,0.31321377,0.032248914,0.7184055,0.5192133,-0.25455788,-0.43489122,-0.28681722,-0.6483748,1.0882599,0.087958224,0.10075022,-0.17847538,0.21930948,0.037540764,-0.43836704,0.17295344,-0.06101898,0.9220389,-0.26152018,-0.39526296,0.27153742,-0.14642853,-0.5200818,-0.24795991,-0.2243333,-0.103123605,-0.72482204,0.35549867
source_dataset:NCI-H196,0.7035599,-0.5812679,-0.45004806,-0.4572039,0.7335558,0.9524965,-0.068519786,0.82600677,-0.60705966,0.4567941,-0.18781897,-0.82506365,-0.26271278,-1.3440636,0.029972404,-1.4191831,-0.17487143,0.18445247,-1.1612526,1.5123155,0.5280896,-0.22993292,1.204136,-0.90230304,0.24717964,-1.3579026,0.5998375,-0.18846056,-0.2252117,-0.55324566,1.7624352,0.37410763,-1.9643228,-0.20087573,0.64348656,-0.31293362,-1.7207512,1.1532364,-0.99515295,-0.05397466,-0.4479634,-0.27542782,-0.25995612,-0.7547233,-0.1896189,0.4649896,0.47492462,-0.1923109,-1.3206546,0.6255175,1.1590028,-0.83337057,0.6169362,0.31059012,-0.43393677,0.4273753,1.270607,-1.7243819,1.3593009,-0.6231543,-0.44479102,2.206923,-0.7649814,0.15214913,-1.3815438,1.4881194,1.0324317,-0.68148786,0.58645046,0.34009066,-2.0089767,0.22527485,0.3197223,0.14749008,0.597591,0.08161044,1.1421144,-0.37891456,-0.31529745,1.042161,-1.6837066,-1.2630278,1.2983029,-0.018791407,0.06564751,-0.36911184,-1.7457461,-0.93841934,-1.0879244,1.0199963,-0.12250137,0.44641382,0.11121256,0.23981774,-0.80173874,0.7658324,-1.7571375,0.09343153,0.30135006,-0.05052782,0.20918973,0.27999657,-0.8338696,0.0150536,0.042647257,0.08975634,0.20967895,-0.09135956,0.8016357,0.13623582,-0.6977302,0.010449924,-0.87626195,0.017939419,0.37349102,-0.14597052,-0.59819865,-0.47590435,0.5835397,0.9667703,-0.71322966,-0.23678991,0.1760145,-0.93039197,0.03295906,0.19228736,0.19491464,0.086698204,0.23298648,-0.202555,0.14047927,-0.26680663,-0.56571305,-0.06569989,0.46932217,-0.6469539,-0.29820493,0.3824725,0.25594807,-0.3923816,0.17228366,-0.28859645,0.63330513,0.5669493,-0.05100289,0.52449554,-0.36172953,0.49439925,0.1923086,0.4891131,0.3172359,-0.7139476,-0.26390737,0.52201587,-0.54907507,0.02454707,-0.30909368,-0.45037776,0.709637,0.44417056,-0.14202833,0.8306923,-0.7576441,-0.40481418,-0.14389172,0.22579876,-0.44019812,-0.451001,-0.27220872,-0.14181687,0.79017514,0.92167234,0.670154,-0.039552383,-0.109516785,-0.6003244,0.5800172,-1.006012,-0.20253384,0.26273447,-0.32869303,0.36287737,0.12857896,0.72930455,-0.021553248,0.30623204,0.5586261,0.16113085,-0.1022211,0.18914561,0.17637452,-0.085797146,0.42808855,-0.20429823,0.6559563,0.33002675,0.44690365,0.5153898,-0.04526759,0.59293664,0.4266201,-0.68856806,0.5709425,-0.35373846,-0.61140895,-0.117100574,-0.31762567,-0.053113177,0.18114296,-0.45586848
source_dataset:MOLM-13,-0.52511454,-0.43807134,-0.048416674,0.55333257,0.34088546,0.34182456,-0.046608225,-0.21405128,0.034307897,0.70589936,0.23070249,0.09553829,0.6869361,-0.61551106,-0.032023385,-0.21730517,-0.25772238,-0.54214275,-0.32698426,0.50106364,0.13514534,0.34712255,-0.15197916,0.05587299,0.01702933,-0.50488275,0.12947655,0.40481317,0.58584243,0.113681704,0.019409299,-0.45918834,-0.5849244,0.62109506,-0.23566271,0.2890573,-0.44779706,0.35257527,0.21320078,-0.5767497,-0.33733988,0.23301496,0.02543065,-0.058933735,0.03570342,0.13218224,-0.054308534,0.25187242,-0.8556632,-0.48575145,-0.025883913,0.33410913,0.42006737,0.30103323,0.47735065,0.2717154,-0.5523138,-0.29156935,0.38726014,-0.3052181,-0.52084345,0.82790816,0.41753006,0.44705474,-0.5311791,0.17131461,0.47458175,-0.42220846,0.20764618,0.24769448,-0.7246878,0.3536598,-0.6744096,0.05514919,-0.15240763,-0.6542851,-0.40057546,0.15962842,-0.23761255,-0.012689978,-0.6214583,0.12198749,0.006669268,0.47898108,-0.13679725,0.069658875,-0.51429915,-0.37993458,-0.76801044,0.40908533,0.027489068,-0.13067088,-0.25880796,-0.5152813,-0.16211982,0.24180254,-0.49668407,-0.0351319,0.6246101,-0.31611347,-0.21033877,0.36121947,0.21043515,0.61937356,0.69195414,-0.1479074,1.2114413,-0.42599934,0.9958943,-0.5914184,-1.773275,0.33953843,-1.5856526,-1.3789889,1.3428662,1.2496641,-1.0406708,-0.29855716,0.11509425,2.5463216,0.60347277,0.36268583,-1.332324,-1.2723479,0.2960972,-0.4302006,0.23921779,1.1945482,-0.845912,-0.007203087,-1.2644026,-0.22536838,-0.21067066,0.14507157,-0.17698294,-1.0648184,1.3468436,1.7661626,0.95985734,-2.0057938,-1.3087857,-1.3871365,1.4661804,1.3581648,1.7074708,0.3360428,1.0018307,1.5221425,-0.7583586,1.2315732,-1.2668595,-2.1305954,-1.6169386,1.5658193,-0.27146497,-1.2194719,0.93619555,-1.8054016,1.0758216,1.828608,-1.5646698,1.266147,-2.1690807,-0.5082967,1.5390482,1.5355796,1.0741659,0.445794,-1.2835448,0.23036572,1.5046616,1.3133929,0.25860035,-0.58572876,-0.4365297,-0.16387722,-0.46061856,-1.2928207,0.25746354,0.5880972,-1.4479091,0.93141437,-0.288784,1.1954837,0.3975857,0.17194492,0.33865222,-1.097611,0.09084153,-1.2965689,1.4320676,1.5075703,0.94966716,-1.6233957,0.8434026,0.56618977,1.1134784,2.1852808,-1.68023,2.0167878,-0.9190797,-1.1051025,0.01904577,-1.5603939,-0.6839661,-1.008971,-1.2454656,-0.09436175,-0.99901676,-1.2076511
source_dataset:L-540,-0.95334953,-0.35515773,-0.8949921,1.0135978,0.7248621,0.12133235,0.089092374,-0.25057104,-0.498861,1.0654933,-0.041294694,1.3406665,1.0924389,0.5016645,-0.12974244,-1.2608814,-0.7641603,-1.2716881,0.67779976,-0.7480484,-0.43580133,-1.2470984,-0.797813,-0.949182,-1.1299618,-0.94474494,-0.4507136,-0.07778287,-0.53708595,0.2622055,0.94974864,-0.36260873,-1.2300415,0.42530325,0.10445547,-0.0001745224,0.77031016,0.8357382,0.66547847,-0.9520042,0.00036287308,0.5990241,0.2754867,-1.5778377,-1.4743271,-0.23650545,-0.7998388,1.0664431,-1.7173191,-0.7904026,-0.1625463,-0.39604607,0.24312162,0.0042930096,-0.56290394,1.2168266,-1.0291686,-1.5862546,0.07482509,-0.18579492,-1.3984474,1.4214308,-0.5445843,-0.20828803,0.33468977,0.68057245,0.91200125,-1.065821,-0.59285647,-1.097385,0.49792323,1.1867752,0.4128595,-0.64391744,-1.1317576,-0.21340701,0.6035642,0.74587846,0.5480955,1.0015905,-1.7052087,-1.0431159,-0.035142586,-1.0745256,-0.8616838,1.1153476,-0.28718597,0.60034704,-1.1648288,-0.34619793,0.273803,0.08822253,-0.13282411,-0.8232879,-1.1559498,-1.2116963,-0.13311335,-1.3044333,0.12129583,0.5051818,0.52434087,0.8027543,-0.6106173,0.40671447,-0.7795173,-0.044900686,-0.8597474,-0.582232,-0.1835042,1.2201132,-0.9125569,-0.8467434,-0.30698457,-0.9299745,-1.5216944,-1.2174923,0.6130204,0.34042963,-0.2542416,0.38362968,-0.7560133,0.0017514676,-0.47978395,-0.040747106,-0.33685708,0.3727152,0.36032495,-1.4525064,0.16517642,0.49842408,1.5597199,-0.9080436,-0.7648779,1.2903868,-0.013868827,-0.781532,0.13244088,0.88792706,0.73606646,-0.7199778,1.418269,1.0440674,-0.13974322,-0.40321225,0.7529105,-0.6520617,-0.24575813,-0.6796827,-0.9327495,-0.49112236,-0.5120082,-0.04119636,-0.71359354,-0.40701947,0.23976329,-0.021222472,0.60294706,-0.19654012,1.1005177,0.47750092,-0.36033094,0.37593085,-1.2500008,-0.9637424,-0.89505076,0.29545638,1.0627509,-1.3734627,-0.96415496,0.8663589,-0.20647192,-0.24832916,0.24299064,-0.6215368,1.0948718,0.25101706,0.82754517,-0.11475167,1.2752136,-0.9158424,1.1200688,1.4021704,0.3547992,-0.24393985,1.0929844,1.031524,-0.44071862,-0.3697505,-0.5042083,-0.6231619,1.2600552,-0.4924356,-0.34971356,-0.044433556,-0.092912555,-0.15046823,-1.1911658,0.24784587,0.8426765,0.5102399,-0.362492,-0.39585096,0.42905682,-0.37749282,-0.72108704,0.06911135,-0.31886587,0.29393095,-0.82513106,1.0707574
source_dataset:KM12,-1.1050539,-0.09994051,-0.39971998,1.142246,0.1772199,0.15642378,0.4538312,0.11303577,0.106866,0.5085544,-0.4449057,1.1427621,0.696403,0.04030122,0.11413765,-1.1000166,-0.49011338,-0.99947333,0.31588525,-0.18809277,-0.6826265,-0.6054612,-0.21448298,-0.05831091,-0.62564266,-0.32124883,-0.44041547,0.047127694,-0.33353359,-0.24635923,0.47094154,-0.2834694,-0.3708081,0.012003541,-0.20438538,0.0090204775,0.06806585,0.2283461,0.75407887,-1.0118548,-0.2651716,-0.24961108,0.34656078,-0.58683515,-0.67452145,0.2777184,-0.099276125,0.9145932,-0.9652401,-0.7930892,0.110516235,-0.23096654,0.42329055,-0.17986365,0.08699188,0.72944474,-0.4384855,-0.50440043,0.20787838,-0.09736313,-1.1482811,1.1492686,-0.2101466,-0.21880962,0.24334097,0.6166401,0.6956167,-0.72517514,-0.12040216,-0.522754,-0.10633539,1.120182,0.31116766,-0.31400785,-0.29181916,-0.60852325,0.042028487,0.89834976,0.57815087,0.34765214,-1.2577542,-0.55015314,0.12406106,-0.6486066,-0.24275321,0.48700178,-0.09942175,0.5551137,-0.83876,0.012105823,0.4476915,-0.19429845,-0.25682187,-0.8898321,-0.17358138,-0.8891878,0.20793536,-0.9290217,0.14398554,0.17164919,0.32841146,0.96336067,-0.1443574,-0.068930626,-0.18788111,0.9723973,0.08673832,-0.24470714,0.81304383,-0.21651536,-0.6354512,-0.48198628,-1.5426476,0.20651376,-0.40066856,-0.708038,-0.3280125,-0.089202985,0.6158577,0.8387315,-1.113908,-0.09914753,0.28127816,-1.2834826,-0.35467476,-0.4261624,-0.02499462,-0.7893851,0.25781745,-0.4590335,0.37385404,0.032227248,-0.36549556,-0.2891584,0.22701663,0.0007805675,-0.3841381,0.6432053,0.06424153,-0.748901,1.1718137,-0.13501108,0.57818365,0.36374837,0.09066617,-0.25529036,-0.35145587,-0.09380804,0.8805895,0.6665149,0.77093446,-0.46859768,-0.90029985,0.8838793,0.24807665,0.74326897,-0.60131526,-0.41299587,1.1862392,0.044946507,-0.12272874,1.4866127,-1.1237831,-0.741273,-0.20598431,-0.012844026,-0.041523784,-0.34406498,0.64421546,0.17447506,0.6417733,0.8028923,0.16896518,-0.63349986,0.27922255,-0.48438507,0.7523503,-0.8746171,0.5330408,-0.09460969,-0.1938766,1.1140631,-0.64610785,0.63668954,0.04341483,0.967492,0.39574143,0.3185051,0.46472883,0.66475314,0.41284096,-0.4048978,0.25288853,-0.07513965,0.5687664,-0.034418672,-0.4986613,0.66335565,0.71847826,0.31241,0.14999667,-0.22277232,0.710237,-0.90600157,-0.7624417,0.21563295,-0.54602605,0.3485552,-0.0030281395,0.17944002
source_dataset:WSU-DLCL2,-0.43347883,-0.15546584,0.14984533,0.42205635,0.07296363,0.43852746,0.083662555,0.28118548,0.37350255,0.3583982,-0.26968673,0.42320687,0.27737325,-0.19872126,-0.19626519,-0.38348293,0.1228828,-0.3480705,0.17233777,0.14010489,-0.3630762,0.12747122,-0.0004392207,0.18370612,0.22696535,-0.43631664,0.43599394,0.38355413,0.14895143,-0.41150525,-0.14605199,-0.08727785,-0.14357084,0.26864854,0.15367527,0.32394505,-0.2001265,0.18997976,0.13630532,-0.35720572,-0.4490229,-0.22672836,0.29164463,-0.39394775,-0.42757195,0.26911694,0.23540017,0.37695274,-0.34355673,-0.33110368,0.27160445,0.39071736,0.28468952,0.0743451,0.14837559,0.42131063,-0.26828495,-0.21416953,0.27385706,-0.28122845,-0.21761055,0.3303687,0.18576756,0.17961995,-0.19978544,-0.0014401111,0.44602945,-0.27599582,-0.010199381,0.22724031,-0.30165562,0.39029413,-0.21953617,-0.09224435,-0.1098255,-0.2901084,-0.4690383,0.26407072,0.107310615,-0.39946395,-0.2716854,0.450418,0.16763459,0.17843767,-0.24986547,-0.18459463,-0.108148426,-0.094183,-0.30466878,0.088261075,0.032393023,-0.031767912,0.09733662,-0.18151361,0.08644025,0.16402045,-0.24745125,-0.4612823,0.21876074,0.06612941,-0.21996428,0.45098072,-0.17966065,0.29277685,0.24328199,0.33482698,-0.4093187,0.05517844,0.2689706,0.3446696,-0.3898055,0.08152799,-0.24275222,-0.07784865,-0.17519811,-0.4541944,-0.38471514,-0.27510965,0.17988476,0.2610567,-0.38362154,-0.19736454,-0.04191037,-0.3717296,0.23941468,0.39956298,0.12838244,-0.37291843,0.107052825,0.14316028,0.4003998,-0.29114342,-0.41162238,0.25712845,0.040869705,-0.17468634,-0.16133443,-0.13807145,0.39971513,-0.07996014,0.3759707,0.39413422,0.05613437,0.07858503,0.019194497,0.27213928,-0.3686206,0.14259149,-0.15381353,0.15077876,-0.0352262,-0.18158038,-0.08616476,0.18260816,-0.28008062,-0.2772766,-0.040425822,-0.15688963,0.23824516,0.27480742,-0.046987325,0.4027985,-0.25377843,-0.3013583,-0.2646313,-0.24588421,-0.27467367,-0.48647177,-0.4602629,0.16971515,0.2954637,0.402916,0.39858335,-0.03319179,0.15348731,-0.24195342,0.23011613,-0.42599794,0.24146637,0.018479,0.2019135,0.19011217,-0.1421926,0.33611453,0.25319088,0.33012986,0.047337756,0.21876197,0.24692047,0.16243933,0.4283874,-0.09955474,0.31035787,0.08883519,0.25880578,0.40769234,0.041400358,-0.15567765,0.0048249476,0.19383629,0.09641955,-0.14740928,0.36102664,0.2263844,-0.28763393,-0.035420045,-0.032482084,-0.23297724,0.021075752,-0.126813
source_dataset:JVM-2,-0.4654039,-0.27008453,0.077024825,0.46843633,0.17742679,0.4022657,0.030525886,0.08456069,0.24292852,0.49454665,-0.06786938,0.28028166,0.43499488,-0.377293,-0.12844478,-0.3099028,-0.024925336,-0.41765618,-0.036658764,0.29638562,-0.15844025,0.2275121,-0.052910913,0.1399559,0.15262282,-0.45999962,0.31956565,0.39570707,0.33156082,-0.2032699,-0.08634469,-0.23612466,-0.31516045,0.41044572,-0.004039854,0.3121817,-0.31175187,0.2509759,0.16098851,-0.43949223,-0.4066622,-0.046775177,0.18183084,-0.24827884,-0.22878489,0.21750025,0.12736854,0.3189699,-0.54061383,-0.38951474,0.15566726,0.3734253,0.3420482,0.16804159,0.28740907,0.353504,-0.37503862,-0.2349197,0.3224957,-0.29303214,-0.3300234,0.5254572,0.28567848,0.29261392,-0.34114617,0.06507464,0.4533144,-0.32946217,0.08559646,0.24717058,-0.48272252,0.36821693,-0.4091635,-0.02678132,-0.11667143,-0.43798578,-0.4487803,0.21658918,-0.037715144,-0.25205946,-0.40300572,0.32774884,0.105490044,0.31122774,-0.19768159,-0.09213329,-0.27337748,-0.21666804,-0.48660052,0.22522298,0.02911022,-0.07110209,-0.045872837,-0.3114933,-0.0042796806,0.20763059,-0.35206538,-0.28066516,0.38546345,-0.092104964,-0.22191583,0.40969902,-0.01804407,0.42460394,0.43493772,0.33538294,-0.15081723,0.0042192787,0.44449008,0.15352269,-0.5161228,0.11555135,-0.49399057,-0.11231872,0.06937107,-0.2576932,-0.51888436,-0.31437027,0.26660496,0.5663334,-0.32839012,-0.16053627,-0.1020346,-0.5724994,0.22374806,0.2593007,0.13435376,-0.16837528,0.017697379,0.049826644,0.147489,-0.23711279,-0.3776611,0.12455123,0.06027606,-0.2419298,-0.042728662,0.06201288,0.4068491,-0.29550314,0.19331156,0.09080964,0.29136792,0.26048928,0.13779816,0.31983322,-0.22938606,0.33715576,-0.06930898,0.330155,-0.035339195,-0.42227435,-0.26631033,0.40910026,-0.29458755,-0.2898573,-0.02895575,-0.34683263,0.3596682,0.3934,-0.1874715,0.5859245,-0.4668917,-0.32057047,-0.052237093,-0.04307258,-0.2270023,-0.3359821,-0.42415386,0.11782672,0.49948707,0.5882111,0.40706995,-0.08175218,0.04616956,-0.3197422,0.20385553,-0.6017034,0.17065123,0.13469942,-0.086824074,0.26862526,-0.1959536,0.49459946,0.17058499,0.3081495,0.16418867,0.12947078,0.26982614,0.11356143,0.45179796,0.06290505,0.42121753,-0.085776515,0.39773482,0.40349793,0.20140356,0.12441428,-0.17073636,0.40632072,0.06643915,-0.25695226,0.36359003,-0.015117288,-0.35328132,-0.12631886,-0.17441219,-0.2090053,-0.020807363,-0.29962745
source_dataset:A-704,0.79938555,0.8619714,0.59535193,0.94654155,-0.34606853,1.1884758,0.3817181,1.7272654,-1.0053,-1.0998769,-1.0075195,-0.265037,0.87136984,0.4240394,-1.2329386,-0.9720608,0.43793982,-0.59030366,-1.2018551,1.496228,-0.44045165,1.0370767,0.6471887,0.39777058,1.3708136,-1.5937071,-0.018915564,-0.3229101,0.4041555,-1.8664546,1.6077741,1.031393,-1.590069,-1.1509991,0.7036137,-0.74125135,-1.2672805,1.1801734,0.17904578,-2.0120244,-1.6331522,-1.449456,1.1548836,0.5779221,-0.8182444,1.6010988,0.4819469,0.47417775,-1.0605627,1.1139444,1.0685314,-1.1183888,-1.0165323,-0.7514432,0.4337055,0.18397711,1.2779344,-1.2668566,1.8626177,0.5088736,-1.4791638,1.8630683,-1.0262822,-1.0903596,-0.45011213,0.9283252,1.9482869,0.01669997,-0.77951413,0.63748676,-2.120877,0.5220923,0.20801397,-0.19446115,0.3863551,-0.88024247,0.763629,0.1664194,0.50516593,-0.2607488,-1.4999099,-0.78671074,1.082552,0.1442285,0.00013144314,-1.4297247,-1.6280584,-1.4424227,-0.6958944,-0.7150615,-0.9284355,-1.48041,0.40308514,0.32254267,-0.49635112,1.3936228,-0.47121304,0.8777148,-0.62837225,-1.5597638,0.052629516,2.4003882,-0.39663833,-0.98535025,-0.25550842,0.9097526,-0.58689296,-0.23504728,-0.023018599,0.2914309,-0.96687055,-0.663256,-1.007351,-0.80439806,-1.2720846,-0.79885626,0.26613852,0.3790824,-0.26896155,0.36348057,-0.79402894,0.2688188,-0.4686801,-0.622596,-0.2826206,-0.36203584,-0.17882994,-1.2439291,0.15390012,0.04972204,0.97555375,-0.12716243,-0.34914243,0.6377904,-0.26428306,0.00353048,-0.027146086,0.94804454,0.44405317,-0.9299949,1.438965,0.8497079,-0.17835578,0.13985586,0.81495035,-0.9576045,-0.2582913,-0.6598994,-0.17744261,0.43428797,-0.36687383,-0.29850253,-1.110623,0.56928706,0.73984873,0.14961836,0.0723923,-0.4273526,1.1499889,0.50404364,-0.40772802,1.0601718,-1.3382208,-0.882578,-0.14799634,-0.23173383,1.0932915,-0.5915158,-0.082858294,0.7843535,0.017807662,0.08414325,-0.3460228,-1.0812919,0.6547639,0.43031445,0.18699287,-0.118833095,1.4740297,-0.634876,0.77766716,1.4146903,-0.7460499,0.13245635,1.0135348,1.3026769,-0.41806793,-0.14375246,0.39601886,-0.2175098,1.353475,-0.33275056,-0.1567195,-0.31030896,-0.18904853,0.15519905,-1.13253,0.76743805,0.8879114,0.01368098,-0.8463722,-0.06160947,0.37207285,-0.8746208,-0.625997,0.17784128,-0.6976421,0.48804176,-0.7087449,0.8002154
source_dataset:NCI-H2087,-0.45095187,-0.1678288,0.12167007,0.4454322,0.09547587,0.42669475,0.078738734,0.24864578,0.3406889,0.38590863,-0.24489391,0.4346428,0.31709927,-0.1924665,-0.19218265,-0.39209697,0.08938527,-0.3800079,0.16714944,0.13050109,-0.34787902,0.10893292,-0.030165967,0.15731217,0.19002485,-0.44991708,0.4023165,0.37541243,0.15414873,-0.37627673,-0.11979996,-0.108665854,-0.18192717,0.28701523,0.13614996,0.3162874,-0.18224743,0.20980863,0.15638006,-0.38416782,-0.43659484,-0.18989299,0.2847344,-0.4044574,-0.43529207,0.25305197,0.19840008,0.39011624,-0.393303,-0.34894472,0.24646913,0.3736804,0.2843109,0.07974839,0.14835739,0.43309614,-0.3024013,-0.24489719,0.2720227,-0.2769491,-0.25803858,0.36935592,0.1807137,0.17968479,-0.19641387,0.015240593,0.45831448,-0.2973825,-0.019791454,0.19824211,-0.295768,0.4072399,-0.22622758,-0.10039899,-0.13847232,-0.3055897,-0.44675004,0.27266192,0.10540828,-0.35823122,-0.3140676,0.40898192,0.15252645,0.1635895,-0.2611724,-0.14608692,-0.12462347,-0.0897507,-0.34032774,0.0847153,0.035502873,-0.038095374,0.07858321,-0.20996158,0.049640283,0.13642816,-0.24928276,-0.4626286,0.23112226,0.05764215,-0.20449857,0.4595833,-0.17133662,0.30869198,0.23802827,0.21848361,-0.013897747,-0.019174546,0.5598339,0.15348431,-0.6129238,0.09530674,-0.619308,-0.113301106,0.20459479,-0.17135039,-0.5513483,-0.3763172,0.35433853,0.72266334,-0.44612113,-0.17211574,-0.032915138,-0.69198394,0.1704191,0.23946798,0.1480222,-0.031875044,0.09290958,-0.03102614,0.13430928,-0.24740708,-0.4485469,0.07849952,0.20603845,-0.41537654,-0.1227656,0.20079651,0.36588275,-0.34020585,0.14224178,-0.04100263,0.4048511,0.4036625,0.0957205,0.4003255,-0.27228835,0.41091818,-0.022271805,0.40639544,0.03557188,-0.559145,-0.2630831,0.45809585,-0.39856306,-0.2220088,-0.109202035,-0.40469462,0.48086008,0.45894548,-0.19063912,0.65871227,-0.58617264,-0.34314477,-0.054132164,0.060115695,-0.2763905,-0.3706751,-0.4153253,0.022989959,0.6085043,0.71051025,0.496845,-0.07124893,-0.03322362,-0.3940428,0.3014813,-0.7420157,0.03239502,0.19049272,-0.1670622,0.28780752,-0.06636302,0.5861347,0.12926464,0.2973266,0.29734918,0.11574946,0.1170412,0.089810334,0.37725258,0.033650912,0.42374152,-0.16406828,0.47374356,0.4079081,0.32345015,0.3029642,-0.15606318,0.4765335,0.16348419,-0.4388526,0.42259747,-0.14544734,-0.44271702,-0.14126457,-0.24334446,-0.15381287,0.037370365,-0.37833726
source_dataset:EW-24,-0.4986326,-0.08623139,0.0018415153,0.637071,0.12790939,0.41326588,0.13944604,0.28584412,0.13593076,0.35861084,-0.30878448,0.60333025,0.50159085,0.017544553,-0.25643072,-0.5869721,-0.024721414,-0.5767788,0.19412133,0.042119704,-0.43235925,-0.05593127,-0.12810762,0.03974165,0.045334697,-0.5737542,0.19233982,0.24786536,0.039225534,-0.40764222,0.15183653,-0.067908704,-0.39062083,0.17488143,0.15048036,0.18441519,-0.0648683,0.3447489,0.30323502,-0.6417445,-0.46171904,-0.19565831,0.38150132,-0.50468975,-0.6510685,0.2918404,0.060299248,0.5502027,-0.63126266,-0.3489307,0.22796264,0.13930827,0.17046389,-0.029627249,0.07298658,0.54960096,-0.3244922,-0.4892082,0.33205357,-0.17772044,-0.56495357,0.62413,-0.025961384,-0.012583733,-0.06601758,0.17702977,0.64094883,-0.39536515,-0.19284043,-0.0052899867,-0.25380042,0.5834322,-0.0646041,-0.2115181,-0.2672994,-0.35983813,-0.21496549,0.3974234,0.2563768,-0.16098289,-0.6217778,0.09883031,0.17050774,-0.0744677,-0.33658862,-0.027478442,-0.20660776,-0.02141384,-0.484397,-0.08221508,0.025986142,-0.15765557,0.061130133,-0.30465424,-0.14758204,-0.046560377,-0.16689065,-0.53662986,0.12590289,0.0145444535,-0.05548206,0.7070836,-0.2425448,0.19032043,0.016321748,0.29828495,-0.21130957,0.045681704,0.43511432,0.23365483,-0.4685894,0.09940808,-0.43655175,-0.030980347,0.034234248,-0.32176167,-0.48676002,-0.3506481,0.30127963,0.4586159,-0.46125066,-0.20380405,0.026690792,-0.5539948,0.2040183,0.32217512,0.123173356,-0.19414316,0.13962562,0.024181098,0.27190164,-0.24309483,-0.43296397,0.12026309,0.15589365,-0.27278304,-0.21060975,-0.016500592,0.34348086,-0.1563775,0.2770436,0.17653379,0.22217855,0.25353485,-0.015957242,0.36505762,-0.36948395,0.27193412,-0.020811647,0.29622987,0.07106109,-0.3502623,-0.12762159,0.3260284,-0.36072382,-0.20518461,-0.14647876,-0.24949478,0.3446467,0.32714263,-0.06975952,0.5403214,-0.3705498,-0.3059503,-0.18307967,-0.14283533,-0.356252,-0.42523372,-0.37667954,0.057612404,0.45803055,0.5794196,0.46245053,-0.030518472,0.032660473,-0.3477719,0.2840677,-0.59838754,0.088792324,0.12653807,0.015095577,0.19833967,-0.109600216,0.47722483,0.1531052,0.30685642,0.20550862,0.22167003,0.19326845,0.19489363,0.33936667,-0.0734211,0.36976755,-0.004845865,0.37565964,0.4182499,0.20311844,0.043695703,-0.04106905,0.28365737,0.18323952,-0.2884915,0.4130901,0.065765396,-0.36199427,-0.06273498,-0.118343085,-0.19355628,0.09258777,-0.26949993
source_dataset:HuCC-T1,-0.6302315,-0.14231619,-0.026900679,0.63892555,0.12013902,0.3521531,0.17945808,0.21660653,0.27149802,0.42037618,-0.3074633,0.65279204,0.42561632,-0.094981745,-0.12163756,-0.5951247,-0.06604914,-0.5580079,0.23718959,0.0116574615,-0.45495886,-0.11023545,-0.09745627,0.08373928,-0.042370185,-0.42615423,0.17365897,0.2810621,0.0018955767,-0.3451007,0.046976164,-0.14821422,-0.23779869,0.20951065,0.05949506,0.23204032,-0.080655076,0.22332053,0.32504964,-0.5571161,-0.3878882,-0.2007382,0.31322205,-0.48739257,-0.5394609,0.25266868,0.104714096,0.54784,-0.55410683,-0.47006744,0.20735282,0.20491756,0.3094058,0.0019223168,0.107974455,0.53271455,-0.3520403,-0.33807096,0.24515045,-0.22459419,-0.50624907,0.57321143,0.0578195,0.057566345,-0.055300757,0.17409861,0.52998394,-0.41868776,-0.072022386,-0.018746927,-0.20931341,0.61065185,-0.06146033,-0.17480719,-0.20484057,-0.37233055,-0.3030365,0.44996122,0.2504239,-0.16269091,-0.57455814,0.14393163,0.14133093,-0.082813606,-0.27685267,0.037836105,-0.10514555,0.10164948,-0.47106606,0.038335923,0.14482728,-0.07741645,-0.00053820014,-0.3893047,-0.02782718,-0.16146535,-0.115337014,-0.61552763,0.19144574,0.106530055,-0.052268192,0.6045408,-0.1848397,0.20422807,0.089696825,0.36742052,-0.3600667,0.094255805,0.31752935,0.27680123,-0.37829274,0.12132801,-0.28710666,-0.021642517,-0.08849453,-0.4010718,-0.4442638,-0.31475216,0.2215999,0.27254266,-0.40592635,-0.20407574,0.0067139035,-0.43073523,0.25267208,0.37358502,0.10004731,-0.30111235,0.12952551,0.09137016,0.33755404,-0.23643787,-0.39786023,0.1744805,0.06963433,-0.14888147,-0.21226573,-0.1651193,0.35836267,-0.054480404,0.3357313,0.34074315,0.079464495,0.14198998,-0.03597728,0.31870985,-0.39588815,0.18455781,-0.07047145,0.22308691,0.022248903,-0.21205556,-0.061366495,0.24661708,-0.30693838,-0.2548578,-0.11773402,-0.16308331,0.224514,0.2663336,-0.022220382,0.44221318,-0.22514303,-0.27333474,-0.22489384,-0.2807035,-0.35674554,-0.4329846,-0.3914289,0.11318476,0.34200132,0.46592015,0.4049935,-0.018095762,0.08270021,-0.27678284,0.21019027,-0.46637118,0.17144465,0.078390345,0.1418721,0.13708584,-0.1764479,0.39050335,0.20013562,0.3094134,0.099386275,0.26267207,0.28191376,0.22282188,0.36804587,-0.0975978,0.34242517,0.08224722,0.28505257,0.4415757,0.11545511,-0.13260989,-0.010997759,0.16227077,0.13110366,-0.15654399,0.3736302,0.21766469,-0.28302783,-0.030110227,-0.039945453,-0.2365771,0.08576603,-0.1982222
source_dataset:Ishikawa (Heraklio) 02 ER-,-0.43347883,-0.15546584,0.14984533,0.42205635,0.07296363,0.43852746,0.083662555,0.28118548,0.37350255,0.3583982,-0.26968673,0.42320687,0.27737325,-0.19872126,-0.19626519,-0.38348293,0.1228828,-0.3480705,0.17233777,0.14010489,-0.3630762,0.12747122,-0.0004392207,0.18370612,0.22696535,-0.43631664,0.43599394,0.38355413,0.14895143,-0.41150525,-0.14605199,-0.08727785,-0.14357084,0.26864854,0.15367527,0.32394505,-0.2001265,0.18997976,0.13630532,-0.35720572,-0.4490229,-0.22672836,0.29164463,-0.39394775,-0.42757195,0.26911694,0.23540017,0.37695274,-0.34355673,-0.33110368,0.27160445,0.39071736,0.28468952,0.0743451,0.14837559,0.42131063,-0.26828495,-0.21416953,0.27385706,-0.28122845,-0.21761055,0.3303687,0.18576756,0.17961995,-0.19978544,-0.0014401111,0.44602945,-0.27599582,-0.010199381,0.22724031,-0.30165562,0.39029413,-0.21953617,-0.09224435,-0.1098255,-0.2901084,-0.4690383,0.26407072,0.107310615,-0.39946395,-0.2716854,0.450418,0.16763459,0.17843767,-0.24986547,-0.18459463,-0.108148426,-0.094183,-0.30466878,0.088261075,0.032393023,-0.031767912,0.09733662,-0.18151361,0.08644025,0.16402045,-0.24745125,-0.4612823,0.21876074,0.06612941,-0.21996428,0.45098072,-0.17966065,0.29277685,0.24328199,0.38202372,-0.3860436,0.10265451,0.2903614,0.27948296,-0.3677145,0.13044827,-0.25771222,-0.034822777,-0.108339764,-0.40535635,-0.43857804,-0.30383107,0.1965277,0.24367419,-0.3775106,-0.19748798,-0.015014091,-0.40379184,0.26772732,0.37949517,0.09477174,-0.3154899,0.115028456,0.110295355,0.33832982,-0.23431763,-0.3851639,0.19034187,0.040946595,-0.122620754,-0.19441499,-0.18682143,0.36988905,-0.046980664,0.3339243,0.36949927,0.053119656,0.12295593,-0.021447113,0.30505887,-0.38733456,0.17417718,-0.0934107,0.21308868,-0.007511428,-0.19331598,-0.059864737,0.23840114,-0.29044268,-0.28105727,-0.09673984,-0.15657686,0.19861943,0.26653874,-0.02615905,0.4225804,-0.20454998,-0.26634958,-0.21663752,-0.30054513,-0.3400558,-0.42496115,-0.40633535,0.13117607,0.32099706,0.44196337,0.38609508,-0.021061428,0.0915491,-0.25423327,0.1802125,-0.4366317,0.19716442,0.069994986,0.16106322,0.1281217,-0.19775277,0.37405142,0.21651797,0.3085602,0.070478104,0.25892276,0.30616453,0.21329218,0.3891392,-0.085937314,0.34139693,0.088212304,0.26453704,0.4500149,0.10099313,-0.1580394,-0.02164999,0.14780596,0.10316116,-0.12826191,0.35766196,0.24215046,-0.26413983,-0.031875663,-0.030694881,-0.24776407,0.07096234,-0.18879265
source_dataset:MOLT-4,-1.0748714,-0.39441285,-0.7646923,1.0439851,0.53804654,0.11736071,0.32431653,-0.1651353,-0.2233969,0.8864751,-0.1396366,0.98641974,0.8218383,-0.22616851,0.27134997,-1.2854978,-0.815762,-1.0794139,0.1127957,-0.0840704,-0.337127,-0.8724705,-0.2509278,-0.51444674,-0.97543937,-0.5302402,-0.57531095,-0.05089438,-0.36262947,0.14168361,0.8841541,-0.4533044,-0.9233658,0.218221,-0.26838863,-0.06536263,-0.022524193,0.5021399,0.62861073,-0.9627007,-0.061561704,0.16461258,0.08574493,-0.8352289,-0.6372574,0.057130292,-0.35476157,0.85454375,-1.4721869,-0.84035754,0.027939573,-0.44409135,0.6044682,0.012595471,-0.064435646,0.8310815,-0.528497,-0.96312463,0.27625653,-0.22433916,-1.3422799,1.6652191,-0.3125527,-0.0746689,0.012264296,0.9384177,0.76117545,-0.98475444,0.006724758,-0.72553843,-0.25823995,1.1598036,0.2939657,-0.30621928,-0.41487134,-0.5742985,0.417291,0.79512393,0.40118667,0.9299422,-1.7208519,-1.0682088,0.15638335,-0.7531389,-0.29616782,0.83777916,-0.43958256,0.49476883,-1.223943,0.26161128,0.5015359,0.0076914877,-0.4104413,-1.0301249,-0.5956543,-1.0316006,-0.14171036,-0.91922855,0.34856594,0.22760811,0.4827695,0.7737459,-0.20063308,0.15243433,-0.19934851,1.2020047,-0.45122153,-0.1260078,0.27003086,-0.0532479,-0.5131489,-0.4415896,-1.0405247,-0.10647916,-0.93111676,-0.8788581,-0.09169331,0.16433394,0.122838736,0.2788817,-0.75460154,0.042990535,-0.08710563,-0.7889037,-0.1737724,-0.3336644,-0.13755229,-1.1711419,0.0972193,-0.1228082,0.591516,0.03588766,-0.20375393,0.09729223,-0.23451686,0.39466643,-0.15466832,0.37102625,0.25479668,-0.63035345,1.3240234,0.5110551,0.030517647,0.016825028,0.35949767,-0.612275,-0.2825994,-0.42768568,0.43091926,0.45613086,0.23537044,-0.10685793,-0.89207643,0.67439044,0.5936365,0.3670338,-0.2534935,-0.2643707,0.8452104,0.06002249,-0.16713007,1.1480546,-0.85088104,-0.6919286,-0.17043439,-0.39055791,0.36709192,-0.33120185,0.38384658,0.5387221,0.19198374,0.31035477,-0.19153741,-0.76954347,0.5117221,-0.009946182,0.2991845,-0.3040542,1.0845913,-0.35369164,0.32451504,1.0711591,-0.96144664,0.28576,0.4480365,1.0655758,-0.15417445,0.23708649,0.7839592,0.44425407,0.8417936,-0.32775643,0.118567914,0.027355883,0.12617537,0.08584079,-0.9017104,0.27862018,0.729112,-0.019205436,-0.37674648,0.2240247,0.46201158,-0.54701114,-0.4901908,0.24236494,-0.42311215,0.25247735,-0.30148143,0.5030003
source_dataset:C32 [Human melanoma],0.07997155,0.22100204,0.13207683,0.6474519,0.02344776,0.74648535,0.23040624,0.8989717,-0.36003911,-0.1648562,-0.5985184,0.20719916,0.53731,0.07042858,-0.5746684,-0.8940852,0.11519038,-0.51997185,-0.39871097,0.66680866,-0.38682252,0.22738442,0.29706284,0.02985914,0.497445,-1.0344682,0.13901585,-0.036940187,0.05555734,-0.9792731,0.9032028,0.40312815,-1.0003941,-0.38917503,0.43255746,-0.22479749,-0.63389635,0.7422277,0.1334519,-1.0815122,-0.87285775,-0.68306947,0.6112936,-0.21907116,-0.7401931,0.7840954,0.25180677,0.4862496,-0.8747697,0.2781883,0.65477234,-0.46812043,-0.21082088,-0.28346252,0.08677736,0.45205903,0.44538066,-0.9547378,0.9847903,0.027411103,-0.9147886,1.2680016,-0.53229547,-0.43330973,-0.29560196,0.6287146,1.1757562,-0.30514827,-0.35130653,0.20035706,-1.0620754,0.5723935,0.16460119,-0.20057893,0.04243847,-0.46669245,0.33990902,0.27052435,0.3433641,-0.02643013,-1.1045574,-0.42699206,0.6430197,-0.08631794,-0.19425115,-0.5374845,-0.8630551,-0.5670471,-0.62812763,-0.22403565,-0.31026542,-0.55272496,0.20642762,-0.024962619,-0.36715096,0.48127952,-0.41943884,-0.03868538,-0.17128722,-0.5025299,0.055450335,1.3022618,-0.41884232,-0.29851177,-0.16817802,0.08913246,0.2130301,-0.092484675,0.8018367,0.13347338,-0.7016792,0.011908814,-0.878412,0.012264479,0.37684113,-0.14065474,-0.5997962,-0.47499633,0.5812179,0.97229946,-0.7075563,-0.23433568,0.16973491,-0.93116933,0.034283012,0.1899975,0.19497916,0.09069523,0.22851595,-0.20141497,0.13505654,-0.26660323,-0.5640812,-0.064562306,0.4662385,-0.6480389,-0.29147476,0.3873888,0.25890672,-0.39847517,0.16651365,-0.29226583,0.63599503,0.5696262,-0.04390098,0.52348924,-0.35627759,0.49816722,0.18816328,0.49178445,0.31050014,-0.71905154,-0.26911464,0.5258899,-0.5476659,0.019200027,-0.30384728,-0.45549124,0.7105294,0.44953406,-0.14761542,0.8319798,-0.7626903,-0.4050731,-0.13720945,0.2304667,-0.4339974,-0.44736668,-0.276426,-0.14001127,0.79251504,0.9227029,0.6681776,-0.04172684,-0.11060324,-0.59817755,0.57538086,-1.0065191,-0.20023155,0.26382375,-0.33263648,0.36489648,0.12653127,0.7307756,-0.019598499,0.3056949,0.55718833,0.1561821,-0.10098195,0.183201,0.1816632,-0.07939258,0.4300868,-0.20967075,0.6562659,0.3311121,0.44919074,0.52133846,-0.05181274,0.59815526,0.4208441,-0.68960696,0.5684822,-0.357913,-0.6113068,-0.12058891,-0.32102984,-0.053499714,0.17627424,-0.4585875
source_dataset:Kelly,-0.2254409,-0.059065416,0.18361154,0.4182259,0.06135208,0.5496684,0.08333709,0.46265677,0.17801034,0.2096499,-0.3384818,0.30487168,0.3220131,-0.13019106,-0.33784345,-0.46614003,0.17086558,-0.344564,0.010462105,0.30165213,-0.33763534,0.20571376,0.08744688,0.14199752,0.36842918,-0.6294191,0.43176663,0.29282016,0.1601488,-0.5756321,0.10321078,0.067476384,-0.38224632,0.11577828,0.27290085,0.19819413,-0.32672447,0.35553926,0.078784585,-0.50074166,-0.5790305,-0.33400178,0.3766994,-0.35221246,-0.51498616,0.40120864,0.25362852,0.36416662,-0.4529814,-0.11815399,0.38738915,0.20210573,0.12708707,-0.00020059198,0.12021144,0.41466305,-0.06709404,-0.42141035,0.47540426,-0.21238741,-0.33528468,0.52380633,0.011072531,0.042022064,-0.26197088,0.11977132,0.6339176,-0.25110626,-0.10958525,0.27294958,-0.5154551,0.37782267,-0.15569675,-0.11170742,-0.07185027,-0.30078763,-0.27530688,0.20609486,0.13237457,-0.3485708,-0.4258631,0.2841711,0.30089194,0.1671083,-0.25079554,-0.32987797,-0.32318097,-0.28305626,-0.3532996,-0.0040155724,-0.10580771,-0.1574406,0.16424608,-0.0712733,-0.040327057,0.339575,-0.34272167,-0.31117606,0.11346136,-0.094250344,-0.18745461,0.64153826,-0.26224568,0.16953065,0.15030651,0.38202372,-0.3860436,0.10265451,0.2903614,0.27948296,-0.3677145,0.13044827,-0.25771222,-0.034822777,-0.108339764,-0.40535635,-0.43857804,-0.30383107,0.1965277,0.24367419,-0.3775106,-0.19748798,-0.015014091,-0.40379184,0.26772732,0.37949517,0.09477174,-0.3154899,0.115028456,0.110295355,0.33832982,-0.23431763,-0.3851639,0.19034187,0.040946595,-0.122620754,-0.19441499,-0.18682143,0.36988905,-0.046980664,0.3339243,0.36949927,0.053119656,0.12295593,-0.021447113,0.30505887,-0.38733456,0.17417718,-0.0934107,0.21308868,-0.007511428,-0.19331598,-0.059864737,0.23840114,-0.29044268,-0.28105727,-0.09673984,-0.15657686,0.19861943,0.26653874,-0.02615905,0.4225804,-0.20454998,-0.26634958,-0.21663752,-0.30054513,-0.3400558,-0.42496115,-0.40633535,0.13117607,0.32099706,0.44196337,0.38609508,-0.021061428,0.0915491,-0.25423327,0.1802125,-0.4366317,0.19716442,0.069994986,0.16106322,0.1281217,-0.19775277,0.37405142,0.21651797,0.3085602,0.070478104,0.25892276,0.30616453,0.21329218,0.3891392,-0.085937314,0.34139693,0.088212304,0.26453704,0.4500149,0.10099313,-0.1580394,-0.02164999,0.14780596,0.10316116,-0.12826191,0.35766196,0.24215046,-0.26413983,-0.031875663,-0.030694881,-0.24776407,0.07096234,-0.18879265
source_dataset:Caki-1,-0.4976396,-0.2532718,-0.15617347,0.44520378,0.27527004,0.38964027,0.08161394,0.2076171,0.1751885,0.55478346,-0.24275583,0.5940822,0.33994973,-0.12711875,-0.12375519,-0.6982028,-0.09026989,-0.48437607,0.27912173,-0.035924867,-0.3556451,-0.30568886,-0.07468906,-0.18156378,-0.12476121,-0.5802122,0.28848672,0.24247164,-0.12138735,-0.26858836,0.20983024,-0.11256929,-0.45834,0.2707408,0.2059736,0.23097214,-0.049138874,0.36896446,0.1458047,-0.37551373,-0.30302727,-0.047410488,0.2274577,-0.78761613,-0.6853677,0.13170396,0.042148262,0.49977273,-0.6723362,-0.39627236,0.25982234,0.14901021,0.35465577,0.0852964,-0.12589674,0.6384158,-0.32375336,-0.62632346,0.2509916,-0.32233217,-0.43620762,0.65619373,-0.058831796,0.10364343,-0.13502246,0.25527218,0.54519904,-0.501802,-0.07618437,-0.10041465,-0.15423584,0.5705356,0.027928367,-0.21167612,-0.29068217,-0.17181055,-0.11557931,0.3413817,0.20066014,0.027261227,-0.6641216,0.011403114,0.2134287,-0.18079202,-0.38102967,0.13215047,-0.19476914,0.09014237,-0.5165816,0.079246126,0.12597084,0.11719755,0.06782856,-0.28352302,-0.23302595,-0.17773804,-0.3215623,-0.72059274,0.1914899,0.2768293,-0.00822413,0.44901317,-0.38030052,0.29868928,-0.051453114,1.1973945,-0.4352145,-0.46759582,0.33074033,0.07815911,-0.61069906,-0.8244633,-1.3047317,-0.16286246,-1.3298051,-1.2456726,0.16126749,0.36241212,0.19402747,0.5180949,-0.9159615,0.040940106,-0.13188435,-0.8647226,-0.46011692,-0.45140472,0.023446985,-1.6237534,0.028368272,-0.10612339,0.83236575,-0.16793734,-0.2833617,0.23815054,-0.23832941,0.2660941,0.017711952,0.74412227,0.3258487,-0.9752731,1.7469779,0.44491976,0.22771081,-0.21522091,0.57810014,-0.908339,-0.123647034,-0.6249302,0.46000805,0.23454483,0.36754,-0.07096447,-1.2643074,0.57806766,0.81045985,0.67018497,-0.09334476,-0.31999406,1.2500257,-0.03753835,-0.29462266,1.344262,-1.278263,-0.9755826,-0.3968547,-0.035460353,0.7131288,-0.5619782,0.4498362,0.7522844,0.16217926,0.21483561,-0.18710843,-0.9586735,0.89658064,-0.06814805,0.7070679,-0.37227485,1.3968089,-0.6358682,0.34964973,1.6294503,-0.87423974,0.16429543,0.504493,1.3193786,-0.18160895,0.08345194,0.63394725,0.3997476,1.0121834,-0.44169417,-0.0069155395,0.04626506,0.23029323,-0.29823846,-1.3741252,0.40357423,1.0031017,0.2938379,-0.36349112,0.1983843,0.56694937,-0.8772856,-0.70631933,0.28739524,-0.5205129,0.4329307,-0.56164455,0.89347297
source_dataset:AM-38,-1.1020076,-0.35240984,-0.98194563,1.1855171,0.51643646,0.17317924,0.6574582,0.15398009,-0.37632686,0.6825707,-0.44100747,0.85598576,0.64275956,-0.68309987,0.60798764,-1.931785,-1.0672518,-1.0931365,-0.42133737,0.4748219,-0.3594808,-1.0497501,0.34511548,-0.54276395,-1.1309618,-0.47175515,-0.9536332,-0.35910782,-0.65517306,-0.11995101,1.6017553,-0.32908905,-1.2020223,-0.3108301,-0.41706938,-0.4423585,-0.7362155,0.5373103,0.6121628,-1.2331852,-0.11810115,-0.32707897,-0.008924037,-0.5669627,-0.31559083,0.4053072,-0.077632785,0.8747343,-1.7165958,-0.7390331,0.40077165,-1.0984215,0.8549093,-0.1535778,0.020678997,0.75367546,0.22119612,-1.0768123,0.6778997,-0.18926263,-1.7662281,2.558224,-0.68904495,-0.3222171,-0.18027778,1.7168435,0.9889307,-1.1680099,0.36377302,-0.7831273,-1.0197202,1.4506252,0.72494274,-0.18521899,0.15378222,-0.797935,0.9408421,0.9898226,0.5423471,1.4430709,-2.4636748,-1.8967922,0.6065151,-1.048071,0.117895275,0.78014976,-0.8752682,0.5292616,-1.571948,0.6836613,0.7414021,-0.068143725,-0.6264883,-1.2639253,-0.52310854,-1.2044655,-0.22442709,-0.7990185,0.31686926,0.08165322,0.8109361,1.0860653,-0.1901743,-0.3954501,-0.22208771,0.43418944,-0.35473022,0.06143036,0.33535188,0.2344471,-0.34253466,0.10143225,-0.32245368,0.020575058,-0.12263039,-0.4525959,-0.44928268,-0.29036212,0.24376464,0.28805384,-0.377611,-0.21073194,-0.0010659369,-0.4459429,0.23970361,0.34240127,0.11658418,-0.36891025,0.07904658,0.090845935,0.30442458,-0.23401721,-0.3661516,0.14365652,0.024457917,-0.082637474,-0.15795249,-0.17814957,0.36557615,-0.09304847,0.37304518,0.30609557,0.11607009,0.08473393,-0.0115985125,0.2848363,-0.34376588,0.1797953,-0.018858328,0.2025081,0.06282528,-0.18320319,-0.12174702,0.26443428,-0.25444436,-0.22204527,-0.09754633,-0.16694087,0.23103242,0.21512529,-0.039262068,0.4805978,-0.23437235,-0.29014993,-0.2204056,-0.25621444,-0.34422904,-0.405153,-0.33915013,0.14543971,0.34558815,0.45875067,0.38491204,-0.03220499,0.1295903,-0.3029892,0.23120093,-0.46769112,0.21907327,0.0631722,0.094349906,0.18776807,-0.23931114,0.3811125,0.16589653,0.32651076,0.0886093,0.2654342,0.35172966,0.27123636,0.3795286,-0.0785372,0.3631483,0.109921634,0.31621766,0.38678297,0.054625906,-0.16969821,-0.01671176,0.20331743,0.12911612,-0.091282666,0.3745883,0.20565821,-0.27969795,-0.026401978,-0.03139358,-0.24466002,0.059000753,-0.17053035
source_dataset:HCC1806,-0.43347883,-0.15546584,0.14984533,0.42205635,0.07296363,0.43852746,0.083662555,0.28118548,0.37350255,0.3583982,-0.26968673,0.42320687,0.27737325,-0.19872126,-0.19626519,-0.38348293,0.1228828,-0.3480705,0.17233777,0.14010489,-0.3630762,0.12747122,-0.0004392207,0.18370612,0.22696535,-0.43631664,0.43599394,0.38355413,0.14895143,-0.41150525,-0.14605199,-0.08727785,-0.14357084,0.26864854,0.15367527,0.32394505,-0.2001265,0.18997976,0.13630532,-0.35720572,-0.4490229,-0.22672836,0.29164463,-0.39394775,-0.42757195,0.26911694,0.23540017,0.37695274,-0.34355673,-0.33110368,0.27160445,0.39071736,0.28468952,0.0743451,0.14837559,0.42131063,-0.26828495,-0.21416953,0.27385706,-0.28122845,-0.21761055,0.3303687,0.18576756,0.17961995,-0.19978544,-0.0014401111,0.44602945,-0.27599582,-0.010199381,0.22724031,-0.30165562,0.39029413,-0.21953617,-0.09224435,-0.1098255,-0.2901084,-0.4690383,0.26407072,0.107310615,-0.39946395,-0.2716854,0.450418,0.16763459,0.17843767,-0.24986547,-0.18459463,-0.108148426,-0.094183,-0.30466878,0.088261075,0.032393023,-0.031767912,0.09733662,-0.18151361,0.08644025,0.16402045,-0.24745125,-0.4612823,0.21876074,0.06612941,-0.21996428,0.45098072,-0.17966065,0.29277685,0.24328199,0.19936171,0.3360318,-0.22412464,1.0427022,0.051363915,-0.579346,-0.14544393,-1.1426909,0.36156332,0.33865613,-0.38589865,-0.61841697,-0.500292,0.87800956,1.0962368,-0.9541223,-0.35705125,0.44415098,-1.1494379,-0.1413058,0.10755363,0.28019613,-0.10147944,0.28286666,-0.3630361,0.15491456,-0.27904373,-0.59668034,-0.2948808,0.60507584,-0.611315,-0.40988308,0.38945946,0.13108043,-0.42706776,0.42286247,-0.5151313,0.8700795,0.47211564,-0.2366716,0.5420525,-0.3861436,0.47109663,0.59953,0.4399227,0.7965444,-0.64863133,-0.3406675,0.54846376,-0.5400135,0.4250559,-0.5123663,-0.3959059,0.8928041,0.17236492,-0.04260866,1.055998,-0.8203748,-0.49876595,-0.3353327,0.3370457,-0.65681225,-0.50434065,0.08172542,-0.21243404,0.89826846,1.0472436,0.7872681,-0.013034908,-0.008384772,-0.8851695,0.9564698,-1.209315,-0.2928429,0.25286365,-0.51995766,0.53335553,0.13659364,0.7854819,-0.28251833,0.3750701,0.7625524,0.3043345,-0.09261808,0.53133786,-0.05450833,-0.2517513,0.4534388,-0.046205424,0.8873877,0.082978636,0.31758702,0.45433205,0.15646678,0.7034868,0.74499416,-0.6711788,0.7407175,-0.471406,-0.73738444,-0.017110638,-0.28298616,0.010403827,0.31269693,-0.3803795
source_dataset:ME-1 [Human leukemia],-0.5967203,-0.35330182,-0.13247445,0.64372766,0.33994296,0.31488103,-0.0018284917,-0.14553684,0.0037614703,0.6922504,0.10196948,0.38348424,0.7245922,-0.3102708,-0.10412162,-0.38404965,-0.26754826,-0.656494,-0.054633096,0.20589793,-0.06285998,0.07408312,-0.27651235,-0.05887562,-0.1242771,-0.56233484,0.07225031,0.331672,0.35238394,0.046329707,0.10971196,-0.38529986,-0.5927291,0.53707576,-0.122507885,0.25439698,-0.16218376,0.39738813,0.31312126,-0.6386434,-0.31533122,0.21818902,0.14013605,-0.3446307,-0.30923128,0.09911157,-0.14644179,0.42654017,-0.90329146,-0.52087736,-0.025858492,0.24392888,0.33308762,0.199819,0.27262247,0.45148775,-0.6267562,-0.46957764,0.30323282,-0.2588042,-0.6297941,0.80541307,0.23619914,0.28121042,-0.30026716,0.18663993,0.54723793,-0.48867503,0.001570791,0.021557584,-0.4182673,0.50115794,-0.44076383,-0.09653207,-0.3367553,-0.5417352,-0.27911997,0.28781068,-0.037100457,0.05022782,-0.71584725,0.021288544,-0.0044145286,0.18279183,-0.29033092,0.1949378,-0.38295865,-0.16960154,-0.7422887,0.18346462,0.05342626,-0.11572953,-0.17533493,-0.51707315,-0.2783712,-0.00964044,-0.3551619,-0.31006905,0.46318287,-0.14085436,-0.102503024,0.48035517,0.029090911,0.53338814,0.37425315,0.38202372,-0.3860436,0.10265451,0.2903614,0.27948296,-0.3677145,0.13044827,-0.25771222,-0.034822777,-0.108339764,-0.40535635,-0.43857804,-0.30383107,0.1965277,0.24367419,-0.3775106,-0.19748798,-0.015014091,-0.40379184,0.26772732,0.37949517,0.09477174,-0.3154899,0.115028456,0.110295355,0.33832982,-0.23431763,-0.3851639,0.19034187,0.040946595,-0.122620754,-0.19441499,-0.18682143,0.36988905,-0.046980664,0.3339243,0.36949927,0.053119656,0.12295593,-0.021447113,0.30505887,-0.38733456,0.17417718,-0.0934107,0.21308868,-0.007511428,-0.19331598,-0.059864737,0.23840114,-0.29044268,-0.28105727,-0.09673984,-0.15657686,0.19861943,0.26653874,-0.02615905,0.4225804,-0.20454998,-0.26634958,-0.21663752,-0.30054513,-0.3400558,-0.42496115,-0.40633535,0.13117607,0.32099706,0.44196337,0.38609508,-0.021061428,0.0915491,-0.25423327,0.1802125,-0.4366317,0.19716442,0.069994986,0.16106322,0.1281217,-0.19775277,0.37405142,0.21651797,0.3085602,0.070478104,0.25892276,0.30616453,0.21329218,0.3891392,-0.085937314,0.34139693,0.088212304,0.26453704,0.4500149,0.10099313,-0.1580394,-0.02164999,0.14780596,0.10316116,-0.12826191,0.35766196,0.24215046,-0.26413983,-0.031875663,-0.030694881,-0.24776407,0.07096234,-0.18879265
source_dataset:SK-N-SH,-0.62051886,-0.12017591,0.096869454,0.58528423,-0.0037582219,0.38365203,0.2672218,0.33174765,0.45114285,0.28584212,-0.40470034,0.504215,0.23205483,-0.34653047,-0.006088719,-0.57212263,0.011558928,-0.4080692,0.06735424,0.25406146,-0.46311712,0.069460385,0.15811421,0.30111194,0.113794856,-0.25451916,0.22733551,0.3148378,0.050829343,-0.48010892,-0.05221539,-0.11993121,-0.031008124,0.095096156,-0.014226317,0.23395061,-0.38550723,0.060127586,0.25905317,-0.48791844,-0.44405758,-0.44100404,0.2720377,-0.21280329,-0.24491642,0.39213198,0.34971818,0.44164753,-0.3360143,-0.4367835,0.33520755,0.24087107,0.4243355,-0.009511039,0.2738324,0.3727675,-0.10017158,-0.047814384,0.315108,-0.24761492,-0.3752059,0.53982043,0.1515321,0.10251487,-0.16960058,0.20593914,0.44665822,-0.3305433,0.14693236,0.18534723,-0.47057852,0.5521076,-0.0882287,-0.042137444,0.10463331,-0.44914925,-0.43018514,0.4403131,0.20556606,-0.30514145,-0.45740125,0.25662386,0.24158636,0.06860471,-0.06302233,-0.16079636,-0.10855538,0.05099863,-0.39031452,0.24264771,0.20679286,-0.08955096,-0.03871426,-0.37704676,0.2562265,-0.021679372,-0.11234693,-0.48210827,0.23232447,0.035194054,-0.111987375,0.5717629,-0.07112428,0.08125517,0.29658693,0.58323896,-0.5053714,0.09292361,0.14871083,0.2930533,-0.5600652,-0.10503289,-0.474796,-0.27158087,-0.49481803,-0.5047285,-0.19950525,-0.10699153,0.018149331,0.1552158,-0.6198933,-0.03347501,-0.08428031,-0.47983974,0.09902489,0.13755311,-0.080476314,-0.58351374,0.250594,0.045627125,0.6217692,-0.124681085,-0.38894728,0.31746444,-0.0036716722,-0.056734845,-0.312509,0.13168511,0.3227747,-0.21754414,0.7393395,0.6396294,-0.14255138,0.2084739,0.14306879,-0.10217187,-0.49012527,-0.16300382,-0.079191916,0.36198714,-0.10013219,-0.2051763,-0.29308093,0.35938346,0.027868599,-0.10978675,-0.17878997,-0.18608277,0.48101935,0.34437183,-0.05841946,0.6167826,-0.49309087,-0.4332778,-0.21489592,-0.44923866,0.055045843,-0.4883561,-0.23456824,0.28791624,0.18361033,0.32848948,0.12019056,-0.3769079,0.19543731,0.020769298,0.13016917,-0.29453272,0.57079047,-0.14210021,0.47647026,0.45622987,-0.39312,0.3075467,0.51256853,0.6549785,-0.08157364,0.20973444,0.33079404,0.11744965,0.65025413,-0.26317647,0.13294087,-0.029283695,0.03516762,0.44969416,-0.27039003,0.15123342,0.38440588,-0.09323259,-0.20417273,-0.12501964,0.37733358,-0.086802125,-0.3669722,0.0937305,-0.24897279,0.027984306,-0.08578847,0.12740201
source_dataset:NCI-H211,-0.3765895,-0.2237776,0.07441083,0.30197012,0.13670179,0.46194342,0.078324564,0.3178115,0.36898693,0.4047874,-0.28004968,0.3584077,0.15011516,-0.3262602,-0.12109252,-0.49911478,0.09933305,-0.26676092,0.13244182,0.19763377,-0.31509876,0.016668268,0.12376791,0.07289818,0.18092683,-0.46122104,0.48641592,0.3475519,0.046890758,-0.40747625,-0.02915129,-0.060806938,-0.2250273,0.2418328,0.20283076,0.30219492,-0.3036354,0.22329584,0.014001653,-0.23417519,-0.3998066,-0.22875394,0.21182537,-0.5000527,-0.41281775,0.24613017,0.28254756,0.32770717,-0.37070367,-0.29224858,0.36062658,0.32303536,0.38296154,0.113407984,0.04894001,0.4451213,-0.13868575,-0.3106215,0.3070519,-0.3523465,-0.16739562,0.43315896,0.11605485,0.20778996,-0.2830724,0.117220044,0.43489936,-0.32705706,0.08364364,0.21176253,-0.37183136,0.3830886,-0.12881497,-0.07175798,-0.038636208,-0.19937907,-0.35450047,0.22252962,0.08146234,-0.27398598,-0.35097408,0.3359488,0.266269,0.12028243,-0.22490999,-0.16252002,-0.17600721,-0.0818785,-0.33711863,0.21108499,0.07676849,0.09628139,0.1054927,-0.14595295,0.051058933,0.14553611,-0.3681941,-0.5083732,0.23313028,0.16637622,-0.17757247,0.35491526,-0.26864827,0.2793595,0.20691912,0.34553584,-0.26735073,-0.1974307,0.31618682,0.26720387,-0.53314126,-0.034227356,-0.43447942,-0.28803706,-0.24280798,-0.4661966,-0.3497271,-0.12658651,0.1395573,0.61835825,-0.13251115,-0.12107863,-0.35313877,-0.41169378,0.1734662,0.26133424,0.25845373,-0.48525664,-0.20380749,0.23542313,0.23018278,-0.4104771,-0.34385014,0.35563582,-0.15768412,-0.21432179,0.30665606,0.18219441,0.5927081,-0.52127826,0.32701302,0.16352363,0.31024823,-0.025282979,0.44988954,0.09020452,0.0217489,0.23283528,-0.30047554,0.08373499,-0.23275773,-0.32605445,-0.5204278,0.27523375,-0.0905595,-0.36922038,0.32746464,-0.39269394,0.42427272,0.38980377,-0.3666433,0.5394014,-0.63504374,-0.44622588,-0.09565566,0.16929314,0.14164257,-0.41746953,-0.60608304,0.3872369,0.37743163,0.37626222,0.3233575,-0.18345976,0.3545691,-0.2252324,0.2502849,-0.4732284,0.5197154,-0.07929115,-0.020318538,0.559659,-0.22557986,0.31306517,0.30738863,0.4016368,-0.047835693,-0.068804055,0.30072567,-0.06721419,0.7366901,0.16817811,0.3769741,-0.075260006,0.36975265,0.20438258,-0.13010494,0.046518385,-0.20716296,0.64562446,-0.12284673,-0.11509866,0.29295218,-0.05445221,-0.35880736,-0.17812788,-0.17279954,-0.21795589,-0.34254435,-0.043677002
source_dataset:TE-5,-0.53385854,0.2985116,0.15493512,1.0666206,-0.29003632,0.5441913,0.70697564,0.9275676,0.113425285,-0.35448426,-0.908636,0.41298872,0.35581535,-0.40038025,-0.018729627,-1.1222835,-0.0825865,-0.6022046,-0.60307205,0.9346253,-0.673181,0.2798233,0.67374927,0.5905343,0.3047024,-0.32451037,-0.31295297,-0.05681649,-0.039978594,-1.1120425,0.7299241,0.20960963,-0.3283556,-0.71667206,-0.13020079,-0.3015005,-1.0962547,0.16702302,0.498631,-1.3031074,-0.8470651,-1.2587892,0.53656685,0.45702878,-0.046505958,1.0808768,0.6447923,0.5939144,-0.5717373,-0.12734081,0.7289841,-0.55863357,0.22712567,-0.45040727,0.60279465,0.20130786,0.74568903,-0.10963585,0.9435381,0.088887274,-1.1027435,1.4566505,-0.33295354,-0.48060888,-0.20146178,0.9091438,0.9706204,-0.32853544,0.16684476,0.25143006,-1.4129305,0.894193,0.30093879,0.014015585,0.66990304,-0.94566774,0.069929,0.7289599,0.52389383,-0.084198534,-1.2248176,-0.5286795,0.69537,-0.14436199,0.36601776,-0.5505574,-0.63825476,-0.15244073,-0.6832516,0.24569961,0.19166635,-0.6994811,-0.18136472,-0.5595717,0.3642177,0.066299155,0.057103485,-0.054238737,-0.037662283,-0.58727497,0.18054353,1.4712949,0.052051604,-0.75076854,0.22057997,-0.19627109,-0.69385016,-0.5010188,0.0041634142,1.1083736,-0.6680485,-0.51492316,-0.09027666,-0.6055022,-0.9970471,-1.0355967,0.2699072,0.0811345,-0.03320183,0.4551741,-0.4801702,-0.1789457,-0.36360732,-0.00466156,-0.10913691,0.6091971,0.50329137,-1.0722344,0.027816035,0.5207931,1.1555889,-0.9443226,-0.7214223,1.0512949,0.035352547,-0.7767277,0.21329044,0.46498135,0.74362826,-0.48327893,0.90962607,0.7101766,0.071136795,-0.4314419,0.51148915,-0.15497413,-0.16041665,-0.26167315,-0.85869884,-0.56246907,-0.3689119,-0.045570523,-0.41785783,-0.4573193,-0.12596036,-0.21533844,0.6096241,-0.1636012,0.730861,0.37955803,-0.29389432,0.19156715,-0.8593249,-0.72803104,-0.8256955,0.37793657,0.5308049,-1.2123448,-1.0731192,0.6366179,-0.017345369,-0.065452576,0.51710165,-0.21187565,0.8885517,-0.069888696,0.8085149,-0.2869383,0.7982084,-0.6059062,0.71226573,0.9489945,0.48731333,-0.11440691,0.71268886,0.618222,-0.2390053,-0.25597352,-0.44333676,-0.442159,0.91438544,-0.27714264,-0.07419142,0.083958395,0.16804415,-0.087265074,-0.6939219,-0.09604931,0.35645247,0.7071723,-0.014226615,-0.3709851,0.40240943,0.00796783,-0.57301956,-0.06386819,-0.07597359,-0.03151861,-0.578527,0.63070977
source_dataset:CA46,-0.67527866,0.31662363,0.11421992,1.179064,-0.34170523,0.5000384,0.8354251,0.9535979,0.17807332,-0.39606655,-0.99955904,0.47529638,0.3195258,-0.5097281,0.12357509,-1.2523527,-0.16388713,-0.6431971,-0.66828364,1.0063398,-0.74376994,0.23234679,0.7820253,0.6725309,0.21640669,-0.18733463,-0.4581701,-0.10082355,-0.11148365,-1.1508378,0.78460836,0.17872646,-0.23841694,-0.83031785,-0.25333315,-0.35817474,-1.220726,0.06792176,0.58559984,-1.384686,-0.83541673,-1.4027354,0.51670974,0.57914174,0.08602297,1.1591964,0.7243711,0.63923955,-0.5614594,-0.21237645,0.768736,-0.6548132,0.3353219,-0.5043592,0.6900261,0.16842556,0.8546003,0.015844002,0.9619708,0.107366204,-1.2061292,1.595042,-0.3489817,-0.526716,-0.17828698,1.0501958,0.96076775,-0.3693202,0.2838249,0.21883541,-1.5205456,1.0083232,0.39135438,0.05033759,0.8189607,-1.0546844,0.08909851,0.85492086,0.5910163,-0.018095374,-1.3484228,-0.6579665,0.7416698,-0.22220813,0.4971313,-0.5251023,-0.6281234,-0.039986853,-0.7414552,0.36096135,0.3222354,-0.73062724,-0.28018004,-0.7020328,0.4889151,-0.0741459,0.1546838,-0.07822433,-0.022211745,-0.5981197,0.25543576,1.5437942,0.13069814,-0.892377,0.2618944,0.5468115,-0.32771763,-0.0075817183,0.38657412,0.15615752,-0.28400096,0.05599889,-0.4081918,0.10677588,-0.17531076,-0.54778504,-0.4604138,-0.2512349,0.30183306,0.33770525,-0.34467945,-0.22771503,-0.0016274573,-0.4916972,0.20392397,0.28090578,0.15246613,-0.48783582,-0.0054680705,0.078087896,0.24454942,-0.23326223,-0.31682068,0.077827886,-0.040011033,0.020734452,-0.06758867,-0.18547465,0.3722641,-0.17157254,0.44565165,0.22249597,0.20277178,-0.010760009,0.025489653,0.22972655,-0.2516335,0.17681819,0.09093869,0.16849965,0.15806368,-0.14184679,-0.23656616,0.30113134,-0.16745584,-0.14249407,-0.07212564,-0.17866084,0.26273525,0.11972299,-0.06918856,0.5650511,-0.26785204,-0.32779193,-0.21968384,-0.19454925,-0.3297813,-0.36123928,-0.23341224,0.19474894,0.36579946,0.46038127,0.36101747,-0.05697977,0.21349692,-0.36703163,0.29320055,-0.4903222,0.29196188,0.03849678,-0.006004229,0.29109257,-0.3396631,0.3734435,0.09211546,0.35988986,0.0875773,0.27156484,0.46287155,0.36616093,0.38794112,-0.051581178,0.401292,0.15747738,0.38837266,0.27694312,-0.05131966,-0.22122657,-0.018931653,0.29181942,0.1444856,0.010184601,0.3875719,0.1656499,-0.28751215,-0.018400013,-0.021908037,-0.25140393,0.0172735,-0.12286296
source_dataset:EFM-19,-0.43347883,-0.15546584,0.14984533,0.42205635,0.07296363,0.43852746,0.083662555,0.28118548,0.37350255,0.3583982,-0.26968673,0.42320687,0.27737325,-0.19872126,-0.19626519,-0.38348293,0.1228828,-0.3480705,0.17233777,0.14010489,-0.3630762,0.12747122,-0.0004392207,0.18370612,0.22696535,-0.43631664,0.43599394,0.38355413,0.14895143,-0.41150525,-0.14605199,-0.08727785,-0.14357084,0.26864854,0.15367527,0.32394505,-0.2001265,0.18997976,0.13630532,-0.35720572,-0.4490229,-0.22672836,0.29164463,-0.39394775,-0.42757195,0.26911694,0.23540017,0.37695274,-0.34355673,-0.33110368,0.27160445,0.39071736,0.28468952,0.0743451,0.14837559,0.42131063,-0.26828495,-0.21416953,0.27385706,-0.28122845,-0.21761055,0.3303687,0.18576756,0.17961995,-0.19978544,-0.0014401111,0.44602945,-0.27599582,-0.010199381,0.22724031,-0.30165562,0.39029413,-0.21953617,-0.09224435,-0.1098255,-0.2901084,-0.4690383,0.26407072,0.107310615,-0.39946395,-0.2716854,0.450418,0.16763459,0.17843767,-0.24986547,-0.18459463,-0.108148426,-0.094183,-0.30466878,0.088261075,0.032393023,-0.031767912,0.09733662,-0.18151361,0.08644025,0.16402045,-0.24745125,-0.4612823,0.21876074,0.06612941,-0.21996428,0.45098072,-0.17966065,0.29277685,0.24328199,0.7960104,-0.46692032,-0.11674739,0.23938808,0.19213901,-0.4957384,-0.30075485,-0.7051656,-0.15520146,-0.7231366,-0.77541226,-0.13409737,0.029613078,0.12119467,0.293639,-0.6178384,-0.05060914,-0.105629444,-0.580916,-0.04861766,-0.017623782,0.010818586,-0.9322168,0.092361666,0.02604653,0.6012459,-0.16850138,-0.32183272,0.25127813,-0.1252991,0.09929734,-0.115042575,0.23665655,0.35154366,-0.45664883,1.006726,0.5006057,0.042155646,-0.016206145,0.2797166,-0.30830368,-0.293484,-0.24639611,0.1176803,0.25364342,0.089419425,-0.12128245,-0.6083668,0.40576681,0.2628642,0.11715633,-0.094902195,-0.22227824,0.6592118,0.15773028,-0.14721133,0.82696235,-0.6816269,-0.5846518,-0.27161574,-0.2623332,0.20282808,-0.475532,-0.022250354,0.444596,0.1976294,0.29404703,0.057026744,-0.4964333,0.4522106,-0.0826381,0.3370998,-0.33675423,0.81174135,-0.27623242,0.33388716,0.80601776,-0.5634171,0.2546987,0.4227836,0.80521333,-0.10642546,0.175896,0.49142835,0.2631167,0.7322643,-0.25706634,0.15122384,0.05116809,0.16848686,0.158196,-0.609192,0.11249985,0.4804913,0.12364826,-0.20089298,0.05044867,0.4264269,-0.26358047,-0.44184437,0.12845886,-0.27245793,0.0819657,-0.24093354,0.3379562
source_dataset:BB65-RCC,-0.17662916,-0.1784102,0.069890626,0.23639096,0.15555319,0.5655016,0.075353004,0.4859308,0.21218796,0.30331326,-0.34194484,0.22489084,0.11935665,-0.3379419,-0.19908386,-0.6188398,0.13103123,-0.21888267,-0.022182614,0.36265475,-0.26983353,0.032950595,0.26097912,-0.0098968,0.28017744,-0.62782604,0.5123275,0.2583987,0.009477034,-0.54209334,0.22576918,0.079256184,-0.4539881,0.10364929,0.3239472,0.19082947,-0.46338692,0.37104845,-0.09606974,-0.2870162,-0.4834423,-0.32108885,0.2412701,-0.5119272,-0.47044763,0.34479523,0.3260659,0.28912735,-0.46623564,-0.097573444,0.50095975,0.14023319,0.30391252,0.0726925,-0.019036964,0.44707936,0.093013674,-0.5195502,0.48857737,-0.33212063,-0.23222841,0.6360887,-0.05641316,0.112154946,-0.37806398,0.27117106,0.5796911,-0.32804054,0.052727915,0.24836934,-0.5852158,0.36514804,-0.035716683,-0.07431189,0.033059023,-0.16394456,-0.14589855,0.15220916,0.08639571,-0.17754804,-0.50834906,0.15166903,0.42446363,0.08921126,-0.20982307,-0.27644452,-0.38389754,-0.23328736,-0.38859934,0.19960779,-0.014838837,0.056765154,0.16477467,-0.035659477,-0.06303324,0.28649378,-0.5062622,-0.40473136,0.15553686,0.08289946,-0.1340685,0.46035916,-0.3771559,0.17208871,0.119237855,1.6486453,-0.52630746,-1.7724544,0.4855253,0.24908817,-0.42994884,-1.9950167,-1.9750181,-0.014202371,-2.845186,-2.8334026,0.86638355,1.1750493,0.4664802,1.2088609,-0.7766917,-0.07139377,-0.5175949,-0.8843504,-1.2400658,-0.82123756,0.77314425,-3.5953293,-0.8237106,0.200169,1.2111368,-0.9134004,-0.1950476,0.57398725,-0.8400147,0.5192457,1.273844,1.4502515,0.7802214,-2.2151845,3.121971,0.069312185,1.0337721,-1.6836915,1.5249474,-1.9875373,0.95980084,-1.1807641,0.6665404,-0.89363533,0.8611294,0.46420622,-2.765979,0.19026108,1.8489819,1.5262924,0.8862358,-0.4452473,2.1859431,-0.79095554,-0.8683058,1.9248488,-2.3623745,-1.8608558,-1.055045,1.2594565,1.8555559,-1.0223696,0.74957025,1.7802461,-0.031063467,-0.3296545,-0.30588016,-1.4585786,2.5587838,-0.42728394,1.972904,-0.40974417,2.7832656,-1.6335108,0.058916815,3.5468574,-1.090899,-0.44158515,0.3997586,2.0287223,-0.54050547,-0.4253795,0.8496342,0.560966,1.6972233,-0.4348154,-0.13883832,0.4615573,0.7676063,-1.9101636,-3.2843537,0.057126865,1.4699358,1.6908177,-0.38880196,0.86839473,0.7476922,-1.5746161,-1.1417606,0.35038453,-0.52426416,0.6589901,-1.676809,2.2794402
source_dataset:LOX-IMVI,-0.39506468,-0.20635362,0.0960172,0.4451096,0.14660886,0.4462613,0.05075443,0.21007706,0.22840229,0.41169146,-0.16483645,0.30824614,0.3837376,-0.29064214,-0.18767715,-0.38288447,0.034248807,-0.39285067,0.002608955,0.27481687,-0.22832228,0.18380907,-0.005928695,0.12179999,0.20156014,-0.5135833,0.35845754,0.35667607,0.24547595,-0.3230893,-0.016114935,-0.13473155,-0.33523503,0.31113744,0.09572729,0.27565348,-0.30102614,0.28443885,0.13018239,-0.4433481,-0.45018512,-0.13801026,0.24167916,-0.31780577,-0.34307706,0.26681864,0.16686481,0.3419122,-0.5126415,-0.3083512,0.23676844,0.31176388,0.28327566,0.11290618,0.2070978,0.39003256,-0.27383313,-0.31038463,0.36070204,-0.2743088,-0.32825798,0.5251622,0.18212506,0.20732965,-0.3041581,0.09164694,0.5079315,-0.31535286,0.021214115,0.23505437,-0.4682498,0.38206998,-0.30087098,-0.06283647,-0.109255284,-0.37344906,-0.3790849,0.22076167,0.029299363,-0.26786137,-0.41875774,0.30130264,0.17393547,0.23564586,-0.22374351,-0.15203348,-0.27712962,-0.21239215,-0.44171482,0.15101221,-0.0018368661,-0.07795276,0.027543373,-0.2334472,-0.022443026,0.222044,-0.34738237,-0.32381618,0.29023612,-0.060626008,-0.19940141,0.47503898,-0.118282944,0.33831286,0.3176951,0.35777754,-0.25998652,0.06035797,0.29996458,0.17706278,-0.51466584,0.18369845,-0.3396023,-0.24373761,0.017190702,-0.20833921,-0.4981383,-0.27110645,0.11262022,0.4505462,-0.16986881,-0.10720982,-0.24561809,-0.43469965,0.31551188,0.29430255,0.09757914,-0.1664595,-0.04921946,0.15096651,0.13763517,-0.22696072,-0.32579824,0.23116682,-0.0708596,-0.16485842,0.053169146,-0.0031957626,0.4784367,-0.2730329,0.12058556,0.231445,0.15474103,0.2235134,0.2401555,0.26891288,-0.18630165,0.31441468,-0.24495421,0.3127228,-0.25435245,-0.38364878,-0.2526462,0.38239056,-0.23961933,-0.47680265,0.09569664,-0.34628743,0.23370077,0.46496308,-0.232559,0.4717823,-0.39289343,-0.2764865,0.029939324,-0.12625748,-0.11196759,-0.2911365,-0.5611812,0.1965476,0.40924367,0.48200163,0.31447625,-0.10127668,0.050646827,-0.1766005,0.01106295,-0.45776588,0.28029618,0.11096506,0.013633072,0.2035391,-0.27181745,0.429787,0.28753585,0.28875467,0.01958558,0.076124445,0.3500793,-0.0058909208,0.58313227,0.1500934,0.4154107,-0.11103829,0.27762583,0.48949903,0.186765,0.06407781,-0.262962,0.3420372,-0.10831643,-0.16895351,0.2679075,0.085747465,-0.26186505,-0.16079822,-0.15738155,-0.2611742,-0.10799441,-0.29014337
source_dataset:NCI-H345,-0.41572073,-0.4525551,-0.08131449,0.3466918,0.34568802,0.40415075,-0.019206412,-0.02482608,0.1321079,0.66528046,0.08045688,0.07973322,0.39307505,-0.6895256,0.025533155,-0.4039102,-0.17478348,-0.36588147,-0.2572882,0.49803233,0.0693872,0.16114405,0.06939812,-0.041873515,0.031979367,-0.511987,0.29283613,0.35780105,0.3430639,-0.030736625,0.11636351,-0.32059342,-0.5607774,0.48879758,-0.065596715,0.2739411,-0.5384172,0.3440596,0.018887185,-0.34268028,-0.3074909,0.09503363,-0.012016684,-0.27179083,-0.04963863,0.14562282,0.10304566,0.2072163,-0.73477805,-0.38497388,0.18043555,0.2699354,0.5182077,0.29498982,0.267399,0.33058318,-0.28917575,-0.3792754,0.4054966,-0.39666435,-0.35380295,0.81818646,0.27360624,0.42063543,-0.5649148,0.27557817,0.44442838,-0.43999308,0.28675488,0.24268194,-0.7210144,0.34095082,-0.44131407,0.05290348,-0.027919315,-0.4366031,-0.2808755,0.123467535,-0.1883823,0.032419473,-0.6134192,0.07770553,0.18617618,0.34085643,-0.12274231,0.01133208,-0.49588507,-0.29872525,-0.67564064,0.49780336,0.08522392,0.06684222,-0.15006255,-0.36877894,-0.12396382,0.21817486,-0.5959176,-0.1979861,0.5383388,-0.0864379,-0.16735941,0.24936955,-0.0060891807,0.5126888,0.54068303,1.1365193,-0.08000302,-0.11652235,0.5024835,-0.3600344,-0.58106685,-0.17752446,-1.176084,-0.10643011,-0.35888872,-0.46304265,-0.43543497,0.012962043,0.23481284,0.66833025,-0.4191087,0.05011733,-0.23003343,-0.9532955,-0.014217943,-0.39061072,-0.08690196,-0.6821043,-0.14769222,-0.16726851,0.02442938,0.10098684,-0.09748745,-0.12317397,-0.27941608,0.3491461,0.12879427,0.40885177,0.32554996,-0.80908465,0.7510752,0.019599378,0.36709407,0.24223635,0.49343288,-0.33732602,-0.008525401,0.041521817,0.44523266,0.6671708,0.12969418,-0.4317909,-0.9945762,0.95378256,0.43134275,0.105486125,-0.1353488,-0.5241343,0.74493146,0.24587122,-0.373784,1.2308816,-0.9145105,-0.5706481,0.23335415,-0.118328765,0.26781967,-0.004714191,0.26825356,0.410775,0.50994974,0.58582616,-0.11392447,-0.65398586,0.25687858,-0.16613814,0.102967486,-0.5319339,0.8307065,-0.052532285,-0.210834,0.91167474,-1.0240748,0.52844065,0.23767643,0.8155557,0.0023600534,0.118664116,0.8989197,0.3611905,0.80963826,0.07936562,0.40665612,-0.18637523,0.35982972,0.1802805,-0.43388912,0.47507137,0.1656661,0.3357152,-0.3855396,0.1373023,0.3785489,-0.6313884,-0.44407278,0.017434739,-0.4985528,0.08910163,-0.30967212,0.0439734
source_dataset:GaMG,-0.5396904,-0.33873156,0.012284085,0.5459546,0.22750545,0.36204246,0.045553327,-0.035996735,0.17521629,0.5675031,0.0325813,0.2050502,0.53029704,-0.5410675,-0.028684244,-0.31234616,-0.15739708,-0.48214835,-0.20927963,0.43540043,-0.04625839,0.27980375,-0.04443487,0.1428776,0.069971696,-0.42528445,0.18132046,0.38477877,0.42918795,-0.07981253,-0.019139186,-0.34726334,-0.40119043,0.45897186,-0.15915374,0.2789037,-0.44018337,0.2563833,0.21229717,-0.5325022,-0.37624562,0.016483828,0.10109311,-0.09770805,-0.04139453,0.21660371,0.085379854,0.29736903,-0.67352223,-0.45915073,0.094050616,0.3195876,0.42048097,0.20874383,0.4178288,0.29344088,-0.40107733,-0.20252214,0.3673817,-0.29170087,-0.4512086,0.7178221,0.3445433,0.3484304,-0.4295472,0.16876104,0.45848218,-0.381382,0.19526587,0.24908753,-0.65412307,0.39843252,-0.5023002,0.0321142,-0.061267383,-0.583876,-0.4240124,0.23344116,-0.1095529,-0.124628335,-0.54502594,0.18939263,0.083631575,0.37143743,-0.10956913,-0.02211085,-0.38670516,-0.2599116,-0.635258,0.3623298,0.075730525,-0.1142453,-0.1821225,-0.45534593,-0.018863402,0.18547583,-0.38588774,-0.16274345,0.5034876,-0.20919448,-0.19299614,0.41525823,0.12310797,0.45565897,0.58119565,0.55652887,-0.29118258,-0.029573686,0.42954642,0.13318032,-0.2824781,0.038291484,-0.46076086,0.14232905,-0.16065474,-0.560838,-0.47191602,-0.25673932,0.34364507,0.3803805,-0.36975056,-0.23886146,0.024349622,-0.53376853,0.18050018,0.26004612,0.16449934,-0.4940279,-0.00659775,0.052169334,0.22783202,-0.2327331,-0.31946492,0.042404026,-0.02106303,0.0154204,-0.070264794,-0.16468024,0.35908592,-0.19528185,0.46116042,0.1706374,0.25118768,-0.0072768033,0.014849486,0.23513597,-0.24262513,0.1895687,0.14351317,0.17569171,0.21370459,-0.15495855,-0.26151577,0.32107466,-0.16819395,-0.09580891,-0.09339791,-0.1885689,0.2970947,0.09870498,-0.070068404,0.6064499,-0.29607445,-0.34208217,-0.22659232,-0.16142944,-0.34893328,-0.35799336,-0.1911828,0.18287529,0.3953216,0.489964,0.3768528,-0.058295175,0.21829244,-0.40702903,0.33818424,-0.52959245,0.276029,0.045325406,-0.051328793,0.32034725,-0.33952686,0.39242685,0.055875048,0.3669355,0.12145798,0.2791189,0.46186125,0.3997982,0.3637593,-0.058453135,0.41213405,0.1608026,0.42746234,0.2459312,-0.054536715,-0.20334955,-0.00855598,0.32496324,0.17996462,0.00054481626,0.40839043,0.12995327,-0.30956933,-0.014503676,-0.030343533,-0.24081184,0.027687859,-0.12647265
source_dataset:CHP-126,0.06957668,0.21086916,0.31447607,0.6160817,-0.054944806,0.731972,0.16139951,0.7935107,-0.21115965,-0.17043543,-0.490525,0.106214136,0.5558627,0.023087561,-0.613901,-0.5695585,0.22619808,-0.45172024,-0.4036727,0.6947789,-0.32885727,0.5175646,0.21831661,0.24022695,0.67407376,-0.92265135,0.2585711,0.11893526,0.30808812,-0.92187977,0.5439429,0.32011583,-0.7698931,-0.22918394,0.35488614,-0.08438572,-0.6201302,0.6123978,0.14160255,-1.008596,-0.90433633,-0.6320268,0.6064568,-0.0023893416,-0.5582528,0.7619155,0.2893187,0.3916299,-0.6746434,0.23713237,0.5469705,-0.18473914,-0.23218122,-0.21492521,0.27665827,0.31838402,0.28864428,-0.65645725,0.90382946,0.021341413,-0.7181232,0.9502674,-0.26075894,-0.28030938,-0.33715248,0.35037625,1.0376765,-0.16639304,-0.31123984,0.3992366,-1.036423,0.41348478,-0.11702166,-0.12346104,0.052675404,-0.5354606,0.0144610405,0.1888474,0.21385327,-0.3222478,-0.75973547,-0.03784713,0.50107807,0.21334948,-0.16558412,-0.6542424,-0.7455808,-0.6745138,-0.49077487,-0.21562359,-0.37067842,-0.60206354,0.20166293,0.012447789,-0.18900512,0.6841693,-0.38035858,0.11192322,-0.07487939,-0.60683817,-0.12883638,1.189106,-0.2406669,-0.1465002,0.086888105,0.38202372,-0.3860436,0.10265451,0.2903614,0.27948296,-0.3677145,0.13044827,-0.25771222,-0.034822777,-0.108339764,-0.40535635,-0.43857804,-0.30383107,0.1965277,0.24367419,-0.3775106,-0.19748798,-0.015014091,-0.40379184,0.26772732,0.37949517,0.09477174,-0.3154899,0.115028456,0.110295355,0.33832982,-0.23431763,-0.3851639,0.19034187,0.040946595,-0.122620754,-0.19441499,-0.18682143,0.36988905,-0.046980664,0.3339243,0.36949927,0.053119656,0.12295593,-0.021447113,0.30505887,-0.38733456,0.17417718,-0.0934107,0.21308868,-0.007511428,-0.19331598,-0.059864737,0.23840114,-0.29044268,-0.28105727,-0.09673984,-0.15657686,0.19861943,0.26653874,-0.02615905,0.4225804,-0.20454998,-0.26634958,-0.21663752,-0.30054513,-0.3400558,-0.42496115,-0.40633535,0.13117607,0.32099706,0.44196337,0.38609508,-0.021061428,0.0915491,-0.25423327,0.1802125,-0.4366317,0.19716442,0.069994986,0.16106322,0.1281217,-0.19775277,0.37405142,0.21651797,0.3085602,0.070478104,0.25892276,0.30616453,0.21329218,0.3891392,-0.085937314,0.34139693,0.088212304,0.26453704,0.4500149,0.10099313,-0.1580394,-0.02164999,0.14780596,0.10316116,-0.12826191,0.35766196,0.24215046,-0.26413983,-0.031875663,-0.030694881,-0.24776407,0.07096234,-0.18879265
source_dataset:PA-1,-1.2047739,-0.2614435,-0.3440714,1.1883283,0.13913223,0.12551767,0.5586221,-0.039455235,0.18984143,0.5119274,-0.27932742,0.6613301,0.64967406,-0.7468915,0.48747215,-0.98587424,-0.66551226,-0.89680195,-0.37843436,0.53290844,-0.353795,-0.14366822,0.1613982,0.25762188,-0.53771305,-0.024561435,-0.62814605,0.10400373,0.050164595,-0.11111468,0.44461733,-0.5181358,-0.3069654,0.027867481,-0.66558367,-0.036970764,-0.69679725,0.029647827,0.7277025,-1.0876657,-0.27931684,-0.3848866,0.07217258,0.18873814,0.23137802,0.45216197,0.14420524,0.6531286,-0.9614662,-0.8770673,0.13019077,-0.2491503,0.76097107,-0.053748176,0.653468,0.32629305,-0.1647594,-0.010902882,0.4249807,-0.14661762,-1.184997,1.5142229,0.11650005,0.037833214,-0.1941839,0.85442436,0.57126117,-0.69365084,0.46481657,-0.16171052,-0.9206492,1.032898,-0.038446754,0.040231667,0.27362612,-1.0541798,-0.119395345,0.85006726,0.26976374,0.4098233,-1.3605707,-0.64706755,0.19935064,-0.18982764,0.26361537,0.33435106,-0.40645653,0.29268858,-1.0632738,0.6473179,0.59789,-0.3038773,-0.62297,-1.1667433,0.18313308,-0.6356095,0.06372246,-0.38541165,0.5197359,-0.2443884,0.25930744,0.8710507,0.37183604,-0.097090274,0.520206,0.39772803,-0.38945442,0.107624054,0.28559425,0.27267027,-0.3749888,0.124061555,-0.27051485,-0.04195333,-0.12036821,-0.4048054,-0.43257707,-0.29709104,0.18933928,0.23715782,-0.38917848,-0.1891308,-0.015452776,-0.41136494,0.26237637,0.36483565,0.08195708,-0.32255802,0.12286615,0.10321067,0.34565037,-0.22217895,-0.3823107,0.1891408,0.038678084,-0.11326323,-0.20425141,-0.1761774,0.3640502,-0.051889274,0.34977606,0.38045064,0.04278529,0.13242957,-0.017729366,0.28806362,-0.39473575,0.16060376,-0.0857304,0.22786275,-0.009047916,-0.19527254,-0.068740256,0.25100002,-0.27538878,-0.27275074,-0.107411556,-0.15804686,0.20847106,0.2695594,-0.025407566,0.4347703,-0.21360944,-0.270839,-0.21102281,-0.31442806,-0.32741722,-0.4211148,-0.39135915,0.13473901,0.3169245,0.4406673,0.37108517,-0.037827574,0.08972033,-0.2416107,0.17191252,-0.43060315,0.21113393,0.065100774,0.17245859,0.13773134,-0.21412152,0.37502486,0.22740632,0.3237583,0.06538151,0.2610361,0.31424278,0.21425529,0.3979479,-0.09341593,0.33433083,0.08214346,0.25348964,0.4548714,0.088898614,-0.1425257,-0.003972685,0.13020334,0.08825071,-0.12589186,0.35827863,0.22717561,-0.2666835,-0.025056502,-0.04163025,-0.23539206,0.068705365,-0.17978984
source_dataset:CTB-1,-0.45719862,-0.39563018,-0.41960004,0.29960132,0.46766922,0.39422756,0.07349078,0.21634716,0.062861174,0.721177,-0.24194528,0.6004796,0.20606154,-0.25653452,0.014061421,-1.0191922,-0.23560415,-0.45050275,0.28390723,-0.05465427,-0.2885258,-0.6838611,0.048922278,-0.52332294,-0.37402588,-0.6901761,0.2757063,0.119413316,-0.40071052,-0.18661913,0.5545708,-0.091304116,-0.73438495,0.2365767,0.29871202,0.15247625,-0.104347765,0.5088207,-0.010037154,-0.22344083,-0.1599451,0.0461189,0.08799158,-1.138421,-0.804247,0.027740985,0.00051920116,0.5008577,-0.88443184,-0.38010308,0.37064487,-0.06971505,0.5215039,0.14257354,-0.4038757,0.78621364,-0.18297137,-0.9743427,0.28240612,-0.4379655,-0.48739654,0.9662425,-0.28178078,0.09995448,-0.20987669,0.5491284,0.58375245,-0.69012624,0.011904895,-0.29655164,-0.16749607,0.65774417,0.28005916,-0.24878737,-0.2940254,0.011039704,0.22475207,0.3281917,0.21672395,0.42129213,-0.9789785,-0.37473428,0.36778662,-0.45002598,-0.4185539,0.3311156,-0.33053118,0.20521477,-0.6729622,0.23603246,0.23456362,0.36560825,0.06273149,-0.291452,-0.45096093,-0.3853971,-0.52020305,-0.9216658,0.19576919,0.52177244,0.16114639,0.32154644,-0.60503113,0.28420523,-0.2574127,0.26393473,0.22790658,-0.103347175,0.3371329,-0.21934581,-1.0834286,0.3897987,-0.65655077,-1.0523247,0.5030456,0.5541987,-0.7286612,-0.14444856,-0.21213652,1.2512265,0.6337909,0.24220407,-1.138151,-0.5543257,0.500458,-0.035428226,0.10844491,0.41034985,-0.684927,0.30838075,-0.6391363,-0.19848643,-0.096028596,0.38917625,-0.5035959,-0.32833567,1.0114223,0.70751166,0.89856124,-1.1479487,-0.70512366,-0.3028822,0.54805785,0.6127124,1.2526661,0.12901296,0.591779,0.8571919,-0.8314904,0.69834816,-1.2097294,-1.1203156,-0.9987904,0.9396893,-0.042911917,-1.2344183,0.8405056,-1.0805459,0.36948013,1.2329473,-1.0314122,0.66221404,-1.1218606,-0.3157205,0.98429394,0.548308,0.77082825,0.22682035,-1.1604986,0.44956255,0.75079465,0.6369663,0.03728175,-0.41174296,-0.10766192,0.12387049,-0.6436159,-0.5395639,0.6020506,0.2695362,-0.55698276,0.49543568,-0.5584785,0.64550686,0.5624044,0.21209908,-0.17738959,-0.63138074,0.5200476,-0.85422033,1.333966,1.0636301,0.70187473,-0.8822206,0.32828486,0.64231896,0.5187377,0.92376345,-1.1969395,1.0937927,-0.92682236,-0.32644683,-0.0794794,-0.51959693,-0.25306064,-0.65978193,-0.64771146,-0.31307706,-0.80063117,-0.6824126
source_dataset:NB(TU)1,-0.51252586,-0.43706942,-0.13076705,0.8587003,0.3822057,0.36892432,0.067362234,-0.26437208,-0.37088615,0.62135905,0.35213408,-0.24749142,1.025672,-0.9868436,0.075849146,-0.33550042,-0.5558998,-0.74443096,-1.0689002,1.1581576,0.4200564,0.6726939,0.027211009,0.1353099,0.0129297525,-0.58850384,-0.33029112,0.24929781,0.89837134,0.1669229,0.50876164,-0.55766666,-1.0469422,0.47509322,-0.5749107,0.0033759177,-1.0354555,0.5185064,0.35741,-1.1238518,-0.4745301,0.144525,-0.044674277,0.5676451,0.51991534,0.39254907,-0.08755362,0.20021138,-1.3171984,-0.41565788,-0.03069824,-0.08559367,0.42009765,0.25775626,0.9094579,0.0434826,-0.30531597,-0.34830117,0.80543554,-0.16096827,-1.0671107,1.630894,0.36976817,0.37243506,-0.8292284,0.63344496,0.7480633,-0.50182736,0.40208203,0.35063535,-1.5578452,0.45937645,-0.84768754,0.21578884,0.13635242,-1.1734,-0.12616014,0.19471242,-0.36224353,0.3443449,-1.221343,-0.47049302,0.12793821,0.65042037,0.18306065,0.011763513,-1.0955149,-0.7393739,-1.2354803,0.6698881,-0.002766721,-0.51234657,-0.5847633,-0.82256174,-0.2625324,0.41188163,-0.6220902,0.54157525,0.7984896,-0.9366264,-0.085463956,0.72809523,0.57398105,0.44855338,1.0279975,0.46942583,-0.37126067,0.07334627,0.31606033,0.222594,-0.35096762,0.09324749,-0.3343373,0.0029562786,-0.1528585,-0.45403448,-0.43620053,-0.27343073,0.22098888,0.2648791,-0.3869463,-0.19304256,-0.010689893,-0.4490576,0.23587354,0.31778604,0.09148491,-0.3884272,0.086722285,0.0856019,0.31753507,-0.21114509,-0.35544622,0.14741844,0.008205704,-0.05422558,-0.16784917,-0.16776149,0.35972676,-0.0994661,0.4015522,0.33699226,0.08728604,0.093457565,0.0013068952,0.24810141,-0.35301363,0.15097624,-0.013435736,0.22496977,0.048661638,-0.17882416,-0.13806106,0.2842055,-0.21982507,-0.21705848,-0.10816912,-0.16704568,0.23857445,0.21996662,-0.039718866,0.49533194,-0.24264508,-0.29571214,-0.20685904,-0.28898454,-0.31446314,-0.39457825,-0.31727868,0.15956353,0.32983062,0.4466876,0.34985903,-0.063961044,0.1304819,-0.27143905,0.20442672,-0.44485292,0.25536296,0.050725624,0.12203258,0.2022817,-0.27838665,0.37614167,0.19171828,0.35393536,0.067624584,0.26779574,0.3770673,0.2698295,0.4041104,-0.087138176,0.35022473,0.101708114,0.2884061,0.3982047,0.026067436,-0.15232027,0.010953013,0.16619813,0.090864934,-0.07472991,0.36930937,0.18819442,-0.2766779,-0.014707083,-0.047369443,-0.22685263,0.048598327,-0.150053
source_dataset:VMRC-RCZ,-0.9807214,-0.3803989,-0.28989568,1.257316,0.23340991,0.21967502,0.48500246,-0.19926313,-0.21002793,0.49991184,0.0739508,-0.038270593,0.95669013,-1.3302727,0.53421164,-0.7764512,-0.8547177,-0.9159117,-1.3018064,1.3959846,0.20477921,0.50658345,0.3553667,0.3766266,-0.30390698,-0.16740903,-0.8464304,0.08900508,0.67268944,0.062933534,0.73480815,-0.66987544,-0.81015164,0.10849163,-0.9903535,-0.20153224,-1.4336276,0.22682019,0.66408414,-1.4374627,-0.43547285,-0.29879057,-0.10773787,0.9651207,0.93990403,0.6450938,0.13469799,0.36397263,-1.3454503,-0.6976821,0.08030899,-0.43461463,0.75930715,0.07839635,1.1972042,-0.053376257,0.029759109,0.01684688,0.8804089,-0.08745879,-1.4625441,2.141823,0.2987276,0.20808017,-0.7521111,1.1224463,0.74530494,-0.65538806,0.7654234,0.21654537,-1.9219372,0.8524278,-0.5545844,0.32428065,0.597251,-1.552595,-0.025971204,0.61486435,-0.14041644,0.6068217,-1.684602,-0.9513947,0.2724933,0.37902284,0.6016294,0.1238465,-1.0962659,-0.38103482,-1.468613,1.033803,0.41714865,-0.6363741,-0.9247173,-1.3137314,0.09853717,-0.06446622,-0.3073468,0.47550112,0.85318244,-0.9982856,0.17918076,0.99527043,0.8374574,-0.010597676,1.1514843,0.59500515,-0.43230104,0.17005134,0.22570953,0.18708922,-0.4663686,0.04383176,-0.43134123,-0.13152719,-0.27146938,-0.3978841,-0.3571931,-0.21242295,0.09903852,0.1552993,-0.5357502,-0.08414796,-0.02096354,-0.506498,0.19515792,0.18068306,-0.07902047,-0.41134757,0.22132315,0.014213026,0.4376109,-0.06969313,-0.34646854,0.17405279,0.010181081,0.0042858496,-0.3278163,-0.042467326,0.2907029,-0.11355115,0.5489057,0.51802135,-0.08703481,0.25143713,0.028972896,0.074569464,-0.48770952,-0.009905353,0.010749377,0.41345435,-0.028349256,-0.21985076,-0.18023439,0.40926674,-0.08628191,-0.16840413,-0.24146944,-0.17651299,0.33222717,0.30750486,-0.015967442,0.5878996,-0.32741424,-0.32723504,-0.1404908,-0.4888252,-0.16865188,-0.37279695,-0.20322849,0.17949663,0.26576516,0.4243862,0.18253097,-0.2484436,0.066747375,-0.08304618,0.06764828,-0.35487255,0.38661873,0.003619805,0.315607,0.25844753,-0.4197454,0.38725322,0.3641857,0.51467675,0.0013582185,0.28758383,0.4157217,0.22635375,0.5086026,-0.1873622,0.2455666,0.005906813,0.114712566,0.5158785,-0.06303239,0.052357063,0.2180893,-0.09092058,-0.09905409,-0.09611939,0.36602518,0.039061815,-0.29863682,0.060605675,-0.17900015,-0.07997528,0.040353287,-0.06669667
source_dataset:SW1463,-0.46563688,-0.6105703,-0.5925119,-0.11406466,0.38337848,0.48295856,0.51964283,0.7064109,0.53982586,0.5407212,-0.7048135,0.115472674,-0.86009365,-1.6057407,0.9018233,-1.8016211,-0.3560791,0.14669791,-0.42101288,0.8980887,-0.23971444,-0.911301,1.4079157,-0.39760756,-0.43693638,-0.16164827,0.2956534,-0.084022254,-0.92441237,-0.5581579,1.034996,0.039578713,-0.50242496,-0.3987684,0.10948731,-0.08497411,-1.5126662,0.1181615,-0.523151,0.28729942,-0.041875213,-0.8017976,-0.39880377,-0.77135813,0.16697979,0.40583605,0.9111761,0.1512487,-0.54131895,-0.29551387,1.1505082,-0.54219055,1.4360054,0.16851673,-0.3208536,0.48541826,1.2081907,-0.5528358,0.6473162,-0.76318204,-0.22643344,1.6999316,-0.4618847,0.20415227,-0.78814805,1.4898272,0.35852298,-0.82723427,1.1512463,-0.005988851,-1.3042905,0.75460184,0.8495538,0.20252338,1.019688,0.02179879,0.549684,0.39099944,0.15653574,0.8515511,-1.3911076,-0.971851,1.150518,-0.57380843,0.437315,0.05427943,-0.6527245,0.38301334,-0.78794545,1.4746698,0.8426648,0.8431406,-0.1921671,-0.4066543,0.24586767,-0.46834746,-0.86217993,-0.8927721,0.36922863,0.78837454,0.4011839,-0.0034471452,-0.60933673,-0.3663524,0.091056466,0.09816298,0.23844564,-0.10147243,0.767277,0.08612892,-0.7598568,0.051758416,-0.87678385,-0.111330144,0.41087732,-0.048315734,-0.62134993,-0.4428043,0.50292116,1.0339487,-0.562524,-0.17963417,0.022906851,-0.90759146,0.07999784,0.15594776,0.18873972,0.14440799,0.12535556,-0.15365112,0.035794258,-0.25985137,-0.51599133,-0.021160647,0.36874852,-0.6311173,-0.14177102,0.44779345,0.32990196,-0.50067896,0.057184726,-0.3196556,0.6486549,0.5923464,0.108003624,0.48563054,-0.24332891,0.5532729,0.07912582,0.5271346,0.14391251,-0.7871035,-0.36336693,0.58600867,-0.498344,-0.11667059,-0.17717358,-0.54095626,0.6905587,0.5490819,-0.25656214,0.8281447,-0.8270617,-0.4000229,-0.0019107163,0.28889623,-0.29572752,-0.36880335,-0.37547666,-0.08124553,0.8062228,0.9080193,0.60497266,-0.08614694,-0.118241325,-0.52667445,0.447339,-0.9740013,-0.12138465,0.27215284,-0.37857446,0.38963184,0.05861628,0.73481727,0.039660305,0.2945521,0.48984766,0.059315115,-0.04387951,0.059759468,0.3092592,0.055563293,0.46561822,-0.30069205,0.6330883,0.3630892,0.47113964,0.59559584,-0.18794943,0.67435074,0.27457887,-0.6689833,0.50045145,-0.40066788,-0.58280253,-0.18763313,-0.37099478,-0.076415986,0.06531231,-0.49562022
source_dataset:NCI-H748,-0.71795154,-0.3093605,-0.3542526,0.781562,0.43161586,0.25428057,0.03841428,-0.1412361,-0.13549995,0.77582335,0.008001864,0.7595144,0.84135705,0.047367588,-0.15402354,-0.66858566,-0.38997895,-0.8659898,0.26148674,-0.17673227,-0.25086123,-0.37396038,-0.47533467,-0.32851386,-0.4337452,-0.68635535,-0.08183727,0.19961001,0.029560678,0.06772369,0.35014904,-0.34470165,-0.7501543,0.4743446,-0.011204049,0.17854932,0.2148405,0.52731466,0.45232183,-0.74970406,-0.2304048,0.3090276,0.2340745,-0.7828625,-0.76669717,-0.00043311715,-0.35634533,0.6693827,-1.1241586,-0.60382336,-0.06592643,0.05084771,0.25997698,0.10239184,-0.028151736,0.7257124,-0.77269506,-0.82724607,0.20368333,-0.21496868,-0.87022847,0.93453795,-0.038033247,0.08096445,-0.028560042,0.3033729,0.672405,-0.65795356,-0.25292373,-0.36018586,-0.0374507,0.73737395,-0.1266881,-0.30642664,-0.62971103,-0.40856272,-0.011765838,0.46067077,0.20278965,0.30409062,-0.9949808,-0.2770242,-0.024745509,-0.26281387,-0.51027656,0.47914398,-0.29175335,0.11698118,-0.82938004,-0.06631679,0.11347524,-0.06481791,-0.12186995,-0.5906281,-0.551215,-0.42064944,-0.22800767,-0.68363756,0.30000266,0.097109005,0.09835063,0.62005866,-0.21265726,0.46610928,-0.06135285,0.97148967,-0.3841664,-1.2175704,0.2640564,0.33209422,-0.85359395,-1.2757391,-1.4267805,-0.6901827,-1.8717926,-1.649807,0.5148852,0.79847753,0.040954843,1.1874045,-0.36858448,0.1220575,-0.85798657,-0.6463112,-0.6878176,-0.49773863,0.52218676,-2.245574,-0.6759258,0.32869232,0.84430313,-0.7658292,-0.27300668,0.8016296,-0.68240654,-0.0049614087,1.152271,1.4189448,0.89006865,-1.8940173,1.8799732,0.17920004,0.7036925,-0.83736223,1.5668539,-1.384199,0.7586255,-0.6240155,-0.16730446,-0.39162177,-0.12309364,-0.13216273,-2.1549754,0.32171467,1.2078644,0.47969964,0.98325783,-0.68218756,1.6766396,0.10513292,-0.9740441,1.3807132,-2.0988212,-1.4014472,-0.42104214,1.031087,1.7640795,-0.78470886,-0.15878215,1.4064059,0.11667381,-0.12651676,-0.22107819,-1.2037007,1.6961358,-0.023441374,1.0464072,-0.34744945,2.1642885,-1.1192057,0.15025544,2.5947945,-0.7216815,-0.162482,0.7400781,1.4988701,-0.5323275,-0.63968414,0.47756344,-0.23545706,1.7631359,0.0073769763,-0.018204868,-0.12303168,0.43368974,-0.9692159,-2.064779,0.5348454,0.68385565,1.4265084,-0.7419387,0.2866254,0.43597776,-1.2937025,-0.8962937,-0.0024925936,-0.6575631,0.4344862,-1.5111247,1.4133654
source_dataset:SaOS-2,-0.22179869,-0.2522163,-0.21045929,0.27417934,0.3402863,0.5282478,0.074055135,0.4313316,-0.0005734563,0.46877345,-0.32263675,0.3841296,0.20163208,-0.24418145,-0.15575048,-0.91569775,-0.065264404,-0.36037388,0.06706445,0.20443168,-0.26612103,-0.3598132,0.18323527,-0.3512661,-0.035562918,-0.7852653,0.3632759,0.11699915,-0.23563297,-0.42420053,0.5813434,0.06933997,-0.7735121,0.09151927,0.3815153,0.08974433,-0.31908262,0.5579232,-0.077331156,-0.3376132,-0.36464623,-0.16079845,0.20001116,-0.87156624,-0.7304548,0.23100585,0.13605908,0.41231024,-0.7914839,-0.14074476,0.49120173,-0.10506061,0.3398711,0.06939341,-0.27283865,0.6519296,0.04573989,-0.92709196,0.48552048,-0.35421622,-0.4627604,0.9581672,-0.30260614,0.019403264,-0.31190872,0.5163073,0.6983066,-0.53552103,-0.03472305,-0.05937855,-0.4588775,0.5379975,0.19759594,-0.19414714,-0.14593753,-0.06348316,0.20122677,0.22536713,0.18250997,0.22203481,-0.8930645,-0.2745595,0.4708215,-0.24983294,-0.3393888,0.008399367,-0.48308387,-0.079539835,-0.59371066,0.16391325,0.053242482,0.16843468,0.14306325,-0.1257198,-0.38023877,-0.01937601,-0.5725112,-0.6304553,0.115201734,0.2536154,0.06768705,0.49331808,-0.56784,0.16528217,-0.17013907,0.9142543,-0.7468567,0.033061303,-0.1324513,0.37563455,-0.9357314,-0.5842139,-0.86360836,-0.7479316,-1.2694262,-0.73178947,0.29068294,0.2828307,-0.32684106,0.0067278296,-1.074125,0.27035415,-0.23625275,-0.592408,-0.23833251,-0.29279032,-0.3753794,-1.1304562,0.49460596,-0.04516077,1.2013489,0.02826178,-0.41927233,0.6117326,-0.08636386,0.019385643,-0.5020411,0.76446307,0.26181498,-0.5624609,1.5271474,1.1615701,-0.5022394,0.32773083,0.48353958,-0.885298,-0.6639805,-0.81523573,-0.1060969,0.5828021,-0.29607412,-0.21679622,-0.7481316,0.5342468,0.6264522,0.21070528,-0.2810992,-0.2409977,1.0388932,0.49579123,-0.13651632,0.95897305,-1.0708,-0.7732512,-0.25396967,-0.6764155,0.8443216,-0.65996313,0.035982817,0.61213493,-0.09330693,0.083943784,-0.36120686,-1.0465579,0.44240686,0.5408437,0.08148067,-0.022020787,1.301719,-0.5802627,1.0965463,1.1184576,-0.705935,0.15095747,1.0931183,1.3154886,-0.38353866,0.08325182,0.32418898,-0.10485086,1.1683797,-0.60339075,-0.2804355,-0.24631464,-0.39463145,0.4117997,-1.0106415,0.7260285,1.1596764,-0.49902108,-0.77923745,-0.13589092,0.41672707,-0.7098541,-0.57810426,0.32320505,-0.6547565,0.55164933,-0.42002776,0.7675587
source_dataset:SNG-M,-1.0273048,-0.3868198,-0.2742615,1.0368445,0.23330209,0.17400518,0.3810014,-0.19484496,0.089034855,0.6161016,-0.013578743,0.32844818,0.7274029,-0.9392383,0.4296588,-0.7102349,-0.64367634,-0.8055274,-0.6087456,0.7506123,-0.05391434,0.14628382,0.1273828,0.24407487,-0.37922436,-0.12819406,-0.49953297,0.20225443,0.36815304,0.06066659,0.3582139,-0.6032296,-0.46651468,0.2546999,-0.69649744,0.033958018,-0.8367436,0.121655434,0.5827481,-1.0056113,-0.2918318,-0.1620682,-0.0369761,0.3454763,0.43984938,0.38300335,0.08876245,0.45809612,-1.0245565,-0.79088974,0.04432249,-0.1039089,0.7412378,0.109414086,0.7797764,0.19711934,-0.2564357,-0.01423116,0.49448806,-0.20060569,-1.0597293,1.4875824,0.3029593,0.24735102,-0.4461226,0.74005914,0.5359124,-0.62862813,0.54148734,0.04358673,-1.1243758,0.80739,-0.375551,0.1436243,0.26329032,-1.0975347,-0.21318227,0.61549133,-0.0017221123,0.36527842,-1.2346094,-0.5073589,0.138999,0.15721613,0.27293628,0.25521427,-0.5880425,-0.025115691,-1.1064177,0.7575793,0.44954246,-0.3065837,-0.6501099,-1.0838289,0.10685944,-0.29577646,-0.17855716,-0.08023608,0.69175786,-0.4350641,0.109344944,0.7034505,0.49759546,0.15407047,0.79282117,0.38202372,-0.3860436,0.10265451,0.2903614,0.27948296,-0.3677145,0.13044827,-0.25771222,-0.034822777,-0.108339764,-0.40535635,-0.43857804,-0.30383107,0.1965277,0.24367419,-0.3775106,-0.19748798,-0.015014091,-0.40379184,0.26772732,0.37949517,0.09477174,-0.3154899,0.115028456,0.110295355,0.33832982,-0.23431763,-0.3851639,0.19034187,0.040946595,-0.122620754,-0.19441499,-0.18682143,0.36988905,-0.046980664,0.3339243,0.36949927,0.053119656,0.12295593,-0.021447113,0.30505887,-0.38733456,0.17417718,-0.0934107,0.21308868,-0.007511428,-0.19331598,-0.059864737,0.23840114,-0.29044268,-0.28105727,-0.09673984,-0.15657686,0.19861943,0.26653874,-0.02615905,0.4225804,-0.20454998,-0.26634958,-0.21663752,-0.30054513,-0.3400558,-0.42496115,-0.40633535,0.13117607,0.32099706,0.44196337,0.38609508,-0.021061428,0.0915491,-0.25423327,0.1802125,-0.4366317,0.19716442,0.069994986,0.16106322,0.1281217,-0.19775277,0.37405142,0.21651797,0.3085602,0.070478104,0.25892276,0.30616453,0.21329218,0.3891392,-0.085937314,0.34139693,0.088212304,0.26453704,0.4500149,0.10099313,-0.1580394,-0.02164999,0.14780596,0.10316116,-0.12826191,0.35766196,0.24215046,-0.26413983,-0.031875663,-0.030694881,-0.24776407,0.07096234,-0.18879265
source_dataset:EB3 [Human Burkitt lymphoma],-0.42939347,-0.35236627,-0.28501767,0.29013386,0.3786194,0.4155265,0.074419096,0.24839124,0.14982538,0.6348212,-0.25369278,0.52593684,0.17934948,-0.2872019,-0.018151894,-0.8805677,-0.14202707,-0.39120847,0.23732035,0.022189334,-0.29205525,-0.4933411,0.080769084,-0.36256522,-0.21957223,-0.6269529,0.34008622,0.18146618,-0.281619,-0.24929507,0.39789397,-0.08036657,-0.59593236,0.23581135,0.27550662,0.19335769,-0.1699528,0.4301672,-0.013508886,-0.21611159,-0.22422664,-0.032480538,0.1165825,-0.9652405,-0.6913158,0.08811146,0.08497161,0.44729376,-0.7401449,-0.35175392,0.37530583,0.036629915,0.4902749,0.13755137,-0.28307468,0.69090235,-0.15938869,-0.79311275,0.29224208,-0.41954333,-0.39185047,0.82282233,-0.1741564,0.13310218,-0.2377963,0.43591663,0.5403407,-0.5908462,0.040300444,-0.15282379,-0.23172578,0.5787692,0.17105974,-0.19654587,-0.21514308,-0.0413346,0.069150984,0.2945347,0.17594698,0.23351002,-0.8064898,-0.18162686,0.34715235,-0.2922144,-0.36119437,0.19213316,-0.29217333,0.12433894,-0.5798783,0.23928887,0.19328885,0.29957825,0.07562129,-0.24693364,-0.3107102,-0.23546943,-0.48702973,-0.8077203,0.20764303,0.42883623,0.06808184,0.32295308,-0.5165689,0.2816893,-0.12799826,1.0151614,-0.4726376,-0.3805752,0.20814061,0.15179959,-0.6577635,-0.6390706,-1.044169,-0.3588736,-1.1644123,-1.0242512,0.101681024,0.31250378,0.038239732,0.48336393,-0.6620066,0.07640758,-0.31500578,-0.6820192,-0.2833715,-0.3036739,0.030168228,-1.3797687,-0.05241041,0.036062665,0.73197603,-0.21261695,-0.27385837,0.3799361,-0.30829316,0.17681977,0.14756389,0.66659796,0.4418445,-0.91159785,1.4145246,0.5068854,0.1358025,-0.16116948,0.6741602,-0.7791177,-0.06501794,-0.48443347,0.13306715,0.21787578,0.03204387,-0.13832185,-1.13757,0.5128389,0.6829901,0.31248674,0.097885236,-0.36491096,1.0422752,0.1587862,-0.37069383,1.1130776,-1.1663374,-0.85935724,-0.25801316,-0.03436637,0.7574066,-0.5167499,0.10499179,0.75008637,0.13917015,0.16728637,-0.17002067,-0.8598208,0.7877145,0.047555268,0.46110502,-0.28514108,1.3304338,-0.559409,0.38054708,1.4080013,-0.7820218,0.14946584,0.60569525,1.1510375,-0.2721502,-0.025806248,0.58222985,0.15055259,1.1021767,-0.2555637,0.040313363,-0.04971131,0.14388552,-0.120191574,-1.1434925,0.37548387,0.71192586,0.32099837,-0.49263763,0.15200837,0.4381787,-0.7016877,-0.59413075,0.1614314,-0.4853098,0.30085576,-0.61709857,0.7290361
source_dataset:BICR 31,-0.23609851,0.07821883,0.16962099,0.77764046,-0.01687152,0.5916438,0.28067592,0.57839054,-0.13437992,-0.024878174,-0.40909535,0.12469554,0.5920216,-0.31486076,-0.2910588,-0.65577877,-0.027441382,-0.5494531,-0.57324237,0.8325077,-0.25961575,0.47122622,0.28681988,0.3069444,0.41523308,-0.6724103,-0.009859413,0.11270344,0.33668008,-0.7149012,0.5543522,0.0843062,-0.6858314,-0.18333164,0.018936113,-0.10420674,-0.8154446,0.45668182,0.281309,-1.0815029,-0.77663845,-0.61125714,0.43413913,0.22307256,-0.18656689,0.7441226,0.29904515,0.40283176,-0.7710454,-0.024029046,0.45820913,-0.23574325,0.05142954,-0.16212274,0.4924258,0.23320122,0.25589463,-0.42721426,0.8649985,-0.013638467,-0.8716114,1.2016293,-0.124228686,-0.17197286,-0.40125248,0.5419549,0.93147326,-0.2858716,-0.019208556,0.3423918,-1.2144095,0.54827535,-0.1691413,-0.013119914,0.22514999,-0.769143,-0.022788018,0.3349867,0.16650277,-0.12002072,-0.9590719,-0.23769557,0.45691127,0.21201706,0.04489976,-0.4629692,-0.76426446,-0.52578676,-0.6929977,0.1091572,-0.12627083,-0.58287966,-0.07240589,-0.32558197,-0.047571063,0.44054884,-0.31176955,0.13519001,0.13570642,-0.64260346,-0.04250896,1.1310406,0.013873756,-0.15733728,0.33119634,0.3632666,-0.11760804,-0.0037388802,0.32789728,0.047019348,-0.6522732,0.22584394,-0.45287704,-0.43511236,0.1362164,-0.028838307,-0.56467354,-0.22749016,0.044693246,0.68347734,0.052743196,-0.01865822,-0.48339504,-0.48339257,0.35376996,0.18712462,0.11090565,-0.042452306,-0.24266233,0.18718366,-0.089401096,-0.2186712,-0.2510854,0.25246748,-0.20238236,-0.18204886,0.33448714,0.18815407,0.5918343,-0.53148806,-0.0815503,0.060177922,0.2883027,0.3040117,0.52128714,0.2175636,0.048223138,0.461362,-0.36848748,0.4088442,-0.48096082,-0.5726937,-0.486079,0.5445224,-0.16400127,-0.6553551,0.30047196,-0.548171,0.28181952,0.64469564,-0.45555782,0.549531,-0.6005953,-0.29813683,0.2868382,0.07462892,0.12726682,-0.13937765,-0.6903151,0.27615753,0.5097181,0.5274401,0.23507777,-0.19145611,0.030047096,-0.11656672,-0.14482313,-0.48979238,0.38414535,0.14825399,-0.17123476,0.31179687,-0.37565368,0.48807263,0.3383484,0.2774178,-0.03015066,-0.11184451,0.4252373,-0.20583358,0.7848932,0.4026437,0.50387174,-0.30601388,0.3141751,0.49903676,0.24852723,0.28399587,-0.5142714,0.57080066,-0.3211437,-0.18568343,0.17981744,-0.09133619,-0.26363227,-0.29271063,-0.28784117,-0.275939,-0.30412942,-0.3841129
source_dataset:NCI-H841,-0.8452481,-0.20031878,-0.5096855,0.94423974,0.4563253,0.199994,0.09848095,-0.08216122,-0.21946287,0.7885651,-0.14879805,1.1924043,0.946505,0.4986156,-0.253594,-0.92001057,-0.44559044,-1.0726044,0.6498325,-0.6165233,-0.52058053,-0.7908789,-0.69337445,-0.52460366,-0.6837523,-0.78476536,-0.20819446,0.083812356,-0.30127794,0.01284042,0.5118287,-0.26450023,-0.80645716,0.37450033,0.12943158,0.11874187,0.651271,0.6152246,0.6245442,-0.87532747,-0.18406081,0.33144462,0.39304313,-1.2068923,-1.2751651,-0.06692478,-0.5353335,0.9398718,-1.2536944,-0.67790616,-0.097819716,-0.10051873,0.13267316,-0.038824685,-0.32242823,0.99999297,-0.9235604,-1.1202663,0.07936005,-0.14106208,-1.0795072,0.9493179,-0.30605394,-0.1602362,0.31178525,0.3453233,0.7929543,-0.7799851,-0.56393695,-0.72346103,0.41396788,0.9730189,0.20298223,-0.53627706,-0.9318781,-0.26693857,0.18990123,0.65873975,0.4920667,0.44431847,-1.183558,-0.47304565,-0.060537055,-0.70995295,-0.7459161,0.7077011,-0.12049179,0.4279084,-0.8358218,-0.3987407,0.155201,-0.053423233,-0.024873398,-0.6299083,-0.76318806,-0.8197026,-0.022316262,-1.0830591,0.08107084,0.33881235,0.27354306,0.8056051,-0.46309295,0.35995236,-0.5272652,0.34690344,-0.5304718,-0.25884873,0.17576334,0.55640113,-0.5214966,-0.32297534,-0.40140355,-0.28286046,-0.7324046,-0.84490776,-0.03236574,-0.0013621151,0.09777455,0.37313032,-0.506469,-0.13932107,-0.19092903,-0.33053714,-0.027383149,0.2937988,0.24378693,-0.9114827,0.041075125,0.2382715,0.75554454,-0.5003486,-0.4820873,0.5414655,-0.046400994,-0.26976472,0.03530118,0.24853182,0.5170527,-0.41800183,0.862835,0.5257965,0.09240009,-0.1923445,0.32783884,-0.14403966,-0.22417481,-0.1701916,-0.28066415,-0.10090546,-0.07804094,-0.09169787,-0.465934,0.033153236,0.024891287,-0.06368297,0.20064275,-0.19068192,0.61455953,0.23470376,-0.19442365,0.5212071,-0.67721456,-0.596567,-0.48968652,0.019364,0.23463508,-0.75352186,-0.48768267,0.47799557,0.14399809,0.17933422,0.30435383,-0.29548824,0.5910807,-0.13806006,0.5278977,-0.34867212,0.7094813,-0.35214317,0.41558126,0.7723298,-0.09412845,0.12587325,0.47187316,0.64400655,-0.12242555,0.017373487,0.10855353,0.00012096763,0.7401475,-0.22371647,0.10994673,0.08861984,0.21693951,0.07212424,-0.5426712,-0.041260324,0.33237144,0.40332207,-0.054902025,-0.124301754,0.41039085,-0.07189298,-0.46689576,0.021359082,-0.14241664,-0.029792398,-0.3321507,0.37186348
source_dataset:NCI-H2342,-1.0497594,-0.50307876,-0.5590408,1.0423318,0.46787667,0.12951854,0.3053351,-0.33595654,-0.1589387,0.8557389,0.10273257,0.46465257,0.8684949,-0.8152585,0.43056586,-0.9162238,-0.8415679,-0.95617753,-0.48938125,0.5437107,0.014103651,-0.22460838,-0.0474572,-0.14525874,-0.6984593,-0.33303654,-0.6092372,0.09712246,0.19010293,0.2695296,0.66124564,-0.65409654,-0.8314094,0.35405985,-0.6279707,-0.022616386,-0.61005354,0.34866816,0.58619714,-1.0228935,-0.14904365,0.13074283,-0.0957039,-0.06258881,0.14883369,0.19486815,-0.17973432,0.56157386,-1.3872435,-0.84351236,-0.036691546,-0.27760866,0.74978244,0.15855773,0.5102473,0.41507226,-0.42890927,-0.46524662,0.4539672,-0.23874986,-1.2568482,1.748847,0.10734417,0.21364528,-0.39486796,0.9053531,0.6372641,-0.8344281,0.41381294,-0.26564735,-0.92736244,0.9300988,-0.23189452,0.012224406,-0.016051494,-0.97248065,0.10107845,0.63402045,0.03723102,0.7568136,-1.5665431,-0.8725184,0.11968873,-0.12686683,0.0772354,0.5804927,-0.685012,0.0866438,-1.3146756,0.68840355,0.4721542,-0.17432636,-0.6613544,-1.1526103,-0.2818684,-0.5650588,-0.28778046,-0.2914502,0.6881561,-0.26418418,0.2730726,0.6730923,0.31078354,0.2649607,0.52249885,0.6540727,-0.45189404,0.021028638,0.22976592,0.21728171,-0.4793162,-0.12009697,-0.5364177,-0.14882049,-0.4835227,-0.5835836,-0.24578746,-0.1013802,0.110879794,0.22956777,-0.5627495,-0.07751413,-0.06718546,-0.5218796,0.082061514,0.11301491,-0.014904641,-0.6564238,0.15296134,0.03729409,0.52365243,-0.14464076,-0.34683964,0.23146763,-0.04833375,0.020646907,-0.21172814,0.087729424,0.33353078,-0.2731629,0.7518456,0.5070796,-0.01764569,0.107454725,0.1508262,-0.09064266,-0.38704258,-0.11247225,0.031464398,0.3067017,0.01709968,-0.16986082,-0.3718298,0.376948,0.058482677,-0.047466576,-0.14674322,-0.19566005,0.48175436,0.23991962,-0.082332864,0.67644376,-0.49305767,-0.449484,-0.22048843,-0.35552508,0.006331116,-0.44263023,-0.15458184,0.30726886,0.23107526,0.3546186,0.14543505,-0.34666187,0.2615269,-0.091668546,0.21304019,-0.34941015,0.57752025,-0.13361245,0.32546413,0.5144047,-0.44971865,0.31455433,0.39129665,0.63661635,-0.049312092,0.22237632,0.42239898,0.22546352,0.61270595,-0.21546519,0.20037001,0.03255362,0.14816433,0.33683038,-0.31506947,0.064410314,0.3264811,0.038007632,-0.13183835,-0.038936198,0.39358705,-0.08666211,-0.36789697,0.0830072,-0.21044628,-0.015061647,-0.09966445,0.12574938
