,E0,E1,E2,E3,E4,E5,E6,E7,E8,E9,E10,E11,E12,E13,E14,E15,E16,E17,E18,E19,E20,E21,E22,E23,E24,E25,E26,E27,E28,E29,E30,E31,E32,E33,E34,E35,E36,E37,E38,E39,E40,E41,E42,E43,E44,E45,E46,E47,E48,E49,E50,E51,E52,E53,E54,E55,E56,E57,E58,E59,E60,E61,E62,E63,E64,E65,E66,E67,E68,E69,E70,E71,E72,E73,E74,E75,E76,E77,E78,E79,E80,E81,E82,E83,E84,E85,E86,E87,E88,E89,E90,E91,E92,E93,E94,E95,E96,E97,E98,E99,E100,E101,E102,E103,E104,E105,E106,E107,E108,E109,E110,E111,E112,E113,E114,E115,E116,E117,E118,E119,E120,E121,E122,E123,E124,E125,E126,E127,E128,E129,E130,E131,E132,E133,E134,E135,E136,E137,E138,E139,E140,E141,E142,E143,E144,E145,E146,E147,E148,E149,E150,E151,E152,E153,E154,E155,E156,E157,E158,E159,E160,E161,E162,E163,E164,E165,E166,E167,E168,E169,E170,E171,E172,E173,E174,E175,E176,E177,E178,E179,E180,E181,E182,E183,E184,E185,E186,E187,E188,E189,E190,E191,E192,E193,E194,E195,E196,E197,E198,E199,E200,E201,E202,E203,E204,E205,E206,E207,E208,E209
target_dataset:59M,-0.62827593,-0.37300467,-0.60163605,0.54332936,0.5626579,0.30031064,0.081107296,0.0724774,-0.13621736,0.84169054,-0.19484518,0.8975848,0.5041226,0.05147651,-0.04755281,-1.1368408,-0.4154002,-0.7416483,0.46848097,-0.34385762,-0.36846355,-0.9341643,-0.25576568,-0.70263916,-0.6575868,-0.79508877,0.029314756,0.037729412,-0.49676877,-0.044567704,0.71293426,-0.16613689,-0.9145606,0.2877856,0.26352847,0.09503597,0.2427299,0.6350411,0.22347575,-0.46749175,-0.09728113,0.23729517,0.16680178,-1.3560249,-1.1007394,-0.073899835,-0.2877113,0.7192887,-1.1785375,-0.51926607,0.19558689,-0.19868669,0.41500264,0.08261264,-0.5088454,0.96966493,-0.47788087,-1.2289191,0.1978178,-0.3509288,-0.80773264,1.1189768,-0.41006383,-0.030974641,0.010087386,0.60059524,0.70777905,-0.83285797,-0.22863415,-0.6108138,0.11491564,0.85935545,0.37293243,-0.4111018,-0.6132475,-0.031143159,0.38490164,0.48495948,0.3615719,0.6380405,-1.2443165,-0.6244563,0.23535138,-0.71928084,-0.6013043,0.6219122,-0.29703984,0.37542966,-0.8351919,0.0020749718,0.2512753,0.28726372,0.016971365,-0.46310872,-0.72027653,-0.70890796,-0.37695646,-1.1066837,0.14098933,0.55879533,0.30502075,0.4951052,-0.6521193,0.3149146,-0.49907807,0.4089291,-0.38020846,0.10782095,0.28241098,0.2568916,-0.39547113,0.123701364,-0.289475,-0.06830261,-0.11860609,-0.38528147,-0.4331597,-0.28811362,0.17502648,0.25153878,-0.3791664,-0.17319393,-0.038127184,-0.42088524,0.2623811,0.3439546,0.07117555,-0.31424537,0.11374599,0.101032265,0.33256027,-0.21099775,-0.37410992,0.192052,0.025911413,-0.10927589,-0.1887978,-0.14924276,0.36950904,-0.07797901,0.34282187,0.37654862,0.043696947,0.15032324,0.010770423,0.26990998,-0.38168254,0.16245526,-0.093757994,0.2502389,-0.034239087,-0.21536252,-0.09503476,0.27578852,-0.25749055,-0.28451183,-0.09801038,-0.17765701,0.2203602,0.29134953,-0.044715248,0.4500415,-0.2396335,-0.27569133,-0.1823396,-0.30955136,-0.29446337,-0.40485832,-0.39341316,0.14413261,0.321944,0.44342053,0.35121426,-0.06004443,0.08418832,-0.22321747,0.1483993,-0.42744675,0.2312206,0.06484061,0.16803303,0.15331165,-0.23540094,0.3812533,0.24366419,0.33495215,0.056065015,0.24518499,0.3254564,0.19389418,0.42430192,-0.07704571,0.33539218,0.057644323,0.2452265,0.46287775,0.08675969,-0.10766928,-0.012056915,0.13379996,0.054943297,-0.12778193,0.35013258,0.19913755,-0.2686575,-0.03163973,-0.06331102,-0.22601748,0.04945617,-0.18182382
target_dataset:TE-9,-0.4581109,-0.15655376,0.11391539,0.45435807,0.09345487,0.42444646,0.08455866,0.25966904,0.3397835,0.38193113,-0.2625263,0.46841517,0.31827688,-0.15616857,-0.20122732,-0.41148522,0.091037735,-0.3910988,0.20044872,0.09570241,-0.37305632,0.07756077,-0.042672638,0.14570367,0.17610562,-0.45569652,0.39826527,0.3672776,0.12554115,-0.3873875,-0.11112888,-0.09793903,-0.17961921,0.27532205,0.1512871,0.31275433,-0.14930236,0.21353546,0.1667349,-0.38935113,-0.43499237,-0.19480254,0.2991593,-0.4380369,-0.47625506,0.25042298,0.19041874,0.410075,-0.39483488,-0.35167122,0.2486017,0.3642434,0.2738487,0.06707892,0.12365806,0.45378754,-0.3084925,-0.26377094,0.26204002,-0.27171174,-0.26775855,0.36333877,0.15926394,0.15966985,-0.16883953,0.015676402,0.46603978,-0.3035899,-0.043842204,0.17341504,-0.25929657,0.42360017,-0.19747084,-0.118008755,-0.15828721,-0.29069874,-0.4339845,0.2873995,0.12976164,-0.35413337,-0.3218651,0.40034294,0.15246916,0.12911163,-0.27873862,-0.13423422,-0.10738117,-0.06474911,-0.33420324,0.05779411,0.038368773,-0.035756595,0.09024323,-0.2077676,0.03873209,0.10842873,-0.23205265,-0.49568626,0.21059844,0.079506576,-0.19279826,0.47322845,-0.1939214,0.2969693,0.20014212,0.3229084,-0.2556824,0.06003868,0.38954926,0.23885171,-0.4498612,0.11431512,-0.38675982,-0.051614217,0.00013394654,-0.33029467,-0.47682753,-0.33258373,0.25986865,0.40884367,-0.41509274,-0.19339338,-0.008108757,-0.508659,0.22890249,0.33266002,0.11431888,-0.2192485,0.116478704,0.05559542,0.27458373,-0.23959468,-0.41211012,0.14654529,0.10861986,-0.22851244,-0.18242054,-0.05411099,0.36203647,-0.1422599,0.27548736,0.22564368,0.1773579,0.22096515,0.0065743327,0.34244502,-0.35654417,0.25358313,-0.058184475,0.27879903,0.022921432,-0.31756717,-0.12377823,0.31127685,-0.3334482,-0.24771282,-0.11264516,-0.23729107,0.30103862,0.32611895,-0.07493356,0.5071028,-0.3347643,-0.29418224,-0.17095158,-0.17726552,-0.32987282,-0.41271874,-0.40057686,0.08729254,0.42224607,0.5390227,0.43129426,-0.034932453,0.047761787,-0.3105424,0.23502858,-0.54843634,0.13129312,0.112195835,0.04825134,0.18280755,-0.14476977,0.44928828,0.18005185,0.30556402,0.15744595,0.21665049,0.23357934,0.18044421,0.37335563,-0.055519268,0.36753553,0.0065169185,0.34121153,0.43211117,0.17830756,-0.000422284,-0.05724593,0.25809443,0.13790058,-0.24084634,0.3869661,0.107850045,-0.3303777,-0.06480329,-0.10197798,-0.212199,0.06902867,-0.25300965
target_dataset:KMRC-20,-0.39069837,0.0009264201,0.17463446,0.5952796,-0.03115262,0.5021579,0.24007665,0.5037236,0.24167135,0.120212734,-0.4529648,0.38437998,0.3265878,-0.21116135,-0.211231,-0.5813637,0.09325478,-0.4182485,-0.07548982,0.3912843,-0.43713096,0.21010521,0.18600082,0.28683177,0.30519903,-0.47251457,0.24291772,0.24673304,0.119877964,-0.6467296,0.14460526,0.039052434,-0.262011,-0.028939635,0.11882554,0.12634122,-0.45889074,0.23734666,0.22030136,-0.6583818,-0.60164374,-0.52440983,0.39269873,-0.15042444,-0.36234802,0.5229039,0.34082785,0.431051,-0.4330746,-0.20845968,0.41706264,0.09649551,0.2026551,-0.08784157,0.2660178,0.35909146,0.04248303,-0.2464518,0.5092221,-0.15581612,-0.48421055,0.66575193,0.004444167,-0.036696687,-0.21344729,0.25329423,0.6440769,-0.27231488,-0.011088511,0.25446662,-0.6488583,0.51095,-0.07944706,-0.07370001,0.09238406,-0.46929544,-0.282054,0.36375153,0.22238961,-0.32099012,-0.551855,0.163919,0.3352238,0.103810035,-0.097677544,-0.3332165,-0.3083767,-0.17886895,-0.41082442,0.08114497,0.01733265,-0.2592536,0.05069606,-0.24004227,0.11817099,0.20722742,-0.1906284,-0.29841295,0.115967125,-0.16753462,-0.1151584,0.7845743,-0.1389085,-0.010434926,0.21169263,0.38202372,-0.3860436,0.10265451,0.2903614,0.27948296,-0.3677145,0.13044827,-0.25771222,-0.034822777,-0.108339764,-0.40535635,-0.43857804,-0.30383107,0.1965277,0.24367419,-0.3775106,-0.19748798,-0.015014091,-0.40379184,0.26772732,0.37949517,0.09477174,-0.3154899,0.115028456,0.110295355,0.33832982,-0.23431763,-0.3851639,0.19034187,0.040946595,-0.122620754,-0.19441499,-0.18682143,0.36988905,-0.046980664,0.3339243,0.36949927,0.053119656,0.12295593,-0.021447113,0.30505887,-0.38733456,0.17417718,-0.0934107,0.21308868,-0.007511428,-0.19331598,-0.059864737,0.23840114,-0.29044268,-0.28105727,-0.09673984,-0.15657686,0.19861943,0.26653874,-0.02615905,0.4225804,-0.20454998,-0.26634958,-0.21663752,-0.30054513,-0.3400558,-0.42496115,-0.40633535,0.13117607,0.32099706,0.44196337,0.38609508,-0.021061428,0.0915491,-0.25423327,0.1802125,-0.4366317,0.19716442,0.069994986,0.16106322,0.1281217,-0.19775277,0.37405142,0.21651797,0.3085602,0.070478104,0.25892276,0.30616453,0.21329218,0.3891392,-0.085937314,0.34139693,0.088212304,0.26453704,0.4500149,0.10099313,-0.1580394,-0.02164999,0.14780596,0.10316116,-0.12826191,0.35766196,0.24215046,-0.26413983,-0.031875663,-0.030694881,-0.24776407,0.07096234,-0.18879265
target_dataset:Hs 571.T,-0.11063489,0.07367171,0.090856254,0.69209146,0.13928434,0.60291415,0.064629786,0.48791063,-0.32134944,0.13786286,-0.29093927,0.33221814,0.7681754,0.1866819,-0.5930927,-0.5779667,0.0344856,-0.64762,-0.15973005,0.35268003,-0.2855722,0.22917144,-0.12015778,-0.022518396,0.33255816,-0.9858763,0.14545897,0.124488205,0.24729294,-0.5932057,0.55148554,0.13886642,-0.90838975,0.025027871,0.3084948,-0.020566583,-0.23532099,0.7041702,0.2583036,-1.0044312,-0.71905017,-0.24313122,0.54613215,-0.33415508,-0.7797482,0.49487656,-0.027711928,0.514729,-0.9267168,0.024848849,0.3079853,-0.14107391,-0.20390567,-0.12648508,0.120722815,0.50276136,-0.13624543,-0.876724,0.7027539,-0.014204353,-0.8392052,0.96462655,-0.25097325,-0.21437754,-0.20499076,0.30404332,1.0087173,-0.3285143,-0.44152057,0.108474925,-0.6521455,0.5116443,-0.13614991,-0.24489641,-0.31068438,-0.47254145,0.076498866,0.24499209,0.22205633,-0.096403986,-0.8795525,-0.15137935,0.30229688,0.037010834,-0.38285482,-0.271841,-0.6511042,-0.48650324,-0.62599957,-0.31498447,-0.31442595,-0.48578534,0.14610274,-0.13478765,-0.46066308,0.36624438,-0.35481697,-0.12657413,-0.002258554,-0.4268825,-0.05111243,1.079343,-0.28754622,0.09261091,-0.055748433,1.04124,-0.42777303,-0.11526873,-0.23878384,0.02468729,-1.6343347,-0.6299176,-1.3682853,-1.7021706,-1.214788,-0.1431031,0.3173963,0.59001374,-0.7942842,0.62974524,-0.60002625,0.7480006,-1.098997,-0.7812362,-0.23886049,-0.8348094,-0.5480558,-0.87652534,0.06496708,0.02481325,0.7836268,0.17360738,-0.2135713,0.8703527,-0.5179033,-0.051656038,0.22924738,1.7128788,0.5846492,-1.5107472,1.1921089,0.9530354,-0.34897083,0.7688933,1.5473717,-1.4160284,-0.075834036,-0.66571647,-0.6058092,1.0876724,-1.2383934,-0.88864493,-1.6457391,1.1632093,1.1218157,-0.29368156,0.29216218,-0.9265529,1.4388304,1.2589662,-0.8792146,1.328332,-2.0051951,-0.97113156,0.60798454,-0.2329053,2.0210676,-0.25135028,-0.3171431,0.9900994,0.07720357,0.114136994,-0.87926257,-1.6811342,0.39583185,1.0848517,-0.5618855,0.046649545,1.9591019,-0.644387,0.8986758,1.700347,-1.1682298,0.2826531,1.6315464,1.5932477,-0.7092177,-0.5918069,0.51048625,-0.9510533,2.0962381,0.035832047,-0.22998136,-1.053832,-0.5800148,0.5548437,-1.079387,1.805719,0.7311116,-0.07839285,-1.8194786,-0.27017638,0.12576449,-1.5800655,-0.67023987,0.00490956,-1.3127781,0.7812732,-1.1888174,0.7263456
target_dataset:IST-Mes1,-0.14359951,-1.1874738,-0.8318001,-0.3906478,1.003613,0.4808251,-0.0721304,-0.11733818,-0.12642369,1.2571884,0.33994362,-0.6619515,-0.28208894,-2.1009653,0.8352096,-1.2350773,-0.71164525,0.082300186,-1.0394748,1.3126405,0.7978265,-0.51169735,0.99309474,-0.9147807,-0.5286213,-0.6554448,0.3332463,0.0720427,-0.116715625,0.3860598,1.1778674,-0.4370704,-1.4711866,0.48118478,-0.097277924,0.03741342,-1.6504858,0.6542553,-0.80034995,0.3613036,0.1563394,0.33264595,-0.853527,-0.6920773,0.5604435,-0.070331395,0.3033572,-0.25226727,-1.3370365,-0.2617816,0.6578293,-0.35930315,1.4566522,0.7391595,-0.14439179,0.34967536,0.5706928,-1.0706412,0.77867734,-0.94564164,-0.28029847,2.1063144,-0.07367191,0.8242961,-1.4708875,1.4233085,0.37459973,-0.96616113,1.2783432,0.14319295,-1.7108704,0.3253784,-0.06500448,0.3678102,0.61277586,-0.12659727,0.6541304,-0.19799244,-0.6282084,1.337215,-1.5807776,-1.1447158,0.85122,0.10904042,0.27043855,0.37935746,-1.3483989,-0.37745115,-1.3361592,1.7924235,0.50775635,0.934008,-0.4485868,-0.4623646,-0.4893545,0.06895775,-1.6586785,-0.20227057,0.99261796,0.34178662,0.20821072,-0.50431615,-0.30123454,0.56736195,0.6791276,0.382277,-0.38609862,0.10273466,0.2902845,0.27937308,-0.36783183,0.13034526,-0.25791872,-0.03493778,-0.10853376,-0.40534747,-0.43848124,-0.30372235,0.19641177,0.24356909,-0.37769878,-0.1973532,-0.015021166,-0.40391397,0.267641,0.37925875,0.09456506,-0.31560388,0.11515486,0.11018109,0.3384479,-0.23412186,-0.3851179,0.1903225,0.04091001,-0.122469835,-0.19457364,-0.18664975,0.36979488,-0.047059834,0.33417997,0.3696759,0.05295298,0.12310873,-0.02138715,0.30478477,-0.3874539,0.17395827,-0.09328683,0.21332696,-0.007536209,-0.19334754,-0.060007885,0.23860435,-0.29019988,-0.2809233,-0.09691196,-0.15660056,0.19877832,0.26658747,-0.02614693,0.422777,-0.2046961,-0.266422,-0.21654697,-0.30076903,-0.33985195,-0.4248991,-0.4060938,0.13123353,0.32093138,0.44194248,0.385853,-0.02133184,0.0915196,-0.2540297,0.18007863,-0.43653446,0.19738972,0.06991605,0.16124701,0.12827669,-0.19801678,0.37406713,0.21669358,0.30880532,0.0703959,0.25895685,0.30629483,0.21330771,0.38928127,-0.08605793,0.34128296,0.088114426,0.26435885,0.4500932,0.10079806,-0.1577892,-0.021364883,0.14752206,0.10292068,-0.12822369,0.35767192,0.24190894,-0.26418087,-0.03176568,-0.030871252,-0.24756452,0.070925936,-0.18864745
target_dataset:TE-14,-1.0586385,-0.19027281,-0.417111,1.1850077,0.25155994,0.16563785,0.4109676,-0.026781917,-0.06590733,0.56812185,-0.24749103,0.8671626,0.85608435,-0.22575954,0.16729185,-1.004438,-0.6167261,-1.0353472,-0.059295893,0.14598624,-0.42183208,-0.3641715,-0.17519864,-0.03775467,-0.59202266,-0.36628503,-0.5613729,0.049398452,-0.06357823,-0.097506166,0.5812995,-0.40079305,-0.59237564,0.10052347,-0.3803478,-0.044686228,-0.21040636,0.30840367,0.7472854,-1.1519324,-0.2903574,-0.14505911,0.23854837,-0.28106722,-0.36079788,0.31285363,-0.14673513,0.8000263,-1.1662141,-0.7710981,0.04309912,-0.29285702,0.45685714,-0.09637925,0.31878743,0.581167,-0.42629382,-0.49540746,0.36505374,-0.08683841,-1.2810165,1.4272087,-0.10519776,-0.11279701,0.009621918,0.729647,0.7461401,-0.7386246,0.022419246,-0.3982945,-0.4934833,1.057225,0.06914322,-0.19510856,-0.19026327,-0.8291384,0.07494146,0.8088275,0.38779762,0.47392404,-1.41399,-0.69665754,0.11790657,-0.4156047,-0.11100006,0.4667923,-0.37931025,0.30110294,-1.0438201,0.19956225,0.39828378,-0.30992416,-0.41741845,-0.9985028,-0.23192094,-0.7013997,0.05099699,-0.5883863,0.32428324,-0.12562859,0.3036148,0.9782143,0.07453099,0.015597284,0.09596133,0.5014055,-0.44423437,0.10911769,0.2197507,0.2707209,-0.46530908,0.016349904,-0.3776659,-0.15105465,-0.29890412,-0.446572,-0.32377142,-0.20546271,0.10507722,0.19201928,-0.5058332,-0.109669454,-0.04550027,-0.45240942,0.18432927,0.24497074,-0.007360399,-0.44492644,0.18960163,0.06757556,0.47488186,-0.16161941,-0.38068372,0.24200739,0.017067,-0.074526936,-0.2658038,-0.028211012,0.3373188,-0.13022786,0.5407334,0.5081286,-0.05242734,0.17967284,0.05667661,0.095032856,-0.4469936,0.0013432801,-0.070940614,0.30816507,-0.05030552,-0.20255463,-0.17831269,0.31692243,-0.122496516,-0.19025083,-0.15453634,-0.17230394,0.3401342,0.3061944,-0.038316354,0.53146404,-0.3469925,-0.34715062,-0.20390211,-0.39363074,-0.14450954,-0.44379026,-0.3010714,0.205652,0.2536889,0.3907868,0.24059978,-0.20867738,0.13196209,-0.10995582,0.14113598,-0.36313546,0.38639188,-0.03093902,0.31995618,0.28861886,-0.31605896,0.34775946,0.36607045,0.48880494,-0.005273439,0.24245273,0.33392587,0.17446253,0.5193461,-0.17752163,0.23737647,0.025125735,0.14309126,0.460251,-0.08327271,0.0070329756,0.18933159,0.0073807836,-0.059795596,-0.121816576,0.36737108,0.06983353,-0.31344143,0.03627333,-0.14716972,-0.10370365,-0.00072871894,-0.03467393
target_dataset:A101D,-0.6333603,-0.27511817,-0.3896018,0.6130036,0.4130337,0.3100171,0.08581986,0.08613832,-0.029042095,0.7069957,-0.20192051,0.85204256,0.55798674,0.10079405,-0.13683595,-0.89284945,-0.2874663,-0.72550225,0.43961272,-0.29065585,-0.40505528,-0.6312919,-0.30142337,-0.43540013,-0.4415897,-0.7025861,0.0723871,0.13631731,-0.285321,-0.12233248,0.4464715,-0.17089784,-0.6938299,0.30495912,0.20258248,0.1586592,0.23400319,0.51838803,0.30182505,-0.5417125,-0.20745185,0.14454837,0.2548821,-1.0770835,-0.9754713,0.013893366,-0.21839556,0.68837357,-0.9874581,-0.51153314,0.14111334,-0.025693178,0.31131527,0.05024732,-0.29712147,0.8394786,-0.5370713,-0.94685185,0.18720186,-0.2808941,-0.72720295,0.8779062,-0.23416844,-0.010287851,0.032842547,0.3849896,0.66330713,-0.67953616,-0.25794056,-0.42827588,0.08534911,0.7696534,0.18121822,-0.3623691,-0.56682,-0.15506116,0.1213209,0.47268304,0.33018374,0.32854664,-0.98429406,-0.31601256,0.14410543,-0.4910891,-0.5494582,0.44060606,-0.20533332,0.27029008,-0.70184445,-0.076883115,0.171918,0.121818565,0.026903227,-0.4337927,-0.5284751,-0.5169183,-0.25578216,-0.93848026,0.14551309,0.37988892,0.1649897,0.5615954,-0.48616534,0.3209535,-0.31958959,0.029897094,-0.55969477,-0.251556,0.13076839,0.76582897,-0.5325316,-0.23453723,-0.14609835,-0.3558312,-0.607158,-0.76972836,-0.03671658,-0.08954568,0.0723576,0.37336197,-0.42310327,-0.19656703,-0.21568245,-0.1645813,0.056491792,0.5292176,0.34553525,-0.7439541,0.055523712,0.35549477,0.8014231,-0.65828466,-0.58256596,0.6886247,0.040372927,-0.5110729,0.052393213,0.1768935,0.5924162,-0.29303467,0.6476249,0.5532963,0.075611904,-0.20808749,0.28177273,0.05945173,-0.24771315,-0.061478034,-0.5440655,-0.25179464,-0.2142864,-0.10575872,-0.2560845,-0.1778605,-0.21313319,-0.2528503,0.32340908,-0.15891047,0.49425995,0.32822993,-0.1815551,0.27499133,-0.5718346,-0.5275434,-0.57471067,0.10727027,0.14774871,-0.883881,-0.8086791,0.41870934,0.13049734,0.1506379,0.47926798,-0.111563906,0.5536591,-0.16261543,0.5525346,-0.35729507,0.52769345,-0.31435663,0.46583995,0.59062165,0.21677181,0.0910109,0.49012798,0.46948755,-0.10216794,-0.040709794,-0.13584495,-0.16611192,0.6819631,-0.18753454,0.10981996,0.092859514,0.22177717,0.13425392,-0.34361795,-0.14041878,0.17587483,0.49123007,0.052863203,-0.27111703,0.38276517,0.124522686,-0.43942514,-0.058319673,-0.044028886,-0.1374422,-0.30123264,0.27362654
target_dataset:Becker,-0.75189126,-0.7645429,-0.34739542,0.733498,0.58070606,0.21299444,0.006849304,-0.64039433,-0.2155348,1.0181113,0.60921884,-0.27810192,0.92552537,-1.3875057,0.42492047,-0.31285596,-0.7775254,-0.6996603,-1.0493194,1.1164942,0.6193694,0.48071045,0.011851625,-0.0091916025,-0.31817585,-0.38101518,-0.34519336,0.33945912,0.88961476,0.58540106,0.3647048,-0.8634734,-0.97200805,0.7831968,-0.7959233,0.14634828,-1.0655243,0.39016795,0.2902971,-0.8147831,-0.18334764,0.4607247,-0.36276782,0.45863584,0.8045961,0.11859177,-0.15287098,0.10717574,-1.3699603,-0.712281,-0.17607957,0.07933217,0.8171724,0.4975369,0.91192335,0.041202515,-0.5193336,-0.22309442,0.5973892,-0.36711296,-0.92261654,1.6496158,0.60014516,0.6996841,-0.9646944,0.66976595,0.47438145,-0.65440005,0.7347088,0.2702396,-1.4762608,0.4474492,-0.96985584,0.3161874,0.15134206,-1.1432964,-0.22277172,0.17670062,-0.5519643,0.5692175,-1.2173632,-0.4903857,0.015608057,0.68902254,0.24365684,0.3350023,-1.0154577,-0.55329347,-1.3598634,1.0666448,0.24470636,-0.18496916,-0.77882504,-1.0308539,-0.22443254,0.16884261,-0.74193764,0.4015178,1.1013403,-0.6919979,-0.0750864,0.28729385,0.69038105,0.72639954,1.2530231,0.73506474,-0.5511883,-0.37120014,-0.08385956,0.44339222,-1.2817025,-0.855703,-1.1527177,-1.1794059,-1.432317,-0.7578395,0.46085516,0.5012622,-0.40810728,0.56725615,-0.88751805,0.39296183,-0.6566191,-0.64665294,-0.42101127,-0.44978222,-0.17379251,-1.2836481,0.18467158,0.08390953,1.1643585,-0.22980781,-0.45345542,0.89062047,-0.22525123,-0.285705,0.057185397,1.4125854,0.5339674,-1.2138194,1.5377817,0.9054165,-0.1636424,0.2548247,1.0991704,-1.1656379,-0.20823702,-0.7602859,-0.43450418,0.458979,-0.61842424,-0.4893034,-1.3381597,0.57482326,0.82919717,0.12999061,0.23037346,-0.5820663,1.4607742,0.75875795,-0.58317256,1.1309097,-1.7626709,-1.050216,-0.13208148,-0.01568821,1.5290716,-0.74461937,-0.27879918,0.9074929,0.003084451,0.03395301,-0.40243408,-1.2968007,0.7490274,0.6081506,0.23287871,-0.12137091,1.6787186,-0.79120433,0.93080163,1.728874,-0.6008301,0.099081606,1.2859145,1.4771082,-0.48776832,-0.38638926,0.12934193,-0.5756962,1.629496,-0.3412212,-0.30178434,-0.54641956,-0.28031135,0.119832635,-1.2746165,1.1748335,1.0064595,0.14495963,-1.0642586,-0.29630446,0.37010184,-1.2155199,-0.78500235,0.13633326,-0.9193175,0.67816246,-0.95369697,0.9695583
target_dataset:UACC-812,-0.745229,-0.1163163,0.030272461,0.6700535,-0.041110367,0.349361,0.4068607,0.38322645,0.50943476,0.2457735,-0.5122908,0.5445079,0.15365487,-0.5040123,0.16615435,-0.7570033,-0.08227958,-0.42653054,-0.027182281,0.36153704,-0.5238247,-0.0130996555,0.32273802,0.3537375,0.010850474,-0.12292242,0.08375543,0.24958135,-0.05965638,-0.53160286,0.060037404,-0.13605283,0.02791226,-0.047815382,-0.12682922,0.15716475,-0.56373477,-0.028563157,0.31186837,-0.5466236,-0.42341742,-0.60683054,0.229659,-0.10945001,-0.09910998,0.47908238,0.45392573,0.47468185,-0.3394757,-0.5049532,0.41463643,0.10226804,0.5655279,-0.06079103,0.3365477,0.3434914,0.073661774,0.04743904,0.35823885,-0.24600595,-0.47950423,0.73635316,0.10133238,0.05271636,-0.17479117,0.40629625,0.44334048,-0.39002496,0.3000874,0.14777413,-0.6247351,0.6743498,0.043957964,0.003476821,0.29422912,-0.5407208,-0.3611133,0.56194526,0.27245754,-0.18958399,-0.6276128,0.068168044,0.33227444,-0.03590694,0.089496374,-0.13491462,-0.13205132,0.16708839,-0.46740428,0.4035878,0.35635632,-0.09033729,-0.14077742,-0.5155887,0.37498748,-0.17110625,-0.04947582,-0.5142455,0.24768654,0.045600213,-0.014291316,0.632027,-0.017879695,-0.086340696,0.3252446,0.70789015,-0.3764424,-0.38833636,0.39039814,0.24480647,-0.38493136,-0.42041236,-0.7505615,0.010543857,-0.77117926,-1.0224261,-0.12672788,0.05700752,0.31301194,0.534798,-0.51199913,-0.17803162,-0.10733392,-0.5761447,-0.13679227,0.05405882,0.27517015,-1.1363366,-0.11531612,0.09914717,0.53819275,-0.4006005,-0.34266353,0.24349141,-0.15221182,0.027940713,0.16235782,0.2492342,0.45407522,-0.61447674,1.0475398,0.23447508,0.35318494,-0.31689984,0.3492516,-0.25965455,-0.045577675,-0.14930643,0.1592207,-0.049364164,0.27501705,-0.048217356,-0.7620868,0.25238958,0.24041525,0.22622171,0.118165046,-0.24076581,0.7373189,-0.01894191,-0.23559609,0.84770644,-0.7777232,-0.6806766,-0.43314713,0.12479213,0.18399939,-0.57068175,-0.06675744,0.52535635,0.26915485,0.28698364,0.23215954,-0.38258094,0.7081597,-0.34309506,0.6794623,-0.47763366,0.82038593,-0.34534952,0.08436443,1.0138011,-0.4187854,0.1954814,0.22119927,0.74707234,-0.039636962,0.09823719,0.43713284,0.33873886,0.68543506,-0.18389896,0.23276082,0.18237561,0.43436465,-0.17152303,-0.7437705,-0.077033706,0.36604246,0.5672027,0.022302642,0.10399948,0.48068544,-0.2563482,-0.5106725,0.06910506,-0.16656327,-0.006155789,-0.34971225,0.4208122
target_dataset:SCC-9,-0.1573407,-0.08352011,0.05003994,0.38986534,0.15779595,0.57805854,0.08077971,0.5110459,0.02464801,0.24787092,-0.3561483,0.31045777,0.32524985,-0.11458939,-0.33817318,-0.6583125,0.09561119,-0.3736081,-0.018307298,0.3077379,-0.31076515,0.026664808,0.12748435,-0.05396813,0.26506397,-0.7661412,0.3860286,0.19164921,0.02457808,-0.5774132,0.37381542,0.122383915,-0.62168145,0.052118465,0.3527997,0.10778357,-0.34388816,0.4987715,0.024447978,-0.5239154,-0.553335,-0.30197456,0.35812277,-0.5274073,-0.6466075,0.38766083,0.19676349,0.39404008,-0.63396734,-0.054094374,0.45225155,0.014727682,0.12679724,-0.01149638,-0.030673534,0.50683916,0.023941219,-0.6929973,0.55058455,-0.22502169,-0.45157364,0.75744665,-0.17294899,-0.030837014,-0.2839874,0.30372143,0.7398193,-0.34828657,-0.14448628,0.15317951,-0.5561621,0.4436356,-0.0050776005,-0.16080119,-0.109176,-0.22968134,-0.02688083,0.20329365,0.17141098,-0.12003499,-0.66474676,0.011449546,0.39829263,0.0006867945,-0.29642665,-0.24924836,-0.45790097,-0.27479145,-0.46638942,-0.0045962483,-0.10570808,-0.10513964,0.1795124,-0.060941845,-0.22644792,0.26112476,-0.44418848,-0.3744506,0.06796683,-0.038289137,-0.07737957,0.6820396,-0.40039945,0.12238622,-0.013682693,0.59698224,-0.8018609,-0.4343019,-0.12346569,0.75016475,-0.9155818,-0.9000738,-0.7717515,-0.80761355,-1.6306838,-1.1901821,0.5489681,0.44373825,-0.25164598,0.28213316,-0.9520238,0.14904228,-0.39119032,-0.38784274,-0.42292047,-0.0970628,0.038845487,-1.588605,0.23925361,0.21329567,1.4277803,-0.47051063,-0.554487,0.94479764,-0.1404011,-0.2795956,-0.05705078,0.9609232,0.5205465,-0.84104395,1.7300752,1.0554392,-0.22271785,-0.19247805,0.7490669,-0.98151124,-0.3296901,-0.86503184,-0.4001843,-0.02482365,-0.29612705,-0.06964293,-0.9904496,0.096967876,0.645594,0.27756009,0.22306733,-0.2481699,1.2465444,0.372668,-0.32051888,0.83514476,-1.3481499,-1.0081267,-0.62760234,-0.06812173,1.1342022,-1.0359132,-0.30854985,0.88204443,-0.16862816,-0.13466597,-0.13882211,-0.97341377,0.9792372,0.37004098,0.60406625,-0.07277721,1.5235618,-0.8876002,1.0701722,1.5686076,-0.3053105,-0.10419333,1.0870085,1.3353755,-0.4590573,-0.18595243,0.0062568784,-0.29366028,1.3216746,-0.5745159,-0.34324825,-0.10764039,-0.18849578,-0.08228737,-1.407455,0.5076572,1.1363149,0.13204733,-0.616957,-0.1506106,0.46058476,-0.7193997,-0.72356707,0.23787895,-0.5363771,0.5058636,-0.7677287,1.1300235
target_dataset:VCaP,-1.2064182,-0.44014555,-1.3596439,1.1144919,0.8699044,0.032130063,0.35478872,-0.14024624,-0.5637434,1.1774368,-0.2935205,1.6353478,0.89704627,0.32078746,0.26242304,-2.0265746,-1.1167675,-1.3897952,0.7014959,-0.79561937,-0.6010731,-1.9733462,-0.50931066,-1.2977204,-1.6960945,-0.87406236,-0.7972963,-0.37351295,-1.1617929,0.24336621,1.5760303,-0.3432606,-1.4422188,0.100853056,0.05402334,-0.24553192,0.62392604,0.8682884,0.70273286,-0.9844439,0.20512319,0.42767245,0.13883848,-1.9476573,-1.5836492,-0.22480157,-0.7635126,1.2649766,-2.0197945,-0.9412709,0.05604349,-0.93658316,0.5925405,-0.09666714,-0.8649656,1.4485298,-0.67742217,-1.9150643,0.120028615,-0.25675198,-1.7569193,2.098646,-0.98301995,-0.41742384,0.42054668,1.3497462,1.0090456,-1.425007,-0.3932578,-1.5471137,0.43548664,1.6117923,1.0481848,-0.7156934,-0.9626126,-0.13760641,1.1664627,1.0495,0.82187825,1.6793671,-2.4270594,-1.8694923,0.24924362,-1.7466128,-0.7492956,1.486771,-0.38613582,1.071261,-1.4757648,-0.07327252,0.6657865,0.32985598,-0.28145266,-1.1109427,-1.2808605,-1.8871366,-0.11539602,-1.7516506,0.052814245,0.8742457,0.9553684,0.8808589,-0.8518114,0.05325468,-1.1584704,0.51651806,-0.0812408,-0.5210225,-0.21926033,0.08974074,-2.0565236,-0.56317395,-1.348617,-2.4025607,-0.9079586,0.25121713,0.2579088,0.6980697,-1.0022923,1.441628,0.20195693,0.88861406,-1.9090065,-0.6205708,-0.1211935,-0.77394676,-0.19204041,-0.54002583,-0.59925616,0.4001689,0.30371505,-0.23551492,-0.18687737,1.2892858,-0.8238113,-0.54778296,1.2846107,2.301842,1.135198,-2.2587292,0.4518172,0.45208338,0.14374936,0.74009997,2.4552271,-1.3842062,0.7380798,-0.14375652,-1.4437559,0.89577913,-2.0835857,-1.3918265,-2.1995003,1.1695603,1.0740974,-1.0138372,1.2875406,-1.485242,1.5480232,1.8516812,-1.6095824,1.1986983,-2.636478,-1.072553,1.0749067,0.7525438,2.781985,-0.15658492,-1.2578624,1.29044,0.30939707,0.097724915,-0.8021889,-1.7027737,0.55463946,1.1669077,-0.7397816,-0.072990924,2.1674604,-0.6503276,0.4283017,2.0289326,-0.89961946,0.28181937,1.8218127,1.3727188,-0.87690115,-1.3514636,0.2698378,-1.8473196,2.7079616,0.8255411,-0.015089065,-1.5627607,-0.3828838,0.42273775,-0.86350334,2.2426279,-0.188674,0.9935384,-2.2516184,-0.5122288,-0.14558178,-1.8794073,-0.71814936,-0.5162102,-1.5296729,0.59868586,-1.9052049,0.5230414
target_dataset:RVH-421,-0.5905083,-0.39791507,-0.6059952,0.47673333,0.5729185,0.3184838,0.07850679,0.10056408,-0.115436226,0.84341305,-0.20350695,0.8431335,0.42910156,-0.02474916,-0.016035035,-1.1615691,-0.4030112,-0.6824543,0.43477154,-0.29267183,-0.34380662,-0.94247735,-0.18100317,-0.7188915,-0.64096284,-0.7915169,0.07338506,0.035068035,-0.5194651,-0.059131593,0.73352563,-0.14909682,-0.9211007,0.2732741,0.28356704,0.09433301,0.17000863,0.6318425,0.15729551,-0.39989504,-0.08816373,0.21525462,0.13183887,-1.3664552,-1.0627525,-0.07006556,-0.24003547,0.67873037,-1.1545452,-0.49097538,0.2443271,-0.20643947,0.45910746,0.1021152,-0.5296852,0.9569527,-0.4024452,-1.2320527,0.21815163,-0.3839609,-0.7554619,1.1355748,-0.41855893,-0.0071053207,-0.04179515,0.633716,0.6902642,-0.83362675,-0.17099255,-0.58074456,0.06034589,0.834451,0.3922698,-0.38624036,-0.5542297,0.0032985806,0.4045192,0.4538203,0.33690685,0.6549135,-1.2406236,-0.6340356,0.2824748,-0.7082263,-0.5726936,0.59662807,-0.32301676,0.36042783,-0.827683,0.06847537,0.26394498,0.3379758,0.024760269,-0.432264,-0.701754,-0.6787896,-0.432532,-1.1014234,0.15182248,0.5874986,0.30282152,0.4442251,-0.6760083,0.30708495,-0.48396882,1.523947,-0.5028407,-0.7142459,0.32004023,-0.011761367,-0.5360129,-1.0895343,-1.5193473,-0.11849599,-1.7629282,-1.6248152,0.3185794,0.60877967,0.20103444,0.58235085,-0.86064494,0.069229245,-0.2514808,-0.8999218,-0.62827766,-0.6548729,0.10013059,-2.1631365,-0.19420724,-0.06617959,0.8781867,-0.21590665,-0.16841991,0.2542374,-0.4907059,0.53805435,0.31110245,0.8696517,0.4021134,-1.2826476,2.1500916,0.42413747,0.33437613,-0.5551885,0.83534414,-1.2853148,0.13521245,-0.82856894,0.60592055,0.0716213,0.47520936,0.09656355,-1.6931388,0.60822356,1.2097964,0.8901546,0.085437074,-0.347551,1.4420753,-0.24968773,-0.42906862,1.5613607,-1.505045,-1.1773291,-0.45493394,0.121231556,1.0379791,-0.5511166,0.6698904,1.0436306,0.07749835,0.06023279,-0.3674809,-1.1781479,1.2792196,-0.06952505,0.86908275,-0.29725504,1.8551617,-0.8811354,0.30559206,2.103588,-1.1673479,0.0204314,0.51105297,1.5653732,-0.3419506,0.0074788034,0.8955072,0.51286227,1.2400054,-0.42926314,-0.033208877,0.14549443,0.28493008,-0.6416345,-1.9195435,0.3231256,1.1615642,0.4869532,-0.5062409,0.5018646,0.578063,-1.0718172,-0.75995266,0.34362125,-0.55512065,0.5124122,-0.8443546,1.2566564
target_dataset:IM95,-1.0520239,-0.089924805,-0.28362954,1.0582471,0.092170715,0.19590904,0.48304564,0.1970545,0.23825286,0.4136213,-0.4936903,0.9992218,0.5456313,-0.13428567,0.16496801,-1.0355036,-0.3985632,-0.85984135,0.1992575,-0.013013348,-0.66541475,-0.4414546,-0.039117515,0.09503497,-0.4680413,-0.22156516,-0.34547672,0.09183836,-0.26910156,-0.34263748,0.36556536,-0.2520067,-0.2251369,-0.041871786,-0.22563244,0.03222838,-0.14201505,0.123238094,0.66948277,-0.9226724,-0.3132745,-0.39881274,0.31687388,-0.40101123,-0.47239465,0.3646503,0.077888,0.8103687,-0.7849089,-0.73991233,0.20202108,-0.16495338,0.4857389,-0.16927396,0.19538115,0.60752094,-0.26850748,-0.30194008,0.2563977,-0.124661595,-1.0009918,1.071081,-0.12365967,-0.16275324,0.14063314,0.59342915,0.62587523,-0.6384605,0.024724675,-0.3422416,-0.2839665,1.032428,0.25727773,-0.21524054,-0.08486153,-0.63448507,-0.0734919,0.8479668,0.5170909,0.20603096,-1.1153089,-0.40949655,0.19003078,-0.495771,-0.10904139,0.31539628,-0.10217177,0.47794607,-0.75075126,0.14566265,0.45756,-0.1905559,-0.25603187,-0.83263665,0.022874549,-0.72784734,0.17798677,-0.8125935,0.1748685,0.119501345,0.2526052,0.90697956,-0.07545207,-0.120835125,-0.027895838,0.073230326,-0.6285544,-0.3682354,-0.0062429607,0.8493644,-0.7820519,-0.4696384,-0.31233564,-0.70622027,-0.949447,-0.8385306,0.20724782,0.12100661,-0.12672783,0.44188386,-0.5085604,-0.03583847,-0.4262817,-0.17333043,-0.094634116,0.35324997,0.2849045,-0.97251695,0.058818385,0.39065683,1.0250281,-0.68345964,-0.6067215,0.9249395,-0.045193635,-0.5823006,0.14879479,0.5844239,0.66689247,-0.5853571,0.9146648,0.72681457,-0.00998931,-0.18242656,0.601227,-0.31109992,-0.18972582,-0.2949987,-0.72027135,-0.21506138,-0.4509007,-0.18322405,-0.5646963,-0.1275774,0.05834475,-0.2169427,0.4629764,-0.27140328,0.7876749,0.49444616,-0.3426705,0.4001326,-0.96109664,-0.7177442,-0.5458944,0.18737885,0.66267943,-0.98108613,-0.8615999,0.6347159,0.026370019,0.0150666535,0.2783772,-0.42728397,0.72510344,0.09433922,0.5298375,-0.24575558,0.91815585,-0.5435045,0.697808,0.97817874,0.14632672,-0.0013667047,0.80494016,0.748381,-0.27887028,-0.23906857,-0.2088674,-0.43539906,1.0355079,-0.2269668,-0.06231749,-0.085357435,0.05321972,0.07316014,-0.6804496,0.19150676,0.40063682,0.49858344,-0.28083774,-0.32436144,0.36021304,-0.2152845,-0.5561495,-0.03688728,-0.26412433,0.0811934,-0.5929998,0.56803495
target_dataset:SK-MM-2,-0.567134,-0.24803293,-0.23895916,0.54167217,0.3200534,0.35098162,0.084525526,0.14844568,0.08972204,0.6093593,-0.22327846,0.71698153,0.45919746,-0.0036323667,-0.14522876,-0.75605464,-0.16872407,-0.60365236,0.35549515,-0.15591624,-0.38672614,-0.41998106,-0.19697033,-0.26548558,-0.24907176,-0.6267167,0.18634973,0.20518376,-0.16911979,-0.20755179,0.2851838,-0.14286447,-0.5407213,0.2909064,0.19411658,0.2049831,0.09262389,0.42513204,0.23775852,-0.47192883,-0.2730177,0.034249827,0.2559862,-0.88761294,-0.8112585,0.08672395,-0.078101814,0.5900237,-0.79993,-0.45328516,0.19071388,0.089431345,0.3154797,0.06218258,-0.17727111,0.7184508,-0.44150048,-0.741511,0.21695982,-0.28971836,-0.5699942,0.72822165,-0.118248075,0.049458712,-0.04632874,0.28500596,0.5975384,-0.5661874,-0.17299451,-0.23587345,-0.03797239,0.6563236,0.07356091,-0.2797881,-0.42262852,-0.1839593,-0.039615184,0.40575182,0.26095077,0.1281516,-0.78279746,-0.10287887,0.16318071,-0.2997697,-0.45759434,0.25799873,-0.18485206,0.16376632,-0.5880989,-0.012864068,0.13600567,0.09200384,0.048780996,-0.35465196,-0.35054898,-0.3173492,-0.2681262,-0.8028115,0.16898733,0.29918638,0.056086466,0.5170223,-0.40623188,0.31095552,-0.1572102,-0.04051289,-0.5480354,-1.0296409,0.26440564,1.0643474,-0.5601907,-0.9346208,-0.4923214,-0.35743982,-1.3682264,-1.6050351,0.40982142,0.29248807,0.269262,0.8827801,-0.48734137,-0.2962618,-0.37128514,-0.17209758,-0.43477297,0.44494274,0.8405876,-1.708935,-0.29276562,0.52840185,1.1537304,-1.2134733,-0.69992054,0.9887151,-0.08138616,-0.7227418,0.65005547,0.72315013,0.85083485,-0.9654654,1.3557509,0.31212813,0.5841661,-0.9296025,0.7528776,-0.41443893,0.26394376,-0.32743043,-0.57009375,-0.9414627,0.049199514,0.08338341,-0.9817741,-0.5271747,0.1584296,0.23343489,0.86686015,-0.24110952,1.1309791,0.02076827,-0.48430377,0.5219003,-1.2824705,-1.0515399,-1.074812,0.9807131,0.755213,-1.3383327,-0.82789236,0.9021277,0.06859282,-0.10237628,0.5951471,-0.314342,1.4473364,-0.4134639,1.4309108,-0.49145824,1.1244223,-0.8699915,0.35985628,1.6503054,0.4501828,-0.22555265,0.4651363,0.81673723,-0.18843344,-0.38482374,-0.37546912,-0.2256819,0.9915371,-0.26659822,-0.030030936,0.26226935,0.5586823,-0.7596089,-1.276511,-0.20217681,0.47412023,1.3638631,0.18639246,-0.18296678,0.5456635,-0.3088943,-0.789725,-0.051489558,-0.06799162,0.032404527,-0.8789201,1.0181754
target_dataset:COV434,-0.4772641,-0.14720462,0.1374439,0.4602673,0.05500337,0.42568135,0.126633,0.29302186,0.39167783,0.3414131,-0.30129284,0.44217053,0.2667644,-0.23332277,-0.15174568,-0.4276427,0.09682235,-0.36211595,0.14776157,0.16678163,-0.38649535,0.11389113,0.03667747,0.21119033,0.20047262,-0.39375862,0.38714787,0.36746794,0.12598146,-0.42756507,-0.12408524,-0.094921865,-0.11722039,0.22802065,0.11437022,0.30287772,-0.24352334,0.15958191,0.16504008,-0.387805,-0.44786054,-0.27688938,0.28705475,-0.3515426,-0.38481307,0.29791424,0.26216152,0.3920975,-0.34179106,-0.3558429,0.28649366,0.35563898,0.31738007,0.054714732,0.17774451,0.4099469,-0.22893032,-0.1752265,0.28351372,-0.27335966,-0.25450295,0.37940046,0.17775318,0.16156998,-0.1927193,0.047106493,0.44617665,-0.28876516,0.026584497,0.21743332,-0.34119976,0.428174,-0.18879765,-0.080514535,-0.0596216,-0.3273392,-0.45994294,0.3053283,0.1303118,-0.37738347,-0.3151607,0.4050516,0.18494639,0.15272623,-0.20612629,-0.17902355,-0.10824369,-0.060196593,-0.3247181,0.12440234,0.073219284,-0.04529468,0.06548768,-0.2272871,0.12618649,0.120548904,-0.21582389,-0.4661576,0.22193596,0.058887575,-0.19468734,0.47925532,-0.15425274,0.24326052,0.25576046,0.84228206,-1.1104739,-1.1873451,-0.40139526,1.1545069,-1.3611468,-1.9948918,-1.3725381,-1.4422357,-3.1616657,-2.1385162,1.4924634,1.2318443,-0.553236,0.54537433,-1.3525491,0.41714928,-0.8247919,-0.3994125,-1.1583848,-0.58152807,0.17713368,-3.0200214,0.11489485,0.36861992,2.3505576,-0.8421519,-0.67169034,1.6380506,-0.42677516,-0.39068606,0.39160514,2.1105897,0.76867366,-1.824641,3.117547,1.4694171,-0.2152273,-0.74971145,1.6411909,-2.2604015,0.008419305,-1.7874472,-0.6325594,-0.454562,-0.45852724,0.09338653,-2.1282117,-0.07697129,1.6309892,0.8915638,0.7449457,-0.40035278,2.3337305,0.33632475,-0.7375175,1.3180751,-2.5805786,-1.8177834,-1.0640067,0.4816045,2.6293054,-1.6175573,-0.20189555,1.7265229,-0.5727777,-0.70064527,-0.58483624,-1.867547,2.063966,0.79197764,1.2240412,0.1844118,2.908887,-1.8752937,1.6907063,3.1942585,-0.42812032,-0.6071311,1.7724596,2.3176575,-0.95949626,-0.70778435,-0.20705554,-0.72026515,2.2623131,-0.9187377,-0.9092351,-0.22225824,-0.4113524,-0.8802816,-3.0286484,1.0342097,2.1237974,0.5052109,-1.2292951,-0.0526317,0.57513106,-1.7056664,-1.2088966,0.43709812,-0.97910905,1.1680698,-1.7346871,2.4815862
target_dataset:SNU-C2A,-0.9603066,-0.07400998,-0.008855686,0.88456786,-0.1256504,0.27996188,0.5881228,0.39307302,0.5707966,0.17612463,-0.61652887,0.6280644,0.1743212,-0.6378567,0.34465608,-0.8990834,-0.20983659,-0.5258929,-0.1517849,0.48143297,-0.6118808,-0.019573078,0.43432188,0.50491035,-0.0999815,0.06760678,-0.16374525,0.19355589,-0.09777334,-0.5720246,0.12475197,-0.20056105,0.14510068,-0.19469282,-0.33844137,0.07099661,-0.7341769,-0.1634005,0.48259902,-0.73429924,-0.4288628,-0.7980643,0.22058317,0.13334164,0.11183572,0.604808,0.5384245,0.54890925,-0.35181314,-0.6347724,0.43189394,-0.030116081,0.6830106,-0.14578407,0.51923877,0.27572834,0.18508685,0.2470864,0.39623392,-0.1891596,-0.67422163,0.9440218,0.10506743,-0.018794969,-0.13655668,0.5873046,0.4488681,-0.436205,0.44264612,0.11326974,-0.8000963,0.8386756,0.11877419,0.05735428,0.48776883,-0.7560291,-0.35757554,0.74894875,0.35999766,-0.11426008,-0.8096006,-0.108759165,0.3648109,-0.10838525,0.27942592,-0.1044149,-0.13385978,0.2928403,-0.57078886,0.5395671,0.5187019,-0.19890642,-0.30371854,-0.74663216,0.54686636,-0.34783164,0.11410159,-0.49254897,0.28141537,-0.043754615,0.08113821,0.78197646,0.14733186,-0.27803007,0.4205765,1.4630885,-0.18834798,-0.21587929,0.606246,-0.42495733,-0.24680634,-0.35814488,-1.2827815,0.3754723,-0.6620279,-0.95113575,-0.38134164,0.06935659,0.4773929,0.49938256,-0.62250006,-0.102125704,0.07476929,-1.0284694,-0.1642429,-0.44062027,-0.020587236,-1.1717443,-0.12673447,-0.25920945,0.14874385,0.11065662,-0.050077498,-0.34159255,-0.29296508,0.67367035,0.006971091,0.14810947,0.19027457,-0.69741833,1.221939,0.01495114,0.42614102,-0.11219381,0.23610108,-0.43773547,-0.061785817,-0.16456147,0.92197907,0.47084755,0.68514407,-0.07790922,-1.0204391,0.8665775,0.5899483,0.56196046,-0.3429675,-0.2996598,0.7760003,-0.24703431,-0.16861607,1.3796041,-0.7446097,-0.647776,-0.08232036,-0.22405185,0.0071204007,-0.06611875,0.7473949,0.44536108,0.43603787,0.53486794,-0.09502953,-0.62236345,0.50772655,-0.40950772,0.4603571,-0.54857135,0.9093602,-0.16790079,-0.24619523,1.0623162,-1.1924595,0.43744248,-0.025483593,0.9350525,0.060204595,0.38265088,1.1264017,0.887076,0.5794291,-0.17435837,0.39603522,0.1893185,0.5029974,-0.1273616,-0.8124739,0.06486006,0.4949617,0.26633382,-0.08481761,0.445525,0.52720886,-0.5281992,-0.46296513,0.21539274,-0.31551135,0.09936507,-0.17151971,0.29854122
target_dataset:U-251MG,-0.3577432,-0.2860881,-0.03933406,0.23670541,0.22004184,0.46459943,0.07472505,0.32262367,0.32132995,0.47659594,-0.2800234,0.35913426,0.08958694,-0.38490498,-0.060493767,-0.63843924,0.037131242,-0.24994688,0.13324736,0.19146813,-0.28523874,-0.14669926,0.17985539,-0.07506533,0.074071154,-0.5085011,0.48254982,0.2943933,-0.07439251,-0.37267682,0.1202596,-0.051002145,-0.34429422,0.2265607,0.2435647,0.26832345,-0.3301535,0.28347862,-0.055662498,-0.16608323,-0.33777332,-0.1892491,0.15038686,-0.65169924,-0.46265772,0.20144731,0.26637727,0.32666156,-0.46125814,-0.28422117,0.41022888,0.22843783,0.45654756,0.13883202,-0.071694404,0.50837326,-0.07516965,-0.46079463,0.3213557,-0.40343696,-0.18751639,0.5674627,0.019608453,0.20709005,-0.31728342,0.24515857,0.450869,-0.40828592,0.12377614,0.12831573,-0.37958506,0.4197612,-0.019381613,-0.08683163,-0.037875496,-0.11925396,-0.20702702,0.21568051,0.087468244,-0.103461206,-0.48659378,0.16909966,0.3345822,0.0046087354,-0.2400218,-0.07767525,-0.23551333,-0.03282227,-0.4042654,0.2811646,0.12406343,0.20528147,0.10358563,-0.14822075,-0.04221742,0.057123132,-0.45591626,-0.594874,0.23537962,0.2730599,-0.10462668,0.2980566,-0.3664373,0.2728222,0.118678845,-0.15273151,0.89565927,-0.3178769,1.1437438,-0.20910925,-1.2706753,0.06901068,-1.465951,-0.47187912,0.9872974,0.50828296,-0.84650725,-0.50109035,0.61440295,1.93417,-0.4026344,-0.035391524,-0.2820431,-1.3353329,0.0064436197,-0.1373091,0.26424074,0.70974565,-0.10452759,-0.29544404,-0.48469082,-0.26861447,-0.5295242,-0.12286137,0.45612487,-1.0788283,0.25660652,1.1960304,0.45661554,-1.1727858,-0.4619906,-1.043395,1.2484882,1.0947404,0.58506274,0.570589,0.1571261,1.0444552,-0.009051919,0.9100942,-0.098250344,-1.5140101,-0.8731333,1.0586832,-0.5828352,-0.27502236,0.040212646,-1.1077633,1.1153243,1.0510821,-0.7304676,1.2076834,-1.572926,-0.516318,0.5182296,0.98927486,0.06810957,-0.13241109,-0.5761423,-0.14811595,1.3028364,1.3202822,0.66770875,-0.25173151,-0.33693328,-0.6214267,0.4055885,-1.4131172,-0.24323031,0.4851404,-1.0022168,0.69760036,0.14631447,1.0897557,0.007999301,0.25523597,0.7350038,-0.3570174,-0.24643186,-0.3742091,0.5293194,0.50477004,0.6671837,-0.8847474,0.9322179,0.3541552,0.8766843,1.490029,-0.6636534,1.3557799,0.09880129,-1.1389549,0.4790932,-1.115739,-0.8217678,-0.49264902,-0.81306964,0.034438476,-0.19800696,-0.87557673
target_dataset:MOLP-2,-0.43347883,-0.15546584,0.14984533,0.42205635,0.07296363,0.43852746,0.083662555,0.28118548,0.37350255,0.3583982,-0.26968673,0.42320687,0.27737325,-0.19872126,-0.19626519,-0.38348293,0.1228828,-0.3480705,0.17233777,0.14010489,-0.3630762,0.12747122,-0.0004392207,0.18370612,0.22696535,-0.43631664,0.43599394,0.38355413,0.14895143,-0.41150525,-0.14605199,-0.08727785,-0.14357084,0.26864854,0.15367527,0.32394505,-0.2001265,0.18997976,0.13630532,-0.35720572,-0.4490229,-0.22672836,0.29164463,-0.39394775,-0.42757195,0.26911694,0.23540017,0.37695274,-0.34355673,-0.33110368,0.27160445,0.39071736,0.28468952,0.0743451,0.14837559,0.42131063,-0.26828495,-0.21416953,0.27385706,-0.28122845,-0.21761055,0.3303687,0.18576756,0.17961995,-0.19978544,-0.0014401111,0.44602945,-0.27599582,-0.010199381,0.22724031,-0.30165562,0.39029413,-0.21953617,-0.09224435,-0.1098255,-0.2901084,-0.4690383,0.26407072,0.107310615,-0.39946395,-0.2716854,0.450418,0.16763459,0.17843767,-0.24986547,-0.18459463,-0.108148426,-0.094183,-0.30466878,0.088261075,0.032393023,-0.031767912,0.09733662,-0.18151361,0.08644025,0.16402045,-0.24745125,-0.4612823,0.21876074,0.06612941,-0.21996428,0.45098072,-0.17966065,0.29277685,0.24328199,0.38202372,-0.3860436,0.10265451,0.2903614,0.27948296,-0.3677145,0.13044827,-0.25771222,-0.034822777,-0.108339764,-0.40535635,-0.43857804,-0.30383107,0.1965277,0.24367419,-0.3775106,-0.19748798,-0.015014091,-0.40379184,0.26772732,0.37949517,0.09477174,-0.3154899,0.115028456,0.110295355,0.33832982,-0.23431763,-0.3851639,0.19034187,0.040946595,-0.122620754,-0.19441499,-0.18682143,0.36988905,-0.046980664,0.3339243,0.36949927,0.053119656,0.12295593,-0.021447113,0.30505887,-0.38733456,0.17417718,-0.0934107,0.21308868,-0.007511428,-0.19331598,-0.059864737,0.23840114,-0.29044268,-0.28105727,-0.09673984,-0.15657686,0.19861943,0.26653874,-0.02615905,0.4225804,-0.20454998,-0.26634958,-0.21663752,-0.30054513,-0.3400558,-0.42496115,-0.40633535,0.13117607,0.32099706,0.44196337,0.38609508,-0.021061428,0.0915491,-0.25423327,0.1802125,-0.4366317,0.19716442,0.069994986,0.16106322,0.1281217,-0.19775277,0.37405142,0.21651797,0.3085602,0.070478104,0.25892276,0.30616453,0.21329218,0.3891392,-0.085937314,0.34139693,0.088212304,0.26453704,0.4500149,0.10099313,-0.1580394,-0.02164999,0.14780596,0.10316116,-0.12826191,0.35766196,0.24215046,-0.26413983,-0.031875663,-0.030694881,-0.24776407,0.07096234,-0.18879265
target_dataset:CGTH-W-1,-0.3780495,-0.2220245,0.07634674,0.30505195,0.13506605,0.46134248,0.07846156,0.31687152,0.36910284,0.40359688,-0.27978373,0.36007068,0.15338105,-0.3229871,-0.12302171,-0.49614727,0.09993741,-0.26884758,0.13346569,0.19615738,-0.31633005,0.019511849,0.12058033,0.07574189,0.18210834,-0.4605819,0.4851219,0.34847587,0.049509987,-0.40757966,-0.032151364,-0.061486274,-0.22293684,0.24252097,0.20156926,0.3027531,-0.30097902,0.22244082,0.017140388,-0.23733258,-0.40106964,-0.22870196,0.2138738,-0.49732968,-0.41319638,0.24672009,0.2813376,0.32897097,-0.370007,-0.29324573,0.35834196,0.32477233,0.38043955,0.112405494,0.051491864,0.44451022,-0.1420117,-0.3081462,0.3062,-0.3505214,-0.1686843,0.430521,0.11784391,0.20706701,-0.28093496,0.11417481,0.43518502,-0.32574666,0.081235304,0.21215975,-0.3700304,0.3832735,-0.13114318,-0.07228373,-0.040463172,-0.2017075,-0.3574399,0.22359571,0.08212569,-0.27720615,-0.34893927,0.33888647,0.2637377,0.12177488,-0.22555043,-0.16308653,-0.17426571,-0.082194276,-0.33628583,0.2079329,0.07562966,0.092995204,0.105283394,-0.14686556,0.05196694,0.14601049,-0.36509544,-0.50716466,0.23276152,0.16380355,-0.1786604,0.35738063,-0.26636454,0.27970383,0.2078523,1.3124875,-0.8240502,-1.500801,0.05890155,0.67510414,-0.8669028,-2.0338705,-1.7221116,-0.6775359,-3.0581942,-2.5507662,1.1926845,1.2252755,-0.015964657,0.8696697,-1.0976629,0.16570842,-0.6421978,-0.6707722,-1.2317774,-0.73751915,0.47443047,-3.3862534,-0.3567906,0.26279286,1.793922,-0.86478126,-0.4195752,1.0731361,-0.6452042,0.118286796,0.82559335,1.7770264,0.75566655,-2.0357468,3.201089,0.763173,0.4232376,-1.2545497,1.572312,-2.1664414,0.48752353,-1.5216209,0.092359126,-0.6812157,0.2720219,0.3136536,-2.486315,0.07070781,1.7894254,1.2822161,0.7876111,-0.40811032,2.2896523,-0.28626263,-0.7900807,1.6703621,-2.4821398,-1.8634738,-1.0851218,0.8621867,2.2400377,-1.3172396,0.35730225,1.7703876,-0.3078007,-0.51933384,-0.46412507,-1.6878424,2.3508737,0.16110295,1.6409602,-0.115454465,2.884625,-1.7782052,0.865975,3.4235153,-0.80889523,-0.53230083,1.061619,2.2125664,-0.74798906,-0.5407642,0.36628243,-0.013652831,1.9712061,-0.7073409,-0.52872,0.15384325,0.19413263,-1.4428713,-3.2293212,0.5240177,1.8535019,1.0917563,-0.79404825,0.4525568,0.6814332,-1.6644834,-1.1871042,0.42238393,-0.749749,0.93272465,-1.7052841,2.4274676
target_dataset:Panc 08.13,-0.64370155,-0.119723886,0.0705044,0.6129046,0.0076540858,0.37216341,0.27405536,0.31874773,0.4307162,0.29947555,-0.40437946,0.5378748,0.25848985,-0.32244116,-0.0030369312,-0.5976642,-0.013990179,-0.43952626,0.0830193,0.22755995,-0.4733321,0.033364497,0.13460734,0.27910385,0.075180486,-0.26161054,0.19446442,0.3013788,0.03149554,-0.46594158,-0.025154084,-0.12832817,-0.051844113,0.093778014,-0.021549538,0.22324827,-0.35703498,0.07183487,0.2840215,-0.51433,-0.43429494,-0.42643416,0.2765119,-0.23681353,-0.2720169,0.38351756,0.32283303,0.46648976,-0.37082386,-0.4544295,0.32163325,0.21768934,0.42165488,-0.017321676,0.26118168,0.39333084,-0.12196915,-0.07609524,0.30842525,-0.23996802,-0.41483912,0.5694644,0.13224809,0.08625946,-0.14741609,0.22467183,0.46036306,-0.35126138,0.12925176,0.14712054,-0.44733715,0.58036685,-0.06868996,-0.05805763,0.07876202,-0.45494276,-0.4048978,0.46223867,0.22424844,-0.2709468,-0.49800915,0.21581376,0.23372209,0.031152233,-0.07643439,-0.12555224,-0.108044505,0.07604635,-0.41341335,0.2270458,0.21678957,-0.09423676,-0.048175603,-0.4016264,0.22935657,-0.06598756,-0.09723839,-0.50634027,0.22720255,0.04329328,-0.08975132,0.5910697,-0.07719784,0.076953664,0.26889336,0.041745186,0.47703683,-0.18118024,0.8130538,-0.08753601,-1.0164043,0.1305289,-1.0454968,-0.44513273,0.641872,0.28479117,-0.7268623,-0.40022156,0.3905265,1.4104203,-0.24753761,-0.036365986,-0.33768377,-0.98863524,0.14315438,0.007462293,0.19920006,0.408584,-0.1325479,-0.106592536,-0.29959813,-0.24991119,-0.4309453,0.029511437,0.2138106,-0.73029906,0.25137264,0.7776629,0.49821258,-0.88570815,-0.29645425,-0.5812904,0.84691685,0.7808241,0.5281535,0.44033593,0.0824047,0.79841226,-0.14834994,0.7041724,-0.23494264,-1.124907,-0.6863641,0.8350303,-0.43170044,-0.41425502,0.12059885,-0.8643183,0.77741027,0.879615,-0.596299,0.93167293,-1.1635802,-0.4245742,0.40006688,0.60116136,0.066190034,-0.1545197,-0.6172589,0.008009955,0.97633815,1.0010103,0.5062974,-0.21660993,-0.19611827,-0.42197514,0.19822773,-1.041817,-0.010992587,0.34964585,-0.6453575,0.5251691,-0.041499197,0.84575117,0.14009076,0.26247272,0.4366896,-0.24128711,0.0027504563,-0.29515958,0.60951775,0.43623114,0.5901201,-0.6393634,0.6773859,0.41965902,0.62996113,0.9937119,-0.57852566,1.0139687,-0.04732009,-0.7678027,0.36833483,-0.6882094,-0.5997069,-0.4006025,-0.5923078,-0.08651167,-0.21677366,-0.67489624
target_dataset:TE-15,-0.43347883,-0.15546584,0.14984533,0.42205635,0.07296363,0.43852746,0.083662555,0.28118548,0.37350255,0.3583982,-0.26968673,0.42320687,0.27737325,-0.19872126,-0.19626519,-0.38348293,0.1228828,-0.3480705,0.17233777,0.14010489,-0.3630762,0.12747122,-0.0004392207,0.18370612,0.22696535,-0.43631664,0.43599394,0.38355413,0.14895143,-0.41150525,-0.14605199,-0.08727785,-0.14357084,0.26864854,0.15367527,0.32394505,-0.2001265,0.18997976,0.13630532,-0.35720572,-0.4490229,-0.22672836,0.29164463,-0.39394775,-0.42757195,0.26911694,0.23540017,0.37695274,-0.34355673,-0.33110368,0.27160445,0.39071736,0.28468952,0.0743451,0.14837559,0.42131063,-0.26828495,-0.21416953,0.27385706,-0.28122845,-0.21761055,0.3303687,0.18576756,0.17961995,-0.19978544,-0.0014401111,0.44602945,-0.27599582,-0.010199381,0.22724031,-0.30165562,0.39029413,-0.21953617,-0.09224435,-0.1098255,-0.2901084,-0.4690383,0.26407072,0.107310615,-0.39946395,-0.2716854,0.450418,0.16763459,0.17843767,-0.24986547,-0.18459463,-0.108148426,-0.094183,-0.30466878,0.088261075,0.032393023,-0.031767912,0.09733662,-0.18151361,0.08644025,0.16402045,-0.24745125,-0.4612823,0.21876074,0.06612941,-0.21996428,0.45098072,-0.17966065,0.29277685,0.24328199,2.5443628,0.20829725,-0.8854495,1.1810699,-1.1224085,-0.20701571,-1.2076706,-2.7480497,0.9068441,-1.410487,-1.8076081,-0.19580385,0.54382575,1.0178207,1.1473583,-1.1264708,-0.066397,0.2698255,-1.913569,-0.91939586,-1.4300984,0.043086033,-2.3537288,-0.40088028,-0.7458054,0.066904426,0.29907802,0.19264585,-0.9332275,-0.50510174,1.3043072,0.29691923,0.8691118,-0.0054623187,-1.7016695,2.4743493,-0.64207345,1.1798128,-0.4742,0.5853319,-1.3442115,0.40251252,-0.5741592,2.1963944,0.6048978,1.7404169,-0.018808201,-2.346957,1.5090896,1.5896506,1.8476318,-0.5856554,-0.5321407,1.8222027,-0.9138223,-0.40100715,2.6673427,-1.7375067,-1.3015854,-0.15736538,0.28037092,0.4987813,0.1200937,2.1299765,0.8367213,0.68120635,0.7140422,-0.47179714,-1.3539509,1.208772,-0.80594385,1.2677853,-0.9160317,1.736782,-0.56894284,-0.8473538,2.5279963,-2.077108,0.5132606,-0.39860332,1.7685387,0.21301436,0.4284725,1.7858834,1.6730323,0.7604321,-0.38970637,0.40528837,0.30907473,1.0083842,-1.1212423,-2.0523386,0.4855684,1.262403,0.77422214,-0.07101793,0.9121232,0.8811226,-1.7130222,-0.9365572,0.5104376,-0.71519154,0.63313574,-0.5371425,1.0367572
target_dataset:AMO1,-0.7004436,-0.18086094,-0.08634867,0.59839225,0.07036382,0.3538341,0.35484606,0.35431957,0.41672206,0.34886524,-0.46925867,0.563938,0.15031764,-0.4764799,0.16271469,-0.8519194,-0.13474517,-0.43448132,0.02727148,0.28532827,-0.4798475,-0.18396609,0.29036745,0.1594552,-0.09695293,-0.2305907,0.1029073,0.20744528,-0.1593066,-0.46113276,0.19560184,-0.12831903,-0.1384246,-0.008047074,-0.04821159,0.14209025,-0.4907297,0.079986215,0.24566768,-0.48117504,-0.35835108,-0.48580313,0.18848586,-0.32966748,-0.23563299,0.3901998,0.36842567,0.48610297,-0.46621194,-0.4879128,0.41968203,0.036992997,0.58173037,-0.022595763,0.17574383,0.44072354,0.046967,-0.17246367,0.34881982,-0.2908162,-0.49945813,0.82575846,0.0031243116,0.055011377,-0.18473372,0.47646067,0.47504246,-0.4705256,0.262013,0.0382891,-0.5475493,0.69233286,0.123139575,-0.046370897,0.19315347,-0.4287393,-0.21222267,0.5293081,0.27128822,-0.026472628,-0.7400924,-0.06909859,0.35779777,-0.15087529,-0.00020940602,-0.022440359,-0.18282801,0.1968196,-0.5290269,0.39507556,0.35551268,0.016192686,-0.11198358,-0.4882662,0.20517817,-0.24754912,-0.148218,-0.6145825,0.23860896,0.15850034,0.04417707,0.5700857,-0.14487824,-0.03095597,0.19545613,0.38202372,-0.3860436,0.10265451,0.2903614,0.27948296,-0.3677145,0.13044827,-0.25771222,-0.034822777,-0.108339764,-0.40535635,-0.43857804,-0.30383107,0.1965277,0.24367419,-0.3775106,-0.19748798,-0.015014091,-0.40379184,0.26772732,0.37949517,0.09477174,-0.3154899,0.115028456,0.110295355,0.33832982,-0.23431763,-0.3851639,0.19034187,0.040946595,-0.122620754,-0.19441499,-0.18682143,0.36988905,-0.046980664,0.3339243,0.36949927,0.053119656,0.12295593,-0.021447113,0.30505887,-0.38733456,0.17417718,-0.0934107,0.21308868,-0.007511428,-0.19331598,-0.059864737,0.23840114,-0.29044268,-0.28105727,-0.09673984,-0.15657686,0.19861943,0.26653874,-0.02615905,0.4225804,-0.20454998,-0.26634958,-0.21663752,-0.30054513,-0.3400558,-0.42496115,-0.40633535,0.13117607,0.32099706,0.44196337,0.38609508,-0.021061428,0.0915491,-0.25423327,0.1802125,-0.4366317,0.19716442,0.069994986,0.16106322,0.1281217,-0.19775277,0.37405142,0.21651797,0.3085602,0.070478104,0.25892276,0.30616453,0.21329218,0.3891392,-0.085937314,0.34139693,0.088212304,0.26453704,0.4500149,0.10099313,-0.1580394,-0.02164999,0.14780596,0.10316116,-0.12826191,0.35766196,0.24215046,-0.26413983,-0.031875663,-0.030694881,-0.24776407,0.07096234,-0.18879265
target_dataset:Hs 746.T,-1.1682409,-0.016834006,-0.058263436,1.0632756,-0.22842804,0.22295658,0.80475086,0.47981226,0.6785022,0.07337117,-0.8000699,0.74143654,0.09934582,-0.7793702,0.55081797,-1.1245291,-0.31443834,-0.5837674,-0.24007615,0.5877682,-0.7560737,-0.100416705,0.622417,0.6449194,-0.21761002,0.27785072,-0.38369313,0.11361116,-0.2365082,-0.6810056,0.2225727,-0.21555227,0.29861692,-0.41312906,-0.505904,-0.029586166,-0.9283701,-0.3201274,0.618504,-0.8706933,-0.42951733,-1.068482,0.2146214,0.31765434,0.28996617,0.75236535,0.6844834,0.6310976,-0.31392723,-0.7462529,0.52146083,-0.19793394,0.83327043,-0.25507265,0.64121616,0.23061535,0.39212623,0.43933472,0.435906,-0.1491821,-0.83670306,1.1531723,0.05127807,-0.1232772,-0.08120817,0.81322193,0.44849953,-0.49027848,0.607072,0.06266889,-0.9652469,1.025957,0.2962879,0.104594015,0.7326476,-0.91487944,-0.31640878,0.9564158,0.49329418,-0.028930515,-1.0012456,-0.31087673,0.45814437,-0.2530266,0.48412317,-0.09110624,-0.10974709,0.4761438,-0.6411167,0.69474864,0.7174998,-0.25876096,-0.4371213,-0.94963986,0.75342315,-0.5654768,0.28328818,-0.5430943,0.272044,-0.055396043,0.20420875,0.9254577,0.24671015,-0.5381582,0.4526834,0.3685845,-0.34375983,0.08864217,0.30749565,0.2553043,-0.4061233,0.13721155,-0.29209578,-0.07384047,-0.06955948,-0.35932872,-0.45491773,-0.30261114,0.19178142,0.30546457,-0.34719026,-0.1811201,-0.05411703,-0.42552337,0.2700012,0.35735112,0.09830782,-0.27452183,0.08663676,0.108855285,0.29342526,-0.23385836,-0.3790206,0.19062817,0.03201468,-0.14648603,-0.14940749,-0.134141,0.38757783,-0.10121867,0.28764427,0.3230217,0.09019145,0.15575388,0.028501129,0.3045886,-0.34750807,0.21098898,-0.11432397,0.24069113,-0.045776047,-0.24584645,-0.10341664,0.27484876,-0.288291,-0.30996537,-0.06568991,-0.20221253,0.22069654,0.31039837,-0.06972396,0.44432813,-0.25766334,-0.27245423,-0.16655383,-0.25096175,-0.29872754,-0.3997359,-0.43241733,0.13572569,0.35215503,0.46406868,0.38066205,-0.037199907,0.07759709,-0.24948417,0.15928522,-0.4577417,0.20138113,0.08371152,0.11779103,0.14978628,-0.20239866,0.39549017,0.22320758,0.30464235,0.07516705,0.22048363,0.3025017,0.16998257,0.42047933,-0.04007102,0.35836712,0.040761486,0.27876928,0.45410365,0.12798908,-0.09477002,-0.06924358,0.19883922,0.071729384,-0.15290104,0.3465914,0.19396533,-0.2740684,-0.059471134,-0.06387949,-0.24455684,0.039480373,-0.2164614
target_dataset:Reh,-0.6033157,-0.19128816,-0.10445741,0.64590454,0.23373902,0.33693364,0.07625751,0.090617836,0.1192787,0.5470862,-0.17214948,0.6845025,0.58557117,0.036207512,-0.21190348,-0.54907066,-0.12333883,-0.64820516,0.30476266,-0.11255476,-0.3774593,-0.17544915,-0.2910697,-0.07694201,-0.12581752,-0.56958115,0.15896294,0.27964595,0.0408122,-0.20094061,0.09835459,-0.19456604,-0.42336056,0.34797135,0.09852802,0.24747124,0.10589939,0.36001676,0.34242433,-0.5890095,-0.34623516,0.028065607,0.3135494,-0.6472033,-0.6977247,0.13337152,-0.08718604,0.5800843,-0.72978806,-0.48085958,0.091456294,0.21243855,0.22780699,0.050040923,0.020745486,0.617744,-0.5591837,-0.54527724,0.20837854,-0.22164972,-0.5752408,0.5958104,0.036614284,0.07680092,-0.03181255,0.12766746,0.579334,-0.4706843,-0.20729175,-0.12144433,-0.06862338,0.6036156,-0.121989824,-0.2451582,-0.42996624,-0.3309814,-0.23364183,0.40547916,0.21854913,-0.06473374,-0.6342542,0.09070116,0.052440323,-0.11244981,-0.42652792,0.16944015,-0.14444202,0.0685769,-0.5442448,-0.07766525,0.07083672,-0.067816556,0.0149015635,-0.38653785,-0.24973167,-0.19034705,-0.17244256,-0.6421563,0.20683216,0.11444181,-0.041952297,0.5868368,-0.23293272,0.35330316,0.0077682137,0.38202372,-0.3860436,0.10265451,0.2903614,0.27948296,-0.3677145,0.13044827,-0.25771222,-0.034822777,-0.108339764,-0.40535635,-0.43857804,-0.30383107,0.1965277,0.24367419,-0.3775106,-0.19748798,-0.015014091,-0.40379184,0.26772732,0.37949517,0.09477174,-0.3154899,0.115028456,0.110295355,0.33832982,-0.23431763,-0.3851639,0.19034187,0.040946595,-0.122620754,-0.19441499,-0.18682143,0.36988905,-0.046980664,0.3339243,0.36949927,0.053119656,0.12295593,-0.021447113,0.30505887,-0.38733456,0.17417718,-0.0934107,0.21308868,-0.007511428,-0.19331598,-0.059864737,0.23840114,-0.29044268,-0.28105727,-0.09673984,-0.15657686,0.19861943,0.26653874,-0.02615905,0.4225804,-0.20454998,-0.26634958,-0.21663752,-0.30054513,-0.3400558,-0.42496115,-0.40633535,0.13117607,0.32099706,0.44196337,0.38609508,-0.021061428,0.0915491,-0.25423327,0.1802125,-0.4366317,0.19716442,0.069994986,0.16106322,0.1281217,-0.19775277,0.37405142,0.21651797,0.3085602,0.070478104,0.25892276,0.30616453,0.21329218,0.3891392,-0.085937314,0.34139693,0.088212304,0.26453704,0.4500149,0.10099313,-0.1580394,-0.02164999,0.14780596,0.10316116,-0.12826191,0.35766196,0.24215046,-0.26413983,-0.031875663,-0.030694881,-0.24776407,0.07096234,-0.18879265
target_dataset:TE-4,-0.35143116,-0.105740406,-0.5013492,0.6598072,0.35884133,0.5207959,0.3649451,0.64761055,-0.350479,0.31620342,-0.59100485,0.58931756,0.37369156,-0.19086748,-0.04237023,-1.5513191,-0.37799788,-0.6679999,-0.17000476,0.36602002,-0.42470518,-0.69960225,0.36069557,-0.50747514,-0.34908634,-0.8921131,-0.17222187,-0.23081222,-0.5663607,-0.6092067,1.3376904,0.17848083,-1.1799312,-0.36341736,0.2905531,-0.30164933,-0.52960336,0.7381376,0.15895769,-0.87097204,-0.4254521,-0.45327985,0.29064873,-0.8478398,-0.84797674,0.48095036,0.0938101,0.67110753,-1.2509367,-0.120317385,0.6555152,-0.7912489,0.32811233,-0.18843676,-0.31233513,0.7736839,0.4078518,-1.2949777,0.7711801,-0.18565866,-1.1476837,1.8012629,-0.78920364,-0.39562815,-0.20493174,1.1701127,1.0706524,-0.7787101,-0.07878573,-0.39416957,-0.7968583,0.9720346,0.6692317,-0.28661427,-0.012676962,-0.28635126,0.7948856,0.5428022,0.49329942,0.77508074,-1.7369492,-1.1645768,0.72719276,-0.7636188,-0.20800936,0.16120997,-0.80669487,0.073892266,-0.98857456,0.15881729,0.19680549,-0.05406312,-0.018043503,-0.4226812,-0.5909283,-0.41506323,-0.45794252,-0.68856806,-0.049180135,0.116448656,0.46637243,1.0292466,-0.64017665,-0.3171182,-0.49084756,0.45894814,-0.607043,-0.38833413,0.10679501,0.61063445,-0.62537515,-0.56410986,-0.566376,-0.41819024,-1.0822403,-1.0408555,0.17516485,0.17677966,0.019927457,0.39354756,-0.63601255,-0.0615602,-0.2655819,-0.36211637,-0.19428807,0.14637938,0.22504319,-1.2281256,0.049679868,0.23935406,0.96821606,-0.52802986,-0.49490783,0.6662001,-0.107775144,-0.2502352,0.078624204,0.5026407,0.53869885,-0.62062806,1.204443,0.6484073,0.05573001,-0.2745824,0.5041547,-0.45595953,-0.1908761,-0.40597236,-0.284473,-0.13591059,-0.09843996,-0.05671622,-0.71637744,0.041166723,0.2734647,0.0998421,0.25441444,-0.21751797,0.8625501,0.2248362,-0.26439026,0.66229266,-0.94330984,-0.77192223,-0.5653456,0.07013652,0.5614233,-0.8565246,-0.39889973,0.6541822,0.047757834,0.063317806,0.1648259,-0.5284995,0.8008593,-0.016713604,0.6291994,-0.27717698,1.0293317,-0.5650093,0.5797545,1.1253065,-0.17950788,0.029142648,0.6379449,0.89351636,-0.23553884,-0.06725225,0.09990357,-0.06407109,0.94630694,-0.32812986,-0.027639627,0.05546471,0.13619877,-0.07233971,-0.9111465,0.10592206,0.60083956,0.40634277,-0.21771762,-0.090189755,0.44006884,-0.31392595,-0.5714238,0.09169437,-0.2626059,0.14504643,-0.5216863,0.6745091
target_dataset:OVKATE,-1.0862439,-0.397245,-0.33134136,0.91362697,0.13425317,0.19874698,0.6223792,0.0904437,0.35782343,0.47571006,-0.3292217,0.29037035,0.24731669,-1.3464303,0.7708777,-1.0999246,-0.64839554,-0.5823914,-0.73929495,0.9971992,-0.19085827,-0.04846339,0.6682268,0.32494822,-0.42613357,0.12822911,-0.49349514,0.100437045,0.025468081,-0.19165969,0.5243615,-0.49098375,-0.25373575,-0.09156141,-0.7217309,-0.065253705,-1.2949576,-0.08923724,0.42922962,-0.8055229,-0.2538221,-0.60804874,-0.15800104,0.4064242,0.70052654,0.5618162,0.49010018,0.39964506,-0.7991278,-0.778101,0.395719,-0.3054647,1.0844857,0.04414748,0.74339247,0.13520434,0.32379022,0.17985275,0.58744836,-0.30582938,-0.95339125,1.6963544,0.16526437,0.19826894,-0.5447119,1.09875,0.44563636,-0.67872995,0.9307463,0.093351215,-1.4344174,0.9158795,-0.010468617,0.26927018,0.7730452,-1.0412407,-0.08947444,0.7275543,0.09824592,0.48169976,-1.3704354,-0.717952,0.46482533,-0.023716494,0.585565,0.1440838,-0.59083194,0.18143389,-1.0735674,1.1595691,0.73255235,-0.11190139,-0.69976807,-1.1186028,0.4410481,-0.4438831,-0.19381389,-0.21591914,0.66193324,-0.22736168,0.23894297,0.63487893,0.42175773,-0.20455378,0.80007017,0.38202372,-0.3860436,0.10265451,0.2903614,0.27948296,-0.3677145,0.13044827,-0.25771222,-0.034822777,-0.108339764,-0.40535635,-0.43857804,-0.30383107,0.1965277,0.24367419,-0.3775106,-0.19748798,-0.015014091,-0.40379184,0.26772732,0.37949517,0.09477174,-0.3154899,0.115028456,0.110295355,0.33832982,-0.23431763,-0.3851639,0.19034187,0.040946595,-0.122620754,-0.19441499,-0.18682143,0.36988905,-0.046980664,0.3339243,0.36949927,0.053119656,0.12295593,-0.021447113,0.30505887,-0.38733456,0.17417718,-0.0934107,0.21308868,-0.007511428,-0.19331598,-0.059864737,0.23840114,-0.29044268,-0.28105727,-0.09673984,-0.15657686,0.19861943,0.26653874,-0.02615905,0.4225804,-0.20454998,-0.26634958,-0.21663752,-0.30054513,-0.3400558,-0.42496115,-0.40633535,0.13117607,0.32099706,0.44196337,0.38609508,-0.021061428,0.0915491,-0.25423327,0.1802125,-0.4366317,0.19716442,0.069994986,0.16106322,0.1281217,-0.19775277,0.37405142,0.21651797,0.3085602,0.070478104,0.25892276,0.30616453,0.21329218,0.3891392,-0.085937314,0.34139693,0.088212304,0.26453704,0.4500149,0.10099313,-0.1580394,-0.02164999,0.14780596,0.10316116,-0.12826191,0.35766196,0.24215046,-0.26413983,-0.031875663,-0.030694881,-0.24776407,0.07096234,-0.18879265
target_dataset:NCI-H2171,-0.6436496,-0.13341512,0.0014528632,0.6386352,0.08065791,0.35582834,0.21847719,0.2515236,0.32586944,0.37842527,-0.34484702,0.6202452,0.37031204,-0.17445949,-0.074670136,-0.6051487,-0.0549514,-0.52330226,0.18308565,0.0858099,-0.46568355,-0.06745352,-0.015990956,0.1515361,-0.010558337,-0.3650018,0.1700727,0.28415835,0.0065039992,-0.3868395,0.028648034,-0.14349265,-0.17322771,0.16426656,0.025546208,0.22485012,-0.17750888,0.16885428,0.31801414,-0.5499114,-0.40238732,-0.28290343,0.30060256,-0.39894176,-0.44557887,0.3002453,0.17958827,0.52515906,-0.495516,-0.47026354,0.24676327,0.20165294,0.35188657,-0.0082881525,0.16277282,0.48606554,-0.2707408,-0.24672246,0.26726612,-0.22783548,-0.4849118,0.5822553,0.07978994,0.06291361,-0.08308755,0.20029677,0.5078987,-0.39993414,-0.00040722545,0.03189613,-0.2931787,0.60893786,-0.05734101,-0.13527182,-0.10427158,-0.40634444,-0.3334957,0.4624728,0.24690983,-0.19247109,-0.55931574,0.15729684,0.17429362,-0.051977456,-0.20405765,-0.012903571,-0.10608633,0.10061012,-0.4569367,0.10582575,0.17620854,-0.085583024,-0.022318535,-0.40277296,0.062166736,-0.14020917,-0.10298632,-0.5818604,0.20346712,0.084930494,-0.05889927,0.60616314,-0.14534254,0.15346234,0.14922558,0.4446032,-0.39963523,0.12245745,0.27136502,0.25233528,-0.39670163,0.10499809,-0.30872893,-0.06323704,-0.15627147,-0.4031608,-0.41466504,-0.27697298,0.16788284,0.21770735,-0.4240055,-0.16418573,-0.016762193,-0.43396956,0.24640454,0.32107902,0.04370708,-0.34365535,0.14626059,0.082063876,0.36750117,-0.18594667,-0.3737942,0.18555573,0.031906888,-0.085332304,-0.23361176,-0.14440645,0.3466221,-0.0665408,0.3970914,0.41313893,0.011938639,0.16070704,-0.0066324063,0.2373351,-0.41682732,0.12008895,-0.062805764,0.27196133,-0.013634123,-0.2011126,-0.095232464,0.2886059,-0.23045495,-0.24795686,-0.13926515,-0.16243461,0.23787685,0.27857566,-0.02316449,0.47115546,-0.24065068,-0.28423932,-0.19426364,-0.3558667,-0.28969288,-0.40963396,-0.34665728,0.14537391,0.3047685,0.43679875,0.32628265,-0.08787221,0.08426171,-0.20393406,0.14713821,-0.41260874,0.252831,0.050492235,0.20647219,0.16641481,-0.26297998,0.37793046,0.2599066,0.3691226,0.050168887,0.26734412,0.33835527,0.21713,0.42424065,-0.11573857,0.31323949,0.064028814,0.22051471,0.46936733,0.052798174,-0.096219465,0.048791636,0.07766191,0.043745074,-0.118817605,0.36011928,0.18247774,-0.27427593,-0.004702244,-0.074270815,-0.19846337,0.061968606,-0.15291768
target_dataset:ONS-76,0.31538582,0.054316,0.19586024,0.41050324,0.14773813,0.81661177,0.023074683,0.7483529,-0.45949548,-0.036416233,-0.3074155,-0.2032398,0.5556661,-0.19905728,-0.6156441,-0.61591065,0.14954373,-0.36611104,-0.6678775,0.9356915,-0.03146863,0.521761,0.31645125,-0.020252347,0.6781594,-1.1580341,0.32851768,0.06787914,0.37613243,-0.79469955,0.8320917,0.32592317,-1.1952353,-0.14313605,0.42902,-0.14425454,-0.83533096,0.8517698,-0.09317261,-0.919027,-0.871264,-0.44011843,0.4576704,-0.084977806,-0.49785876,0.6979791,0.22194518,0.23657584,-0.9314861,0.40014958,0.60134274,-0.31410602,-0.19518867,-0.081070215,0.18680269,0.31076106,0.40133294,-0.98405933,1.0732979,-0.06688781,-0.7255484,1.2502189,-0.34198198,-0.17916454,-0.61693853,0.52982545,1.1218925,-0.24010158,-0.22496474,0.44208074,-1.3157378,0.3001173,-0.18385328,-0.072113395,0.0659514,-0.46668696,0.2640655,-0.021482348,0.021892674,-0.05046889,-0.9642166,-0.285199,0.6169383,0.29548365,-0.17394999,-0.6355758,-1.08499,-0.9267037,-0.66929674,-0.050841816,-0.46559888,-0.4971932,0.19115928,0.10171425,-0.45328236,0.87627876,-0.7450768,0.28786165,0.025296435,-0.67097217,-0.10936863,1.0619018,-0.31784475,-0.01755023,0.12941289,0.39052474,-0.38788995,0.105344616,0.28778085,0.27579513,-0.37165222,0.12699102,-0.2646425,-0.038682677,-0.11485098,-0.4050581,-0.43532962,-0.30018258,0.19263647,0.24014676,-0.38382664,-0.19296408,-0.015251559,-0.4078913,0.26483074,0.3715597,0.08783493,-0.319316,0.119271144,0.10646029,0.34229258,-0.22774674,-0.3836194,0.18969171,0.03971861,-0.11755535,-0.19973962,-0.18105963,0.3667284,-0.049637787,0.34250516,0.37542742,0.047525473,0.12808418,-0.019434627,0.295859,-0.39134097,0.16682965,-0.08925321,0.22108616,-0.008343157,-0.1943751,-0.06466922,0.24522114,-0.2822937,-0.27656078,-0.102516636,-0.1573726,0.2039523,0.26817387,-0.025752258,0.429179,-0.20945404,-0.26877978,-0.21359818,-0.30806023,-0.3332143,-0.42287904,-0.39822847,0.13310476,0.31879252,0.4412618,0.37796992,-0.030137252,0.090559155,-0.24740043,0.17571956,-0.43336836,0.20472637,0.06734566,0.16723175,0.13332358,-0.20661348,0.37457836,0.22241203,0.3167872,0.06771922,0.26006675,0.31053746,0.21381353,0.39390752,-0.08998563,0.33757192,0.08492713,0.25855687,0.4526438,0.094446145,-0.14964156,-0.012080938,0.13827732,0.09508986,-0.12697896,0.35799578,0.2340443,-0.26551676,-0.028184325,-0.0366144,-0.24106687,0.0697406,-0.18391925
target_dataset:Hs 695T,-1.2786698,-0.10489192,-0.50072217,1.2403246,0.121577516,0.11297426,0.6688831,0.20769474,0.2102275,0.44456866,-0.6162285,1.175863,0.5370051,-0.24232113,0.3955029,-1.3941886,-0.6263475,-0.99689984,0.15128109,0.006166458,-0.7645868,-0.7313524,0.07851698,0.02032739,-0.7719361,-0.11360505,-0.63897264,-0.053284198,-0.5120856,-0.33533722,0.64998484,-0.2996661,-0.27833155,-0.21657395,-0.3696488,-0.10896155,-0.24608016,0.086855724,0.8030569,-1.0691326,-0.23075187,-0.5199038,0.26454264,-0.42633975,-0.42625496,0.41624093,0.0884292,0.94399273,-0.9541118,-0.8837897,0.2578058,-0.44609335,0.6628121,-0.24981664,0.1777101,0.6747525,-0.13115162,-0.352586,0.2850602,-0.110613436,-1.2809346,1.4573162,-0.28865805,-0.2830845,0.20875081,0.93975073,0.6804247,-0.814512,0.14625551,-0.5614795,-0.3741748,1.2946948,0.5219983,-0.22938055,0.033586733,-0.7350215,0.1537351,1.0702877,0.6682656,0.52897847,-1.5140638,-0.8406255,0.28718108,-0.799974,0.009492755,0.51013505,-0.14743304,0.7249315,-0.95147836,0.2943479,0.6843144,-0.17255822,-0.41065833,-1.0877614,0.024041764,-1.1009575,0.27890933,-0.9725492,0.17351961,0.19898167,0.47567606,1.0315993,-0.07085452,-0.33249757,-0.131868,1.2111391,0.122406244,-0.27657473,0.9157638,-0.4101649,-0.42396778,-0.44943666,-1.6077614,0.48235232,-0.38330972,-0.83573794,-0.44188726,-0.09075776,0.75461453,0.8316561,-1.0120559,-0.17050791,0.35082954,-1.3449795,-0.33627558,-0.48320857,0.017320134,-0.91671383,0.116709344,-0.49478745,0.18329401,0.088152826,-0.24294254,-0.49966055,0.11294769,0.27579764,-0.28337735,0.43612817,0.036848873,-0.7453758,1.2073348,-0.29037166,0.69980353,0.19606307,0.030062689,-0.23806056,-0.23399304,-0.03853005,1.1452206,0.6264769,1.0006309,-0.3440973,-0.97039413,0.95259535,0.33171925,0.84837615,-0.6309856,-0.37567687,1.0913813,-0.18584436,-0.09917537,1.5806825,-0.99116844,-0.7155689,-0.18617223,-0.01745972,-0.20630018,-0.19636098,0.87506175,0.18717974,0.6874878,0.83710456,0.15342724,-0.5777692,0.34120864,-0.6479483,0.7986348,-0.90901196,0.54316473,-0.04894522,-0.4181932,1.1160752,-0.8632915,0.6514096,-0.17936279,0.9329013,0.42560166,0.42647654,0.74820113,0.945921,0.3111359,-0.3446723,0.37976623,0.07926057,0.7112827,-0.1619755,-0.56753695,0.43042892,0.6421451,0.3848269,0.25282797,0.020292416,0.7224952,-0.82235384,-0.7003386,0.23621449,-0.44532657,0.25316006,0.04155096,0.15394795
target_dataset:Panc 03.27,-0.43347883,-0.15546584,0.14984533,0.42205635,0.07296363,0.43852746,0.083662555,0.28118548,0.37350255,0.3583982,-0.26968673,0.42320687,0.27737325,-0.19872126,-0.19626519,-0.38348293,0.1228828,-0.3480705,0.17233777,0.14010489,-0.3630762,0.12747122,-0.0004392207,0.18370612,0.22696535,-0.43631664,0.43599394,0.38355413,0.14895143,-0.41150525,-0.14605199,-0.08727785,-0.14357084,0.26864854,0.15367527,0.32394505,-0.2001265,0.18997976,0.13630532,-0.35720572,-0.4490229,-0.22672836,0.29164463,-0.39394775,-0.42757195,0.26911694,0.23540017,0.37695274,-0.34355673,-0.33110368,0.27160445,0.39071736,0.28468952,0.0743451,0.14837559,0.42131063,-0.26828495,-0.21416953,0.27385706,-0.28122845,-0.21761055,0.3303687,0.18576756,0.17961995,-0.19978544,-0.0014401111,0.44602945,-0.27599582,-0.010199381,0.22724031,-0.30165562,0.39029413,-0.21953617,-0.09224435,-0.1098255,-0.2901084,-0.4690383,0.26407072,0.107310615,-0.39946395,-0.2716854,0.450418,0.16763459,0.17843767,-0.24986547,-0.18459463,-0.108148426,-0.094183,-0.30466878,0.088261075,0.032393023,-0.031767912,0.09733662,-0.18151361,0.08644025,0.16402045,-0.24745125,-0.4612823,0.21876074,0.06612941,-0.21996428,0.45098072,-0.17966065,0.29277685,0.24328199,0.70935655,-0.3285672,0.16000292,0.18557462,0.020245403,-0.7072581,0.031031825,-0.6442795,-0.44546396,-0.26152492,-0.18154037,-0.354137,-0.103873,-0.06880833,0.3290026,-0.4163219,0.09852123,-0.29089832,-0.60754615,0.19082469,-0.052829206,-0.1925411,-0.32477865,0.110517636,-0.0013144389,0.2963381,0.04355803,-0.2578561,0.22325438,-0.13772827,0.03579784,-0.13693902,0.27830592,0.3630106,-0.42302316,0.47159702,0.47414023,-0.07205169,0.44659764,0.3686474,-0.13813156,-0.32885897,0.00948216,-0.0989415,0.6549392,-0.32738853,-0.45054278,-0.48918715,0.6810776,0.119118154,-0.307522,-0.11562025,-0.40447134,0.4760066,0.5620714,-0.24576238,0.7570157,-0.638254,-0.3899404,0.18091637,-0.41489628,0.22522023,-0.19850953,-0.24450672,0.29621434,0.3200039,0.44822842,-0.0407767,-0.50392747,0.016749784,0.12941521,-0.19215554,-0.3178955,0.6254501,-0.009126246,0.2690778,0.4502846,-0.64938784,0.45100972,0.55782336,0.6444285,-0.110486396,0.09326097,0.53026325,-0.02246873,0.821154,0.002956383,0.25354677,-0.27714545,0.021138236,0.5979803,-0.096885875,0.45333713,0.12350042,-0.03249298,-0.483182,-0.12324259,0.2716704,-0.28567526,-0.32594925,-0.019300066,-0.42802185,0.028086677,-0.19415212,-0.07981207
target_dataset:NUGC-3,-1.4850935,-0.03984674,-0.3425339,1.3651242,-0.16507453,0.09347564,1.0055419,0.40242967,0.57247555,0.15636052,-0.8760694,0.98705304,0.22593161,-0.84729576,0.7967787,-1.5088073,-0.6425138,-0.8404316,-0.29664648,0.5714239,-0.8472738,-0.4297641,0.64520085,0.53933084,-0.63027495,0.3784282,-0.8120489,-0.056383163,-0.46108913,-0.5912819,0.5641879,-0.32974258,0.17778409,-0.5581831,-0.72907317,-0.19955927,-0.9729177,-0.3277193,0.8582431,-1.1418848,-0.32452548,-1.1194694,0.16544323,0.3059233,0.32435274,0.7821745,0.5953126,0.8281023,-0.61141366,-0.9641895,0.49517888,-0.5316812,1.0002772,-0.34617996,0.6590182,0.32332695,0.42447224,0.34690037,0.4537909,-0.09902844,-1.2645149,1.6466095,-0.12068495,-0.26719087,0.02977039,1.2033826,0.541813,-0.72098315,0.69291943,-0.24487735,-1.0339214,1.3634813,0.54605436,0.06465071,0.7783473,-1.0985012,-0.04857841,1.2414997,0.66663414,0.388637,-1.5233005,-0.85506105,0.49892378,-0.6081687,0.5859694,0.20989445,-0.17756182,0.7594682,-0.9408945,0.815602,0.9662593,-0.29816285,-0.6603708,-1.3178818,0.68337893,-1.043052,0.43389028,-0.70726633,0.29658258,-0.022622481,0.47697663,1.1188862,0.30516994,-0.7355478,0.33987308,2.1928155,-0.22073382,-0.98158354,0.71708,-0.57428706,-0.29629195,-1.3058012,-2.18844,0.41217226,-1.8761328,-1.9848218,0.17100242,0.73717296,0.5993835,0.89791036,-0.8886388,0.0011683255,-0.10314695,-1.3596292,-0.8569886,-1.1110855,0.16791165,-2.6211576,-0.4857059,-0.32189736,0.5038204,-0.04714082,0.08188453,-0.279845,-0.6874576,1.077467,0.55772644,0.90828526,0.29142603,-1.6768785,2.5340333,-0.11201799,0.82688004,-0.80291504,0.896833,-1.5316715,0.47573552,-0.81369185,1.4183929,0.15060467,1.1341667,0.17986444,-2.2746587,1.0061464,1.6317875,1.4525502,-0.054135405,-0.44493872,1.7073953,-0.7235681,-0.51639444,2.1827426,-1.7315254,-1.3593578,-0.36967543,0.3419799,0.9821526,-0.23488829,1.4538722,1.1524118,0.30230933,0.2476617,-0.5058067,-1.3616825,1.5296142,-0.44611734,1.1810049,-0.5370556,2.0938058,-0.8968439,-0.29566014,2.6018093,-1.7623627,0.13670461,0.060351416,1.7835128,-0.19544908,0.14239937,1.4891123,1.1307033,1.1592785,-0.36880463,0.17824551,0.31757647,0.6891732,-1.1226459,-2.337542,0.273368,1.2545539,0.8101007,-0.36966366,0.9209198,0.7164311,-1.4454479,-0.8604491,0.4378296,-0.6119575,0.5764189,-0.90210783,1.3862746
target_dataset:CL-11,-0.68814087,-0.18337637,-0.25889224,0.7453114,0.31094524,0.29080683,0.09215808,0.055660218,0.0055087805,0.6253977,-0.19420509,0.8999189,0.6925469,0.23433152,-0.23257725,-0.71540904,-0.22919609,-0.797175,0.46885517,-0.32954857,-0.4603921,-0.44172364,-0.43080148,-0.25590682,-0.3373223,-0.6530682,0.037292838,0.19796246,-0.12981127,-0.14810768,0.26148492,-0.19706503,-0.5550139,0.3349608,0.13925196,0.1970504,0.32858983,0.4541514,0.43866587,-0.678067,-0.28476363,0.12021227,0.35464004,-0.89868975,-0.9538709,0.060281068,-0.24299589,0.7258037,-0.9079529,-0.5457783,0.042232707,0.08670372,0.1898403,0.0044647753,-0.14399506,0.7803266,-0.67533326,-0.7766249,0.15307376,-0.19439945,-0.7515075,0.7133329,-0.11904657,-0.03084977,0.11737338,0.21273924,0.66116345,-0.5882883,-0.35422245,-0.36212844,0.1427859,0.7510356,0.04192303,-0.36779308,-0.6204377,-0.2751864,-0.06063497,0.5081614,0.3455416,0.123345315,-0.8363961,-0.121430695,0.025810003,-0.372011,-0.558192,0.36862153,-0.11576439,0.22901183,-0.63369775,-0.21438396,0.10786145,-0.045046557,0.022065103,-0.45884353,-0.4410447,-0.44527808,-0.10829082,-0.8467456,0.13331912,0.23528498,0.08563025,0.67047936,-0.35578248,0.3352425,-0.23472181,0.33668804,0.28809988,-0.2640292,1.0539539,0.0099805,-0.46084654,-0.19242115,-1.1607026,0.49616694,0.22394004,-0.5447671,-0.6045478,-0.4598868,0.9285559,1.0386742,-0.9516238,-0.39381012,0.4903138,-1.1492724,-0.17020732,0.082799196,0.3055796,-0.28070927,0.23561421,-0.36475962,0.16053069,-0.27568266,-0.550548,-0.35310805,0.5412201,-0.46154618,-0.3804035,0.29275256,0.11657986,-0.41867977,0.55748236,-0.51420736,0.88598204,0.32441786,-0.26767305,0.48392695,-0.35165784,0.41059887,0.7261841,0.36432728,0.929622,-0.52325445,-0.38610792,0.5287504,-0.45129678,0.53003633,-0.52440935,-0.33748537,0.87635916,0.016533762,-0.0093084145,1.0963556,-0.7628785,-0.5211754,-0.40132844,0.31199405,-0.69693136,-0.49220708,0.21586967,-0.16380726,0.8626104,1.0058613,0.76194346,-0.014482621,0.09483184,-0.94260097,1.0292099,-1.1855165,-0.21727422,0.20684627,-0.54538083,0.59431666,0.033596143,0.739936,-0.35627162,0.4116253,0.7407571,0.36574897,0.034506977,0.6827643,-0.08263418,-0.28594142,0.46617165,0.07161029,0.9258289,-0.022729367,0.17120706,0.29955685,0.21700339,0.7052705,0.79135996,-0.52235824,0.76095885,-0.42665693,-0.7198351,0.029939149,-0.22077891,-0.007087171,0.3126054,-0.29181665
target_dataset:SU-DHL-6,-0.43347883,-0.15546584,0.14984533,0.42205635,0.07296363,0.43852746,0.083662555,0.28118548,0.37350255,0.3583982,-0.26968673,0.42320687,0.27737325,-0.19872126,-0.19626519,-0.38348293,0.1228828,-0.3480705,0.17233777,0.14010489,-0.3630762,0.12747122,-0.0004392207,0.18370612,0.22696535,-0.43631664,0.43599394,0.38355413,0.14895143,-0.41150525,-0.14605199,-0.08727785,-0.14357084,0.26864854,0.15367527,0.32394505,-0.2001265,0.18997976,0.13630532,-0.35720572,-0.4490229,-0.22672836,0.29164463,-0.39394775,-0.42757195,0.26911694,0.23540017,0.37695274,-0.34355673,-0.33110368,0.27160445,0.39071736,0.28468952,0.0743451,0.14837559,0.42131063,-0.26828495,-0.21416953,0.27385706,-0.28122845,-0.21761055,0.3303687,0.18576756,0.17961995,-0.19978544,-0.0014401111,0.44602945,-0.27599582,-0.010199381,0.22724031,-0.30165562,0.39029413,-0.21953617,-0.09224435,-0.1098255,-0.2901084,-0.4690383,0.26407072,0.107310615,-0.39946395,-0.2716854,0.450418,0.16763459,0.17843767,-0.24986547,-0.18459463,-0.108148426,-0.094183,-0.30466878,0.088261075,0.032393023,-0.031767912,0.09733662,-0.18151361,0.08644025,0.16402045,-0.24745125,-0.4612823,0.21876074,0.06612941,-0.21996428,0.45098072,-0.17966065,0.29277685,0.24328199,0.12732655,-0.44864297,-0.33997315,0.035915345,0.62574154,-0.92036223,-0.33488536,-0.43663436,-0.88299245,-0.7062178,-0.5348021,0.05728227,0.11710775,-0.20093535,0.6495323,-0.26582605,0.0722011,-0.6498983,-0.26305872,0.0020464659,0.21619141,0.22889592,-0.71447456,-0.11381747,0.38234863,0.70034254,-0.57969594,-0.49541885,0.8666342,-0.17498615,-0.544533,0.37701935,0.724895,0.7421503,-0.79647917,0.61117005,0.53480864,0.097028695,0.0077770427,0.84066737,-0.30979982,0.008658946,-0.09092142,-0.79616475,0.004911363,-0.6924933,-0.42180592,-0.7500032,0.13214558,0.10831937,-0.44404176,0.59084284,-0.49013108,0.77098477,0.71152806,-0.5473191,0.49403465,-1.1054409,-0.6768267,-0.18382981,0.29529622,0.8292968,-0.7285774,-0.9477195,0.65139747,0.16594197,0.12172821,0.16865376,-0.50920844,0.57996297,0.17093799,0.25257036,-0.28368378,0.9515728,-0.41806084,0.46981022,0.9727528,-0.034433722,0.122790396,0.8347929,0.6995238,-0.30380318,-0.38553345,-0.06128809,-0.60758924,1.2018764,0.06236873,0.0679661,-0.31888825,0.071632475,0.18746218,-0.49443004,0.45151752,0.090273574,0.6410973,-0.5214213,-0.3399917,0.25189373,-0.37833002,-0.5179967,-0.17631069,-0.4128003,0.048890576,-0.72202647,0.3587532
target_dataset:SNU-449,-0.32810283,-0.40293756,-0.08093116,0.1830087,0.30190447,0.4636192,0.029392209,0.20981139,0.259892,0.57255864,-0.13390669,0.16141865,0.109815806,-0.63274586,0.029956669,-0.5907966,-0.04805711,-0.21640284,-0.08451381,0.39576042,-0.09111726,-0.04783316,0.24325344,-0.105302885,0.06247896,-0.5122232,0.4597056,0.31050175,0.05900497,-0.23760648,0.16956301,-0.14419092,-0.46626887,0.31919587,0.14183423,0.26470542,-0.5260445,0.31470248,-0.12498884,-0.13978863,-0.3025278,-0.08909321,0.021550745,-0.52238816,-0.23651856,0.17552659,0.25823238,0.21803822,-0.5616962,-0.2880765,0.3843308,0.22164614,0.55567586,0.23811819,0.030001655,0.42236665,-0.055131853,-0.45203125,0.38853052,-0.45384938,-0.19119936,0.7206296,0.10470414,0.33364105,-0.50278485,0.32359716,0.42623472,-0.43550798,0.28100953,0.20746167,-0.60594654,0.35629407,-0.16117424,0.0065531135,0.048213057,-0.19871679,-0.19004029,0.131149,-0.066706754,0.005185336,-0.557566,0.090602875,0.34496382,0.14990732,-0.15130645,-0.060803443,-0.39459682,-0.16277856,-0.5230243,0.47855973,0.13168399,0.23113403,0.0028298274,-0.20263861,-0.0665264,0.15606198,-0.60739505,-0.42659268,0.38356236,0.17118415,-0.1241752,0.1977725,-0.2561899,0.3662038,0.3113313,1.5541351,0.041493267,-0.7317696,0.9486987,-0.48363978,-0.16110831,-0.75657046,-1.7370412,0.6728074,-0.9108594,-1.4587739,-0.29259828,0.21514443,0.85518074,0.9954462,-0.6985119,-0.24536628,0.143882,-1.2677336,-0.500497,-0.5971631,0.3218141,-1.6971,-0.39189488,-0.31012288,0.11530581,-0.15008026,-0.065954536,-0.46766806,-0.30969667,0.64379215,0.36634338,0.42778602,0.25495085,-1.1563691,1.6102022,-0.47205156,1.0044909,-0.5216409,0.39985365,-0.60355663,0.31550577,-0.16426022,1.2707006,0.14243662,1.1808962,-0.01579611,-1.5334338,0.82415724,0.77986026,1.0513479,-0.16752258,-0.39040703,1.2058797,-0.5914571,-0.3300738,1.7384534,-1.1779374,-0.95619416,-0.33619538,0.40837696,0.1275267,-0.19704379,1.0175003,0.62181973,0.5958262,0.5883414,0.05598578,-0.6805831,0.9891905,-0.82489073,1.1358294,-0.8454529,1.101403,-0.36711514,-0.6659812,1.7159337,-1.1527202,0.39411235,-0.33608693,1.0949136,0.21226329,0.2820467,1.1198555,1.1335456,0.5613174,-0.18557838,0.4604443,0.34703308,0.951927,-0.7796468,-1.278591,0.020538956,0.60430986,0.94073653,0.21497658,0.53594875,0.70955205,-0.87487674,-0.7145399,0.22333208,-0.31992543,0.17133044,-0.38927698,0.6011081
target_dataset:SNU-C1,-0.73379445,-0.5790359,-0.97398806,0.34393522,0.65545017,0.30210537,0.4067347,0.3332771,0.021297038,0.87026376,-0.49824193,0.75310534,-0.12641534,-0.77576625,0.61827564,-1.9340551,-0.6937866,-0.49302816,0.08588841,0.14018968,-0.3572599,-1.4460009,0.57820886,-0.89221126,-1.0135348,-0.5340818,-0.13201174,-0.22300813,-1.0719693,-0.1787924,1.3297632,-0.112885594,-0.9973118,-0.15416461,0.14446181,-0.15319034,-0.5663728,0.502638,-0.059919134,-0.19482319,0.09753543,-0.20379868,-0.1966396,-1.4008363,-0.6543648,0.08284111,0.15589833,0.6164644,-1.2296994,-0.54635847,0.6923703,-0.73149633,1.0826532,0.086453855,-0.64881355,0.9456701,0.39410636,-1.2583982,0.419021,-0.5803518,-0.8626404,1.8999493,-0.73194563,-0.047278866,-0.29272872,1.4546577,0.6474371,-1.1175413,0.4736745,-0.70671165,-0.5222383,1.1088908,0.96669316,-0.2122649,0.119404145,0.03169802,0.88797444,0.63264245,0.42514014,1.2813697,-1.871564,-1.4081116,0.7836436,-1.1187694,-0.12285723,0.7128985,-0.5704573,0.6749294,-1.102555,0.81266093,0.75451934,0.6944163,-0.20210794,-0.66883886,-0.50006694,-1.0878274,-0.6179739,-1.3058037,0.23118718,0.8906901,0.65654683,0.32007504,-0.7911097,-0.1431717,-0.5073576,0.38417763,-0.38651142,0.1033361,0.28970757,0.27854857,-0.3687122,0.1295723,-0.25946814,-0.035800762,-0.10998952,-0.40528077,-0.437755,-0.30290666,0.19554178,0.24278045,-0.3791109,-0.19634175,-0.015074258,-0.40483052,0.2669934,0.37748456,0.09301416,-0.3164593,0.116103426,0.109323665,0.33933386,-0.23265277,-0.38477257,0.19017714,0.04063546,-0.12133733,-0.1957641,-0.18536156,0.36908823,-0.0476539,0.33609843,0.3710013,0.051702254,0.12425528,-0.020937208,0.3027279,-0.38834965,0.17231554,-0.092357315,0.215115,-0.0077221636,-0.19358434,-0.06108205,0.24012913,-0.28837797,-0.279918,-0.09820351,-0.15677847,0.19997062,0.26695302,-0.02605598,0.42425227,-0.20579253,-0.26696533,-0.21586744,-0.30244923,-0.33832237,-0.42443362,-0.40428132,0.13166474,0.3204385,0.4417856,0.3840364,-0.023360973,0.091298275,-0.25250202,0.17907412,-0.43580487,0.1990804,0.069323726,0.16262615,0.12943971,-0.19999781,0.37418494,0.21801135,0.3106447,0.06977908,0.2592126,0.3072725,0.21342428,0.39034736,-0.086963035,0.3404278,0.08737994,0.26302186,0.45068097,0.099334314,-0.15591164,-0.019225476,0.14539169,0.101116136,-0.12793684,0.35774654,0.2400966,-0.2644887,-0.030940387,-0.03219471,-0.2460672,0.07065278,-0.18755788
target_dataset:CAL-29,-0.6264509,-0.44398245,-0.1965653,0.6862791,0.4261742,0.2836669,-0.04361011,-0.3047094,-0.10551381,0.8040533,0.26260164,0.27897018,0.85653996,-0.44341266,-0.051496148,-0.33111352,-0.39008373,-0.7193363,-0.21444765,0.32110307,0.096845776,0.14387956,-0.32569867,-0.10039927,-0.1923144,-0.5845934,-0.026595443,0.33827308,0.49223262,0.21514603,0.16326608,-0.50476044,-0.7348106,0.65023816,-0.2474481,0.24305347,-0.24095708,0.44986966,0.33820096,-0.709511,-0.2793119,0.36611474,0.05483009,-0.23774496,-0.1612584,0.054928094,-0.23999268,0.38685796,-1.0682772,-0.57076883,-0.12160912,0.22541104,0.37637374,0.27244756,0.37783176,0.40393192,-0.7184205,-0.4950775,0.33945578,-0.26637238,-0.72775346,0.9654787,0.31019646,0.3667405,-0.40616846,0.242294,0.55666775,-0.53595495,0.07100707,0.027394518,-0.55341446,0.4898536,-0.5863998,-0.04959217,-0.35106954,-0.6585789,-0.25668332,0.25461763,-0.1474568,0.17492408,-0.8287381,-0.08475375,-0.05626002,0.2785481,-0.2544452,0.27718636,-0.51325023,-0.26088026,-0.8913367,0.2859815,0.051933475,-0.14751348,-0.28968936,-0.6245068,-0.35875744,0.014564723,-0.43491375,-0.1738143,0.59327817,-0.26330593,-0.09904894,0.45185757,0.15404993,0.6382239,0.5176157,1.0345116,-0.18450828,-0.96218103,0.71735746,0.073957115,-0.24316642,-0.8992824,-1.3130034,0.34849775,-1.1971104,-1.6673346,-0.0009971261,0.31195107,0.6777342,1.010166,-0.5466274,-0.29045376,-0.08955759,-0.8492843,-0.5202181,-0.23372427,0.5996133,-1.886736,-0.4810902,0.042964175,0.47818053,-0.61126786,-0.2631917,0.0737995,-0.31795242,0.21384618,0.63237387,0.53764355,0.52883905,-1.1886654,1.6082762,-0.24516886,0.941746,-0.84998465,0.6149986,-0.60955346,0.43469033,-0.24402674,0.62539816,-0.38444966,0.8199356,0.096588135,-1.4654659,0.28774282,0.6464528,0.8050746,0.32905227,-0.34059584,1.2115366,-0.4680826,-0.4437655,1.3283762,-1.2664156,-1.0518917,-0.6537726,0.74286854,0.42930433,-0.62522614,0.36724663,0.8249524,0.38857234,0.28085083,0.2475938,-0.55976266,1.3183532,-0.7332848,1.3463613,-0.71403515,1.2310195,-0.6266262,-0.36255392,1.8397062,-0.6135454,0.106437355,-0.09161021,1.0239589,0.025216773,-0.000677526,0.6447005,0.6805514,0.7695128,-0.17615424,0.3035605,0.3837371,0.8812463,-0.9329483,-1.4427797,-0.16315979,0.5406834,1.2525061,0.21489772,0.38593972,0.6517415,-0.67967665,-0.75208986,0.11511608,-0.19267729,0.09676625,-0.67100537,0.8583055
target_dataset:TC-71,-0.16748792,-0.8514251,-0.4863533,-0.191142,0.7162176,0.49108782,-0.079489365,0.018958747,0.024686426,0.97457355,0.16440347,-0.32116473,-0.105396986,-1.4108776,0.42603764,-0.9027355,-0.38365555,-0.026879638,-0.58385384,0.87331945,0.43133092,-0.29738736,0.6227228,-0.5951865,-0.23492397,-0.6454727,0.45477003,0.19540238,-0.019675598,0.1255602,0.70903057,-0.29338962,-1.0594082,0.45531595,0.06313459,0.16324031,-1.1019114,0.54194915,-0.5437404,0.18542734,-0.046622276,0.2040347,-0.46218812,-0.6780166,0.15119684,0.0028054416,0.25501344,-0.06408587,-0.9931314,-0.23955569,0.5253972,-0.06181574,1.021153,0.5416299,-0.11163168,0.3986006,0.25389925,-0.84948087,0.59466875,-0.74106246,-0.19020289,1.4332812,0.009479597,0.62843376,-1.0522891,0.8810593,0.39654768,-0.71691287,0.7940665,0.18255575,-1.1724962,0.2922964,-0.1368719,0.19301054,0.30452594,-0.104609236,0.2746107,-0.10444707,-0.40630022,0.7234773,-1.0752522,-0.5449444,0.6120844,0.15310144,0.029767275,0.17674848,-0.92596304,-0.3212023,-0.9491263,1.1694171,0.2931007,0.6470104,-0.20583239,-0.28611773,-0.3512166,0.15942286,-1.2363641,-0.30185276,0.71621007,0.28377926,0.032005534,-0.23253673,-0.32078493,0.53605473,0.4948691,0.4729017,-0.70477986,-0.15880299,-0.055772573,0.6388235,-0.8018017,-0.5139883,-0.54152787,-0.65093184,-1.09662,-0.8229614,0.23736754,0.17197686,-0.1861717,0.18633205,-0.81226575,0.07597259,-0.26918465,-0.36465168,-0.15916488,0.08071768,-0.023100153,-1.0580142,0.29932752,0.1725116,1.1304753,-0.34551913,-0.52814716,0.7468333,-0.033669665,-0.282006,-0.21995436,0.5948417,0.44560558,-0.50107837,1.2255211,0.946109,-0.25678933,0.035979442,0.46217507,-0.54240704,-0.46163896,-0.5498753,-0.381812,0.1388641,-0.304759,-0.15241618,-0.583673,0.15140802,0.292576,0.0233697,0.057705685,-0.20727354,0.8730843,0.43872574,-0.1874248,0.64342356,-0.9388394,-0.7248838,-0.46168607,-0.26549596,0.6549424,-0.84818995,-0.39921454,0.59100187,-0.03944546,0.051481813,0.008300573,-0.6756524,0.5843443,0.26665238,0.3547815,-0.14532486,1.0475352,-0.54895085,0.89675915,0.9941596,-0.23569597,0.06743625,0.8984347,0.99623334,-0.3019959,-0.030376941,0.041067034,-0.2088505,1.0262477,-0.45111126,-0.16570765,-0.10401525,-0.14661002,0.23083463,-0.8246422,0.36861324,0.7905673,-0.015341014,-0.44289345,-0.22178781,0.40776676,-0.38648728,-0.55656874,0.15874943,-0.4030163,0.2873137,-0.4475046,0.65737206
target_dataset:TO 175.T,-0.43347883,-0.15546584,0.14984533,0.42205635,0.07296363,0.43852746,0.083662555,0.28118548,0.37350255,0.3583982,-0.26968673,0.42320687,0.27737325,-0.19872126,-0.19626519,-0.38348293,0.1228828,-0.3480705,0.17233777,0.14010489,-0.3630762,0.12747122,-0.0004392207,0.18370612,0.22696535,-0.43631664,0.43599394,0.38355413,0.14895143,-0.41150525,-0.14605199,-0.08727785,-0.14357084,0.26864854,0.15367527,0.32394505,-0.2001265,0.18997976,0.13630532,-0.35720572,-0.4490229,-0.22672836,0.29164463,-0.39394775,-0.42757195,0.26911694,0.23540017,0.37695274,-0.34355673,-0.33110368,0.27160445,0.39071736,0.28468952,0.0743451,0.14837559,0.42131063,-0.26828495,-0.21416953,0.27385706,-0.28122845,-0.21761055,0.3303687,0.18576756,0.17961995,-0.19978544,-0.0014401111,0.44602945,-0.27599582,-0.010199381,0.22724031,-0.30165562,0.39029413,-0.21953617,-0.09224435,-0.1098255,-0.2901084,-0.4690383,0.26407072,0.107310615,-0.39946395,-0.2716854,0.450418,0.16763459,0.17843767,-0.24986547,-0.18459463,-0.108148426,-0.094183,-0.30466878,0.088261075,0.032393023,-0.031767912,0.09733662,-0.18151361,0.08644025,0.16402045,-0.24745125,-0.4612823,0.21876074,0.06612941,-0.21996428,0.45098072,-0.17966065,0.29277685,0.24328199,1.1717094,-0.28847978,-0.33125255,0.44128513,-0.11167249,-0.48461103,-0.51398075,-1.1864064,-0.0045589264,-0.8795614,-0.97512114,-0.1398114,0.17722827,0.2847977,0.560828,-0.6575437,-0.022915572,-0.117184326,-0.8733206,-0.24286842,-0.359085,0.036559604,-1.2449977,-0.08740629,-0.11478375,0.44089735,-0.08781198,-0.19220132,0.0302037,-0.26050586,0.34553686,0.088146105,0.46062657,0.32534516,-0.83461255,1.2937886,0.2102708,0.33397382,-0.11937848,0.46357983,-0.57952,-0.051013142,-0.29297823,0.5087093,0.33091384,0.3650765,-0.14858687,-1.087644,0.6765486,0.59619546,0.44419757,-0.106392324,-0.35543972,0.95033395,-0.02026856,-0.28742656,1.2513088,-1.0062119,-0.76902807,-0.18492192,-0.054858997,0.38522545,-0.3217934,0.3896858,0.5828231,0.3196308,0.37677506,-0.08746123,-0.7267845,0.6488785,-0.21210936,0.51247364,-0.46330655,1.083493,-0.35882857,0.0363656,1.257601,-0.9156527,0.30809274,0.27894807,1.030273,-0.070522346,0.15096366,0.7831409,0.48697802,0.8299062,-0.21037996,0.21982425,0.04742465,0.35923624,-0.14460325,-0.9485748,0.2635042,0.5878973,0.36084893,-0.25258923,0.2362148,0.4978019,-0.6493217,-0.56082505,0.17027777,-0.41361868,0.20700748,-0.3999304,0.4995064
target_dataset:B-CPAP,-0.37025753,0.16012496,0.04916344,0.79160327,-0.14700842,0.59942544,0.61476034,0.9514754,0.08568686,-0.23157126,-0.85923386,0.27736318,0.15964557,-0.5523907,0.03238097,-1.2246745,-0.07582721,-0.43925476,-0.6092486,0.96616286,-0.5493609,0.11323877,0.8028933,0.35400712,0.26688316,-0.4337575,-0.13374105,-0.079108775,-0.16803305,-1.0608332,0.864341,0.25647667,-0.49775493,-0.67075396,0.019049436,-0.287364,-1.1752899,0.2690626,0.24249002,-1.0262144,-0.75618434,-1.1560591,0.40477198,0.19278696,-0.09828997,0.97575045,0.6700864,0.48329076,-0.6127193,-0.031279862,0.84015405,-0.5896839,0.3411518,-0.3409406,0.3808059,0.26425582,0.87059355,-0.33128816,0.9644394,-0.05113308,-0.93821126,1.5193131,-0.420975,-0.38765937,-0.34970492,1.0049238,0.9370009,-0.39185452,0.26059684,0.24014483,-1.4366493,0.81007934,0.38892734,0.026902065,0.6885243,-0.72030056,0.22973007,0.5841203,0.43419933,0.080259144,-1.2621123,-0.62043047,0.81670004,-0.19191138,0.3228584,-0.5121333,-0.73497105,-0.18230824,-0.69540143,0.38884225,0.1980867,-0.4483126,-0.11132987,-0.4202023,0.23721074,0.10489984,-0.19921964,-0.13620356,-0.011440486,-0.39200777,0.20050491,1.2403388,-0.14026809,-0.66750157,0.14215551,0.14333993,-0.04827681,-0.051080145,0.6460043,0.2954442,-0.5308176,-0.03436114,-0.6491271,0.11128126,0.10996585,-0.3860779,-0.4730237,-0.43050224,0.5272443,0.65405333,-0.7725491,-0.2878248,0.26149195,-0.74771214,0.03812675,0.31460774,0.19440642,-0.16461012,0.30758682,-0.12290162,0.37793264,-0.30943134,-0.58088017,0.026668549,0.43470934,-0.5252807,-0.41268718,0.15057391,0.23580293,-0.17663772,0.3927722,-0.0053194463,0.41722205,0.34833166,-0.18801306,0.46580708,-0.4896072,0.29111004,0.17259598,0.29989722,0.3785998,-0.44107136,-0.10177374,0.30601847,-0.5085063,0.08166948,-0.339355,-0.24615064,0.58618134,0.27041718,0.011048047,0.67608356,-0.52710724,-0.3905852,-0.3688367,0.016094536,-0.5162381,-0.58490676,-0.24536033,-0.08460662,0.58867115,0.7392285,0.65564334,0.009830283,0.020217784,-0.5538517,0.6321497,-0.8362858,-0.12004861,0.14353827,-0.06931946,0.30136967,0.13970283,0.56918913,0.021312222,0.33773607,0.44859442,0.2778784,-0.07471484,0.3029445,0.13134602,-0.25703728,0.33038306,0.0068279803,0.54153395,0.29989684,0.2512799,0.19296892,0.14601827,0.3836456,0.4812974,-0.5320199,0.57959795,-0.10675427,-0.5424551,-0.010509366,-0.1591336,-0.08221787,0.23379833,-0.26806185
target_dataset:A-204,-0.46370545,-0.26398662,0.080899015,0.46596882,0.17186916,0.4041949,0.033352856,0.0950215,0.2498753,0.48730332,-0.07860644,0.28788555,0.4266091,-0.3677926,-0.13205296,-0.31381738,-0.017061666,-0.41395408,-0.02553974,0.2880712,-0.16932727,0.22218974,-0.050119318,0.14228348,0.15657797,-0.45873964,0.3257599,0.3950605,0.32184565,-0.21434842,-0.08952123,-0.22820574,-0.30603158,0.40290183,0.0043508857,0.31280756,-0.3058132,0.24773079,0.15967532,-0.43511444,-0.40891585,-0.056349024,0.18767315,-0.2560287,-0.23936075,0.22024636,0.13311602,0.32205468,-0.53013,-0.38640717,0.16183534,0.3743453,0.3389966,0.16305676,0.28001225,0.35711145,-0.36935914,-0.23381574,0.31990802,-0.29240415,-0.32404286,0.5150781,0.28036302,0.28660244,-0.33362553,0.06153592,0.4529268,-0.32661766,0.08049994,0.24611025,-0.4730894,0.36939147,-0.39907497,-0.030264076,-0.116307214,-0.43011844,-0.44985807,0.21911529,-0.029999502,-0.25990164,-0.39601922,0.33427507,0.108796254,0.30416304,-0.20045787,-0.09705241,-0.264587,-0.21015161,-0.47692138,0.21793634,0.029284872,-0.06900944,-0.03825383,-0.30457813,0.00054679066,0.20531045,-0.3464997,-0.29027432,0.37659454,-0.08368658,-0.22181201,0.41189528,-0.026642382,0.41759047,0.42474127,0.61775863,-0.8332588,-0.20713142,-0.20310545,0.705372,-0.9960916,-0.7700109,-0.7276715,-0.9032272,-1.5056573,-0.9544161,0.50078,0.3758792,-0.36315668,0.11985444,-1.0390493,0.22609848,-0.35487935,-0.40758628,-0.33699054,-0.12392202,-0.1554876,-1.3508695,0.41670638,0.14065269,1.4412858,-0.29242626,-0.5535808,0.9185772,-0.07454605,-0.2649788,-0.30050302,0.9266665,0.4272796,-0.68448204,1.6312746,1.2136569,-0.43326685,0.07735433,0.64641017,-0.94224155,-0.5401207,-0.8845273,-0.41896883,0.22331561,-0.4124959,-0.15351878,-0.8188383,0.21573658,0.59234214,0.18317136,0.02942121,-0.23452249,1.1643047,0.51678693,-0.23423083,0.8046329,-1.2436519,-0.90664756,-0.49995047,-0.3561122,1.0706415,-0.95726043,-0.28688365,0.76637846,-0.18631846,-0.08474094,-0.2245523,-1.0112207,0.7308093,0.5283965,0.35045016,-0.0065152347,1.426084,-0.7857379,1.2191883,1.3457628,-0.36825812,-0.02490139,1.1996891,1.3310168,-0.4602957,-0.10872209,0.014395297,-0.33874995,1.2976853,-0.6245416,-0.3821603,-0.21097207,-0.36117488,0.19539362,-1.2138381,0.65346783,1.1839751,-0.19759318,-0.7296118,-0.23472342,0.42855474,-0.700475,-0.6701412,0.27069843,-0.6041603,0.551822,-0.6323147,0.998069
target_dataset:NCI-H929,-0.4166483,-0.42007852,-0.05647278,0.35295776,0.31589466,0.4085099,-0.0076096132,0.010679662,0.159475,0.6312693,0.04043615,0.11755252,0.3774734,-0.63615483,0.00175111,-0.40380672,-0.14138202,-0.36229497,-0.20919275,0.45842966,0.021124184,0.1551874,0.06383987,-0.018345505,0.05327131,-0.50385904,0.31008536,0.36003882,0.31902832,-0.07396403,0.08876313,-0.29355034,-0.5148922,0.46324527,-0.039715335,0.2792105,-0.5019305,0.32717565,0.029893331,-0.3419705,-0.3226425,0.058400795,0.020986408,-0.28772056,-0.09233773,0.15922652,0.11900338,0.22557506,-0.69080555,-0.37810135,0.19251308,0.28237265,0.49353623,0.2706458,0.25195366,0.3413587,-0.284312,-0.36234948,0.39116246,-0.38490105,-0.33734983,0.7646802,0.26227814,0.39376554,-0.5249875,0.24635077,0.44439682,-0.42232192,0.25478378,0.24062863,-0.67466784,0.3464243,-0.4143498,0.03678911,-0.035867907,-0.4182006,-0.30007648,0.13866088,-0.15524936,-0.014289826,-0.5760759,0.117896646,0.18596089,0.3212682,-0.13672096,-0.0105268955,-0.4530905,-0.27522647,-0.634073,0.45358396,0.08006732,0.058085404,-0.12176931,-0.34679863,-0.10071379,0.21166106,-0.55860436,-0.22883472,0.5022691,-0.06716206,-0.17252839,0.27045465,-0.027537689,0.48742068,0.5061617,0.5408643,-0.28003976,-0.65262455,0.49089858,0.4554338,-0.7043175,-0.8564046,-1.1531569,-0.17326416,-1.0857718,-1.2283168,0.17684606,0.1906487,0.38345662,0.82822907,-0.9917374,-0.12849578,-0.032589238,-0.7908412,-0.51151115,-0.10931438,0.32539558,-1.3917862,0.0950252,-0.021865696,0.9497261,-0.5463447,-0.565456,0.4078561,0.10269551,-0.37095216,0.020167723,0.8682287,0.41051948,-0.9328595,1.5072432,0.21915418,0.4956102,-0.2263384,0.4657467,-0.5309613,-0.13391662,-0.39654338,0.19181138,-0.06590952,0.41627452,-0.20231931,-1.0423828,0.22471319,0.3410615,0.6303401,0.049248323,-0.32923582,1.3425264,0.05895856,-0.29432493,1.118093,-1.3679491,-0.9964485,-0.6861948,0.41741136,0.5294646,-0.91361797,0.019415975,0.59445065,0.29405606,0.30970848,0.27754802,-0.6499142,0.91716427,-0.33518377,1.1277856,-0.6406784,0.98716086,-0.59578604,0.25483054,1.563465,-0.14944701,0.1791792,0.39277446,1.080353,0.06222788,-0.041444182,0.004082799,0.19074295,0.7978178,-0.47490963,-0.013565004,0.043140195,0.46203026,-0.4132325,-1.0788801,0.40577036,0.8564845,0.7104384,0.06322789,-0.2427863,0.6687788,-0.7958858,-0.85878605,0.16401523,-0.42113638,0.35525292,-0.49106047,0.7731702
