,E0,E1,E2,E3,E4,E5,E6,E7,E8,E9,E10,E11,E12,E13,E14,E15,E16,E17,E18,E19,E20,E21,E22,E23,E24,E25,E26,E27,E28,E29,E30,E31,E32,E33,E34,E35,E36,E37,E38,E39,E40,E41,E42,E43,E44,E45,E46,E47,E48,E49,E50,E51,E52,E53,E54,E55,E56,E57,E58,E59,E60,E61,E62,E63,E64,E65,E66,E67,E68,E69,E70,E71,E72,E73,E74,E75,E76,E77,E78,E79,E80,E81,E82,E83,E84,E85,E86,E87,E88,E89,E90,E91,E92,E93,E94,E95,E96,E97,E98,E99,E100,E101,E102,E103,E104
target_dataset:KLE,-0.59588337,0.42638192,-0.09640506,-0.50872374,0.56001484,-1.1375905,0.7963454,-0.6267431,0.9568678,0.107455455,0.3292733,-1.2022016,0.35330984,0.76659423,0.49770826,-0.35624486,0.20081171,-0.9067621,-0.20017262,0.42988622,-0.74772924,0.4625036,0.9499073,-0.23522654,0.4126755,1.4112462,0.2772594,-0.5571282,0.26417816,-0.25506413,-0.019674644,-0.4587885,1.5600055,0.71245176,-1.1804014,0.10403531,0.27176902,0.8774348,-1.1591873,-0.05060816,1.3401369,-0.56785995,-0.3559925,-0.047419365,1.077138,-0.77748245,0.14685911,-0.6831058,0.012706619,-0.05187291,-0.45049056,0.5645072,0.3114083,-0.33480376,1.1081907,0.046505515,0.6727239,-1.014673,-0.03690107,1.3365505,-0.05243507,0.74922216,-0.21776521,-0.17014754,0.67331,0.64762866,2.002866,0.610694,0.7537005,-0.011233725,0.6157193,0.52690756,-0.08818081,1.1243787,-0.73459953,0.32808515,0.07497761,0.11427926,-1.229624,0.34080148,-0.4200803,1.1133336,-1.2328897,-0.3774746,1.2122312,0.46291405,-0.7642115,0.4672751,-0.59701,0.8391598,0.03860748,-0.015154496,-0.12604754,-0.67018664,0.693008,0.12653215,0.14082295,-0.51175076,0.43024573,-0.35255337,0.18785663,-0.84235007,0.23436114,-0.30587673,0.25847578
target_dataset:TE-9,0.69054645,-0.07106346,0.53616965,0.1502133,-0.358072,0.8881178,-0.2134114,0.587348,-0.26005128,-0.024197623,-0.5285055,0.265346,-0.5825585,-0.4745723,0.37364206,0.18907705,-0.31200367,0.90653485,-0.3597851,-0.4359304,0.18117961,-0.5402514,-0.39405808,-0.35845324,0.15814443,-0.88452446,-0.26767293,0.80797565,-0.2380503,-0.16794638,0.17515624,-0.47398922,-0.60528284,-0.5223016,0.44192255,0.13985005,-0.4823286,-0.5755918,0.5685262,0.48347092,-0.117374234,0.16460122,0.17254584,0.083950885,-0.34054178,0.37996992,-0.28934732,-0.6576739,0.1543411,-0.41114485,0.4246922,0.08467628,0.24291539,0.5409112,-0.46596816,-0.52592736,-0.09517749,0.19113038,0.6564166,-0.11419298,0.6830518,-0.25713396,0.038342603,0.2803289,-0.46639746,0.0024978518,-0.7590899,-0.03715307,-0.27806276,-0.02806747,-0.46866572,-0.26046163,-0.051574633,-0.27317598,0.38878918,-1.0396,-0.51521593,0.5143431,0.4822541,-0.53011703,0.26860052,0.28754437,0.69506156,0.556293,-0.14955576,0.57260424,0.5533431,0.49027783,0.68792695,-0.78395313,-0.15126929,0.07747841,0.42143494,-0.0557054,0.04212086,0.10581412,0.36991042,-0.32741645,-0.39210016,0.14426357,0.16644916,-0.49797583,0.1535351,0.077501945,-0.24352273
target_dataset:SK-MM-2,0.67699534,-0.45768934,0.07697312,0.052375957,0.12648296,0.77040434,-0.47804844,0.40921465,-0.5108787,-0.378901,-0.09452504,0.3395743,-1.1256936,-0.6626518,-0.42904693,0.7105936,0.116043314,0.8126252,0.08883187,0.03685996,0.6384951,-0.46649814,-0.55991113,0.6883215,0.031941697,-1.480762,-0.4118162,0.8067317,-0.29748088,0.20691794,-0.38493544,-0.28320074,-0.64854914,-0.95781165,1.0235622,-0.5898114,-0.79020923,-0.77360207,0.6126467,-0.029778793,-0.4737304,0.3912082,0.28670698,-0.28486723,-0.15991777,0.78294265,0.12351435,-0.35402685,-0.013043858,0.15861307,0.5805313,0.19581603,-0.5319723,0.6062136,-0.7915766,-0.3305183,-0.2909696,0.48499894,0.70866245,-0.5359581,0.2732619,-0.912011,0.06960283,-0.06123023,-0.46434987,0.10449023,-0.36261106,0.1681989,-0.64856416,0.11185115,-0.7632965,-0.3188323,-0.4405864,-0.67174166,0.09497371,-0.6475318,-0.6634872,-0.12221605,0.90542877,-0.6819483,0.30704042,-0.26492074,1.0398858,0.7642668,-0.51914704,0.30675545,0.51449496,-0.28895926,1.3412236,-0.4366193,0.23687996,0.58864945,-0.20456024,-0.23146583,-0.15148446,-0.42943823,-0.23978227,-0.01560761,0.051662296,-0.24855772,-0.29740423,0.19143273,-0.42352256,0.38132468,-0.18003349
target_dataset:Panc 08.13,0.8779953,0.002834998,0.101589285,-0.03902823,0.5671726,0.13359179,-0.3666354,0.11652826,-0.58279765,-0.16037737,-0.4434224,0.059344172,-0.86110353,-0.7170608,-0.71800554,0.8854822,0.6490515,0.7503858,0.464483,0.62385243,0.3651358,-0.29719317,-0.15476973,0.8871804,0.054647014,-1.1426297,-0.10749838,0.7204839,-0.14310108,0.33464417,-0.39228025,-0.43729067,-0.2801199,-0.69694245,0.76569945,-0.697086,-0.70886564,-0.27442437,0.48731992,-0.31595302,-0.06450536,0.3339314,-0.10631412,-0.28408018,0.19267218,0.78023493,0.5096536,-0.622912,0.19934505,0.4371928,0.35212213,0.2967804,-0.5522308,0.45022836,-0.88012034,-0.11447919,-0.4233271,0.36227974,0.55582345,-0.30703413,-0.10649431,-0.4769978,-0.02189926,0.21025681,-0.23614484,0.21046408,-0.046662804,0.38649505,-0.2599085,0.2633951,-0.40323448,-0.18600027,-0.69656926,-0.32423574,0.021211592,-0.38686764,-0.6189392,-0.030234605,0.6692612,-0.3668437,-0.08017329,-0.15131232,1.04909,0.9551625,-0.15129235,0.132109,0.08233903,-0.4980138,0.8048116,-0.13799654,0.6723908,0.45154312,-0.2918397,-0.2989561,0.33989128,-0.5911991,-0.3943648,0.17679507,-0.2610714,-0.54208815,-0.7335096,0.25952476,-0.302744,0.47103006,-0.3884539
target_dataset:SNU-C1,0.40425593,-0.43137395,-0.4352909,-0.00654752,0.3195417,0.61805475,0.12674358,0.46335572,-0.004169667,-0.12805933,-0.30570486,-0.6371046,-0.7014873,-0.60986423,-0.16891491,1.1573863,0.068751894,0.07597638,0.50471187,-0.1577045,-0.20810261,-0.2055322,-0.51892567,0.49827814,0.31594726,-0.079787806,0.26956898,0.31293616,-0.041561797,0.37718385,-0.45259812,-0.339573,0.63144153,-0.403565,0.19438863,-0.7125685,0.0986415,-0.5458992,0.3182177,-0.80683506,0.24516311,-0.54118454,-0.44365406,-0.047596153,0.07368311,-0.21068312,0.15372176,-0.63846254,-0.21956564,0.5187086,0.23331904,0.42408925,-0.79003733,0.5825931,-0.27922738,0.11450328,-0.17548013,0.40600234,1.1191083,-0.36996356,0.40307593,0.10727893,0.2249265,-0.08988079,-0.18603794,0.63852936,0.2927149,1.1379747,-0.61408085,-0.09464025,0.3439106,0.08718917,-0.6266109,-0.061732233,-0.60261935,-0.06352988,-0.23778021,-0.121333994,0.54524505,0.07211362,-0.19190961,0.7164935,0.4939438,-0.24677621,0.047128364,0.13496919,-0.2153526,-0.38965905,0.74835175,-0.18291217,-0.3897628,0.53361255,-0.002128087,-0.24431746,-0.20564288,-0.55426383,-0.06978135,0.11842871,-0.049425706,-0.24101652,0.15732603,0.09939901,-0.15123245,0.33998862,0.42441243
target_dataset:IST-Mes1,0.24259062,-0.2557905,-0.38566995,0.07144627,0.28250843,0.26799205,0.22387958,0.3032723,-0.090314895,-0.28137553,-0.054080117,-0.806866,-0.8103551,-0.40088096,-0.32773972,0.6886045,0.14156437,0.13257058,0.54511076,-0.014631395,0.076648116,-0.16563267,-0.5704703,0.42493618,0.30585843,-0.071583375,0.17384991,0.17752671,-0.0066292267,0.4507243,-0.37300524,-0.4161378,0.45961675,-0.37083402,0.07639339,-0.634409,-0.14659439,0.014120936,0.25671902,-0.9730326,0.50483954,-0.606302,-0.4223112,0.02873398,0.15274659,-0.26681495,0.08975737,-0.62236136,-0.18898976,0.44515932,0.31311116,0.6602546,-0.7302024,0.7688977,-0.25872937,0.13289319,0.002708137,0.3559476,0.93898445,-0.4250087,0.39426172,0.017517757,0.06159564,-0.16785958,-0.03153263,0.4950833,0.31274906,1.1485792,-0.6653053,-0.28332418,0.1860252,0.0038486794,-0.85367143,0.030150805,-0.6528171,-0.010882612,-0.32413605,-0.18253034,0.3728506,0.10683702,-0.15680525,0.8755125,0.32559577,-0.21347435,-0.0043100743,0.11871445,-0.3196313,-0.5198336,0.6755769,-0.1434231,-0.34394848,0.5491992,-0.16161309,-0.38583785,-0.13020706,-0.46016094,-0.24563055,0.40101767,0.0747884,-0.3405755,-0.032638945,0.1547189,-0.09061356,0.34139153,0.30406535
target_dataset:SNU-C2A,-1.2170652,0.5538981,-0.6729612,-0.67606926,0.72872156,-1.2824174,0.7045649,-0.034174237,0.11744782,0.42596802,0.85131586,-0.8915619,0.20585576,0.9377322,-0.05840792,-1.28272,0.57810724,-1.218358,-0.47150797,0.3378553,-1.0538522,0.58972883,1.2876842,0.30951217,0.90653324,1.7026763,0.91578424,-1.4174042,0.73108137,0.34617707,0.15859365,-0.24712113,1.6217418,0.8986134,-0.9730594,0.61620486,0.71013427,1.5993297,-0.30542755,-0.9726793,1.3615739,-0.47496772,-0.7828588,0.4087715,1.2346948,-1.623379,0.16496427,-0.6606994,-0.13403434,0.55741024,-1.1760552,0.7826432,0.21834895,0.17530039,1.4297801,-0.19807222,0.35728085,-0.1835798,-0.07834241,-0.06845227,-0.10430283,0.27218232,-0.6557311,0.27637166,0.4910378,0.0499698,0.38467896,0.839799,0.47631517,0.063755885,0.9587897,0.8688815,0.13663583,1.1868341,-1.181555,0.95289975,0.8232756,0.25381574,-0.9587987,0.93874705,-1.3029295,0.6982196,-1.4528598,-0.5844007,0.7060309,-0.23630175,-1.449381,-0.108422026,-0.45708025,1.7955728,0.03777124,0.1747761,-0.28736636,-0.6659257,-0.22840163,0.35053656,0.36668855,-0.27927566,0.91033584,0.28071797,0.41352916,-0.113498904,0.10156873,-0.048030376,0.69260764
target_dataset:A101D,0.6743547,0.6564203,0.8292822,-1.0926328,0.9753989,-0.47347274,-0.8893404,-0.0160136,-0.40262955,0.30502158,-1.0610639,0.81783503,0.16712292,-0.14517315,0.020626917,0.15785375,0.9230753,-0.03108386,-0.6672014,0.87096816,-0.5720974,0.14561294,0.54955614,0.8794348,0.68349504,-0.64195406,-0.3033195,0.44580942,-0.35721582,-0.21357752,0.18145114,-0.16213408,0.5992882,-0.6335298,0.104089424,0.5197083,-0.99745905,-0.2773646,0.25705746,-0.003252551,0.14917512,1.2681649,0.65504956,-0.5211258,0.6550858,0.84295416,0.91671294,-0.987884,0.5296882,0.1591131,0.4587617,0.656614,0.73000187,-0.4514614,-0.06524721,-0.3911327,-0.10620467,-0.19722192,-0.38814554,0.37296695,-0.53213555,0.12456481,-0.27104837,0.89736444,-0.3777871,0.19086164,0.2333157,-0.4496324,0.72345346,1.0293095,0.12465672,-0.06064605,0.7555424,0.34540877,0.41704518,-0.5782475,-0.203811,1.1303828,0.6293519,-0.97380185,-0.7735336,-0.25658357,0.7686415,1.306316,0.94948536,0.34215713,-0.44847825,0.5172422,0.099214554,0.76667666,1.458372,0.0024349755,0.20045802,-0.17781085,0.6242236,-0.1306121,-0.03879475,-0.8296679,-0.21635124,0.34656173,-0.004178345,-1.1066968,0.64626735,-0.7515166,-0.44968727
target_dataset:TC-71,0.16554584,-0.20237486,-0.0055127647,0.11796872,-0.09168134,0.27026325,0.2622711,0.5669161,0.1113649,0.0038880333,-0.18797113,-0.54217446,-0.48165035,-0.27429292,0.099998094,0.4430371,-0.2765976,0.10865691,0.22202161,-0.40129715,-0.21565503,-0.2131257,-0.34791452,-0.08548178,0.2516112,0.009041887,0.20226672,-0.011028901,0.077680685,0.027992908,0.21036182,-0.5213759,0.37764704,-0.06693546,-0.10276253,-0.18351112,-0.09626438,-0.22074881,0.26446256,-0.1393994,0.43691808,-0.4643102,-0.25432953,0.115102924,-0.05292826,-0.3127653,0.26821184,-0.50014764,-0.024772272,-0.06525102,0.044785015,0.49577075,-0.2563209,0.43572593,-0.0104872435,-0.28706816,0.056166306,0.09330113,0.88512284,-0.02464654,0.5651852,0.26914808,0.1455138,0.29804087,-0.030529287,0.50157124,-0.09707658,0.45536757,-0.35846347,-0.21634859,0.067593865,-0.024021465,-0.24066758,0.07526055,-0.32753468,-0.1812764,-0.15740563,0.13238117,0.18335038,0.1294662,-0.17803574,0.7290784,0.13134333,-0.17198099,0.18524344,0.3819636,-0.32230353,0.18354772,0.41516784,-0.4275175,-0.40483424,0.25514537,0.32612136,-0.18644491,-0.10699189,-0.22123422,0.30202463,-0.3873382,-0.15911248,-0.011480217,0.16226122,-0.2977028,0.10845302,-0.19348302,0.24840954
target_dataset:OVKATE,-0.18152164,-0.18219438,-1.0718405,-0.010728259,0.505814,0.0119108185,0.21287973,0.22014071,0.10215674,-0.46179286,0.17247233,-1.2697275,-0.82503,-0.07998957,-0.63324434,0.68984085,0.44979447,-0.17171599,0.7062203,0.29939547,-0.124589935,0.011095398,-0.03767755,0.75573635,0.48959553,0.263749,0.70072377,-0.1671273,0.117895715,0.8204975,-0.5910432,-0.5784943,1.0461086,-0.29515234,-0.14435628,-0.8598401,0.3989188,0.43810958,0.060862858,-1.1345025,0.99211365,-0.8328097,-0.7151866,0.10785431,0.5774331,-0.59558153,0.38301152,-0.6320958,-0.3333257,0.6351242,0.07879941,0.77040946,-0.98821044,1.0538434,0.06392321,0.40662026,-0.059250027,0.32853794,0.8498703,-0.5307565,0.3072668,0.19962879,0.10725999,-0.38702193,0.30153775,0.538815,0.58094454,1.868654,-0.8927773,-0.47503942,0.103434846,0.31662077,-0.85453236,0.20494251,-1.1742835,0.27154922,-0.38651994,-0.31227815,0.18876575,0.52587456,-0.52835286,1.2059684,-0.122955084,-0.45989773,0.23340054,-0.000387555,-0.7069102,-0.82366306,0.58288074,0.44944292,-0.6198231,0.54899967,-0.5478382,-0.76833916,-0.03249967,-0.519832,-0.5252786,0.046788543,0.45589113,-0.5483459,0.12607428,0.69215006,-0.042374983,0.5094717,0.5469316
target_dataset:TE-14,0.45194125,-0.35305688,0.16109008,0.37706882,-0.1278931,0.7921989,0.0706176,0.5440143,-0.08362121,0.047480043,-0.44878727,-0.4611413,-0.41562623,-0.3959977,0.010588743,0.5635186,-0.39626023,0.47486386,-0.012504093,-0.33324242,0.119919226,-0.13341095,-0.7015383,-0.061220996,0.13386959,-0.4246545,0.320192,0.50658387,0.25560474,0.04612757,-0.018278912,-0.2516865,0.120368384,-0.50559187,0.11804465,-0.6398198,0.06382732,-0.26762706,0.003761407,-0.25709206,0.07271968,-0.25092036,-0.1889406,-0.027281128,-0.38273144,-0.011073133,0.44545165,-0.48892152,0.018298596,0.08522574,0.06865015,0.08251952,-0.5799967,0.45156583,-0.47192764,-0.011324025,0.15961099,0.12529197,0.98447514,-0.0052473913,0.62356734,0.239105,0.69338274,-0.05661207,-0.1530672,0.5863819,-0.23677053,0.5631264,-0.5089344,-0.12361923,0.24626282,-0.40926626,-0.4930232,-0.06536263,0.08425694,-0.20346767,-0.35341322,0.117090434,0.46978623,0.10841651,-0.14854857,0.45970666,0.20483021,-0.17860824,0.16736229,0.43767032,-0.3265732,-0.048230335,0.4179428,-0.5754579,-0.42708278,-0.12495577,0.5688521,0.22141032,0.026636897,-0.6381569,0.0059671663,-0.1927618,-0.45537335,0.10293603,0.0008725987,-0.3464031,-0.05798347,-0.090954065,-0.086895354
target_dataset:IM95,0.07789106,-0.02884899,-0.2746243,-0.09293936,0.5794484,-0.507969,0.091052964,-0.11628975,-0.33604845,-0.086435445,0.30539212,-0.5883397,-0.7459849,-0.16963474,-0.75719744,0.5639766,0.79835176,0.111460425,0.700003,0.76549536,0.06550125,-0.06057392,-0.032468677,0.9921518,0.009561218,-0.096410654,-0.13375658,0.16143923,-0.080075234,0.6072286,-0.57290715,-0.4865538,0.18330958,-0.067781754,0.1503058,-0.3551048,-0.052746844,0.29865837,0.27245718,-0.05706662,0.31234312,-0.3151995,0.144701,-0.3110281,0.69444275,0.046076857,0.51253647,-0.44986647,0.08232923,0.79281855,0.16158754,0.6510341,-0.4667765,0.38771874,-0.097503476,-0.114062116,-0.6044934,0.29332843,0.015797298,-0.29809153,-0.2715223,-0.26105762,-0.16865702,0.10864531,0.28111792,-0.1953796,0.6554382,0.57658106,-0.09783121,-0.30217624,-0.22812276,0.41005036,-1.006749,0.1028668,-0.74839574,0.39624256,-0.56963706,-0.39358515,-0.085194685,0.06403386,-0.23840785,0.5026908,0.10848771,0.4692007,-0.07252088,-0.40347368,-0.2444881,-0.59513634,0.4579877,0.34200054,0.46327117,0.4887128,-0.97833216,-0.47438678,0.20228043,-0.25815308,-0.61283123,0.49416625,0.19586787,-0.87000495,-0.56122357,0.46993828,-0.29944915,0.36760807,-0.108320095
target_dataset:MOLP-2,0.80611414,0.18367846,0.72165275,-0.37155873,0.43933246,1.0173496,-0.6584355,0.81408715,-0.56082207,-0.27570644,-1.0877959,0.5950205,-0.97577566,-0.7830925,0.23258838,0.62461746,-0.0220326,0.8604504,-0.58078724,-0.13048111,0.12416965,-0.45884672,-0.23029672,0.45605144,0.63573915,-1.4022549,-0.3409784,0.8417989,-0.2535978,-0.2249919,0.48116422,-0.3607968,-0.30018955,-0.90308243,0.8447814,-0.16429186,-0.8920026,-0.69989014,0.7073695,0.025455859,-0.3255061,0.94831103,0.37667236,-0.3012595,0.052440006,0.76107705,-0.02794379,-0.8185973,0.41811562,-0.39485598,0.4315715,0.46181324,0.27992174,0.72844875,-0.5227648,-0.55806506,-0.16188967,0.19014607,0.76025486,-0.20981628,0.6110953,-0.5488222,-0.1032383,0.7116221,-0.71144986,0.56316155,-0.8701016,0.16238897,-0.3860088,0.435898,-0.51327944,-0.5354699,0.4658181,-0.3657183,0.49376234,-1.1116588,-0.5220789,0.8701687,0.889578,-0.66902804,-0.16733134,0.016561456,1.4145758,0.8684126,0.10948779,0.86035484,0.2967887,0.73847705,0.92696667,-0.39791992,0.30969694,0.35171968,0.61527133,-0.5082844,0.13549781,-0.027755998,0.23563246,-0.6583348,-0.1582411,0.35264683,0.30295485,-0.63972634,0.54866743,-0.0243984,-0.21226639
target_dataset:UACC-812,0.28909424,-0.10974342,-0.13383015,0.022395276,0.03096322,0.63835144,0.06843091,0.5140002,0.17704797,0.24429533,-0.5647496,-0.28149065,-0.41312796,-0.38360697,0.050175354,0.10762617,-0.2819215,0.2714101,-0.09399162,-0.29222935,-0.18367839,-0.28753448,-0.36899203,-0.054358535,0.51669836,-0.14051093,0.31867436,0.43918437,0.23317884,-0.03742609,0.17560945,-0.40399167,0.31816494,-0.25698674,-0.00041347463,-0.22024189,0.038044877,-0.013520889,0.23415776,-0.54790133,0.34247944,-0.2580625,-0.3348567,0.14613008,-0.119061135,-0.2971932,-0.014632322,-0.5864946,-0.10424525,-0.008644525,-0.038216062,0.36969662,-0.14879486,0.4604184,-0.07057398,-0.16806108,0.1495742,0.32103592,0.93379986,-0.18501146,0.66759926,0.07703307,-0.05511472,0.17885146,-0.17426577,0.3180288,-0.19516155,0.66396004,-0.26348394,0.15132841,0.51436687,-0.044438012,-0.049365845,0.042458054,-0.13491353,-0.36014107,-0.10468212,0.3223611,0.32317457,0.026817922,-0.2665602,0.54072237,0.27488947,-0.063024126,0.17332383,0.35441554,-0.37046707,0.11363781,0.39861864,-0.13208802,0.034843862,0.1523817,0.5747676,-0.20895943,-0.094808094,-0.26719207,0.27552286,-0.2971514,-0.1668983,0.30611092,0.35428584,-0.3416561,0.04333701,-0.084090866,0.18940113
target_dataset:ONS-76,0.62304485,-0.61730945,-0.0010270681,0.7271133,-0.5778533,1.1536567,-0.022268943,0.34382185,-0.03292137,0.15483522,-0.28860578,-0.22778067,-0.24102572,-0.27315533,0.14421085,0.29302543,-0.5924486,0.53874326,0.015476406,-0.50140345,0.54661465,-0.28197202,-0.8365003,-0.34916383,-0.2480039,-0.5921368,0.2102037,0.61983275,0.32617286,-0.12235866,0.00059848465,-0.17975353,-0.43254858,-0.41049638,0.24852647,-0.64559186,-0.11893149,-0.5935849,-0.0008729175,-0.023281176,-0.14185077,-0.31092915,-0.062478162,-0.07545728,-0.8109928,0.12203291,-0.32440937,-0.18916321,0.25962144,-0.15988718,0.18732037,-0.29013243,-0.5712617,0.27906144,-0.7168504,-0.12586999,-0.01884088,0.16471979,0.86365765,-0.019092364,0.55184966,0.32273656,0.4990279,-0.15928265,-0.14355913,0.34232688,-0.43317258,0.120709606,-0.47984207,-0.29013386,0.17784461,-0.4268023,-0.44262516,-0.46556193,0.27701348,-0.31614077,-0.38117996,-0.11427692,0.48938355,-0.026268816,0.18382804,0.2859123,0.22520463,0.08609452,-0.49426067,0.28714454,0.24705672,-0.035258915,0.45918348,-1.1496769,-0.35857552,-0.047084264,0.47970235,0.44048437,-0.06463683,-0.62658,0.15222582,-0.17477904,-0.7459716,0.07024729,-0.203102,-0.35955244,-0.40490818,-0.021495802,-0.42968208
target_dataset:Becker,-0.27361754,0.38250566,-0.2333685,-0.23186086,0.63080984,-1.0050801,0.44154832,-0.5922296,0.85872936,0.29378167,0.27318946,-0.69598204,0.29777622,0.66350436,0.15515363,0.26518518,0.40422243,-0.5680146,0.22298098,0.16948846,-0.82831484,0.20028448,0.846323,-0.030169629,0.08622985,1.3276838,0.5292109,-0.5214466,0.5102008,0.44080877,-0.29219562,-0.49262193,1.0737764,0.9062812,-1.0042635,0.41755134,0.70806557,0.8598097,-0.4656552,-0.34626815,1.1001698,-0.7628123,-0.28977805,0.23028162,0.76798844,-0.8907767,0.27492967,-0.6119515,-0.2370718,0.4614184,-0.41730762,0.44070727,0.32726306,-0.6982459,0.7553371,0.047704168,0.08437859,-0.31969902,-0.30208248,0.34966102,-0.27111882,0.53980625,-0.3924731,0.24320492,0.5512762,-0.0022447873,1.067944,0.40889156,0.8227347,0.32685104,0.77172184,0.7308333,-0.08301543,0.912522,-0.7740053,0.5255291,0.43843627,-0.16381946,-0.9685399,0.4096382,-0.435332,0.82626563,-0.90942013,-0.15047657,0.50046223,-0.03411878,-0.8719528,0.078645796,-0.47328117,0.89740264,0.209439,0.15783921,0.047525227,-0.18643486,0.5430002,0.12648417,0.3072164,0.2695756,0.20653735,-0.28591892,-0.015436776,-0.25125533,0.068540186,0.07758194,0.3845361
target_dataset:VCaP,-1.1476785,1.5809026,1.4025732,-2.9535897,1.6762471,-3.089869,-0.40694892,-0.08753762,0.21747924,0.47335187,-0.41138095,1.1276339,1.3980124,1.9229103,0.9649329,-1.3946339,1.4864271,-2.0552328,-1.9054298,1.1993535,-1.3189148,1.1550322,2.7729447,1.0136486,1.5324128,1.1307635,-0.77479154,-1.1427358,-0.8671315,-0.49463585,1.2668793,-0.053778596,2.5027566,0.35648787,-1.3565317,1.8785207,-1.0085025,0.4468727,-1.1315528,1.0029664,-0.070129275,1.9786309,1.3263538,-0.44962245,2.8878834,-0.07136868,0.8080206,-0.62822485,0.44969574,-0.14206086,-0.59286606,1.4402031,2.8851683,-1.8232828,2.3460143,-1.1443452,1.11697,-1.7111719,-1.8392385,1.8782827,-1.5634155,0.59027994,-0.30038404,1.3703028,0.72292244,-0.2005455,1.8493345,-1.4649788,2.5154922,1.1881576,0.17778242,1.0207971,2.3045905,2.2657838,-0.54965997,-0.32390106,0.8663658,1.9272898,-1.4180491,-0.91663194,-1.7720419,-0.7157996,-1.0805836,1.1940829,2.7463913,0.73713225,-0.9872201,2.4399555,-0.9227381,2.7108562,1.8389503,0.035395876,0.070145406,-0.6328466,0.87018085,1.7609458,0.6378534,-1.3480238,1.0967962,0.43867347,0.9604213,-2.2866707,1.971369,-1.2605258,1.1348144
target_dataset:SU-DHL-6,0.68910074,-0.2927058,0.43064964,0.047768008,-0.1104964,0.82241994,-0.41558397,0.6983534,-0.23954037,-0.06166956,-0.59697664,0.2897663,-0.7034186,-0.34954476,0.22222777,0.41113037,-0.30606723,0.6085345,-0.5634601,-0.34109622,0.3658555,-0.34917542,-0.66931194,0.009567311,0.31302333,-0.9082812,-0.2740915,0.7575867,-0.266571,-0.15355304,0.2061371,-0.33203056,-0.25444347,-0.7958092,0.4713426,-0.23597026,-0.53996485,-0.7143717,0.18634245,0.13197348,-0.23366229,0.25162148,0.060858876,-0.23118198,-0.25088447,0.6562508,0.4928698,-0.5179841,0.10821944,-0.22812091,0.48542017,0.071383536,0.015580244,0.3715229,-0.49377272,-0.36087334,0.07665948,-0.0067644604,0.77548456,0.12593205,0.6203147,-0.08413915,0.21382579,0.32091218,-0.4127325,0.51774293,-0.26094452,0.17496908,-0.2656167,0.09504719,-0.34435448,-0.44577953,0.3352761,-0.31540388,0.3973654,-0.8800401,-0.52960277,0.53953713,0.51997536,-0.7178504,0.16102058,-0.0074109584,0.80604523,0.5444142,0.1659385,0.77705073,0.434521,0.44487378,0.761664,-0.71678483,-0.026415084,0.15374075,0.46805713,0.10831095,0.031298123,-0.09093579,0.23501666,-0.5390246,-0.24896342,0.08573893,0.23643826,-0.62448394,0.15277652,-0.01937301,0.0048143025
target_dataset:KMRC-20,0.6889516,-0.12851022,0.59375787,0.38733035,-0.5642081,1.030457,-0.33779216,0.69961345,-0.36096755,-0.2635529,-0.43308246,0.36355552,-0.802763,-0.4483602,0.45312983,0.19934961,-0.547235,0.9104322,0.03618908,-0.526904,0.4256738,-0.58920014,-0.42726964,-0.26666057,0.16506915,-1.0516198,-0.3435002,0.7050571,-0.27443716,-0.16319989,0.14622357,-0.4683319,-0.8553332,-0.4707524,0.57407194,0.1527423,-0.5390409,-0.6796553,0.62134814,0.32373732,-0.3469739,0.13330999,0.2425125,0.10913397,-0.4445199,0.47576186,-0.114242285,-0.5274068,0.0881021,-0.412766,0.4747092,-0.049039673,0.265561,0.6204356,-0.5811208,-0.60221404,-0.22482152,0.12924662,0.60499376,-0.17393439,0.7874257,-0.34645087,0.037805088,0.077249914,-0.44572112,0.38601553,-0.84526527,-0.09072936,-0.34467006,-0.14465024,-0.7058494,-0.28956154,0.36812165,-0.41563898,0.48777407,-0.7608393,-0.61088896,0.48939404,0.35802603,-0.55115,0.47548336,-0.050020263,0.6891793,0.6062918,-0.3360625,0.600241,0.84559554,0.5400762,0.8730319,-0.9188653,-0.29249713,0.4859591,0.4843168,2.8595328e-05,0.0048734955,0.16424847,0.267017,-0.30938056,-0.40871292,0.15378109,0.08064735,-0.41867235,0.15310773,0.122253574,-0.27548224
target_dataset:U-251MG,0.69368327,-0.5243707,-0.29834315,-0.32409757,0.8193882,0.240502,-0.7063025,0.34809297,-0.75726163,-0.8818857,-0.39967525,-0.08283831,-1.3189968,-0.7194913,-1.1523829,1.3278589,0.8796882,0.60659677,0.73445797,0.6489735,0.5268503,-0.27541408,-0.63912034,1.4953351,0.23875229,-1.4766256,-0.6371911,0.8365608,-0.629647,0.7819247,-0.8447584,-0.33689374,-0.056326564,-1.3255898,1.0692322,-1.1487486,-1.1804303,-0.78798157,0.43382418,-1.0700923,-0.23085181,0.39250883,0.060000792,-0.56262434,0.52912396,0.82063586,0.7677563,-0.7488156,-0.02398798,0.7490623,1.0558705,0.767746,-0.9575588,0.75898474,-0.8770279,0.25892836,-0.55170375,0.3998914,0.64470196,-0.6733372,-0.086056925,-0.88172954,0.09176164,-0.37458348,-0.4276206,0.4216151,0.7509358,0.9069437,-0.8810771,0.20267396,-0.82107294,-0.15416965,-0.8150086,-0.559012,-0.4126355,-0.6726638,-0.89927626,-0.11869098,0.7547456,-0.8941329,0.14536493,0.15970686,1.3731965,0.9042396,-0.33091593,0.40396544,0.3410202,-0.8064552,1.5557462,-0.03667557,0.56782925,0.9333223,-0.8422807,-0.63105345,0.16219227,-0.58232385,-0.93545157,0.25623608,0.2603717,-0.91969633,-0.35814852,0.6587111,-0.33364123,0.5189225,-0.10469114
target_dataset:CL-11,0.72147965,0.29155937,0.47653928,-0.053060178,0.35380894,0.38902766,-0.35273927,0.4140158,-0.25704107,0.30837414,-0.8645321,0.12291872,-0.26853848,-0.5372809,0.18333058,0.5187348,0.046081614,0.2350396,-0.21791002,0.107451335,-0.043945834,-0.26147476,-0.0953121,0.14485177,0.38706487,-0.5600864,0.19993538,0.50364673,0.41560358,-0.10554374,0.29699925,-0.4393336,0.077134326,-0.19023754,0.23994349,-0.118603885,-0.35563737,-0.024061557,0.3174081,-0.03212671,0.1298847,0.34167498,0.071977966,-0.052623466,-0.017169952,0.15215966,0.23402968,-0.84786177,0.5296335,-0.033237945,0.09404138,0.34183395,0.13443103,0.17182119,-0.44540134,-0.271434,0.03848507,0.06175908,0.71012276,-0.037321426,0.42461464,0.093370646,0.11410466,0.490666,-0.23627017,0.44408652,-0.41779268,0.11423841,0.27068174,0.48287347,0.29909492,-0.2479344,0.10950433,-0.010998037,0.24465062,-0.5130818,-0.2116339,0.49168667,0.43187696,-0.08354376,-0.43277815,0.12176812,0.6453443,0.54317594,0.31652,0.30000818,-0.32721585,0.3673689,0.23838508,-0.024985699,0.3216572,-0.036735207,0.31585342,-0.33163074,0.3451705,-0.37713712,0.22999853,-0.37901866,-0.5330809,0.35509387,0.10523127,-0.58724135,0.22151104,-0.21640451,-0.4022884
target_dataset:CAL-29,-0.29915622,0.5856484,0.5846676,0.12993497,-0.41463053,-0.38461643,0.5739838,0.23850426,0.31311762,0.5028161,0.5020462,-0.08245742,0.018408053,0.24298447,0.6139914,-0.16363153,-0.060756177,0.2498472,-0.26158372,-0.052062653,-0.32041943,-0.33747578,0.69975734,-0.5280893,-0.054364037,0.63556886,0.11607056,-0.22509661,0.41687283,-0.09258748,0.29480717,-0.7566489,-0.3652583,0.84906423,-0.59301037,1.4765384,0.6761305,0.7648715,0.2613516,0.948571,0.90334,-0.34085023,0.21403474,0.78087854,0.40464377,-0.7063445,-0.52055323,-0.2761985,0.0054317936,-0.13517056,-0.37012854,0.23961176,1.0658715,0.024592314,0.6792699,-0.9988216,-0.36570406,-0.011159018,-0.3545175,0.15365231,0.2133797,0.038384937,-0.41873804,0.5903408,0.7397339,-0.48443243,-0.40968725,-0.46101713,0.83425325,-0.13945143,-0.24076928,0.44825843,0.5109561,0.6311421,-0.24555475,0.21122584,0.18391505,0.15906243,-1.0262064,0.3268882,-0.14428005,0.5282559,-0.76162434,0.38426605,0.12181977,-0.25177675,0.17054194,0.7752876,-0.41957098,0.22051921,-0.08728548,0.07111272,0.2042377,-0.631044,0.34558058,0.8007759,0.71278083,0.15238672,-0.04143008,-0.109254204,-0.19053587,-0.40849015,0.46893504,-0.12398249,-0.59841335
target_dataset:RVH-421,-0.91710883,0.9189342,0.501193,-0.978147,0.6496564,-2.1117928,0.95281625,-0.5062997,1.4337893,1.3150057,0.9051908,0.15716438,1.366604,1.3545065,0.87368274,-0.73078763,0.52220756,-1.6458806,-0.9557811,0.19794989,-1.4396709,0.7938327,1.8212137,-0.17342786,0.06709102,2.0350175,0.3004899,-1.1830804,0.43794617,-0.51650196,0.8124545,-0.24265687,1.7189142,2.0473845,-1.9211141,1.4927573,0.82078063,0.8605936,-1.1446389,1.053157,1.4244087,-0.044347525,0.122798026,0.55864966,1.3188715,-1.1693788,0.5545483,0.32031238,0.020507328,-0.54659975,-0.9891175,0.6346222,1.3569835,-1.8373666,1.5972861,-0.7777763,0.69781667,-0.96237147,-1.2435958,1.1188052,-1.0967225,1.189384,-0.3669418,1.01605,0.99638796,-0.4092899,1.2022455,-1.0868759,2.3437753,0.8586538,1.0238513,0.86197877,1.3963852,1.9306742,-0.51377535,0.9240941,1.4375212,0.6346119,-1.8207622,0.65163296,-0.9278476,0.23608324,-1.7948444,-0.11020565,1.3068303,-0.12181462,-1.3238555,1.284144,-1.2905654,1.6901621,0.76227695,-0.45242462,0.43284768,-0.08938992,0.61195606,0.88493943,0.8717207,-0.4812796,0.26273307,0.46570176,0.49024263,-1.4381199,0.39594406,-0.8520662,0.52013326
target_dataset:SU.86.86,-1.7532527,1.1614623,0.6006407,-0.5880663,0.12605652,-1.6155595,0.6062559,0.19914076,1.2234205,0.0755087,0.49055967,-0.5436357,0.41619778,1.2393234,1.1381315,-1.7666973,0.038392622,-1.1153942,-1.182129,0.18905233,-0.67387825,0.5972893,2.018956,-0.46967238,0.85828227,1.6982322,0.078380436,-1.1616162,0.11141342,-0.30013478,0.649124,-0.42275524,0.960445,1.1768543,-1.5287831,1.768936,0.45290285,1.262135,-0.46372408,0.8791078,1.0404629,-0.08188353,0.032554597,0.79004854,1.5851047,-1.3781248,-0.4040733,-0.6507178,0.05223317,-0.18090141,-1.2440774,0.5031847,1.76633,-0.09088133,2.0015001,-0.9076234,0.45702943,-1.2078522,-1.1057881,0.9960779,-0.011516776,0.3695528,-0.51443905,0.80359894,0.6055151,-0.2604595,0.8970895,-0.6371292,1.129072,-0.38030094,-0.0033673048,1.043384,1.7554979,1.5473993,-0.59996015,0.4233333,0.61152565,0.6698604,-2.067494,0.30218324,-0.8336859,0.63864607,-2.0599306,0.020913767,1.2161617,0.5995967,-0.32571912,1.8146212,-1.0392888,1.5862064,0.023080837,-0.16280149,-0.03441932,-0.92698944,0.2761435,1.5731329,0.29308236,-0.6312724,1.0613464,0.22457722,0.7562746,-1.0142335,1.2096647,-0.53224313,0.64277625
target_dataset:CGTH-W-1,-0.5302805,1.2181094,0.99301195,-1.2164478,0.7749438,-0.3619979,-0.43298542,0.8242084,-0.43012568,-0.18845414,-0.6359402,-0.036749333,-0.2959885,0.22272916,0.6843059,-0.33762097,0.28082955,-0.21396227,-1.1019025,0.31699407,-0.5524863,0.06832568,1.2618105,0.2719161,1.506632,0.11712971,-0.20960249,-0.09937228,-0.3411875,0.22613597,0.8550332,-0.6671792,0.97124225,-0.04843226,-0.27967334,1.0922927,-0.80096793,0.42157245,0.18943912,0.5359656,0.54295564,0.4146772,0.21461686,-0.047604095,1.5403007,-0.35256848,-0.024130762,-1.2430238,0.5587031,0.33741337,-0.28554696,1.3042355,1.3252925,0.71633536,0.772274,-0.7902211,0.104196124,-0.61230004,0.525195,0.55543613,0.3403045,-0.3649311,-0.6247781,1.085996,-0.027981807,0.43452373,0.39230403,0.35499886,0.34671554,0.47110912,-0.5203855,0.17057317,0.9601861,0.980376,-0.16835052,-0.63391054,-0.09591584,1.8915966,-0.3898171,-0.15336974,-1.465256,0.007814854,-0.03539984,0.370139,1.6422366,0.8529435,-0.36124778,1.4271405,0.1040899,1.21704,0.33671272,0.198815,0.35925376,-1.3100303,0.3352995,0.957316,0.6662156,-1.0654125,0.81520474,0.29502824,0.46267492,-0.85350335,1.4903746,-0.4161023,0.053943146
target_dataset:TE-4,-0.5584063,0.08937658,-0.22540429,0.07328432,0.56852245,-0.07939791,0.58275723,0.6671895,-0.9275049,-0.45818868,-0.56778497,-1.1307247,-0.03269826,0.6478415,-0.15145114,-0.46864116,-0.24794,-0.6009724,-0.8044606,0.45368662,0.23515238,1.198856,-0.04510336,0.6436294,1.4444343,-0.17784809,0.7105042,-0.123791546,0.3581278,0.17139865,0.73839605,0.30656323,1.6741109,-1.0233254,-0.3111418,-1.3583702,-0.82652056,0.57691264,-0.55397344,-0.33205783,0.14486364,0.38039437,-0.22284853,-0.9699863,0.6487104,-0.22985537,0.8520429,-0.8019071,1.0468527,0.75709254,-0.6762249,0.80398464,-0.95333827,0.48151517,-0.05249758,0.30546132,1.0749011,-0.59871423,0.76138294,0.6169775,0.625097,0.46580905,0.79334795,-0.30425417,-0.42246273,1.2298824,0.9677186,1.2972455,-0.9016858,-0.11352007,0.7532676,-0.5185609,-0.82645994,0.17812294,-0.12519361,-0.12558275,-0.8041218,0.85349244,0.7125864,0.3512004,-1.728745,0.6385233,-0.87554336,-0.08197069,0.9988521,0.50186884,-0.9203564,-0.08233894,-0.55573463,0.7061962,-0.26334172,-0.96554065,0.18931273,-0.36736944,-0.11063021,-0.93122095,-0.43392122,-1.3968456,0.33319518,0.54359627,0.26205063,-0.9315454,1.2147665,-1.1107101,0.6159991
target_dataset:COV434,-1.1192367,0.37577975,0.20193025,-0.6449369,0.39375675,-0.58951014,0.2699779,0.49191222,0.5264817,0.40045998,0.2368539,-0.16114919,-0.19748655,0.6579407,0.36498117,-0.6495121,-0.099186674,-0.8151153,-1.0631776,0.0022361428,-0.66511893,0.51434386,0.757378,0.27129358,0.98219174,0.56810343,0.35585836,-0.76853675,0.24902822,-0.080989674,1.2299799,-0.20486222,0.9522855,0.38546044,-0.5142593,0.64411443,0.057476077,0.7439633,-0.4094691,0.08883557,0.35436505,0.31591383,0.041966856,-0.2605796,0.89285594,-0.9170708,-0.12329477,-0.23277505,0.580765,0.12237489,-1.0196524,0.6435551,0.5623998,-0.11932034,1.1755594,-0.7769181,0.66121906,-0.33711466,0.3955764,0.36791733,0.19201623,-0.0026127277,0.057619892,0.5959707,0.10747367,0.3767352,0.28235757,-0.007462967,0.5668859,0.54927844,0.51098996,0.51088536,0.5525775,0.80234694,-0.5862165,0.18196702,0.9022779,0.8170247,-0.7900065,1.011507,-1.4068122,0.010340199,-0.8109853,-0.19084859,0.8249862,0.43986326,-1.0245858,1.1705217,-0.35053518,1.3136303,-0.21767348,-0.0786476,0.23811546,-0.66590357,-0.24085486,0.43024683,0.88996094,-0.7627525,0.81754297,0.63965917,0.70599854,-0.89219886,0.4541212,-0.5398452,0.56314147
target_dataset:SCC-9,0.50076914,-0.31525326,0.056620732,0.2635141,-0.28010365,0.6384007,0.24793282,0.74050313,0.11400847,0.20815592,-0.27933687,-0.12050379,-0.46588492,-0.3544941,-0.06461589,0.40037018,-0.42868972,0.26364166,0.33178195,-0.5742195,0.04579287,-0.34496313,-0.69940585,-0.22316445,0.019981716,-0.19263214,0.18122731,0.30539936,0.1562446,-0.03838996,0.044233155,-0.48009112,0.04722798,-0.006570369,0.06285159,-0.111457966,0.015163153,-0.37971467,0.04283908,0.15328643,0.28534254,-0.38703114,-0.14196329,0.20956993,-0.3770766,-0.1718829,0.33857515,-0.41244024,-0.12016001,-0.17757829,0.10985553,0.28371525,-0.23179051,0.28460634,-0.2693808,-0.39414552,-0.020388149,0.1437234,0.96487004,-0.04398146,0.59195787,0.26354071,0.24244812,0.4784422,-0.08612367,0.35806406,-0.43444857,0.48393196,-0.26890984,-0.18531142,0.051868625,-0.112043776,-0.15382144,-0.027932603,-0.101785034,-0.27776882,-0.17571491,0.082021445,0.34325397,0.17704087,0.06110535,0.42992756,0.31116796,-0.07928477,-0.027911846,0.35116115,0.012503624,0.1994362,0.5734461,-0.74916536,-0.39167994,0.20258687,0.4584166,-0.025966236,-0.05254974,-0.22725184,0.31189123,-0.3431108,-0.4251253,0.02300546,0.20632121,-0.34586874,-0.07951602,0.026326552,0.060424667
target_dataset:TE-15,-0.31306052,1.3254462,0.9942094,-0.8446615,0.769997,-1.3732705,0.94033515,-0.3313444,1.0605434,1.0914285,0.18442161,-0.5067653,0.32382882,0.23184757,0.6417423,-0.33600944,0.64142585,-0.4858921,-0.2515295,0.20341492,-1.4030613,-0.11533755,1.6424447,-0.33072644,0.08956738,1.5557609,0.41585425,-0.35423046,0.6750127,-0.18427607,0.37196726,-0.9758695,1.0593239,1.6121186,-1.3117384,1.5992988,0.9765812,1.7819569,-0.21240467,0.70629364,2.0369563,-0.9669031,-0.08693442,0.5412373,1.3400377,-1.4739225,-0.051511362,-0.71495426,0.13212024,0.084064245,-0.9329349,0.8463979,1.5598507,-0.79538935,1.2711283,-1.1275972,-0.20493276,-0.512252,-0.3387388,0.54812324,-0.26418793,0.14964318,-1.1001045,1.2929542,0.9193204,-0.44489345,0.47988865,-0.13157536,2.070154,0.70076483,0.66541815,0.9793246,1.1688371,1.2798324,-0.8458151,0.7083295,1.001351,0.08609314,-1.7662159,0.9135138,-0.9264424,1.1186692,-0.9620883,0.31857947,1.1453378,-0.099579,-1.1733265,1.1556422,-1.0743023,1.3620467,0.32925838,0.1448555,0.5299377,-0.8391829,1.0027918,1.014493,1.2449914,0.11557203,0.16433436,-0.266768,-0.07112116,-0.8130841,0.6660592,-0.016258925,-0.11549854
target_dataset:Huh-7,-0.22221977,0.2623582,0.25149563,-0.7371605,0.7087794,-0.54561996,0.20400558,0.41405928,-0.0986221,0.12524968,-0.07744361,-0.49954495,-0.17287749,0.15251034,0.27484417,-0.09489679,0.42674237,-0.4729287,-0.12152747,0.2574989,-0.4613556,0.20913908,0.65804,0.58733803,0.707001,0.37822217,0.27599296,-0.35791245,-0.013805032,0.144628,0.1586539,-0.46785358,1.0907302,0.15655588,-0.40433165,0.181656,-0.25845006,0.36775658,-0.05154549,-0.16224307,0.545138,-0.081066065,0.027077194,-0.09074243,0.8988622,-0.5021452,0.4019602,-0.654969,0.22025385,0.3850861,-0.26828095,1.130326,0.32884037,0.22145276,0.6055732,-0.5063219,0.04033719,-0.14914893,0.26248893,0.17138955,0.032865282,0.21022402,-0.033308588,0.38402817,0.17762697,0.26542538,0.4888059,0.59604305,0.0611111,0.045986973,0.1033658,0.21268304,-0.03168787,0.72622794,-0.7223632,0.17676578,0.17907211,0.4604798,-0.18809102,0.29912055,-0.89814883,0.91521406,-0.3397597,0.06567031,0.7446135,0.3219272,-0.69379836,0.48550677,0.09438396,0.69521767,0.04171805,0.27315947,0.0073635317,-0.509566,0.020794906,0.16548622,0.14528768,-0.4873467,0.3203015,-0.017830677,0.23529032,-0.6118268,0.61028874,-0.19420817,0.35321
target_dataset:Hs 695T,-0.6476488,0.8430727,0.40503746,-0.97077113,0.6505936,-1.1525257,0.21980992,-0.09854172,0.60147387,0.78217983,0.052720897,0.13649614,0.6005183,1.0988209,0.67331207,-0.81236196,0.18536225,-1.0537113,-0.9102485,0.25025058,-1.1187923,0.502602,1.3020222,-0.002956517,0.7199442,1.4178898,0.34534246,-0.67153454,0.24940628,-0.22523464,0.5283107,-0.28523895,1.2552125,1.0360259,-1.0936183,1.2028136,0.26925427,0.7726797,-0.55238104,0.2564691,1.1640693,0.11193193,0.13654637,0.38276157,1.1048647,-0.9693582,0.45089248,-0.49635023,-0.010804154,-0.15544613,-0.67048806,0.74300176,1.2508965,-0.77615243,1.4601618,-0.58882374,0.52738315,-0.5649052,-0.612845,0.6421422,-0.4274913,0.5170464,-0.33384016,0.7539587,0.5199107,0.23585084,0.5183104,-0.30239025,1.2816008,0.5843092,0.63316166,0.9189348,1.1762931,1.2913553,-0.34353095,0.2834831,0.75996655,0.47807643,-0.9699489,0.18376902,-0.87143254,0.36857572,-0.93058556,0.11251348,1.055687,0.32065237,-0.9674642,1.0816619,-0.5932933,1.5096692,0.5053753,-0.10500725,0.13714877,-0.27155927,0.28896242,0.7241063,0.8141132,-0.488797,0.37961876,0.5689494,0.58985907,-1.1702859,0.7875267,-0.54143417,0.33392242
target_dataset:Hs 571.T,0.39732948,0.312098,0.37645096,-0.39220065,0.28392965,-0.1716743,0.19519973,0.24729764,0.1997104,0.58406144,-0.36651805,-0.12876017,-0.017964967,-0.12539314,0.3189407,0.33734077,0.1898856,0.061741494,-0.054834243,0.028048651,-0.41968516,-0.1343665,0.21014552,-0.02459506,0.16158795,0.16736275,0.25698122,-0.03861109,0.37001568,-0.25539476,0.20814241,-0.59643775,0.45449337,0.027992874,-0.3388812,0.7238538,0.2235587,0.25433853,-0.0056173876,0.3026465,0.46147996,-0.10973458,0.0792516,0.16582403,0.23611893,-0.34610248,0.16419832,-0.5126835,0.11015711,-0.06820446,-0.1496473,0.4178209,0.4412315,-0.19126716,0.18470004,-0.4593017,-0.023101693,-0.00785771,-0.013633773,0.1416379,-0.07041757,0.28574967,-0.42083228,0.7740694,-0.0025479943,0.03111917,-0.29974538,0.004447716,0.5734283,0.29846147,0.3101747,0.17779672,0.23565277,0.48802143,-0.17768978,0.0749594,0.10660213,0.4356599,-0.20066027,0.20852265,-0.4185837,0.21821865,0.07959775,0.30448872,0.41522065,0.01725137,-0.48753312,0.44072556,-0.123129696,0.18257023,0.266014,0.055735026,0.44605651,-0.0021905228,0.36519572,-0.01623592,0.4471616,-0.0060666576,-0.4787809,0.09055618,0.08238883,-0.5890395,0.18704271,-0.24569634,-0.28746703
target_dataset:HPAF-II,-1.0295801,0.9415344,0.8138511,-1.5886126,0.72948974,-1.6083779,0.1873622,-0.053735495,0.6013633,0.47571605,-0.025116991,0.7540326,1.0527065,1.3930552,1.0680866,-1.3329034,0.2749712,-1.4004871,-1.4834967,0.15542956,-1.1939958,0.69670963,1.8077506,-0.07416271,0.81456923,1.364602,-0.04195427,-1.095957,-0.15814467,-0.4993315,1.003565,-0.107690275,1.5490818,1.1008947,-1.4170072,1.5348467,-0.12794256,0.49591473,-0.9220627,1.1602252,0.97745526,0.9543279,0.6489196,0.11397512,1.3844074,-0.11653015,0.38071233,-0.2648257,0.13341597,-0.41353667,-0.795884,0.7255009,1.8786479,-1.407746,1.6373562,-0.96025705,0.88597,-0.883836,-0.99629784,1.25701,-0.6384823,0.6972929,-0.22427227,0.9983166,0.30016494,-0.06405797,1.0049499,-1.137806,1.8068992,1.0774275,0.57951915,0.82376564,1.9805104,1.7939599,-0.06754868,0.23606655,1.0505682,1.0526541,-1.2259575,0.163091,-0.9430647,0.18167585,-0.99136513,0.33374217,1.7586639,-0.04838884,-0.91113716,1.8856922,-0.8862843,1.629096,0.6325351,-0.23416801,0.28716063,-0.17134112,0.36093175,1.2188562,1.3335326,-0.9823246,0.512795,0.8246274,0.8362558,-1.766267,1.0852773,-0.96751887,0.5401308
target_dataset:Hep 3B2.1-7,-0.51047415,0.5217661,0.90336317,0.21883924,-0.5911766,-0.5288478,0.44477078,0.027134888,0.6068442,0.35094833,0.7740727,0.02829706,0.3738787,0.83214897,1.1557391,-1.0821149,-0.40390077,0.041983224,-0.24161312,-0.26105133,-0.073540695,-0.170618,0.9759744,-0.9646585,-0.16340059,0.91996896,-0.19463775,-0.26497662,0.3605717,-0.6428468,0.3988181,-0.61271787,-0.44880843,0.68896574,-0.8461349,1.4226949,0.58842576,0.5754207,-0.04821353,1.3916391,0.78446484,-0.31833413,0.30311018,0.6234072,0.34434146,-0.5345958,-0.6662068,-0.2254284,0.018479217,-0.6978987,-0.44950998,-0.2895076,1.4237268,-0.5841279,0.7127634,-0.9190811,0.21750979,-0.40198582,-0.84725565,0.7314343,0.24419874,0.46623254,-0.26868138,0.6242685,0.8621644,-0.45622054,-0.028132372,-1.075555,1.0917308,-0.5975371,-0.3124672,0.5670556,0.88715786,0.7162939,0.17738096,0.022285998,0.12866525,0.29736078,-1.3478752,-0.2519244,0.68400794,0.55969685,-1.2604733,0.47021693,0.31851828,-0.2538873,0.7717747,1.2995454,-0.7419249,-0.09189133,-0.024943093,-0.3482123,0.37533915,-0.196058,0.4364666,0.94826084,0.6656629,-0.08609367,-0.06885786,-0.1954999,-0.07240561,-0.8969611,0.30146337,-0.36093923,-0.53284055
target_dataset:TM-31,0.04994838,0.2314049,0.29746264,0.35809794,-0.5821264,0.1630871,0.38569924,-0.16027124,0.1743276,0.52947664,-0.13791542,-0.31299216,-0.057866428,0.073536426,0.5544765,-0.07864928,-0.44128132,0.24861488,-0.288464,-0.34380734,-0.20382012,-0.19944146,0.14365579,-0.5771342,0.025405794,0.36164188,0.52239364,-0.0861478,0.787024,-0.22718957,0.31379157,-0.48563644,-0.2655748,0.5793144,-0.42664844,0.70296246,0.55365324,0.5381023,0.14113516,0.5558114,0.519078,-0.49849242,-0.26357025,0.632633,-0.20346627,-0.58742005,-0.38641268,-0.3337258,-0.0041182935,-0.10833584,-0.30629647,-0.07948247,0.3661056,0.06511015,0.2510971,-0.44018358,0.022342889,-0.05384362,0.22371708,0.017582923,0.626059,0.21352497,-0.2907429,0.43272996,0.32604852,0.14294678,-0.46772927,-0.030039812,0.33811763,-0.10930887,0.31697422,0.025300726,0.06470355,0.37834153,0.13719936,-0.01085474,0.14373074,0.028904818,-0.4960349,0.33902895,-0.09653723,0.25024113,-0.57323307,0.078581534,-0.07368063,0.20400639,-0.10241952,0.41471514,-0.3626125,-0.094105355,-0.28872666,-0.10742853,0.5510123,0.0114592165,0.16258019,0.036390204,0.5988215,0.012138445,-0.40852487,0.26088586,-0.029229145,-0.47525108,-0.015237361,-0.11339773,-0.19855015
target_dataset:B-CPAP,0.6687591,-0.8780724,-0.20173118,0.545833,-0.34100235,1.1060054,-0.20350444,0.62754035,-0.30467513,-0.23592006,-0.5463672,-0.023142168,-0.820524,-0.5045224,-0.25233164,0.8347727,-0.42584923,0.63382614,0.16002442,-0.31997555,0.5790831,-0.23078138,-1.2037991,0.18228646,-0.15807968,-1.1667414,-0.046975106,0.7980118,-0.060019664,-0.07037064,-0.16453584,-0.098049946,-0.3703693,-0.9448702,0.6970054,-1.0862988,-0.72803414,-0.9971523,0.102347344,-0.11985047,-0.4397041,-0.010463305,-0.04243616,-0.40738288,-0.7379221,0.52109796,-0.1892693,-0.14963135,0.11845242,0.02579778,0.5054935,-0.059191305,-0.9467583,0.5580977,-1.0039096,0.14251108,0.18463482,0.3145021,1.1135958,-0.24753657,0.56640524,-0.04406873,0.6288206,-0.21453938,-0.40760583,0.7138783,-0.43097392,0.45823258,-0.9121888,-0.016600762,0.0020075643,-0.57060105,-0.62814105,-0.7349019,0.39351597,-0.5951516,-0.56340593,-0.13196295,0.8191373,-0.36187887,0.42135867,0.08271318,0.7332123,0.12957565,-0.5330963,0.5032813,0.14311637,-0.35203472,1.0449908,-0.9964095,-0.57727575,0.19381538,0.26795393,0.19528958,-0.2200218,-0.92125285,-0.23317263,-0.3238731,-0.50524426,-0.07059971,-0.14583811,-0.010654017,-0.57342625,0.11776334,0.22446018
target_dataset:59M,0.8272481,-0.059413146,0.42477128,0.022898518,-0.09109076,0.7754428,-0.21980593,0.56244487,-0.22346719,-0.004045937,-0.63750803,0.12287532,-0.65680754,-0.58325887,0.18828003,0.69872236,-0.22022162,0.5932511,0.05232153,-0.27442592,-0.020485997,-0.4819166,-0.5401244,-0.009253021,0.24841261,-0.81959057,-0.12825115,0.5663569,-0.03690642,-0.11348577,0.09001804,-0.47853702,-0.25749314,-0.2618199,0.40247697,0.09242485,-0.24501969,-0.4160391,0.46901444,0.026760364,0.032213822,0.14682329,0.14388143,0.008719189,-0.23803186,0.3732078,-0.07670966,-0.88794684,0.11041219,-0.19467042,0.4148153,0.1632524,0.055584177,0.41906488,-0.5040253,-0.43151546,-0.072099194,0.19804531,0.77626157,-0.08445586,0.61346096,-0.026493408,-0.12420787,0.43788177,-0.19431907,0.35322538,-0.62302655,0.23968303,-0.21330449,0.061728165,-0.21985629,-0.27581424,0.059812233,-0.27046967,0.27859652,-0.70939153,-0.46886158,0.4432022,0.6304204,-0.34744734,0.13048121,0.39144364,0.82658,0.56124204,0.021972315,0.5286219,0.27271104,0.35723636,0.6655045,-0.6186392,-0.10358892,0.20451388,0.49045956,0.123461574,0.17415594,-0.1497322,0.20129539,-0.29216352,-0.43501747,0.14507121,0.07094967,-0.43412712,0.1477731,0.0142509565,-0.24326529
target_dataset:CMK-86,0.8152777,0.6388509,0.23007421,0.09775633,0.68237966,-0.035274085,-0.07689324,-0.0998396,-0.30530614,0.30541208,-0.4432282,-0.51278824,-0.5432902,-0.8261898,-0.39354312,0.51680183,0.5956856,0.7742301,0.42646047,0.7577873,0.013342656,-0.42905807,-0.041312583,0.547788,0.2714226,-0.30967283,0.34187818,0.57954097,0.6192656,0.27553362,-0.14676298,-0.45511943,0.018853858,-0.16839533,0.2812101,0.02484949,0.07154538,0.6096452,0.40515023,-0.26770645,0.43056187,0.07799084,-0.07203156,-0.20150328,0.30634364,0.20532991,0.55388635,-0.81739295,0.6748698,0.6158152,0.34817803,0.40180328,-0.2807346,0.53024304,-0.5457208,-0.11194865,-0.48765126,-0.011562943,0.52934784,-0.24673533,0.06961693,-0.2084674,-0.3810765,0.56743354,0.022323355,-0.011188656,-0.24335839,0.61322576,0.16623047,0.1533176,0.15506704,-0.1828234,-0.8374787,-0.24108568,0.04268704,-0.14044018,-0.7810284,0.014479669,0.20754121,0.17602496,-0.58141476,0.30041432,0.42979312,0.75271755,0.122769184,-0.28359735,-0.4571707,-0.45898286,-0.12067559,0.49045658,0.5302963,0.13029833,-0.10059546,-0.359356,0.7583797,-0.7681483,-0.26200628,0.13687521,-0.5286962,-0.3313922,-0.79907256,0.088267505,-0.0043844543,-0.092794724,-0.657047
target_dataset:SNU-449,-0.6677709,0.47939628,0.5033869,-0.80119157,0.66393524,-1.1826059,-0.047773086,0.16640148,-0.12711892,0.6277298,-0.0744065,0.2052563,0.7276534,1.0780914,0.5558433,-0.72714776,0.3438036,-0.879627,-0.8894834,0.5047558,-0.56590545,0.6138324,1.1234086,0.26960275,0.68165123,0.8833596,0.08909759,-0.6959388,0.14271311,-0.3580057,0.5951575,-0.0011165906,1.0693239,0.7383182,-0.7987366,0.7957339,-0.13746928,0.45852596,-0.432831,0.7648227,0.6701794,0.55134887,0.5829405,-0.11085089,1.0903409,-0.403637,0.58471483,-0.25570583,0.27713475,-0.05718167,-0.57350004,0.73682576,0.834548,-0.6542692,1.0002022,-0.5764584,0.5149983,-0.58479995,-0.82023966,0.76740587,-0.50699,0.6589818,-0.07608043,0.56125945,0.3389061,-0.049839027,0.494352,-0.64406484,0.9623889,0.40925387,0.49761218,0.3456689,0.730748,0.9049336,-0.19812207,0.19713008,0.38442042,0.78556174,-0.55630666,0.10158282,-1.0175525,-0.22802891,-1.1201425,0.28902486,1.0249794,0.06999727,-0.86445916,0.93488306,-0.6422895,1.1293372,0.78359586,-0.3532164,0.17184651,0.16075678,0.22142449,0.6020049,0.24401608,-0.51362944,0.2100464,0.53283274,0.5868107,-1.0634842,0.7056001,-0.64884055,0.30863714
target_dataset:NUGC-3,-1.6513829,1.2832812,0.910626,-1.26087,0.65966594,-2.1567822,0.37268543,-0.037334602,1.2319915,0.6591358,0.5148531,0.2880298,1.1967393,1.9213176,1.3862854,-0.8273504,0.49458322,-1.6948024,-1.547951,0.40482798,-1.0520015,0.9294567,2.4269905,-0.08736375,1.0316607,2.508135,-0.07145648,-1.3550395,-0.3962414,-0.20136191,1.0538446,-0.3655969,1.6471063,1.4797055,-1.6707456,2.0206182,0.14320171,1.1051893,-0.79013157,1.2650987,0.77154577,0.45959353,0.64361584,0.16634929,2.0509226,-1.1282326,0.15235929,-0.37086326,0.22576734,-0.27849582,-1.1584039,0.98434615,2.3565001,-1.152333,2.6070478,-1.2668369,0.9480232,-1.1580536,-1.3773665,1.3698375,-0.75209546,0.6889269,-0.35807046,1.1117629,0.705901,-0.16087118,1.2381171,-1.0737972,1.7396312,0.44396934,0.13953458,0.95415384,2.4714248,2.1471775,-0.4507717,0.49378794,1.1153874,1.5205165,-1.7448571,0.12812841,-1.3110019,0.34001964,-1.6722919,0.3457777,1.7162879,0.3973683,-0.5684124,2.2717977,-1.2093996,2.0457685,0.7189296,-0.22095165,0.22762175,-0.80586475,0.40925047,1.7672929,1.0856069,-0.9208918,1.0130845,0.6421634,1.1365985,-1.9300525,1.4253352,-0.9045843,0.5761955
target_dataset:JIMT-1,0.7474164,-0.46082938,-0.008434177,0.44622225,-0.2991922,0.97961855,0.1304571,0.5004073,0.019765556,0.03153848,-0.28628287,-0.22231986,-0.5573854,-0.54233915,-0.14795212,0.48015672,-0.28382158,0.5566605,0.26845896,-0.42789367,0.24640295,-0.43839654,-0.69273037,-0.13323149,-0.19374852,-0.58237535,0.14327946,0.49871892,0.1832864,-0.06084594,-0.20327175,-0.4306277,-0.3062415,-0.28198493,0.27793956,-0.39368886,-0.025402248,-0.48558646,0.4565862,-0.15203498,0.15619841,-0.38246435,-0.07834972,-0.029272325,-0.5849951,0.07404719,-0.15076849,-0.32953376,-0.016986767,-0.10611903,0.32225046,-0.005205852,-0.45658222,0.3256446,-0.5670175,-0.18647297,-0.1564727,0.36587173,0.83428085,-0.25092387,0.5786431,0.0927216,0.11856456,0.27134413,-0.081709586,0.32705128,-0.44867086,0.31041825,-0.37415493,-0.19786802,0.059201118,-0.20665705,-0.44299716,-0.30222982,0.041659683,-0.10062267,-0.35334745,-0.14651123,0.5276203,-0.015943691,0.32455942,0.4263256,0.52318513,0.124688886,-0.38686323,0.2138315,-0.11083543,-0.08805823,0.6808552,-0.8676554,-0.55349183,0.2443634,0.4249704,0.13558991,0.019884678,-0.50759524,0.04721061,0.041914076,-0.59876215,-0.1379809,-0.052796233,-0.056066684,-0.3584935,0.17927109,-0.009834535
target_dataset:NCI-H2171,0.9046507,-0.060869098,-0.13088974,0.21993491,0.22872126,0.36667183,0.050152913,0.011640163,-0.2803535,0.054944012,-0.28321645,-0.41417122,-0.83220685,-0.9362059,-0.5198496,1.0726802,0.45108274,0.805913,0.812096,0.25129467,0.3006013,-0.5290307,-0.41604632,0.3823048,-0.11194267,-0.5028626,0.20080283,0.53783804,0.3044428,0.39128458,-0.62682,-0.6708557,-0.19534978,-0.1787912,0.3678446,-0.1569995,0.14134471,0.17955849,0.5410385,-0.6862222,0.40527308,-0.42259228,-0.2509225,0.13018918,0.0102558825,0.052069917,0.35211015,-0.60031325,-0.0061639063,0.4816035,0.4558009,0.3768157,-0.44618776,0.59847516,-0.68537426,-0.015794417,-0.7665072,0.6466264,0.5955873,-0.7249968,0.1948192,-0.18717067,-0.52708644,0.20635188,-0.016354222,-0.06785913,-0.12025942,0.8351882,-0.26144674,-0.014153913,-0.04162512,0.07622866,-0.71457994,-0.32309872,-0.43466756,-0.104493305,-0.3405102,-0.31904432,0.23088765,0.122993596,-0.00038892147,0.6902026,0.4788618,0.43412775,-0.3793098,-0.2375123,-0.21571277,-0.6754665,0.5626726,-0.18487509,0.2571095,0.55026424,-0.20513664,-0.28295413,0.31299382,-0.5869424,-0.2549946,0.40221635,-0.4563622,-0.5909628,-0.43591118,0.5068736,-0.4144343,0.42061272,-0.4412042
target_dataset:A-204,0.080889255,-0.173743,0.5104108,0.72458,-0.8949708,0.31960335,-0.19457495,0.14919539,-0.018880282,0.19674115,0.44735804,0.13579392,-0.11650357,0.4588056,0.44577557,-0.3504866,-0.6863963,0.49266553,-0.11319394,-0.3557015,0.7057034,-0.2871166,0.052440792,-0.6750999,-0.36743185,-0.12991355,-0.05849065,0.15368196,0.09988599,-0.10634962,0.12785965,-0.307286,-1.3157686,-0.023880363,0.047073264,0.5320748,0.41874212,-0.27098182,0.42892793,0.6331868,-0.18483628,-0.1508879,0.3516183,0.5931049,-0.48583585,0.0016366492,-0.6120971,0.016492287,0.044306062,-0.2978766,0.09730929,-0.5393174,0.49997324,0.24305506,-0.24529687,-0.6112447,-0.28036803,0.21751401,-0.42619404,0.061928425,0.29982287,0.1032815,0.0934784,0.06887439,-0.12747002,-0.6957399,-0.7575316,-0.8542546,0.078276776,-0.42209694,-0.4271518,-0.16830957,0.30349988,-0.13865131,0.42387542,-0.35383928,-0.3007019,0.008603895,-0.41796592,-0.13495025,0.7355555,0.03501617,-0.48849702,0.48233977,-0.525835,-0.017166,1.046491,0.40292865,-0.17168988,-0.6669848,-0.084319554,-0.10517591,0.11180463,0.109023035,-0.078786194,0.88316226,0.3398238,-0.07647136,-0.2898728,0.12974244,-0.2556231,-0.22086222,-0.2548754,-0.009531684,-0.14720726
target_dataset:TO 175.T,0.01644054,0.5280264,0.9477133,-0.50625616,0.23535332,0.20284669,-0.040360298,0.67892814,0.04792507,0.21481517,-0.2714492,-0.060848523,-0.26532468,0.20609434,0.66274726,-0.060980618,-0.112957634,-0.023005383,-0.76408595,-0.1509987,-0.5375203,0.034326598,0.453792,0.07491144,0.7831448,-0.031040635,-0.04695108,-0.049211234,-0.12081736,-0.17795067,1.0325495,-0.44247034,0.6802063,0.054793186,-0.29461274,0.6828155,-0.29699963,0.3974543,0.3196286,0.8299627,0.17668726,-0.074887455,0.157834,-0.12482565,0.72693133,-0.3030115,-0.0068432093,-0.65941995,0.53550696,-0.19940338,-0.531425,0.7006348,0.627166,0.059826337,0.51660717,-1.051365,0.30859926,-0.44878647,0.6080508,0.6487868,0.44933134,0.06577203,0.11523783,0.7022387,-0.012202356,0.49141824,0.25778306,0.047516458,0.68016875,0.18639302,-0.06552969,-0.029383961,0.56509644,1.0230057,-0.062606014,-0.33884236,0.29445675,0.5182342,-0.32233265,0.26385283,-0.94162345,0.626551,-0.32179487,0.32362255,0.79910123,0.67302465,-0.18814398,1.4051613,-0.10778134,0.2736567,0.057774365,-0.073206715,0.65584266,-0.44748196,0.29321355,0.48358637,0.68488336,-0.85422605,0.07039874,0.2836167,0.13593832,-1.1527046,0.7903146,-0.5009893,-0.22271703
target_dataset:NCI-H929,-0.18117386,-0.04877473,0.12440335,-0.47581637,0.25797302,-0.33839497,-0.38068715,0.2790027,-0.2067264,0.0738924,0.13914864,0.7503326,-0.23917566,0.24057975,-0.06963573,-0.09320159,0.2599122,-0.21040042,-0.53473395,0.26972932,0.17546317,-0.043881778,0.4735961,0.422643,0.28001872,-0.50425375,-0.3659979,-0.17537333,-0.21218395,-0.021485906,0.024336234,-0.073616415,-0.311668,-0.046212677,0.27385247,0.34546888,-0.3402311,-0.26303953,0.1012997,0.18585998,-0.02256935,0.5057938,0.5277432,0.13250025,0.25333956,0.19174418,0.12176142,0.07378723,-0.05609036,0.13850822,-0.035205103,0.4330052,0.36721346,0.017720485,0.2438888,-0.48701963,-0.14281733,0.20670046,-0.39061114,-0.33335447,-0.32321355,-0.57141006,-0.058230117,0.12843487,-0.15550485,-0.7207968,-0.44525483,-0.5359143,0.16434108,0.44259882,-0.22118625,0.5829357,0.074679434,0.14674246,-0.014433419,0.080410406,0.10323914,0.18253459,-0.025937218,-0.47934464,0.017657109,-0.5770592,-0.05539094,0.6293868,-0.23645002,0.14110883,-0.0735053,0.07384759,0.6448679,0.65108234,0.24585858,0.3295662,-0.37224653,-0.09407902,-0.32894254,0.1565729,0.015249003,-0.15436798,0.34735003,0.38846463,0.58508587,-0.19875601,0.027536422,-0.14151545,-0.124143645
target_dataset:Reh,0.91297185,0.21468264,0.4370187,0.27661145,0.32831377,0.2848849,-0.2865347,-0.0049424283,-0.40675738,0.20770654,-0.5889303,-0.33464053,-0.58840907,-0.80920357,-0.19930111,0.95566297,0.26784056,0.87160516,0.35157263,0.3793163,-0.16513452,-0.46885788,0.063492455,0.27552208,0.03289199,-0.36743408,0.17592956,0.70435053,0.5171287,0.117900476,-0.12758146,-0.6705047,-0.46261483,-0.049708355,0.35169324,0.17561397,0.022602912,0.35837707,0.49450278,-0.0027902946,0.35412252,0.011424754,-0.01072266,0.072607286,0.0042605866,0.19374025,0.37950617,-0.83566064,0.4179299,0.51029176,0.17776309,0.1894255,-0.115169525,0.41973028,-0.80108523,-0.23802346,-0.57321715,0.1322505,0.3738198,-0.29594386,0.25726214,-0.1720694,-0.9669081,0.52832144,0.18701708,-0.14300564,-0.042420745,0.2687486,0.19144365,0.1866549,-0.09807629,-0.20072997,-0.73495126,-0.10692052,0.18681994,-0.347442,-0.49704593,-0.00086355675,0.16644348,0.0759084,-0.25922835,0.1924715,0.5594783,0.7771267,-0.13265343,-0.080466636,-0.08564817,-0.32882166,0.035402905,-0.026725486,0.345907,0.13190717,0.073086396,-0.085372314,0.6294729,-0.51224416,-0.067885295,0.24177307,-0.6016485,-0.34792468,-0.5704175,0.043740116,-0.15536337,0.10091734,-0.85912216
target_dataset:AMO1,0.49778968,-0.34183487,-0.24906231,0.08234979,0.02470955,0.3939576,0.13350353,0.32337597,-0.015216512,-0.17531168,-0.17897165,-0.4271992,-0.832498,-0.4357612,-0.14337918,0.7770999,-0.037801318,0.3286734,0.39314097,-0.24651179,0.0398495,-0.36582088,-0.62306285,0.20618196,0.15594566,-0.44441003,0.20196018,0.3463313,-0.046903368,0.23258263,-0.35679412,-0.535774,0.15003885,-0.20666672,0.23404264,-0.3749524,0.15733461,-0.43597934,0.35851955,-0.18627116,0.30675703,-0.45781273,-0.3591319,0.023024611,-0.13936226,-0.059592813,0.010742314,-0.51424176,-0.17765613,0.24246483,0.32299653,0.39130658,-0.5105167,0.5837247,-0.35314268,-0.07557167,-0.40032774,0.32537952,0.90006584,-0.4285666,0.47618583,0.06476061,0.10618717,-0.004960565,-0.12440219,0.41245735,-0.097286284,0.80147666,-0.5247985,-0.19131193,-0.10581441,0.015056076,-0.41501814,-0.13678661,-0.39284208,-0.30344045,-0.32665685,-0.08963035,0.56280327,-0.006039773,0.077450484,0.46008426,0.23812035,-0.018241355,-0.17529008,0.25094673,-0.2608369,-0.15785573,0.8562497,-0.37452033,-0.533071,0.49962038,0.018395208,-0.20438747,-0.090599254,-0.36961344,0.0018796176,-0.04104854,-0.16166049,-0.19614379,0.07331281,0.13116014,-0.15890706,0.2520347,0.19175722
target_dataset:Panc 03.27,0.20710707,0.33687016,0.7144192,-0.37706926,0.16830261,0.38625467,-0.4006225,0.52986914,-0.32001504,0.20466559,-0.55915093,0.7284917,-0.40891367,-0.18896201,0.6709862,-0.27306354,-0.2629186,0.1745851,-0.81327415,-0.38686073,-0.23188266,-0.25955367,0.23811892,-0.08547787,0.69277704,-0.4807168,-0.45245492,0.19157802,-0.16758174,-0.37978193,0.51489174,-0.3141603,-0.13854688,-0.09199068,0.11824715,0.861848,-0.5179924,-0.21680284,0.45707408,0.2307474,-0.08969974,0.77155435,0.2678712,0.069072634,0.06576897,0.1215388,0.22320111,-0.4174781,0.08957151,-0.3648858,0.05962699,0.27015975,0.79926664,0.33175004,0.16791391,-0.8236709,0.22799897,0.15388295,0.2695189,-0.018109718,0.43557224,-0.31396163,-0.2532977,0.57903373,-0.50898045,0.04937672,-0.6322975,-0.31270248,0.26613468,0.51540613,-0.11860728,-0.15228175,0.59730613,0.054724913,0.4079734,-0.72444916,-0.048776746,0.95056105,0.23531353,-0.45521954,-0.38987726,-0.30885056,0.344576,0.6113137,0.10870169,0.4392733,0.13967481,0.8777802,0.053047955,0.2614382,0.05886368,0.3375805,0.5903423,-0.05994869,-0.014223043,0.44731748,0.62159574,-0.5693263,-0.01825151,0.7028182,0.661975,-0.9179816,0.6068973,-0.22024044,-0.065496296
target_dataset:Hs 746.T,0.6506705,0.7071507,0.7813195,0.46511653,0.015525044,0.4909044,-0.2944706,0.26251206,-0.44500205,-0.015514283,-0.48742482,-0.21200006,-0.8055,-0.7375075,0.31869954,0.36338252,-0.025983378,1.0165503,-0.060713314,0.07823273,-0.16062236,-0.7241254,0.08174151,-0.0021193177,0.18212402,-0.66200596,-0.16285273,0.7190889,0.21874641,0.19443426,-0.04466224,-0.79605246,-0.7849436,-0.040656336,0.38948706,0.7133503,-0.2242429,0.0013001859,0.8874262,0.2698175,0.33778545,0.21579954,0.07378049,0.3233015,0.2126796,0.27463874,-0.07993127,-0.8362485,0.18937218,-0.09129366,0.31253383,0.20501038,0.41457134,0.6764962,-0.4099617,-0.28221697,-0.7613661,0.22261027,0.16098347,-0.24130967,0.54025596,-0.5189142,-0.51498747,0.8420311,0.10727799,-0.2896163,-0.6709176,0.09605036,0.1549863,0.067100465,-0.6671564,-0.15357271,0.06276038,-0.1659928,0.21324775,-0.51675403,-0.61965835,0.4587254,0.02801761,-0.44493338,0.021927899,0.34255987,0.6791933,0.98247355,-0.07893674,0.19929004,0.5558569,0.47211432,0.4109062,-0.13673286,0.26029706,0.5661305,0.14187734,-0.980047,0.5410107,0.2648375,0.23674135,0.12193742,-0.2713902,-0.18034495,-0.2960536,-0.1979462,0.43125176,0.18656044,-0.867509
