,E0,E1,E2,E3,E4,E5,E6,E7,E8,E9,E10,E11,E12,E13,E14,E15,E16,E17,E18,E19,E20,E21,E22,E23,E24,E25,E26,E27,E28,E29,E30,E31,E32,E33,E34,E35,E36,E37,E38,E39,E40,E41,E42,E43,E44,E45,E46,E47,E48,E49,E50,E51,E52,E53,E54,E55,E56,E57,E58,E59,E60,E61,E62,E63,E64,E65,E66,E67,E68,E69,E70,E71,E72,E73,E74,E75,E76,E77,E78,E79,E80,E81,E82,E83,E84,E85,E86,E87,E88,E89,E90,E91,E92,E93,E94,E95,E96,E97,E98,E99,E100,E101,E102,E103,E104
source_dataset:NCI-H196,-0.09844002,-0.4788544,-0.42020696,0.6198902,-0.31045434,0.14348954,0.73636377,0.38432968,0.14123213,0.20841421,-0.21537536,-0.862653,0.17170963,0.3965952,0.10870644,-0.5416889,-0.5965653,-0.1769079,0.09034947,-0.07508777,0.3619998,0.24038176,-0.52711993,-0.40609455,0.15886986,0.08011736,0.5233053,0.13551144,0.92854655,-0.07378444,0.068340786,0.07678026,0.420733,0.00805822,-0.25270933,-0.72757995,0.17817643,-0.0007490702,-0.6329487,-0.37911516,0.092457354,-0.4322673,-0.34353647,-0.26063645,-0.31338775,-0.1939776,0.11592172,-0.31629413,0.1706528,-0.12940747,-0.26090357,-0.47258216,-0.8741202,-0.39750206,-0.37259793,0.270904,0.6185095,-0.3782766,0.45570552,0.4168871,0.41635832,0.7985757,0.83850956,-0.32135257,0.15239291,0.8012762,0.49161345,0.51268667,-0.5732527,-0.3578037,0.7355925,-0.36557013,-0.79177713,-0.14132601,0.21129341,0.05992668,-0.19925334,-0.13226801,0.050050225,0.12507375,-0.44616157,0.58710384,-0.8146108,-0.3292466,-0.01909551,0.3146717,-0.384558,-0.24384445,-0.36179057,-0.4636763,-0.22571805,-0.43281335,0.44249535,0.3883013,0.00404869,-0.8225869,-0.18416458,-0.51190686,-0.3461157,0.22989367,-0.07165167,-0.5015218,-0.18273753,-0.27991858,-0.013044804
source_dataset:BB65-RCC,-1.1384656,0.9536446,0.9339088,-1.0697281,0.9513035,-0.8056438,-0.9203816,0.7141581,-0.3760488,0.22026858,-0.87829393,0.19899419,0.27525342,0.92348015,0.916049,-1.0998671,0.06905419,-0.83748966,-1.9611061,0.7763183,-0.55370003,0.99240077,1.223065,0.63831735,1.7732118,0.121725366,0.19847059,-0.6734578,0.2906379,-0.5066622,1.6957949,0.2807445,1.4515574,-0.35866335,-0.45036596,0.6482025,-0.8576332,0.7069902,-0.4594106,1.2085109,-0.18985327,1.3457878,0.60364723,-0.6061875,1.4070959,-0.32479197,0.75676763,-0.7439432,1.1017545,0.10812869,-1.1400576,0.65255505,0.910728,0.0830371,1.188949,-0.75365204,0.98251736,-1.0054561,0.14162517,0.992652,0.14932476,-0.027342804,0.30065638,0.71595806,-0.29011163,0.39191988,0.1482221,-0.28544092,0.4399861,0.7524578,0.56181943,-0.21540378,0.8831853,0.77491605,0.5851666,-0.68520474,0.35688695,1.5926566,-0.0022907779,-0.044205353,-2.0235405,-0.42626512,-0.73559785,-0.061736792,1.5426003,0.79158646,-1.1066569,1.5150046,-0.81363183,1.7279037,0.75119156,-0.75925857,0.5353041,-0.51791734,0.17288625,0.25456002,0.55828536,-1.6515328,0.6006046,1.1897371,0.6238367,-1.7934822,1.6128652,-1.2417523,0.1878333
source_dataset:KTCTL-1M,0.88926476,-0.3168629,-0.015720177,0.439405,-0.18301393,0.6211338,0.14919561,0.347572,0.004278119,0.10711991,-0.35334828,-0.30779955,-0.6259664,-0.80712634,-0.106431656,0.85667956,-0.15405083,0.7583825,0.44109583,-0.33280247,0.14147727,-0.5383729,-0.625334,-0.1134568,-0.19218205,-0.4558988,0.23569886,0.5117133,0.24153146,0.07037079,-0.3888312,-0.52524465,-0.27763695,-0.25172275,0.3162907,-0.2394197,0.13311961,-0.3117947,0.36058906,-0.21115173,0.32845256,-0.48661086,-0.2061531,0.22402847,-0.54961777,0.003563663,-0.17049982,-0.46261707,-0.06398171,-0.08198662,0.3555622,0.09130965,-0.41389462,0.37941465,-0.5737707,-0.14213334,-0.059321374,0.4688042,0.8322746,-0.39434126,0.46357942,0.13769989,0.031726267,0.12491781,-0.16123244,0.20341252,-0.56915194,0.39883584,-0.30411887,-0.026124626,0.15789124,-0.11526491,-0.34001422,-0.109790966,-0.045418397,-0.22847502,-0.3457632,-0.13280907,0.5165493,0.057015378,0.3649071,0.47378078,0.50656044,0.1664325,-0.35445282,0.11975599,-0.18394576,-0.19807601,0.5807711,-0.7788972,-0.18327583,0.30034086,0.3481262,0.26746386,0.09644587,-0.53042626,0.13235784,0.10110554,-0.6366666,-0.2180548,-0.12695995,0.045464773,-0.41834408,0.20975299,-0.18971226
source_dataset:FU-OV-1,0.13999702,-0.07727871,-0.45486698,-0.064050816,0.31500444,-0.078740515,0.32614875,-0.27482012,0.33548272,-0.18578653,0.061990827,-0.47610858,-0.3463864,-0.2714612,-0.2193881,0.5348991,-0.11731045,-0.14141242,0.055747017,0.035619713,-0.39395323,0.154507,-0.056630954,-0.18318896,0.2432533,0.21118708,0.37908715,0.022154294,0.43866363,0.32058147,-0.7644894,-0.27968204,0.6064786,0.111845225,-0.3284262,-0.4002596,0.22453171,0.11566651,-0.054373592,-0.7711004,0.48973012,-0.52385753,-0.6640434,0.03372972,0.104632184,-0.18752992,0.20342512,-0.47364435,-0.28137997,0.3644517,0.082635075,0.05755186,-0.37612006,-0.31155127,0.03405578,0.38397694,0.20475005,-0.15098529,0.5972538,0.069435656,0.21858798,0.17356366,-0.22062957,-0.13613059,0.04382792,0.46849394,0.36961225,0.8761834,-0.05029021,0.14296433,0.50449955,-0.08358872,-0.08232354,0.045236826,-0.24505866,-0.16076046,0.08596313,-0.23524423,-0.11302992,-0.19212767,-0.0066498294,0.5104368,-0.015829803,-0.12276446,0.28761643,0.26541415,-0.5695401,-0.4194637,0.27074155,0.3712891,-0.2705805,0.09176022,-0.35097283,-0.17076766,0.15846047,-0.46570358,0.26851112,0.19036034,0.047826305,-0.028658595,0.24680613,-0.12622882,-0.23373558,0.26130438,0.55352277
source_dataset:EW-24,0.6842748,-0.038050264,0.49366388,0.10808304,-0.33167118,0.8308612,-0.30582634,0.37114206,-0.3073974,-0.19978437,-0.5353789,0.2374304,-0.710573,-0.513041,0.29749122,0.32375973,-0.42835957,0.65395874,0.12847763,-0.2592061,0.36195195,-0.49559927,-0.4443881,-0.15870874,0.14149658,-0.89441186,-0.20860024,0.72314477,-0.15133241,-0.11238436,0.12233071,-0.49658504,-0.45206463,-0.4844208,0.48515987,0.12954248,-0.37849855,-0.48142743,0.5909264,0.15587309,-0.031405564,0.15593247,0.07457437,0.07603264,-0.23284613,0.37974548,-0.26620394,-0.52427816,0.1588499,-0.20843497,0.4343702,0.13601908,0.18303558,0.52316225,-0.45870852,-0.46032608,-0.11379052,0.20523363,0.65180075,-0.13351825,0.6292891,-0.12143178,-0.1393225,-0.0042461157,-0.1936673,0.07199636,-0.5364145,0.10559477,-0.40147385,-0.010747469,-0.50265574,-0.29927137,0.0036647469,-0.26312006,0.31153008,-0.6069567,-0.5093233,0.47651196,0.62541723,-0.4456399,0.21506523,-0.20280367,0.7372792,0.59594893,-0.17816862,0.51247823,0.49261105,0.39416012,0.81135076,-0.65998745,0.028331496,0.39648893,0.4302312,-0.16329116,0.078044444,0.031019125,0.13561645,-0.2745844,-0.33161113,0.120142095,0.086648434,-0.42670646,0.1670996,0.08805695,-0.28405905
source_dataset:SW1463,0.27123827,-0.8250528,-1.0787274,-0.2267105,0.4751002,0.16864453,0.10244084,0.20837021,-0.3188133,-0.6372104,0.08958416,-0.69036394,-1.1125214,-0.6216449,-0.9008024,1.0037191,0.33585772,0.0043231156,0.90441424,0.20315091,0.32637846,-0.07584465,-0.3620947,1.1913377,0.11376869,-0.6325567,0.1869446,0.25058505,-0.5622241,0.7430422,-0.95021087,-0.42724106,0.5207176,-0.8559715,0.5231227,-1.4397644,-0.34805864,-0.70069355,0.29755425,-1.3735325,0.0855155,-0.488928,-0.24228066,-0.2188006,0.27520564,0.15279455,0.5170548,-0.40672085,-0.4403849,0.79315436,0.5516869,1.0763346,-1.4068217,0.7550592,-0.261393,0.3742266,-0.18451533,0.5666045,0.89496535,-0.53843886,0.047352843,-0.30148846,0.4319946,-0.5330505,-0.1293062,0.5541632,0.50026286,1.415233,-1.2176244,-0.26981324,-0.21119514,0.16743633,-1.0001603,-0.28789246,-0.94826573,0.04967225,-0.46064943,-0.51117975,0.8420122,-0.19081911,0.039911818,0.71882707,0.53555006,-0.20168811,-0.36433026,0.040904894,-0.47934473,-1.0309027,1.4752012,-0.07409163,-0.17727262,0.8552401,-0.78165275,-0.22577377,-0.3588079,-0.6460941,-0.6800579,-0.18131052,0.6027387,-0.75676376,-0.07779369,0.61512625,-0.5054898,0.6879313,0.7600708
source_dataset:JVM-2,0.20048794,0.29039428,-0.33965278,0.27741867,0.84227633,-0.35899088,0.36174423,-0.23781127,-0.03169872,-0.13184081,0.1448445,-1.2301759,-0.8238847,-0.43058807,-0.69646585,0.58099097,0.6406074,0.475216,0.942718,0.67583966,-0.03745992,-0.09004918,0.29811954,0.47536522,0.18133092,0.14410405,0.101858884,0.08990598,0.5223227,1.144954,-0.7377487,-0.7315419,0.1592013,0.06949234,-0.08379874,0.2693191,0.46732253,1.0634162,0.40962344,-0.5876616,0.8802658,-0.51140976,-0.53875816,0.34969237,0.62504894,-0.429758,0.31954896,-0.9003403,0.07240624,0.86024415,0.017771192,0.4875395,-0.39942628,0.85054487,-0.19732858,0.13867956,-0.89925563,0.3797181,0.28345436,-0.5008263,0.16849513,-0.13530338,-0.5492592,0.094135106,0.32039186,0.013638586,0.49428535,1.2241632,-0.33685088,-0.18980227,-0.032403886,0.3592298,-1.5584815,0.31268936,-0.8641023,0.36208355,-0.36941856,-0.42873108,-0.2443279,0.44123974,-0.38008365,0.92231035,-0.14140221,0.15256032,-0.15976924,-0.44883072,-0.43812224,-0.72879577,0.0014026226,0.3516263,0.08195423,0.34157088,-0.63950175,-0.66092134,0.4053893,-0.47213882,-0.5455051,0.688281,0.046736117,-0.8052463,-0.46809536,0.652218,-0.20213526,0.43284965,-0.34775344
source_dataset:MOLM-13,0.8942296,-0.44627678,0.30737194,0.034731846,0.12783557,0.12051825,-0.5726612,0.0063723177,-0.6145915,-0.3074631,-0.12693603,0.66328317,-0.5050428,-0.29238153,-0.3130043,0.5301167,0.5013708,0.65392184,0.3461111,0.72780967,0.7829154,-0.253085,-0.11758978,0.7841056,-0.35187155,-1.1858912,-0.71324515,0.8360963,-0.6110743,0.18251781,-0.60112816,-0.13332376,-0.9243182,-0.48216945,1.0603637,-0.42722082,-0.721927,-1.1992023,0.6022442,0.08584303,-0.3154092,0.69913405,0.8432933,-0.3410134,-0.0064744772,1.1707131,0.7672082,-0.16474354,0.0976113,0.3396457,0.92573565,-0.0037868097,-0.25193003,-0.019976988,-0.97304416,-0.18030228,-0.7783313,0.324941,-0.4302739,-0.2706443,-0.42080653,-0.047041625,0.12667926,0.009282421,-0.046935007,-0.437537,-0.09292163,-0.70879513,-0.1240668,0.08726771,-0.9021014,-0.19063,-0.03571704,-0.54575336,0.26082888,-0.37657547,-0.8221553,-0.0958057,0.36555862,-1.0232177,0.57099694,-0.668484,0.8136342,1.2236831,-0.42051804,-0.046566796,0.81553733,-0.36930618,0.9345605,-0.4932483,0.9325682,0.39596438,-0.25879315,0.29017642,0.13852279,-0.3299216,-0.8339319,0.32464692,-0.31435362,-0.54627085,-0.5502581,0.052594677,-0.5379116,0.41403753,-0.4574096
source_dataset:HEC-1,0.21633239,-0.19782642,0.20764649,0.90805894,-0.5544633,0.56031865,-0.021256039,0.1225764,-0.2384376,0.070232615,0.14347032,-0.73650527,-0.36441725,-0.15688422,0.21700479,-0.11167634,-0.4765108,0.755638,0.34560326,-0.1012298,0.74284136,-0.33183923,-0.3116935,-0.5352519,-0.22266714,-0.3255701,0.0808393,0.4718449,0.53028274,-0.13782431,-0.11785682,-0.37504023,-0.94267744,0.0010196567,0.05592843,-0.16785347,0.33752173,0.093509965,0.37791288,0.30492687,0.09361764,-0.17173748,-0.0760106,0.18881634,-0.44967762,0.007571577,-0.3209078,-0.4120068,0.29528704,-0.11588428,0.042627774,-0.41318935,-0.24770212,0.6367411,-0.40854275,-0.19388466,-0.24699599,0.11605719,0.21262902,-0.036350157,0.5419517,0.120968185,-0.08973418,-0.048784528,0.09857707,0.08138718,-0.5061407,0.06531116,-0.5572815,-0.595408,-0.19320399,-0.38058087,-0.6094101,-0.25976825,0.2538683,-0.17479227,-0.7949399,-0.12298283,-0.025203485,0.17049989,0.53185046,0.61495364,-0.053394914,0.5225489,-0.45713258,0.03872954,0.5305215,-0.056325197,-0.014755771,-0.78956115,-0.12195469,-0.06975411,0.09412755,-0.11242831,0.2057371,-0.20723164,-0.080237135,0.081081465,-0.3846187,-0.17334986,-0.5419885,-0.00091274467,-0.1673918,0.0039958954,-0.31197572
source_dataset:ME-1 [Human leukemia],0.81595266,-0.17421523,0.41498956,0.8250612,-0.8316198,0.8261912,-0.042623788,0.16349395,-0.10173956,0.0042323563,0.087451115,-0.047206875,-0.7639566,-0.5684443,0.38567215,0.1737684,-0.4341424,1.1411095,0.7434304,-0.55271584,0.6241761,-0.80924326,-0.5142689,-0.6563464,-0.48062903,-0.56277376,-0.18457201,0.74179727,0.16498289,-0.07302871,-0.2611746,-0.7556121,-1.542272,0.17054664,0.28443867,0.43457448,0.45157158,-0.1705325,0.86372167,0.38461754,0.24505782,-0.34835967,-0.05450822,0.569062,-0.62291664,0.15826766,-0.61442685,-0.49879578,-0.19782957,-0.34279943,0.47085196,-0.30048665,0.21880943,0.5819768,-0.5497813,-0.49470422,-0.67038226,0.186184,0.21280898,-0.33496773,0.6349453,-0.23200612,-0.31872034,0.5649582,0.2827072,-0.32632548,-0.8134849,-0.18974094,-0.11329448,-0.535053,-0.65918374,-0.07876146,-0.12988757,-0.39436084,0.26695228,-0.31716362,-0.5966184,-0.047337685,0.084828995,-0.3606614,0.89952976,0.14448747,0.36710995,0.6205807,-0.806939,-0.052499354,0.93095785,0.15342051,0.38990557,-1.1126205,-0.25025082,0.36970544,0.20449251,0.17781447,0.06311147,0.18194659,0.20589651,0.35893363,-0.6040575,-0.4638887,-0.42630035,0.17232057,-0.39253575,0.3239324,-0.5067315
source_dataset:NCI-H748,-0.115302004,0.45145565,0.7884069,-1.1839178,0.5540435,-0.9166937,0.02471549,0.34954685,0.2742629,0.6470386,-0.31742123,0.53143007,0.4217194,0.7282011,0.4909789,-0.253443,0.5223675,-0.6184751,-0.45432073,0.41260126,-0.44864285,0.21579188,0.76153886,0.41364688,0.27651933,0.8291482,-0.23231961,-0.39238822,-0.37140927,-0.47084364,0.54081136,-0.013870537,0.76415044,0.14274079,-0.50953346,1.1420555,-0.31673783,0.12007744,-0.21344075,0.9158157,0.25721478,0.68737626,1.0958846,0.05460617,0.86217415,0.006382197,0.7085318,-0.23682491,0.27160344,-0.13089387,-0.2256711,0.8604288,1.1385307,-0.8146443,0.94592357,-1.0618867,0.113986,-0.2047086,-1.3631933,0.48567814,-0.6628045,0.5346487,0.06628628,0.93357414,0.19793409,-0.4581543,-0.051091075,-0.9325374,0.7781475,0.3104282,0.018341579,0.42878202,1.0231075,1.0372754,-0.39977455,0.19868286,0.25287738,0.8543334,-0.3302359,-0.00537958,-0.7981152,-0.40053084,-0.32748595,0.5585998,0.8856991,-0.09546436,-0.49460855,0.97505206,-0.20532228,0.44292837,0.76796293,0.0724266,0.17334792,0.2625737,0.3556558,0.6271225,0.35369104,-0.4753523,-0.09337945,0.2360671,0.18545124,-1.0220151,0.5100881,-0.63107526,-0.0065857843
source_dataset:NCI-H2087,0.81884605,-0.59891015,0.06252409,0.04065755,-0.16154547,1.1108046,-0.831391,0.52660996,-0.8586998,-0.7089473,-0.2643327,0.40889645,-1.4990716,-0.816467,-0.65066594,0.7996282,0.07456249,1.236435,0.34646875,0.004588738,1.0787351,-0.7231667,-0.86162585,0.86686367,-0.19014165,-1.9336846,-0.70217294,1.167805,-0.37219453,0.3661618,-0.68242097,-0.36723223,-1.2910241,-1.2656112,1.5141205,-0.7742274,-0.99131566,-1.1037263,0.9334207,-0.42287248,-0.6669888,0.41366106,0.39508283,-0.2971698,-0.3442501,1.1460307,-0.08245147,-0.31867874,-0.029194325,0.27990437,0.9633881,-0.06843859,-0.68044627,0.94166994,-1.2554421,-0.40096766,-0.7129757,0.6958062,0.7639924,-0.8047439,0.41136867,-1.0683709,0.18043329,-0.228046,-0.5338627,0.13588157,-0.6642108,0.15049452,-1.0499039,0.03784776,-1.1318878,-0.44284573,-1.0024486,-0.94398826,0.34449816,-0.8807089,-0.8802686,-0.16045567,0.95701194,-0.8852295,0.7323281,-0.41849232,1.4057474,1.0416524,-1.1314098,0.40271103,1.0896776,-0.39128634,1.7949997,-0.88918406,0.034912504,0.78751266,-0.41085023,-0.21718624,-0.018516034,-0.38801146,-0.4546415,0.11156273,-0.113579765,-0.50622296,-0.45299995,0.47841352,-0.584954,0.6730932,-0.24434036
source_dataset:AM-38,0.54171634,-0.42180163,0.03402012,0.32893723,-0.11173297,0.7400127,0.073088415,0.3572897,-0.11218153,0.022491302,-0.31643593,-0.35593584,-0.56166416,-0.38645574,-0.42663765,0.4200285,-0.23967522,0.40845272,0.20774058,-0.20983322,0.21665381,-0.24617758,-0.53469306,0.064799614,0.101681545,-0.5126347,0.20418535,0.5215241,0.2305949,0.0012579374,-0.1547995,-0.32094324,-0.010162128,-0.387291,0.21876706,-0.75770986,-0.088471994,-0.4087218,0.044947013,-0.5512601,0.091166966,-0.2875648,-0.10036772,0.047811314,-0.3726277,0.046164997,0.12089971,-0.42123067,-0.03448822,0.110220954,0.26575357,0.08320154,-0.6206341,0.3847408,-0.4699852,-0.01811923,0.03758993,0.24154192,0.8881582,-0.1788989,0.54330003,0.15288219,0.2371497,-0.0317031,-0.16740571,0.3492331,-0.2025976,0.62959087,-0.58549523,-0.122265145,0.29336208,-0.28476366,-0.44884846,-0.2324368,-0.1466203,-0.29283616,-0.38463077,-0.031932157,0.5292467,-0.021837931,0.065167494,0.43752706,0.29133004,0.03686209,-0.18449536,0.28999302,0.034897484,-0.20026077,0.5364012,-0.62159437,-0.27967054,0.23737885,0.22403458,0.03380782,-0.027078383,-0.60363746,-0.03323188,-0.28945836,-0.3860561,0.0324515,-0.029030293,-0.08703451,-0.26936975,0.10535159,0.09276383
source_dataset:BICR 31,0.7760715,-0.69808596,-0.1871551,0.06460539,0.11327272,0.10764549,0.060073316,-0.027477078,-0.24673949,0.14785117,-0.10163202,0.18248567,-0.47374964,-0.37530705,-0.54356134,0.8589515,0.41612968,0.2916557,0.72645086,0.0774329,0.4253611,-0.26794067,-0.37678313,0.5902485,-0.52364534,-0.57508874,-0.29994893,0.45143205,-0.26912975,0.03213945,-0.5574191,-0.37904775,-0.21846038,-0.3135708,0.35368952,-0.63577765,-0.10933856,-0.73746073,0.28049475,-0.59987766,0.2996219,-0.044948637,0.4222943,-0.106814645,-0.2844486,0.65134674,0.4646863,0.01341955,-0.069663584,0.3144807,0.66744345,0.14564265,-0.6139716,-0.12662719,-0.6096698,-0.065429926,-0.31188837,0.49632794,-0.022071939,-0.34769607,-0.27697536,-0.035443313,0.47783244,-0.051009405,-0.11937894,-0.18986593,-0.17000517,-0.17442553,-0.27753192,0.069854945,-0.044011485,0.049065743,-0.39858022,-0.24481942,-0.16758639,-0.0297978,-0.4048336,-0.33845094,0.475475,-0.26114857,0.46471322,0.09394759,0.602419,0.5011404,-0.58121777,-0.13691273,0.053160876,-0.47829005,0.9538556,-0.6325145,0.39606684,0.39921477,-0.23028387,0.39236885,0.03438255,-0.3829589,-0.45272803,0.09916952,-0.5002663,-0.72135305,-0.33701602,0.1815732,-0.66562337,0.4257521,-0.1187562
source_dataset:C32 [Human melanoma],0.75213045,-0.6527748,-0.07638852,0.29043022,-0.06535651,0.8315135,-0.17879152,0.50698805,-0.33889422,-0.3063581,-0.49542296,0.0153592415,-0.8705463,-0.58970773,-0.4241793,0.8157872,-0.15489046,0.67303425,0.26134783,-0.20937599,0.52594084,-0.34672263,-0.9302699,0.3500926,-0.02507181,-1.1554165,-0.12420894,0.771991,-0.17130001,0.068282954,-0.19354394,-0.25773644,-0.3470733,-0.83878577,0.7139476,-0.8316857,-0.69311845,-0.769673,0.31134096,-0.24977392,-0.3054339,-0.0009462843,-0.008662932,-0.34561628,-0.44617492,0.5670618,0.083681576,-0.35201666,0.01031027,0.14003964,0.5248323,0.18545212,-0.76916045,0.45766565,-0.8841278,-0.0954361,-0.031431444,0.3737886,0.9808161,-0.34593937,0.4803583,-0.16484171,0.31945336,-0.110603884,-0.40560448,0.45545542,-0.3939231,0.46722677,-0.7121037,0.062160432,-0.16426487,-0.40110558,-0.45143372,-0.6354008,0.18554877,-0.5878135,-0.5016021,-0.057054393,0.9808446,-0.4040204,0.2889508,0.044549286,0.8657035,0.34019867,-0.4493341,0.44645983,0.178753,-0.33544347,1.0091575,-0.80675054,-0.33228207,0.4167951,0.02455911,0.07292583,-0.0879023,-0.5829533,-0.18783933,-0.23498148,-0.35293004,-0.112185426,-0.16134855,0.0058256653,-0.2984267,0.24900723,-0.023445949
source_dataset:WSU-DLCL2,0.20665085,-0.17664969,-0.50776154,0.13403046,0.55049795,-0.08675074,-0.12326749,-0.023522208,-0.38646266,-0.30066666,0.09746688,-0.8301977,-0.8855039,-0.62509525,-1.0423769,0.81198674,0.6546491,0.3778778,0.67205036,0.68945074,0.26894885,-0.13461573,-0.10813148,0.9721981,0.08515605,-0.3179918,0.23365977,0.20793839,0.06947972,0.7090683,-0.7173596,-0.44501612,0.063376196,-0.4141903,0.34809634,-0.6973555,-0.2192078,0.2734736,0.283156,-0.8561627,0.49258107,-0.37222075,-0.29317132,-0.14192581,0.45745057,0.104414344,0.4800876,-0.62871045,0.10256769,0.9072993,0.32086655,0.41793615,-1.0264524,0.93442166,-0.5583772,0.23289834,-0.66651994,0.3401137,0.527385,-0.980368,-0.049112096,-0.28809673,-0.089577325,-0.1922566,0.123056106,0.15517917,0.16330579,1.1327249,-0.71753806,-0.34372467,-0.16847642,0.013861246,-1.1865498,-0.3445521,-0.77684367,0.097879015,-0.48195204,-0.47569546,0.3045941,0.112711184,-0.21683994,0.627656,0.33838084,0.20773718,-0.37933743,-0.23794924,-0.24706729,-0.8963946,0.59384686,0.15586105,0.24303329,0.56925195,-0.7881308,-0.57103676,0.14772277,-0.69414955,-0.87405235,0.34660837,0.14778045,-0.806962,-0.4729274,0.75921524,-0.4070045,0.5549155,-0.08691366
source_dataset:NCI-H2810,0.6664706,-0.9069356,-0.128607,0.4396116,-0.07684501,0.9646775,-1.0515113,0.5868061,-0.77518463,-0.53804475,-0.51636595,-0.096805215,-0.64584213,-0.23428194,-0.7246747,0.58466613,-0.33321026,0.44573808,0.12357904,0.18550134,1.0666186,0.19900414,-1.197252,0.6352702,0.11216408,-1.5481683,-0.18736796,0.875075,-0.10428389,0.053249553,-0.05221837,0.2670675,-0.3475831,-1.6098416,0.92812794,-1.7621152,-0.89196026,-0.8919042,-0.14028041,-0.34716552,-0.97478294,0.46965468,0.18671146,-0.8785676,-0.6862378,1.1019235,0.51156646,-0.22976674,0.7210473,0.42072827,0.350246,-0.16524649,-1.6204598,0.3880999,-1.3106298,0.37966317,0.40414047,0.063835256,1.0412613,0.024169836,0.4188539,-0.09102215,0.991784,-0.54873383,-0.6042212,1.0997919,-0.09603453,0.36700216,-1.1369528,0.04188761,-0.013646862,-1.0095016,-1.0687675,-1.0717465,0.6702415,-0.6671279,-0.8401827,-0.074046865,1.1121731,-0.5753924,0.16663733,-0.14776687,0.6920813,0.45261922,-0.5484496,0.6927865,0.46612468,-0.67260194,0.9161145,-0.9519827,0.045792863,-0.11341281,-0.101036295,0.27903432,-0.19825463,-1.1455053,-0.64384854,-0.5229433,-0.3315589,0.09876897,-0.43544006,-0.19793504,-0.64100975,-0.03338225,0.004504353
source_dataset:GaMG,0.45957237,0.12573665,0.3903657,0.51246804,-0.44635096,0.59464586,0.0019124793,0.38913882,-0.1372338,0.07420623,-0.23391673,-0.110419445,-0.4731196,-0.2857136,0.43594897,0.118655264,-0.39580247,0.63325393,-0.2552601,-0.3449732,-0.034935936,-0.5142664,-0.1932483,-0.45169237,0.12581159,-0.3687125,0.11326859,0.6519339,0.28171784,-0.097877935,0.03331954,-0.5500504,-0.65683466,-0.14662194,0.1136285,0.36352125,0.0911997,-0.05027395,0.56185645,0.014693171,0.22398373,-0.20973064,-0.10887428,0.3746044,-0.33268917,-0.07251479,0.0008264482,-0.64208555,-0.040406846,-0.24199429,0.12944779,-0.03257043,0.22567883,0.5451784,-0.22133106,-0.4083844,-0.23656094,0.2974651,0.43939224,-0.15837295,0.70560884,-0.03922109,-0.029342026,0.72726995,-0.14488482,0.0016550366,-0.57168585,0.09132423,-0.12234598,-0.18771519,-0.16528204,-0.113404214,-0.020466566,-0.050699353,0.2106628,-0.38951898,-0.35704207,0.24995074,0.04074738,-0.106795885,0.20953912,0.3965476,0.16913213,0.37914705,-0.12294099,0.21522978,0.26665092,0.3408772,0.48187682,-0.5410021,-0.14699495,0.17129503,0.2633347,-0.41264707,0.060984146,0.028952215,0.33566803,-0.042867865,-0.41308394,0.1191613,0.011675633,-0.26026544,0.11272204,0.10306482,-0.32866862
source_dataset:CTB-1,1.0790359,-0.11650361,-0.10943196,0.18773912,0.19220671,0.04489202,0.13685712,-0.24809642,-0.1689358,-0.19780597,-0.072583415,-0.11682437,-0.7646693,-0.74784845,-0.7185473,1.1665,0.6566694,0.7750692,0.8772432,0.23165143,0.32667089,-0.54347044,-0.18141662,0.65463907,-0.67382026,-0.7357021,-0.4619953,0.5208185,-0.2902769,0.23909886,-0.8713665,-0.59673977,-0.44132552,-0.58713406,0.33243138,-0.55393386,-0.27670157,-0.23480406,0.14381751,-0.5243327,0.45714718,-0.12229414,0.12335332,-0.102642074,-0.056294605,0.6982566,0.15337713,-0.47822264,-0.15807581,0.27536413,0.78461075,0.09578549,-0.4864126,-0.11851084,-0.8247191,-0.013523798,-0.49420977,0.36660993,0.27087486,-0.09496766,-0.21979593,-0.5986298,-0.2620567,0.1879156,0.17306636,-0.102457836,0.26710007,0.29416654,0.008235594,0.20593195,-0.46725535,0.121581465,-0.63299376,-0.31289774,-0.19423586,-0.27414918,-0.5669075,-0.5536064,-0.03199394,-0.42661533,0.8189235,0.34190342,1.0189729,0.78073037,-0.38108087,0.046013195,0.37716138,-0.6238773,0.9230599,-0.47713137,0.48111212,0.73993844,-0.45887226,-0.11998246,0.5218471,-0.4168632,-0.25688067,0.36705795,-0.40780014,-0.8822114,-0.65688396,0.416781,-0.42925823,0.6001027,-0.11550224
source_dataset:CA46,0.7555909,-0.20558654,0.17427492,0.09538478,0.24182329,0.82073987,-0.31603977,0.577944,-0.31094208,-0.056403115,-0.76330566,0.08306655,-0.76374274,-0.64937675,0.043754816,0.71016365,-0.116993755,0.6504595,0.17421395,-0.24607976,0.2806461,-0.39886934,-0.5638325,0.19870348,0.30607876,-0.97561336,-0.051067557,0.78297555,-0.14357486,-0.21722302,0.1422069,-0.3688528,-0.09645095,-0.40738857,0.5436205,-0.34955782,-0.6206063,-0.5669771,0.4540954,-0.30902722,-0.075393334,0.2556506,0.18335116,-0.19086896,-0.17100069,0.32088593,0.4492661,-0.6303147,0.098979324,-0.049088407,0.3599122,0.31661627,-0.25845444,0.6407099,-0.58158195,-0.31697837,-0.02183921,0.29029906,1.0140281,-0.21331604,0.5688169,-0.16803648,0.17606616,0.41273332,-0.43868956,0.30583578,-0.5171543,0.40974465,-0.3820906,0.18873166,-0.25044927,-0.3348544,-0.1090875,-0.3734309,0.15124711,-0.71875125,-0.4332381,0.3914296,0.81975526,-0.31046766,-0.047620524,0.15213022,0.99251574,0.38383842,-0.0036680056,0.5130791,0.14669752,0.16169097,0.7339683,-0.52777195,0.03803128,0.32306552,0.38620466,-0.121789925,0.0057852957,-0.3465266,0.17396964,-0.34665808,-0.3550532,0.15265262,0.119854175,-0.34594208,0.082796395,0.072085045,-0.048617806
source_dataset:HCC1806,0.655017,0.8838728,0.59073454,-0.48197109,0.5955161,0.13732825,-0.58932257,0.23831572,-0.0073373616,0.03179275,-1.2428112,0.260042,-0.31417406,-0.41109118,0.36747134,0.43082088,0.15981972,0.26969934,-0.6403996,0.18277001,-0.44562286,-0.11095392,0.18310624,0.165007,0.8100175,-0.47637042,-0.0860877,0.35339165,-0.012557653,-0.116871975,0.38502026,-0.4400754,0.49757475,-0.5934619,0.12931901,0.4180227,-0.57611245,-0.006352186,0.15456615,-0.07451657,0.090067774,0.53925085,-0.1059832,-0.25654647,0.42132926,0.3041805,0.30028817,-0.9883553,0.17970128,-0.26464534,0.26513064,0.4893709,0.5363818,-0.03780266,-0.09499575,-0.2813138,0.23340136,-0.2562094,0.5969669,0.40572697,0.3228228,0.05200273,-0.4043137,0.8387505,-0.48175445,0.5891592,0.28881434,0.22863594,0.61292195,0.7326161,0.11509402,-0.16996087,0.80897117,0.17997697,0.3430685,-0.7974585,-0.192034,0.86870867,0.35580087,-0.55375344,-0.44506025,-0.16808063,0.80854887,0.67083496,0.7661946,0.85041666,-0.2335677,0.67824227,0.13671908,0.33041307,0.33710107,0.16990674,0.37777635,-0.3109257,0.5819632,-0.061282825,0.45170772,-0.792627,-0.19420083,0.38644883,0.47809705,-1.0440242,0.66336936,-0.1771848,-0.047607977
source_dataset:C-33 A,-0.43171644,0.9721542,0.86094534,-1.0374739,0.54211,-1.203024,0.135222,-0.14894676,0.62151647,0.5617122,0.2520696,0.48319924,0.6068999,0.6908211,0.91268057,-0.69220626,0.32860535,-0.6995646,-1.087087,0.17554948,-1.0096444,0.34105664,1.4068602,-0.26736736,0.5985557,1.1182482,-0.14344484,-0.42582855,0.10556847,-0.38532886,0.75204486,-0.28098923,0.8986822,1.0708308,-1.1827677,1.4852165,0.07659382,0.5499228,-0.5046956,0.9436187,0.52700377,0.25880557,0.41218275,0.28292453,1.0959988,-0.4617543,0.13487495,-0.41097066,0.18865833,-0.20801526,-0.55070513,0.5473788,1.561826,-1.0087806,1.4129012,-0.8908191,0.31831664,-0.75295204,-0.71756035,0.8687801,-0.40291354,0.26171154,-0.4497612,1.0883459,0.37320563,-0.19261186,0.4096048,-0.5953095,1.5771947,0.6075145,0.24008404,0.21026683,1.5044665,1.156017,-0.031501744,-0.05226714,0.76376456,0.8941513,-1.120492,-0.04014395,-0.7069053,-0.2746248,-0.80327,0.51960945,1.2876587,0.3096283,-0.5955248,1.3312734,-0.7949116,1.2861086,0.68891,-0.08310307,0.51484764,-0.3100305,0.55180776,0.8797709,1.1067681,-0.5308453,0.27211958,0.5344932,0.51566505,-1.5182518,0.8131179,-0.62026423,0.21044135
source_dataset:NCI-H345,-0.5754066,0.80980307,1.0676157,-0.58892363,0.19658554,-1.4422076,-0.03324107,0.117827594,0.33733353,0.51833147,0.028332267,0.82143563,0.75715363,1.2060127,1.2629765,-1.1582468,0.1530594,-0.7976695,-1.4301196,0.09291135,-0.68676883,0.40226603,1.4456292,-0.2141103,0.6218694,0.7121556,-0.68779564,-0.35150042,-0.34468168,-0.70429087,0.82423574,-0.31516895,0.95154625,0.41216144,-1.4253228,1.4932224,-0.53477514,0.15813398,-0.62042564,0.94994205,0.3959738,0.79234695,1.0510257,-0.0035312101,1.2538483,-0.29638943,0.07602574,-0.5819242,0.24261944,-0.67989486,-0.12058562,0.5526872,2.060434,-1.1288774,1.4260436,-1.1138741,0.9137113,-1.1818479,-0.9828867,1.5087095,-0.4468941,0.6179486,-0.067590505,1.0607904,-0.12504467,-0.08422464,0.68323475,-1.1633811,1.3538388,0.2915319,-0.38890788,0.48207706,2.5407894,1.1726719,0.18831475,-0.38428298,0.32422277,1.4420441,-0.906894,-0.5710016,-0.50549734,0.39043444,-0.56223845,0.77408034,1.5991743,0.8058881,0.0033465624,2.0625522,-0.40048525,0.77282816,0.8747545,-0.17483366,0.5822178,-0.08448045,0.7453426,1.3996291,1.0662073,-1.0400815,0.23317343,0.56077975,0.667294,-2.0424209,1.30025,-0.81682336,0.31407818
source_dataset:SK-N-SH,0.33263826,0.32366022,0.6596516,-0.039055154,-0.122695595,-0.08475328,0.36046952,0.2364621,0.14821112,0.29571286,0.15342987,-0.24884805,-0.2846208,-0.071619086,0.37947986,0.1299119,0.16459446,0.43386015,0.42671353,-0.103140414,-0.02252233,-0.43089366,0.16320023,-0.2535588,-0.24621472,0.1605017,-0.033975,0.2324473,0.2461277,-0.13611704,0.08040855,-0.68621504,-0.23184682,0.44495746,-0.31163174,0.57585454,0.35422224,0.34536466,0.24213496,0.38684618,0.7233103,-0.31524166,0.19044964,0.3666076,0.23347086,-0.28918406,-0.07831363,-0.49368915,0.12255011,-0.075491056,0.17895952,0.28367436,0.59884447,0.034911692,0.3696692,-0.80304796,-0.42521343,0.043637984,-0.09405647,0.1678004,0.30337527,0.1375224,-0.24847758,0.66074103,0.53413,-0.29041302,-0.2464669,-0.17543249,0.46113464,-0.24068049,-0.31529158,0.25904405,-0.17527202,0.37584746,-0.22341499,-0.08026791,-0.17178518,0.14948426,-0.58517414,0.20519896,0.038836006,0.5681564,0.03730471,0.428066,0.16531335,0.027736468,0.12540336,0.59633183,-0.04111132,-0.33107406,-0.05530096,0.24667527,0.25922918,-0.38142735,0.4683311,0.35680243,0.43297583,0.15214232,-0.32791162,-0.31787986,-0.3190306,-0.30449173,0.07616287,0.021684583,-0.41453627
source_dataset:NUGC-3,-0.63735956,0.69779783,0.70985353,-0.20981318,0.039989367,-1.2679536,0.7462871,-0.108744964,0.85765684,0.8082576,0.66200686,-0.21924758,0.8561029,1.1150962,0.8775017,-0.9077882,0.15564612,-0.7478258,-0.47003922,0.0141933365,-0.77255857,0.4159489,1.2247714,-0.5253104,-0.088567875,1.5260017,0.11770395,-0.6131204,0.48124206,-0.33080488,0.56589574,-0.36668864,0.8253205,0.68122256,-1.4210842,1.1853863,0.63347304,0.7692787,-0.73844755,0.8928541,1.1011882,-0.28216925,0.25599378,0.33796805,0.84168744,-0.7216557,0.014481518,-0.46878293,0.3049286,-0.29156554,-0.72127724,0.24497053,1.1126103,-1.0729765,1.192363,-0.79603016,0.44387606,-0.88038665,-0.8023878,1.0657885,-0.19000761,1.080426,-0.26532245,0.77259094,0.8431011,-0.21063982,0.47285956,-0.7400019,1.6380559,0.20936155,0.34961024,0.6510066,1.004023,1.2997198,-0.18263556,0.46877268,0.67743915,0.2031345,-1.5851562,0.48808607,-0.2689471,0.17558789,-1.4702265,0.12798141,0.8748548,0.00028269738,-0.56652343,1.3151722,-1.0837665,0.71882886,0.16865942,-0.30860758,0.48399532,-0.21484257,0.69011825,0.7160569,0.99074507,-0.19259429,0.059269633,0.2693102,0.033350915,-1.164846,0.4653822,-0.5978844,0.06370669
source_dataset:MHH-PREB-1,0.52036357,-0.025789332,-0.02974777,0.031114072,0.29663604,-0.13276945,0.09396854,-0.24482362,0.26581618,0.8317216,-0.2331942,-0.015228226,0.32941526,-0.2672776,-0.07218669,0.33772096,0.23170513,0.092676446,0.16371584,0.27062604,-0.18844306,0.05340139,-0.09233119,0.022583779,-0.17425364,0.12528953,0.49580994,0.28688085,0.6325878,-0.4170359,-0.123142615,0.11774935,0.14232565,0.45176548,0.073173136,0.10346934,0.48193005,0.11442428,0.03678352,-0.3033894,0.43882197,-0.26038182,0.08706852,0.24240276,-0.25967896,-0.13228032,0.62560683,-0.078963,0.15588668,0.14160025,-0.04638567,-0.014142752,-0.14419354,-0.43355572,-0.5079198,0.07320717,0.043327384,0.24972856,-0.18830916,-0.16564736,-0.25419378,0.46892348,-0.13129741,0.48094568,0.072900765,-0.23026222,-0.27262324,-0.20292962,0.54368424,0.4607455,0.90890557,0.14243546,-0.1741524,0.03597636,0.018131517,0.29724094,0.11014003,-0.08507456,0.10183668,0.33942255,-0.17350529,0.06455395,-0.093890876,0.33257326,-0.118429184,-0.3379078,-0.7634774,-0.34497392,-0.2338832,0.12143461,0.41044968,-0.2543573,0.3272338,0.6019081,0.28440523,-0.75817746,-0.032146603,0.096562386,-0.7649311,0.30164388,-0.06706327,-0.21097219,-0.4551184,-0.38395002,-0.38132334
source_dataset:NCI-H2342,0.5264087,-0.16152996,0.23935437,0.6978408,-0.571547,0.68774676,0.18486528,0.5228859,-0.046006497,0.20251976,-0.20978208,-0.41354263,-0.29167444,-0.32688436,0.4131506,0.14439814,-0.5380036,0.7082664,-0.1772084,-0.3640063,0.08488312,-0.34288353,-0.4338667,-0.5133617,-0.11783955,-0.33709738,0.19109897,0.5180732,0.46152568,-0.1454023,0.027447348,-0.45932,-0.57839847,-0.14028066,0.03738675,0.16352831,0.38887936,-0.050949965,0.39547786,0.06541334,0.10764983,-0.3631568,-0.20419243,0.21986493,-0.58353424,-0.070445724,-0.039663456,-0.44330812,0.23838769,-0.30442524,0.10099207,-0.19320706,-0.20187774,0.3629125,-0.3893329,-0.2388858,-0.10468882,0.09187189,0.6320623,-0.06400061,0.6009039,0.262773,-0.1397279,0.015028641,-0.1070057,0.28846875,-0.71012485,0.17507279,-0.28150496,-0.3533169,0.07419412,-0.31502685,-0.36820072,-0.4104706,0.24278586,-0.2769587,-0.4981096,0.0023689843,0.20426545,0.05135694,0.16115296,0.32021442,0.07219093,0.20905745,-0.31587064,0.17477007,0.1988025,0.073160484,0.23154199,-0.798395,-0.2201682,-0.059137903,0.39472526,0.19301556,0.14741826,-0.35532877,0.17337956,-0.026425207,-0.6865399,0.004823193,-0.22148575,-0.2431742,-0.17844145,0.05174311,-0.33846068
source_dataset:VMRC-RCZ,0.1267558,-0.05444847,0.44743565,1.1448792,-1.1194247,0.74149275,-0.003754424,0.16225941,-0.17605539,0.036995422,0.24608235,-0.59193134,-0.41477713,-0.03987085,0.5334171,-0.4619397,-0.8676664,0.88770163,-0.16650169,-0.36189985,0.80842316,-0.437702,-0.15304357,-0.9736372,-0.22011384,-0.33678424,0.00436461,0.48591247,0.58253694,-0.44463116,-0.05349534,-0.5130721,-1.3179374,-0.11628994,-0.031975172,0.50203454,0.51310635,0.10718609,0.500428,0.29421926,-0.13122156,-0.634506,-0.0925947,0.5454665,-0.4688102,-0.08019515,-0.67544454,-0.48911968,0.2409385,-0.29750523,0.06976223,-0.53774023,0.15424587,0.97780865,-0.49148417,-0.39659742,-0.3050446,-0.058075983,0.16246969,0.050812244,0.91479284,0.13934082,0.35783565,0.18515676,0.12838793,0.031253584,-0.68004274,-0.11389238,-0.47380167,-0.86738795,-0.60349727,-0.38150042,-0.400664,-0.47639787,0.40364844,-0.26157302,-0.86476505,0.046840616,-0.2957595,-0.02765631,0.6668272,0.59800607,-0.6294937,0.3127019,-0.537989,0.15564975,0.8999334,0.32596734,0.085405886,-1.0550478,-0.5521595,-0.047913775,0.29691023,-0.13451293,0.13113742,0.06357338,0.025163684,-0.01553832,-0.49099356,-0.10274727,-0.47536576,-0.108692236,-0.043978468,0.0031628544,-0.35285708
source_dataset:Ishikawa (Heraklio) 02 ER-,0.67437696,-0.30062395,-0.05304338,0.5305235,-0.13798119,0.60958356,-0.03802637,0.03388512,-0.097049594,0.20454621,-0.32186487,-0.4980707,-0.21009031,-0.37357792,-0.17108849,0.5593451,-0.19562447,0.6059895,0.37998495,-0.09123776,-0.07911521,-0.32038715,-0.630572,-0.058926184,-0.13478865,-0.45885694,0.28867313,0.4890063,0.5475832,0.003919906,-0.14917766,-0.37565124,-0.21025014,-0.33010626,0.16070367,-0.15546134,0.14106487,-0.035466343,0.16002274,-0.046019867,0.21506372,-0.3121637,-0.116577916,-0.011000119,-0.43364346,0.055003442,0.1681835,-0.38700607,0.1600914,-0.018268943,0.2090208,-0.044231243,-0.5821386,0.4271353,-0.5786837,-0.021312485,-0.06650669,0.26837623,0.7460368,-0.1550908,0.581794,0.2509671,0.19072694,-0.043127492,0.011388484,0.29427296,-0.5274594,0.43901852,-0.29947624,-0.1659198,0.1770217,-0.3076087,-0.6187084,-0.19809401,0.053493656,-0.1392343,-0.50645596,-0.18863139,0.38943368,0.13505705,0.18640624,0.3239532,0.26370513,0.13494095,-0.29936853,0.084363654,-0.15304855,-0.24787775,0.24814807,-0.65489674,-0.2233999,0.06968808,0.05451159,0.13253999,0.20637919,-0.7145399,-0.066580914,0.13874604,-0.50215864,-0.18883593,-0.33738777,0.038421955,-0.44647276,0.02672126,-0.33500502
source_dataset:CHP-126,0.77836293,-0.47832787,0.05881006,0.37281296,-0.28870282,0.89292073,0.11079415,0.5162047,0.04812749,-0.028965645,-0.387747,-0.18666306,-0.6089042,-0.6281768,-0.11524552,1.1096308,-0.34526366,0.51202536,0.3767119,-0.46380502,0.29673204,-0.43984267,-0.70218337,-0.07745216,-0.14350022,-0.5281453,0.14763843,0.6393331,0.13321479,-0.014989164,-0.10540213,-0.41422436,-0.19477172,-0.60600877,0.302071,-0.41009024,-0.10700242,-0.46218842,0.054560125,-0.35172516,0.18424073,-0.3737256,-0.17952688,0.076865114,-0.57838756,0.101295374,0.09864853,-0.36257413,-0.06476835,-0.07340266,0.3664847,0.06916096,-0.5020294,0.305194,-0.56827754,-0.18833181,-0.018529307,0.34968418,0.98503673,-0.2600651,0.5421116,0.22410394,0.22552277,0.18915522,-0.17871414,0.33351287,-0.44050255,0.47571266,-0.45286727,-0.0780407,0.031243563,-0.20756984,-0.3253625,-0.33954507,0.010259034,-0.5519018,-0.31975964,-0.06377173,0.5544926,-0.049688086,0.37066263,0.29650125,0.5452726,0.08588315,-0.36924344,0.27819988,0.1890389,-0.1522878,0.865382,-0.87832826,-0.4345459,0.29803884,0.4896258,0.09935238,-0.0260146,-0.54219973,0.06393874,0.049466893,-0.5640066,-0.16283518,0.07493655,-0.029703572,-0.35917923,0.08573102,-0.025167588
source_dataset:TE-5,0.76037604,-0.87987375,-0.48632997,0.3141069,0.02453389,0.85407484,-0.23642252,0.38678086,-0.45029658,-0.5345252,-0.22798069,-0.30613613,-1.344764,-0.77904785,-1.0746511,1.0500091,0.122858874,0.7459208,0.7044267,-0.050369672,0.58972603,-0.45550945,-0.7818537,0.7794411,-0.17326216,-1.262106,-0.054812476,0.86455655,-0.5530983,0.5563565,-0.71930295,-0.45835695,-0.4496848,-1.006439,0.96338063,-1.2519058,-0.4570344,-0.82893044,0.49811348,-1.0261583,-0.2264776,-0.28030986,-0.049845893,-0.24274357,-0.31116068,0.57755584,0.18225728,-0.37338758,-0.23209958,0.32683188,0.76991004,-0.05779612,-1.2762091,0.850351,-1.0461453,0.13655843,-0.4166654,0.7196088,1.0879182,-1.0058627,0.39504212,-0.58051676,0.32406574,-0.43957168,-0.38111538,0.42603603,0.27766684,0.93022597,-1.2252058,-0.18193212,-0.43585625,-0.20329846,-0.98487717,-0.72015387,-0.345811,-0.44975784,-0.5899458,-0.5317573,0.8896449,-0.32002705,0.5653535,0.31457967,1.0485607,0.26022825,-0.8954382,0.23367505,0.35921907,-0.7918242,1.5554049,-0.7475618,-0.22306827,0.8134941,-0.4806026,-0.341236,-0.22752342,-0.7997923,-0.5302295,0.23406169,0.14639413,-0.6841211,-0.41169307,0.71076316,-0.7797101,0.69553846,0.18568158
source_dataset:SNG-M,0.6206379,-0.030802276,0.47780478,0.7099478,-0.6229388,0.725373,-0.066050544,0.31231916,-0.176682,0.07939463,-0.15135807,-0.20395136,-0.57530004,-0.35351643,0.42131376,0.412019,-0.43417245,0.9302376,-0.08034024,-0.36012965,0.47487992,-0.57369584,-0.17628804,-0.52551323,-0.1582307,-0.5500091,-0.05191423,0.64195395,0.32534763,-0.09083728,-0.021649554,-0.56535923,-0.98742586,-0.13839546,0.21792394,0.19629359,0.30498496,-0.15270488,0.6311336,0.025930166,0.09499557,-0.2447202,-0.04052555,0.37980762,-0.5108244,0.09156427,-0.3313688,-0.5062536,0.3183617,-0.17941807,0.30278322,-0.23587184,0.18254,0.6770479,-0.41717532,-0.41327548,-0.34808588,0.24387772,0.3492891,-0.12046579,0.7943356,0.008003481,0.049826756,0.36861685,0.2151643,-0.3185357,-0.73002815,-0.02512319,-0.28379032,-0.4562453,-0.3929175,-0.28636897,-0.2060352,-0.40963745,0.33872545,-0.4312704,-0.7286174,0.21142066,0.08955216,-0.14692388,0.5014702,0.42699516,0.10469838,0.5466001,-0.39672747,0.18747038,0.60631794,0.27924666,0.29482514,-0.94774157,-0.27025488,0.024085503,0.4078574,-0.041607186,0.1525046,0.07298319,0.14417206,0.03070414,-0.5682682,-0.036830574,-0.2485797,-0.1719013,-0.05134263,0.07082662,-0.32256302
source_dataset:MOLT-4,-0.50476545,0.2675966,0.42432928,-0.06427049,-0.30805036,-0.6370008,0.5616963,0.14536771,0.697977,0.43036345,0.41249907,0.20400557,0.45349088,0.8541584,0.8609401,-0.14915377,-0.32664487,-0.41441178,-0.35478097,-0.32947347,-0.33468878,0.13229488,0.67682326,-0.5586139,0.058427405,0.8007971,-0.071618706,-0.3445034,0.12398853,-0.50840795,0.38436097,-0.38460487,0.33515596,0.9222235,-0.88435656,0.9715647,0.32960933,0.12375713,-0.2504565,0.20551172,0.30300432,-0.16474062,0.2855873,0.5621426,0.26155078,-0.44797125,-0.08420315,-0.031033427,-0.009987317,-0.4652204,-0.5627233,0.13457888,0.98712033,-0.639706,1.1243724,-0.71178806,0.3198786,-0.6487595,-0.5541049,0.6191807,-0.07201459,0.6251496,0.04018643,0.50060827,0.54012483,-0.14960338,-0.15229008,-0.7239352,0.81908673,-0.035147034,0.085747525,0.45680153,0.8201191,1.0938853,-0.07438538,0.15892336,0.3549455,0.5147753,-0.8043565,0.03756459,-0.046024226,0.3737319,-0.8776499,0.10488053,0.4244996,0.23003544,-0.1530486,1.0443306,-0.33481055,0.16529268,-0.02615691,-0.10440219,0.5198809,0.05785224,0.086492635,0.7735244,0.7957583,-0.2919679,-0.0434749,0.36706904,0.39802775,-0.8994308,0.3317004,-0.37971172,0.28977227
source_dataset:EFM-19,-0.45201278,0.24491769,-0.4589086,0.06338646,0.2072878,-0.11617301,0.04184758,0.24680674,-0.48677263,-0.3681029,0.20805368,-1.3828012,-0.6419308,0.13890637,-0.6831607,-0.29536626,0.17345169,-0.0023588985,0.4493029,0.39955905,0.0018685954,0.09755717,0.44277382,0.3742129,0.6281104,0.47601524,0.6623328,-0.22538024,0.32664862,0.90499794,-0.5326773,-0.5899002,0.47862014,-0.076096974,-0.31894928,-0.057237927,0.45275325,0.26199973,0.29458565,-0.6121289,0.76710194,-0.6893063,-0.6867151,0.46279004,0.7150477,-0.6769395,0.05773221,-0.8841605,-0.09692599,0.6172762,0.01027593,0.47943616,-0.3932029,1.2609545,0.27769053,0.06830959,-0.25003853,0.032344714,0.46267954,-0.29513425,0.6126516,-0.056139465,-0.116332084,-0.16261338,0.23485683,0.35372612,0.49085948,1.4854739,-0.7985767,-0.7498617,-0.15065739,0.081582785,-0.20767581,-0.03576757,-0.8585291,0.093621284,-0.34608555,0.018441739,-0.20820163,0.25439894,-0.55915904,1.1362458,-0.6019857,-0.17135566,0.016176403,0.05144069,-0.37348503,-0.3020692,0.23247525,0.49272043,-0.22729817,0.6357693,-0.47027153,-0.76844704,-0.004342613,-0.020792153,-0.17181082,-0.095034875,0.41970345,-0.24519457,-0.3724605,0.3211533,0.49861863,0.29315096,0.2726557
source_dataset:EB3 [Human Burkitt lymphoma],0.059437063,0.40980107,0.7973113,-0.70947593,0.44866207,0.013901046,-0.19261272,0.8342057,-0.09307885,0.20048633,-0.599426,0.36144176,-0.28951567,0.05511948,0.4543899,-0.004006237,0.11467568,-0.13019451,-0.72488475,-0.09505475,-0.47766656,-0.030709406,0.34617335,0.27954826,0.81670517,-0.3774604,-0.11290352,0.13518143,-0.23953831,-0.15853667,0.7680843,-0.24482007,0.62368333,-0.23194219,0.018388513,0.664751,-0.43267497,-0.028468488,0.2557745,0.3605327,0.13300526,0.32915795,0.21896692,-0.038248815,0.71615934,-0.050594784,0.3930233,-0.67317,0.37157595,-0.17378458,-0.22272375,0.7301895,0.85381556,-0.050570413,0.4687848,-0.95763844,0.2972786,-0.16961072,0.29803747,0.24256316,0.24958375,-0.019310832,-0.1157837,0.7116535,-0.22188474,0.50556135,-0.20523801,-0.056537375,0.37950212,0.5115459,0.03923903,-0.066562176,0.8236346,0.5522297,-0.012944614,-0.5027836,0.15060687,1.18925,0.12775087,-0.13069543,-0.85848796,-0.22073531,0.3303014,0.4937341,0.7869167,0.5896232,-0.24105787,1.139497,0.15160346,0.51017725,0.1761974,0.20589924,0.61974615,-0.56397074,0.1945591,0.42143455,0.71996635,-0.78082323,0.0563348,0.33282095,0.51900256,-1.0224829,0.67416054,-0.42023027,0.1237216
source_dataset:SaOS-2,-0.8451962,0.65511733,0.80705154,-0.6219973,0.5543807,-1.1803666,0.38968188,0.09805747,0.8315937,0.6990571,-0.228959,0.080035344,1.0938772,1.401482,0.95708376,-1.3686814,0.019872848,-1.2213959,-1.3052429,0.10599652,-0.8094151,1.0086188,1.1742427,-0.27309865,0.7201038,1.1666186,-0.006905283,-0.652503,0.18232067,-0.642145,1.1625764,-0.1997433,1.6335174,0.4213848,-1.6153322,0.7305085,-0.1266712,0.4299854,-1.1575015,0.7521614,0.3476702,0.5081039,0.5613673,-0.36476904,1.1177181,-0.30030316,0.39684215,0.023479402,0.48578855,-0.34780413,-0.85267603,0.48661628,1.1726357,-1.3213084,1.4009632,-0.66637653,1.2178615,-1.3167183,-0.5431232,1.680684,-0.341287,1.011778,0.22058521,0.7634209,0.38553008,0.44550356,0.948548,-0.7576741,1.5106771,0.5242874,0.5135819,0.2381962,1.4110317,1.3669076,0.043413736,0.029215865,0.6911726,1.0940996,-1.0591677,-0.009259149,-0.7120751,0.4101475,-1.2935878,0.15417942,1.5975674,0.48455545,-0.71584624,1.6513634,-1.0801345,0.9421044,0.46579337,-0.7485992,0.75049967,-0.20492631,0.66086316,0.61123914,0.9805509,-1.2020526,0.17837743,0.45914233,0.4708501,-2.0609627,0.9615771,-1.1240526,0.37059417
source_dataset:LOX-IMVI,0.95528716,-0.14850195,0.1217483,0.49348104,-0.25389186,0.5299867,0.08832767,0.14672476,-0.11478516,0.0064891726,-0.16607663,-0.26973993,-0.82951814,-0.8044544,-0.18279512,0.86420476,0.01387783,1.127806,0.6765478,-0.26167494,0.08483152,-0.69770837,-0.50862646,-0.04714683,-0.34293574,-0.59094995,-0.042216785,0.70683455,0.23179314,0.12301759,-0.3858189,-0.6615709,-0.8310031,-0.024764534,0.4101061,-0.00060017034,0.15215486,-0.12755622,0.6321069,-0.29251763,0.26769355,-0.37571302,-0.10853237,0.3696094,-0.40895063,0.20059007,-0.08800779,-0.45069382,-0.071175635,0.0726437,0.46972805,-0.020724306,-0.25620827,0.4542858,-0.75206244,-0.26191783,-0.61572695,0.58889043,0.5179977,-0.54674786,0.25030947,-0.23457839,-0.22620513,0.20053332,0.026823964,-0.13847248,-0.6502673,0.27861413,-0.16955747,-0.14435028,-0.26526466,-0.02776528,-0.60290146,-0.3212507,0.02213683,-0.1490837,-0.401497,-0.2866133,0.0686688,-0.11101645,0.3643261,0.41044816,0.6459664,0.5011346,-0.56966656,-0.07793073,0.2731473,-0.42057413,0.58818126,-0.69774467,-0.11633442,0.4615121,0.06610434,-0.041007243,0.3665549,-0.4040393,-0.010937259,0.5475342,-0.542828,-0.48769253,-0.43308768,0.31110373,-0.53417546,0.36100623,-0.3941388
source_dataset:HuCC-T1,0.6257664,-0.2875424,0.2616461,0.44040227,-0.38640836,0.7448221,-0.09619011,0.2619806,-0.3458135,-0.20231096,-0.16066642,0.04257262,-0.87529707,-0.6375959,-0.06832812,0.5620147,-0.15613672,1.0072786,0.613521,-0.24208146,0.63977665,-0.7191505,-0.51166403,-0.019812517,-0.31350213,-0.9635163,-0.30343476,0.76276356,-0.19486159,0.12337464,-0.32063043,-0.5525383,-1.0718333,-0.3909804,0.6501024,0.0068622082,-0.2066777,-0.4720484,0.7518979,-0.054478746,-0.04811419,-0.07233016,0.19276223,0.2202396,-0.38747674,0.47186264,-0.21315235,-0.35450006,-0.0036812332,-0.052323796,0.59820426,-0.07108621,-0.15401441,0.6056214,-0.725935,-0.39941525,-0.5543931,0.3278529,0.4700054,-0.42917472,0.5298327,-0.36094046,-0.07703501,0.2515931,-0.123843744,-0.0567422,-0.671873,0.010157348,-0.37498543,-0.21843669,-0.65213555,-0.13943999,-0.33261344,-0.4975072,0.15814921,-0.6217395,-0.58359855,-0.06947979,0.17308298,-0.3963768,0.58245134,-0.022398189,0.7323352,0.713445,-0.7502352,0.1689621,0.75971204,0.0036204532,0.9607462,-0.8242919,-0.042749856,0.465074,-0.0036500758,-0.23273464,0.010653123,-0.21238065,-0.036995325,0.2505941,-0.36932954,-0.38888678,-0.37070942,0.1849167,-0.38106278,0.36067608,-0.43831202
source_dataset:KM12,0.6514434,1.2989451,0.6530758,-0.40383014,0.8656584,-1.0513575,0.7124492,-0.5844739,0.48644933,0.84201926,0.03496833,-0.4005713,-0.013212185,-0.59399253,0.08022854,0.66840553,1.1177033,0.4190634,0.6397974,0.6181261,-1.314315,-0.46246028,1.1015904,0.17450844,-0.2372012,0.8468708,0.76068646,-0.06069168,0.79880905,0.16186073,-0.13808295,-1.0498042,0.46253467,1.4903663,-0.9057698,1.2055817,0.84506345,1.6233155,0.098225065,0.18340565,1.9088621,-0.67406476,-0.18619967,0.60233665,1.039624,-0.6746587,0.45218182,-0.84257615,0.30805245,0.5551076,-0.10921414,0.6638832,0.91643274,-0.52554804,0.80255985,-0.6940538,-0.7902796,-0.10223808,-0.31716275,-0.043971196,-0.29906476,-0.18635508,-1.6695849,1.2200129,1.0420117,-0.75528806,0.34616616,0.16938868,1.7581741,0.6859721,0.18881176,0.82620656,0.5586473,1.036108,-0.6584542,0.2697394,0.55102575,-0.1795111,-1.2495377,0.67291456,-0.6046302,1.0424291,-0.054267168,0.84117895,0.5513844,-0.6044498,-1.035568,0.28874314,-0.7298775,1.1701627,0.6881785,0.3740207,0.044802174,-0.669594,1.2583023,0.18020996,0.66214603,0.34158066,-0.27220428,-0.67844677,-0.5571374,-0.09291881,0.020031635,-0.045983456,-1.0830206
source_dataset:Caki-1,-0.83781374,0.984429,1.1507826,-0.94332594,0.39103168,-1.149042,-0.071643725,-0.030676369,0.72473866,0.42205542,-0.44851053,0.7126698,0.6690513,1.185704,1.24541,-0.21820545,0.015331082,-0.9259137,-1.5893474,-0.04054308,-1.0015752,0.45041972,1.6335008,-0.46014482,0.72203726,1.0202749,-0.28623846,-0.6803772,-0.2540691,-0.60332966,1.0412288,-0.25828776,0.92304945,0.48484233,-1.112662,1.7712247,-0.101079464,0.5209823,-0.42066723,1.0253073,0.49414802,0.3414572,0.6364087,0.27151215,1.1570604,-0.39171556,0.0160053,-0.32590812,0.054186203,-0.58225954,-0.49225307,0.5635714,1.7767493,-1.0845724,1.586934,-1.1245453,0.57850766,-0.952652,-0.9173666,1.1912463,-0.29621267,0.36235535,-0.41450402,1.0208191,0.29413876,-0.1286122,0.27775955,-1.2274305,1.6772019,0.88966346,0.1301119,0.6559132,1.9559486,1.6968062,0.18797836,-0.14696142,0.77641314,1.2118001,-1.2631845,-0.15898593,-0.67265373,-0.2938573,-0.9272312,0.5006639,1.0542277,0.4024771,-0.7645927,1.8462024,-0.6060283,1.2257198,0.5671341,-0.21425809,0.6071958,-0.4551786,0.41479015,1.3576099,1.2086093,-0.85549766,0.48320234,0.6842687,0.8036959,-1.8886629,1.0889412,-0.778697,0.30412596
source_dataset:NCI-H841,0.7130609,0.91328,0.1777367,0.16148916,0.45265132,-0.53971326,0.9308734,-0.1990357,0.43972337,0.5985732,0.072696105,-0.77386475,-0.26359472,-0.5914255,0.12824541,0.7058409,0.7244359,0.44818553,0.6110861,0.2791322,-0.6933335,-0.5434875,0.7225952,-0.0049236324,-0.18522276,0.4275516,0.34478962,0.25186005,0.64680827,0.10842316,-0.12610844,-1.2724214,0.23546602,1.1761125,-0.4060293,0.796191,0.69281286,1.1495746,0.18906935,0.2893321,1.3255483,-0.5070678,-0.21161082,0.50728863,0.6314697,-0.47297746,0.25906706,-0.80215913,0.324198,0.38181743,0.1195142,0.6477851,0.5857249,-0.16481324,0.24240012,-0.67460734,-0.75734186,0.3011305,-0.05026326,0.012914266,0.17556077,0.0066920817,-0.8310671,1.0037909,0.6740532,-0.4528834,0.17317982,0.25416404,1.2669624,0.12977922,0.035880465,0.5776539,-0.81065917,1.1758306,-0.6827297,0.443415,-0.07402317,-0.12897718,-0.8413116,0.65600824,-0.4041116,0.58858466,0.15632732,0.57172996,0.2453631,-0.35169005,-0.59149843,0.31181073,-0.4288456,0.37717217,0.41128325,0.361576,0.09761301,-0.5786488,1.0094632,0.11574184,0.51124454,0.4430631,-0.410551,-0.75069827,-0.48614466,-0.039852995,-0.021703603,0.16382311,-0.7217697
source_dataset:L-540,0.61634594,0.6684246,0.40663862,-0.014291374,0.36444175,-0.31835923,0.49411318,-0.3051953,0.38992065,0.52972037,-0.042600803,-0.6202894,-0.3052454,-0.62171453,-0.013394076,0.6529715,0.53949696,0.60964996,0.3969991,0.20149922,-0.8254236,-0.46673098,0.47842348,-0.03133438,-0.111894414,0.37195015,0.43227866,0.3636266,0.70443296,0.09100143,-0.09643803,-0.8355541,0.065763794,0.7780577,-0.3260324,0.8422331,0.68721104,1.0319833,0.23644035,0.06935488,0.93851423,-0.64041895,-0.23209634,0.6170849,0.34351814,-0.6391948,0.34204227,-0.66341376,0.19849637,0.32312876,0.155478,0.4353338,0.4072161,-0.10076385,0.053997643,-0.48700428,-0.6000613,0.15671502,0.17005701,-0.26217955,0.1611342,0.08660346,-1.0925349,0.87673557,0.4066077,-0.35743654,0.01563523,0.3282181,0.9179987,0.30045134,0.26092422,0.49581653,-0.09662648,0.5667102,-0.6358657,0.23473702,0.28427938,-0.1364801,-0.68532574,0.5870505,-0.30702057,0.60369503,0.08390817,0.2999947,0.1631701,-0.18203214,-0.61040914,0.13203453,-0.32635623,0.46809846,0.22909708,0.35152435,0.06428562,-0.4337952,0.6834103,-0.2540908,0.51576126,0.4612904,-0.4414325,-0.40336016,-0.48555806,-0.023936149,-0.118373446,0.14653198,-0.8606397
source_dataset:NCI-H211,-0.2243816,0.31656888,0.3030386,-0.65997773,0.56049,-0.68302953,-0.26779693,0.30833706,-0.11217941,-0.008670127,-0.44475174,-0.06742407,0.2209351,0.56825423,0.25085458,-0.49318248,0.36117607,-0.61745596,-0.6008921,0.42333207,-0.26674747,0.5666694,0.51619625,0.4482283,0.8803034,0.20701936,-0.14033982,-0.04569131,-0.2206384,0.14524971,0.38873765,-0.047104675,1.2256489,-0.26525825,-0.5494655,-0.046120122,-0.647047,-0.13363768,-0.4806108,-0.0030732378,0.20696181,0.53067744,0.36744863,-0.55147344,0.8964884,0.16714126,0.56068826,-0.7303143,0.34801316,0.054018907,-0.02120687,0.5548954,0.35880503,-0.24912821,0.50978476,-0.14417836,0.6515393,-0.728461,-0.007398255,0.8680803,-0.1256431,0.45711163,0.3109835,0.3001165,-0.037801813,0.56249386,0.8444575,0.19293196,0.035996452,0.26997793,0.15660612,-0.05678897,0.51835763,0.6574699,-0.08055802,-0.3362805,-0.22501859,0.91096544,-0.09897883,-0.39752567,-0.72256655,0.5136781,-0.19481994,0.4704352,1.1257364,0.6329503,-0.40894923,0.6748852,-0.10197174,0.5589359,0.5931672,0.25815693,0.08823231,-0.015084967,0.39244923,0.08940381,-0.024362095,-1.1131136,0.18021184,0.2600309,0.32632375,-0.88761806,0.8625772,-0.5563036,0.39633593
source_dataset:PA-1,0.41603196,-0.059589833,0.3216591,0.66311526,-0.5298797,0.68606716,-0.028815301,0.38445377,-0.21859537,-0.17597131,0.02286853,-0.07363661,-0.7891946,-0.34024012,0.23325108,0.24057895,-0.34567192,0.86886084,0.21638256,-0.30117613,0.39566875,-0.6518169,-0.28673577,-0.34954032,-0.15131897,-0.5559318,-0.1615311,0.5861762,0.051546223,0.13616055,-0.26054963,-0.63657683,-1.0439508,-0.1373753,0.3573974,0.28836465,0.032313965,-0.3145001,0.7600656,-0.073972166,0.13922848,-0.21419407,-0.027680112,0.4720841,-0.31165677,0.1267391,-0.35441566,-0.601021,-0.04298065,-0.14611083,0.42867878,-0.1469383,0.23307861,0.8465825,-0.46640587,-0.42592186,-0.53598535,0.044945717,0.33390114,-0.33255178,0.6709362,-0.26737154,-0.18229206,0.2654451,-0.07218083,-0.05236324,-0.62058884,0.16538997,-0.4588005,-0.6529751,-0.6513686,-0.11322228,-0.31370738,-0.37241036,0.110987775,-0.32908934,-0.6273292,0.046288352,0.10140313,-0.2441531,0.6489292,0.4076907,0.21807587,0.561738,-0.5713919,0.16938545,0.7764021,0.09748428,0.6799497,-0.76659197,-0.13652891,0.14332095,0.059499066,-0.037801906,0.11912751,0.0408075,0.07736129,0.17862575,-0.28032398,-0.27535778,-0.32183295,0.09792985,-0.0571402,0.3290673,-0.3683164
source_dataset:NCI-H28,0.12034826,-0.15822905,-0.20043391,1.0494902,-0.58048177,0.07952316,0.28442657,-0.22083312,0.018016577,0.10444676,0.09473597,-1.1754948,-0.34543675,-0.23782179,-0.34259206,0.17158227,-0.018033955,0.47146773,0.7892255,0.4870933,0.298897,-0.10367595,-0.2962187,-0.029553302,-0.06729946,0.08780686,0.6708114,0.28592908,0.94268787,0.3783661,-0.36619988,-0.41287345,-0.21007214,-0.10799905,-0.13978335,-0.39787284,0.2530969,0.66552323,0.13595058,0.073884115,0.4794763,-0.24467951,-0.36985296,0.31839886,-0.026856128,-0.26606113,0.154403,-0.5456839,0.30574918,0.32718426,-0.13241245,-0.11355745,-0.6777681,0.5485349,-0.46654478,0.29288262,-0.22010379,0.11886075,0.3546165,-0.2374644,0.49942052,0.3060682,-0.004843259,-0.1456104,0.5010331,0.0754329,0.18288937,0.71905583,-0.25200722,-0.6537854,0.1808773,-0.15155493,-1.1450788,0.23158376,-0.2966886,0.20156093,-1.1693771,-0.45590928,-0.15206553,0.4730763,-0.06514764,0.76776814,-0.5908948,0.1259652,-0.28786394,-0.23804021,-0.15490903,-0.6307768,-0.38521352,-0.29250857,-0.12111676,-0.0807907,-0.34946314,-0.17656402,0.3769466,-0.7436592,-0.7391368,0.3337912,-0.42935842,-0.6358487,-0.92168033,0.46384043,-0.13298914,0.00017289817,-0.5669991
source_dataset:A-704,-0.42608866,-0.3078723,0.07731176,0.03610333,-0.18697521,-0.43395767,0.4028496,0.021340381,0.73107696,0.68020326,0.036363337,-0.26807177,0.95656943,1.1051321,0.6851841,-0.27911592,-0.68050224,-0.9379045,-0.57792515,-0.27472737,-0.17915285,0.7563249,0.005634742,-0.6522109,0.10430677,0.8982482,0.31042153,-0.33983105,0.58357763,-0.62264967,0.64781094,0.24272494,1.1867623,0.38295245,-0.9007181,-0.3425321,0.33364388,-0.07753302,-1.2127831,0.5164987,0.32179773,-0.24678715,0.061986092,-0.18016802,-0.10282699,-0.215404,0.44622806,-0.38051957,0.240642,-0.51810026,-0.5489216,-0.22559595,0.024770029,-1.4191309,-0.035318673,-0.10174775,1.3756552,-0.8381166,0.06504894,1.233371,-0.15196496,1.3477793,0.83143365,0.1562683,0.2489198,0.531733,0.6497215,-0.4147539,0.32930002,0.14206538,1.064504,0.07592209,0.50686103,0.6125016,0.20254499,0.13519448,0.37321988,0.26875085,-0.3903002,0.29360592,-0.5076418,0.31030163,-1.2314657,-0.47656584,0.49655515,0.55457675,-0.6671674,0.649184,-0.6721754,-0.009585254,-0.20319779,-0.7505815,0.64236253,0.6277364,0.23987806,-0.30070168,0.47209224,-0.72497,-0.4444617,0.7576294,0.37106138,-1.3613573,0.059395775,-0.8220133,1.0547061
source_dataset:NB(TU)1,0.52075213,-0.17900527,0.40918714,0.9044126,-0.7454545,0.71427053,0.025333522,0.27412286,-0.16605975,0.09309407,-0.014224742,-0.43399885,-0.47053397,-0.17126328,0.3281086,-0.0950113,-0.5006258,0.9182668,0.34113875,-0.24788585,0.41388288,-0.54442495,-0.23671266,-0.6459164,-0.33927143,-0.37614205,-0.04577031,0.59543526,0.4137408,0.002787426,-0.18016165,-0.5155827,-1.1387544,0.19283,0.26321375,0.14650366,0.47845185,-0.04156405,0.58901966,0.32657015,0.01156652,-0.1230903,-0.043731716,0.45730686,-0.5852295,0.048758194,-0.43460405,-0.4261818,0.26146498,-0.1801078,0.22674692,-0.3862851,-0.055139285,0.6372842,-0.5757226,-0.34452617,-0.39662862,0.314503,0.2555824,-0.13931137,0.81539816,-0.007329868,0.37865058,0.47321486,0.2653679,-0.18394476,-0.7045777,-0.12622133,-0.23187542,-0.6072501,-0.37812233,-0.2705341,-0.39746246,-0.253253,0.32509184,-0.29012427,-0.6602621,-0.114650905,-0.06661846,-0.066780224,0.7558731,0.15805261,-0.013960242,0.5457989,-0.57808816,0.06678048,0.7571018,0.06573749,0.1562644,-1.0271069,-0.24116503,0.0016804431,0.2596662,0.17776313,0.15749906,-0.076029874,0.10881605,0.16922805,-0.67473364,-0.21658523,-0.46223855,-0.0017505949,-0.26290852,0.11470902,-0.58049655
source_dataset:Kelly,0.69080484,-0.4380145,0.13846792,0.64160603,-0.63286036,1.0998629,0.15744042,0.45519504,-0.038198143,0.012569485,-0.16220419,-0.049490057,-0.66291,-0.54341894,0.14202031,0.51754415,-0.5582973,0.7373153,0.32225406,-0.6207395,0.42041332,-0.66036475,-0.83259094,-0.42041123,-0.32932702,-0.67096525,-0.080633216,0.6676082,0.030801656,-0.11649365,-0.08658786,-0.4905354,-0.7965205,-0.3124314,0.35998264,-0.08652973,-0.04870139,-0.6189424,0.5218155,0.1725536,-0.020503562,-0.34062788,0.046315107,0.25402522,-0.7320437,0.18651405,-0.08088113,-0.33337432,-0.1488906,-0.26355833,0.3356512,-0.15932445,-0.20095436,0.49661934,-0.5857781,-0.3467682,-0.18837667,0.48980346,0.717338,-0.26199442,0.68788785,-0.06357038,0.14929354,0.2153117,-0.21957597,0.12712695,-0.73661524,0.21037817,-0.45484743,-0.36678508,-0.2396656,-0.22724469,-0.15641825,-0.46665806,0.24739844,-0.38776356,-0.46962652,-0.014567321,0.4124821,-0.20090169,0.57672215,0.444197,0.48565048,0.27511036,-0.5641731,0.31685534,0.60194534,0.10067193,0.67969024,-1.1342564,-0.44106126,0.24995446,0.42341053,0.14521214,-0.05961143,-0.23192303,0.21671982,0.034887,-0.55882,0.06299648,-0.051765878,-0.0762978,-0.33669734,0.081400335,-0.3450622
source_dataset:A-673,0.7465805,-0.28001776,0.26465502,-0.054352272,0.24788779,0.74948126,-0.7112729,0.56168,-0.83171576,-0.31684664,-0.70449376,0.48723754,-1.1096318,-0.7246339,-0.41996655,0.6571159,0.027868371,0.77204204,-0.30564964,0.15824461,0.36615476,-0.36133093,-0.5551237,0.66694146,0.43866664,-1.5009198,-0.22565962,0.78907114,-0.12638183,0.117515974,0.2918546,-0.22739519,-0.54476506,-1.0158788,0.8610401,-0.4288119,-0.8875467,-0.6117337,0.37669668,-0.21679743,-0.4883966,0.6223743,0.24149644,-0.40153098,-0.13576381,0.73197114,0.15338641,-0.49949458,0.21946102,0.09094338,0.41914257,0.42979094,-0.43186918,0.7510644,-0.8810536,-0.24453703,-0.1305018,0.42601037,0.96631527,-0.5250487,0.5058716,-0.6257963,-0.06292157,0.15119682,-0.6575268,0.5386088,-0.5376388,0.22834122,-0.5799308,0.52833736,-0.30287448,-0.45766938,0.1486524,-0.73724204,0.32439783,-0.93436867,-0.46434453,0.20893419,1.02437,-0.59958833,-0.13060349,-0.17259899,1.2121398,0.73491085,-0.31589735,0.5632473,0.22876994,0.056602307,1.0231357,-0.17081593,0.13453633,0.6182048,0.038634993,-0.2303583,-0.16614297,-0.47805622,-0.024207618,-0.38684624,0.061390184,0.20662096,-0.06534504,-0.09912199,-0.12776133,0.2759643,-0.21363439
