,E0,E1,E2,E3,E4,E5,E6,E7,E8,E9,E10,E11,E12,E13,E14,E15,E16,E17,E18,E19,E20,E21,E22,E23,E24,E25,E26,E27,E28,E29,E30,E31,E32,E33,E34,E35,E36,E37,E38,E39,E40,E41,E42,E43,E44,E45,E46,E47,E48,E49,E50,E51,E52,E53,E54,E55,E56,E57,E58,E59,E60,E61,E62,E63,E64,E65,E66,E67,E68,E69,E70,E71,E72,E73,E74,E75,E76,E77,E78,E79,E80,E81,E82,E83,E84,E85,E86,E87,E88,E89,E90,E91,E92,E93,E94,E95,E96,E97,E98,E99,E100,E101,E102,E103,E104,E105,E106,E107,E108,E109,E110,E111,E112,E113,E114,E115,E116,E117,E118,E119,E120,E121,E122,E123,E124,E125,E126,E127,E128,E129,E130,E131,E132,E133,E134,E135,E136,E137,E138,E139,E140,E141,E142,E143,E144,E145,E146,E147,E148,E149,E150,E151,E152,E153,E154,E155,E156,E157,E158,E159,E160,E161,E162,E163,E164,E165,E166,E167,E168,E169,E170,E171,E172,E173,E174,E175,E176,E177,E178,E179,E180,E181,E182,E183,E184,E185,E186,E187,E188,E189,E190,E191,E192,E193,E194,E195,E196,E197,E198,E199,E200,E201,E202,E203,E204,E205,E206,E207,E208,E209
source_dataset:L-540,-0.7137253,-0.3756866,-0.6148294,0.68415684,0.54730964,0.23402664,0.007373348,-0.07527676,-0.21432254,0.84364104,-0.018581778,0.8180604,0.7431749,0.077305004,-0.13898581,-0.90725523,-0.50210315,-0.8512414,0.46702078,-0.23626012,-0.28456512,-0.7370147,-0.5165629,-0.53219086,-0.6029886,-0.8215239,-0.08052343,0.081917286,-0.1920105,0.03147167,0.6055478,-0.28868634,-0.9360385,0.45030603,0.10183256,0.104139,0.29423165,0.71088696,0.37647533,-0.6683942,-0.19799685,0.3555215,0.20000327,-1.0608708,-0.93506384,-0.099654496,-0.40324125,0.75665355,-1.3068445,-0.5966372,-0.0077032,-0.074789226,0.31571588,0.11640076,-0.27334964,0.9647694,-0.7061053,-1.1463833,0.24729082,-0.26018944,-0.8891355,1.1470925,-0.28812957,-0.036664143,-0.022917405,0.517371,0.7433108,-0.81935424,-0.30479348,-0.5327837,0.050439954,0.8714961,0.13033009,-0.41964227,-0.70685035,-0.2283158,0.25446227,0.49441883,0.2746382,0.6043148,-1.2191471,-0.65945303,0.10009687,-0.53207207,-0.591822,0.5854868,-0.37170315,0.21723583,-0.9382837,-0.0984339,0.22402287,0.035745524,-0.09745455,-0.58722717,-0.7355712,-0.605543,-0.2484972,-0.8723718,0.27989867,0.33086306,0.20735805,0.5758817,-0.42818612,0.47247112,-0.3620695,0.14801228,-0.5665181,-0.28505024,0.17037915,0.70433,-0.65173435,-0.26688093,-0.33831006,-0.3014011,-0.5980386,-0.7390683,-0.0016943514,-0.07753162,0.13529657,0.37975717,-0.59379566,-0.1502644,-0.17786357,-0.3109955,-0.04953164,0.4016113,0.2424542,-0.7922394,0.121068515,0.27654302,0.8510847,-0.54629886,-0.64853454,0.5804605,0.07865538,-0.53757614,-0.0600752,0.2626031,0.5008806,-0.39002758,0.79672927,0.61810493,0.094597556,-0.13953194,0.23312742,-0.011656553,-0.33483362,-0.15020685,-0.3872509,-0.11234748,-0.11382271,-0.14271082,-0.3314136,-0.057336345,-0.16925484,-0.12010364,0.19452234,-0.19684185,0.60416013,0.3912863,-0.20681441,0.43072698,-0.68810785,-0.5816927,-0.5292556,0.021986455,0.16836068,-0.8209959,-0.6741637,0.38536453,0.08936149,0.2200734,0.3410477,-0.26126423,0.4813255,-0.1252143,0.5435285,-0.42327112,0.5810299,-0.28604838,0.47128022,0.71455264,0.09887576,0.2352096,0.54195654,0.6080075,-0.08388586,-0.039212465,-0.15680003,-0.07354884,0.6361414,-0.26908827,0.018101364,0.03872966,0.18153211,0.16353357,-0.3988553,0.029141828,0.30852515,0.34091932,0.019022956,-0.3525983,0.47140184,-0.08946419,-0.5630019,-0.048619427,-0.18978141,-0.031332314,-0.2192519,0.36240715
source_dataset:NCI-H841,-0.637108,-0.26162407,-0.29534626,0.6095133,0.33665422,0.30146527,0.049452275,0.052015305,0.058398664,0.63572884,-0.11827353,0.7123031,0.5795089,0.030059725,-0.19588667,-0.66160464,-0.23416018,-0.6766339,0.42825422,-0.14836836,-0.36355162,-0.3816707,-0.3703553,-0.19191103,-0.25125822,-0.65070784,0.11437431,0.20920993,-0.03722869,-0.16104618,0.22844458,-0.22608057,-0.5405843,0.3902822,0.11905396,0.22204374,0.17748086,0.45682186,0.3253528,-0.5611382,-0.30150884,0.11314723,0.2715885,-0.7974589,-0.74742824,0.053390935,-0.16555774,0.62751406,-0.88407326,-0.52284276,0.0697974,0.15016988,0.27056822,0.09055035,-0.09243217,0.76382506,-0.5894021,-0.7121803,0.23956373,-0.25788686,-0.61514926,0.7387402,-0.08800459,0.029275864,-0.04061319,0.2515193,0.59857917,-0.5907574,-0.21334997,-0.2405577,-0.018009394,0.6979278,-0.016931415,-0.3180912,-0.51375526,-0.25774136,-0.0830532,0.42638218,0.23851162,0.13845319,-0.7986032,-0.15677872,0.09235555,-0.25195903,-0.4710573,0.26654476,-0.1962913,0.12171922,-0.6431582,-0.08843897,0.15820488,-0.031040695,-0.016382568,-0.43320704,-0.37160903,-0.31257844,-0.17248513,-0.7309265,0.23747112,0.23771247,0.011454269,0.54251707,-0.3239261,0.4146378,-0.12997712,0.47774965,-0.38140282,-0.1795764,0.36616692,0.29754826,-0.31871676,-0.056225583,-0.3789326,0.07771517,-0.34420842,-0.6786946,-0.35133946,-0.17421095,0.3122341,0.36831605,-0.33655995,-0.20804317,-0.04611818,-0.4280202,0.1012734,0.3242365,0.23180172,-0.6646031,-0.058134787,0.1704452,0.36871096,-0.3811051,-0.38440657,0.20481026,-0.058732897,-0.096086815,0.040048406,-0.11221301,0.4262411,-0.30680662,0.56306803,0.28499466,0.27832717,-0.19906536,0.122742794,0.14658704,-0.18940413,0.108316414,0.013085149,-0.0016190559,0.14169614,-0.087051496,-0.31136575,0.1684021,-0.15720126,-0.11211263,0.08458814,-0.19024007,0.36074406,0.15265377,-0.14988694,0.54634863,-0.38141617,-0.4121412,-0.3355753,-0.06453419,-0.16977468,-0.48236313,-0.32882366,0.3009796,0.2777864,0.37043256,0.3755209,-0.12055824,0.37154114,-0.37830108,0.41363227,-0.46936056,0.436849,-0.06252186,0.02314686,0.50518274,-0.25834435,0.3209106,0.15582973,0.42598546,0.025568511,0.16929975,0.3445555,0.30945635,0.4308418,-0.07389976,0.3146968,0.19993275,0.40364677,0.15519655,-0.20995083,-0.2534355,0.019630454,0.40798798,0.14057863,0.004519455,0.40998906,0.10970807,-0.3865857,-0.045282863,-0.0391656,-0.26266375,-0.09303988,0.07372525
source_dataset:CTB-1,-0.36680257,-0.3499927,-0.34849393,0.26964903,0.4105524,0.4223462,0.029657327,0.30330163,0.054797083,0.59254706,-0.26560587,0.51559335,0.19828221,-0.25587243,-0.09772156,-0.94146967,-0.17016992,-0.39747167,0.2640303,0.08523108,-0.29097492,-0.5329529,0.036745533,-0.41589165,-0.20764247,-0.71597433,0.3177522,0.11141223,-0.27914524,-0.2973528,0.5341623,-0.054460123,-0.6928236,0.18888512,0.3616758,0.17396191,-0.16499005,0.51454186,-0.042265117,-0.2599343,-0.25860155,-0.04724674,0.11658661,-1.0218894,-0.7372265,0.09003857,0.05958408,0.44543242,-0.8497851,-0.29558405,0.3847232,-0.06523621,0.46335363,0.11040529,-0.33015302,0.7249897,-0.12541242,-0.92137414,0.4025066,-0.42063254,-0.4436879,0.95632976,-0.29671443,0.041833296,-0.24531092,0.5314321,0.6128296,-0.6248078,0.02349335,-0.1787915,-0.31164432,0.6311719,0.23399287,-0.25144592,-0.2049082,0.011086732,0.21305838,0.26587737,0.19271958,0.3099873,-0.9334581,-0.35581204,0.43780708,-0.34021437,-0.39955145,0.1615871,-0.37669575,0.07774747,-0.6094496,0.17557427,0.19180866,0.23757367,0.039409902,-0.19686067,-0.37630737,-0.23185296,-0.49050468,-0.785413,0.2157268,0.44231507,0.095147625,0.35902599,-0.5859368,0.26153955,-0.23961337,0.088039815,-0.21750978,-0.29097143,0.24097231,0.36823428,-0.9058392,0.017222404,-0.38646883,-0.8241403,-0.048541855,-0.058133096,-0.32155323,-0.024273783,-0.1649793,0.88915634,0.24334413,0.10765566,-0.7994943,-0.2678664,0.30091828,0.23311989,0.30459836,-0.2193963,-0.39803806,0.42896008,0.048679918,-0.57412314,-0.4278382,0.689724,-0.32050085,-0.6324544,0.6795163,0.57109344,0.8809647,-0.8912712,-0.0915758,0.15977973,0.3441571,0.17456949,0.9140436,0.041858405,0.32832047,0.4422663,-0.84859186,0.25264668,-0.8495915,-0.6430769,-0.83044654,0.33138588,-0.1065397,-0.8256917,0.8337084,-0.70306796,0.448385,0.90703416,-0.75202435,0.44319335,-1.000269,-0.5101744,0.28173333,0.50447834,0.64074934,-0.40503988,-1.1920063,0.5061349,0.41446453,0.35496762,0.23464873,-0.42755327,0.32826585,-0.01463075,-0.060203105,-0.48941708,0.72731024,-0.05962558,-0.048317313,0.6909373,-0.1516344,0.34506762,0.56316096,0.44980276,-0.24696578,-0.5142915,0.07819255,-0.6998091,1.1097618,0.5517414,0.36282885,-0.52967536,0.31358573,0.32722193,-0.02007033,0.46552098,-0.6285191,0.9537999,-0.5356942,-0.37634173,0.13825507,-0.3174087,-0.39658588,-0.4595701,-0.38968116,-0.24132968,-0.7393712,-0.071788065
source_dataset:LOX-IMVI,-0.28416356,-0.12795618,0.06393422,0.4847075,0.17359465,0.522347,0.042617816,0.3109398,0.043427944,0.31353813,-0.17238522,0.28470945,0.48079884,-0.1898659,-0.34113652,-0.46186972,0.044388622,-0.4800039,-0.045843795,0.34499294,-0.22714433,0.20229994,-0.052129894,0.063153476,0.27609605,-0.71584344,0.28234988,0.2505713,0.28737828,-0.44116333,0.19471273,-0.041790366,-0.54291856,0.2058862,0.19641778,0.19265823,-0.28988028,0.4316873,0.13646181,-0.6215037,-0.5316472,-0.17706022,0.31611603,-0.36980727,-0.43991926,0.35209748,0.085717745,0.38031253,-0.6851305,-0.19224615,0.26943824,0.13127929,0.12799342,0.065730035,0.1749388,0.44828036,-0.20067373,-0.49578086,0.5292229,-0.22760001,-0.47523332,0.6967839,0.0026793033,0.08307577,-0.31640556,0.16975856,0.6663023,-0.35179588,-0.06285587,0.20274395,-0.589051,0.44182032,-0.22810417,-0.14598759,-0.19138563,-0.38948536,-0.15342015,0.18456301,0.066974744,-0.18311568,-0.61267096,0.082829535,0.27410433,0.1824731,-0.23970059,-0.21888694,-0.4299734,-0.3429109,-0.5053935,0.0059550814,-0.09276074,-0.23350568,0.071568154,-0.22225809,-0.15899558,0.30092877,-0.35157952,-0.2401676,0.19756283,-0.18219519,-0.18669629,0.6486313,-0.18436702,0.2789727,0.20860395,0.3872065,-0.28636807,0.042005047,0.31394932,0.20609748,-0.49916208,0.19453153,-0.3072629,-0.23978706,0.03148379,-0.16405079,-0.5085416,-0.24005234,0.080042385,0.41740692,-0.12967135,-0.057969153,-0.23087716,-0.4067021,0.3190953,0.31816387,0.103120565,-0.17180914,-0.055410333,0.18974644,0.12260635,-0.26499504,-0.33897698,0.26177123,-0.08492761,-0.24048081,0.060995683,-0.017587677,0.4971496,-0.31402662,0.08275905,0.27755284,0.17317864,0.19952464,0.24669147,0.2612945,-0.1663632,0.33138263,-0.23320565,0.33505797,-0.25944522,-0.3742285,-0.27502728,0.38829485,-0.2624925,-0.4971757,0.14987898,-0.35928726,0.20469405,0.5301242,-0.26279047,0.4748817,-0.3796752,-0.27968675,0.0522566,-0.13433743,-0.07264002,-0.30685636,-0.58129203,0.21119073,0.39292055,0.46076536,0.3165428,-0.1677351,0.05325503,-0.19464052,-0.021852642,-0.45865446,0.31775203,0.12284091,-0.011351272,0.23994574,-0.28705174,0.43060303,0.274747,0.31817943,-0.0008494258,0.056542605,0.33131874,-0.03868936,0.54230493,0.17616597,0.3969039,-0.123647206,0.29400688,0.48915964,0.16112971,0.057850257,-0.30560666,0.33923182,-0.12892321,-0.16672587,0.25249326,0.083704785,-0.28800088,-0.17627881,-0.164368,-0.30445665,-0.1415214,-0.23491825
source_dataset:GaMG,-0.5969982,-0.36339724,-0.04403211,0.5849568,0.26882267,0.34718207,0.06482327,-0.11121991,0.16471799,0.60499716,0.11945462,0.17680141,0.55959743,-0.64891887,-0.014976978,-0.29088694,-0.20227808,-0.5280174,-0.25632602,0.49271077,-0.0035714805,0.31208915,-0.07528245,0.16195372,0.06291637,-0.4284922,0.08556989,0.35261622,0.5157403,-0.05391425,-0.015882373,-0.4166213,-0.42026845,0.4919025,-0.24140103,0.27972704,-0.47615552,0.2394386,0.23787302,-0.58544135,-0.34511697,0.062356114,0.048825458,-0.041730523,0.09425461,0.23950754,0.0146903545,0.283091,-0.75189483,-0.5268244,0.05012171,0.29879957,0.42909932,0.26331627,0.48996323,0.2796056,-0.4336623,-0.13515386,0.41647938,-0.31214052,-0.501814,0.8017813,0.36528957,0.3778454,-0.4867953,0.20503423,0.44539487,-0.44332904,0.30347812,0.23510186,-0.759644,0.4391889,-0.5461314,0.0316402,-0.07394571,-0.64072984,-0.38716823,0.22721888,-0.1500907,-0.06747374,-0.6446365,0.08857623,0.10714448,0.40689993,-0.019393742,-0.00927569,-0.42979434,-0.2862929,-0.7075728,0.420544,0.11756861,-0.18406841,-0.22764225,-0.5782145,-0.001043953,0.17960066,-0.35860017,-0.10582289,0.57311565,-0.26871917,-0.19883424,0.418111,0.20123203,0.523885,0.6657722,0.386,-0.2982369,0.030991133,0.40668517,0.27493355,-0.3636831,0.10767153,-0.35336995,0.050910253,-0.05841011,-0.3925302,-0.4737144,-0.30871943,0.29963323,0.32580358,-0.46038908,-0.19267309,0.088465765,-0.5028362,0.17815015,0.37287146,0.115244776,-0.30543238,0.13954987,0.0793005,0.33127218,-0.2612195,-0.4197387,0.1278274,0.12849823,-0.23156226,-0.23802605,-0.14098863,0.32568547,-0.13080794,0.3464471,0.29330322,0.19775906,0.11906344,-0.06383707,0.32864657,-0.39835903,0.20862393,0.047255404,0.21872841,0.13671981,-0.236363,-0.066230014,0.27481407,-0.35927528,-0.17395458,-0.14450961,-0.18882902,0.28974432,0.29594436,-0.04374501,0.5151715,-0.2681609,-0.29355788,-0.2604869,-0.24275702,-0.36156932,-0.44464284,-0.32096466,0.09155062,0.3704921,0.5012727,0.44884634,-0.0473929,0.071904734,-0.37117139,0.28038055,-0.53312606,0.14315407,0.10516905,0.031962857,0.23745082,-0.15582341,0.4450553,0.14503406,0.32063243,0.16195774,0.27231988,0.23384418,0.27223587,0.26049873,-0.117033854,0.3308452,0.104155034,0.35819817,0.3944025,0.11537464,-0.10010691,-0.0080896355,0.20984624,0.19750476,-0.18781644,0.41751945,0.16084416,-0.3722859,-0.031376604,-0.077890515,-0.2529014,0.1111166,-0.16905524
source_dataset:NB(TU)1,-0.5985186,-0.43688917,-0.16217645,0.8565247,0.4012436,0.38292283,0.08200075,-0.2947198,-0.299109,0.65113103,0.4156403,-0.21581194,0.96634054,-1.0822684,0.08491495,-0.3052677,-0.5174197,-0.7754713,-1.0263809,1.1176817,0.41225716,0.66130733,-0.014210021,0.12475188,0.013368636,-0.59432936,-0.35973084,0.24149767,0.9405456,0.13115317,0.44621137,-0.5592932,-1.0164876,0.50159585,-0.6150412,0.0211066,-1.0056441,0.5007138,0.35380608,-1.1094973,-0.43141147,0.20091921,-0.10203758,0.5166779,0.597574,0.39277226,-0.16601923,0.22368126,-1.3350871,-0.50469154,-0.0474429,-0.046519727,0.41761583,0.33802998,0.9237025,0.08202812,-0.34080097,-0.26174426,0.77130806,-0.20890361,-1.0126088,1.5973644,0.41169384,0.45828176,-0.8670479,0.57013756,0.71930313,-0.5780357,0.51388174,0.3263661,-1.5608344,0.48939395,-0.84067714,0.19643374,0.05273442,-1.156862,-0.09482929,0.17174277,-0.4006109,0.3662781,-1.2240143,-0.5196674,0.17449164,0.66892093,0.29200476,0.028897092,-1.0576867,-0.7162379,-1.2534131,0.7178739,0.029552475,-0.531208,-0.50295264,-0.97959906,-0.21704672,0.37928194,-0.56277144,0.4992997,0.8216286,-0.94017076,-0.12228264,0.6883944,0.62991416,0.5386992,1.0917447,0.41423985,-0.413086,0.074286886,0.29043102,0.308282,-0.35004207,0.15218721,-0.22990373,-0.012112748,-0.105752595,-0.3817115,-0.44295222,-0.28933805,0.18922608,0.20469564,-0.36427224,-0.16549908,0.0030249192,-0.394892,0.2457704,0.42081973,0.089214794,-0.33413428,0.106214784,0.15227853,0.34848145,-0.2523054,-0.39319077,0.20047158,0.03971502,-0.17303476,-0.18331808,-0.21823598,0.36658156,-0.08046668,0.3230085,0.42494217,0.08347947,0.07115718,-0.027356334,0.30310598,-0.39269587,0.17102404,-0.066016994,0.18859035,0.0018970462,-0.17485024,-0.045806114,0.24189253,-0.32410398,-0.29436967,-0.07036118,-0.1623803,0.17602025,0.3263872,-0.050114337,0.42627203,-0.17717382,-0.2558395,-0.22051157,-0.33222926,-0.31068635,-0.423079,-0.40908134,0.14918722,0.28688133,0.41573358,0.3816015,-0.05140099,0.08295165,-0.264389,0.15982537,-0.42693314,0.21322052,0.0796206,0.1342935,0.1625705,-0.20464623,0.38973382,0.21925955,0.3109853,0.06299223,0.25317407,0.29112738,0.20831574,0.33416942,-0.078006804,0.3154081,0.11132144,0.26417378,0.45659694,0.08543044,-0.1787805,-0.04456,0.120087095,0.09517322,-0.11842669,0.34695977,0.25698605,-0.30019513,-0.039190024,-0.045312956,-0.29079008,0.07159362,-0.13905053
source_dataset:HuCC-T1,-0.55542415,-0.20017155,0.059385523,0.5249316,0.11303124,0.39374626,0.14717108,0.17148066,0.35141858,0.40136883,-0.17904088,0.38470697,0.35107887,-0.38594177,-0.100097194,-0.41619948,-0.009834304,-0.43649253,0.03916344,0.27519107,-0.30194536,0.16927609,0.0078032874,0.23942947,0.16286317,-0.37869805,0.24028131,0.3330839,0.24619964,-0.3454873,-0.096853554,-0.21542236,-0.15844321,0.27784976,-0.017718807,0.29904503,-0.3222718,0.12289062,0.21358345,-0.47465375,-0.41050526,-0.22043765,0.20871331,-0.24203315,-0.18498689,0.3162152,0.19226295,0.3643848,-0.4640873,-0.44068867,0.21445759,0.3047924,0.36691508,0.113825336,0.29513246,0.37272727,-0.27144474,-0.099086486,0.36202016,-0.2935363,-0.3575663,0.53096235,0.21155794,0.20324811,-0.27124417,0.12437549,0.42784792,-0.35702252,0.16592067,0.20620069,-0.5008309,0.48217833,-0.2659241,-0.057755537,-0.043782122,-0.43986923,-0.41809082,0.30983198,0.07431628,-0.28272644,-0.465453,0.26673245,0.19093838,0.20893395,-0.104927406,-0.14476383,-0.18351045,-0.09830527,-0.4395193,0.22337355,0.13948601,-0.13115656,-0.055133387,-0.37885934,0.14010495,0.10654538,-0.20248288,-0.3609267,0.33096725,-0.034299403,-0.19041044,0.47910967,-0.036829263,0.30478358,0.39017949,0.41423985,-0.413086,0.074286886,0.29043102,0.308282,-0.35004207,0.15218721,-0.22990373,-0.012112748,-0.105752595,-0.3817115,-0.44295222,-0.28933805,0.18922608,0.20469564,-0.36427224,-0.16549908,0.0030249192,-0.394892,0.2457704,0.42081973,0.089214794,-0.33413428,0.106214784,0.15227853,0.34848145,-0.2523054,-0.39319077,0.20047158,0.03971502,-0.17303476,-0.18331808,-0.21823598,0.36658156,-0.08046668,0.3230085,0.42494217,0.08347947,0.07115718,-0.027356334,0.30310598,-0.39269587,0.17102404,-0.066016994,0.18859035,0.0018970462,-0.17485024,-0.045806114,0.24189253,-0.32410398,-0.29436967,-0.07036118,-0.1623803,0.17602025,0.3263872,-0.050114337,0.42627203,-0.17717382,-0.2558395,-0.22051157,-0.33222926,-0.31068635,-0.423079,-0.40908134,0.14918722,0.28688133,0.41573358,0.3816015,-0.05140099,0.08295165,-0.264389,0.15982537,-0.42693314,0.21322052,0.0796206,0.1342935,0.1625705,-0.20464623,0.38973382,0.21925955,0.3109853,0.06299223,0.25317407,0.29112738,0.20831574,0.33416942,-0.078006804,0.3154081,0.11132144,0.26417378,0.45659694,0.08543044,-0.1787805,-0.04456,0.120087095,0.09517322,-0.11842669,0.34695977,0.25698605,-0.30019513,-0.039190024,-0.045312956,-0.29079008,0.07159362,-0.13905053
source_dataset:A-704,0.3930306,0.6748667,0.5142995,0.85250354,-0.29377168,1.1008198,0.35402054,1.4734479,-0.6175854,-0.8523935,-0.84635884,-0.039223164,0.7143614,0.17657323,-0.9217839,-0.94791836,0.40293327,-0.675784,-0.9191373,1.2009239,-0.45949316,0.8510502,0.5068198,0.3523271,1.0955205,-1.3355278,0.0039375424,-0.17063001,0.38872916,-1.6359551,1.2185664,0.85003203,-1.2180092,-0.9472587,0.5760221,-0.5025066,-1.0353104,0.8797778,0.2061046,-1.7197388,-1.37404,-1.2725484,0.915292,0.25130212,-0.6432836,1.3310512,0.44508678,0.5401734,-0.92692864,0.7295995,0.9160005,-0.87314975,-0.64682937,-0.54808706,0.4201074,0.30492324,1.0101873,-0.93501145,1.5037905,0.27247605,-1.1763313,1.5104766,-0.7612037,-0.6750538,-0.40529054,0.6212637,1.6076138,-0.10685435,-0.45658553,0.5517718,-1.7440909,0.5827291,0.21780178,-0.18244857,0.20074694,-0.8234569,0.6301043,0.18164095,0.41304404,-0.25922707,-1.2336469,-0.6081624,0.9625685,0.15781023,0.08989063,-1.1444303,-1.2260598,-1.1065485,-0.5935483,-0.48567894,-0.6676693,-1.1898621,0.4062457,-0.014824599,-0.25940394,1.0591617,-0.3173764,0.53319615,-0.52831155,-1.2563523,-0.099550456,1.9572551,-0.26812586,-0.8116929,-0.024821654,0.89223313,-0.21140192,0.18329333,0.23490374,-0.18018591,-0.98004127,-0.024834841,-0.9418292,-0.64302194,-0.2772756,0.03856659,-0.37321186,0.022470683,-0.14129941,0.4523756,-0.49591187,0.28701138,-0.43879122,-0.7826154,0.09633444,-0.3614209,-0.34660715,-0.22198927,0.12672924,-0.13446419,0.23338833,0.21416086,-0.1985031,0.15952295,-0.16622871,0.02145496,-0.20109531,0.6038698,0.3302151,-0.7507593,0.52249753,0.451455,-0.03630457,0.69491875,0.5688328,-0.3915014,-0.28401333,-0.054052398,0.0025914907,1.0923011,-0.4151097,-0.6746617,-0.7911442,1.030126,0.3418558,-0.26508602,-0.15517268,-0.59461164,0.6878684,0.8411758,-0.4238101,1.0913723,-0.9583976,-0.521448,0.49692512,-0.41118613,0.55009645,-0.053647548,-0.11058694,0.34598848,0.3934506,0.54058635,-0.30705458,-0.8794447,-0.11479953,0.35618052,-0.43045217,-0.34983063,0.8859778,0.026355088,0.24708155,0.70491457,-0.92887557,0.5895969,0.7203764,0.92819226,-0.13156645,-0.02967599,0.5937366,-0.14082201,0.98783016,0.036196426,0.199551,-0.5895571,-0.049412668,0.63518083,-0.1719177,0.9586572,0.18516235,-0.12489555,-0.795674,-0.21206734,0.257275,-0.77727604,-0.47424918,-0.055670515,-0.7011386,0.21218926,-0.33473054,0.015599862
source_dataset:MHH-PREB-1,-0.552003,-0.25328362,-0.07200973,0.5629655,0.24638575,0.35834277,0.038904693,0.033775076,0.15635327,0.5486065,-0.041183084,0.45311603,0.54554766,-0.20077142,-0.19871591,-0.39933404,-0.10763399,-0.56302863,0.15772389,0.119716994,-0.23556912,0.033925697,-0.243419,0.04650213,0.02267152,-0.5568876,0.19526722,0.3141387,0.26055637,-0.1853227,0.004942909,-0.26243675,-0.3974562,0.427729,0.0193315,0.28937507,-0.0801958,0.32764834,0.2648335,-0.54438436,-0.3707961,0.039984524,0.23276025,-0.43335894,-0.40133247,0.16985983,-0.04223308,0.44717246,-0.7041897,-0.4667672,0.07648383,0.29736823,0.2658874,0.15082914,0.18284196,0.51623285,-0.5169459,-0.38321644,0.31194398,-0.26819903,-0.47262123,0.59906834,0.15046147,0.18269911,-0.22041865,0.10700232,0.5107698,-0.44096982,-0.031786148,0.05372931,-0.31022164,0.51309305,-0.29835135,-0.16397434,-0.32395428,-0.40531927,-0.31243378,0.29616886,0.063262224,-0.119004846,-0.5743015,0.13327858,0.08080266,0.11955811,-0.29171905,0.03696038,-0.24377075,-0.114621736,-0.55861306,0.060003508,0.070842125,-0.12918569,-0.0437741,-0.4009638,-0.14640455,0.025843024,-0.23663518,-0.41826826,0.3372468,-0.0135827735,-0.15818079,0.49405012,-0.099751756,0.46367288,0.24189694,0.52455294,-0.40189916,0.10484036,0.2590819,0.21978605,-0.46108526,0.116917394,-0.35182065,-0.12709601,-0.16536422,-0.31845337,-0.41745135,-0.22515187,0.11575684,0.21607907,-0.397596,-0.078607544,-0.079243444,-0.4574837,0.21746333,0.2745528,-0.0055994466,-0.33613688,0.118068025,0.1005229,0.347825,-0.15291439,-0.35183117,0.19548923,-0.007672511,-0.11161919,-0.19921869,-0.08158274,0.35277897,-0.1902151,0.38726005,0.46383834,0.033810887,0.17571121,0.07621719,0.1571031,-0.38865355,0.10198697,-0.04988514,0.35490227,-0.0772767,-0.24648644,-0.17768161,0.38604227,-0.18322307,-0.28511587,-0.0968005,-0.22805117,0.26151672,0.41386485,-0.10817772,0.5473364,-0.30460125,-0.30344313,-0.0926227,-0.3811202,-0.14740475,-0.35298353,-0.34057593,0.19514588,0.28511107,0.42299452,0.23346062,-0.21278675,0.049949232,-0.12734887,0.03775721,-0.39049104,0.35675743,0.059213404,0.18568282,0.25840005,-0.35853818,0.41743073,0.32717592,0.43772793,0.012452144,0.2114555,0.36383057,0.15412188,0.4614627,-0.07248761,0.28216007,-0.007066883,0.18318199,0.49675184,0.016000435,0.017764628,0.023122147,0.035622284,-0.083359696,-0.11715132,0.32653823,0.07473038,-0.32558748,-0.029855799,-0.16319253,-0.19203264,0.00070922077,-0.09075309
source_dataset:NCI-H28,-0.016025722,0.066804424,0.21527955,0.54334825,0.08891254,0.7007532,0.041243073,0.5710664,-0.20918128,0.034882754,-0.2597735,0.12259278,0.6122027,-0.051850513,-0.5862458,-0.4773272,0.17117354,-0.5291101,-0.30084562,0.5835707,-0.20464458,0.46110046,0.015270513,0.10625733,0.5573042,-0.97578585,0.2642198,0.16880368,0.42628247,-0.70535624,0.44302014,0.18934038,-0.8122799,-0.013335407,0.33574197,0.035503656,-0.44218522,0.63521314,0.12171842,-0.91475284,-0.7708992,-0.35932285,0.4867264,-0.21268663,-0.5250456,0.57542473,0.109635174,0.38466647,-0.7946024,0.1033102,0.3912235,-0.0802398,-0.15858692,-0.057013154,0.24631295,0.40043527,0.03448689,-0.6782148,0.7969481,-0.091542065,-0.6351669,0.8665017,-0.16427302,-0.07828261,-0.38411304,0.2073062,0.93614006,-0.25895083,-0.23016277,0.3386066,-0.89098287,0.3998938,-0.22337851,-0.1652753,-0.17612049,-0.4991349,0.03813395,0.09540804,0.08408471,-0.23412374,-0.72391963,-0.03674668,0.40906656,0.27092645,-0.21303348,-0.48050332,-0.6966318,-0.6689297,-0.53025174,-0.18541428,-0.3476265,-0.5079878,0.1908936,-0.10776913,-0.2731766,0.6264628,-0.41318172,0.04863,0.021228686,-0.5354116,-0.22389135,0.97591746,-0.19903205,0.09478481,0.1759862,0.43350047,-0.41676226,0.08069968,0.28426886,0.29821712,-0.36176246,0.14456365,-0.24652727,-0.021063186,-0.121493176,-0.3808056,-0.4359194,-0.28095832,0.18192908,0.19731224,-0.37993693,-0.15592967,-0.0002913177,-0.40463993,0.23794115,0.4013042,0.07306595,-0.3415212,0.11518623,0.14216426,0.3581959,-0.23545909,-0.3887676,0.19698918,0.037366174,-0.16003323,-0.19654873,-0.20455769,0.35864103,-0.08830297,0.34398925,0.43772808,0.071436115,0.08271612,-0.022292975,0.28098792,-0.4018751,0.15273276,-0.05610217,0.209487,0.00028137316,-0.17792466,-0.057458654,0.2591587,-0.30368665,-0.28403366,-0.08427276,-0.16458419,0.18878996,0.33186918,-0.05038533,0.44400597,-0.18925904,-0.2626068,-0.21140623,-0.34884983,-0.29426876,-0.4166412,-0.39036185,0.15402564,0.28198004,0.41496578,0.36014384,-0.072800376,0.07883246,-0.24495517,0.14771329,-0.41957933,0.23220694,0.07439556,0.14905173,0.1749165,-0.22629243,0.39249736,0.23453887,0.33145106,0.05748264,0.25488502,0.3012989,0.21017191,0.34598765,-0.08815454,0.3064135,0.10212996,0.24959844,0.4617641,0.070756115,-0.156848,-0.022112485,0.09671026,0.07564865,-0.116117336,0.3477196,0.23464149,-0.3048883,-0.031698503,-0.059461474,-0.27400517,0.069239795,-0.12696373
source_dataset:WSU-DLCL2,-0.43615112,-0.15428677,0.13055797,0.41613716,0.08994576,0.43699595,0.08640565,0.26129732,0.3853751,0.35434064,-0.23934585,0.4306577,0.28395545,-0.19547136,-0.23587912,-0.3697791,0.12811333,-0.36381477,0.21894912,0.13207299,-0.37512496,0.13791068,-0.0407338,0.21238033,0.26126322,-0.45218852,0.41352433,0.35914978,0.18749778,-0.425897,-0.17573205,-0.11829305,-0.10516045,0.27585617,0.1677701,0.35791487,-0.15902846,0.1504058,0.14110759,-0.36254308,-0.43665677,-0.23134303,0.29318407,-0.42002362,-0.3993747,0.28478536,0.2076613,0.36235303,-0.3470761,-0.34765568,0.24991418,0.38489708,0.26773205,0.089118406,0.15233934,0.43162894,-0.2929897,-0.17096877,0.3159196,-0.30176178,-0.21789154,0.30939513,0.16214871,0.16234674,-0.19437279,-0.012455018,0.4181152,-0.2896871,0.024589531,0.2177636,-0.3070388,0.4153396,-0.21969464,-0.12570228,-0.13660868,-0.27874288,-0.45181677,0.2522754,0.11519156,-0.42237616,-0.2954814,0.44352874,0.18227728,0.18073435,-0.24350327,-0.209949,-0.08600549,-0.100030325,-0.2818688,0.055024903,0.054727178,-0.075908974,0.07794888,-0.18508147,0.1110502,0.17451288,-0.20830059,-0.45591444,0.22194903,0.08059215,-0.24636482,0.44480684,-0.19252189,0.3217942,0.24297597,0.24959333,-0.51178503,-0.10648044,0.2161321,0.5299599,-0.4464712,-0.0115596205,-0.19391309,-0.13547648,-0.31356475,-0.5593123,-0.2465361,-0.2043516,0.15305108,0.27151537,-0.3867189,-0.17927851,-0.10300666,-0.29087397,0.15078282,0.4816759,0.20497295,-0.54921186,0.06577206,0.26595983,0.5562776,-0.4397147,-0.5126554,0.41034323,0.02723226,-0.35245204,-0.05651301,-0.061410174,0.4691174,-0.19251794,0.48155433,0.5151436,0.093407914,-0.09065179,0.09761843,0.20725906,-0.3263463,0.061623245,-0.27820575,-0.031243727,-0.08708199,-0.124333546,-0.14852859,0.038780063,-0.29214352,-0.27891746,0.12636657,-0.16357984,0.30259338,0.34147048,-0.12838757,0.35048187,-0.35273117,-0.37926507,-0.37992513,-0.1395515,-0.114847556,-0.61892295,-0.6125274,0.2714348,0.18073781,0.2956218,0.40189344,-0.08912914,0.2961392,-0.22594872,0.34074274,-0.4110549,0.36207637,-0.08848594,0.27526695,0.3692581,-0.022831976,0.2875678,0.344631,0.38875183,-0.025297537,0.10344498,0.08032887,0.056753546,0.46865276,-0.120969236,0.20077996,0.112634756,0.24313544,0.31397292,-0.11866784,-0.1809058,0.040572375,0.27284387,0.08367676,-0.20050853,0.37947485,0.19157815,-0.3849014,-0.06871337,-0.05743223,-0.23408915,-0.077085026,0.07611516
source_dataset:NCI-H211,-0.34217933,-0.26966393,0.013119742,0.22742455,0.1936081,0.4615401,0.062428795,0.31951478,0.3670144,0.42665613,-0.27052078,0.3466367,0.084573075,-0.39653742,-0.12111689,-0.56032646,0.084064506,-0.2304931,0.15120798,0.2285266,-0.30148503,-0.041619867,0.15252306,0.013740212,0.17233911,-0.47729573,0.48930115,0.2968314,0.01887405,-0.4056447,0.027384147,-0.08437128,-0.23246533,0.22278371,0.26370722,0.33562383,-0.3235719,0.19974437,-0.057865545,-0.16541608,-0.34904474,-0.23164925,0.15057223,-0.60422695,-0.38837484,0.23701268,0.28082535,0.27195564,-0.40072566,-0.28589413,0.38569337,0.25842905,0.44031614,0.13695247,-0.011837348,0.4435033,-0.09655334,-0.3349982,0.36993983,-0.42053646,-0.14858687,0.4949944,0.048563838,0.19925217,-0.31439352,0.19343156,0.40579247,-0.36978704,0.18543908,0.18389353,-0.43389246,0.4098905,-0.072285876,-0.09385054,0.0051871836,-0.11577617,-0.25508946,0.1802743,0.07501005,-0.22078227,-0.4382627,0.25154895,0.3537602,0.083107375,-0.21979178,-0.16272072,-0.19258028,-0.06802282,-0.32780552,0.25371185,0.1271877,0.13266689,0.06294432,-0.10947302,0.05705654,0.12218872,-0.40548116,-0.54056877,0.2649328,0.25624833,-0.15959232,0.28443077,-0.34008938,0.29054818,0.16791786,0.48754054,-0.26166835,-0.07759378,0.38463205,0.15397398,-0.41626728,0.08634259,-0.40718937,-0.090801165,-0.10543951,-0.3685347,-0.48803434,-0.19391996,0.20119177,0.46820632,-0.15269281,-0.10687293,-0.18477482,-0.4584669,0.22934246,0.25320488,0.1669296,-0.3773173,-0.12609607,0.16099465,0.12289742,-0.29787707,-0.3083915,0.18932839,-0.12514614,-0.11745185,0.13036838,-0.031982943,0.4813589,-0.3917945,0.25717103,0.1827842,0.28939766,0.028104614,0.25806275,0.18733272,-0.0895679,0.28525075,-0.07833169,0.23418498,-0.078307934,-0.2842283,-0.3845482,0.36551133,-0.16619158,-0.32944167,0.15481818,-0.3368137,0.29177377,0.35876262,-0.26522937,0.57235396,-0.4291469,-0.34880552,-0.039757237,-0.043832004,-0.08130498,-0.31507003,-0.42704335,0.2697263,0.39533797,0.45454377,0.31969732,-0.18097384,0.2012621,-0.30162728,0.14281641,-0.48644236,0.4104777,0.06266599,-0.10129714,0.40525883,-0.36236542,0.40327245,0.18058623,0.37520954,0.012096107,0.08334151,0.4241169,0.13089132,0.5269526,0.1380912,0.4133169,-0.011001334,0.39287376,0.31060365,-0.0042830333,-0.045257375,-0.23005913,0.4515491,-0.045951314,-0.044100992,0.30742422,0.03563808,-0.32645735,-0.14268318,-0.13093646,-0.29864773,-0.16910687,-0.1273365
source_dataset:NCI-H196,0.35562733,-0.49334976,-0.43000543,-0.17471492,0.63377905,0.7962759,-0.049464777,0.7449248,-0.48774853,0.41678673,-0.29627302,-0.33192065,-0.11342928,-1.0829209,-0.0075685084,-1.4106572,-0.20162645,-0.06387621,-0.83513504,1.1880705,0.25663528,-0.328009,0.8720106,-0.85943085,0.043459013,-1.1569,0.3922136,-0.18017992,-0.24526508,-0.51701814,1.5867904,0.27529135,-1.6424783,-0.24763897,0.6216675,-0.1811657,-1.3237668,0.97842145,-0.6989863,-0.23773135,-0.37995076,-0.27920404,-0.21561882,-0.9075923,-0.3481422,0.3830276,0.33215934,0.0060414076,-1.3144054,0.34957442,0.9504418,-0.8177396,0.6343107,0.17741357,-0.3831455,0.43987203,0.92192435,-1.5326136,1.1485438,-0.5856703,-0.5677032,2.0565953,-0.70599335,0.08794238,-1.0239532,1.3210207,0.99871314,-0.7207916,0.5446755,0.1356706,-1.6954674,0.45393297,0.39387926,0.007460743,0.46589452,0.05866459,1.0872865,-0.20238587,-0.14965561,0.92098176,-1.6591597,-1.2212406,1.2004298,-0.16625752,-0.021262065,-0.17420457,-1.4002502,-0.61210006,-0.9840523,0.80495495,-0.0127294175,0.3244545,0.0054725036,0.04124774,-0.6493614,0.35576335,-1.3527627,-0.1845507,0.30177185,0.0635755,0.24727063,0.36453104,-0.7372103,-0.046735674,-0.07869984,0.2324526,-0.057486445,-0.010675825,0.61035335,0.25127205,-0.4792912,0.06662152,-0.5644972,0.048033495,0.12922677,-0.27501827,-0.5392298,-0.3663124,0.44531763,0.5935408,-0.63267374,-0.20888977,0.20581366,-0.69575036,0.08569482,0.305595,0.14595549,-0.11089355,0.23667556,-0.044557363,0.2916825,-0.28349802,-0.50739616,0.048787788,0.33583787,-0.47410238,-0.36111268,0.08307491,0.27390444,-0.23170304,0.27206737,0.058949172,0.3847172,0.33575928,-0.10423531,0.41814333,-0.42738247,0.3285394,0.14798898,0.34363204,0.27152684,-0.45065922,-0.07783214,0.3554441,-0.49064946,-0.042197734,-0.26158983,-0.28613603,0.5021831,0.36982983,-0.06298743,0.64303386,-0.48226097,-0.3487241,-0.27436805,-0.05803451,-0.41595018,-0.49721295,-0.27506047,-0.05301884,0.5536344,0.6855035,0.590454,-0.048126932,-0.029299892,-0.5227644,0.43744087,-0.7515259,-0.04358764,0.18662868,-0.13423112,0.32692897,0.015585065,0.57825065,0.065972656,0.31411847,0.35400534,0.2548222,0.02333358,0.2517197,0.1489959,-0.15292159,0.34957588,-0.015276067,0.5009954,0.36293206,0.27674693,0.17142746,0.0013272837,0.37814742,0.34031916,-0.4398587,0.52966917,-0.048548877,-0.51514286,-0.056624696,-0.18821512,-0.16749957,0.17348856,-0.29272175
source_dataset:EW-24,-0.48201224,-0.08268385,0.050710045,0.56445515,0.085207686,0.4420517,0.15178414,0.32531613,0.24756274,0.29490578,-0.29983202,0.5109789,0.40242416,-0.104216985,-0.25026593,-0.5298456,0.03878715,-0.50258386,0.18045238,0.14432402,-0.4290347,0.052694432,-0.0641724,0.16918796,0.17689131,-0.52726084,0.24468993,0.2642627,0.12077523,-0.49054706,0.042795047,-0.06807719,-0.2589467,0.15928277,0.1440417,0.22929531,-0.15842451,0.24483113,0.2493724,-0.5769305,-0.49049017,-0.28946918,0.3550006,-0.4125453,-0.48412424,0.34733734,0.15433072,0.4823628,-0.5182032,-0.33810842,0.26411784,0.19508293,0.20580868,0.005242169,0.14527301,0.50661534,-0.23866007,-0.31853274,0.39391434,-0.22008619,-0.44410163,0.54145813,0.015622109,0.027831048,-0.13691133,0.13341618,0.5664535,-0.35856283,-0.06573969,0.10993118,-0.3574025,0.5509608,-0.09555246,-0.17700003,-0.1763674,-0.3630051,-0.2768017,0.3521881,0.21626693,-0.2662729,-0.5299729,0.17524111,0.22704329,0.033902436,-0.23628914,-0.16413164,-0.18062696,-0.07552839,-0.40860844,-0.020906162,0.062625706,-0.192166,0.060434155,-0.2909864,0.0051438063,0.06700988,-0.14102322,-0.46059367,0.1503514,-0.0012314245,-0.1442832,0.64640063,-0.20331208,0.19349046,0.12776774,0.40841368,-0.4008575,0.071342565,0.30041334,0.3053993,-0.35564768,0.1500652,-0.24093817,-0.012850467,-0.097069375,-0.37601897,-0.4466154,-0.29112092,0.19577478,0.2189026,-0.3697821,-0.16560577,0.0065497104,-0.4041634,0.24173418,0.4161635,0.091094896,-0.32552502,0.108356826,0.14672184,0.34421188,-0.2533958,-0.396049,0.1965548,0.047305513,-0.18293922,-0.18596642,-0.20682369,0.36523733,-0.08769129,0.31875494,0.41216514,0.09363976,0.080640264,-0.026604488,0.3061292,-0.39119995,0.17761481,-0.0614,0.19494951,0.00714299,-0.18547362,-0.049360923,0.24699071,-0.32846865,-0.2889946,-0.07368874,-0.16835733,0.18625021,0.3300017,-0.052901022,0.43340358,-0.18872169,-0.25892943,-0.21907485,-0.32167166,-0.3112022,-0.4240216,-0.4069504,0.1437438,0.29617822,0.4244349,0.3872124,-0.052611977,0.07920758,-0.2714513,0.16621125,-0.43714973,0.20659764,0.083357744,0.12449665,0.16843437,-0.19888511,0.39592025,0.2152286,0.3111615,0.07111241,0.2510092,0.28344607,0.20685174,0.33088943,-0.07741918,0.31736395,0.10482935,0.27170312,0.45411873,0.09209425,-0.16547768,-0.046106745,0.13039403,0.10009503,-0.12873402,0.35144532,0.24575374,-0.30658665,-0.041263815,-0.050994594,-0.28719917,0.07228799,-0.14479807
source_dataset:C-33 A,-0.48903176,-0.16020308,0.049290806,0.47578037,0.1293909,0.40577614,0.08363122,0.22050083,0.32059833,0.40258318,-0.22197741,0.5128191,0.36171055,-0.11163663,-0.24230987,-0.42335612,0.058486767,-0.44419965,0.28740895,0.048102573,-0.393164,0.029915176,-0.13175993,0.14241593,0.15732203,-0.49338493,0.34514773,0.3301293,0.14031863,-0.380384,-0.10687119,-0.13700546,-0.1807431,0.2978327,0.15793063,0.33006796,-0.058258444,0.21081394,0.20140299,-0.42195252,-0.41724548,-0.16485646,0.30961734,-0.49818155,-0.49353534,0.23964837,0.122844554,0.4355571,-0.4517106,-0.38963395,0.20275052,0.34408605,0.24830697,0.078064404,0.10303844,0.51099896,-0.37310117,-0.2777382,0.29051945,-0.27930441,-0.30874148,0.37671527,0.10890588,0.12034572,-0.13752957,0.02374175,0.45987356,-0.34675986,-0.05240187,0.114784814,-0.21607363,0.48224494,-0.17506257,-0.17717525,-0.23603305,-0.28027308,-0.38803607,0.30260983,0.1574735,-0.32365245,-0.388179,0.33334908,0.14854582,0.08223044,-0.30239505,-0.111603945,-0.08956025,-0.044044565,-0.34766132,-0.00676059,0.07194052,-0.08343632,0.06600625,-0.2396819,0.0117711425,0.06505521,-0.17394882,-0.5223638,0.21012816,0.11029384,-0.19563138,0.48542428,-0.21942282,0.33655277,0.15199253,0.5754014,0.12160325,-0.1768837,0.838828,-0.034470797,-0.39753398,-0.1651512,-0.9965353,0.340624,-0.0978534,-0.574382,-0.5603082,-0.26473293,0.7249232,0.75834674,-0.8234376,-0.24438298,0.35289627,-0.992362,-0.15285304,-0.022828221,0.14780964,-0.42488924,0.18186896,-0.26469594,0.23519759,-0.18156779,-0.39545697,-0.24123451,0.31122544,-0.15645418,-0.3740254,0.18764408,0.1384175,-0.4693683,0.6706783,-0.20935091,0.6398237,0.20291084,-0.087672174,0.18534338,-0.337221,0.21746641,0.6585562,0.4117535,0.7206394,-0.4010369,-0.37605134,0.54497457,-0.21009284,0.41762224,-0.44649488,-0.3090164,0.81262994,0.07610452,-0.06640297,1.0561831,-0.703881,-0.51807487,-0.33215827,0.047919065,-0.4067902,-0.40601754,0.26476693,0.0034861416,0.653985,0.79416484,0.5021893,-0.2112566,0.13653222,-0.7001265,0.69181406,-0.86261785,0.15477541,0.12638292,-0.37160593,0.72701204,-0.29815996,0.6355567,-0.1168036,0.537282,0.45404536,0.3583976,0.29257926,0.66115075,0.11230421,-0.27513444,0.3879623,0.09895968,0.6908436,0.05559674,-0.023205034,0.22273281,0.25619447,0.49898934,0.43630728,-0.23309869,0.67786205,-0.37271288,-0.65232396,0.053527027,-0.25824088,-0.035448045,0.16328186,-0.1260064
source_dataset:CHP-126,0.07142249,0.16609263,0.30944332,0.56596553,0.009816445,0.7742168,0.08065576,0.71615684,-0.23955676,-0.11985153,-0.34678584,0.06564838,0.6065454,-0.030569524,-0.65225935,-0.4967709,0.24847966,-0.51905495,-0.40777642,0.696544,-0.23678201,0.5831064,0.10563159,0.18448815,0.69733775,-1.0161934,0.26519015,0.14131412,0.45868278,-0.86159927,0.5020138,0.29455784,-0.8291821,-0.14778471,0.37956333,-0.022297561,-0.5498745,0.64554477,0.11488671,-1.011307,-0.8747127,-0.51417154,0.5559438,-0.106811434,-0.5126302,0.703721,0.18748663,0.37751427,-0.7584301,0.21550027,0.4766991,-0.15813872,-0.24218342,-0.12443985,0.29871392,0.35201004,0.18989691,-0.66183865,0.9038571,-0.041348666,-0.66714406,0.8998895,-0.21728602,-0.14670576,-0.4031625,0.2227469,1.0146303,-0.20003566,-0.25017676,0.4219676,-1.0350357,0.38744622,-0.19611216,-0.15058556,-0.09732757,-0.54801047,0.07644549,0.081515655,0.11218486,-0.30674118,-0.7318344,-0.040901214,0.48773932,0.31138068,-0.15540053,-0.62824434,-0.7612825,-0.76714635,-0.49776086,-0.2269849,-0.41722512,-0.61564064,0.23699912,-0.06131477,-0.22869964,0.7534278,-0.40549248,0.15473765,-0.059678182,-0.6631381,-0.24228716,1.1062852,-0.19340973,-0.03190857,0.18861863,0.41423985,-0.413086,0.074286886,0.29043102,0.308282,-0.35004207,0.15218721,-0.22990373,-0.012112748,-0.105752595,-0.3817115,-0.44295222,-0.28933805,0.18922608,0.20469564,-0.36427224,-0.16549908,0.0030249192,-0.394892,0.2457704,0.42081973,0.089214794,-0.33413428,0.106214784,0.15227853,0.34848145,-0.2523054,-0.39319077,0.20047158,0.03971502,-0.17303476,-0.18331808,-0.21823598,0.36658156,-0.08046668,0.3230085,0.42494217,0.08347947,0.07115718,-0.027356334,0.30310598,-0.39269587,0.17102404,-0.066016994,0.18859035,0.0018970462,-0.17485024,-0.045806114,0.24189253,-0.32410398,-0.29436967,-0.07036118,-0.1623803,0.17602025,0.3263872,-0.050114337,0.42627203,-0.17717382,-0.2558395,-0.22051157,-0.33222926,-0.31068635,-0.423079,-0.40908134,0.14918722,0.28688133,0.41573358,0.3816015,-0.05140099,0.08295165,-0.264389,0.15982537,-0.42693314,0.21322052,0.0796206,0.1342935,0.1625705,-0.20464623,0.38973382,0.21925955,0.3109853,0.06299223,0.25317407,0.29112738,0.20831574,0.33416942,-0.078006804,0.3154081,0.11132144,0.26417378,0.45659694,0.08543044,-0.1787805,-0.04456,0.120087095,0.09517322,-0.11842669,0.34695977,0.25698605,-0.30019513,-0.039190024,-0.045312956,-0.29079008,0.07159362,-0.13905053
source_dataset:NCI-H2810,0.23707089,-0.023990855,-0.5059899,0.38876846,0.48764387,0.80689263,0.052992042,0.9983895,-0.88019943,0.120745316,-0.5708183,0.32167724,0.4738593,0.06707163,-0.5095514,-1.6503477,-0.22267896,-0.63833237,-0.27420682,0.5725336,-0.24378763,-0.654396,0.2673958,-0.9044449,-0.07841414,-1.5610919,0.055042297,-0.37560835,-0.48426265,-0.8500835,1.8962876,0.5687129,-1.9016061,-0.50274384,0.8292674,-0.44695508,-0.5169074,1.3384886,-0.15062305,-0.9786583,-0.6721977,-0.3776788,0.3894941,-1.21404,-1.2993679,0.4753695,-0.031103984,0.6349788,-1.6493363,0.40870383,0.8115243,-1.1022538,-0.027026951,-0.22662814,-0.621355,0.94568795,0.6252401,-2.0952382,1.1327612,-0.1622228,-1.1755825,2.093999,-1.2111479,-0.5483917,-0.37664843,1.2353228,1.4964757,-0.7748886,-0.40741444,-0.32705414,-1.0184176,0.8588562,0.79278433,-0.44766474,-0.23460878,-0.02861619,1.3752723,0.18341416,0.4089946,0.9719012,-1.940463,-1.5552405,1.0214472,-0.7588954,-0.46115613,-0.056137323,-1.2784476,-0.42809322,-1.0424352,-0.19208601,-0.2178408,-0.17270128,0.25750268,-0.039032444,-1.1180109,0.009735197,-0.8041261,-0.47607216,-0.25404316,-0.05246564,0.41431528,1.1738108,-0.99452245,-0.3420992,-0.85514975,-0.22106269,-0.6941515,-0.62503535,0.028676242,1.066903,-0.81516826,-0.4313153,-0.14915943,-0.63291883,-0.7879912,-0.8946966,0.24663591,0.06325406,-0.022431582,0.60335743,-0.28453988,-0.14202355,-0.5572377,-0.013696551,-0.058672667,0.5770004,0.53231674,-1.0260603,-0.1580298,0.60405326,0.96878254,-0.9628179,-0.8026163,1.0290165,-0.09403142,-0.8918501,0.46198803,0.5089845,0.8416202,-0.66302794,0.7488835,0.6597625,0.18326907,-0.4450384,0.6318542,-0.084929645,0.013714582,-0.12662454,-0.97715664,-0.53221375,-0.51367706,-0.12490084,-0.5904119,-0.41635203,-0.16143501,-0.37809336,0.8199276,-0.3043295,0.6699225,0.5250846,-0.4916331,0.1764501,-0.97581804,-0.734588,-0.6269345,0.52729535,0.58870447,-1.0751786,-1.2909944,0.65016186,-0.03649175,-0.002524674,0.41215715,-0.27386522,0.8603878,-0.0717794,0.71034676,-0.38962984,0.8435039,-0.519593,0.5604205,0.9904164,0.41853392,0.03575802,0.72738105,0.6071626,-0.31212866,-0.4446724,-0.470038,-0.531559,0.98296714,-0.06142194,-0.05686459,-0.047790132,0.2062331,-0.054650933,-0.6258618,-0.021548703,0.091939405,0.84498537,-0.10430791,-0.4594553,0.40274927,-0.10886431,-0.6088199,-0.24542432,-0.17379789,-0.08804418,-0.633827,0.5995984
source_dataset:Ishikawa (Heraklio) 02 ER-,-0.43615112,-0.15428677,0.13055797,0.41613716,0.08994576,0.43699595,0.08640565,0.26129732,0.3853751,0.35434064,-0.23934585,0.4306577,0.28395545,-0.19547136,-0.23587912,-0.3697791,0.12811333,-0.36381477,0.21894912,0.13207299,-0.37512496,0.13791068,-0.0407338,0.21238033,0.26126322,-0.45218852,0.41352433,0.35914978,0.18749778,-0.425897,-0.17573205,-0.11829305,-0.10516045,0.27585617,0.1677701,0.35791487,-0.15902846,0.1504058,0.14110759,-0.36254308,-0.43665677,-0.23134303,0.29318407,-0.42002362,-0.3993747,0.28478536,0.2076613,0.36235303,-0.3470761,-0.34765568,0.24991418,0.38489708,0.26773205,0.089118406,0.15233934,0.43162894,-0.2929897,-0.17096877,0.3159196,-0.30176178,-0.21789154,0.30939513,0.16214871,0.16234674,-0.19437279,-0.012455018,0.4181152,-0.2896871,0.024589531,0.2177636,-0.3070388,0.4153396,-0.21969464,-0.12570228,-0.13660868,-0.27874288,-0.45181677,0.2522754,0.11519156,-0.42237616,-0.2954814,0.44352874,0.18227728,0.18073435,-0.24350327,-0.209949,-0.08600549,-0.100030325,-0.2818688,0.055024903,0.054727178,-0.075908974,0.07794888,-0.18508147,0.1110502,0.17451288,-0.20830059,-0.45591444,0.22194903,0.08059215,-0.24636482,0.44480684,-0.19252189,0.3217942,0.24297597,0.41423985,-0.413086,0.074286886,0.29043102,0.308282,-0.35004207,0.15218721,-0.22990373,-0.012112748,-0.105752595,-0.3817115,-0.44295222,-0.28933805,0.18922608,0.20469564,-0.36427224,-0.16549908,0.0030249192,-0.394892,0.2457704,0.42081973,0.089214794,-0.33413428,0.106214784,0.15227853,0.34848145,-0.2523054,-0.39319077,0.20047158,0.03971502,-0.17303476,-0.18331808,-0.21823598,0.36658156,-0.08046668,0.3230085,0.42494217,0.08347947,0.07115718,-0.027356334,0.30310598,-0.39269587,0.17102404,-0.066016994,0.18859035,0.0018970462,-0.17485024,-0.045806114,0.24189253,-0.32410398,-0.29436967,-0.07036118,-0.1623803,0.17602025,0.3263872,-0.050114337,0.42627203,-0.17717382,-0.2558395,-0.22051157,-0.33222926,-0.31068635,-0.423079,-0.40908134,0.14918722,0.28688133,0.41573358,0.3816015,-0.05140099,0.08295165,-0.264389,0.15982537,-0.42693314,0.21322052,0.0796206,0.1342935,0.1625705,-0.20464623,0.38973382,0.21925955,0.3109853,0.06299223,0.25317407,0.29112738,0.20831574,0.33416942,-0.078006804,0.3154081,0.11132144,0.26417378,0.45659694,0.08543044,-0.1787805,-0.04456,0.120087095,0.09517322,-0.11842669,0.34695977,0.25698605,-0.30019513,-0.039190024,-0.045312956,-0.29079008,0.07159362,-0.13905053
source_dataset:SaOS-2,-0.3991147,-0.32932025,-0.43678057,0.35796398,0.4513588,0.40616715,0.026037458,0.28748584,-0.068704605,0.6168046,-0.25656956,0.60461247,0.32084346,-0.1211988,-0.14205174,-1.0179374,-0.2453483,-0.5126362,0.32165378,0.0047577024,-0.31370515,-0.64373255,-0.075888604,-0.5050329,-0.30781433,-0.8094038,0.22357793,0.059815735,-0.32539725,-0.275451,0.6639192,-0.045049287,-0.83341324,0.18553682,0.37028188,0.11345439,-0.04984594,0.6255766,0.03650254,-0.38155887,-0.26691568,0.015008956,0.16401054,-1.1073079,-0.87914085,0.061300978,-0.05080393,0.54559,-1.0062001,-0.30900645,0.33982405,-0.15170255,0.39576137,0.07693165,-0.38865888,0.8264822,-0.19845006,-1.0932754,0.40663502,-0.37081295,-0.58901596,1.0713546,-0.39457148,-0.039458692,-0.1770919,0.5862992,0.70844185,-0.6886562,-0.10552672,-0.2992776,-0.23069239,0.7161548,0.29754528,-0.32457715,-0.33703655,-0.004939407,0.32799467,0.32148865,0.25379077,0.43614948,-1.0748782,-0.5223793,0.4127044,-0.46275157,-0.47615921,0.25664014,-0.41905445,0.10781435,-0.7009258,0.06351014,0.17866218,0.18880002,0.041489124,-0.2528573,-0.52707595,-0.33398092,-0.45265388,-0.83573955,0.17284365,0.4336675,0.15902798,0.4612527,-0.62666863,0.2535294,-0.369896,1.0222875,-0.40674326,0.100343674,0.26497704,-0.0739595,-0.53054965,-0.11430387,-0.7746501,-0.0575652,-0.5603157,-0.52514905,-0.31911415,-0.042185307,0.1575437,0.14373797,-0.68551856,0.024704918,-0.052805793,-0.7159717,-0.009249628,-0.15796784,-0.22415337,-0.6767963,0.18569656,-0.1357766,0.46050835,0.13516918,-0.20728272,-0.008066297,-0.098790765,0.31247774,-0.36062276,0.09691803,0.1742352,-0.40118244,0.93081486,0.5335926,-0.02004081,0.18836387,0.15061799,-0.29301754,-0.4572165,-0.24086885,0.37001768,0.6326802,0.15026674,-0.19566077,-0.49722126,0.7002691,0.28281406,0.10365558,-0.37116283,-0.23832262,0.56240016,0.2818177,-0.099889435,0.9950133,-0.53510803,-0.47952753,-0.016519055,-0.5888901,0.07624981,-0.20582879,0.22596043,0.3253775,0.2318247,0.431222,-0.13273668,-0.58616185,0.12201006,0.054582626,0.0016061813,-0.30609882,0.76628166,-0.06738044,0.28309238,0.6358129,-0.86959493,0.45368844,0.43423566,0.8415221,-0.043849632,0.3090325,0.7091963,0.44075212,0.6125637,-0.28117955,0.17935096,-0.019200854,0.07027751,0.38562852,-0.39977846,0.2590963,0.47962898,-0.2485641,-0.30668542,0.10160158,0.40229997,-0.35434714,-0.43515176,0.14673667,-0.35848558,0.086998284,-0.04239291,0.2024879
source_dataset:Kelly,-0.21408781,-0.051993333,0.1804567,0.3988327,0.07232588,0.57154447,0.07776684,0.47366732,0.18287975,0.18278208,-0.320396,0.30520058,0.31606954,-0.14294711,-0.37631482,-0.47074914,0.19379976,-0.36493352,0.031238496,0.31746554,-0.3436595,0.2288934,0.063609995,0.15318012,0.41208655,-0.66140914,0.41809475,0.26768968,0.20529512,-0.6101997,0.0985831,0.06632686,-0.36213738,0.09331724,0.31183836,0.22798735,-0.3050161,0.32996917,0.06727239,-0.512793,-0.5761254,-0.35786888,0.3726306,-0.40055576,-0.4891212,0.42187476,0.23837861,0.3507078,-0.46425954,-0.11398485,0.3852697,0.17156017,0.11673845,0.010186598,0.12367963,0.42295614,-0.059142977,-0.3927219,0.5255431,-0.24156363,-0.32577166,0.5128151,-0.021592796,0.04265377,-0.27004,0.10011029,0.6210516,-0.26314855,-0.0594125,0.27911794,-0.5476092,0.39950594,-0.14045897,-0.14279047,-0.09405641,-0.2905854,-0.22124597,0.17340448,0.1291933,-0.3655621,-0.44842696,0.26136634,0.3417285,0.17869736,-0.23183581,-0.36469293,-0.3161324,-0.3082969,-0.3250989,-0.030323561,-0.10015771,-0.19745484,0.16250475,-0.07846808,-0.013234451,0.36543554,-0.31653032,-0.3000136,0.09859698,-0.09699351,-0.22813198,0.63501865,-0.27397078,0.17156568,0.15980224,0.41423985,-0.413086,0.074286886,0.29043102,0.308282,-0.35004207,0.15218721,-0.22990373,-0.012112748,-0.105752595,-0.3817115,-0.44295222,-0.28933805,0.18922608,0.20469564,-0.36427224,-0.16549908,0.0030249192,-0.394892,0.2457704,0.42081973,0.089214794,-0.33413428,0.106214784,0.15227853,0.34848145,-0.2523054,-0.39319077,0.20047158,0.03971502,-0.17303476,-0.18331808,-0.21823598,0.36658156,-0.08046668,0.3230085,0.42494217,0.08347947,0.07115718,-0.027356334,0.30310598,-0.39269587,0.17102404,-0.066016994,0.18859035,0.0018970462,-0.17485024,-0.045806114,0.24189253,-0.32410398,-0.29436967,-0.07036118,-0.1623803,0.17602025,0.3263872,-0.050114337,0.42627203,-0.17717382,-0.2558395,-0.22051157,-0.33222926,-0.31068635,-0.423079,-0.40908134,0.14918722,0.28688133,0.41573358,0.3816015,-0.05140099,0.08295165,-0.264389,0.15982537,-0.42693314,0.21322052,0.0796206,0.1342935,0.1625705,-0.20464623,0.38973382,0.21925955,0.3109853,0.06299223,0.25317407,0.29112738,0.20831574,0.33416942,-0.078006804,0.3154081,0.11132144,0.26417378,0.45659694,0.08543044,-0.1787805,-0.04456,0.120087095,0.09517322,-0.11842669,0.34695977,0.25698605,-0.30019513,-0.039190024,-0.045312956,-0.29079008,0.07159362,-0.13905053
source_dataset:NUGC-3,-0.20520818,-0.19511084,0.09328501,0.57534575,0.2550675,0.56313586,-0.030965991,0.1355823,-0.21218738,0.36440933,0.10184482,-0.05081743,0.7417381,-0.4506837,-0.35811916,-0.2686246,-0.058885664,-0.5703031,-0.5199028,0.73267156,0.10165614,0.57653755,-0.07414205,0.09088549,0.3726373,-0.8358456,0.1301221,0.26592562,0.6996658,-0.27711815,0.30607277,-0.15677014,-0.85837394,0.33016643,-0.008527786,0.12360647,-0.576319,0.5839733,0.15602216,-0.8670349,-0.59248734,-0.006380588,0.22670737,0.016274244,-0.09463403,0.4120161,-0.042917192,0.26074815,-0.9589859,-0.14735511,0.15517798,0.0792658,0.06429531,0.17162149,0.4903225,0.26429194,-0.24544106,-0.49541628,0.7135818,-0.1828291,-0.65565515,0.99283904,0.15720819,0.22506335,-0.5980755,0.22070852,0.7723221,-0.35350755,0.051558085,0.3706702,-1.0518287,0.33861816,-0.5833362,-0.021801114,-0.15993316,-0.6922025,-0.118508846,0.043150514,-0.18800074,-0.0736866,-0.7719134,-0.057867914,0.2380358,0.5195779,-0.0854373,-0.26185262,-0.7890988,-0.72440094,-0.7567336,0.15731992,-0.24069317,-0.44430846,-0.060861126,-0.3769343,-0.2696463,0.5976365,-0.52906394,0.22336948,0.3880415,-0.64362437,-0.25810367,0.7277024,0.1216151,0.42261803,0.57859325,1.1175984,0.0032559335,-0.21570623,0.7028444,-0.34634158,-0.3911158,-0.28625226,-1.1875618,0.29825652,-0.49472108,-0.7495942,-0.49266872,-0.024315298,0.5855999,0.63802725,-0.64820313,-0.09557458,0.089701906,-1.0165809,-0.18819585,-0.3719943,0.008714177,-0.8116466,-0.048448317,-0.29095662,0.13618633,0.022064656,-0.13219464,-0.30828786,-0.09124942,0.40958056,-0.118935846,0.21942459,0.16404013,-0.7372675,0.9892268,-0.11296514,0.5556515,0.012602422,0.22908363,-0.27368113,-0.12197444,-0.012229398,0.80566484,0.555104,0.6275864,-0.26780373,-0.8240448,0.8026389,0.33971307,0.46470174,-0.3387047,-0.36923146,0.854914,-0.017912507,-0.21463071,1.3279626,-0.81784034,-0.62554246,-0.073144525,-0.07908973,-0.027128637,-0.13927647,0.5598016,0.31281662,0.5329952,0.6573066,0.058377206,-0.5600171,0.3280669,-0.43206424,0.42982286,-0.62681156,0.7458636,-0.02206409,-0.32839987,1.0258409,-0.947535,0.5518128,0.012977809,0.84260476,0.18189734,0.30624014,0.8503889,0.7794662,0.48019093,-0.1782229,0.39214346,0.08134368,0.55535996,-0.048407286,-0.4763822,0.24228051,0.36232424,0.37375018,0.0015966818,0.21231806,0.56121284,-0.60922825,-0.58075714,0.103118256,-0.35357296,0.046703786,-0.11072958,0.1545174
source_dataset:SW1463,-0.80982685,-0.4038845,-0.47312808,0.33268052,0.16274388,0.3589443,0.65901065,0.6609911,0.62536085,0.34456006,-0.7934442,0.41922694,-0.5524726,-1.4544605,0.8567713,-1.7183446,-0.42241287,-0.13435087,-0.40586424,0.8293904,-0.47316316,-0.6861281,1.2101343,-0.07302083,-0.44038245,0.11033186,-0.06975511,-0.09509382,-0.7753155,-0.64135385,0.8457619,-0.0891267,-0.16317639,-0.5135006,-0.13047771,-0.07038838,-1.4170177,-0.20274505,-0.12567028,-0.1261045,-0.13818392,-0.9727693,-0.32747844,-0.4150529,0.3122892,0.5555174,0.86970294,0.29435942,-0.51180506,-0.5246174,0.9546503,-0.5929656,1.3765488,-0.004167855,0.00046749413,0.33555377,1.0110759,-0.14544755,0.665891,-0.6071749,-0.5225093,1.7060761,-0.33808935,0.07007872,-0.5230141,1.4192902,0.3914923,-0.78555053,1.1656197,-0.06389463,-1.34115,0.9811801,0.7856269,0.1965663,1.0869182,-0.2401475,0.38026538,0.6353991,0.33981943,0.62562263,-1.450725,-0.93397033,1.0839694,-0.53747666,0.54848343,0.014175579,-0.42124018,0.56605935,-0.7568261,1.3429105,0.9561151,0.4258405,-0.39484107,-0.6818137,0.52947,-0.68806547,-0.40821207,-0.83290654,0.42589712,0.57923865,0.46756703,0.29585996,-0.32196647,-0.5367732,0.20058186,0.26416248,-0.03855163,-0.01739879,0.5281692,0.15846595,-0.59918237,0.14193065,-0.5363989,-0.22191353,0.20040393,-0.07235882,-0.5786562,-0.2862915,0.23916654,0.6955482,-0.28484648,-0.07633759,-0.11910336,-0.60716206,0.22012134,0.23191927,0.14205365,-0.008244514,0.01542154,0.062957875,0.06317678,-0.28688502,-0.40940621,0.16719624,0.09922548,-0.446449,-0.033214524,0.2013975,0.44835216,-0.43676314,0.025822967,0.020855665,0.38140726,0.38721398,0.22220808,0.33347192,-0.16749907,0.45121408,-0.10756164,0.45190996,-0.106037244,-0.576196,-0.3183676,0.4776531,-0.36688337,-0.3496841,0.044445246,-0.46028018,0.4235459,0.5785685,-0.29184505,0.62317896,-0.601341,-0.3435248,0.042902246,0.06641716,-0.119403124,-0.34475338,-0.5091232,0.083212435,0.57988,0.6438354,0.4486295,-0.17679383,-0.023978285,-0.35908377,0.14453456,-0.67676026,0.15770411,0.19790563,-0.2033068,0.35630175,-0.1491007,0.55944073,0.17854899,0.3209495,0.18578658,0.03865689,0.15778306,-0.033773363,0.4397145,0.15106569,0.42740566,-0.2301963,0.45378166,0.43024892,0.29518378,0.31270278,-0.3004006,0.53134847,0.011858813,-0.38433763,0.3644218,-0.13543755,-0.4292279,-0.20106031,-0.27053177,-0.22409509,-0.09458401,-0.34597868
source_dataset:HEC-1,-0.79798096,-0.44620463,-0.19333579,0.856642,0.33314177,0.29064956,0.186207,-0.29147878,-0.026254326,0.6752907,0.28477305,-0.00807175,0.7857072,-1.0898398,0.24205983,-0.39214844,-0.52179146,-0.72512823,-0.78827506,0.92250997,0.22438464,0.4655916,0.039912365,0.20614633,-0.11067152,-0.3511723,-0.3437181,0.26756623,0.72548455,0.109484315,0.26577947,-0.6063053,-0.6795425,0.47080496,-0.6586673,0.093296975,-0.9167188,0.2650274,0.39896083,-0.9415121,-0.33761293,0.09122452,-0.1271427,0.42802113,0.59797156,0.3554761,-0.04983595,0.27709964,-1.1133926,-0.6687387,-0.022670522,0.044710428,0.5883368,0.3117668,0.8575767,0.12332216,-0.34404156,-0.049140923,0.6087897,-0.26066592,-0.89663637,1.4176726,0.44626728,0.45291865,-0.71987176,0.554014,0.5524043,-0.5938257,0.60059637,0.24220563,-1.3310474,0.57709396,-0.6889771,0.19294994,0.13297234,-1.0670253,-0.23425986,0.3185656,-0.27607903,0.2920649,-1.1103718,-0.39881942,0.15572223,0.51832837,0.3138309,0.09852289,-0.77811235,-0.404069,-1.1291701,0.78590244,0.23699392,-0.38977158,-0.5278982,-1.022317,-0.0054919794,0.12021946,-0.39721644,0.22931564,0.8137391,-0.6632973,-0.07531075,0.5765109,0.58378613,0.4710585,1.0278823,0.41423985,-0.413086,0.074286886,0.29043102,0.308282,-0.35004207,0.15218721,-0.22990373,-0.012112748,-0.105752595,-0.3817115,-0.44295222,-0.28933805,0.18922608,0.20469564,-0.36427224,-0.16549908,0.0030249192,-0.394892,0.2457704,0.42081973,0.089214794,-0.33413428,0.106214784,0.15227853,0.34848145,-0.2523054,-0.39319077,0.20047158,0.03971502,-0.17303476,-0.18331808,-0.21823598,0.36658156,-0.08046668,0.3230085,0.42494217,0.08347947,0.07115718,-0.027356334,0.30310598,-0.39269587,0.17102404,-0.066016994,0.18859035,0.0018970462,-0.17485024,-0.045806114,0.24189253,-0.32410398,-0.29436967,-0.07036118,-0.1623803,0.17602025,0.3263872,-0.050114337,0.42627203,-0.17717382,-0.2558395,-0.22051157,-0.33222926,-0.31068635,-0.423079,-0.40908134,0.14918722,0.28688133,0.41573358,0.3816015,-0.05140099,0.08295165,-0.264389,0.15982537,-0.42693314,0.21322052,0.0796206,0.1342935,0.1625705,-0.20464623,0.38973382,0.21925955,0.3109853,0.06299223,0.25317407,0.29112738,0.20831574,0.33416942,-0.078006804,0.3154081,0.11132144,0.26417378,0.45659694,0.08543044,-0.1787805,-0.04456,0.120087095,0.09517322,-0.11842669,0.34695977,0.25698605,-0.30019513,-0.039190024,-0.045312956,-0.29079008,0.07159362,-0.13905053
source_dataset:JVM-2,-0.5733551,-0.304062,-0.10343243,0.57956934,0.29017508,0.34006026,0.01844988,-0.0523853,0.11428642,0.6117136,0.0439606,0.39770716,0.5986937,-0.28367412,-0.16475359,-0.36339846,-0.16518769,-0.58652216,0.077815026,0.17822401,-0.15268303,0.07043104,-0.26457587,0.028146133,-0.0118177235,-0.5591689,0.15068102,0.3224002,0.33383697,-0.09741959,0.018612504,-0.32636788,-0.45915335,0.49209708,-0.05108273,0.2881404,-0.1247401,0.3503305,0.27288565,-0.5679858,-0.34620714,0.12050304,0.1819064,-0.3749975,-0.3136536,0.14495224,-0.08926991,0.4229773,-0.77889967,-0.5005308,0.028037682,0.30169612,0.29395598,0.1960114,0.24021497,0.48795474,-0.5657669,-0.38128278,0.3207113,-0.27724984,-0.5084262,0.67093086,0.20096779,0.23739551,-0.2805798,0.12954907,0.5064912,-0.46686465,0.01641292,0.06079988,-0.37961158,0.5023402,-0.37826228,-0.1355905,-0.3273804,-0.46203163,-0.31178537,0.27662987,-0.0007064417,-0.059149742,-0.6208552,0.08786914,0.054529488,0.17534539,-0.26346874,0.07998712,-0.30504566,-0.15807796,-0.6329261,0.12523028,0.073927216,-0.1377459,-0.09758425,-0.46267706,-0.1770872,0.03801,-0.27734774,-0.35210228,0.41168112,-0.07198519,-0.1598737,0.46811518,-0.028508157,0.5279729,0.32542518,0.36567318,-0.2739805,0.03985288,0.361533,0.23708035,-0.4621612,0.1622197,-0.33578116,-0.13737565,0.01812429,-0.23267575,-0.4992986,-0.27362734,0.16968197,0.40109372,-0.27201205,-0.10900995,-0.10051914,-0.45560086,0.26101953,0.33895463,0.107639745,-0.1973654,0.032942697,0.13955456,0.20343736,-0.26544774,-0.38117626,0.21003462,0.018076448,-0.26701215,-0.06909773,-0.044653848,0.4280416,-0.24694276,0.17042333,0.27163613,0.19077893,0.19501954,0.12262126,0.2986477,-0.26369387,0.29489693,-0.12771282,0.30372503,-0.10611661,-0.34312582,-0.18843085,0.34958893,-0.31700513,-0.37053317,0.027084269,-0.30206278,0.2513145,0.45582628,-0.17944103,0.4939635,-0.35253626,-0.28664833,-0.06719251,-0.1651294,-0.18727449,-0.36688045,-0.48804125,0.1501606,0.3977907,0.49074137,0.37998858,-0.12030317,0.045195132,-0.26880676,0.100819126,-0.50376767,0.2298581,0.124519676,-0.0005881041,0.23809803,-0.21459107,0.44776475,0.22506508,0.31584108,0.076758675,0.13602051,0.26737556,0.0685208,0.42546466,0.06044978,0.3701788,-0.051602,0.32422748,0.45934248,0.16476457,0.025014117,-0.19229905,0.29700387,0.0050399825,-0.20459944,0.3231193,0.09899686,-0.33124503,-0.124182105,-0.14190924,-0.27696562,-0.037527658,-0.22371762
source_dataset:AM-38,-1.0652485,-0.36267406,-0.7742064,0.98866254,0.38971347,0.22016242,0.533867,0.16759846,-0.10503578,0.5977185,-0.32276374,0.6159815,0.4877457,-0.91207826,0.56812155,-1.5647161,-0.8689773,-0.88215816,-0.42495877,0.62232506,-0.27800238,-0.6863059,0.35075808,-0.2766791,-0.8068638,-0.3449815,-0.6955479,-0.18033877,-0.3683434,-0.21575838,1.1750041,-0.32973224,-0.9091683,-0.1601946,-0.45568264,-0.29002357,-0.8733386,0.36124992,0.4692572,-1.0071499,-0.2219122,-0.3337318,-0.11929694,-0.29547113,0.01880154,0.3918495,0.08002122,0.70826125,-1.4257213,-0.7328973,0.37358522,-0.74623907,0.8963932,-0.010296509,0.20573501,0.6217112,0.21377149,-0.7012601,0.67367387,-0.2661697,-1.3513793,2.2007945,-0.38655734,-0.087049305,-0.35338804,1.4080387,0.8247604,-1.0197072,0.5459024,-0.45158386,-1.127711,1.2389307,0.4626026,-0.047828577,0.27311575,-0.7459756,0.6062226,0.8135826,0.34414938,1.0933098,-2.0030887,-1.5151997,0.6274307,-0.6259272,0.2656908,0.48388118,-0.757807,0.3642971,-1.3700811,0.81007797,0.72353476,-0.12059946,-0.544503,-1.2021528,-0.22036596,-0.8810482,-0.20715967,-0.59012693,0.4792291,0.008031867,0.5660598,0.8415395,-0.016121224,-0.2155261,0.10075012,0.38598037,-0.36093566,0.061911687,0.3411835,0.30339044,-0.36462975,0.13655216,-0.28074783,0.0072640367,-0.07355893,-0.3736768,-0.45574623,-0.30387756,0.23527694,0.2585796,-0.4176289,-0.17707439,0.045738775,-0.44305694,0.21677016,0.40653163,0.09780363,-0.30490255,0.13416643,0.11885157,0.3488655,-0.25681323,-0.4139614,0.17333834,0.09289622,-0.21887594,-0.2224302,-0.17799996,0.34605765,-0.09503272,0.3249492,0.3719866,0.12840518,0.1085183,-0.051404826,0.32348564,-0.4078976,0.1897077,-0.024315707,0.2074625,0.05658558,-0.21101502,-0.041273125,0.25405622,-0.35365438,-0.24498554,-0.110626206,-0.17405438,0.22756371,0.32478082,-0.043184366,0.45927453,-0.21794215,-0.26985353,-0.24078183,-0.2962626,-0.33780065,-0.43999556,-0.38010526,0.113851905,0.32553655,0.457462,0.41814137,-0.045941677,0.06605279,-0.30913818,0.21242982,-0.4780935,0.16725089,0.09509823,0.097030014,0.18587753,-0.1655307,0.41849554,0.19211328,0.31118724,0.11277044,0.26177302,0.24610722,0.22580352,0.2953968,-0.10089537,0.3174815,0.10080056,0.30121672,0.4400663,0.11316908,-0.13215989,-0.026075505,0.15254332,0.14432305,-0.16837329,0.38051704,0.21490708,-0.33548078,-0.036200963,-0.0633831,-0.27026808,0.09710652,-0.1598452
source_dataset:SK-N-SH,-0.5326436,-0.10416129,0.10584095,0.5364739,0.03140286,0.42975697,0.20876974,0.32746688,0.39550683,0.2731681,-0.32729957,0.4551551,0.28361225,-0.29151434,-0.1345059,-0.5058708,0.059675947,-0.42083764,0.09715043,0.24315494,-0.4285984,0.13480927,0.077061206,0.286722,0.21779315,-0.3707252,0.25981635,0.29921073,0.14007618,-0.507636,-0.06746261,-0.107968554,-0.08735776,0.13422087,0.06069258,0.2642921,-0.31761363,0.08829354,0.22055203,-0.49609315,-0.46890604,-0.38779792,0.28721926,-0.272516,-0.27716228,0.39654765,0.28056252,0.4092903,-0.3758449,-0.3823484,0.30745864,0.24487205,0.3269797,0.026437119,0.24499074,0.39880568,-0.14403582,-0.09363257,0.38920033,-0.2624517,-0.3551523,0.49602783,0.11740498,0.10051233,-0.1947834,0.13950995,0.46434194,-0.32492602,0.11549348,0.20205337,-0.47382486,0.52309054,-0.1291888,-0.08665268,0.0029480308,-0.40086555,-0.38640898,0.35874173,0.18109113,-0.34687626,-0.45264173,0.27349108,0.26003966,0.121584296,-0.10243803,-0.22727828,-0.13045861,-0.045851957,-0.35992265,0.1488559,0.14264672,-0.15843919,0.008024946,-0.32219625,0.19941343,0.088940665,-0.1319451,-0.42406932,0.21475682,0.0023034662,-0.16883801,0.5693979,-0.1166632,0.1577943,0.2840045,0.52999663,-0.43518037,0.11282793,0.25339633,0.24779189,-0.4204818,0.10636939,-0.32981154,-0.065905064,-0.2003538,-0.3762671,-0.40068483,-0.2389757,0.14537099,0.16032124,-0.45841745,-0.10798678,-0.01690573,-0.4534773,0.19871645,0.30353087,-0.007840097,-0.3785299,0.16013335,0.09149161,0.40686545,-0.15105882,-0.36660743,0.17954226,0.025598392,-0.09489531,-0.2628346,-0.13602912,0.31885883,-0.12756291,0.44910312,0.5017858,0.011098668,0.14062665,0.0030745585,0.17017607,-0.44786334,0.0610931,-0.0064287186,0.31417972,-0.007813181,-0.19332755,-0.115838125,0.34566247,-0.20139535,-0.23225003,-0.15397005,-0.1756258,0.25276646,0.35933402,-0.051743004,0.53285325,-0.24980617,-0.29651117,-0.1657883,-0.4321192,-0.21201621,-0.3843877,-0.2965768,0.17826626,0.2574245,0.4111191,0.25264055,-0.18001173,0.05819527,-0.14759126,0.087031506,-0.3827365,0.32732928,0.048218027,0.22299072,0.23677015,-0.33474028,0.4063428,0.3110886,0.433985,0.0298795,0.26345682,0.35225832,0.21947135,0.40519714,-0.1389949,0.2613504,0.05608044,0.17657569,0.48765168,-0.0027625784,-0.046965763,0.09035002,-0.020408161,-0.022169791,-0.10454743,0.3515265,0.122694835,-0.32840118,0.0058341585,-0.13034585,-0.18991247,0.05744707,-0.06640861
source_dataset:CA46,-0.79318583,0.21608528,0.077886485,1.0320524,-0.26708484,0.48946756,0.72097653,0.7775551,0.35407114,-0.21726057,-0.79231244,0.5349629,0.290695,-0.55927014,0.15256122,-1.1152098,-0.12896171,-0.65527844,-0.43871766,0.7459746,-0.7015285,0.17780733,0.6048843,0.6007922,0.1707809,-0.15512389,-0.34013897,0.0057882965,-0.0706134,-1.018338,0.4903573,0.08524051,-0.097417295,-0.58962166,-0.25260895,-0.18783373,-0.9909258,-0.08539367,0.5246779,-1.1394662,-0.7142838,-1.1604116,0.36972827,0.32539147,0.10161355,0.9586346,0.62077504,0.62459755,-0.4948997,-0.3703711,0.63696855,-0.4325811,0.4320565,-0.31618387,0.5885925,0.2782076,0.6065017,0.117521495,0.7954328,-0.0422723,-0.9591309,1.2902291,-0.19154695,-0.26741672,-0.17758892,0.77404875,0.7755673,-0.41979244,0.376256,0.17575964,-1.2228004,0.96017504,0.32195523,0.03682278,0.5780314,-0.88751554,-0.017714739,0.77105176,0.5112649,-0.08472338,-1.1226974,-0.4589304,0.66339564,-0.14543487,0.45457345,-0.4298464,-0.3830351,0.079665534,-0.6385219,0.40172675,0.3959799,-0.59141415,-0.18400629,-0.7822508,0.51971334,-0.14678685,0.17644411,-0.23879261,0.050725922,-0.40410677,0.14419644,1.2316147,0.114274934,-0.64141417,0.3527099,0.39680058,-0.4119336,0.058273308,0.29322952,0.32454857,-0.35992602,0.13693807,-0.23567064,-0.018367283,-0.11636383,-0.39405233,-0.42996052,-0.28522927,0.19417357,0.21889849,-0.37496597,-0.16850582,0.002026849,-0.39496487,0.23357642,0.42311063,0.09958099,-0.34580317,0.10779281,0.1554264,0.36456418,-0.26750934,-0.4058891,0.21209167,0.047686685,-0.19456622,-0.1801136,-0.19938762,0.37103784,-0.09155124,0.3355562,0.42299944,0.09179189,0.06496024,-0.02176241,0.29914108,-0.39013496,0.16572942,-0.07536842,0.1748145,0.004225119,-0.17703143,-0.0529631,0.22827874,-0.32660446,-0.2848825,-0.06196031,-0.1644339,0.19443607,0.32728004,-0.05498396,0.42597374,-0.19755554,-0.26770812,-0.23620535,-0.31133443,-0.30014482,-0.4410177,-0.41989654,0.15267484,0.28519282,0.41348457,0.38930407,-0.053392198,0.09654663,-0.26894322,0.18260862,-0.43430358,0.21697281,0.06926199,0.13890071,0.18241861,-0.18405984,0.3866899,0.22436365,0.31701395,0.06454855,0.24307656,0.2673148,0.19957016,0.3380228,-0.08516367,0.30692017,0.109655276,0.26877487,0.44282562,0.0743571,-0.17111254,-0.034892257,0.13731486,0.10254368,-0.13314459,0.35510352,0.24487516,-0.31265244,-0.040963735,-0.04928279,-0.28297174,0.06441846,-0.12595752
source_dataset:KM12,-0.785792,-0.13253763,-0.17490612,0.7542186,0.13797444,0.29613003,0.24926965,0.18440948,0.26152077,0.43708563,-0.30110073,0.7624821,0.49188542,-0.07734233,-0.07551351,-0.7160871,-0.19405189,-0.67818487,0.33256793,-0.037561104,-0.52474743,-0.25224793,-0.1764184,0.09986542,-0.1670717,-0.41155192,0.0032362938,0.20634282,-0.057971552,-0.35784173,0.121587306,-0.20045155,-0.241151,0.18712068,-0.028829083,0.17895305,-0.020881936,0.20263158,0.44271562,-0.66760933,-0.37786525,-0.21608564,0.3130443,-0.49558628,-0.51907575,0.2575323,0.04745759,0.65710753,-0.6695451,-0.582194,0.16179743,0.11692214,0.33862916,-0.013724588,0.108064614,0.6448412,-0.38341415,-0.34944278,0.27821445,-0.20241141,-0.64612395,0.7159505,-0.031823814,-0.027390614,0.008001849,0.28699216,0.5535317,-0.52517366,-0.06608965,-0.14815947,-0.1756483,0.77824605,0.04829508,-0.23222232,-0.25872636,-0.4225484,-0.21410097,0.5762919,0.3433977,-0.022982955,-0.75778574,-0.086734444,0.15513864,-0.22689755,-0.24311578,0.11417054,-0.08727455,0.22052565,-0.5705215,0.01584768,0.2780398,-0.15923092,-0.0693731,-0.5554807,-0.041895643,-0.3466807,0.027691647,-0.68560755,0.19881223,0.14345619,0.020103171,0.6801188,-0.17580548,0.1723434,0.014919803,0.70528215,0.18328989,-0.20404878,0.88167053,-0.15392786,-0.4476059,-0.23355703,-1.1671028,0.33265185,-0.16571099,-0.5926945,-0.5592791,-0.20597252,0.7466878,0.8246114,-0.86653006,-0.20084482,0.32819268,-1.0961804,-0.2174604,-0.18133703,0.10322272,-0.4824323,0.16229156,-0.3400857,0.20158876,-0.1102643,-0.34550682,-0.30723792,0.27430153,-0.061293438,-0.3654711,0.29982257,0.11054289,-0.6005045,0.77357006,-0.26892713,0.68536,0.23748657,-0.009706248,0.056770757,-0.29500797,0.17311125,0.77270555,0.5239298,0.76587516,-0.44496095,-0.5305851,0.6739726,-0.07176417,0.5138912,-0.48529512,-0.36507645,0.9326843,0.06920755,-0.1144367,1.2182593,-0.8388785,-0.5838939,-0.2593307,0.06832668,-0.30448332,-0.34091485,0.41031492,0.042623363,0.68830466,0.8296087,0.40504697,-0.3388431,0.15503043,-0.670223,0.6776618,-0.8764548,0.278145,0.10715589,-0.4166999,0.87556577,-0.45187676,0.6679823,-0.102706626,0.6523022,0.44972748,0.3448083,0.39174968,0.7084608,0.18280083,-0.27948695,0.3878798,0.04538077,0.69992465,0.005945623,-0.11860655,0.35572296,0.3265832,0.50697607,0.3535076,-0.19190896,0.6958368,-0.5560472,-0.69781864,0.07163573,-0.3444534,0.044012308,0.10846551,-0.073335886
source_dataset:KTCTL-1M,-0.2047138,0.012747705,0.20490247,0.47943503,0.046407387,0.5885123,0.0825807,0.4968557,0.111261934,0.12897795,-0.32556534,0.32901195,0.42011264,-0.030645624,-0.45556292,-0.45245826,0.20174843,-0.43910047,0.027801007,0.30500925,-0.36656168,0.27602202,-0.0061499774,0.17968933,0.44609493,-0.7241648,0.36927465,0.25376576,0.25056046,-0.65075094,0.12837392,0.09811245,-0.41536278,0.06975716,0.3147568,0.19048412,-0.25280446,0.3833111,0.13629201,-0.64151025,-0.6366987,-0.36834234,0.44838783,-0.36057478,-0.5506519,0.45912534,0.19167018,0.4042944,-0.5149971,-0.086655885,0.3590228,0.14223489,0.010381013,-0.031344444,0.15410858,0.44482517,-0.09105313,-0.43504813,0.5548924,-0.17696288,-0.41082293,0.5288188,-0.05170682,-0.017211512,-0.22954527,0.0735649,0.69501233,-0.24908832,-0.16414517,0.27056947,-0.5372759,0.42088163,-0.15317127,-0.17654538,-0.16605806,-0.34965402,-0.20293206,0.19441552,0.16166958,-0.38348463,-0.47433794,0.23802787,0.3146627,0.17622957,-0.2576862,-0.38760012,-0.343495,-0.3555962,-0.34461877,-0.14285296,-0.16054189,-0.30382666,0.18622947,-0.094714485,-0.06387092,0.39590803,-0.26665965,-0.2527377,0.046418935,-0.19410628,-0.23459773,0.75538695,-0.25549325,0.14677131,0.13039346,0.503626,-0.50247633,0.034040008,0.1912547,0.33696693,-0.51372457,-0.010434493,-0.36603394,-0.16475022,-0.3691062,-0.47192153,-0.26772004,-0.16339272,0.10058189,0.17248899,-0.52387875,-0.08327837,-0.087059714,-0.4286309,0.11943635,0.27134788,0.0018814951,-0.5230653,0.16799855,0.12047022,0.5552261,-0.19824831,-0.4180503,0.28441945,0.010715142,-0.15064703,-0.23710212,-0.0025926977,0.3489948,-0.21635157,0.6081954,0.595171,-0.0241182,0.08978301,0.08966751,0.042087793,-0.44203123,-0.06158535,-0.09083679,0.26266706,-0.0627366,-0.17564702,-0.21234955,0.29116464,-0.11457051,-0.18870038,-0.09167455,-0.18374705,0.36631387,0.38626027,-0.09616739,0.55070907,-0.38826594,-0.38800645,-0.22359952,-0.38123778,-0.047629148,-0.4714713,-0.3463443,0.26258248,0.181847,0.34175855,0.19134112,-0.27336422,0.16276175,-0.06049125,0.1466255,-0.34903702,0.47428983,-0.062896356,0.3512684,0.3934156,-0.30689603,0.35890177,0.4324566,0.54643476,-0.037831604,0.18601777,0.2694912,0.14150459,0.5199231,-0.19719914,0.16721153,0.025721088,0.115581885,0.42585227,-0.16584414,0.026037544,0.21359707,-0.014569066,-0.094600074,-0.14236103,0.37216997,0.010759786,-0.39135894,0.014763135,-0.18493836,-0.101622134,-0.03315682,0.094072655
source_dataset:FU-OV-1,-0.14178756,-0.6943486,-0.3929544,-0.22999841,0.5742795,0.4905573,-0.029439852,0.29881373,0.2034313,0.7538306,-0.1755049,-0.015093267,-0.33527398,-1.1606622,0.28843868,-1.0375137,-0.1877378,0.067312926,-0.25607914,0.6614836,0.089339584,-0.4534955,0.66089416,-0.572487,-0.16128731,-0.55049884,0.5601008,0.12558758,-0.28491056,-0.16476679,0.66219807,-0.13074085,-0.7463462,0.19210136,0.34915906,0.24405864,-0.91793644,0.39153737,-0.5750104,0.28675398,-0.061205596,-0.07522111,-0.36056402,-0.95047086,-0.1366598,0.07250418,0.38292837,-0.023176461,-0.7443327,-0.19089738,0.6627786,-0.12269226,0.98650146,0.35934412,-0.3166927,0.40688744,0.3689203,-0.7878978,0.56479216,-0.75856054,-0.07926382,1.2303851,-0.16800857,0.4101113,-0.7904643,0.85451216,0.38418195,-0.6614002,0.7535657,0.10160566,-0.9902829,0.3929491,0.17068526,0.06535818,0.41342044,0.17650917,0.3201413,-0.046433836,-0.17204028,0.5024417,-0.98798966,-0.43675134,0.7882611,-0.071854964,-0.062515795,0.063451394,-0.6546061,-0.08059386,-0.65233815,0.9682876,0.34432742,0.6665424,-0.11561276,-0.07005044,-0.16057043,-0.0056788325,-1.0372647,-0.6067789,0.5514476,0.58054394,0.095408514,-0.18399957,-0.5710461,0.31721595,0.15642804,0.19740914,0.708821,-0.40601873,1.4387037,-0.05019331,-0.45171815,-0.32497036,-1.4688214,0.6430837,0.2871692,-0.57009256,-0.7329918,-0.44340408,1.2937965,1.4097066,-1.2647243,-0.4383365,0.8149368,-1.4525172,-0.43801534,-0.08309814,0.37291738,-0.15305364,0.3666389,-0.55426556,0.1579257,-0.35582757,-0.62261665,-0.52425194,0.84879243,-0.6705072,-0.63871205,0.5320067,-0.016667426,-0.628617,0.61265326,-0.89727485,1.2450463,0.44949523,-0.33730415,0.5015857,-0.37895495,0.5228596,1.0781194,0.43842208,1.3541591,-0.7347972,-0.32591298,0.56061506,-0.59960717,0.91980696,-0.74892056,-0.42472333,1.3089721,-0.0331465,-0.015080795,1.3315732,-1.0931022,-0.65483403,-0.61903954,0.59099144,-0.7730727,-0.6187003,0.49459618,-0.3610292,1.0968933,1.2324106,1.0159589,-0.03373967,0.054029174,-1.3313122,1.3754983,-1.4568222,-0.39193475,0.29576302,-0.9062447,0.9735607,0.20905003,0.90668607,-0.53268695,0.43438694,1.0052265,0.42786694,-0.19838312,0.8811222,-0.35204253,-0.4407578,0.48114768,0.07718583,1.216655,-0.22834715,0.29009044,0.541552,0.3132735,1.060502,1.0887303,-0.71768564,1.0375867,-0.7042885,-1.0057547,0.037738085,-0.3510151,0.07131553,0.40881824,-0.3781016
source_dataset:EB3 [Human Burkitt lymphoma],-0.35929608,-0.33437786,-0.14380784,0.20546481,0.293053,0.4360031,0.0471108,0.29918608,0.27946603,0.52111024,-0.26505363,0.40415126,0.07920888,-0.39538425,-0.07165146,-0.7202145,-0.022166952,-0.2612648,0.20026259,0.17502475,-0.28658062,-0.26186657,0.13877173,-0.17001586,0.0021965206,-0.5396738,0.44435567,0.23062569,-0.12233527,-0.34046474,0.21203756,-0.09009464,-0.38743567,0.22290403,0.29965693,0.29080546,-0.28370574,0.29745892,-0.08415437,-0.13897602,-0.28185016,-0.15134358,0.09931888,-0.79069674,-0.4968358,0.15855959,0.21468161,0.31544974,-0.554111,-0.30588502,0.39635003,0.1459549,0.50290024,0.14743689,-0.15339592,0.54547596,-0.09551029,-0.5460286,0.3661492,-0.45260888,-0.22395685,0.66904527,-0.07252802,0.1668346,-0.30547565,0.33993864,0.45017916,-0.4788102,0.17250586,0.042378545,-0.38709053,0.4881375,0.055258304,-0.14025153,-0.044397905,-0.036334187,-0.07977077,0.2052695,0.106133364,-0.0007497668,-0.62166476,0.022448957,0.39848217,-0.08479662,-0.27923128,-0.020149678,-0.25004545,0.015694626,-0.430339,0.27805468,0.18416432,0.22760291,0.041007176,-0.13783127,-0.09001961,-0.03637223,-0.46227136,-0.66321087,0.27206972,0.3798154,-0.05491218,0.25358236,-0.4462555,0.2928215,0.020372927,0.92611635,-0.2836601,-0.08314823,0.3486722,-0.09300503,-0.56304884,-0.1470017,-0.8116504,-0.13439791,-0.4971491,-0.5198208,-0.35475042,0.0059759915,0.17531747,0.4160046,-0.42007113,0.030511677,-0.23017858,-0.6852514,0.013914645,-0.1722447,-0.05684855,-0.68421936,-0.058294065,-0.042925343,0.2612559,-0.030354485,-0.1907435,0.062552705,-0.22367728,0.22667968,-0.00377658,0.22317813,0.34200808,-0.63867736,0.7647486,0.29511786,0.20187584,0.08560582,0.39621454,-0.28261706,-0.14627327,-0.06079611,0.22851479,0.52989554,0.034671035,-0.27942464,-0.7298118,0.6730156,0.2990252,-0.01038298,-0.05879899,-0.3816975,0.6063146,0.31682003,-0.30144936,0.9905728,-0.7185998,-0.5385131,0.07228239,-0.22485003,0.23290509,-0.18994768,0.034739435,0.42020798,0.32694164,0.44266418,-0.06771821,-0.5899191,0.26622945,-0.051927254,0.06112203,-0.38773224,0.8513747,-0.08087471,0.050399855,0.7947719,-0.8344497,0.4326207,0.3659711,0.79457486,-0.08097352,0.11411211,0.7039505,0.29701185,0.749477,-0.043036822,0.28257838,-0.09705796,0.23533227,0.23384924,-0.4136869,0.27665982,0.20471445,0.17540346,-0.34288976,0.11123327,0.3609937,-0.43189248,-0.4446961,0.0043023378,-0.36610073,0.0024977326,-0.26613083,0.17648713
source_dataset:NCI-H345,-0.32447714,-0.43650553,-0.11942424,0.1689256,0.34800252,0.44326764,0.0022852197,0.17029655,0.23918925,0.59516686,-0.09870386,0.16917655,0.10956733,-0.6811024,0.0027963817,-0.589375,-0.06799053,-0.21932092,-0.08026211,0.42496246,-0.07188156,-0.048825756,0.20933883,-0.14059581,0.05570765,-0.51707035,0.4235474,0.27334294,0.09786197,-0.20883833,0.19314021,-0.19679555,-0.46734926,0.32662496,0.16541222,0.3077385,-0.51893497,0.2970133,-0.14642152,-0.13399594,-0.25918508,-0.05594209,-0.031505138,-0.5689252,-0.1956164,0.16552621,0.2096506,0.17254235,-0.6157284,-0.31163225,0.35549742,0.18074474,0.5791286,0.25717062,0.0287062,0.38848993,-0.08876206,-0.44196543,0.43603557,-0.49616,-0.20921965,0.77800286,0.08516599,0.33011797,-0.5181688,0.36423236,0.41058305,-0.47116792,0.36726844,0.1826217,-0.6757107,0.38459933,-0.16862184,-0.016770117,0.06963435,-0.1618934,-0.12671834,0.0936283,-0.088490464,0.031236142,-0.6378889,0.02534923,0.39572233,0.15442753,-0.14498612,-0.048900098,-0.4094044,-0.1669412,-0.52899134,0.49479535,0.15849593,0.2098275,-0.060645267,-0.20429416,-0.0578849,0.13459477,-0.60910296,-0.42249715,0.4453346,0.19922465,-0.11399247,0.16158888,-0.26289946,0.40816972,0.30726415,0.762467,0.022858262,-0.18013245,0.612069,-0.19851145,-0.5037477,-0.05185826,-0.8762586,-0.04186302,-0.13272499,-0.3686695,-0.58223075,-0.09225784,0.34813887,0.7691171,-0.20433916,-0.03216791,-0.20497487,-0.7728162,0.082708105,-0.13687542,0.12055069,-0.42429894,-0.22512817,-0.049552023,-0.09875509,-0.15846083,-0.17605244,-0.044092983,-0.18570292,0.075292826,0.20521569,0.24675165,0.42286083,-0.7532913,0.38604754,-0.15325227,0.5475221,0.13493827,0.44461164,-0.031565458,0.09160724,0.31723,0.26297256,0.5133333,0.10640785,-0.4575407,-0.7776112,0.70912147,0.09843832,-0.08328815,0.074905545,-0.5212223,0.5985182,0.3194986,-0.40875462,0.9979638,-0.78382885,-0.49697703,0.16146658,0.13624105,0.08879149,-0.12618437,-0.058971107,0.31065673,0.5926261,0.62876827,0.18188989,-0.43220687,0.2260602,-0.3714428,0.17018825,-0.62424564,0.6074134,0.08566818,-0.40150392,0.7661979,-0.6987375,0.5314834,0.08685744,0.5812819,0.08645068,0.047483265,0.6635257,0.28093177,0.6280072,0.20097238,0.49984342,-0.14758354,0.5498466,0.14371693,-0.1318102,0.28305027,-0.18258046,0.64258856,-0.15127158,0.0328886,0.37078366,-0.41945347,-0.44825196,-0.14005455,-0.3278613,-0.1574849,-0.29115757,-0.1105621
source_dataset:BICR 31,-0.35562527,0.0021277368,0.116478056,0.75123143,0.045698248,0.57856053,0.2451413,0.44071156,-0.0639219,0.0852879,-0.25595364,0.13551551,0.59894216,-0.44932663,-0.22877093,-0.5972277,-0.054557502,-0.6107433,-0.5369835,0.783102,-0.19576189,0.47177887,0.19300014,0.27720308,0.35760278,-0.6509403,-0.04263091,0.14636122,0.4314227,-0.61645067,0.44194862,-0.006702617,-0.6451719,-0.06550127,-0.053775683,-0.029470354,-0.7565033,0.3898596,0.2834038,-1.028822,-0.69100904,-0.47594932,0.32089913,0.14599633,-0.060042918,0.6618283,0.20775679,0.39980137,-0.81495863,-0.1567999,0.36729908,-0.16521648,0.13368672,-0.039940014,0.5259929,0.26801157,0.12826353,-0.32773465,0.80475104,-0.1014701,-0.80332565,1.1437825,-0.023487419,-0.0010193139,-0.45283705,0.43920475,0.83929163,-0.36005855,0.12576929,0.3213312,-1.1738842,0.56216586,-0.23250765,-0.010953456,0.11191778,-0.7760684,-0.025320917,0.29204452,0.081252664,-0.082411736,-0.93222404,-0.24173394,0.43210858,0.27919886,0.11128548,-0.3805281,-0.6990919,-0.49541265,-0.71647024,0.19696037,-0.06352785,-0.5535969,-0.07287167,-0.49200183,-0.012901396,0.38961995,-0.2851107,0.10520774,0.21516849,-0.62210625,-0.11252242,0.9882302,0.09919323,-0.017365128,0.46858257,0.36598822,-0.18690811,0.016667284,0.3324086,0.12589367,-0.6162052,0.22776726,-0.36798155,-0.41848683,0.13919958,0.006789446,-0.5600222,-0.20136839,-0.005655065,0.5843624,0.054465085,0.02643025,-0.4144651,-0.41597176,0.37664747,0.2375901,0.1140351,-0.044401377,-0.18226862,0.21915472,-0.05468127,-0.27495506,-0.29642498,0.30988485,-0.18275866,-0.2934187,0.25275567,0.13989963,0.5996314,-0.497346,-0.10581088,0.16186807,0.24358284,0.30027926,0.4617895,0.22847703,0.0112835765,0.45724684,-0.36443076,0.45001927,-0.46457073,-0.530719,-0.4549412,0.5032049,-0.21413416,-0.6563566,0.32274377,-0.513838,0.22719988,0.6900357,-0.42971832,0.5130351,-0.53861696,-0.29840428,0.26635027,0.020986348,0.11420071,-0.21563408,-0.7164588,0.25985682,0.47614995,0.4961105,0.2654787,-0.25904483,0.02994638,-0.13989547,-0.16445033,-0.4835523,0.39979804,0.15676421,-0.12566671,0.30067694,-0.3517312,0.46268094,0.3182987,0.32382601,-0.050958246,-0.09779194,0.3628646,-0.23256175,0.7056689,0.37566423,0.4608693,-0.3080723,0.3174227,0.5147178,0.22054549,0.24357992,-0.51050013,0.51123685,-0.30481476,-0.20463553,0.17834724,-0.05230236,-0.27842972,-0.28387874,-0.2578134,-0.3151834,-0.30879375,-0.3101641
source_dataset:PA-1,-1.0444502,-0.30696863,-0.18900032,0.9587843,0.12606671,0.23381504,0.45350307,-0.057899058,0.3087926,0.4907552,-0.085068524,0.30230856,0.5240246,-1.0582838,0.43573934,-0.6846882,-0.49568033,-0.6979098,-0.5693529,0.76937944,-0.15264015,0.22502351,0.26205152,0.39833945,-0.20431736,-0.035725504,-0.41791767,0.21040338,0.34928554,-0.16138911,0.19701102,-0.5212151,-0.24252918,0.16816172,-0.6903842,0.057011604,-0.9380034,-0.059603825,0.51127577,-0.89469993,-0.33436853,-0.32984427,-0.06556204,0.4113596,0.58103824,0.49350542,0.2242575,0.4180143,-0.80738133,-0.79245996,0.15303785,-0.03575468,0.7583172,0.13730158,0.8004597,0.17132747,-0.089349404,0.22939989,0.5298277,-0.24795036,-0.87745035,1.3324587,0.33872876,0.2823716,-0.48214912,0.66717774,0.45993346,-0.5983901,0.6966108,0.14060026,-1.1897317,0.7928385,-0.30957842,0.1845295,0.37134838,-1.0205626,-0.29040074,0.6025362,0.02282042,0.19782609,-1.0960903,-0.3937681,0.27440602,0.22062457,0.44267398,0.06020482,-0.46601015,0.012946695,-0.9681742,0.837108,0.51542974,-0.33908337,-0.53110665,-1.1005445,0.34279805,-0.22556897,-0.091268376,-0.09410474,0.66517335,-0.3979867,0.054433033,0.6600546,0.49998927,0.11072914,0.86982477,0.41423985,-0.413086,0.074286886,0.29043102,0.308282,-0.35004207,0.15218721,-0.22990373,-0.012112748,-0.105752595,-0.3817115,-0.44295222,-0.28933805,0.18922608,0.20469564,-0.36427224,-0.16549908,0.0030249192,-0.394892,0.2457704,0.42081973,0.089214794,-0.33413428,0.106214784,0.15227853,0.34848145,-0.2523054,-0.39319077,0.20047158,0.03971502,-0.17303476,-0.18331808,-0.21823598,0.36658156,-0.08046668,0.3230085,0.42494217,0.08347947,0.07115718,-0.027356334,0.30310598,-0.39269587,0.17102404,-0.066016994,0.18859035,0.0018970462,-0.17485024,-0.045806114,0.24189253,-0.32410398,-0.29436967,-0.07036118,-0.1623803,0.17602025,0.3263872,-0.050114337,0.42627203,-0.17717382,-0.2558395,-0.22051157,-0.33222926,-0.31068635,-0.423079,-0.40908134,0.14918722,0.28688133,0.41573358,0.3816015,-0.05140099,0.08295165,-0.264389,0.15982537,-0.42693314,0.21322052,0.0796206,0.1342935,0.1625705,-0.20464623,0.38973382,0.21925955,0.3109853,0.06299223,0.25317407,0.29112738,0.20831574,0.33416942,-0.078006804,0.3154081,0.11132144,0.26417378,0.45659694,0.08543044,-0.1787805,-0.04456,0.120087095,0.09517322,-0.11842669,0.34695977,0.25698605,-0.30019513,-0.039190024,-0.045312956,-0.29079008,0.07159362,-0.13905053
source_dataset:VMRC-RCZ,-1.1054026,-0.42107925,-0.3235913,1.1928927,0.26635,0.22532687,0.4638499,-0.29541096,-0.055922955,0.60007125,0.21712583,-0.028260857,0.8721948,-1.488861,0.5789361,-0.67462224,-0.8089414,-0.91177666,-1.2196345,1.289324,0.23074779,0.502604,0.2952301,0.36213923,-0.30506882,-0.126937,-0.81667393,0.13521959,0.72394747,0.07604396,0.5467044,-0.7111526,-0.72174954,0.2395061,-1.0691776,-0.13674262,-1.3860819,0.13069658,0.62117815,-1.3060051,-0.35918197,-0.15230165,-0.2432448,0.8976669,1.0705366,0.580436,0.049766317,0.3565802,-1.3114996,-0.84132457,0.02743189,-0.28910318,0.8091998,0.23962766,1.1918076,-0.0058092773,-0.07049693,0.16664192,0.7902669,-0.18460286,-1.3013572,2.0081906,0.43415624,0.4023363,-0.8194645,0.978151,0.643319,-0.73684204,0.9280857,0.2027437,-1.8543625,0.83845043,-0.5996256,0.3432923,0.47980928,-1.4734328,-0.081716955,0.56531084,-0.22030646,0.5940734,-1.5861918,-0.9046389,0.29548913,0.458068,0.7216468,0.15118892,-0.9783072,-0.31639948,-1.4587687,1.1525627,0.48659098,-0.59780735,-0.8110981,-1.4929686,0.17450866,-0.103633955,-0.26578426,0.40535933,0.9394862,-0.9413445,0.122868165,0.8272896,0.90625876,0.17928423,1.2822804,0.5724718,-0.44328758,0.12696998,0.239807,0.22559595,-0.44632858,0.08955723,-0.36647123,-0.08564335,-0.2350663,-0.37426937,-0.38517547,-0.220496,0.12927903,0.14403872,-0.4929626,-0.0868835,-0.024218982,-0.47497427,0.1814507,0.2604935,-0.04345294,-0.3948202,0.17991795,0.06918676,0.42828858,-0.11390792,-0.35685307,0.17186254,0.020418504,-0.06622322,-0.29201198,-0.10586456,0.3013477,-0.14484417,0.49537164,0.5299824,-0.015460379,0.16611743,0.014240719,0.12139945,-0.4681062,0.020755589,0.015436307,0.3602628,-0.011376203,-0.20010751,-0.14153533,0.3837393,-0.15636925,-0.20945616,-0.18464907,-0.18048604,0.28092733,0.37142336,-0.05234062,0.57196164,-0.27645752,-0.31143504,-0.1457084,-0.4687723,-0.17581068,-0.3701905,-0.25529498,0.18893637,0.24661577,0.40942588,0.20532022,-0.22720352,0.04911129,-0.10473408,0.060320884,-0.3665192,0.36919975,0.036695324,0.25553682,0.2639966,-0.38247636,0.4124372,0.3447839,0.47911793,0.017729279,0.26722994,0.3746894,0.22356473,0.4312597,-0.16137357,0.24151474,0.035810582,0.14443289,0.49904674,-0.035123676,0.0014016628,0.13985321,-0.071960784,-0.06522704,-0.09945465,0.3532022,0.07341869,-0.33875096,0.022355106,-0.1615474,-0.15289694,0.052256204,-0.03975375
source_dataset:NCI-H2342,-0.99750245,-0.44463152,-0.37004542,0.92907655,0.34175882,0.19717209,0.28547317,-0.26664987,0.056391597,0.72798944,0.14296025,0.28539795,0.7181351,-0.96995103,0.36135995,-0.6514209,-0.6348974,-0.7961651,-0.5165524,0.670302,0.02492246,0.08204586,0.013048664,0.1131003,-0.37902352,-0.25698537,-0.4410565,0.19474117,0.40125895,0.09748697,0.3482277,-0.61086845,-0.5899339,0.39327535,-0.65505475,0.059639275,-0.7414401,0.20611948,0.49280095,-0.9062805,-0.2480992,0.041579217,-0.11842996,0.18504274,0.40765408,0.2878441,-0.05376941,0.44212633,-1.1283273,-0.81131065,-0.0034486204,-0.044080377,0.70220125,0.2411124,0.67043245,0.3013416,-0.35874078,-0.12953311,0.49219272,-0.26902217,-0.9751487,1.472666,0.29687035,0.33186522,-0.5206608,0.686755,0.53403664,-0.7155142,0.55353546,-0.006997481,-1.0605147,0.781754,-0.39800292,0.10014315,0.08683476,-0.96219575,-0.13917872,0.51861554,-0.07445388,0.4503361,-1.2486757,-0.5806085,0.17085022,0.17303425,0.24828869,0.29040682,-0.6095221,-0.061015535,-1.1476386,0.752815,0.43514445,-0.27478895,-0.54849523,-1.1154975,-0.017806917,-0.2748217,-0.2403388,-0.11372095,0.74566644,-0.3728796,0.08685921,0.5856506,0.43825382,0.35839862,0.7618674,0.6047696,-0.43202296,0.103805706,0.255032,0.20141691,-0.43886268,0.06589979,-0.40076214,-0.065423645,-0.26377705,-0.40715048,-0.38309172,-0.2050427,0.14849696,0.1614099,-0.49377394,-0.08820033,-0.025136571,-0.49303773,0.1624235,0.2312192,-0.0373229,-0.43387163,0.16088688,0.058372505,0.41921625,-0.1117408,-0.34375852,0.15409611,0.0044812523,-0.033409327,-0.27241015,-0.095336504,0.29905248,-0.17564115,0.53064513,0.5062134,0.0093888715,0.14106715,0.030577186,0.09390256,-0.4450393,0.011137396,0.049675427,0.35701102,0.017369479,-0.19144967,-0.18114634,0.3961996,-0.12281898,-0.17685598,-0.18195818,-0.18584085,0.30607298,0.3448697,-0.06215728,0.60535884,-0.30048874,-0.32960272,-0.14710495,-0.44905472,-0.16146782,-0.36093467,-0.21753176,0.2056809,0.25140885,0.41142482,0.19284558,-0.2450298,0.076326124,-0.11713548,0.08079101,-0.3711514,0.4017932,0.025052074,0.23316458,0.30784446,-0.41569406,0.41085503,0.33153743,0.50062764,0.016245667,0.2666239,0.4049694,0.2528099,0.44137776,-0.16184732,0.2465293,0.04572656,0.16176069,0.4646271,-0.07276258,-0.00045521557,0.15349926,-0.048866518,-0.06602637,-0.07199159,0.36097166,0.044954076,-0.34785083,0.02717515,-0.16601619,-0.14532895,0.036736175,-0.017440215
source_dataset:NCI-H748,-0.65606564,-0.31484357,-0.30993778,0.643023,0.38002834,0.2857724,0.02264236,-0.05913654,-0.00038975477,0.6999514,0.00022384524,0.6197805,0.66656524,-0.07885557,-0.16686276,-0.5845509,-0.29589045,-0.7111883,0.2973845,-0.048959613,-0.24721183,-0.28407818,-0.40023762,-0.18688737,-0.26353428,-0.65596783,0.054055333,0.2280319,0.09700063,-0.055437177,0.22889307,-0.3080086,-0.61664486,0.47453487,0.016825661,0.22020148,0.10517113,0.4836019,0.3442706,-0.61549985,-0.28752902,0.21002346,0.21598616,-0.6773361,-0.6105121,0.038940147,-0.22464168,0.58898044,-0.97384477,-0.5573544,0.0009610355,0.1655617,0.28628904,0.14771992,0.016020998,0.70693827,-0.65396094,-0.6846568,0.2629005,-0.25807625,-0.6645911,0.82125473,-0.003492549,0.10458225,-0.12848522,0.26089722,0.59812844,-0.60728925,-0.15302673,-0.20447528,-0.13416252,0.6700957,-0.1522204,-0.27249137,-0.5143525,-0.35834017,-0.10230625,0.39267874,0.14398749,0.1876595,-0.8419368,-0.19147983,0.050473228,-0.14291044,-0.42172432,0.29661334,-0.28544593,0.033231236,-0.7358892,-0.010626074,0.142368,-0.072636366,-0.08524296,-0.5147391,-0.3992048,-0.258348,-0.22146294,-0.60491693,0.33493397,0.117976815,-0.008815497,0.52697927,-0.20443472,0.49951088,0.010465771,0.95240676,-0.13392219,-0.8661624,0.5460519,-0.082681,-0.61667466,-0.7096627,-1.2066036,-0.118694544,-1.0623335,-1.1979955,-0.09921539,0.3642543,0.40762997,1.0614792,-0.12784669,-0.021522284,-0.5886401,-0.71102226,-0.3256883,-0.43415627,0.41561574,-1.4920962,-0.65860844,0.10995373,0.1983168,-0.49910185,-0.18612832,0.22500801,-0.583385,0.2640736,0.86622614,0.69826055,0.66848236,-1.4494747,1.215188,-0.1793628,0.8150938,-0.61469775,1.0544027,-0.71500564,0.6198287,-0.098894164,0.1808452,0.0058820397,0.14998613,-0.18205304,-1.6267608,0.46969372,0.75087535,0.28088722,0.64545625,-0.60958636,1.1353521,0.022905976,-0.7688003,1.2669599,-1.4634855,-1.0034459,-0.09711444,0.757931,0.8419682,-0.35093737,-0.030789346,0.90990245,0.3534791,0.30900365,-0.07750535,-0.8307669,1.0990148,-0.3205706,0.6823745,-0.53336364,1.5413873,-0.47841358,-0.33035514,1.8124213,-0.9112839,0.23402688,0.26503265,1.0858703,-0.2576331,-0.33485323,0.76051235,0.28841114,1.2031076,0.18050012,0.31808105,-0.03428588,0.6479956,-0.6005919,-1.1782734,0.21991053,0.14312172,1.2268738,-0.36669022,0.3525868,0.46009856,-0.931489,-0.6852131,-0.15407208,-0.41803962,0.049081445,-0.9295654,0.71994823
source_dataset:NCI-H2087,-0.4371009,-0.16219585,0.12483902,0.41660914,0.09733279,0.43531594,0.08316901,0.25069076,0.37778267,0.36329663,-0.22791786,0.42139822,0.28988275,-0.2088674,-0.23064138,-0.3674251,0.11956778,-0.3660342,0.20595545,0.14224711,-0.36237714,0.14138961,-0.041410517,0.20707585,0.25591534,-0.4541265,0.4077534,0.35904482,0.19612864,-0.4140318,-0.16981131,-0.12606667,-0.11706389,0.28351218,0.15952274,0.3566588,-0.16764513,0.15540917,0.13992436,-0.36489278,-0.43295452,-0.2203474,0.28491825,-0.41378394,-0.38756013,0.28136018,0.20160852,0.35811424,-0.3593483,-0.35061723,0.24505374,0.38280678,0.272636,0.09558999,0.1584685,0.42792845,-0.29680204,-0.17406832,0.3188709,-0.3038916,-0.22320054,0.32303238,0.16692401,0.16972344,-0.2044901,-0.006279424,0.4186845,-0.29427433,0.032440644,0.21842541,-0.3193858,0.41387713,-0.22894612,-0.12157875,-0.13568173,-0.28519416,-0.44809428,0.24843244,0.10584555,-0.41102716,-0.30484104,0.43358403,0.18114819,0.18733168,-0.23934384,-0.20386428,-0.09723318,-0.10691738,-0.2934457,0.065753646,0.0550992,-0.075648606,0.07054787,-0.19266662,0.105043456,0.17643404,-0.2167194,-0.44667718,0.23229071,0.07318103,-0.24541225,0.44063452,-0.18446435,0.3298343,0.25333372,0.26446915,-0.5028676,-0.09014814,0.222845,0.5099313,-0.43775886,0.0032348782,-0.19716483,-0.12433058,-0.29478896,-0.54326606,-0.2642823,-0.21203011,0.15631948,0.26547822,-0.38469082,-0.17803353,-0.09342672,-0.300272,0.15936494,0.47617754,0.19451421,-0.5297797,0.06942605,0.25568873,0.53750324,-0.4227823,-0.5018618,0.39138138,0.028360076,-0.33624172,-0.06796984,-0.075579375,0.45985332,-0.18239412,0.46722972,0.5069939,0.09251089,-0.07603236,0.08632698,0.21591881,-0.332341,0.07150759,-0.2590345,-0.011381745,-0.07904274,-0.12889773,-0.13924763,0.05713126,-0.29503116,-0.28031355,0.10859224,-0.16347145,0.2911575,0.3401077,-0.1213156,0.35732952,-0.33686957,-0.36811358,-0.36552215,-0.15695992,-0.13254157,-0.6012285,-0.5941461,0.26038978,0.19032785,0.30647388,0.40006006,-0.085720405,0.27687776,-0.2294218,0.32439688,-0.4124895,0.34862727,-0.07329753,0.26253,0.3505839,-0.039258868,0.2967985,0.3333037,0.38172564,-0.017320566,0.11697298,0.09937449,0.07044718,0.4565022,-0.11708759,0.21113661,0.1125161,0.24503626,0.326859,-0.10022758,-0.18071379,0.03288067,0.25904232,0.08471547,-0.19309244,0.3765371,0.19748774,-0.37724823,-0.06604593,-0.056337252,-0.23921207,-0.06365193,0.056674957
source_dataset:A-673,-0.62649643,-0.22417532,-0.26303864,0.5988941,0.29899865,0.31267878,0.06526111,0.10893728,0.100690246,0.5889948,-0.17694746,0.7503252,0.5402115,0.08618884,-0.21914066,-0.67293024,-0.1872704,-0.65683943,0.48618293,-0.19054806,-0.4240061,-0.39419597,-0.35622668,-0.16412197,-0.21849564,-0.63842493,0.14974874,0.21072951,-0.07977332,-0.22303599,0.19776878,-0.18539077,-0.4782047,0.34955004,0.16263427,0.22997421,0.20930444,0.42832622,0.32269892,-0.5410502,-0.3196532,0.053463757,0.3085612,-0.82606643,-0.7986498,0.07291314,-0.12757623,0.64117306,-0.81619054,-0.5037122,0.10020599,0.16118796,0.2511026,0.06021049,-0.122307956,0.77634895,-0.560481,-0.6918379,0.22791974,-0.2513677,-0.5804737,0.6695319,-0.10986358,-0.003401488,0.0028992742,0.22213474,0.5923122,-0.56518745,-0.24326709,-0.23662063,0.033823818,0.69995594,0.028472364,-0.33399278,-0.5079553,-0.22239684,-0.10255277,0.44018945,0.28087914,0.07851297,-0.7478447,-0.10274336,0.10391344,-0.27908254,-0.48672882,0.22973372,-0.14237608,0.15224856,-0.5815507,-0.13306263,0.1564632,-0.02765878,0.02097768,-0.38988492,-0.3352465,-0.31475937,-0.1371975,-0.7733557,0.1878826,0.27567893,0.004544243,0.5569674,-0.36476418,0.3729806,-0.17590092,-0.13163486,-0.5453243,-0.57632023,0.22955474,0.96185803,-0.7592194,-0.50571173,-0.4015329,-0.35829294,-0.76563627,-0.9763434,0.189524,-0.013280898,0.23783964,0.6224995,-0.6972779,-0.22153011,-0.20183212,-0.2866624,-0.22930178,0.4645012,0.4544988,-1.010892,0.087493345,0.3550663,1.0651379,-0.82817477,-0.83695203,0.7625678,0.17115326,-0.8562224,0.06557214,0.5159503,0.5985956,-0.57162386,0.97414577,0.5445632,0.27030653,-0.31299543,0.33478817,-0.050955117,-0.23606159,-0.19984736,-0.5386141,-0.39868033,-0.0607891,-0.14409727,-0.4582515,-0.31005108,-0.21595222,0.01788032,0.38447034,-0.22445169,0.865805,0.3596635,-0.296473,0.40160868,-0.98543036,-0.7642138,-0.79487133,0.4055316,0.31434315,-1.1032428,-0.86438,0.45950186,0.06724393,0.1730291,0.4939345,-0.2546416,0.7442667,-0.24858153,0.9383066,-0.54510355,0.6417336,-0.453201,0.49037066,1.0325037,0.42933714,0.16660818,0.5739803,0.66940063,-0.06499243,-0.20646131,-0.50645655,-0.18893068,0.6899197,-0.34421265,-0.084540665,0.054205347,0.30057874,-0.10044965,-0.5853142,0.06696083,0.4051504,0.691366,0.16982245,-0.5387041,0.59287375,-0.23264655,-0.7418466,-0.09323888,-0.21009651,0.044500172,-0.35300937,0.56742734
source_dataset:TE-5,-0.60625505,0.2350038,0.1383987,0.9447716,-0.23296535,0.56098187,0.6081262,0.81103134,0.2349407,-0.23727182,-0.7410702,0.45167238,0.34336424,-0.4283707,-0.023572236,-1.0158765,-0.034961298,-0.62726355,-0.43020165,0.73884416,-0.6367686,0.25843924,0.5247513,0.5287126,0.2967857,-0.33502665,-0.21766865,0.020658255,0.014355063,-1.0339546,0.51217544,0.16022754,-0.239411,-0.54382014,-0.1040795,-0.17018497,-0.9091836,0.060960695,0.44427368,-1.1310107,-0.7682592,-1.0770042,0.43042684,0.23780215,-0.04482895,0.93481266,0.555271,0.5864303,-0.5338112,-0.22940363,0.63148946,-0.40226707,0.27887905,-0.30285144,0.52156687,0.2976799,0.56293094,-0.045370936,0.834337,-0.029859543,-0.9086789,1.2150078,-0.22618508,-0.27365667,-0.20803852,0.67223114,0.842869,-0.3667074,0.23440966,0.22754219,-1.1923383,0.8554237,0.25196984,-0.00786487,0.45547408,-0.81553495,0.01832971,0.6423312,0.4573098,-0.1421561,-1.049833,-0.38299003,0.65057915,-0.07298787,0.3353426,-0.49679,-0.45806316,-0.088647656,-0.5954137,0.2535272,0.22614788,-0.6126926,-0.08214128,-0.62287265,0.37865198,0.038878396,0.07383764,-0.16432536,-0.0042503774,-0.4605947,0.07248552,1.2404361,0.033889085,-0.5617479,0.29362547,-0.16989568,-0.79923046,-0.6018661,-0.008275509,1.1322579,-0.7465186,-0.49204987,-0.13155502,-0.5050485,-0.93769395,-1.0587705,0.324826,0.055482298,0.033634916,0.44278383,-0.48713952,-0.19557808,-0.41031063,-0.020134747,-0.13599625,0.6074264,0.493741,-1.1741168,-0.0272462,0.56312525,1.1661184,-0.9291993,-0.8396059,0.9948547,-0.013574537,-0.828452,0.27035224,0.41384363,0.73994243,-0.5275067,0.9789256,0.8001203,0.092983805,-0.5203301,0.46255323,-0.11571938,-0.16065027,-0.2905907,-0.85405797,-0.60273254,-0.34220493,0.011074647,-0.46618992,-0.49406272,-0.15361993,-0.21084592,0.64910567,-0.17217673,0.6902568,0.39702725,-0.3500958,0.1783422,-0.87712324,-0.7438518,-0.8086372,0.36534625,0.47706544,-1.1568305,-1.1428773,0.62813556,-0.13062865,-0.045425594,0.40848777,-0.24626365,0.88851076,-0.07144864,0.8230816,-0.34882873,0.8273666,-0.5756203,0.7083012,0.982188,0.43950558,0.0055512786,0.7348321,0.65676045,-0.2876773,-0.31539226,-0.49099022,-0.36691767,0.8764082,-0.2662931,-0.14422446,0.094619416,0.14926714,-0.07662842,-0.7297878,-0.13506973,0.3340683,0.6490238,0.0050599203,-0.42687467,0.4731034,-0.045966446,-0.63523066,-0.13438979,-0.12510157,-0.034276217,-0.5025627,0.7123772
source_dataset:C32 [Human melanoma],0.107850164,0.17763048,0.18625188,0.48740223,0.02254919,0.8087549,0.16618443,0.9323039,-0.24324569,-0.18501243,-0.5572142,0.13919112,0.40104452,-0.080653355,-0.55334413,-0.85312116,0.21286626,-0.4545476,-0.38829428,0.71847713,-0.34405774,0.29724276,0.33144015,0.030874357,0.58454084,-1.0270724,0.25851303,0.00822711,0.13316324,-1.0150112,0.7980075,0.4319731,-0.9060614,-0.38385358,0.51098967,-0.12830502,-0.6700423,0.66942096,0.010788918,-0.9350492,-0.85246205,-0.7031939,0.521265,-0.32037878,-0.6327936,0.7502172,0.31673384,0.4133526,-0.7882334,0.29001,0.68774563,-0.41024593,-0.11885464,-0.20531471,0.08585479,0.4393083,0.49849442,-0.851494,0.98318183,-0.08849852,-0.7065531,1.1329551,-0.47568446,-0.27575415,-0.38368016,0.5007604,1.0832164,-0.29044253,-0.18285507,0.30513775,-1.1018084,0.5120952,0.15362692,-0.1779875,0.05841002,-0.39362377,0.3531184,0.14365801,0.2476424,-0.10069293,-0.96097064,-0.33798042,0.71987635,0.03255084,-0.12808137,-0.6086116,-0.8086919,-0.6138973,-0.52055705,-0.14030609,-0.3014416,-0.48273414,0.26126033,-0.013937876,-0.24999876,0.5731375,-0.45423627,-0.037352413,-0.15909834,-0.4580673,-0.07711829,1.1244732,-0.4123704,-0.26509023,-0.050687507,0.17711781,0.09047848,-0.047107644,0.69479334,0.18350637,-0.58851707,0.07020174,-0.68119454,-0.060954362,0.25578436,-0.13398027,-0.5961194,-0.35707006,0.44404358,0.79522836,-0.5666901,-0.16077733,0.12548305,-0.7696138,0.08922264,0.22451289,0.1661686,0.026527226,0.17899874,-0.06856856,0.15742117,-0.29732412,-0.50385684,0.047729284,0.3352299,-0.5779438,-0.26957235,0.258631,0.32335147,-0.39128956,0.13138737,-0.1024687,0.5005685,0.46419263,0.025945872,0.42146292,-0.3134035,0.45015407,0.10606589,0.4572186,0.19143252,-0.6198097,-0.20833479,0.4596855,-0.494875,-0.09471816,-0.18601508,-0.4198376,0.59079695,0.48918432,-0.18029143,0.7178242,-0.6596613,-0.38239586,-0.13970925,0.10995406,-0.31150636,-0.4513225,-0.33763322,-0.0650354,0.6705383,0.77026355,0.6023183,-0.10997763,-0.07046428,-0.5432182,0.4019962,-0.8414269,-0.044977203,0.23389196,-0.2728395,0.4054358,0.020670459,0.6425389,0.061427608,0.31869182,0.38496053,0.14940831,-0.015134752,0.12857544,0.21941733,-0.032992035,0.40108588,-0.17009169,0.5701856,0.35943258,0.36040124,0.37731338,-0.12881377,0.5539492,0.27476835,-0.53796905,0.51984644,-0.21032986,-0.5568149,-0.13428783,-0.28433022,-0.14718664,0.08170132,-0.378779
