,E0,E1,E2,E3,E4,E5,E6,E7,E8,E9,E10,E11,E12,E13,E14,E15,E16,E17,E18,E19,E20,E21,E22,E23,E24,E25,E26,E27,E28,E29,E30,E31,E32,E33,E34,E35,E36,E37,E38,E39,E40,E41,E42,E43,E44,E45,E46,E47,E48,E49,E50,E51,E52,E53,E54,E55,E56,E57,E58,E59,E60,E61,E62,E63,E64,E65,E66,E67,E68,E69,E70,E71,E72,E73,E74,E75,E76,E77,E78,E79,E80,E81,E82,E83,E84,E85,E86,E87,E88,E89,E90,E91,E92,E93,E94,E95,E96,E97,E98,E99,E100,E101,E102,E103,E104,E105,E106,E107,E108,E109,E110,E111,E112,E113,E114,E115,E116,E117,E118,E119,E120,E121,E122,E123,E124,E125,E126,E127,E128,E129,E130,E131,E132,E133,E134,E135,E136,E137,E138,E139,E140,E141,E142,E143,E144,E145,E146,E147,E148,E149,E150,E151,E152,E153,E154,E155,E156,E157,E158,E159,E160,E161,E162,E163,E164,E165,E166,E167,E168,E169,E170,E171,E172,E173,E174,E175,E176,E177,E178,E179,E180,E181,E182,E183,E184,E185,E186,E187,E188,E189,E190,E191,E192,E193,E194,E195,E196,E197,E198,E199,E200,E201,E202,E203,E204,E205,E206,E207,E208,E209
target_dataset:CGTH-W-1,-0.34099385,-0.28271955,-0.0058944076,0.21138908,0.20285797,0.46216983,0.06994163,0.3305852,0.36951703,0.43211713,-0.2820176,0.3399185,0.055378094,-0.43278283,-0.0943038,-0.59722114,0.0716255,-0.21637231,0.13571088,0.24744284,-0.29736632,-0.069068864,0.18802848,-0.0063738376,0.15393727,-0.4700359,0.4872775,0.28454894,-0.009999633,-0.40759864,0.059899867,-0.0812569,-0.24331093,0.20573238,0.26628062,0.32687753,-0.356962,0.19779655,-0.07770051,-0.14622141,-0.33734697,-0.24381414,0.1293233,-0.6184639,-0.3758661,0.23773259,0.29735363,0.26381552,-0.40759337,-0.28399113,0.40778792,0.23258574,0.47188854,0.13914308,-0.02708593,0.44285303,-0.059929654,-0.34733045,0.37986976,-0.43477017,-0.14818794,0.53229237,0.03154321,0.20060995,-0.32910448,0.23288062,0.40439865,-0.38413322,0.2166268,0.17664853,-0.4606868,0.41873276,-0.044365168,-0.08609742,0.03624475,-0.10247657,-0.22617204,0.18095133,0.07556504,-0.18795083,-0.4682787,0.21406917,0.38185525,0.0637578,-0.20497963,-0.1553795,-0.20635402,-0.054627415,-0.3391538,0.29024553,0.14758065,0.15709601,0.054035924,-0.11173003,0.059711304,0.103996515,-0.42408186,-0.55332243,0.27161372,0.27806777,-0.14115654,0.26952553,-0.35367966,0.27406007,0.16138929,1.2945677,-0.39316168,-1.0205063,0.45648694,-0.011783391,-0.5775068,-1.1494398,-1.4740394,0.1288896,-1.8196872,-1.8614786,0.26991564,0.55918235,0.56227124,0.796839,-0.71488017,-0.081448406,-0.36727083,-0.8377414,-0.7308642,-0.65015256,0.31752723,-2.2459476,-0.4392638,-0.046650708,0.79256713,-0.40550724,-0.23565239,0.15815395,-0.5262846,0.5775347,0.5405502,0.7613481,0.43770206,-1.4670159,2.1956408,0.14972875,0.6745662,-0.9437615,0.9001514,-1.1793809,0.34384933,-0.73063725,0.5880414,-0.15098888,0.6232151,0.17692219,-1.7442096,0.37161964,1.1444983,0.92980564,0.30776906,-0.36841393,1.5105017,-0.36096475,-0.56912684,1.5542818,-1.5976747,-1.2646002,-0.53936094,0.5154372,0.9383228,-0.5560049,0.5264326,1.0781513,0.06598064,0.14074567,-0.31230944,-1.0661465,1.4291444,-0.21529835,1.0753263,-0.40289372,1.9431529,-0.8218276,0.072485164,2.2839212,-1.1074877,0.11217648,0.40628228,1.5317196,-0.3140803,-0.14023495,0.83090264,0.73510617,1.209383,-0.38014594,0.009229302,0.26585424,0.4964625,-0.9043454,-1.8764174,0.12915632,0.9864964,0.85020536,-0.2908469,0.5482435,0.6876155,-1.1771911,-0.88921,0.1569529,-0.45548075,0.3799526,-0.848736,1.3351568
target_dataset:VCaP,-1.0923802,-0.49503136,-1.2515885,0.81381834,0.725297,0.07155454,0.28036022,0.046905532,-0.2862068,1.0116988,-0.3307171,1.2674699,0.5370937,-0.06513308,0.34186006,-1.8670882,-0.99329907,-1.0133511,0.64071906,-0.3981347,-0.5284331,-1.7409822,-0.2693125,-1.005645,-1.3902736,-0.71217144,-0.49798095,-0.27053306,-1.0303998,0.034871966,1.3689055,-0.27650425,-1.1875414,0.10153167,0.05005361,-0.19126278,0.21940403,0.762455,0.44925988,-0.6766478,0.045299083,0.20741919,0.0074269474,-1.582195,-1.1594453,-0.18444154,-0.3804321,1.0603788,-1.7150289,-0.83206344,0.20617017,-0.70758414,0.78090703,-0.01613672,-0.71696055,1.3295376,-0.36589184,-1.6295464,0.25268424,-0.34175506,-1.3193331,1.9818616,-0.84122336,-0.31817925,0.15417482,1.3410571,0.8758047,-1.2896391,-0.13474286,-1.156621,0.110355854,1.4438577,0.95857155,-0.53587097,-0.546265,-0.054847494,0.9390502,0.91333896,0.6544184,1.4802259,-2.0954795,-1.728568,0.43340385,-1.4269067,-0.53864515,1.102758,-0.4258909,0.89815533,-1.3269742,0.19148579,0.763226,0.35057348,-0.29597914,-0.9423462,-0.9308979,-1.5638286,-0.1697813,-1.5175927,0.23567426,0.8942814,0.78762805,0.6300769,-0.767735,0.062037826,-0.9399352,0.7324608,0.106487334,-0.035860837,0.18234658,-0.40552709,-1.5941893,0.041614957,-1.1340541,-1.6248186,0.031445213,0.7232996,-0.4557833,0.29496324,-0.65895987,1.2019728,0.44149137,0.707468,-1.4617583,-0.6822333,0.3477884,-0.6930158,-0.24144223,0.18886542,-0.54280466,0.13253902,-0.45996907,0.05629024,-0.043468863,0.57954526,-0.7277962,-0.27722758,0.8534207,1.411451,0.918553,-1.6841199,-0.25862673,0.060622185,0.22152153,1.0162519,1.7249432,-0.6625978,0.62516546,0.42721915,-0.8367147,1.4753406,-1.5510743,-1.3328962,-1.7343315,1.4302217,0.6550392,-1.0905375,0.8615936,-1.3164636,0.80814296,1.6268666,-1.2864383,1.1776263,-1.781984,-0.67777777,1.4490118,0.39172512,1.6352937,0.2765838,-0.9353839,0.7225966,0.65014374,0.5574912,-0.6116481,-1.3662232,-0.05708371,0.7344513,-1.0828912,-0.36875448,1.4673103,0.04332003,-0.12548617,1.1063899,-1.1869566,0.6277013,1.0743477,1.0231478,-0.51721656,-0.88443196,0.6736084,-1.2041718,1.9334315,0.9881868,0.41364464,-1.4621881,-0.026208669,0.693202,-0.08217341,1.7882986,-0.7477213,0.72942024,-1.7394555,-0.3722989,-0.12878883,-1.4199208,-0.43362832,-0.589921,-1.1382552,0.18037993,-1.2790629,-0.15323052
target_dataset:COV434,-0.51129216,-0.13925514,0.10436662,0.47921818,0.064059876,0.41787797,0.15224218,0.2775907,0.41056356,0.331925,-0.28266776,0.46599364,0.2765403,-0.24430701,-0.16689086,-0.4428532,0.08239369,-0.3944283,0.18567535,0.16122794,-0.41244483,0.109178156,0.009432826,0.24777204,0.21326834,-0.39018938,0.3324644,0.33295912,0.14605579,-0.45089823,-0.13871843,-0.12887654,-0.07248744,0.21696004,0.10313515,0.32033217,-0.2192101,0.102550164,0.18940985,-0.41317385,-0.43585765,-0.30027324,0.28234234,-0.36118376,-0.3395265,0.32507548,0.2413999,0.39349234,-0.3535245,-0.39074,0.26904744,0.3276238,0.3168884,0.06195317,0.19075973,0.42443085,-0.23767483,-0.11956616,0.32997853,-0.28877163,-0.2805762,0.3902064,0.14735928,0.13653974,-0.18039876,0.06212905,0.42327756,-0.31615344,0.076295875,0.19271919,-0.3587904,0.4798094,-0.16671485,-0.10880719,-0.07176871,-0.33239725,-0.43203923,0.32041395,0.15549585,-0.37965575,-0.3692075,0.3633028,0.20977885,0.1345941,-0.17709363,-0.19578859,-0.08249463,-0.0395828,-0.3189973,0.1094549,0.121352345,-0.09952505,0.03465569,-0.26628107,0.1638555,0.09696709,-0.15607564,-0.46960008,0.22633952,0.07138154,-0.20083576,0.4897202,-0.15581799,0.24763918,0.25752452,1.0005082,-0.7626337,-0.6904373,-0.014142543,0.40456936,-1.0766689,-1.0990629,-1.2351074,-0.55631584,-1.9069278,-1.4719689,0.60116,0.58250934,0.033013567,0.429086,-1.0583694,0.14442821,-0.5558048,-0.63924634,-0.6854751,-0.53363633,-0.01578471,-1.9815278,0.023416564,0.036208786,1.3720571,-0.27348134,-0.48334625,0.6106539,-0.3334557,0.117436945,0.07330561,1.072322,0.42006814,-1.2629616,2.2291703,0.91956604,0.008746989,-0.43732014,0.89292383,-1.3173916,-0.15856229,-1.084694,-0.006316263,0.13601118,-0.006468338,0.006667942,-1.4670126,0.3337891,1.0751908,0.61827004,0.18281011,-0.34145176,1.5132487,0.23357412,-0.5098139,1.3096818,-1.6682161,-1.2471535,-0.47093958,0.040050328,1.2911798,-0.77431095,0.07760143,1.0428342,-0.23191708,-0.037884384,-0.5614956,-1.2911155,1.1137087,0.46911123,0.65066427,-0.14711693,1.9883252,-0.9237571,0.91820264,2.0551765,-0.8390838,0.09099892,1.106646,1.7112606,-0.511754,-0.2678535,0.32293168,0.10667426,1.4620677,-0.6281183,-0.39391428,-0.116949536,-0.13733071,-0.36811307,-1.7906232,0.65896267,1.3325901,0.1263864,-0.7369525,0.047907643,0.6041599,-1.2790964,-0.9328197,0.20167667,-0.7151622,0.6865933,-0.8171166,1.4589216
target_dataset:UACC-812,-0.7920364,-0.08354389,0.021821141,0.6997473,-0.051910847,0.35414875,0.42393345,0.36711892,0.5412288,0.22407109,-0.47181183,0.5702299,0.19678637,-0.49817103,0.1302647,-0.73699886,-0.08021501,-0.4760367,0.013240486,0.32554778,-0.55331314,0.022773132,0.27128917,0.40878323,0.052513674,-0.11791688,0.03248304,0.23222893,-0.018265277,-0.57234555,0.0006430596,-0.16195042,0.08527469,-0.040312976,-0.15252514,0.17509718,-0.52444977,-0.11758718,0.3477145,-0.58163756,-0.43405834,-0.6140983,0.21925896,-0.09850809,-0.050521225,0.50745994,0.42322564,0.48372525,-0.33934027,-0.54607666,0.3791324,0.09836206,0.5421152,-0.041930676,0.3580981,0.36140195,0.041028857,0.12623951,0.4033044,-0.25399026,-0.49536604,0.7100561,0.10021803,0.05074682,-0.15645175,0.37120542,0.42568895,-0.40733504,0.33594394,0.13080406,-0.62198424,0.7172898,0.044776767,-0.014254212,0.25038427,-0.5409657,-0.36229706,0.5750029,0.3008883,-0.22966333,-0.6454685,0.06383172,0.35149258,-0.021509856,0.124863595,-0.17586145,-0.074774414,0.18888873,-0.4478624,0.37678224,0.3952414,-0.17767268,-0.14048295,-0.5727858,0.4208446,-0.18080433,0.029769585,-0.50422513,0.2529555,0.03422437,-0.02753833,0.64549696,-0.003927782,-0.06794605,0.35102224,0.5708108,-0.22000246,-0.23987222,0.5245949,0.16742852,-0.36799553,-0.17485867,-0.6637425,0.16295025,-0.37667415,-0.73158145,-0.37024218,-0.1477503,0.46270323,0.52578616,-0.5280684,-0.2084163,0.059089545,-0.6433605,-0.045256615,0.1363393,0.2076835,-0.704527,-0.004730165,0.011270627,0.36142698,-0.31572118,-0.37814778,0.05772847,0.028343879,-0.06709896,-0.061696425,0.054978,0.33211634,-0.44700393,0.7234893,0.11841336,0.42185074,-0.11977319,0.112747274,0.056757838,-0.2013528,0.07718491,0.26505625,0.12558751,0.36394194,-0.1712157,-0.43985596,0.30793506,-0.07529412,0.13914806,-0.07433637,-0.24255145,0.59672576,0.09273252,-0.15380728,0.78925335,-0.5803261,-0.51169765,-0.34904975,0.012176484,-0.16046241,-0.46401197,-0.07119855,0.26230285,0.38285747,0.49076578,0.36217663,-0.22452268,0.3723144,-0.4659919,0.5516133,-0.59120077,0.4597455,-0.05905588,-0.096192345,0.71181667,-0.3351428,0.40827966,0.090771675,0.5485314,0.13878597,0.20721148,0.36159873,0.45314652,0.38756666,-0.16536197,0.31243485,0.16891338,0.4999162,0.046042114,-0.27522117,-0.063748896,0.17403732,0.4652331,0.2009866,-0.035319217,0.5183964,-0.14779148,-0.5123446,0.0031993017,-0.14496127,-0.136553,-0.0660618,0.10528484
target_dataset:TE-4,-0.42001557,-0.3272032,-0.63331765,0.39732695,0.48501825,0.43873534,0.17923868,0.48933178,-0.18620238,0.5417254,-0.44229192,0.60501635,0.20016757,-0.34042722,0.05430001,-1.4833953,-0.4144287,-0.53600967,0.09885764,0.22922547,-0.34495974,-0.8929356,0.23434497,-0.6635101,-0.49123064,-0.819883,0.023163646,-0.14324883,-0.60565436,-0.41254294,1.1604822,0.059052616,-1.0661166,-0.12290913,0.35959196,-0.10981551,-0.38255638,0.6900927,-0.008900434,-0.48485196,-0.26388943,-0.21035646,0.07187265,-1.144623,-0.824376,0.18716043,0.0680511,0.5946953,-1.2141652,-0.25491655,0.56376964,-0.5805458,0.5721947,-0.013626166,-0.47592282,0.86450994,0.21764937,-1.3048185,0.6072562,-0.38483408,-0.830359,1.6276085,-0.6849646,-0.18211065,-0.2521639,1.0648787,0.86784667,-0.8522117,0.07154322,-0.42765534,-0.5737777,0.92364866,0.65068877,-0.29568505,-0.07549401,-0.020164222,0.74060667,0.43069565,0.36707032,0.8299321,-1.5597245,-1.0977801,0.71474,-0.7413322,-0.30482715,0.30463362,-0.64904493,0.20801395,-0.91409624,0.290121,0.338607,0.22254775,-0.045342743,-0.3802597,-0.57311666,-0.5454931,-0.5247296,-0.8927563,0.13644198,0.46814275,0.4048246,0.5932338,-0.72260404,-0.062495112,-0.50801224,0.5047591,-0.5122218,-0.20215392,0.21987098,0.3949513,-0.5253033,-0.21357651,-0.46712393,-0.14205779,-0.61074924,-0.7401413,-0.13816899,-0.05125004,0.17464747,0.30773088,-0.5160433,-0.11467537,-0.15688224,-0.42297173,-0.016367376,0.21434987,0.1345973,-0.83005506,0.040379547,0.16570297,0.6379459,-0.3432135,-0.44731346,0.352001,-0.06504161,-0.14652523,-0.04159774,0.12685002,0.4211766,-0.41631082,0.83718073,0.5277727,0.11422549,-0.15082672,0.23829365,-0.107972085,-0.278563,-0.14722241,-0.09714873,0.06475842,0.008815586,-0.0976875,-0.43901482,0.1809988,0.02248776,-0.049902618,0.07632908,-0.20478639,0.54237795,0.26824445,-0.19231501,0.61913717,-0.5934597,-0.5408973,-0.3525514,-0.13514519,0.12049267,-0.5727249,-0.34593275,0.411582,0.14020109,0.27119577,0.1855475,-0.34224987,0.4350103,-0.123105034,0.38052714,-0.37156278,0.6881413,-0.21925908,0.32093737,0.70782006,-0.29654983,0.27839282,0.43159544,0.66033113,-0.09453061,0.07966262,0.2459566,0.16729695,0.6356531,-0.21101347,0.12779136,0.0865832,0.20371586,0.16705051,-0.44676328,-0.020905629,0.29388672,0.23123923,-0.07279638,-0.07856741,0.42753738,-0.122768044,-0.48112553,0.0037691481,-0.18909867,-0.058065042,-0.19867235,0.31822383
target_dataset:TE-15,-0.43615112,-0.15428677,0.13055797,0.41613716,0.08994576,0.43699595,0.08640565,0.26129732,0.3853751,0.35434064,-0.23934585,0.4306577,0.28395545,-0.19547136,-0.23587912,-0.3697791,0.12811333,-0.36381477,0.21894912,0.13207299,-0.37512496,0.13791068,-0.0407338,0.21238033,0.26126322,-0.45218852,0.41352433,0.35914978,0.18749778,-0.425897,-0.17573205,-0.11829305,-0.10516045,0.27585617,0.1677701,0.35791487,-0.15902846,0.1504058,0.14110759,-0.36254308,-0.43665677,-0.23134303,0.29318407,-0.42002362,-0.3993747,0.28478536,0.2076613,0.36235303,-0.3470761,-0.34765568,0.24991418,0.38489708,0.26773205,0.089118406,0.15233934,0.43162894,-0.2929897,-0.17096877,0.3159196,-0.30176178,-0.21789154,0.30939513,0.16214871,0.16234674,-0.19437279,-0.012455018,0.4181152,-0.2896871,0.024589531,0.2177636,-0.3070388,0.4153396,-0.21969464,-0.12570228,-0.13660868,-0.27874288,-0.45181677,0.2522754,0.11519156,-0.42237616,-0.2954814,0.44352874,0.18227728,0.18073435,-0.24350327,-0.209949,-0.08600549,-0.100030325,-0.2818688,0.055024903,0.054727178,-0.075908974,0.07794888,-0.18508147,0.1110502,0.17451288,-0.20830059,-0.45591444,0.22194903,0.08059215,-0.24636482,0.44480684,-0.19252189,0.3217942,0.24297597,1.7613751,0.4603799,-0.6142221,1.2463866,-0.95339143,-0.21552236,-0.74910384,-2.0935843,0.9075404,-0.86954904,-1.3336402,-0.5902625,0.16973874,1.2041391,1.104743,-0.9485954,-0.18426973,0.36900502,-1.6383644,-0.66086125,-1.0364643,0.08532767,-1.401752,-0.2392487,-0.72659695,-0.08993918,0.16844267,0.099359214,-0.9124139,-0.15104648,1.0059843,-0.037337646,0.462295,-0.06616491,-1.2909949,1.6959476,-0.8057561,1.1973865,-0.27013543,0.31429586,-0.69092023,0.16930339,-0.124731675,1.8345543,0.6665765,1.5482849,-0.21903569,-1.4846648,1.1883109,0.8692044,1.3749667,-0.6328479,-0.47067308,1.5004132,-0.61590755,-0.27955705,2.1738496,-1.3204815,-0.9756156,-0.16372818,0.28716058,-0.015394062,0.058626056,1.6100038,0.41991973,0.81422585,0.92329913,-0.05035627,-0.8567966,0.6878083,-0.89001715,0.9949803,-0.9243928,1.110066,-0.11273144,-0.9561406,1.8700559,-1.5461116,0.68668145,-0.4374175,1.2433939,0.42013806,0.4693963,1.3850975,1.5908322,0.39869463,-0.33613625,0.5356477,0.29356974,1.046384,-0.72928894,-1.0321426,0.34948725,0.75304955,0.80432224,0.2415191,0.61675,0.86314446,-1.2836553,-0.8673103,0.27210724,-0.48830986,0.26730853,-0.1751228,0.4300127
target_dataset:HPAF-II,-0.27937797,-0.39374673,-0.16307543,0.07043961,0.32772377,0.46639946,0.035618328,0.3530929,0.30493852,0.53395927,-0.29147077,0.31361496,-0.07151377,-0.5503463,-0.005861953,-0.79429966,-0.007980213,-0.14494908,0.12605524,0.27329677,-0.23675452,-0.300205,0.29343033,-0.2395278,0.010804623,-0.53076136,0.5228778,0.2126861,-0.18802424,-0.35437283,0.28458196,-0.06145182,-0.41516668,0.18208419,0.35709637,0.2939433,-0.4281143,0.2911853,-0.22510388,0.00048708916,-0.2449293,-0.1878803,0.01294601,-0.84789294,-0.43935782,0.15732904,0.30077934,0.22635351,-0.52598315,-0.24940866,0.49582607,0.09965661,0.6071731,0.17943928,-0.2155112,0.5085009,0.05490285,-0.57662654,0.40935615,-0.5293428,-0.13665287,0.73292756,-0.10503507,0.20983611,-0.40169597,0.43185472,0.42064932,-0.4910527,0.3019023,0.08033332,-0.50568444,0.4485811,0.110829085,-0.09481071,0.08693136,0.05293101,-0.007914066,0.13866588,0.061200526,0.054632515,-0.648431,-0.021449775,0.50998366,-0.08388518,-0.23414913,-0.048321277,-0.3059299,0.002436109,-0.419274,0.41966403,0.21406613,0.34489697,0.039398544,-0.06693659,-0.06500809,-0.0048867464,-0.5880561,-0.67279536,0.3018598,0.45888108,-0.035581186,0.14434078,-0.511612,0.26779348,0.029416576,0.9889988,0.010205984,-0.14974132,0.7040222,-0.25439796,-0.45977658,-0.26731378,-1.1723434,0.2537407,-0.41754067,-0.6636609,-0.47438866,-0.08164634,0.5844111,0.6212039,-0.8062107,-0.102518655,0.17650929,-1.0412239,-0.20568988,-0.31655172,-0.02968064,-0.68534577,0.10700887,-0.32480526,0.2468149,0.031221002,-0.22242819,-0.28379276,0.06366439,0.23919746,-0.30801916,0.26822364,0.1113739,-0.64702666,0.96623254,-0.05123204,0.4971039,0.15838228,0.11725771,-0.19926116,-0.2783308,-0.025906324,0.77566606,0.60627,0.6359787,-0.33245397,-0.6798152,0.77856207,0.21487376,0.4824284,-0.45941746,-0.3466044,0.8879445,0.06228012,-0.1463747,1.2896945,-0.81617785,-0.60834146,-0.13323782,-0.14152858,-0.09631404,-0.22084066,0.5196778,0.21019523,0.54060733,0.69746935,0.12129781,-0.5267899,0.21746515,-0.41769248,0.45519066,-0.6689708,0.6001028,0.009249441,-0.2363897,0.9452554,-0.7866516,0.5950295,0.059661314,0.8223721,0.25466737,0.33912247,0.66516954,0.72568804,0.39395517,-0.27906972,0.33188096,0.038727447,0.5103137,0.043332934,-0.36234,0.34558988,0.44386882,0.26955473,0.066603445,0.03545458,0.60612535,-0.61187184,-0.6271062,0.12532923,-0.3862126,0.10185626,-0.0037872493,0.10499811
target_dataset:CAL-29,-0.5304257,-0.44168422,-0.061970368,0.5403489,0.3618638,0.3485238,-0.04367104,-0.23946759,0.057722807,0.7126208,0.28228223,0.07023275,0.6552912,-0.67564756,-0.06649619,-0.16585948,-0.22801638,-0.53624725,-0.3154925,0.5261261,0.14723155,0.3834889,-0.17761149,0.08207847,0.06896567,-0.5258228,0.11567193,0.38680053,0.6568825,0.088543296,-0.020678237,-0.48019466,-0.5650775,0.6429531,-0.24792399,0.3133713,-0.44723594,0.34705073,0.1978049,-0.5741087,-0.31949463,0.2565421,0.0054899454,-0.048984498,0.11245927,0.15752202,-0.10185513,0.22654243,-0.86383784,-0.51302683,-0.039102122,0.3588645,0.39091006,0.34862757,0.50887275,0.26500952,-0.5695152,-0.22392592,0.41623387,-0.3312459,-0.49275088,0.814268,0.4316859,0.46646935,-0.5743265,0.15111408,0.45143253,-0.4513607,0.28190297,0.26118433,-0.78041506,0.3562801,-0.70519435,0.037219286,-0.17547268,-0.6507802,-0.39053217,0.12320146,-0.27406102,-0.025844067,-0.6355134,0.10337329,0.039290726,0.52039135,-0.07491879,0.03698893,-0.52446425,-0.41893607,-0.7706007,0.41962162,0.032976173,-0.1764595,-0.24103864,-0.5623711,-0.12885743,0.28314322,-0.4728251,-0.0054968894,0.6547973,-0.33940592,-0.24888815,0.34817892,0.2410566,0.6938697,0.73675793,0.7330058,0.07327017,-0.5396644,0.8773571,-0.074828684,-0.17340636,-0.35432744,-0.9985721,0.54915154,-0.4261483,-1.0467887,-0.4932086,-0.10749675,0.8518728,0.8834157,-0.4854368,-0.33612502,0.19493002,-0.87552726,-0.2157231,-0.047169805,0.42062536,-0.95574117,-0.23938134,-0.10884033,0.11030574,-0.41499773,-0.28405148,-0.21812987,-0.017922368,0.13061231,0.17561588,0.078972265,0.3153998,-0.7162288,0.8771527,-0.403644,0.90613043,-0.3962465,0.16559583,0.02973169,0.09938827,0.21399984,0.69317,-0.018618122,0.8361303,-0.12984034,-0.7351039,0.35787252,0.03493038,0.4997253,-0.041347302,-0.30434132,0.82460666,-0.2664583,-0.22684184,1.0779845,-0.76774657,-0.64525783,-0.45191687,0.4169531,-0.26573774,-0.40471965,0.28279996,0.30001986,0.59024334,0.6362919,0.49916303,-0.19519973,0.62794966,-0.8949201,0.9573595,-0.8218269,0.50921994,-0.06331363,-0.60379124,1.0761707,-0.46719074,0.4483343,-0.29489553,0.5704498,0.29911926,0.24069145,0.5684078,0.8390821,0.27256748,-0.10620128,0.49112344,0.34859133,0.91675436,-0.38657817,-0.44537854,-0.20450385,0.12294079,0.97742724,0.48408532,0.17247781,0.656994,-0.31683096,-0.61714435,-0.0018668845,-0.09020419,-0.18910374,-0.12693599,0.13939972
target_dataset:SNU-C2A,-0.98150647,-0.03452646,-0.01890783,0.8641045,-0.13520803,0.30972832,0.5959802,0.41334015,0.62152743,0.15026434,-0.58470607,0.6500753,0.17649332,-0.62633014,0.30036783,-0.8987425,-0.1794953,-0.5479582,-0.0819443,0.4112272,-0.651301,-0.01387395,0.40503985,0.5305817,-0.04170841,0.052630097,-0.1674633,0.1759104,-0.10163136,-0.64815074,0.065224215,-0.18782279,0.19570461,-0.19260344,-0.32438165,0.086052656,-0.68834513,-0.2577483,0.47466826,-0.7146356,-0.44304326,-0.80597,0.19894007,0.08432478,0.12309697,0.6247153,0.5227152,0.55519426,-0.32916194,-0.65281427,0.42797676,-0.030451924,0.6594213,-0.11325356,0.48054066,0.32479686,0.18543446,0.29451624,0.44077453,-0.2160914,-0.6426256,0.88914776,0.08250447,-0.009541258,-0.12334542,0.539391,0.4309333,-0.4569163,0.4731648,0.09118101,-0.7649975,0.8693229,0.16006947,0.037884027,0.4277665,-0.69157636,-0.3405137,0.7452683,0.3987121,-0.15671194,-0.80418086,-0.103999645,0.41619843,-0.11144833,0.3067729,-0.16431618,-0.056628913,0.32998997,-0.525695,0.514776,0.55746156,-0.25318724,-0.24823947,-0.77605313,0.582511,-0.35281092,0.17228803,-0.51850694,0.26345435,-0.00964994,0.071988836,0.76495194,0.10795836,-0.2596869,0.41400862,0.87985945,-0.118534446,-0.18521553,0.6220988,-0.12640864,-0.26298067,-0.1493256,-0.83914626,0.3335663,-0.3687611,-0.73784184,-0.50544024,-0.13181321,0.5483071,0.5167693,-0.5055665,-0.18781127,0.11702089,-0.79527235,-0.048430026,-0.05660191,0.121026225,-0.7265918,-0.060267247,-0.12334891,0.1642588,-0.13578553,-0.2097907,-0.18096533,-0.059413955,0.25761497,-0.07232441,-0.028307825,0.24066092,-0.49543756,0.7741144,-0.02185765,0.49098423,-0.106202506,0.10138308,-0.02112481,-0.15476984,0.09445951,0.5788889,0.30097798,0.53630215,-0.15989384,-0.5477615,0.53900194,0.08323449,0.2597815,-0.21647112,-0.26233417,0.5965486,-0.030901104,-0.13805212,1.0020272,-0.54009473,-0.49399176,-0.20832478,-0.08895843,-0.22424707,-0.25103086,0.26639295,0.25990057,0.46646214,0.5761022,0.25104898,-0.2984752,0.3255092,-0.51095164,0.46035278,-0.59326243,0.5261924,0.011582769,-0.27617857,0.74297476,-0.66957295,0.47296792,-0.04023041,0.6031133,0.17439482,0.32260934,0.6968986,0.6987603,0.35480723,-0.13310274,0.41636875,0.20710789,0.5614532,0.020640075,-0.30680263,-0.068684265,0.18142153,0.40567765,0.1635125,0.17808414,0.512172,-0.2259149,-0.47345948,0.05483728,-0.16165507,-0.1402439,-0.029856063,0.053943038
target_dataset:CL-11,-0.59322256,-0.18211195,-0.13215412,0.5865588,0.22125971,0.34174454,0.07581068,0.13895658,0.18209922,0.5105059,-0.18778163,0.6797495,0.509927,0.04930125,-0.2465653,-0.5521896,-0.09236163,-0.6033578,0.42668596,-0.12164143,-0.42531994,-0.21311711,-0.30854368,-0.021736205,-0.06975675,-0.5825606,0.20670103,0.26367557,0.026802093,-0.28247404,0.055311427,-0.17382011,-0.35096866,0.3399914,0.14493263,0.26935607,0.14147203,0.342596,0.31272525,-0.53155124,-0.3690556,-0.024261296,0.33276027,-0.6784874,-0.69179076,0.14029254,-0.050586045,0.5830233,-0.6773832,-0.47338906,0.11405586,0.24747117,0.22127707,0.0585804,-0.0146035105,0.67983484,-0.5265413,-0.516915,0.24119689,-0.24147919,-0.49524668,0.5342127,-0.012953371,0.034518316,-0.02707921,0.11706491,0.54718965,-0.4739926,-0.20214105,-0.10577515,-0.034011245,0.623307,-0.06866075,-0.28344753,-0.43477,-0.2702382,-0.23711833,0.4032045,0.24362826,-0.098433346,-0.5958632,0.08468342,0.09116801,-0.13405715,-0.42502117,0.100243434,-0.10575757,0.07697273,-0.49055445,-0.12125772,0.11424786,-0.082371324,0.039525494,-0.3490055,-0.20260261,-0.17071052,-0.11735175,-0.66979903,0.18862724,0.18741801,-0.081263036,0.5582705,-0.28833592,0.36522278,-0.046551213,0.33945245,0.04880199,-0.1181378,0.7630849,0.14840806,-0.38381284,-0.038344935,-0.73956037,0.26456374,0.057768904,-0.45775136,-0.5696191,-0.3528649,0.6435074,0.69453955,-0.7264224,-0.27670366,0.33679995,-0.83114636,-0.030460417,0.20918228,0.20201692,-0.25940427,0.20808016,-0.14048995,0.25867224,-0.28699908,-0.47805956,-0.10638654,0.36444554,-0.36000982,-0.3674816,0.079465106,0.20701925,-0.30375975,0.4391362,-0.12160167,0.56057954,0.22460577,-0.15526825,0.38375655,-0.3837374,0.31819308,0.4139849,0.29676345,0.5605234,-0.40154937,-0.1626355,0.38129097,-0.43143213,0.20320344,-0.35199106,-0.26959234,0.6336249,0.17325966,-0.034644,0.80230296,-0.54446995,-0.41535303,-0.37595758,0.039310873,-0.505248,-0.49190044,-0.026975423,-0.059585035,0.6214061,0.75249165,0.63695043,-0.04442566,0.068380125,-0.7032275,0.65003055,-0.8466202,-0.03300266,0.17262837,-0.30037084,0.49058646,-0.050873876,0.60307044,-0.095729545,0.36028197,0.44884002,0.3304106,0.10851322,0.4943698,0.05125627,-0.22197868,0.38989395,0.10075845,0.65651053,0.17704701,0.17032534,0.11024213,0.09727819,0.50192845,0.49997714,-0.351164,0.6269158,-0.13362917,-0.5837131,-0.0063627437,-0.16809528,-0.14674905,0.21153206,-0.24170482
target_dataset:U-251MG,-0.37729657,-0.30108628,-0.09803519,0.24896663,0.2577503,0.43405154,0.054273266,0.2893038,0.2948479,0.4932089,-0.25905442,0.41473565,0.12284188,-0.35223946,-0.10282013,-0.65831286,0.001185134,-0.28595597,0.20844579,0.16123946,-0.304383,-0.19445817,0.09895301,-0.103256,0.04355429,-0.52612484,0.43390578,0.25268692,-0.067592695,-0.353334,0.14419675,-0.09665187,-0.33979392,0.23431635,0.27430615,0.3014558,-0.2534788,0.27407956,-0.037878066,-0.18487453,-0.30948693,-0.16176048,0.13671777,-0.72669137,-0.48504627,0.17908743,0.20756148,0.3292373,-0.5225363,-0.3165745,0.3657218,0.18786913,0.45756835,0.13576823,-0.09956536,0.5296079,-0.13794485,-0.48316112,0.35501188,-0.42284667,-0.22904159,0.6063604,-0.032262996,0.16311948,-0.28079584,0.2764808,0.4470385,-0.44733083,0.13955858,0.06814465,-0.36588466,0.47909677,0.0068677515,-0.1410531,-0.068457946,-0.08179571,-0.14501739,0.21751063,0.11072286,-0.07288107,-0.56697917,0.0936937,0.3557191,-0.04185708,-0.276578,-0.04893005,-0.21959552,-0.0021257177,-0.40706313,0.23209403,0.16112393,0.17029789,0.047101695,-0.15041015,-0.05919437,-0.0044073015,-0.4123995,-0.62897307,0.26188245,0.3258615,-0.08726141,0.2921428,-0.40062135,0.29925293,0.055795133,-0.04702443,0.3071407,-0.26973987,0.7506874,0.1809823,-0.94761586,-0.014160022,-0.8618479,-0.527222,0.3712918,0.10931963,-0.56784016,-0.22386554,0.29438832,1.299063,-0.25890213,-0.003253743,-0.30237344,-0.7769948,0.09483054,0.07524809,0.29801604,0.17507577,-0.09208275,0.039383948,-0.06272647,-0.47968614,-0.5390657,0.28523272,0.18892133,-0.91052055,0.19873953,0.7949053,0.6026998,-0.909358,-0.15168804,-0.36309376,0.7313579,0.60980374,0.5668197,0.30105093,0.11006132,0.6661164,-0.29482922,0.55888265,-0.25200185,-0.9778071,-0.682612,0.56488764,-0.40630296,-0.3591471,0.29620957,-0.77923757,0.8214732,0.851882,-0.602287,0.7893286,-1.2152977,-0.5458742,0.17147799,0.6644463,0.22053283,-0.43600827,-0.75913274,0.08955854,0.82506466,0.8123207,0.5610911,-0.33413774,0.027553204,-0.45803085,0.31461954,-0.96002674,0.1891185,0.1941146,-0.46529788,0.74377763,0.085683465,0.67266196,0.21957721,0.39520136,0.27667367,-0.30088413,-0.18584785,-0.39710897,0.6318953,0.33753884,0.45132273,-0.59160125,0.6601224,0.27410874,0.36573198,0.8551529,-0.4832781,1.1072489,-0.048965015,-0.76375693,0.43325293,-0.62704265,-0.65804017,-0.39135876,-0.5274812,-0.09360115,-0.37091285,-0.39954585
target_dataset:Panc 03.27,-0.43615112,-0.15428677,0.13055797,0.41613716,0.08994576,0.43699595,0.08640565,0.26129732,0.3853751,0.35434064,-0.23934585,0.4306577,0.28395545,-0.19547136,-0.23587912,-0.3697791,0.12811333,-0.36381477,0.21894912,0.13207299,-0.37512496,0.13791068,-0.0407338,0.21238033,0.26126322,-0.45218852,0.41352433,0.35914978,0.18749778,-0.425897,-0.17573205,-0.11829305,-0.10516045,0.27585617,0.1677701,0.35791487,-0.15902846,0.1504058,0.14110759,-0.36254308,-0.43665677,-0.23134303,0.29318407,-0.42002362,-0.3993747,0.28478536,0.2076613,0.36235303,-0.3470761,-0.34765568,0.24991418,0.38489708,0.26773205,0.089118406,0.15233934,0.43162894,-0.2929897,-0.17096877,0.3159196,-0.30176178,-0.21789154,0.30939513,0.16214871,0.16234674,-0.19437279,-0.012455018,0.4181152,-0.2896871,0.024589531,0.2177636,-0.3070388,0.4153396,-0.21969464,-0.12570228,-0.13660868,-0.27874288,-0.45181677,0.2522754,0.11519156,-0.42237616,-0.2954814,0.44352874,0.18227728,0.18073435,-0.24350327,-0.209949,-0.08600549,-0.100030325,-0.2818688,0.055024903,0.054727178,-0.075908974,0.07794888,-0.18508147,0.1110502,0.17451288,-0.20830059,-0.45591444,0.22194903,0.08059215,-0.24636482,0.44480684,-0.19252189,0.3217942,0.24297597,0.578127,-0.34977585,0.11073655,0.24956836,0.13213259,-0.5786093,0.11194295,-0.44970566,-0.27521288,-0.15008834,-0.20364007,-0.4264681,-0.17053139,0.034204945,0.29932928,-0.3321148,0.0100528,-0.21082684,-0.49767306,0.22765912,0.1535666,-0.055011176,-0.27874282,0.06658111,0.08432627,0.2659849,-0.10043684,-0.30853668,0.2147373,-0.0798279,-0.10068922,-0.12023293,0.06922643,0.39194596,-0.3374497,0.33749533,0.4330093,0.037649836,0.2820257,0.23450938,0.0582124,-0.3047048,0.120191455,-0.10092251,0.503196,-0.21698014,-0.35951537,-0.33605316,0.52159053,-0.080131575,-0.35294712,-0.032546632,-0.33676445,0.3209363,0.53755933,-0.21821126,0.63436323,-0.4507828,-0.33937007,0.07916589,-0.33781448,0.032177955,-0.27082968,-0.36336017,0.24388984,0.32233858,0.4434036,0.124958366,-0.34738487,0.020294331,-0.023527458,-0.09783782,-0.3810124,0.47685295,0.06308659,0.16265449,0.3413157,-0.476598,0.4480695,0.40913588,0.51307756,-0.03958465,0.11659108,0.4200602,0.033928603,0.60959923,0.022349656,0.29246643,-0.15976915,0.14744917,0.53154624,0.00344643,0.2159313,-0.0321739,0.06617227,-0.26666608,-0.13383862,0.28074557,-0.092386216,-0.33576572,-0.073939554,-0.27379775,-0.14027111,-0.11684238,-0.09760386
target_dataset:MOLP-2,-0.43615112,-0.15428677,0.13055797,0.41613716,0.08994576,0.43699595,0.08640565,0.26129732,0.3853751,0.35434064,-0.23934585,0.4306577,0.28395545,-0.19547136,-0.23587912,-0.3697791,0.12811333,-0.36381477,0.21894912,0.13207299,-0.37512496,0.13791068,-0.0407338,0.21238033,0.26126322,-0.45218852,0.41352433,0.35914978,0.18749778,-0.425897,-0.17573205,-0.11829305,-0.10516045,0.27585617,0.1677701,0.35791487,-0.15902846,0.1504058,0.14110759,-0.36254308,-0.43665677,-0.23134303,0.29318407,-0.42002362,-0.3993747,0.28478536,0.2076613,0.36235303,-0.3470761,-0.34765568,0.24991418,0.38489708,0.26773205,0.089118406,0.15233934,0.43162894,-0.2929897,-0.17096877,0.3159196,-0.30176178,-0.21789154,0.30939513,0.16214871,0.16234674,-0.19437279,-0.012455018,0.4181152,-0.2896871,0.024589531,0.2177636,-0.3070388,0.4153396,-0.21969464,-0.12570228,-0.13660868,-0.27874288,-0.45181677,0.2522754,0.11519156,-0.42237616,-0.2954814,0.44352874,0.18227728,0.18073435,-0.24350327,-0.209949,-0.08600549,-0.100030325,-0.2818688,0.055024903,0.054727178,-0.075908974,0.07794888,-0.18508147,0.1110502,0.17451288,-0.20830059,-0.45591444,0.22194903,0.08059215,-0.24636482,0.44480684,-0.19252189,0.3217942,0.24297597,0.41423985,-0.413086,0.074286886,0.29043102,0.308282,-0.35004207,0.15218721,-0.22990373,-0.012112748,-0.105752595,-0.3817115,-0.44295222,-0.28933805,0.18922608,0.20469564,-0.36427224,-0.16549908,0.0030249192,-0.394892,0.2457704,0.42081973,0.089214794,-0.33413428,0.106214784,0.15227853,0.34848145,-0.2523054,-0.39319077,0.20047158,0.03971502,-0.17303476,-0.18331808,-0.21823598,0.36658156,-0.08046668,0.3230085,0.42494217,0.08347947,0.07115718,-0.027356334,0.30310598,-0.39269587,0.17102404,-0.066016994,0.18859035,0.0018970462,-0.17485024,-0.045806114,0.24189253,-0.32410398,-0.29436967,-0.07036118,-0.1623803,0.17602025,0.3263872,-0.050114337,0.42627203,-0.17717382,-0.2558395,-0.22051157,-0.33222926,-0.31068635,-0.423079,-0.40908134,0.14918722,0.28688133,0.41573358,0.3816015,-0.05140099,0.08295165,-0.264389,0.15982537,-0.42693314,0.21322052,0.0796206,0.1342935,0.1625705,-0.20464623,0.38973382,0.21925955,0.3109853,0.06299223,0.25317407,0.29112738,0.20831574,0.33416942,-0.078006804,0.3154081,0.11132144,0.26417378,0.45659694,0.08543044,-0.1787805,-0.04456,0.120087095,0.09517322,-0.11842669,0.34695977,0.25698605,-0.30019513,-0.039190024,-0.045312956,-0.29079008,0.07159362,-0.13905053
target_dataset:NUGC-3,-1.3145893,-0.08020157,-0.1958415,1.1253939,-0.16073206,0.21207081,0.8549373,0.36234912,0.6569744,0.15674578,-0.6362648,0.64775383,0.17944853,-1.0838139,0.7022285,-1.1969993,-0.4848717,-0.6792732,-0.44636548,0.72580606,-0.63562286,-0.06981334,0.6767814,0.6337198,-0.3034427,0.3265687,-0.58971363,0.06016141,-0.16801481,-0.616196,0.30595544,-0.33425927,0.20258778,-0.37153503,-0.72610366,-0.09578338,-1.1362594,-0.42973152,0.64383256,-0.9437696,-0.38946924,-0.998637,0.018144786,0.45928115,0.5999212,0.777701,0.6332934,0.6057412,-0.4915846,-0.87205005,0.47744304,-0.3173026,0.974239,-0.14178975,0.74987346,0.21059833,0.433718,0.5188221,0.5602013,-0.2027218,-0.9653454,1.4380572,0.0924401,-0.008116603,-0.2290164,0.9701221,0.4455762,-0.6261842,0.86187226,0.022013575,-1.2188846,1.1207815,0.2706671,0.19508518,0.7889741,-1.016151,-0.20825401,0.9824547,0.43677658,0.17358977,-1.2484164,-0.583128,0.55318487,-0.2025793,0.6955843,-0.04962857,-0.20160136,0.49497285,-0.83480334,0.9526081,0.8690678,-0.34074312,-0.546862,-1.2293228,0.7782508,-0.646064,0.26995584,-0.43471605,0.43408102,-0.15325138,0.28215718,0.8876371,0.38848066,-0.49946475,0.65393627,1.5599754,0.31464177,-0.509205,1.0746853,-0.7679117,-0.24336727,-0.59136915,-1.7799698,0.72502345,-0.7449637,-1.1611367,-0.57294995,0.112103164,1.0070744,0.96857846,-0.7824776,-0.16265018,0.25250387,-1.4147582,-0.48906606,-0.8105254,0.09054196,-1.2292471,-0.23293436,-0.56047595,-0.061909854,0.09679687,0.043269098,-0.7142562,-0.17324737,0.83847487,0.008425772,0.35610098,0.036500156,-1.1279902,1.4385724,-0.61255,1.0181017,-0.22821504,0.31600127,-0.54736257,0.13161978,-0.05832006,1.4877498,0.5931989,1.2389089,-0.21768835,-1.296383,1.0494324,0.70484805,1.0530478,-0.481409,-0.44461077,1.2633332,-0.44310156,-0.28068656,1.8844477,-1.1443274,-0.8569914,-0.12310384,0.20760375,-0.015679866,0.010048091,1.2480732,0.40793252,0.7274391,0.82638174,-0.006739676,-0.7441039,0.60374266,-0.76516604,0.8127155,-0.8242871,1.0085775,-0.08411762,-0.79504836,1.5999229,-1.3677156,0.627805,-0.31909555,1.0917906,0.32709432,0.4005574,1.247606,1.3305651,0.43885782,-0.23900479,0.51736695,0.24171859,0.9150479,-0.53531253,-0.86044645,0.2638053,0.56919324,0.7236244,0.16396993,0.5278112,0.7484205,-1.0365142,-0.7541037,0.19838287,-0.42001432,0.15865704,-0.18446031,0.33594185
target_dataset:KLE,-0.4603935,-0.27264422,0.05190149,0.4744042,0.2085494,0.40884656,0.02725403,0.052457765,0.22022,0.49895406,-0.009546548,0.256548,0.4586709,-0.40522456,-0.17423122,-0.28083283,-0.025292024,-0.4439188,-0.0398065,0.326527,-0.13682896,0.26358718,-0.096531965,0.15394087,0.19144326,-0.5029745,0.27820718,0.3655074,0.40683424,-0.21030131,-0.08692715,-0.26642942,-0.3323891,0.4269358,-0.010024086,0.32711253,-0.30061615,0.25342506,0.1639327,-0.4756124,-0.39840764,-0.02250038,0.1729136,-0.24423723,-0.17387201,0.24123581,0.06973745,0.30060303,-0.58884996,-0.40252808,0.12849423,0.3577479,0.306323,0.19882077,0.31626716,0.35362166,-0.40081948,-0.20904422,0.37930518,-0.30730742,-0.35228652,0.55097914,0.27161643,0.28943822,-0.37159255,0.0662547,0.4509366,-0.35774663,0.13128534,0.24553283,-0.54179895,0.38610855,-0.4371174,-0.05320155,-0.1520985,-0.45241436,-0.40921286,0.18752912,-0.05988603,-0.2439618,-0.45836905,0.2794511,0.12816197,0.3386493,-0.16554113,-0.11460329,-0.30284283,-0.26502654,-0.5051756,0.20909521,0.028990224,-0.13722995,-0.058614865,-0.34754378,-0.005867645,0.24399295,-0.3338428,-0.23450938,0.4064333,-0.13049039,-0.24882965,0.4211054,0.0008496195,0.47762358,0.462878,0.29071194,0.388017,-0.069228165,0.7046885,-0.17628467,-1.0860668,0.10055043,-1.0509504,-0.724913,0.45829582,0.43134156,-0.69717526,-0.15247382,0.103625625,1.2761154,-0.13232316,0.20451067,-0.49465013,-0.9045682,0.19386885,-0.23067883,0.045578104,0.3740093,-0.13979656,-0.07853635,-0.32341108,-0.16600499,-0.32659358,0.16455685,0.005165521,-0.63202727,0.21617833,0.91178846,0.5745298,-1.0661488,-0.27571902,-0.36387345,0.62055767,0.91181165,0.7692158,0.10287972,0.1708633,0.6839931,-0.21494976,1.0385042,-0.47964728,-1.1653287,-0.90559846,1.0039988,-0.14426297,-0.5008813,0.23148434,-0.94566035,0.7989349,1.0617884,-0.7237147,1.021574,-1.3020866,-0.5120963,0.6405388,0.4592474,0.45029277,-0.09553379,-0.5879818,0.1332327,0.90069896,0.8858955,0.23415188,-0.61449635,-0.18978326,-0.1845069,-0.16895513,-0.8606739,0.39778948,0.29612,-0.5073951,0.72794485,-0.3930441,0.77946615,0.34671605,0.5369982,0.17833534,-0.3334189,0.17769228,-0.4794714,0.8577074,0.51124907,0.52138495,-0.8609727,0.5112531,0.48961714,0.4155664,1.2041078,-0.5713033,0.89071894,-0.47741857,-0.6485129,0.2931561,-0.87874985,-0.57862467,-0.40997827,-0.72965324,-0.013957381,-0.47947547,-0.50924814
target_dataset:A-204,-0.44854835,-0.28354836,0.044058263,0.48795632,0.2267838,0.41424537,0.016099669,0.030059487,0.17320052,0.5099349,0.027034104,0.21571477,0.4981538,-0.43530697,-0.17699417,-0.2684922,-0.047313526,-0.46182114,-0.10186218,0.37582988,-0.09166098,0.2984203,-0.10250576,0.1425951,0.1929799,-0.52919376,0.2518136,0.36047962,0.45272207,-0.1860608,-0.05220256,-0.27933466,-0.39302486,0.44098398,-0.033168033,0.31111515,-0.33533704,0.2863329,0.16644982,-0.5134148,-0.40482762,0.005736977,0.16036287,-0.20594141,-0.1397444,0.2455925,0.045087636,0.29018956,-0.6422175,-0.394686,0.1141984,0.33781695,0.2971268,0.21155518,0.34792715,0.33817327,-0.40576825,-0.23086706,0.4072535,-0.30070886,-0.38769513,0.6085415,0.27918956,0.30225772,-0.40807372,0.08562623,0.47413278,-0.3663904,0.1405366,0.25652334,-0.6024802,0.37949508,-0.47412977,-0.041880712,-0.15458345,-0.48921466,-0.38654345,0.17057489,-0.09030018,-0.2106313,-0.49809942,0.23816656,0.12755485,0.36992794,-0.15064138,-0.11080753,-0.35978347,-0.31361178,-0.54915404,0.22618122,0.009761434,-0.16330841,-0.07659148,-0.37050143,-0.036663458,0.27387702,-0.36173224,-0.17864129,0.42945746,-0.18826035,-0.24969733,0.43604589,0.033221826,0.4947494,0.49841976,0.65629023,-0.6588241,-0.038256705,0.018282294,0.3897906,-0.79883593,-0.29464656,-0.60153127,-0.43108955,-0.8285655,-0.6307917,0.038809925,0.05613652,-0.053599507,0.11758723,-0.80089104,0.059069738,-0.2447135,-0.4856696,-0.1009064,0.013068229,-0.14790642,-0.85360473,0.27454433,0.06691323,0.916546,-0.10714933,-0.46281517,0.43288386,-0.039734237,-0.114339516,-0.32857373,0.37344265,0.3199371,-0.45349017,1.1048179,0.89154434,-0.21051443,0.119814605,0.2942884,-0.41175976,-0.5266344,-0.46637172,-0.13682726,0.3880201,-0.17602965,-0.17632315,-0.5025086,0.373749,0.24912962,-0.005292982,-0.1258779,-0.22080591,0.69798,0.49026874,-0.17709911,0.76537913,-0.75667274,-0.61885834,-0.23117824,-0.46351087,0.41114914,-0.5580996,-0.24042135,0.46087474,-0.0017255545,0.21183637,-0.13821721,-0.65869343,0.30409908,0.29352912,0.1262673,-0.21377215,0.9289661,-0.31231505,0.7293911,0.7965014,-0.48162156,0.30402413,0.803812,0.95570314,-0.21385552,0.06750329,0.22903933,0.023562863,0.8438289,-0.40443456,-0.091306984,-0.12266012,-0.1423155,0.37056133,-0.60431105,0.38108706,0.6623349,-0.24588096,-0.4237577,-0.18500021,0.41632912,-0.4170191,-0.5505859,0.10788594,-0.42716664,0.22711706,-0.21683103,0.50122607
target_dataset:TO 175.T,-0.4721943,-0.15831931,0.07516664,0.4567897,0.11683138,0.41571668,0.08451461,0.23349062,0.34122357,0.38722253,-0.2275076,0.48665854,0.33695295,-0.13833,-0.24026228,-0.40629697,0.080656186,-0.41860473,0.26561102,0.07483914,-0.3874203,0.06430144,-0.102776796,0.16469291,0.19041738,-0.48026782,0.36691916,0.33936954,0.1553407,-0.39487556,-0.1287968,-0.13104735,-0.15667723,0.29083526,0.16106355,0.33893454,-0.09034408,0.1915797,0.18220465,-0.40303627,-0.42342612,-0.1860261,0.30438492,-0.47329572,-0.46355414,0.25402018,0.14985059,0.41224858,-0.4183945,-0.37626788,0.21776764,0.3570805,0.254492,0.08158405,0.11873607,0.4857272,-0.3475933,-0.24374233,0.298607,-0.28645495,-0.27981445,0.35528022,0.12585863,0.13371904,-0.15562871,0.012216533,0.44657752,-0.32858762,-0.027887456,0.14757374,-0.24503738,0.46094197,-0.18927363,-0.16078602,-0.20437588,-0.27978584,-0.40834412,0.28658313,0.14401074,-0.3550865,-0.35866365,0.3684308,0.15928607,0.11359454,-0.28364363,-0.14291745,-0.08842839,-0.06187069,-0.32671267,0.012912195,0.066459715,-0.08103958,0.06980884,-0.22229688,0.04338205,0.09990703,-0.18488657,-0.501206,0.21389198,0.10083669,-0.21178514,0.4724915,-0.21085744,0.33185357,0.18096207,0.858027,-0.0757902,-0.13319632,0.59522295,-0.15637892,-0.42632374,-0.13357066,-0.9104347,0.13855824,-0.30821097,-0.5596895,-0.5009702,-0.107170224,0.44346136,0.5786239,-0.51125026,-0.09460947,0.014969233,-0.83319914,-0.03474176,-0.13978484,0.044551928,-0.5898292,-0.028766416,-0.14663912,0.1436152,-0.076920554,-0.21520329,-0.13222247,-0.056399144,0.17092973,-0.08996478,0.14780085,0.25974286,-0.58865976,0.69633746,0.0005739331,0.44398844,0.08667259,0.20840782,-0.08014527,-0.15624659,0.1048764,0.48389313,0.48146763,0.36884937,-0.3105662,-0.6237621,0.6602445,0.11799371,0.17457548,-0.20476237,-0.36091554,0.6585556,0.15522619,-0.21607344,1.0528321,-0.67850745,-0.5140996,-0.055641368,-0.09030111,-0.069042355,-0.21056533,0.19729352,0.25777802,0.49901298,0.6089031,0.16755776,-0.41795877,0.22876017,-0.378098,0.3131253,-0.59351987,0.5726581,0.03225891,-0.23217064,0.7672937,-0.700315,0.5226306,0.08465096,0.6645844,0.1480816,0.23663534,0.6506747,0.524957,0.47068572,-0.0830604,0.3906714,0.019918099,0.48404703,0.12312549,-0.25118896,0.18932691,0.1591187,0.36690056,-0.0058284923,0.062489443,0.4783936,-0.3857518,-0.49962342,0.017363194,-0.29164892,-0.061661333,-0.09715272,0.017642677
target_dataset:SNU-C1,-0.8524897,-0.4664409,-0.7869922,0.45999572,0.4310403,0.2579753,0.43997127,0.39520922,0.21985058,0.65052974,-0.56446564,0.734799,-0.10917854,-0.8492243,0.59128153,-1.7342386,-0.6250636,-0.4622273,0.05501102,0.2992114,-0.456161,-1.1193768,0.5652577,-0.51373255,-0.803933,-0.2911481,-0.16988605,-0.15131906,-0.86160094,-0.33430532,1.0514574,-0.15489864,-0.6330018,-0.20911062,0.011523917,-0.08984178,-0.6948245,0.24825756,0.052987933,-0.29267445,-0.053678125,-0.41792768,-0.19147065,-0.97326684,-0.3554791,0.20561486,0.32376263,0.57862663,-1.0147473,-0.60917795,0.6375849,-0.60239923,1.1004021,0.019478947,-0.34955925,0.75899935,0.4048299,-0.8277646,0.48574036,-0.51904666,-0.79376996,1.7678044,-0.5464671,-0.06598629,-0.2635733,1.3403466,0.58839476,-0.9807661,0.5911972,-0.50223184,-0.70016885,1.1171858,0.8252841,-0.121810704,0.359766,-0.099417984,0.61551905,0.6844463,0.431912,0.96481764,-1.6689973,-1.2139266,0.803905,-0.87820727,0.037067413,0.46170068,-0.43655553,0.6545909,-0.96695554,0.8320424,0.8233938,0.43533456,-0.31658936,-0.71166635,-0.13356441,-0.99091184,-0.37366128,-1.1154461,0.34655043,0.73613393,0.5695429,0.38050878,-0.55519927,-0.22356063,-0.29677093,0.41423985,-0.413086,0.074286886,0.29043102,0.308282,-0.35004207,0.15218721,-0.22990373,-0.012112748,-0.105752595,-0.3817115,-0.44295222,-0.28933805,0.18922608,0.20469564,-0.36427224,-0.16549908,0.0030249192,-0.394892,0.2457704,0.42081973,0.089214794,-0.33413428,0.106214784,0.15227853,0.34848145,-0.2523054,-0.39319077,0.20047158,0.03971502,-0.17303476,-0.18331808,-0.21823598,0.36658156,-0.08046668,0.3230085,0.42494217,0.08347947,0.07115718,-0.027356334,0.30310598,-0.39269587,0.17102404,-0.066016994,0.18859035,0.0018970462,-0.17485024,-0.045806114,0.24189253,-0.32410398,-0.29436967,-0.07036118,-0.1623803,0.17602025,0.3263872,-0.050114337,0.42627203,-0.17717382,-0.2558395,-0.22051157,-0.33222926,-0.31068635,-0.423079,-0.40908134,0.14918722,0.28688133,0.41573358,0.3816015,-0.05140099,0.08295165,-0.264389,0.15982537,-0.42693314,0.21322052,0.0796206,0.1342935,0.1625705,-0.20464623,0.38973382,0.21925955,0.3109853,0.06299223,0.25317407,0.29112738,0.20831574,0.33416942,-0.078006804,0.3154081,0.11132144,0.26417378,0.45659694,0.08543044,-0.1787805,-0.04456,0.120087095,0.09517322,-0.11842669,0.34695977,0.25698605,-0.30019513,-0.039190024,-0.045312956,-0.29079008,0.07159362,-0.13905053
target_dataset:NCI-H929,-0.4070873,-0.43977633,-0.09585646,0.3182632,0.3541831,0.40517098,-0.01677297,0.0035404563,0.16559671,0.6433501,0.056909204,0.12641725,0.32997727,-0.682338,-0.024282515,-0.4169259,-0.13299173,-0.34658334,-0.17851515,0.46879387,0.019037306,0.1282011,0.05417431,-0.050330386,0.061814472,-0.52028453,0.29918995,0.3196495,0.32600915,-0.08739415,0.106571406,-0.31234342,-0.5076074,0.45541823,-0.002887547,0.3102443,-0.49288017,0.31711584,-0.008356184,-0.31141225,-0.28327662,0.07114571,-0.018125296,-0.35648513,-0.06770155,0.16243693,0.08403375,0.1925679,-0.7164029,-0.39289176,0.19589253,0.25306046,0.5041099,0.2953587,0.224601,0.33674383,-0.28252617,-0.35265273,0.42889395,-0.43016624,-0.32331294,0.79381436,0.22686559,0.38708127,-0.54337484,0.27849144,0.42654726,-0.46301404,0.3351982,0.21608266,-0.72143006,0.37188202,-0.38775256,0.0065152943,-0.02779027,-0.36058167,-0.23377647,0.104193285,-0.16567522,0.008452833,-0.636999,0.057002902,0.2519414,0.3049795,-0.11507951,-0.014713123,-0.45767328,-0.27080125,-0.6275254,0.4670728,0.10753712,0.05379331,-0.1345883,-0.34945357,-0.086013585,0.19665581,-0.5558799,-0.2513802,0.5318697,-0.02021283,-0.1691664,0.23573948,-0.057421908,0.52475166,0.48399088,0.3258266,-0.15781847,-0.31601557,0.53353125,0.32175606,-0.6150513,-0.26857316,-0.7489629,-0.08306648,-0.3528935,-0.63287747,-0.26327157,-0.12096201,0.41268855,0.7180529,-0.6423695,-0.16018389,-0.01997011,-0.67140067,-0.12562379,0.1252121,0.23776376,-0.61405873,0.06990766,0.023383737,0.49182245,-0.41465652,-0.52680963,0.2193264,0.14993396,-0.41295093,-0.08374703,0.38159436,0.38843513,-0.593599,0.7051989,0.11846441,0.45064855,0.043817654,0.22522113,0.02759561,-0.2103582,0.07328851,0.062381066,0.16640437,0.22070664,-0.35530663,-0.51233876,0.274815,-0.13736661,0.11984426,-0.0010163784,-0.34857088,0.80169374,0.3015061,-0.2529919,0.793237,-0.8699528,-0.6149805,-0.36361253,0.20134944,0.033854574,-0.612138,-0.2799099,0.24992418,0.41306573,0.51835966,0.4028806,-0.3115825,0.3650322,-0.40338993,0.62742686,-0.68078995,0.45898953,-0.10694046,-0.013368055,0.85778654,-0.10226405,0.4402919,0.24494858,0.61705565,0.15780447,0.041329548,0.038101792,0.1841679,0.48895818,-0.18666947,0.21347725,-0.029375978,0.47527668,0.049839377,-0.25141215,0.25113264,0.21564634,0.5858202,0.14933653,-0.33418816,0.56563324,-0.37066188,-0.64968014,-0.057183683,-0.29285446,-0.006072372,-0.15847272,0.142237
target_dataset:Hs 695T,-1.0897923,-0.08689474,-0.27673864,0.9668205,0.010530889,0.23221047,0.56883925,0.31164944,0.42867795,0.3112619,-0.5363278,0.85139513,0.34067357,-0.43760955,0.3017692,-1.090311,-0.379889,-0.73113674,0.098345615,0.19610268,-0.67419565,-0.3643309,0.19354613,0.2698769,-0.35129586,-0.08256012,-0.32354265,0.08123633,-0.27490556,-0.5091756,0.3103512,-0.22898725,-0.060053643,-0.13449132,-0.3126071,0.0082374215,-0.43928015,-0.06411928,0.57911044,-0.8166603,-0.36348242,-0.60530543,0.20682117,-0.19985047,-0.15092014,0.47607356,0.29770792,0.7302122,-0.63855517,-0.7455683,0.32983497,-0.1707569,0.64435136,-0.12569748,0.2873915,0.55358166,0.0046778023,-0.06327324,0.38177395,-0.1889469,-0.86746836,1.1166346,-0.097287714,-0.112706974,0.0003207028,0.68597597,0.5443225,-0.63578016,0.29177797,-0.2043849,-0.5344883,1.0443997,0.31793103,-0.10155703,0.17514603,-0.63936484,-0.10827407,0.8539443,0.49898872,0.17119485,-1.0924673,-0.45439407,0.36453998,-0.40851492,0.13468173,0.12403406,-0.0976419,0.48566023,-0.717433,0.38655695,0.6140208,-0.2106303,-0.27800518,-0.8932672,0.27689603,-0.661954,0.20326355,-0.72755855,0.24147981,0.12589924,0.23123984,0.82546914,-0.016911477,-0.21284658,0.13307649,0.73170805,0.26671016,-0.31525528,1.0085697,-0.20356664,-0.32158062,-0.2801627,-1.2247134,0.5261066,-0.17183544,-0.7410026,-0.61001307,-0.21737161,0.9108312,0.92270434,-0.83941513,-0.28335267,0.41419226,-1.1454879,-0.26352072,-0.18264022,0.21118306,-0.58361864,0.07739756,-0.3597781,0.12106162,-0.17900231,-0.32403547,-0.40522683,0.27136564,0.0032417476,-0.28183302,0.23234947,0.105190784,-0.635902,0.8142849,-0.45203367,0.8624123,0.08533864,-0.04322323,0.10289043,-0.19963087,0.23726383,0.9237193,0.3995046,0.96965,-0.3838648,-0.57149565,0.6288062,-0.08404285,0.6395955,-0.47035563,-0.34794986,0.9657575,-0.10466993,-0.10617844,1.2660842,-0.83290184,-0.60661066,-0.35363263,0.20916104,-0.4161393,-0.34602755,0.5176118,0.04063739,0.75033724,0.8690671,0.5063014,-0.2600314,0.26094717,-0.8711786,0.8652441,-0.95998347,0.24224244,0.110549875,-0.6039996,0.95565426,-0.44720393,0.66464937,-0.2816677,0.60944057,0.5206127,0.38488466,0.44940495,0.8804291,0.08698204,-0.2690553,0.4615863,0.17114198,0.87067175,-0.15997258,-0.15968555,0.20554218,0.29145265,0.70026785,0.5256153,-0.102501035,0.75057596,-0.52571356,-0.7167604,0.073931254,-0.2683006,-0.017733365,0.12311516,-0.073422454
target_dataset:ONS-76,0.1888167,0.07718843,0.2394996,0.4588663,0.11613065,0.8114877,0.014459759,0.70456946,-0.3634176,-0.05257377,-0.2756232,-0.07888237,0.579316,-0.17337976,-0.6313715,-0.55156714,0.20229125,-0.4680786,-0.55542505,0.8367407,-0.089971036,0.56299317,0.17945947,0.029686108,0.6748566,-1.1199676,0.2916758,0.104093164,0.47150505,-0.79714763,0.6794872,0.30006903,-1.0465357,-0.12921524,0.42383772,-0.054577112,-0.6832089,0.7688407,-0.014712781,-0.9590286,-0.8433006,-0.4298814,0.46061513,-0.16531149,-0.4753914,0.67036295,0.16280502,0.2945872,-0.89777803,0.29304716,0.51961106,-0.25102946,-0.19309765,-0.06387332,0.2472703,0.33478832,0.27068618,-0.83297616,0.989149,-0.09781085,-0.6756993,1.0885781,-0.26869383,-0.09555934,-0.54845124,0.3467468,1.0600626,-0.2504889,-0.17262822,0.43442738,-1.2057291,0.34350523,-0.20519379,-0.12135075,-0.055167638,-0.5037214,0.23303762,-0.024618834,0.014103457,-0.14299223,-0.8642297,-0.20267394,0.57478786,0.33499277,-0.14599164,-0.60336804,-0.9423891,-0.8777906,-0.59581006,-0.11378014,-0.45052162,-0.54361904,0.21679409,-0.023583144,-0.35212284,0.82159597,-0.5973042,0.22575611,0.0016354322,-0.67853487,-0.21389931,1.0337414,-0.2346039,0.012968183,0.20191814,0.41423985,-0.413086,0.074286886,0.29043102,0.308282,-0.35004207,0.15218721,-0.22990373,-0.012112748,-0.105752595,-0.3817115,-0.44295222,-0.28933805,0.18922608,0.20469564,-0.36427224,-0.16549908,0.0030249192,-0.394892,0.2457704,0.42081973,0.089214794,-0.33413428,0.106214784,0.15227853,0.34848145,-0.2523054,-0.39319077,0.20047158,0.03971502,-0.17303476,-0.18331808,-0.21823598,0.36658156,-0.08046668,0.3230085,0.42494217,0.08347947,0.07115718,-0.027356334,0.30310598,-0.39269587,0.17102404,-0.066016994,0.18859035,0.0018970462,-0.17485024,-0.045806114,0.24189253,-0.32410398,-0.29436967,-0.07036118,-0.1623803,0.17602025,0.3263872,-0.050114337,0.42627203,-0.17717382,-0.2558395,-0.22051157,-0.33222926,-0.31068635,-0.423079,-0.40908134,0.14918722,0.28688133,0.41573358,0.3816015,-0.05140099,0.08295165,-0.264389,0.15982537,-0.42693314,0.21322052,0.0796206,0.1342935,0.1625705,-0.20464623,0.38973382,0.21925955,0.3109853,0.06299223,0.25317407,0.29112738,0.20831574,0.33416942,-0.078006804,0.3154081,0.11132144,0.26417378,0.45659694,0.08543044,-0.1787805,-0.04456,0.120087095,0.09517322,-0.11842669,0.34695977,0.25698605,-0.30019513,-0.039190024,-0.045312956,-0.29079008,0.07159362,-0.13905053
target_dataset:Hs 571.T,-0.23901306,0.064455956,-0.04457192,0.7396425,0.18808144,0.5735979,0.05204073,0.4474421,-0.33765104,0.18974727,-0.25076085,0.4836796,0.82560515,0.29232836,-0.60108376,-0.65834534,-0.032722592,-0.78375185,0.051204264,0.19724098,-0.3461862,0.043011762,-0.30714536,-0.09527828,0.19534534,-1.0562427,0.06776902,0.08944875,0.20258291,-0.5763601,0.5864315,0.1296238,-0.9437952,0.056875452,0.32138348,-0.02215445,-0.020168647,0.77097714,0.34300864,-1.059071,-0.68995285,-0.16824716,0.5668783,-0.5288049,-0.89449966,0.40746552,-0.1474632,0.65815425,-1.0527819,-0.07470855,0.23332408,-0.16193053,-0.21069744,-0.11242087,0.04145152,0.6954968,-0.26257882,-0.9783224,0.64559764,-0.021771193,-0.88462853,0.97476226,-0.33561343,-0.23536964,-0.11755355,0.2762778,1.0265064,-0.43592852,-0.512342,-0.032254517,-0.45616305,0.6401011,-0.02854973,-0.35978192,-0.52432525,-0.45604894,0.18738154,0.30531436,0.2787069,0.030150086,-0.95418096,-0.31833896,0.27060091,-0.10778485,-0.44019407,-0.14289226,-0.5921591,-0.38649878,-0.6773623,-0.43092382,-0.25137222,-0.49732226,0.17356671,-0.27062953,-0.54871625,0.19457088,-0.22903937,-0.27335125,-0.049519584,-0.3404174,-0.057193726,1.0871491,-0.32581723,0.13142253,-0.17928757,1.2440474,-0.15670037,0.2592401,0.066928074,-0.52133346,-1.4494057,-0.083660096,-1.3065279,-1.2534662,-0.40829346,0.40942302,-0.31455466,0.29748285,-0.55048937,0.59439695,-0.30807537,0.6750819,-0.9845525,-0.9023645,0.11365719,-0.88303196,-0.6389138,-0.14299983,-0.025503792,-0.1999593,0.047837853,0.5083684,0.0022017956,0.26187885,-0.5113864,0.2097103,0.037055984,1.1613375,0.44477278,-1.287288,0.51649064,0.5389259,-0.1881885,1.069748,1.1871061,-0.9270047,-0.04279837,-0.16704135,-0.18481717,1.7003095,-0.99752367,-1.0176077,-1.4224375,1.5780249,0.8874377,-0.4992652,0.03821458,-0.9582103,0.90768564,1.3067185,-0.81309223,1.4532727,-1.4871763,-0.6782775,1.1637611,-0.4339449,1.3360311,0.28114754,-0.11627746,0.6110772,0.41076186,0.5263548,-0.88850135,-1.5025253,-0.20453595,0.9282527,-1.0505776,-0.17872523,1.5144107,-0.036784068,0.3543602,1.0502149,-1.5318451,0.65906596,1.1667129,1.3382246,-0.4353099,-0.3628868,0.9100306,-0.5769531,1.6476411,0.31348613,0.15360527,-1.1574396,-0.3424739,0.8106668,-0.3800933,1.7157621,0.1417983,-0.23925465,-1.6394361,-0.18139106,0.056199163,-1.4414314,-0.49262527,-0.15627657,-1.1510731,0.48272216,-0.79982847,0.13090609
target_dataset:TC-71,-0.3058334,-0.6672745,-0.3651582,0.011373818,0.54082245,0.43120715,0.0083346665,0.1231547,0.15093389,0.7735938,-0.037111863,-0.02544427,-0.07418123,-1.1776305,0.29895806,-0.8759568,-0.28556064,-0.11281785,-0.386051,0.72493076,0.14804539,-0.24788152,0.50892013,-0.4084704,-0.173623,-0.49566472,0.3491593,0.16623527,-0.039663494,-0.05851057,0.5619241,-0.2703529,-0.7385033,0.29111707,0.096454084,0.22088447,-0.92117995,0.3619613,-0.35679206,0.023604661,-0.10181928,0.0023478419,-0.33412394,-0.6344075,0.058531255,0.113156855,0.26774952,0.033531368,-0.8447088,-0.3225751,0.48585942,-0.06868163,0.9198791,0.37207818,-0.04089555,0.33670193,0.17759398,-0.6143458,0.5621259,-0.65858096,-0.26106825,1.2818134,-0.0035379678,0.4484349,-0.7920265,0.78828776,0.40499148,-0.6581885,0.7420535,0.12989087,-1.0704355,0.42883682,-0.05161345,0.1036953,0.34557003,-0.11130723,0.18435034,0.029463753,-0.220014,0.47511637,-1.0199877,-0.43159518,0.62926185,0.07693658,0.02609402,0.09866135,-0.688059,-0.15314096,-0.7798089,0.9569403,0.331507,0.44398868,-0.22972588,-0.30488798,-0.13225771,0.013583407,-0.90741515,-0.41260937,0.64435124,0.30282044,0.05585195,-0.04335171,-0.2902717,0.38726377,0.38050708,0.60007304,-0.5542921,0.033817116,0.12779948,0.3213902,-0.62289214,-0.107378945,-0.47651836,-0.2608833,-0.53582305,-0.51099277,-0.16664308,-0.08122252,0.038741052,0.13646767,-0.64246017,-0.017896235,-0.13816509,-0.47213182,0.038663164,0.14641869,-0.08470539,-0.6314837,0.22222885,0.07681178,0.67853796,-0.12503336,-0.41686437,0.31321925,-0.009406194,-0.103070654,-0.29983586,0.13618164,0.31813043,-0.30155617,0.8000041,0.7104138,-0.10830664,0.13149035,0.1582191,-0.14181527,-0.49110708,-0.22140734,-0.0739046,0.35672873,-0.09721644,-0.18482009,-0.3226442,0.36337197,0.040682316,-0.110292405,-0.14136107,-0.19992775,0.49077767,0.42961437,-0.11821422,0.6589728,-0.5203756,-0.46843237,-0.1989483,-0.45147443,0.12088972,-0.47538474,-0.2637555,0.32881394,0.11929725,0.30539247,0.042010576,-0.43717057,0.18782671,0.08934185,0.10584012,-0.29199767,0.64924765,-0.1436856,0.4937507,0.5353955,-0.4161167,0.352576,0.57468635,0.7137962,-0.10017882,0.15990011,0.28862894,0.11596227,0.63956493,-0.28131384,0.07300308,-0.040139683,0.005207747,0.4264507,-0.32392827,0.18345177,0.3971222,-0.14371395,-0.23816928,-0.14680175,0.38599014,-0.16695997,-0.44690627,0.06113822,-0.2899487,0.033821166,-0.08827961,0.23636247
target_dataset:TE-9,-0.43868428,-0.15373048,0.12986371,0.41821796,0.08889993,0.4364048,0.08877261,0.26200354,0.38647205,0.35339272,-0.24095003,0.4316769,0.2834563,-0.19747269,-0.23338827,-0.37223613,0.1266845,-0.3646701,0.21755148,0.13336965,-0.3764078,0.13720565,-0.038663194,0.21385837,0.25985593,-0.44984365,0.41082567,0.35829863,0.18615478,-0.42692935,-0.1746128,-0.11861601,-0.10376294,0.27368018,0.16548407,0.35665208,-0.16148712,0.14850993,0.14265697,-0.36417854,-0.43668643,-0.23401216,0.2927463,-0.41768095,-0.39694783,0.28636432,0.20912471,0.36324877,-0.34699288,-0.34907314,0.25074127,0.3829678,0.26955143,0.088178396,0.15386382,0.4311327,-0.29076743,-0.16880661,0.31649956,-0.30136383,-0.21986443,0.31208807,0.16177876,0.16154832,-0.19404286,-0.00989171,0.41817474,-0.29046386,0.02667315,0.21717563,-0.309166,0.41744834,-0.21793064,-0.12494242,-0.13398717,-0.28066048,-0.45129976,0.25456536,0.1165085,-0.42114216,-0.29784432,0.4409855,0.18336384,0.17937717,-0.24094726,-0.20973703,-0.08586904,-0.09803289,-0.28300136,0.057160433,0.057062365,-0.07673243,0.07643375,-0.18782651,0.11324012,0.17206347,-0.20653276,-0.4562052,0.22214182,0.08017298,-0.24488607,0.44629392,-0.19112617,0.31909326,0.2437704,0.41341963,-0.40924123,0.07330742,0.29114458,0.3051816,-0.35456654,0.15347199,-0.23225088,-0.019020632,-0.101588696,-0.37510744,-0.44494227,-0.28784266,0.18591332,0.21114953,-0.3571542,-0.1622365,-0.004071922,-0.39525035,0.24799515,0.41770503,0.08963671,-0.32920915,0.1013109,0.15341534,0.34162816,-0.2526904,-0.39154586,0.20233148,0.03593323,-0.17508115,-0.17590533,-0.2121481,0.37054312,-0.08755314,0.31571907,0.4204702,0.08620104,0.075051986,-0.019041428,0.30183738,-0.3858287,0.17588949,-0.07108968,0.19303434,-0.00603236,-0.18089959,-0.052760933,0.24633454,-0.32223463,-0.300523,-0.06367886,-0.16835466,0.17689024,0.3325688,-0.056567162,0.4277469,-0.18331793,-0.25656304,-0.2122355,-0.326225,-0.30346376,-0.41955268,-0.4143064,0.15106848,0.29009867,0.4170999,0.37962756,-0.05493069,0.08205062,-0.26227278,0.15431306,-0.4278956,0.21639211,0.080931954,0.12987448,0.16491815,-0.2071465,0.39097384,0.2209431,0.31120357,0.061055206,0.24720806,0.29234684,0.20082134,0.34048447,-0.070294924,0.31788078,0.10419224,0.26507893,0.45758492,0.08772724,-0.17160086,-0.052480437,0.12673618,0.08837389,-0.119892135,0.34409356,0.2517285,-0.29982513,-0.043349445,-0.048925214,-0.29120475,0.06512748,-0.14195926
target_dataset:A101D,-0.58628523,-0.37011766,-0.5141615,0.45468497,0.47664776,0.29945084,0.032826357,0.122894585,-0.009554148,0.74117655,-0.19052546,0.7619206,0.40794176,-0.03980522,-0.09076455,-0.9736727,-0.3348236,-0.6070981,0.49855506,-0.18975231,-0.360596,-0.7559559,-0.24936797,-0.49687445,-0.4664528,-0.72458696,0.14709273,0.09669772,-0.34559512,-0.13679132,0.5343659,-0.17036238,-0.73336935,0.3160859,0.26386738,0.1653755,0.15004148,0.5696343,0.16711739,-0.38646707,-0.18849435,0.14373165,0.16053973,-1.1527362,-0.91386366,-0.045706183,-0.15576553,0.632938,-1.0229393,-0.4871306,0.19817093,-0.045576245,0.4308629,0.102304146,-0.38570786,0.8987354,-0.434944,-1.0334024,0.2578494,-0.3626914,-0.6214994,0.9830957,-0.3181792,-0.016554356,-0.06303905,0.51751506,0.634511,-0.7387091,-0.15600362,-0.41747552,0.006234795,0.7846489,0.2654699,-0.36609697,-0.47404164,-0.029735297,0.2194843,0.4227625,0.29050002,0.4539997,-1.0448346,-0.4823577,0.26285553,-0.5300277,-0.538674,0.42023516,-0.27458024,0.2668172,-0.7261335,0.020145647,0.2665196,0.21133105,-0.013233051,-0.37396258,-0.53510594,-0.52649915,-0.32600302,-0.9651019,0.22313473,0.52607954,0.17739792,0.42068502,-0.5777805,0.35575986,-0.38962412,0.21781686,-0.5308337,-0.14136821,0.20179255,0.5727434,-0.46508187,-0.043162465,-0.18696696,-0.15928547,-0.35367212,-0.5935889,-0.20862815,-0.18794936,0.14606938,0.28441146,-0.39105105,-0.18193792,-0.12347056,-0.27079868,0.13245037,0.49342102,0.22731405,-0.5907215,0.057966687,0.2879001,0.59638184,-0.47588435,-0.5357119,0.4508481,0.024823109,-0.38707924,-0.032039866,-0.031143084,0.48890665,-0.21414363,0.5121534,0.53255224,0.09532409,-0.12188063,0.12173834,0.18876079,-0.31354094,0.04050909,-0.3191578,-0.07367131,-0.10425478,-0.11458391,-0.16835384,-0.00042027235,-0.28597522,-0.2759352,0.16433467,-0.16381134,0.32702178,0.3443815,-0.14349416,0.33585453,-0.3866134,-0.40308598,-0.41069168,-0.10236506,-0.07705101,-0.6567205,-0.6517921,0.2950284,0.1602523,0.27244043,0.40580973,-0.0964106,0.33728403,-0.21852982,0.37565947,-0.40799043,0.3908053,-0.120930195,0.30247456,0.4091484,0.012257844,0.26784995,0.36882746,0.4037606,-0.042337306,0.074547544,0.039645135,0.027502328,0.4946078,-0.1292609,0.17865694,0.112888224,0.23907508,0.28644675,-0.15805843,-0.18131599,0.057002768,0.30232567,0.08145797,-0.21635017,0.3857502,0.17895454,-0.4012496,-0.07441132,-0.059771225,-0.22314598,-0.105779745,0.11764173
target_dataset:AMO1,-0.73781157,-0.12819582,-0.012807488,0.6166618,-0.007105112,0.36770654,0.39532685,0.38117707,0.5254662,0.25720233,-0.4688149,0.53244126,0.13216145,-0.5504821,0.14854518,-0.7817625,-0.08317287,-0.4226155,0.0018263459,0.34775233,-0.5168491,-0.03322324,0.32030648,0.32744116,0.03386119,-0.14672446,0.08184025,0.21799745,-0.06501533,-0.5564834,0.061235234,-0.1474539,0.029278614,-0.039975494,-0.09974261,0.17823377,-0.56021184,-0.08425936,0.26564485,-0.49946702,-0.40352342,-0.59129035,0.17372787,-0.18228336,-0.06755352,0.47739387,0.4359494,0.4447926,-0.35859686,-0.5125623,0.41895968,0.071214914,0.5861444,-0.017328627,0.28826842,0.36976594,0.089843154,0.05098644,0.416996,-0.29845706,-0.45447648,0.7510844,0.06413698,0.07035618,-0.2007653,0.4203581,0.42091885,-0.42835057,0.37364903,0.12414556,-0.6475656,0.69730353,0.08058041,-0.009768836,0.2768864,-0.46817937,-0.29874295,0.5304595,0.27569523,-0.17058253,-0.6745314,0.019313335,0.40143228,-0.043600425,0.11111593,-0.16135816,-0.11277995,0.18280363,-0.45401615,0.42711896,0.40023804,-0.098516084,-0.13266173,-0.52308863,0.3833835,-0.17786099,-0.053555816,-0.5309872,0.26615638,0.09853272,-0.0102428645,0.5773021,-0.06691162,-0.055558115,0.31826076,0.41423985,-0.413086,0.074286886,0.29043102,0.308282,-0.35004207,0.15218721,-0.22990373,-0.012112748,-0.105752595,-0.3817115,-0.44295222,-0.28933805,0.18922608,0.20469564,-0.36427224,-0.16549908,0.0030249192,-0.394892,0.2457704,0.42081973,0.089214794,-0.33413428,0.106214784,0.15227853,0.34848145,-0.2523054,-0.39319077,0.20047158,0.03971502,-0.17303476,-0.18331808,-0.21823598,0.36658156,-0.08046668,0.3230085,0.42494217,0.08347947,0.07115718,-0.027356334,0.30310598,-0.39269587,0.17102404,-0.066016994,0.18859035,0.0018970462,-0.17485024,-0.045806114,0.24189253,-0.32410398,-0.29436967,-0.07036118,-0.1623803,0.17602025,0.3263872,-0.050114337,0.42627203,-0.17717382,-0.2558395,-0.22051157,-0.33222926,-0.31068635,-0.423079,-0.40908134,0.14918722,0.28688133,0.41573358,0.3816015,-0.05140099,0.08295165,-0.264389,0.15982537,-0.42693314,0.21322052,0.0796206,0.1342935,0.1625705,-0.20464623,0.38973382,0.21925955,0.3109853,0.06299223,0.25317407,0.29112738,0.20831574,0.33416942,-0.078006804,0.3154081,0.11132144,0.26417378,0.45659694,0.08543044,-0.1787805,-0.04456,0.120087095,0.09517322,-0.11842669,0.34695977,0.25698605,-0.30019513,-0.039190024,-0.045312956,-0.29079008,0.07159362,-0.13905053
target_dataset:Hep 3B2.1-7,-0.48411977,-0.3036005,0.032065846,0.4795373,0.23054586,0.39161456,0.01882787,0.0017360449,0.21629871,0.5396699,0.031527877,0.24162638,0.4754874,-0.44680005,-0.14768162,-0.2626891,-0.055673555,-0.45187566,-0.060289636,0.338625,-0.10317004,0.26774043,-0.11009701,0.14601839,0.1633409,-0.4896571,0.2600137,0.37410238,0.43248832,-0.15931883,-0.09647853,-0.30609104,-0.34279296,0.46629068,-0.048173085,0.33530706,-0.31087977,0.25145215,0.16939099,-0.47136718,-0.3761239,0.0210118,0.14327274,-0.22555292,-0.13138089,0.21951075,0.048412144,0.29028666,-0.61368847,-0.43280697,0.10057701,0.37217113,0.33216327,0.22426839,0.33869538,0.34342134,-0.43517876,-0.19638553,0.36858147,-0.31753743,-0.35900122,0.5705662,0.30334964,0.32130718,-0.39305574,0.07187398,0.43461,-0.3726164,0.15990591,0.24238291,-0.55497336,0.3833046,-0.47301358,-0.039970793,-0.15484348,-0.47215176,-0.42121738,0.18416542,-0.08803744,-0.21815945,-0.47044072,0.2688521,0.10860119,0.35929167,-0.1546802,-0.08350563,-0.31390974,-0.26695466,-0.5346777,0.2458211,0.04307636,-0.12804046,-0.0876704,-0.38016844,-0.011719272,0.23316617,-0.34652045,-0.22040355,0.44724116,-0.13837329,-0.24868326,0.3937598,0.033449054,0.5149605,0.5015207,0.5960974,-0.56800187,-0.14354798,0.14223441,0.373219,-0.6398337,-0.26377583,-0.55069995,-0.25427884,-0.7243381,-0.71240634,-0.060920417,0.005863607,0.087527625,0.2349105,-0.64220965,-0.03863716,-0.19503386,-0.46445698,-0.065735936,0.10438937,0.012580447,-0.86486346,0.13118172,0.113168165,0.7522405,-0.23509829,-0.44363678,0.3728767,-0.06473784,-0.107389756,-0.15640008,0.2411925,0.3735931,-0.45268926,0.9779326,0.6709716,-0.012202263,-0.046586268,0.27281824,-0.2600834,-0.37303397,-0.29357958,-0.088383645,0.20805337,-0.051882163,-0.12706283,-0.4932379,0.27729058,0.14547947,-0.007809937,-0.013575051,-0.21555796,0.6269995,0.34779426,-0.1914285,0.7078116,-0.68007374,-0.5864159,-0.29792994,-0.2689646,0.2564711,-0.5574571,-0.27067298,0.4434607,0.082098365,0.24781772,0.033585817,-0.49397084,0.39338875,0.051957637,0.2801214,-0.30523327,0.8153075,-0.26638484,0.4842275,0.7748344,-0.4035573,0.289875,0.58538014,0.80480003,-0.14720887,0.075702354,0.26202255,0.1258788,0.73300815,-0.2962919,0.03584221,0.000963144,0.06305121,0.23490384,-0.53994447,0.15548286,0.46511537,0.034508698,-0.22830525,-0.1055856,0.4275648,-0.2717075,-0.5170841,0.053478383,-0.2972505,0.07250717,-0.21562117,0.41190916
target_dataset:JIMT-1,-0.9243822,-0.24084625,-0.106711626,0.84627247,0.08282619,0.28161585,0.406348,0.06654909,0.36664805,0.41806617,-0.18333912,0.3745428,0.43139267,-0.83993065,0.29393637,-0.6571133,-0.33727032,-0.6157868,-0.3568502,0.6026138,-0.2632472,0.17559554,0.22672914,0.38287482,-0.09637427,-0.09949699,-0.23075062,0.23276879,0.2564729,-0.27801263,0.11036727,-0.40078405,-0.15596053,0.13727117,-0.48213047,0.11611107,-0.76054287,-0.048981547,0.43844858,-0.7721343,-0.36831236,-0.37859145,0.037130862,0.21346551,0.3375353,0.47373366,0.26307106,0.4270701,-0.65614927,-0.6915361,0.20930491,0.041915238,0.65473497,0.09335824,0.63707733,0.2404488,-0.088060826,0.16531312,0.47822273,-0.25332394,-0.7239078,1.0832074,0.27051002,0.21949126,-0.37921217,0.5249726,0.4482197,-0.5220994,0.5423847,0.14778209,-0.96875525,0.734528,-0.2272888,0.10723403,0.28636688,-0.8387737,-0.3269462,0.5584959,0.0924188,0.03469509,-0.9087492,-0.20001784,0.27743962,0.16676769,0.29813433,-0.02068083,-0.33911523,0.036740698,-0.7806239,0.648889,0.4370726,-0.27891153,-0.38006353,-0.88763094,0.33402896,-0.17024569,-0.075715676,-0.21977845,0.52779156,-0.25601587,0.001886487,0.63539964,0.3183778,0.09738916,0.6912775,0.41423985,-0.413086,0.074286886,0.29043102,0.308282,-0.35004207,0.15218721,-0.22990373,-0.012112748,-0.105752595,-0.3817115,-0.44295222,-0.28933805,0.18922608,0.20469564,-0.36427224,-0.16549908,0.0030249192,-0.394892,0.2457704,0.42081973,0.089214794,-0.33413428,0.106214784,0.15227853,0.34848145,-0.2523054,-0.39319077,0.20047158,0.03971502,-0.17303476,-0.18331808,-0.21823598,0.36658156,-0.08046668,0.3230085,0.42494217,0.08347947,0.07115718,-0.027356334,0.30310598,-0.39269587,0.17102404,-0.066016994,0.18859035,0.0018970462,-0.17485024,-0.045806114,0.24189253,-0.32410398,-0.29436967,-0.07036118,-0.1623803,0.17602025,0.3263872,-0.050114337,0.42627203,-0.17717382,-0.2558395,-0.22051157,-0.33222926,-0.31068635,-0.423079,-0.40908134,0.14918722,0.28688133,0.41573358,0.3816015,-0.05140099,0.08295165,-0.264389,0.15982537,-0.42693314,0.21322052,0.0796206,0.1342935,0.1625705,-0.20464623,0.38973382,0.21925955,0.3109853,0.06299223,0.25317407,0.29112738,0.20831574,0.33416942,-0.078006804,0.3154081,0.11132144,0.26417378,0.45659694,0.08543044,-0.1787805,-0.04456,0.120087095,0.09517322,-0.11842669,0.34695977,0.25698605,-0.30019513,-0.039190024,-0.045312956,-0.29079008,0.07159362,-0.13905053
target_dataset:IM95,-0.8459293,-0.15836656,-0.13410638,0.79100686,0.09287335,0.29433474,0.3322494,0.16937016,0.33217028,0.40198702,-0.2898669,0.6218724,0.43912783,-0.37973863,0.079262674,-0.7108717,-0.23547864,-0.64168113,0.06709321,0.21590932,-0.4505473,-0.08573626,0.012694944,0.2350167,-0.12706462,-0.26543456,-0.084735215,0.21367115,0.04258138,-0.36103565,0.109093696,-0.26330715,-0.16933441,0.13488244,-0.20256929,0.1515091,-0.32762623,0.075453825,0.4410497,-0.702682,-0.38178906,-0.32656807,0.21214134,-0.20802604,-0.17705365,0.3638404,0.16562149,0.569184,-0.6283418,-0.6219277,0.20418721,0.08121708,0.47172537,0.012472481,0.31659836,0.47996375,-0.2310243,-0.117526636,0.3594142,-0.22138917,-0.66619885,0.8474582,0.07963787,0.056611158,-0.13276188,0.3854829,0.5058627,-0.5148597,0.18503237,-0.02463299,-0.4920376,0.7688565,-0.0332523,-0.09449517,-0.013448805,-0.58226264,-0.2657401,0.58335614,0.2647734,-0.02181837,-0.8060951,-0.11920646,0.22061428,-0.083278164,-0.013798773,0.03957349,-0.16599953,0.16795194,-0.63107765,0.27042615,0.3544051,-0.20630191,-0.18599854,-0.6806265,0.14276928,-0.2841454,0.0055850744,-0.51553327,0.31214625,-0.0018367469,0.016251639,0.67123324,0.012079284,0.107537225,0.27594063,0.13696861,-0.61450726,-0.31327015,0.09483926,0.7219166,-0.6872021,-0.24893017,-0.26756087,-0.42256245,-0.61960125,-0.7057815,0.021255642,-0.03166157,0.028022334,0.3898654,-0.42121133,-0.106073685,-0.33863315,-0.21626945,0.011045784,0.41490412,0.26782882,-0.8091898,0.007825062,0.36804008,0.79780567,-0.589953,-0.6219866,0.6808365,-0.045239806,-0.53298116,0.116971195,0.28547996,0.60147357,-0.46095675,0.7179287,0.65063834,0.070121065,-0.18853596,0.38121378,-0.053405136,-0.21387954,-0.124654904,-0.5526228,-0.14497119,-0.30094534,-0.14624415,-0.42481765,-0.073832735,-0.1158403,-0.27204955,0.37715685,-0.24595751,0.5458322,0.46228963,-0.3041044,0.3693845,-0.7153473,-0.58329475,-0.43817288,0.083156765,0.31027764,-0.7931746,-0.8283628,0.47647333,0.054452837,0.15329412,0.28545594,-0.29734343,0.5356469,-0.044009402,0.44143742,-0.36073264,0.6949349,-0.31774426,0.48735434,0.72961426,0.06035444,0.18646722,0.6096723,0.60500515,-0.19126298,-0.14707357,-0.11868876,-0.21283518,0.779174,-0.14411315,0.032247305,-0.018775381,0.14524707,0.17161831,-0.43542105,0.021154359,0.18394017,0.41415137,-0.118014,-0.3094795,0.39244503,-0.07715851,-0.5152565,-0.112404734,-0.1933509,-0.0726006,-0.3546835,0.38557017
target_dataset:SU.86.86,-1.3138957,-0.38661662,-0.33696485,1.2009535,0.15412605,0.14124599,0.6076581,-0.21980664,0.2605972,0.56646293,0.005917251,0.2297936,0.6454735,-1.456512,0.7363168,-0.8126277,-0.78377247,-0.85129976,-0.93753463,1.0653567,-0.03181812,0.27437472,0.38800716,0.47361636,-0.4159043,0.14259103,-0.7939034,0.14685223,0.44128025,-0.02271384,0.36648223,-0.7133483,-0.32323194,0.13787381,-1.0834833,-0.07617515,-1.2909658,-0.14233139,0.6751621,-1.1362716,-0.2844668,-0.35070264,-0.23511574,0.79090554,1.0320046,0.57880235,0.2175526,0.43597603,-1.0314361,-0.9938694,0.09772152,-0.220292,0.97787523,0.17014346,1.0993843,0.050102025,-0.013001084,0.4017536,0.62771165,-0.22586724,-1.1774015,1.8014252,0.42808723,0.34862426,-0.6250265,0.97091115,0.4796122,-0.7402587,1.0014889,0.10910887,-1.5963315,0.9546407,-0.37094885,0.3273101,0.59124434,-1.360962,-0.21733715,0.7493031,-0.035249464,0.48614073,-1.4605092,-0.7741598,0.30812833,0.25365046,0.7496545,0.18907373,-0.6516616,0.047596253,-1.289567,1.1948351,0.715297,-0.4584033,-0.81118184,-1.516807,0.43310267,-0.39488798,-0.052337572,0.08427876,0.8781627,-0.62583834,0.18539159,0.74944353,0.8217384,0.035606056,1.1657939,1.3209362,0.26231116,-0.41117576,1.0177686,-0.5789622,-0.29229322,-0.5002814,-1.6077412,0.64016145,-0.60098624,-1.0241272,-0.55570966,0.0143179,0.9488585,0.89686626,-0.8639027,-0.1851044,0.31526813,-1.3340259,-0.43061024,-0.6256913,0.081429146,-1.0337043,-0.079833455,-0.5141588,0.05798912,0.0493944,-0.08021569,-0.6102946,-0.014641646,0.5846245,-0.15606798,0.32578862,0.029058695,-0.944497,1.2945914,-0.48749813,0.90430963,-0.09505593,0.17752379,-0.37543115,-0.038698167,-0.025000513,1.3160726,0.5692042,1.1467263,-0.26282823,-1.0427102,0.9309647,0.47602943,0.9404719,-0.53340924,-0.39458168,1.1792908,-0.31873563,-0.19802532,1.6986957,-1.0388677,-0.77994704,-0.20162562,0.12959859,-0.12968493,-0.10956085,1.0453582,0.2880905,0.7023935,0.82682556,0.115000844,-0.62159085,0.46954763,-0.74052876,0.8001384,-0.8378581,0.7830553,-0.035468236,-0.6558848,1.3868817,-1.0938425,0.640324,-0.2565316,0.9760655,0.37728697,0.41682875,0.9883069,1.1884892,0.33370844,-0.3012922,0.4601512,0.21083465,0.84199786,-0.37894037,-0.6588784,0.27914286,0.55727553,0.6137932,0.24778947,0.31558484,0.75345474,-0.89166725,-0.74872124,0.18796219,-0.39312714,0.14288047,-0.06271214,0.23509754
target_dataset:RVH-421,-0.57051015,-0.3663267,-0.56481177,0.47009066,0.506654,0.30653718,0.027462557,0.1409361,-0.08540174,0.74666584,-0.1971538,0.7814685,0.4418504,0.0011561364,-0.10866934,-1.040817,-0.36903474,-0.64320374,0.50050837,-0.19876659,-0.35915408,-0.82109755,-0.26792067,-0.56726277,-0.5104183,-0.78811634,0.11390439,0.057640195,-0.38614047,-0.13992569,0.64211345,-0.14617915,-0.8351737,0.29246816,0.29194286,0.12395595,0.16977058,0.6416917,0.1720911,-0.43025804,-0.1932488,0.16136962,0.17121977,-1.2129531,-0.98489714,-0.053118706,-0.19445965,0.66644096,-1.110951,-0.46574792,0.20603152,-0.11886588,0.40862486,0.0862641,-0.4352386,0.9458025,-0.4240322,-1.1510706,0.28424045,-0.3495914,-0.68838906,1.0759239,-0.3925556,-0.059240207,-0.053229928,0.57768893,0.6938542,-0.77554965,-0.20205173,-0.47147202,0.0070071816,0.8214203,0.31951556,-0.3969742,-0.5131306,-0.017815351,0.31595924,0.4325087,0.3145755,0.5414514,-1.1401082,-0.5977012,0.2862329,-0.5982612,-0.5697078,0.45635247,-0.32669058,0.26683548,-0.77726567,-0.013577301,0.2563686,0.20465358,-0.0069687366,-0.38108128,-0.6211858,-0.56340724,-0.3424042,-0.9853529,0.1984258,0.5288721,0.21888293,0.4635787,-0.6216168,0.33546817,-0.4654786,1.375367,-0.060209274,-0.26872888,0.6847809,-0.46808955,-0.28226942,-0.3702972,-1.2621917,0.43634298,-0.717702,-0.96224725,-0.46246764,0.06012109,0.62648886,0.55176735,-0.6298288,-0.10115836,0.08436174,-1.0376542,-0.2432827,-0.4870834,-0.009645566,-1.0796744,-0.13594544,-0.3182165,0.13213457,0.084361166,-0.024234653,-0.39609563,-0.2327024,0.710086,-0.046731055,0.13203306,0.13304004,-0.78949016,1.2223371,-0.095721215,0.5610518,-0.18333635,0.2645758,-0.4402413,-0.05939865,-0.13810886,0.9836077,0.5116142,0.75421363,-0.11324283,-0.96036667,0.8440311,0.55501163,0.59905493,-0.35189807,-0.32153475,0.87063843,-0.20087048,-0.20624937,1.4450611,-0.79204035,-0.6718582,-0.08924222,-0.14203352,0.013424963,-0.06230223,0.78573716,0.42991143,0.46777105,0.59486806,-0.072268814,-0.63827753,0.46902132,-0.42099762,0.4509549,-0.54407907,0.95695156,-0.100832,-0.33874062,1.1607203,-1.2035961,0.49674684,-0.023723409,0.952778,0.10944602,0.36438474,1.1090295,0.9838541,0.5341071,-0.21171619,0.39926678,0.2072093,0.5566612,-0.17401531,-0.71811426,0.10070714,0.47522753,0.3281051,-0.04396022,0.466178,0.5609693,-0.63483715,-0.55707455,0.1698379,-0.3196488,0.056454897,-0.15623671,0.3095368
target_dataset:SCC-9,-0.098339796,-0.04949163,0.02462425,0.38709193,0.1761797,0.6265663,0.055188183,0.5840283,-0.07021582,0.17873947,-0.36416534,0.3081937,0.3621154,-0.073906116,-0.42528182,-0.7231638,0.1047934,-0.42734158,-0.022468016,0.35919592,-0.31362012,0.026918218,0.08720812,-0.100888476,0.3038465,-0.8846472,0.34973213,0.12635492,0.056179747,-0.65382457,0.5014732,0.18074152,-0.72543,-0.024127066,0.44401294,0.08231726,-0.32709736,0.5759398,0.0123972595,-0.6119404,-0.59664273,-0.3383579,0.38150313,-0.60623395,-0.6968312,0.41959178,0.16028439,0.41453916,-0.7405191,0.010960728,0.47162822,-0.10530576,0.06892383,-0.037751794,-0.058624938,0.55062306,0.07291281,-0.8005007,0.6566383,-0.22418666,-0.5110899,0.85545975,-0.2915079,-0.088694856,-0.2916854,0.34035316,0.82187605,-0.3772468,-0.15955162,0.13865778,-0.631557,0.49340618,0.060706794,-0.22118501,-0.15266937,-0.21855627,0.14007244,0.16343929,0.18645602,-0.0653967,-0.7753577,-0.13877371,0.48440856,-0.030613706,-0.30646068,-0.28930235,-0.53457886,-0.34564334,-0.4839978,-0.08774966,-0.14252385,-0.18757884,0.19399405,-0.05440396,-0.28595352,0.29453754,-0.4359284,-0.34230134,0.016336918,-0.08259151,-0.08997218,0.75014335,-0.448232,0.0758639,-0.08191471,0.59982646,-0.6787385,-0.119900115,0.011977553,0.45837885,-0.8103404,-0.35339057,-0.5912857,-0.446476,-0.8946043,-0.7107997,0.09478402,0.08311331,-0.043542624,0.1598419,-0.7889017,0.04167606,-0.2754012,-0.45152548,-0.13414288,0.03827575,-0.08610133,-0.9392846,0.23772842,0.10937342,0.96553457,-0.18758288,-0.49847272,0.49353015,-0.051202796,-0.16733995,-0.25809157,0.41373956,0.3616088,-0.49991316,1.152598,0.8890532,-0.17588833,0.036572628,0.3389544,-0.4327624,-0.47854838,-0.48492122,-0.19559479,0.28845632,-0.18399738,-0.15046328,-0.5468493,0.29442525,0.25557718,0.007924706,-0.04296712,-0.22190535,0.73918205,0.47089875,-0.20846437,0.74028325,-0.81384623,-0.6620673,-0.29511517,-0.36738014,0.46308827,-0.6234951,-0.3051782,0.5052093,-0.02672249,0.17528304,-0.11270937,-0.6555064,0.39597,0.27333078,0.21339603,-0.22094508,0.97438276,-0.36765733,0.7417339,0.87633836,-0.41719687,0.26647744,0.81640786,0.9690405,-0.23640855,0.016547248,0.167814,-0.008692086,0.8789841,-0.40582123,-0.11373481,-0.104162596,-0.11941081,0.29547662,-0.6763206,0.35150135,0.6704208,-0.15192273,-0.40334815,-0.1965301,0.43094993,-0.42852762,-0.57798064,0.09203015,-0.41613925,0.22919494,-0.2720472,0.57008046
target_dataset:59M,-0.6014825,-0.36689258,-0.5272719,0.47506222,0.48118567,0.29168895,0.033159982,0.11172885,-0.022948235,0.7488575,-0.18552183,0.7831077,0.43268234,-0.013674229,-0.09665553,-0.9778901,-0.34826925,-0.629827,0.51612025,-0.21181998,-0.36740714,-0.7724601,-0.27676016,-0.5043455,-0.48561862,-0.7325798,0.1292313,0.0928134,-0.34927648,-0.12766808,0.5414213,-0.17576629,-0.7448553,0.32295018,0.25797027,0.16018082,0.17843308,0.58086467,0.18803813,-0.40712258,-0.18769312,0.15822855,0.16969949,-1.162557,-0.93480814,-0.053670764,-0.17710641,0.65242314,-1.0436362,-0.49869245,0.18258351,-0.04951951,0.41987872,0.09802443,-0.39002544,0.91556257,-0.46008268,-1.0502459,0.25020218,-0.35315186,-0.64400375,0.99050087,-0.3253349,-0.027148694,-0.04595934,0.51734585,0.64409065,-0.7480092,-0.17907023,-0.43858558,0.031015754,0.79943824,0.26942632,-0.3785572,-0.50125015,-0.036444604,0.22568294,0.4365455,0.30128375,0.46762067,-1.0594438,-0.49885067,0.24879758,-0.54766846,-0.55243194,0.43981308,-0.27118504,0.27776214,-0.73867,-0.0010885522,0.26743478,0.20153077,-0.0152478665,-0.38881606,-0.5546227,-0.5482987,-0.31080452,-0.9762667,0.2188777,0.52567804,0.18505593,0.43580863,-0.57786775,0.36019766,-0.4065094,0.41423985,-0.413086,0.074286886,0.29043102,0.308282,-0.35004207,0.15218721,-0.22990373,-0.012112748,-0.105752595,-0.3817115,-0.44295222,-0.28933805,0.18922608,0.20469564,-0.36427224,-0.16549908,0.0030249192,-0.394892,0.2457704,0.42081973,0.089214794,-0.33413428,0.106214784,0.15227853,0.34848145,-0.2523054,-0.39319077,0.20047158,0.03971502,-0.17303476,-0.18331808,-0.21823598,0.36658156,-0.08046668,0.3230085,0.42494217,0.08347947,0.07115718,-0.027356334,0.30310598,-0.39269587,0.17102404,-0.066016994,0.18859035,0.0018970462,-0.17485024,-0.045806114,0.24189253,-0.32410398,-0.29436967,-0.07036118,-0.1623803,0.17602025,0.3263872,-0.050114337,0.42627203,-0.17717382,-0.2558395,-0.22051157,-0.33222926,-0.31068635,-0.423079,-0.40908134,0.14918722,0.28688133,0.41573358,0.3816015,-0.05140099,0.08295165,-0.264389,0.15982537,-0.42693314,0.21322052,0.0796206,0.1342935,0.1625705,-0.20464623,0.38973382,0.21925955,0.3109853,0.06299223,0.25317407,0.29112738,0.20831574,0.33416942,-0.078006804,0.3154081,0.11132144,0.26417378,0.45659694,0.08543044,-0.1787805,-0.04456,0.120087095,0.09517322,-0.11842669,0.34695977,0.25698605,-0.30019513,-0.039190024,-0.045312956,-0.29079008,0.07159362,-0.13905053
target_dataset:CMK-86,-0.43615112,-0.15428677,0.13055797,0.41613716,0.08994576,0.43699595,0.08640565,0.26129732,0.3853751,0.35434064,-0.23934585,0.4306577,0.28395545,-0.19547136,-0.23587912,-0.3697791,0.12811333,-0.36381477,0.21894912,0.13207299,-0.37512496,0.13791068,-0.0407338,0.21238033,0.26126322,-0.45218852,0.41352433,0.35914978,0.18749778,-0.425897,-0.17573205,-0.11829305,-0.10516045,0.27585617,0.1677701,0.35791487,-0.15902846,0.1504058,0.14110759,-0.36254308,-0.43665677,-0.23134303,0.29318407,-0.42002362,-0.3993747,0.28478536,0.2076613,0.36235303,-0.3470761,-0.34765568,0.24991418,0.38489708,0.26773205,0.089118406,0.15233934,0.43162894,-0.2929897,-0.17096877,0.3159196,-0.30176178,-0.21789154,0.30939513,0.16214871,0.16234674,-0.19437279,-0.012455018,0.4181152,-0.2896871,0.024589531,0.2177636,-0.3070388,0.4153396,-0.21969464,-0.12570228,-0.13660868,-0.27874288,-0.45181677,0.2522754,0.11519156,-0.42237616,-0.2954814,0.44352874,0.18227728,0.18073435,-0.24350327,-0.209949,-0.08600549,-0.100030325,-0.2818688,0.055024903,0.054727178,-0.075908974,0.07794888,-0.18508147,0.1110502,0.17451288,-0.20830059,-0.45591444,0.22194903,0.08059215,-0.24636482,0.44480684,-0.19252189,0.3217942,0.24297597,0.41423985,-0.413086,0.074286886,0.29043102,0.308282,-0.35004207,0.15218721,-0.22990373,-0.012112748,-0.105752595,-0.3817115,-0.44295222,-0.28933805,0.18922608,0.20469564,-0.36427224,-0.16549908,0.0030249192,-0.394892,0.2457704,0.42081973,0.089214794,-0.33413428,0.106214784,0.15227853,0.34848145,-0.2523054,-0.39319077,0.20047158,0.03971502,-0.17303476,-0.18331808,-0.21823598,0.36658156,-0.08046668,0.3230085,0.42494217,0.08347947,0.07115718,-0.027356334,0.30310598,-0.39269587,0.17102404,-0.066016994,0.18859035,0.0018970462,-0.17485024,-0.045806114,0.24189253,-0.32410398,-0.29436967,-0.07036118,-0.1623803,0.17602025,0.3263872,-0.050114337,0.42627203,-0.17717382,-0.2558395,-0.22051157,-0.33222926,-0.31068635,-0.423079,-0.40908134,0.14918722,0.28688133,0.41573358,0.3816015,-0.05140099,0.08295165,-0.264389,0.15982537,-0.42693314,0.21322052,0.0796206,0.1342935,0.1625705,-0.20464623,0.38973382,0.21925955,0.3109853,0.06299223,0.25317407,0.29112738,0.20831574,0.33416942,-0.078006804,0.3154081,0.11132144,0.26417378,0.45659694,0.08543044,-0.1787805,-0.04456,0.120087095,0.09517322,-0.11842669,0.34695977,0.25698605,-0.30019513,-0.039190024,-0.045312956,-0.29079008,0.07159362,-0.13905053
target_dataset:KMRC-20,-0.51722026,-0.05349361,0.12118185,0.57443786,-0.003109552,0.45667526,0.24770275,0.4023493,0.36763632,0.19950552,-0.38359493,0.4520917,0.28989416,-0.28274956,-0.14554207,-0.56186175,0.06655678,-0.43976828,0.04327476,0.29612112,-0.45756456,0.15493345,0.12609194,0.31087226,0.24688631,-0.386648,0.22104922,0.26556826,0.124954894,-0.5859752,0.0045802444,-0.05783657,-0.11422292,0.047385573,0.06670381,0.21296592,-0.37567562,0.098660834,0.23764828,-0.5701988,-0.5153319,-0.47391444,0.3184696,-0.2270239,-0.27653068,0.4635981,0.31329244,0.42967552,-0.38976493,-0.3426883,0.35326657,0.16808188,0.29977694,-0.018510789,0.26405555,0.39201906,-0.055223957,-0.10639298,0.44754493,-0.23121028,-0.41268486,0.56648874,0.064593926,0.046623327,-0.19226108,0.19044581,0.5192395,-0.32040843,0.10775593,0.21056302,-0.55019546,0.553211,-0.07995023,-0.0856294,0.04539618,-0.43632865,-0.33259204,0.38127917,0.21715954,-0.3363455,-0.51156974,0.20750646,0.3102758,0.09896059,-0.06567867,-0.2741622,-0.1715346,-0.06505117,-0.37411776,0.13636175,0.13290599,-0.2158023,0.015700746,-0.3327001,0.20956089,0.102926165,-0.11318665,-0.39185527,0.1717258,-0.05380299,-0.14726767,0.6564683,-0.11656528,0.06977531,0.26776442,0.41423985,-0.413086,0.074286886,0.29043102,0.308282,-0.35004207,0.15218721,-0.22990373,-0.012112748,-0.105752595,-0.3817115,-0.44295222,-0.28933805,0.18922608,0.20469564,-0.36427224,-0.16549908,0.0030249192,-0.394892,0.2457704,0.42081973,0.089214794,-0.33413428,0.106214784,0.15227853,0.34848145,-0.2523054,-0.39319077,0.20047158,0.03971502,-0.17303476,-0.18331808,-0.21823598,0.36658156,-0.08046668,0.3230085,0.42494217,0.08347947,0.07115718,-0.027356334,0.30310598,-0.39269587,0.17102404,-0.066016994,0.18859035,0.0018970462,-0.17485024,-0.045806114,0.24189253,-0.32410398,-0.29436967,-0.07036118,-0.1623803,0.17602025,0.3263872,-0.050114337,0.42627203,-0.17717382,-0.2558395,-0.22051157,-0.33222926,-0.31068635,-0.423079,-0.40908134,0.14918722,0.28688133,0.41573358,0.3816015,-0.05140099,0.08295165,-0.264389,0.15982537,-0.42693314,0.21322052,0.0796206,0.1342935,0.1625705,-0.20464623,0.38973382,0.21925955,0.3109853,0.06299223,0.25317407,0.29112738,0.20831574,0.33416942,-0.078006804,0.3154081,0.11132144,0.26417378,0.45659694,0.08543044,-0.1787805,-0.04456,0.120087095,0.09517322,-0.11842669,0.34695977,0.25698605,-0.30019513,-0.039190024,-0.045312956,-0.29079008,0.07159362,-0.13905053
target_dataset:NCI-H2171,-0.49321884,-0.14660826,0.096428245,0.46750113,0.08335206,0.41845077,0.12527946,0.26182923,0.38581035,0.35182256,-0.26140377,0.4704769,0.29712516,-0.20577669,-0.19594274,-0.42576444,0.084904164,-0.40039793,0.2144972,0.13053899,-0.40160474,0.096199736,-0.031259414,0.21776211,0.20891339,-0.42432338,0.3493939,0.3368593,0.1519417,-0.43058497,-0.13792008,-0.12888336,-0.10268298,0.24549775,0.12675901,0.32905498,-0.17230403,0.13538016,0.18375197,-0.4063838,-0.4317788,-0.25763625,0.29040262,-0.40242937,-0.38480154,0.29873198,0.20868574,0.39762452,-0.3746548,-0.38301867,0.25070727,0.34128508,0.29282466,0.07031426,0.16422059,0.44529483,-0.27795312,-0.16432013,0.31859955,-0.28887886,-0.27608895,0.37313694,0.14121039,0.13734514,-0.1731079,0.04049804,0.43067488,-0.3184995,0.03816795,0.17940232,-0.317478,0.4691824,-0.17779294,-0.12722857,-0.12023316,-0.3112827,-0.42549774,0.3045646,0.14895533,-0.3743733,-0.36072245,0.3704264,0.1911351,0.13072938,-0.21700148,-0.1791682,-0.08470444,-0.051075235,-0.31905442,0.07368311,0.09860329,-0.09178448,0.049266465,-0.24617408,0.120237745,0.10318225,-0.16918126,-0.479183,0.22190481,0.081795946,-0.20755109,0.4809589,-0.17659484,0.28064477,0.23108888,0.4361779,-0.44845647,0.05140879,0.2529839,0.3293228,-0.41050953,0.08864646,-0.2742671,-0.070205525,-0.20572644,-0.42138425,-0.37346563,-0.24226117,0.15729764,0.19717346,-0.4195832,-0.13829835,-0.032955144,-0.401037,0.19805151,0.37319675,0.065480046,-0.40922168,0.1251199,0.14728154,0.4292429,-0.243518,-0.40772027,0.23966499,0.029236604,-0.17458749,-0.1951037,-0.13705412,0.36584255,-0.13229713,0.42787933,0.48731366,0.047470074,0.0692258,0.018732302,0.20963508,-0.40605503,0.086503066,-0.08526209,0.20251815,-0.024575932,-0.17254423,-0.10756548,0.24825513,-0.25136393,-0.25772026,-0.06756098,-0.16969278,0.2470562,0.34747577,-0.06973556,0.46463722,-0.2577665,-0.3069883,-0.22968985,-0.3390346,-0.21142375,-0.44949037,-0.39816612,0.19390532,0.24582204,0.38450256,0.31806716,-0.12865353,0.120909914,-0.19323108,0.16457273,-0.39968747,0.3094123,0.022680502,0.2151188,0.25145447,-0.23007429,0.37405965,0.298007,0.39485672,0.024272427,0.22274663,0.27303362,0.17791195,0.40406805,-0.12064863,0.259268,0.08233796,0.2126727,0.438889,-0.010254703,-0.10937915,0.04739345,0.08217922,0.03018292,-0.13073565,0.35717374,0.17008758,-0.3354538,-0.022385502,-0.09331617,-0.22369973,0.028461315,-0.04896103
target_dataset:Reh,-0.46495223,-0.22404954,0.074844465,0.45291913,0.1598826,0.41210544,0.054819647,0.13620049,0.29910022,0.44605637,-0.11195588,0.3535736,0.3822371,-0.30114317,-0.19591515,-0.32699057,0.034430593,-0.41459578,0.098448835,0.21702947,-0.2516727,0.18439081,-0.08420531,0.17293575,0.20297149,-0.4746716,0.33399364,0.3624247,0.2948336,-0.29696548,-0.13046655,-0.20744911,-0.22448015,0.36664006,0.06671573,0.34397432,-0.21659373,0.20468584,0.16173834,-0.42029327,-0.4062423,-0.106357805,0.22594602,-0.33992338,-0.2872934,0.2489549,0.123417586,0.3382142,-0.48343283,-0.39227837,0.17497122,0.37389976,0.29508138,0.15020707,0.23230505,0.40080145,-0.36875758,-0.19609876,0.33707964,-0.3062397,-0.29450628,0.43856016,0.22074714,0.23056352,-0.27909148,0.031063015,0.4309734,-0.3351744,0.07749148,0.21623819,-0.410248,0.40891615,-0.33119953,-0.09252317,-0.15749824,-0.36833924,-0.42967865,0.22709928,0.026546553,-0.315603,-0.38797492,0.34897494,0.14399259,0.25092867,-0.20982483,-0.13917455,-0.1918013,-0.17017582,-0.40697694,0.13547848,0.051498774,-0.10095049,-0.0001064986,-0.28210458,0.04185698,0.18790795,-0.26788852,-0.35537568,0.3246104,-0.016903765,-0.24107835,0.42630038,-0.091436625,0.4129363,0.35108754,0.41423985,-0.413086,0.074286886,0.29043102,0.308282,-0.35004207,0.15218721,-0.22990373,-0.012112748,-0.105752595,-0.3817115,-0.44295222,-0.28933805,0.18922608,0.20469564,-0.36427224,-0.16549908,0.0030249192,-0.394892,0.2457704,0.42081973,0.089214794,-0.33413428,0.106214784,0.15227853,0.34848145,-0.2523054,-0.39319077,0.20047158,0.03971502,-0.17303476,-0.18331808,-0.21823598,0.36658156,-0.08046668,0.3230085,0.42494217,0.08347947,0.07115718,-0.027356334,0.30310598,-0.39269587,0.17102404,-0.066016994,0.18859035,0.0018970462,-0.17485024,-0.045806114,0.24189253,-0.32410398,-0.29436967,-0.07036118,-0.1623803,0.17602025,0.3263872,-0.050114337,0.42627203,-0.17717382,-0.2558395,-0.22051157,-0.33222926,-0.31068635,-0.423079,-0.40908134,0.14918722,0.28688133,0.41573358,0.3816015,-0.05140099,0.08295165,-0.264389,0.15982537,-0.42693314,0.21322052,0.0796206,0.1342935,0.1625705,-0.20464623,0.38973382,0.21925955,0.3109853,0.06299223,0.25317407,0.29112738,0.20831574,0.33416942,-0.078006804,0.3154081,0.11132144,0.26417378,0.45659694,0.08543044,-0.1787805,-0.04456,0.120087095,0.09517322,-0.11842669,0.34695977,0.25698605,-0.30019513,-0.039190024,-0.045312956,-0.29079008,0.07159362,-0.13905053
target_dataset:B-CPAP,-0.6002772,0.123880565,0.032198034,0.81368864,-0.15388675,0.54429644,0.60348713,0.8078741,0.27541915,-0.14449844,-0.753411,0.42237836,0.17921767,-0.60624176,0.11148891,-1.1506048,-0.09201406,-0.5283588,-0.44382137,0.7746825,-0.59396136,0.0942872,0.6588301,0.3971508,0.18452618,-0.2919176,-0.17371595,-0.0094438195,-0.12677123,-0.978682,0.6078403,0.1399473,-0.26827478,-0.55124533,-0.07640818,-0.16209865,-1.012916,0.04598789,0.31636506,-0.9505143,-0.6669133,-1.0597688,0.29889616,0.10256714,-0.0024740398,0.8724897,0.61154324,0.523952,-0.54633,-0.24555674,0.70749766,-0.4576231,0.45778874,-0.2514342,0.40941185,0.30648378,0.6687552,-0.107331716,0.8279803,-0.13416488,-0.8387939,1.3222005,-0.2710385,-0.22006653,-0.2806358,0.81650794,0.78435326,-0.438829,0.389302,0.18357639,-1.2423596,0.86554694,0.35524347,0.02464351,0.56759053,-0.69642794,0.116698235,0.61731136,0.429446,0.005745113,-1.1346052,-0.49952713,0.7495757,-0.1545778,0.3635111,-0.42169616,-0.48372072,-0.0034218729,-0.62599015,0.43820384,0.33130136,-0.42629862,-0.12179375,-0.60407114,0.3780644,-0.060058698,-0.04324591,-0.26897356,0.059846222,-0.28398076,0.14236854,1.0778544,-0.053263813,-0.5627886,0.25985852,0.06966859,-0.31683838,-0.22227919,0.41326207,0.5840162,-0.5432445,-0.13584886,-0.4044907,-0.0925664,-0.24324173,-0.5845821,-0.23571724,-0.23913106,0.34255856,0.5304289,-0.6282097,-0.23470235,0.04808549,-0.46654236,-0.008665502,0.43978047,0.28203773,-0.49434447,0.17450273,0.1581746,0.62872756,-0.5232951,-0.64437175,0.36289996,0.25605857,-0.6144625,-0.18474525,0.16834079,0.41408676,-0.29451662,0.54405403,0.31377393,0.29368523,0.017985452,0.034782305,0.2639356,-0.37037492,0.10625072,-0.16770416,-0.023399085,0.12229902,-0.2656291,-0.1636449,0.022918135,-0.41076982,-0.057219073,0.016894318,-0.21515244,0.57159865,0.33956692,-0.124672204,0.46931097,-0.5911943,-0.48271805,-0.52305335,0.083697796,-0.16698687,-0.75975955,-0.55481917,0.15820315,0.3140041,0.43760005,0.56894743,-0.07805125,0.29467943,-0.40897995,0.6329054,-0.6298681,0.21129932,-0.07790226,0.15996194,0.54179513,0.21051824,0.37882838,0.26835334,0.416121,0.16279772,0.090140074,-0.18877047,0.08178148,0.34452334,-0.23591423,0.17082937,0.06697211,0.39831883,0.19295216,-0.066605106,0.022694662,0.15057701,0.46711257,0.29517066,-0.44736332,0.53761965,-0.015116751,-0.56839544,-0.06566764,-0.14075565,-0.12483728,-0.01590342,0.058254868
target_dataset:OVKATE,-1.2154818,-0.26418686,-0.2767548,1.039196,0.035970952,0.20580633,0.67849654,0.11478618,0.45264485,0.38081756,-0.3301758,0.41436127,0.3248382,-1.256602,0.68879193,-1.0313594,-0.5889916,-0.6853236,-0.6412045,0.8682782,-0.31944302,0.035739973,0.5630909,0.45977247,-0.34363332,0.17732784,-0.5796319,0.09896448,0.0711936,-0.3289151,0.36980948,-0.47596234,-0.101318285,-0.11414939,-0.78558636,-0.061255902,-1.1917331,-0.24025357,0.5494946,-0.9164748,-0.31464905,-0.6514398,-0.12581474,0.47679484,0.723222,0.63491464,0.44152117,0.47932565,-0.7418899,-0.86563253,0.33887815,-0.2668276,0.9850035,0.032203395,0.8034802,0.15934318,0.24971107,0.35657316,0.59159064,-0.26285177,-0.980098,1.583293,0.20745787,0.1775618,-0.44672734,0.97099406,0.45438737,-0.6808981,0.9196612,0.06348571,-1.3655607,0.9919963,-0.0006131381,0.24187367,0.68225044,-1.0576943,-0.16018286,0.79804796,0.18704888,0.341334,-1.3236382,-0.6610012,0.47705448,-0.004542291,0.65852255,0.062276825,-0.43271676,0.26175243,-1.0138936,1.0654017,0.7655504,-0.2993284,-0.6242402,-1.2535765,0.55476946,-0.49125117,0.019631028,-0.23397157,0.63264495,-0.2849196,0.23052098,0.7355707,0.48676848,-0.20987439,0.8259581,0.41423985,-0.413086,0.074286886,0.29043102,0.308282,-0.35004207,0.15218721,-0.22990373,-0.012112748,-0.105752595,-0.3817115,-0.44295222,-0.28933805,0.18922608,0.20469564,-0.36427224,-0.16549908,0.0030249192,-0.394892,0.2457704,0.42081973,0.089214794,-0.33413428,0.106214784,0.15227853,0.34848145,-0.2523054,-0.39319077,0.20047158,0.03971502,-0.17303476,-0.18331808,-0.21823598,0.36658156,-0.08046668,0.3230085,0.42494217,0.08347947,0.07115718,-0.027356334,0.30310598,-0.39269587,0.17102404,-0.066016994,0.18859035,0.0018970462,-0.17485024,-0.045806114,0.24189253,-0.32410398,-0.29436967,-0.07036118,-0.1623803,0.17602025,0.3263872,-0.050114337,0.42627203,-0.17717382,-0.2558395,-0.22051157,-0.33222926,-0.31068635,-0.423079,-0.40908134,0.14918722,0.28688133,0.41573358,0.3816015,-0.05140099,0.08295165,-0.264389,0.15982537,-0.42693314,0.21322052,0.0796206,0.1342935,0.1625705,-0.20464623,0.38973382,0.21925955,0.3109853,0.06299223,0.25317407,0.29112738,0.20831574,0.33416942,-0.078006804,0.3154081,0.11132144,0.26417378,0.45659694,0.08543044,-0.1787805,-0.04456,0.120087095,0.09517322,-0.11842669,0.34695977,0.25698605,-0.30019513,-0.039190024,-0.045312956,-0.29079008,0.07159362,-0.13905053
target_dataset:TM-31,-0.5550104,-0.42205542,-0.07201104,0.60122466,0.34562457,0.3550807,0.0021393746,-0.21701288,0.024830908,0.67569226,0.2656303,0.04582575,0.6825583,-0.73751885,-0.030292884,-0.21666819,-0.26750556,-0.5717979,-0.42040908,0.6177995,0.15608439,0.41545224,-0.12479868,0.10919137,0.06156048,-0.5143171,0.032366186,0.35544473,0.67190677,0.060640723,0.05617453,-0.47724935,-0.6045307,0.5835662,-0.30580878,0.25785488,-0.54810464,0.34651166,0.23117122,-0.66384184,-0.34486943,0.20032325,-0.0019606054,0.04738751,0.18945262,0.21671066,-0.083310366,0.2375615,-0.91301215,-0.5130198,-0.018272176,0.27877071,0.40379757,0.32697693,0.57359713,0.23656227,-0.49796098,-0.20777147,0.47579682,-0.30692846,-0.5783808,0.9386466,0.41361064,0.445005,-0.6034215,0.23162843,0.4937568,-0.4687264,0.32615164,0.26846042,-0.90629494,0.39571542,-0.691326,0.06307395,-0.11223655,-0.73149085,-0.34209082,0.15388906,-0.2668818,0.026427776,-0.732306,-5.286932e-05,0.078410424,0.52073574,-0.00058059394,0.021983564,-0.5905228,-0.4389906,-0.83362603,0.46953034,0.05094845,-0.23684667,-0.28017664,-0.6327485,-0.1117862,0.27820218,-0.4620565,0.05611545,0.662881,-0.4229477,-0.21773288,0.42011398,0.29592717,0.62810016,0.780243,0.9575763,0.27182853,-0.14217997,0.87772167,-0.3765414,-0.726784,-0.35925055,-1.5510733,0.11173026,-0.29856056,-0.4619053,-0.502288,-0.06943771,0.65144795,0.9013163,-1.0752648,-0.014483571,0.22387871,-1.3324798,-0.35063308,-0.56677663,-0.12923688,-0.47817075,0.26063833,-0.53345025,0.23770732,0.14195967,-0.27736118,-0.37689734,0.25278968,0.04587084,-0.50628614,0.6779509,0.019576669,-0.8686401,0.9902513,-0.22869167,0.61509645,0.5364258,0.17358807,-0.2846997,-0.3438998,-0.0055241436,0.9152398,0.95467544,0.69829607,-0.64743984,-0.82896376,1.0404865,0.2405515,0.65524507,-0.6543247,-0.51772153,1.2301233,0.25017402,-0.21678908,1.5779619,-1.1962892,-0.72621626,-0.009442374,-0.03479916,0.0331921,-0.20437887,0.66954625,0.09837493,0.7254154,0.9049837,0.089140505,-0.7278278,0.053809416,-0.40132725,0.4794671,-0.85622036,0.56379366,0.069319904,-0.3207307,1.1510061,-0.78043664,0.7760375,0.12010397,0.98076975,0.40733153,0.28632423,0.50974536,0.64620167,0.41503108,-0.3452107,0.2927257,-0.23128355,0.5464815,0.07225394,-0.27430576,0.8895845,0.5772359,0.3041722,0.00940346,-0.25051787,0.71265745,-1.0629965,-0.820377,0.12561253,-0.6546142,0.33269346,0.0008788854,0.03921199
target_dataset:SK-MM-2,-0.48837823,-0.3096432,-0.26069427,0.37679747,0.33526635,0.3694221,0.049334113,0.20404536,0.1628812,0.589688,-0.22256055,0.5854188,0.2880571,-0.1745337,-0.11950601,-0.7620707,-0.13991421,-0.4545204,0.35059536,-0.013527229,-0.34355462,-0.40989333,-0.09322601,-0.24029313,-0.16637188,-0.60963947,0.29167932,0.19522806,-0.15893485,-0.26083857,0.2788384,-0.13597995,-0.49051923,0.28091154,0.25122494,0.24516733,-0.042247005,0.39615566,0.09160259,-0.31248575,-0.272466,-0.02572161,0.17472482,-0.8809361,-0.67803425,0.08820748,0.031779334,0.48179018,-0.7349657,-0.40435985,0.26505136,0.10825977,0.41251853,0.11168125,-0.19538528,0.69163144,-0.30789056,-0.69656444,0.3013829,-0.37324744,-0.4170488,0.73838836,-0.13770363,0.0760519,-0.16080591,0.34420753,0.5328537,-0.5616369,-0.022909366,-0.1415053,-0.17587216,0.61615056,0.093651,-0.24734461,-0.2762372,-0.08993742,-0.02057311,0.32270724,0.19846594,0.12290591,-0.7522452,-0.1258274,0.2814327,-0.24039112,-0.39779788,0.1508287,-0.22359142,0.11143523,-0.54026014,0.09957348,0.19411384,0.14848377,0.023128804,-0.2644458,-0.26065606,-0.22674541,-0.3360538,-0.7623233,0.23637563,0.3812291,0.013869509,0.3801762,-0.45112234,0.33040923,-0.12804623,-0.27534822,-0.6350304,-0.7729037,0.17852473,1.1489425,-0.7509819,-0.6181853,-0.2990045,-0.39618254,-0.9256666,-1.1782385,0.32266217,0.0498659,0.23267551,0.6872242,-0.5890747,-0.2701852,-0.30946755,-0.14176458,-0.26754248,0.5739652,0.6247984,-1.23106,-0.044325344,0.50688547,1.1638108,-1.0480359,-0.91071904,0.93948084,0.09749612,-0.9633813,0.29654557,0.5493829,0.7325452,-0.6553768,1.0486603,0.5640053,0.33408615,-0.5699287,0.45549572,-0.079999894,-0.08875218,-0.2280619,-0.73629767,-0.6941202,-0.12762177,-0.042074412,-0.54813796,-0.54346484,-0.20980842,-0.015365422,0.64712167,-0.21212167,0.892845,0.30380914,-0.37793198,0.27821118,-1.0621451,-0.8424326,-0.94600743,0.6335414,0.434142,-1.2557689,-1.0807467,0.5904824,-0.019817084,0.047593236,0.5602997,-0.2127317,0.98878115,-0.2913932,1.1206778,-0.5279199,0.75938016,-0.5909867,0.5269336,1.1800417,0.58632094,0.04432836,0.6008932,0.66359746,-0.15571639,-0.33988506,-0.6288918,-0.28536916,0.7889447,-0.30705574,-0.12333155,0.12585953,0.34821314,-0.2753847,-0.75768757,-0.08882371,0.36562258,0.93016887,0.2088011,-0.52282065,0.5950833,-0.17968303,-0.7657408,-0.14789115,-0.1403797,-0.00095266104,-0.5054101,0.730101
