,E0,E1,E2,E3,E4,E5,E6,E7,E8,E9,E10,E11,E12,E13,E14,E15,E16,E17,E18,E19,E20,E21,E22,E23,E24,E25,E26,E27,E28,E29,E30,E31,E32,E33,E34,E35,E36,E37,E38,E39,E40,E41,E42,E43,E44,E45,E46,E47,E48,E49,E50,E51,E52,E53,E54,E55,E56,E57,E58,E59,E60,E61,E62,E63,E64,E65,E66,E67,E68,E69,E70,E71,E72,E73,E74,E75,E76,E77,E78,E79,E80,E81,E82,E83,E84,E85,E86,E87,E88,E89,E90,E91,E92,E93,E94,E95,E96,E97,E98,E99,E100,E101,E102,E103,E104
source_dataset:NB(TU)1,-0.13544823,-0.15764703,0.12464507,1.286807,-1.0646496,0.7819406,0.19628516,-0.013664696,0.08095182,-0.20592678,0.41246918,-0.16878207,-0.29292658,-0.16087374,0.22715358,-0.12598753,-0.6999878,0.797144,0.18071857,-0.656114,0.6491819,-0.6873636,-0.33200848,-0.5209193,-0.39750093,-0.4416109,-0.070380874,0.11812798,0.13926736,0.12854886,-0.19777964,-0.12865008,-1.1484078,-0.047014184,0.19511229,0.27134222,0.41208395,0.26605964,0.43105155,0.087338656,-0.082388185,-0.63620883,-0.18687464,0.52007604,-0.6898738,-0.14470756,-0.91064847,-0.059994463,-0.12925337,-0.07963021,0.07548082,-0.7254636,-0.18620853,0.49942797,-0.49183875,-0.20416898,-0.43843627,0.22340177,0.15306853,0.088192165,0.7962339,-0.19301856,0.03496093,-0.2683133,0.357002,-0.2957914,-0.5982641,-0.09616719,-0.4520861,-0.5384384,-0.31867042,-0.19624299,-0.19926584,-0.30179834,0.2651199,-0.054281585,-0.27712208,-0.3094019,0.010043718,-0.17442024,0.804841,0.26385438,-0.07662936,0.013507174,-0.9162336,-0.13875595,0.8633528,-0.011874216,0.18154307,-0.85637456,-0.68794453,-0.2641645,0.091735385,-0.17907798,-0.2373141,0.24642684,0.049197685,0.40114808,-0.22635834,-0.11618551,-0.36145896,0.28333813,-0.54973763,0.37897378,-0.2949966
source_dataset:NCI-H211,-0.1174481,0.3782657,0.10683056,-0.6111774,0.23030242,-0.7821524,-0.39657345,0.321066,0.17804788,-0.15329315,-0.38958648,-0.060446866,0.10767962,0.38668773,0.40027958,-0.31787503,0.1760316,-0.36416245,-0.7864281,0.42137173,-0.26752174,0.27457458,0.5577719,0.2861738,0.88442546,0.033269443,-0.41654164,0.07791681,-0.32457405,-0.0033239275,0.23556422,-0.17065918,1.1073323,-0.5139756,-0.31907505,-0.012692083,-0.7199763,0.19059041,-0.568237,-0.03412264,0.049824834,0.7938409,0.30596074,-0.4313619,0.86401993,0.0859692,0.4892595,-0.8213344,0.16571386,0.11966154,0.23209839,0.46506435,0.43768185,0.1081211,0.48107406,-0.0892954,0.60398567,-0.63832223,0.33404112,0.6029048,0.16413684,0.26376846,0.13651244,0.27750614,0.01662916,0.49148756,0.71123135,0.12398986,0.11777379,0.32700837,0.071846165,0.25873893,0.47016552,0.5828443,-0.28120425,-0.38857096,-0.21031478,0.73397446,-0.07519583,-0.57505095,-0.6744068,0.22727016,-0.08848144,0.29375035,1.1124263,0.624988,-0.28988147,0.9173573,0.2825239,0.5739926,0.49459833,0.17216331,0.14162646,-0.29414275,0.13574557,0.20713925,0.019074993,-0.599847,0.23628524,0.21386306,0.2998892,-0.99409103,0.66172755,0.01942037,0.7851734
source_dataset:NUGC-3,-0.5994619,0.19169615,0.4192254,0.09276451,-0.24857369,-0.92122734,0.9515238,-0.2131889,1.111804,0.5987304,0.37723267,0.08073879,0.8604592,0.60106313,0.7540358,-0.8658459,-0.15274592,-0.6815702,-0.4883361,-0.1823456,-0.26038444,0.17872316,0.79794717,-0.97066724,-0.15978017,1.2037452,-0.038355373,-0.3715533,0.24346486,-0.5976311,0.59640455,-0.25995603,0.4381791,1.023424,-1.0509182,0.95522135,0.64202803,0.802255,-0.7562469,1.0411857,0.6601036,-0.006482169,0.1518589,0.44822216,0.46646157,-0.855176,-0.07589705,0.033916246,-0.035501286,-0.04671997,-0.67861164,-0.14572719,1.0652399,-0.83773315,1.2659103,-0.68323547,0.36904728,-0.581675,-0.57008564,0.69409764,-0.07267132,0.8491723,-0.19544844,0.67465854,0.5720221,-0.3600378,-0.026517529,-0.6991025,1.3111949,-0.07094302,0.25933787,0.37338382,0.75037473,1.1395118,-0.1859803,0.29495764,0.85450697,0.25805116,-1.4895009,0.35364437,-0.09447031,0.14916563,-1.3131576,-0.1884095,0.45978615,-0.11929174,-0.28886902,1.1674336,-1.0250493,0.27123517,-0.08133285,-0.2840465,0.5367111,0.1992976,0.15086594,0.7705858,0.8193625,-0.02695899,-0.1409569,0.5509937,0.15004796,-0.97432494,0.21682544,-0.7791619,0.34570634
source_dataset:KTCTL-1M,0.6001801,-0.4672501,-0.31880337,0.23889996,0.15310544,0.5443788,0.085030854,0.045983724,0.010330456,0.16214064,-0.18961471,-0.33973882,-0.6532322,-0.39566115,-0.42429107,0.7956238,-0.02394506,0.6454723,0.3049025,-0.18565029,-0.045957513,-0.37108028,-0.2293106,0.29803005,-0.14413826,-0.34714514,0.38759902,0.32498392,0.2995891,0.14291221,-0.46188334,-0.45439613,0.061006304,-0.20050216,0.36642805,-0.29360867,0.22457607,-0.30343124,0.2780824,-0.67282844,0.30894488,-0.36549377,-0.31480923,0.10943493,-0.2681598,0.015550852,0.28753185,-0.10965409,-0.115792796,0.15029673,0.48710585,0.1266008,-0.4925545,0.28780246,-0.5321797,0.06286388,-0.07196374,0.5356484,0.76712614,-0.4376735,0.340402,0.060286477,-0.02489702,0.014899664,-0.048495308,0.18111596,-0.26947224,0.52444106,-0.36160937,0.08182268,0.29022402,0.09575813,-0.25190702,0.06281032,-0.13398297,-0.07110834,-0.10597443,-0.30104876,0.46013418,0.04106681,-0.010536423,0.19739175,0.51831496,-0.014534948,-0.36217302,-0.015013704,-0.29510763,-0.34582254,0.49592152,-0.2852166,-0.28855443,0.25171453,0.0498971,-0.15936917,-0.09847437,-0.4889719,-0.071141034,0.15309885,-0.39631048,-0.0807112,0.055398315,0.02704798,-0.45817778,0.32015872,-0.10703727
source_dataset:FU-OV-1,0.4508778,0.10555657,-0.37062067,-0.03628125,0.9620594,-0.6495153,0.43624908,-0.5025281,0.40478158,0.01604414,-0.11456688,-0.6058642,-0.3244398,-0.34289026,-0.44605818,0.9139828,0.49914804,0.13543981,0.53662485,0.2638791,-0.6527632,0.21587102,0.19672681,0.4573669,0.08701716,0.1461343,0.4821517,0.16120851,0.57805115,0.26379734,-0.7062488,-0.50193083,0.70148927,0.19880775,-0.25200826,-0.33882108,0.26708138,0.19176681,-0.1115108,-1.0904975,0.804014,-0.6160883,-0.67813593,-0.1734981,0.42359078,-0.5662848,0.5388768,-0.58343357,-0.35798362,0.37926617,0.16712533,0.41999248,-0.4459759,0.08550272,-0.1649436,0.4805637,0.012589019,0.121345304,0.62664175,-0.16984761,0.006701897,0.30165514,-0.48061058,0.18595178,0.28171635,0.31096965,0.8369029,1.0146921,0.31148607,0.43541715,0.45721516,0.4317227,-0.3528938,0.28370205,-0.5832498,0.21706459,0.014905073,-0.43407977,-0.21879885,-0.0353318,-0.12319927,0.46663913,0.25047207,-0.12419643,0.25289726,-0.00951221,-0.81493133,-0.6086725,0.10439907,0.71523094,-0.034053262,0.5278119,-0.2003519,-0.31485,0.58265156,-0.66028935,0.05617729,0.44365582,-0.18106937,-0.27322567,-0.088812515,0.098470695,-0.24471398,0.27438158,0.45139277
source_dataset:NCI-H841,0.88977695,0.7371768,0.26669005,-0.23097387,0.8568303,-0.52823406,0.849124,-0.15501343,0.461809,0.77785814,-0.03205612,-0.75234014,-0.15702726,-0.66533756,0.0967509,0.9968861,0.7374192,0.54923993,0.6468576,0.71940106,-0.64266074,-0.50995135,0.33254105,0.30765507,-0.41743088,0.40384927,0.52483207,0.21013676,0.93676907,-0.14599471,-0.36772603,-1.0355706,0.26107952,0.7457435,-0.40468284,0.23143563,0.72717714,0.64755267,-0.079979524,0.08499221,1.548616,-0.79881936,0.06488121,0.47778744,0.75821024,-0.6067983,0.664844,-0.8060047,0.5440454,0.70532715,-0.27181134,0.79618025,0.39394158,-0.0009789318,-0.010054745,-0.29085,-0.94722843,0.18973333,0.39845395,-0.21980193,0.06008841,0.6917473,-0.64555585,1.2376517,0.46278223,-0.7352467,0.018749049,0.32313028,1.2122633,0.06123796,0.24323499,0.6833468,-0.31134135,0.37281382,-0.59674937,0.33012325,-0.10477104,-0.18401928,-0.8025686,0.6389569,-0.56485087,0.8687189,0.27074546,0.38280532,0.29717335,-0.61867577,-0.6365769,-0.23378043,-0.61196876,0.2430024,0.43816978,0.3570806,0.15513046,-0.36973292,1.1865172,-0.020897478,0.16159898,0.562205,-0.8087343,-0.6590815,-0.8128008,-0.0025927313,-0.18205974,-0.14619665,-0.90125656
source_dataset:Ishikawa (Heraklio) 02 ER-,0.63918126,-0.25470278,-0.34813014,0.31529307,0.04273379,0.29548442,0.04774369,-0.043494068,-0.07656667,0.25205746,-0.09520941,-0.5374302,-0.2700887,-0.24870773,-0.35470557,0.5311909,-0.05220989,0.33564577,0.24600188,0.027040042,0.23719597,-0.1986269,-0.6204882,0.25149724,-0.13932326,-0.3082122,0.45786038,0.31737158,0.51732343,0.06864952,-0.32416075,-0.35952142,0.1302624,-0.20493294,0.17253691,-0.6013992,0.17331022,-0.09005104,0.1641196,-0.5774814,0.16791758,-0.4388266,-0.23611417,0.01763359,-0.18411359,-0.067504995,0.3022746,-0.112519726,0.119058296,0.2859672,0.2216804,-0.0841447,-0.68142235,0.26718107,-0.7249796,0.23149909,-0.036389224,0.25626755,0.69834477,-0.2644928,0.30863667,0.22676754,0.34293577,-0.15998377,0.09762572,0.024571925,-0.046609957,0.43632993,-0.34659392,-0.12683728,0.40676218,0.050531518,-0.560234,-0.09718839,-0.14748427,0.036461756,-0.21567221,-0.420742,0.43994164,0.1019698,-0.11732891,0.343822,0.29619303,-0.12255811,-0.17815429,-0.09852274,-0.31557682,-0.48926133,0.24660113,-0.34137705,-0.15122604,-0.047659263,0.11597377,-0.3116765,0.01646812,-0.5483101,-0.21001148,0.08408701,-0.42953596,-0.14176518,-0.32366702,0.113731354,-0.4446959,0.2095888,-0.19047648
source_dataset:MHH-PREB-1,0.66741806,-0.13654849,-0.22509995,-0.029145643,0.7006829,0.22594616,0.13518885,-0.42889512,0.11528602,0.7696543,-0.5823668,0.10211822,-0.014745094,-0.46190813,-0.2870097,0.5930245,0.32550988,0.2383992,-0.2183589,0.09340571,-0.4656112,-0.14704964,0.06195127,0.5061458,-0.05816242,0.026889453,0.6542869,0.321292,0.73571205,-0.27120027,-0.33822477,-0.04259622,0.2067876,0.2883857,0.306221,-0.055890962,0.580858,0.048294436,0.017544478,-0.693144,0.2761187,0.07935566,-0.26980445,0.27374914,-0.3173971,-0.2472373,0.630182,0.02321805,0.06517296,0.17188482,-0.07978838,0.20686588,-0.24535389,-0.2422666,-0.3326552,0.20246775,-0.010909725,0.52893806,0.25992456,-0.58361465,-0.10112972,0.22916612,-0.3520983,0.32979977,-0.019405818,-0.35354736,-0.40161017,-0.029525924,0.47470796,0.41912913,0.8154776,0.06995207,0.1019068,0.07376471,0.010987319,0.14560193,0.39901063,-0.22432248,0.24942861,0.28324994,-0.31879187,-0.4203023,0.34718037,0.3052049,-0.4231519,-0.65675294,-0.85223675,-0.437645,-0.11538667,0.4198711,0.47631696,-0.1665053,0.19910458,0.7583036,-0.13887528,-0.70061415,-0.14225009,0.36582875,-0.7708788,0.4239902,0.1329096,-0.19395407,-0.49862212,-0.15526779,-0.25748846
source_dataset:EW-24,0.59742767,0.046296805,0.38294002,0.28654397,-0.3378008,0.65406305,-0.16619855,0.3018582,-0.035735056,-0.23876199,-0.32724687,0.25009656,-0.5583217,-0.3667918,0.50348216,0.27529186,-0.3387491,0.67785054,-0.35858625,-0.43320933,0.015139481,-0.7490897,-0.2865293,-0.23297471,0.23533233,-0.64354783,-0.26035175,0.52487475,-0.20494351,-0.107594766,0.0061671706,-0.42601544,-0.47545958,-0.3935182,0.37979686,0.5391451,-0.25791496,-0.16449285,0.47269386,0.061768733,-0.05807723,0.24423653,-0.1147567,0.12724397,-0.23616952,0.25127983,-0.45080543,-0.52414083,0.023088217,-0.25622123,0.46621394,-0.13219266,0.48468348,0.6638689,-0.38477245,-0.56982887,-0.09893468,0.12497264,0.53986496,-0.11988819,0.74721384,-0.28302625,-0.3191666,0.32199413,-0.101457864,0.07384062,-0.6541218,-0.062827535,-0.091010615,0.21337835,-0.23226616,0.116640046,0.3373767,-0.12728211,0.31416818,-0.62899774,-0.14824237,0.35526147,0.2681952,-0.48662496,0.38852912,-0.007969826,0.66757494,0.5102714,-0.24358012,0.37723348,0.5415174,0.49882355,0.48818853,-0.35741386,-0.027071048,0.21722123,0.44340277,0.018971778,-0.09276309,0.068636514,0.21116965,-0.17544013,-0.3250121,0.32846215,0.21281369,-0.47592288,0.050653096,0.22248715,-0.34549257
source_dataset:A-704,0.0102336705,-0.6501003,-0.1781435,-0.10478912,-0.7745652,0.65631795,0.6499085,-0.113217436,0.6894839,1.0762551,-0.19777331,-0.2864368,0.9575145,0.5775845,0.412601,-0.6496795,-0.8043739,-0.7678053,-0.7364109,-0.35735157,0.2099945,0.5650012,-0.89897907,-0.56435585,-0.21265951,0.6755709,0.9397141,0.07615868,0.68871206,-0.8465809,0.8403333,0.4968324,1.1203822,0.051107265,-0.46147227,-0.36638945,0.31107765,-0.0002104491,-1.4210424,0.69443834,-0.2987831,0.04549732,-0.15997499,-0.11271337,-0.87795365,-0.49995562,0.17555302,0.45947358,0.06261946,-0.3566391,-0.6730648,-0.6035243,-0.25895968,-1.3407502,0.40671247,0.11276384,1.3497643,-0.65194,0.43699062,0.969319,-0.11750029,1.4737649,1.2151927,0.03144238,0.16520154,0.6224998,-0.23387517,-0.57546633,0.32034552,0.04173621,1.4770665,-0.694683,0.18973115,0.22515139,0.46047,0.20102024,0.6198434,-0.13812298,-0.17754307,0.35166243,0.11036107,-0.07210202,-0.9679379,-0.9722206,0.29781044,0.19357686,-0.7138664,0.54133636,-0.7544938,-0.7407923,-0.51875764,-1.4691141,1.0126494,0.88949126,-0.1297075,-0.6551419,0.3826254,-0.48416358,-0.8574878,1.1079684,0.33926603,-1.1495345,-0.24190034,-0.777483,0.6027125
source_dataset:SNG-M,0.17312196,0.006380014,0.2360652,1.2094966,-0.8689251,0.66211843,0.20573825,0.0069671744,0.028379198,-0.12457234,0.29507217,-0.104486026,-0.42455888,-0.35285935,0.282001,0.1506851,-0.48499516,0.44198254,0.19075696,-0.49349588,0.316211,-0.821918,-0.2857007,-0.58680594,-0.2856795,-0.3985836,0.010593399,0.14560372,0.2122969,0.20459878,-0.2421975,-0.62571096,-1.0817548,0.06442571,0.19087246,0.5077911,0.40184197,0.21796215,0.54007256,0.086120255,0.12858142,-0.5539996,-0.4147186,0.6393961,-0.51993316,-0.1665389,-0.73975736,-0.18758498,-0.09782387,0.032980792,0.06915846,-0.41170594,0.21499416,0.7644796,-0.48091155,-0.29955557,-0.5608137,0.2832106,0.19139132,-0.448873,0.64776266,-0.25851312,-0.31496876,0.050184987,0.24710177,-0.4459326,-0.44927734,-0.012529679,-0.18774766,-0.3659186,-0.3037872,0.2832846,-0.11623074,-0.16492811,0.08386478,-0.1079589,-0.28128144,-0.24082343,-0.16926111,-0.1298012,0.6225081,0.33881176,0.056363106,0.333868,-0.78664035,-0.23555563,0.74187654,0.15763664,0.14971098,-0.62342227,-0.2396272,0.09287396,0.12408663,-0.27197054,-0.045318484,0.023084136,0.100834325,0.4427744,-0.18249756,-0.2802859,-0.23017138,0.26277107,-0.3913896,0.21315527,-0.46219116
source_dataset:NCI-H345,-0.38461223,0.7322798,1.0247838,-0.77203614,-0.052550707,-1.0240015,0.18734837,0.22219153,0.63422984,0.29784593,-0.25086883,0.8805093,0.55270857,0.81068474,1.3897508,-0.8392772,0.1355186,-0.51417994,-1.1159444,0.09676767,-0.33726743,0.22376052,1.02797,-0.43955255,0.47614366,0.62740594,-0.961627,0.19348924,-0.75410146,-0.73596716,0.7578223,-0.51049006,0.6753333,0.15291844,-0.9812217,1.2172253,-0.70569646,0.20164816,-0.59151864,1.3414592,0.35915202,1.0797477,0.92656434,-0.011122838,0.9263071,0.14437762,0.11530575,-0.6110728,0.28987426,-0.5361979,-0.13197653,0.40645596,1.770359,-0.67029893,1.3382874,-1.172715,0.4504297,-0.94334835,-0.7119956,0.90166503,-0.14743847,0.4720695,0.08907389,1.1866053,0.037530854,-0.10207454,0.15278736,-1.2605963,1.6060772,0.403927,-0.3616907,0.027912393,1.4846178,1.0299492,0.27840936,-0.5835868,0.13926202,1.2624937,-1.019328,-0.5691857,-0.06502987,0.028221786,-0.6609067,0.76201063,1.17911,0.7892699,0.37837425,1.9803138,-0.2707739,0.24043751,0.9300651,0.11128588,0.67925656,0.25528246,0.20680164,1.3614494,0.66178197,-0.8216459,-0.026453577,0.60643256,0.55135477,-1.8356091,0.99943894,-0.6933539,0.33747408
source_dataset:AM-38,0.7289989,-0.3663265,-0.21407878,0.14614257,0.20600127,0.8209374,-0.016937098,0.11969626,-0.07065477,0.17657088,-0.27758336,-0.14111137,-0.57307273,-0.41374117,-0.34041905,0.6861946,0.07663104,0.46703127,0.05348581,-0.05482676,-0.07747599,-0.30873007,-0.559283,0.35634136,-0.12643012,-0.46788785,0.34074214,0.46380776,0.24758717,-0.034174424,-0.36526853,-0.47295058,0.11863366,-0.2372692,0.5003067,-0.21962352,0.039421074,-0.27570412,0.17292848,-0.58532,0.2512216,-0.22094598,-0.14228927,-0.10209338,-0.14901821,-0.06704487,0.32678708,-0.19523972,0.10889976,0.15434651,0.4393172,0.17509319,-0.4373236,0.18835002,-0.5141533,0.08805011,-0.11433947,0.42095554,0.73025185,-0.12062822,0.27826536,0.04421341,-0.022931134,0.20527914,-0.11124445,0.26305652,-0.21826814,0.34358066,-0.2019394,0.19845511,0.23692569,-0.098629,-0.26368287,-0.1473182,0.02996771,-0.112026915,-0.09717319,-0.29542896,0.48762032,-0.13618237,-0.03950441,0.11181509,0.63871735,0.15163714,-0.20585789,0.015391391,-0.25781745,-0.324591,0.49043587,-0.17855427,-0.015331377,0.2386266,0.053236514,0.09620523,0.11670507,-0.6847204,-0.09777862,0.057024978,-0.50437427,-0.054708257,-0.07585722,-0.03805588,-0.36832473,0.3088986,-0.022616692
source_dataset:MOLM-13,0.9324056,-0.2053878,0.4012453,0.14537403,0.2086523,-0.5108075,-0.854078,0.02411902,-0.76895136,-0.34597054,-0.0660322,0.6624109,-0.13451156,0.18352367,-0.23204586,0.1298385,0.5190982,0.47744715,0.5372425,0.8108215,0.73979247,0.08999642,0.29605296,0.40547237,-0.6217383,-0.6420126,-1.0069115,0.59460795,-0.5958304,0.31067115,-0.6555311,-0.060150877,-0.90620434,-0.2699594,0.2538123,-0.19106112,-0.77577406,-0.86038387,0.60287917,0.5321207,-0.048299685,0.33074513,1.1649553,-0.108877234,0.28760836,1.2112906,0.1886591,-0.15705752,0.612411,-0.0029881895,1.1531029,0.201641,0.068624236,-0.21457975,-0.43485036,-0.010056764,-0.62786555,0.01118789,-0.8674517,-0.2717417,-0.6130601,-0.36528498,0.24423127,0.13393837,0.0013048761,-0.7088522,0.7061642,-1.0611333,0.2886813,-0.17846483,-0.92315483,-0.09604199,-0.14064993,-0.32629046,0.33848915,-0.53549033,-0.7443063,0.192397,0.19638084,-0.9651632,0.76556003,-0.15732448,0.6974679,1.475914,-0.23355697,0.20139074,1.1346796,-0.17821673,0.9289303,-0.4809242,1.1722085,0.47610044,-0.3718659,0.070026524,0.49590576,0.22902784,-0.6043866,0.39697358,-0.008793838,-0.7875998,-0.72437626,0.17598149,-0.336574,-0.109573945,-0.8879686
source_dataset:ME-1 [Human leukemia],0.5414028,-0.13642581,0.18863933,0.98787045,-0.6532645,0.6682567,0.13448693,-0.014436513,-0.07023368,-0.12512504,0.27415416,0.0695083,-0.6842555,-0.43040803,0.17890391,0.28295678,-0.45906588,1.0692006,0.2512596,-0.5483562,0.24973953,-0.8297524,-0.5854948,-0.44841993,-0.34685478,-0.5446568,-0.09392359,0.39255655,-0.031850938,0.11463681,-0.3253208,-0.60475993,-1.2077842,0.045622014,0.35420227,0.4789948,0.588004,-0.08402048,0.85135245,0.118283,0.1993227,-0.4930561,-0.1449282,0.53713006,-0.55295616,-0.0630504,-0.6641119,-0.1580031,-0.1630785,-0.14364307,0.21317044,-0.35023767,0.021905012,0.5067572,-0.5372306,-0.3459166,-0.6915953,0.39604506,0.12708001,-0.687102,0.5763314,-0.3729509,-0.3712007,0.06334676,0.18539073,-0.63955575,-0.82591784,-0.11754225,-0.30665702,-0.2511298,-0.49149135,0.2339353,-0.035805754,-0.15691884,-0.015584439,-0.18655801,-0.1440476,-0.22922072,-0.040350653,-0.21438682,0.6622416,0.18121387,0.38761157,0.3019249,-0.92680913,-0.114214785,0.8364923,0.070187934,0.42246565,-0.71331835,-0.36641958,0.323435,0.12297132,-0.04162121,-0.15669024,0.107901484,0.13331544,0.36681584,-0.27065918,-0.30526423,-0.14526072,0.25826597,-0.42828733,0.3118519,-0.41065836
source_dataset:TE-5,0.960303,-0.74285066,-0.2727462,0.055566993,0.31138298,1.2497555,-0.44308782,0.39034206,-0.5570236,-0.39000458,-0.40220633,-0.07374435,-1.0407858,-0.4037471,-0.93775046,0.8385197,0.13035949,0.5425793,0.19764765,0.01809065,0.24403542,-0.09899987,-1.0827743,0.74749076,-0.26908866,-1.1488715,0.19291392,0.6041421,-0.15112148,0.15400025,-0.46637788,-0.19572635,-0.124547236,-0.8139314,1.0065914,-0.8269675,-0.48312977,-0.6954065,0.40553403,-0.67432624,-0.05757481,-0.13458216,0.14171714,-0.41472566,-0.34674412,0.7379387,0.30585864,-0.05800257,0.17046537,0.41163447,0.84943426,0.15448894,-1.1096112,0.22778668,-1.3305964,0.09358989,0.123408064,0.6662314,0.9106925,-0.50749826,0.14279133,-0.35169196,0.34536284,-0.32347375,-0.4642554,0.528648,0.008311529,0.3903391,-0.8611447,0.2400799,-0.18567714,-0.5005184,-0.64263743,-0.58021545,-0.15560132,-0.35186973,-0.27556735,-0.3868344,0.91326416,-0.37546724,0.06861873,0.06791494,1.2239405,0.2366787,-0.57287925,0.2187936,-0.0081077125,-0.6839356,1.2160647,-0.5363008,0.07115948,0.4522648,-0.14965038,-0.26636136,-0.23401302,-0.87484336,-0.4115217,-0.089013115,-0.27017146,-0.25600463,-0.23658155,0.32637054,-0.6477425,0.3736786,-0.06176602
source_dataset:Caki-1,-0.8853736,0.6363753,0.93071765,-0.82980084,-0.039529365,-0.8829781,0.3304444,0.0055412035,0.645577,0.43169004,-0.3310837,0.9932424,0.973609,0.1789911,1.0749078,-0.68877715,0.13353686,-0.5037298,-1.3911892,-0.14099412,-0.75289625,-0.17106614,1.2855147,-0.5115093,0.7278014,0.76828057,-0.45088282,-0.15276363,-0.5435847,-0.65547806,0.7362989,-0.34051004,0.5558786,0.5675428,-0.85902864,1.8264556,-0.14553675,0.74673593,-0.38814986,0.88425946,0.40818074,1.3225523,0.27633634,0.09891024,0.8540729,-0.5756928,-0.061234068,-0.4865896,-0.1688393,-0.61226505,-0.57593316,0.23426923,1.9272308,-0.4822294,1.4048003,-0.94917136,0.36702228,-0.63827413,-0.7206076,0.4833075,0.0012221001,-0.012223556,-0.89257985,1.1147778,0.054403692,-0.37547603,-0.35786104,-0.9400824,1.5444524,1.0754638,-0.21158639,0.3228992,1.7423532,1.1605817,0.12129633,-0.36640373,0.72422135,1.1337174,-1.1746072,-0.33339143,-0.3225346,-0.48573524,-0.7295373,0.65075606,0.8417285,0.2947364,-0.16391358,1.8215137,-0.5812986,0.8641613,0.5864747,0.07634396,0.6396711,0.08409134,0.013193376,1.361363,1.0400388,-0.44364542,0.12469612,0.91568637,0.82444435,-1.595507,0.95616925,-0.44072342,0.4067672
source_dataset:WSU-DLCL2,-0.33104187,-0.48544756,-0.8652818,0.25481462,0.6203964,-0.0033921748,-0.22902583,0.0883202,-0.3422401,-1.0135956,0.3599443,-0.92354214,-0.93466187,0.21248484,-1.1108075,0.23099263,0.27403644,-0.061565954,0.3650382,0.40016574,0.26604185,0.1855801,-0.48421082,0.87772995,0.20759031,-0.5420832,0.24499847,-0.550046,-0.058034144,1.163814,-0.70158064,-0.16444828,0.48556817,-0.6609096,0.41574126,-1.1153576,-0.23852059,0.28063285,0.07006388,-1.0188158,-0.03865142,-0.6696756,-0.22449139,-0.19470388,0.78422177,0.19233361,0.16136955,-0.20623131,-0.223014,0.76700056,0.34312055,0.58582866,-1.3606186,0.90214884,-0.1851882,0.35523456,0.34166676,0.3586144,0.60620964,-0.30124876,0.20193677,-0.4744387,0.344452,-1.3894647,0.10958138,0.4385183,1.3047895,1.2725111,-1.1515067,-0.548961,-0.18505268,0.14643395,-1.0595411,-0.11852031,-0.88488764,0.20442943,-0.41433743,-0.76989293,0.141798,-0.27178425,-0.34619144,0.82333106,0.015259298,-0.29369724,-0.16649328,0.044896495,-0.40940022,-0.9971839,0.8387619,0.49207702,-0.389356,0.61022264,-0.90786564,-1.0362141,-0.36583665,-0.6077975,-0.5715706,-0.118924156,0.81508934,-0.94968235,-0.4358265,0.8893903,-0.41482824,0.7585883,0.625884
source_dataset:SW1463,0.40076166,-0.5970064,-0.7269841,-0.5633389,1.1114132,-0.14711565,-0.118789405,0.3073344,-0.45090055,-0.33277,-0.014142513,-0.40538338,-1.2427278,0.2642904,-1.3241982,1.0766169,0.8019249,0.04649824,0.7743352,0.44393358,-0.24964897,0.15070975,0.00959155,1.5933841,-0.1264444,-0.69800097,0.21960008,0.12771259,-0.25231594,0.7878001,-1.0175521,-0.3242487,0.56656134,-0.6258354,0.6329707,-1.2863387,-0.29123127,-0.89652056,0.20774579,-1.3114539,-0.051992476,-0.75837815,-0.07795745,0.028695077,0.91304463,0.33891648,0.61609286,-0.20071045,-0.10256107,0.72260493,0.86082697,1.0062419,-1.260176,0.56618583,-0.6025146,0.22821209,-0.0059911236,0.781923,0.6004944,-0.31300297,-0.31083736,-0.4894558,-0.16925487,-0.46163625,-0.21386948,0.68164605,1.0108455,1.0772417,-0.8243453,0.07475677,-0.25728527,0.49992418,-0.94425845,-0.12264125,-0.9726054,0.056111485,-0.15724109,-0.5000839,0.43915462,-0.27526435,-0.60046834,0.39960182,0.7811374,0.05678646,-0.12998746,0.13540186,-0.63589174,-1.0298322,1.4639833,0.61889845,0.025676044,1.2515079,-0.99887866,-0.64188606,-0.24491525,-0.69738775,-0.52712035,-0.09717876,0.6359363,-0.9462166,-0.35960495,0.67217904,-0.4144062,0.7965618,0.22780117
source_dataset:CA46,0.91134864,-0.34816524,0.19977848,-0.20204018,0.39089862,0.6990971,-0.6849678,0.49430716,-0.24105218,0.08073191,-0.98683304,0.22120741,-0.56865597,-0.59678096,0.018166251,0.59685916,-0.078182325,0.9060952,-0.62395656,0.038334705,0.03667931,-0.235261,-0.608591,0.39750737,0.41899362,-1.0249118,-0.18746245,0.7823324,-0.080335215,-0.4875832,0.09223622,-0.056117333,0.15386471,-0.9234249,0.83430684,-0.38389373,-0.7710064,-0.49706236,0.09215092,-0.36767554,-0.45819247,0.7732078,0.082872935,-0.63535947,-0.44273522,0.6757158,0.25287604,-0.52826935,0.5015744,-0.010014689,0.6717436,0.1469701,-0.23028614,0.047304623,-0.8937934,0.31453595,0.39818525,0.08627918,1.091523,0.15675293,0.4924543,-0.0035888746,0.36703253,0.3358001,-0.48083434,0.56015706,-0.61828524,0.012653755,-0.26138446,0.6390927,0.30689675,-0.4738925,0.014216334,-0.37004212,0.6076491,-0.6171188,-0.16503647,0.4226815,1.0313333,-0.4919421,-0.1080907,-0.2006237,1.2867805,0.5634179,0.16842663,0.56428236,-0.20339411,0.19639282,0.6616555,-0.39457113,0.34633467,-0.14822438,0.52409667,0.1393959,0.06617002,-0.55557936,-0.0951192,-0.62903214,-0.6947262,0.6214773,0.17665164,-0.7059417,0.06305191,-0.21505621,-0.12420541
source_dataset:PA-1,0.14819813,0.10298204,0.16195075,0.7690542,-0.79644,0.7362319,0.10573739,0.15477666,-0.0922214,-0.35224035,0.32155874,-0.0165535,-0.6762873,-0.3429996,0.18866579,0.19373128,-0.41320258,0.59330857,0.1952373,-0.54678637,0.2769535,-0.9020201,-0.26605806,-0.47889847,-0.12391896,-0.55183333,-0.11550121,0.3371022,-0.08573764,0.39969307,-0.305969,-0.6246376,-1.1451856,-0.043605424,0.32596442,0.49863538,0.11661999,0.11502791,0.7745051,0.059876505,0.09902125,-0.4759234,-0.16684997,0.52998483,-0.2899074,-0.036941893,-0.6642831,-0.1920535,-0.20654832,-0.07411044,0.23437831,-0.37621897,0.22286883,0.8128441,-0.47138697,-0.3843886,-0.59690356,0.3437056,0.16576421,-0.36701638,0.6769777,-0.47501397,-0.34496933,-0.04535208,0.14051072,-0.48668072,-0.51507705,0.032808766,-0.45704943,-0.32442278,-0.6260433,0.25939742,-0.031457618,-0.28755683,0.034253895,-0.24892701,-0.2473488,-0.15129353,-0.035881348,-0.30460525,0.63582265,0.2836693,0.07542829,0.370006,-0.82570404,-0.12528668,0.86749786,-0.00055506453,0.43841094,-0.44924718,-0.44717252,0.41924903,-0.019009601,-0.37538663,-0.1913034,0.21571474,0.11054183,0.35307083,-0.019925464,-0.2616743,-0.330509,0.2720902,-0.41198403,0.40527576,-0.5620643
source_dataset:BICR 31,1.0024035,-0.6146024,-0.0189256,0.026512343,0.5380503,0.16304211,-0.38506836,0.022727102,-0.5957216,0.15109783,-0.15795183,0.26423427,-0.47963196,0.0015118271,-0.77896845,0.77253014,0.32607567,0.4483916,0.68801045,0.5126908,0.33685252,-0.036750965,-0.48133516,0.79376787,-0.64085954,-0.6678782,-0.109968215,0.46135232,-0.034178726,0.04588312,-0.6898935,-0.1452463,-0.42765707,-0.23044094,0.70512044,-0.51275426,-0.06712547,-0.73636734,0.77801836,-0.06784098,-0.25656527,-0.084710956,0.7744045,0.11205659,-0.020016607,0.52396494,0.50542456,0.19881937,0.34017172,0.38188067,0.56015295,0.3630192,-0.5458274,-0.151093,-0.66062576,-0.073409714,-0.58858454,0.63709605,-0.2767612,-0.5392344,-0.54954046,-0.2091478,0.19512534,0.18701069,-0.058175806,-0.38281456,0.1270827,-0.4429927,0.040718324,0.038874008,-0.30226296,0.19550422,-0.4193302,-0.37678334,0.011672193,-0.13017744,-0.44740465,-0.33689067,0.46875328,-0.30703604,0.43600023,-0.1478987,0.70967066,0.84673154,-0.6383944,-0.23056784,0.14848883,-0.68784505,0.82699513,-0.51452696,0.8085507,0.40180394,-0.37281832,0.2711584,0.1114617,-0.47674832,-0.64479303,0.36834767,-0.24056675,-0.5257579,-0.60436654,0.3950279,-0.66910774,0.10546428,-0.66761196
source_dataset:HuCC-T1,0.50940734,-0.19579709,0.3078839,0.33748993,-0.2881785,0.5663238,-0.25134376,0.20692486,-0.40907493,-0.18433686,-0.10159612,0.16302963,-0.88473946,-0.5350233,-0.20407261,0.5444131,0.041830517,0.743994,0.19487377,-0.16612297,0.15196252,-0.7117863,-0.17712581,0.053485207,-0.13829866,-0.9124391,-0.2079555,0.4924056,-0.117350295,0.38861984,-0.29494566,-0.60240287,-0.87902975,-0.24399766,0.6024068,0.23439074,-0.06274469,-0.11118148,0.9257625,-0.0027561532,-0.05862811,-0.14336154,0.142283,0.16951422,-0.19501069,0.4044078,-0.23481609,-0.33625597,0.12312412,0.0006296858,0.48811927,0.009924756,-0.025252994,0.5367156,-0.6379228,-0.13325575,-0.8338057,0.4483711,0.29147348,-0.69920135,0.3495784,-0.59676677,-0.28807873,0.1671396,-0.06732736,-0.3190649,-0.47653875,-0.061965335,-0.21512397,0.13196057,-0.6296789,0.24241306,-0.09092984,-0.34049648,0.09737035,-0.3199073,-0.25959298,-0.14494747,0.2163495,-0.38078913,0.3391877,0.04269055,0.9511656,0.71300095,-0.61462784,0.012677742,0.66091037,-0.117070384,0.6946688,-0.34289032,0.1577039,0.42302585,-0.06101639,-0.34330615,0.06572761,0.042285085,-0.038426265,0.2284837,-0.14080866,-0.32592398,-0.33001584,0.22885911,-0.36578342,0.31835896,-0.6061063
source_dataset:HEC-1,0.06588829,-0.31005463,-0.03313321,1.5019062,-0.928149,0.5870823,0.22365992,-0.12040019,0.026876265,-0.2070881,0.49560794,-0.47509122,-0.40883824,-0.13253759,0.15572423,-0.11349813,-0.59544075,0.49331522,0.26699135,-0.4073587,0.509782,-0.5579655,-0.27854773,-0.62916714,-0.37391028,-0.34368268,0.11302557,-0.13236009,0.37854868,0.2872738,-0.3598603,-0.27561095,-1.1604053,0.09477058,0.10272636,0.2070654,0.3284506,0.51530427,0.35718423,-0.02958253,-0.038587097,-0.7433117,-0.2991037,0.47644097,-0.55923253,-0.38835755,-0.6627202,-0.074076235,-0.03828077,0.012468819,-0.07331252,-0.5609486,-0.10999112,0.7488201,-0.43195707,-0.10773853,-0.6138602,0.18222374,0.12581305,-0.34069058,0.73571974,-0.17357263,0.081002906,-0.23592602,0.4809442,-0.44548717,-0.37524843,-0.03431326,-0.42589676,-0.5869316,-0.18659645,0.16417502,-0.3743884,-0.32588267,0.07786312,0.04461639,-0.37475058,-0.40366164,-0.24497326,-0.054203637,0.8356354,0.5370454,-0.14508303,-0.12769967,-0.84757954,-0.24548694,0.834218,-0.09726012,0.02321502,-0.60504377,-0.5992904,-0.18069173,0.0778962,-0.3044383,-0.16052526,-0.080099255,-0.024769044,0.46409714,-0.13872042,-0.24646433,-0.42223513,0.40116754,-0.592322,0.4575295,-0.4194218
source_dataset:NCI-H2087,0.5162535,-0.40806973,0.26199844,0.18863744,-0.055729985,0.9584198,-0.91552585,0.63160074,-0.9898123,-0.59568137,-0.1838758,0.53134644,-1.4564028,-0.47406182,-0.69641453,0.5054529,0.010961575,0.987216,0.15557586,-0.042875156,0.6071236,-0.4905334,-0.6163152,0.49009052,-0.059669144,-1.6053684,-0.6310664,0.60479784,-0.7358586,0.25087,-0.30826148,-0.21908955,-0.953001,-1.0356314,1.2801492,-0.35535786,-0.87438864,-0.6722503,1.0013719,-0.044651136,-0.3672096,0.23885097,0.4739301,-0.21864057,-0.18268393,1.197046,-0.21621364,-0.20547335,0.2816055,0.070767105,1.0099248,0.17058522,-0.4419342,0.62164855,-1.0398747,-0.38526744,-0.393019,0.5439071,0.3751794,-0.57932866,0.19362895,-1.1121513,0.10588055,-0.28150648,-0.5900247,0.17499082,-0.31943965,-0.027728662,-0.91446996,0.34748906,-1.0203831,-0.6313527,-0.25373217,-0.8338521,0.36861134,-0.8105351,-0.5031194,0.062409755,0.9973201,-0.8148027,0.48758274,-0.26454556,1.4644759,0.94886285,-0.81736696,0.49213088,0.9308392,-0.37958658,1.503468,-0.54398865,0.32929388,0.6315971,-0.29216936,-0.5529445,-0.22419132,-0.17923996,-0.35408172,-0.16265239,0.19197153,-0.38021275,-0.42570284,0.36366802,-0.32177946,0.43164566,-0.5028107
source_dataset:SaOS-2,-0.45191252,0.44064534,0.58573294,-0.64582,0.14040004,-0.92877865,0.4460636,0.04177362,0.7989431,0.8677162,-0.33630162,0.30699557,0.89799654,0.6495804,1.0730308,-0.97412837,-0.09571013,-0.68723565,-1.1733586,0.01530325,-0.26788068,0.29115617,0.77135247,-0.19552752,0.37610716,0.9696955,-0.31665078,-0.06575881,-0.059222113,-0.8286366,0.93825996,0.22687069,1.2048163,0.35657015,-0.972876,0.706306,-0.16344403,0.5928726,-1.2121571,1.088782,0.27702075,1.0536385,0.45257097,-0.17246145,0.54242027,-0.42929193,0.38474375,-0.22204936,0.26257247,-0.33523864,-0.7321803,0.2484509,1.1943557,-1.0457064,1.2394147,-0.5892516,1.2137307,-1.1756272,-0.07088369,1.1759899,-0.15749799,0.9255784,0.15775059,0.8968757,0.2241302,0.15158826,0.051374603,-0.8770877,1.4478233,0.39768955,0.56860566,0.015296102,1.0460455,0.9856927,0.2056718,-0.08594412,0.792645,0.8426534,-0.9541807,-0.004869014,-0.50485134,-0.100753546,-1.0405405,0.072884634,1.172866,0.344382,-0.66130495,1.5203832,-0.76009,0.398195,0.4521839,-0.5944035,0.88072866,0.47970933,0.25245845,0.60056007,0.68934524,-0.707254,-0.39266625,0.8509104,0.5263722,-1.7444906,0.60324305,-1.2305181,0.5087664
source_dataset:Kelly,0.7580804,-0.32604083,0.05406276,0.46881306,-0.13567263,0.79613984,0.011479612,0.22785917,-0.10091293,-0.07212092,-0.108557984,0.06442508,-0.60025054,-0.35172707,-0.10928275,0.46334842,-0.326964,0.6933271,0.10916028,-0.3998344,0.1679694,-0.59052134,-0.6685538,-0.12847565,-0.25597546,-0.63231224,-0.01402347,0.30918866,-0.025921393,-0.06176288,-0.27864066,-0.3238463,-0.61621124,-0.22697946,0.49596804,0.13034485,0.15445468,-0.3736264,0.5649908,0.008641392,-0.21059164,-0.2339752,-0.08714734,0.17686604,-0.5313631,0.27233315,-0.094494864,-0.11639251,-0.039731167,-0.079535246,0.34657055,-0.285544,-0.13035716,0.3399438,-0.6040463,-0.14818877,-0.30048865,0.41562054,0.47810867,-0.26343143,0.44575372,-0.16284446,-0.033453755,0.034345616,-0.09738339,-0.18749753,-0.6075082,0.02020625,-0.31114453,-0.051702984,-0.18796246,-0.04121399,-0.044666857,-0.14672463,0.4133953,-0.3384968,-0.1537786,-0.18886212,0.31875405,-0.3460093,0.43291953,-0.04017926,0.7650646,0.26334608,-0.6570085,0.11750112,0.46784487,-0.0046077166,0.5770167,-0.75699157,-0.2674193,0.17895052,0.19968958,-0.25508857,-0.22421923,-0.18091778,0.053440217,0.18812433,-0.3815173,0.03363147,0.009609826,-0.06614708,-0.41876346,0.20940804,-0.373592
source_dataset:NCI-H196,0.18389934,-0.5167431,-0.5403689,0.97608006,-0.7662806,0.20938002,0.38456053,-0.29285195,0.44132906,-0.20357041,0.54113954,-0.88444877,0.6906494,0.46262336,0.11993255,-0.40942428,-0.7416611,-0.15623458,0.36297193,-0.29202223,0.9249813,0.20979826,-0.74437594,-0.671302,-0.5923663,0.105810545,0.1967586,-0.068739,0.5694461,0.26019832,-0.21684489,0.24828881,-0.16137293,-0.06491068,-0.26486507,-0.58530337,0.2358771,-0.013774906,-0.68145406,-0.070818074,-0.15067749,-0.7597877,-0.3654079,0.2823785,-0.8059744,-0.27594262,-0.28720987,0.19853975,-0.1383249,0.2085271,0.119246624,-0.91082585,-0.6578696,-0.04046242,-0.37608665,0.39100903,0.47909492,-0.28253257,0.17735104,0.03218037,0.30991268,0.7348789,0.8986736,-0.7350731,0.4161075,0.26672658,0.4469895,0.13194461,-0.61660606,-0.8304407,0.48630047,0.2557565,-0.6875946,-0.20432837,0.11458462,0.17554803,-0.5025767,-0.6069036,0.08527276,-0.050942913,0.72249186,0.66823703,-0.6848302,-0.7068053,-0.28813308,0.07919541,0.30479807,-0.3388546,-0.18541156,-0.9966174,-0.58125764,-0.59437203,0.04883972,0.10890411,-0.09997228,-0.70140857,-0.23202805,0.25130132,-0.2981051,-0.026788905,-0.50204563,0.20925555,-0.5745696,0.19659042,0.30675668
source_dataset:A-673,0.9429204,-0.05661215,0.2926062,-0.28365877,0.58764017,0.81344783,-0.7576252,0.38451657,-0.61618626,0.008282386,-0.8609753,0.41848207,-1.1953175,-0.9555739,-0.50194705,1.1974635,0.30722573,0.7809773,-0.005328223,0.15917268,-0.5238233,-0.881262,-0.39335698,0.7895728,0.48303998,-1.3172476,-0.08371617,0.6975994,-0.28497773,-0.021077286,0.015374318,-0.33269426,-0.1283492,-0.7960784,1.0987797,-0.08760937,-0.7000664,-0.27377915,0.9208005,-0.6155491,-0.12265014,0.5374364,0.04180874,-0.31725752,-0.09547601,0.6996271,0.3750727,-0.64671725,0.35415003,0.10596394,0.67512244,0.41869313,-0.22433415,0.5594266,-0.9760751,-0.024027377,-0.28139582,0.5452067,0.97715867,-0.5887658,0.29987913,-0.73717004,-0.4037641,0.47836882,-0.5748044,0.19693404,-0.6519836,0.28157967,-0.2715974,0.80597585,-0.22055869,-0.37004247,-0.039642,-0.41706386,0.23496285,-0.72299385,-0.06523482,0.22717838,0.978785,-0.45904914,-0.1625516,-0.27686924,1.8382893,1.0156661,-0.17348644,0.34088808,-0.044893406,-0.13938446,1.0171984,0.14048958,0.49289477,0.4957001,0.15324187,-0.30081406,0.16781723,-0.40970254,-0.06602416,-0.33025143,-0.49615252,0.19400689,0.02556011,-0.17933458,0.18840235,0.19829835,-0.47510323
source_dataset:NCI-H28,-0.44990334,-0.37038094,-0.7899489,0.9687578,-0.7641227,0.22441661,0.371673,-0.1493414,0.16084968,-0.58144116,0.80313575,-1.2635552,-0.16508086,0.40462142,-0.35069653,-0.45254272,-0.67843384,0.046894792,0.42496166,-0.16320908,0.6764329,-0.033193897,-0.11050123,-0.44923893,-0.098109916,-0.002939032,0.47266674,-0.45554554,0.5150768,0.45696133,-0.53629786,0.07321913,-0.23423557,-0.30591688,-0.14410405,-0.73722124,0.8815176,0.39420164,-0.21505581,-0.434535,-0.11912396,-1.079129,-0.78218544,0.38149846,-0.20828524,-0.6065948,-0.3779563,0.15258443,-0.40749213,0.48071054,-0.4840429,-0.6039758,-1.0359788,0.6173703,-0.287866,0.48030278,-0.14448158,-0.0014946517,0.4818335,-0.11296601,0.8772073,0.21442755,0.40107542,-1.0445625,0.5137714,0.31205833,0.39603913,0.8908384,-1.2706352,-0.9537957,0.28629833,0.42254028,-0.88463926,-0.19463982,-0.48253065,0.46158254,-0.45772946,-0.8186509,-0.05850549,0.12646553,0.052692592,0.9287978,-0.82431287,-0.8152504,-0.5119203,-0.24710311,-0.35491902,-0.63841033,-0.026247416,-0.38706458,-1.0166125,-0.097656205,-0.45970255,-0.5526512,-0.4503803,-0.60105115,-0.28860387,0.21547957,0.31602985,-0.5270868,-0.47414398,0.6732146,-0.526569,0.58481604,0.35600597
source_dataset:JVM-2,-0.29361367,0.33130765,-0.50354993,0.84304094,0.32257843,-0.25822544,0.42772093,-0.17775393,0.0868702,-0.5251405,0.5959635,-0.96481323,-0.70857155,-0.15023907,-0.45392713,0.34552908,0.2009884,0.2091939,0.9662914,0.015196912,-0.1143106,-0.4050478,0.44359928,0.3167258,0.10615158,0.073462114,0.5255768,-0.55995995,0.35513785,1.0512514,-0.7318244,-0.6358462,-0.05858391,0.16577572,-0.062917076,0.03227031,1.0705861,0.60872114,0.3834266,-0.87106806,0.7358315,-1.0632156,-0.6131695,0.75472254,0.60548234,-0.7342323,-0.09217101,-0.3945972,-0.4298786,0.487488,-0.0065491945,0.3585115,-0.46496055,1.1088763,-0.10739167,0.03849441,-0.5411183,0.57988715,0.39150104,-0.58312196,0.4528392,-0.33464438,-0.6592898,-0.31314683,0.47218212,-0.15034303,0.45424864,1.1980605,-0.502739,-0.45011216,-0.15708153,0.83953345,-0.7929081,0.27741462,-1.0320747,0.41870874,-0.1816696,-0.76875854,-0.05654058,0.20164768,-0.37182158,0.8844334,-0.22024035,-0.20870396,-0.24865344,-0.4553596,-0.23768516,-0.52674425,0.22206235,0.6011205,-0.5967053,0.8074201,-0.7079651,-0.8024341,-0.065351106,-0.39634287,-0.029239036,0.47875774,0.4295708,-0.9478932,-0.35670614,0.7993474,-0.3137304,0.79502034,0.0031717867
source_dataset:SK-N-SH,0.25127202,0.15113895,0.25036567,0.23055746,-0.19618618,0.06502044,0.3644989,0.11806461,0.20539504,0.2165039,0.2290791,-0.10789314,-0.10303943,-0.014205383,0.31983417,0.09613971,-0.04099907,0.5361448,0.12941791,-0.25722483,0.055018235,-0.50542367,0.11081685,-0.15940762,-0.30082768,0.053772278,-0.060934924,0.119102634,0.12925225,-0.081780486,-0.034409728,-0.64361286,-0.4000983,0.25965044,-0.10996234,0.4813869,0.4329787,0.17074667,0.2187446,0.49369657,0.4749089,-0.3228163,0.32357407,0.36557752,0.08160629,-0.20845237,-0.17570867,-0.21752432,0.16177227,-0.106724456,-0.0880683,0.050756663,0.46058556,0.09326706,0.032748766,-0.562551,-0.38511223,0.10381835,-0.050034165,-0.08029781,0.22729759,0.08211,-0.08738294,0.49860126,0.35259825,-0.2978252,-0.184688,-0.2475686,0.45278925,-0.33791643,-0.18523426,0.32027492,-0.12831648,0.29223153,-0.1358378,-0.06400651,-0.20216459,-0.08599236,-0.5917616,0.109706454,0.1623545,0.35673392,-0.061702214,0.30078784,-0.23492543,-0.11702916,0.3203246,0.44712266,-0.021707641,-0.39806262,-0.11088475,0.27920258,0.18978456,-0.16377693,0.21593742,0.28770354,0.1922402,0.21048458,-0.29514554,-0.17644966,-0.40768155,-0.19127737,-0.075858496,-0.19828741,-0.40397626
source_dataset:GaMG,0.35771492,0.06550241,0.18833596,0.35799736,-0.4675222,0.48267838,0.11857417,0.121755145,-0.045495134,-0.0066611087,-0.13526677,0.031271547,-0.5078493,-0.39304346,0.2631575,0.40579757,-0.33672807,0.55857015,-0.114817575,-0.45939964,-0.0742463,-0.68138593,-0.26193726,-0.2884312,0.013627572,-0.39714453,0.06801459,0.33514503,0.12597685,-0.16071583,-0.17091706,-0.4044052,-0.45218736,-0.10405444,0.26619318,0.44254333,0.016015261,0.014920052,0.4531269,-0.21996512,0.10373148,-0.14072207,-0.19966973,0.2860215,-0.34388545,-0.18806672,-0.10430148,-0.43101668,-0.12402606,-0.12807351,0.22497849,-0.2360177,0.12096919,0.58441246,-0.42162508,-0.2536927,-0.26038748,0.2846458,0.4894814,-0.2511896,0.66224664,-0.15255605,-0.25741825,0.26685187,0.0011913939,-0.03830769,-0.73164624,0.123921216,-0.04904519,0.03336653,-0.08860193,0.06945307,0.08768269,0.032746233,0.060455777,-0.28703377,-0.07525532,0.018702269,0.1531812,-0.20259205,0.24250679,0.087356985,0.44300076,0.24882175,-0.4253125,0.024334699,0.31568366,0.17395239,0.32777333,-0.29329145,-0.25384098,0.19725761,0.28530312,-0.17766306,-0.15657097,-0.009281449,0.15842535,0.09341604,-0.41069385,0.19219415,-0.0660322,-0.20352006,-0.21041696,0.31161737,-0.09297025
source_dataset:NCI-H2810,1.1465819,-1.0624017,-0.22859004,0.3178171,-0.33976215,1.4739285,-0.9473832,0.3679999,-0.83598423,-0.46754482,-0.33841956,0.040957317,-0.45511147,0.04702627,-0.72239757,0.265221,-0.30029592,0.2734965,-0.11807878,0.14342317,1.1299665,0.22758043,-1.1019185,0.35115677,-0.14540401,-1.4779544,-0.3121033,0.7051543,-0.26011667,0.08083668,0.08286238,0.65539014,-0.48488563,-1.295293,1.0440176,-1.47845,-0.8886083,-0.9524316,-0.2741104,-0.31615186,-1.079401,0.37073523,0.46261075,-0.57050794,-0.8897252,1.332909,0.23074526,0.06716982,0.561149,0.27418992,0.7749131,-0.047902524,-1.2211013,-0.06176629,-1.6232939,0.34906098,0.6869083,0.21153419,0.769658,0.096487865,0.29454285,0.014896143,1.3606906,-0.6645851,-0.49574986,0.63470894,0.005001032,-0.3424928,-1.0566981,0.046365656,0.08996487,-0.8289364,-0.8307846,-0.9901697,0.7214775,-0.5838085,-0.6219095,-0.11911499,1.2707926,-0.6244192,0.3631044,-0.036014162,0.97529036,0.29046074,-0.40890676,0.75541085,0.34906274,-0.5218271,1.0014653,-1.1073041,0.30154246,-0.52746457,0.033108305,0.27849728,-0.1834779,-1.0820122,-0.6260561,-0.52939045,-0.37496567,0.2046923,-0.45506078,-0.0409226,-0.5831695,-0.031484038,-0.20423129
source_dataset:KM12,1.0783687,1.021542,0.30156875,-0.6257622,1.2000962,-0.9095718,0.8542414,-0.7098093,0.7456469,1.1249787,-0.1805613,-0.7793432,-0.03671231,-1.1767877,0.064430274,1.1347233,1.1207399,0.6269225,0.54285353,0.71170545,-1.137782,-0.49624828,0.95539033,0.34055772,-0.28246975,0.7131077,0.5908901,0.1652686,1.1355755,-0.19955997,-0.079069585,-1.085322,0.43239334,1.1764319,-0.30460662,0.75159824,0.94942224,1.3726058,-0.17231983,-0.021686118,1.9422721,-0.62712336,-0.0060435086,0.52211714,1.1630286,-0.7108086,0.5963627,-1.3796008,0.51963997,0.9399862,-0.5472582,1.0582728,0.6535649,-0.14504525,0.36457515,-0.26553547,-0.5203047,0.18602905,0.17742923,-0.38106254,0.04436645,0.5354035,-1.2662671,1.2016957,0.60814315,-0.8053311,0.14833215,0.31836697,1.8355857,0.26284668,0.35396916,0.7212422,0.3318333,0.71406674,-0.6775582,0.44074574,0.43769753,-0.3019126,-1.0880696,0.7505854,-0.8809817,0.7638847,0.16442075,0.6151119,0.51050365,-0.49141446,-1.2195691,-0.09118255,-1.0124689,1.179894,0.84210736,0.36660197,0.076404124,-0.463089,1.4444855,-0.094085254,0.42580044,0.70548445,-0.5391159,-0.72182673,-0.79484713,-0.0010373946,-0.023950983,-0.38244623,-1.0486045
source_dataset:C32 [Human melanoma],0.8487242,-0.59327203,-0.06855222,0.087138586,0.4265453,0.9217777,-0.4828024,0.29271826,-0.5752682,0.09328584,-0.48432353,0.05249888,-0.7093868,-0.34244177,-0.4812493,0.6276702,0.010189483,0.68619746,0.062080514,0.012139171,0.24569818,-0.12645641,-0.5843912,0.46918264,-0.0122467745,-1.0031997,-0.03705496,0.8326604,-0.05520258,0.23329122,-0.16242388,0.0031857565,-0.11328759,-0.7706292,0.82985586,-0.6992651,-0.50968075,-0.69767773,0.09699202,-0.3946551,-0.5853298,0.1582066,0.10286069,-0.5061834,-0.43106085,0.69365954,0.35448816,-0.19758192,0.3325881,0.09116238,0.6978014,0.15933028,-0.68836904,0.05331745,-0.992205,0.14526087,0.06045194,0.31974864,0.7601564,-0.24343258,0.16861767,-0.13227996,0.46064162,-0.14321499,-0.36050165,0.4057666,-0.16118537,0.05891871,-0.5454912,0.31814462,0.010885339,-0.36229068,-0.26354498,-0.5324217,0.3749207,-0.46311674,-0.29446793,-0.09504542,0.9278394,-0.37016004,0.13768968,-0.10797816,1.0226455,0.38273892,-0.41388744,0.36465377,0.050359808,-0.35925767,0.8741804,-0.5696451,0.24862105,0.111914486,0.13050368,-0.05450251,0.0037336014,-0.8226147,-0.30180743,-0.2824707,-0.38329113,0.10631845,-0.14600192,-0.13527615,-0.3389176,0.1638102,-0.20600384
source_dataset:CHP-126,0.8231148,-0.5467656,-0.14338294,0.12370111,0.28423536,0.6990893,0.0050143395,0.13465412,-0.119974785,0.3106453,-0.36364427,-0.12017049,-0.5430849,-0.3685485,-0.2737039,0.7733791,-0.016634822,0.6619687,0.22761628,-0.1270849,0.0037354417,-0.24977368,-0.66867137,0.26153833,-0.3565479,-0.5469174,0.33915186,0.5983419,0.25899595,-0.022182904,-0.37747836,-0.34451216,0.1165027,-0.28586203,0.4657693,-0.37488922,0.056400534,-0.5332129,0.12610495,-0.53177226,-0.04347157,-0.19476265,-0.05848286,-0.076741345,-0.4539367,0.35832018,0.27179998,-0.26626992,0.102296874,0.058429096,0.56193656,0.00456373,-0.5277678,0.027013624,-0.68955904,-0.041488163,0.035552386,0.45791864,0.7076649,-0.2675234,0.20032471,0.16083986,0.16940364,0.018311903,-0.18258011,0.28525484,-0.3931801,0.1533934,-0.26128718,0.18497935,0.33152765,-0.081263326,-0.37940863,-0.079368606,0.15979631,-0.19436793,-0.09572655,-0.25563568,0.6430941,0.003550388,-0.08242364,0.022496274,0.8512741,0.1340875,-0.4671157,0.08724325,-0.19994172,-0.29702362,0.520802,-0.5382625,-0.06362918,0.106776685,0.21389033,0.2734847,0.08831301,-0.77853984,-0.11888931,-0.15839356,-0.6466914,0.15118325,-0.022678664,-0.12205205,-0.4035808,0.08944195,-0.23568246
source_dataset:L-540,0.7362069,0.6107091,0.119675376,0.0805195,0.9619916,-0.14764908,0.5990815,-0.43152368,0.26396155,0.9666469,-0.2944945,-0.3021429,-0.35530537,-0.9859817,-0.09800026,1.0926933,0.62889093,0.6014608,0.22725962,0.1450572,-0.8847225,-0.64611584,0.34823242,0.2973748,0.13982695,0.2721488,0.77391386,0.20154165,0.99218535,-0.1864842,-0.17494604,-0.92200905,0.2680113,0.76540303,0.1775039,0.48209408,0.82435304,0.8353011,0.13427566,-0.2470406,1.4512264,-0.5694175,-0.39811006,0.48275435,0.5933983,-0.6667722,0.58811694,-0.71275,0.20423622,-0.12563126,-0.34850153,0.6513369,0.10438017,0.1423144,-0.10607826,-0.2284987,-0.4971919,0.41152343,0.7543269,-0.5237649,0.059336573,0.31120598,-1.0514973,1.1224855,0.39201412,-0.50791425,-0.42943907,0.5080581,0.8985632,0.26683167,0.523854,0.5540212,-0.3888132,0.6786624,-0.61241287,0.29739177,0.44760734,-0.5007932,-0.49408126,0.6894943,-0.7486695,0.4838881,0.2546391,0.14124565,-0.029098287,-0.66568136,-1.0342287,-0.19509487,-0.45622173,0.5626041,0.30423155,0.31024614,0.27661824,-0.2721181,0.8111799,-0.2678314,0.36915973,0.3976467,-0.9910242,-0.29704309,-0.41362917,-0.021238014,-0.20418362,-0.15669005,-0.75769967
source_dataset:EFM-19,-1.04267,0.53290105,-0.61990786,0.5094936,-0.18299124,-0.1614823,0.45854607,0.14310454,0.42358953,-1.0954603,0.701656,-0.8646369,-0.8295739,0.19498524,-0.10678999,-0.1828164,-0.2238294,-0.06679026,0.29653233,-0.28845996,-0.4217806,-0.41889676,0.15575807,0.036482543,0.60039735,0.22812526,0.33438128,-0.8406415,-0.055736147,0.9969018,-0.67656046,-0.6149318,0.20888719,-0.09856613,-0.18533917,0.4242863,0.33885252,0.63694054,0.30697703,-0.7523574,0.48844194,-0.83853364,-0.8661277,0.2085866,1.0073438,-1.019485,-0.42288226,-0.45149726,-0.8515193,0.31574368,-0.019184642,0.106751375,-0.38909477,1.5174798,0.22646357,0.012924857,-0.36895305,0.05398435,0.5306822,-0.6721322,0.8372369,-0.49241653,-0.47767928,-0.65040797,0.39123052,0.4221418,0.6256148,1.4686229,-0.9924109,-0.56139636,-0.2850512,0.7423867,-0.18665749,0.37873155,-1.2194219,0.2911755,-0.2555108,-0.41240102,-0.8720188,-0.046419445,-0.0052171648,0.97459257,-0.5059285,-0.59071285,-0.0015562717,-0.13683288,-0.054866426,-0.057196178,0.5562743,0.89639306,-1.1277509,0.81257313,-0.6267538,-1.193775,-0.6150182,0.30740863,0.023543276,0.07673454,1.0268524,-0.6165028,0.26516366,0.5212554,-0.060584642,0.9655477,1.1425511
source_dataset:VMRC-RCZ,-0.2894966,0.025144428,0.25434512,1.3494482,-1.7815572,0.7527185,0.43899903,0.010336783,0.14046995,-0.44544944,0.84572065,-0.30276638,-0.16564627,-0.100479916,0.5797795,-0.58759457,-1.0742389,0.6951977,0.09541269,-0.812262,0.7508703,-0.97428185,-0.16139653,-1.2564902,-0.42205384,-0.33384308,-0.10384268,0.0016467646,0.34275162,0.33131722,-0.1467467,-0.36242685,-1.8220644,0.07108706,-0.0387442,0.8117535,0.878605,0.6041332,0.6285181,0.85211486,-0.09390876,-0.9090927,-0.38663402,1.0153801,-0.78828484,-0.533555,-1.3436679,-0.029887792,-0.20755722,-0.16952391,-0.2823499,-1.1229932,0.30208904,0.56058204,-0.4490756,-0.30963272,-0.8105087,0.04952509,-0.08612036,0.33316398,0.9373218,-0.1719434,-0.13448332,-0.4485744,0.5535415,-0.9031809,-0.8368678,-0.21975073,-0.51972526,-0.9834496,-0.6211354,0.023413785,0.0088697225,-0.38188002,0.32537884,-0.12800531,-0.37813297,-0.36130834,-0.69687676,-0.23889267,1.1158013,0.45528904,-0.4404588,-0.022845063,-1.0939682,-0.2668493,1.4253606,0.2543148,-0.13005173,-1.0071146,-0.8361212,-0.08954864,0.10407975,-0.43054298,-0.23878656,0.28632212,0.20627408,0.6318231,-0.079177804,-0.20640561,-0.5027947,0.38126817,-0.47433496,0.30748945,-0.3799938
source_dataset:CTB-1,1.0535343,-0.09170034,0.07893925,0.2512091,0.29166588,-0.14370556,0.02659963,-0.14034608,-0.10848043,-0.19176108,0.2642511,-0.35306773,-0.39412475,-0.2136099,-0.4379423,0.79211134,0.47975847,0.59704757,1.0909936,0.48657456,0.37418875,-0.070292436,-0.30771714,0.23559716,-0.83165765,-0.4368698,-0.3854265,0.5926279,0.08759609,0.27562672,-0.594292,-0.5810491,-0.35429364,0.025140598,-0.25865862,-0.6353806,-0.038153388,-0.41950372,-0.027322033,-0.08476482,0.66244054,-0.8033171,0.49827355,0.15313542,0.276445,0.3180114,-0.032616057,-0.49943453,0.31494218,0.4043808,0.63089067,0.3144934,-0.3680427,-0.26200777,-0.4543103,0.153674,-0.52736354,0.15359372,-0.3129612,-0.12244721,-0.5715363,0.2810924,0.17318736,0.19544028,0.35846278,-0.09128487,0.9695246,-0.0056732893,0.18069452,-0.2900687,-0.5497202,0.12092769,-0.8517425,-0.1693532,-0.16100088,-0.19254942,-0.70310336,-0.44233572,0.09352324,-0.46881297,0.6004881,0.81645906,0.71540004,0.5491092,-0.17800625,0.18342032,0.6631637,-0.56846255,0.5336682,-0.6288133,0.64827347,0.5111417,-0.33693308,-0.18776911,0.6528591,-0.30517998,-0.36928222,0.5645577,-0.2390764,-1.1070247,-0.93733007,0.4397112,-0.48287132,0.18474597,-0.64681685
source_dataset:EB3 [Human Burkitt lymphoma],0.12701833,0.2638443,0.6588109,-0.9027613,0.8084196,0.11952257,-0.3615827,0.4560621,0.14230488,0.36937428,-0.97331864,0.5169579,-0.28376263,-0.38012218,0.59869355,0.26715964,0.23533648,0.14552243,-1.1793696,0.114072256,-0.75726485,-0.45416594,0.5167243,0.5167744,0.9104353,-0.20926079,-0.090142325,0.4080938,-0.36839503,-0.46222582,0.39806873,-0.3459636,0.9206168,-0.2930511,0.12694582,0.7761289,-0.6178523,-0.030890398,0.10542217,0.10063563,0.1261102,1.3881425,0.095410466,-0.340225,0.27700078,0.12077697,0.5597325,-0.7406762,0.34315392,-0.27769747,0.1640508,0.67363864,0.9250148,-0.018599764,0.10732454,-0.69805557,0.41740426,-0.06517269,0.6986095,0.114169315,0.22697599,-0.1158267,-0.44574162,1.0463192,-0.39828265,0.23265432,-0.66363055,-0.23960876,0.7578399,0.94864655,0.16939308,-0.27684402,0.9511376,0.5854382,0.16311723,-0.5413661,0.41529348,0.94153494,-0.00032694638,-0.18628068,-0.83633614,-0.33902162,0.64094764,0.9234094,0.7928572,0.32280353,-0.67566556,1.1444162,0.2362557,0.7626463,0.8367336,0.16875115,0.67017543,0.1314657,0.09991593,0.41192487,0.44364822,-0.8528006,-0.41080034,0.8319156,0.6476114,-1.2805643,0.5602906,-0.373059,0.034961097
source_dataset:HCC1806,0.7398289,0.3712726,0.39211324,-0.8041394,0.72051185,0.10980226,-0.43086275,0.15941565,0.08600503,0.20504662,-1.0017122,0.27755907,-0.19295101,-0.5645473,0.70425254,0.6201539,0.40281224,0.3772229,-0.6774002,0.07541412,-0.6796591,-0.32019272,0.08936827,0.25094563,0.68456656,-0.3796393,-0.32846436,0.7868831,-0.13648191,-0.39492008,0.54722744,-0.45546523,0.8975652,-0.35930884,0.038738772,0.3352431,-0.6645719,-0.1284544,-0.041405782,-0.28893757,0.2850695,0.76502854,-0.057543244,-0.31420824,0.28465688,0.56458247,0.49003974,-1.1095757,0.27358902,-0.20769373,0.5180552,0.4551879,0.60552245,-0.025770083,-0.1948062,0.07176028,0.41762805,-0.32578388,0.7908903,0.3356281,0.38246667,0.18729924,-0.33529034,1.01231,-0.18479629,0.46816802,-0.15957302,0.2204893,0.5733137,0.97562116,0.2391541,-0.18994728,0.6394212,0.3186373,0.3418929,-0.7793017,0.15192609,0.7938223,0.3170985,-0.5091119,-0.34825304,-0.0011575073,1.003517,0.64808875,0.84404707,0.5942476,-0.3292314,0.53394926,0.25269175,0.41699898,0.7076058,0.17043981,0.58890903,0.14739099,0.57926196,-0.06291759,0.28949144,-0.6302445,-0.67407954,0.5928085,0.49467316,-1.1786345,0.6821365,-0.021449909,7.7843666e-05
source_dataset:NCI-H2342,0.49539956,0.032190617,0.06550238,0.53995156,-0.3690788,0.48035038,0.29890645,-0.00080958754,0.07981965,0.2018754,0.03092181,-0.41476384,-0.33497348,-0.49129102,0.15162987,0.47194692,-0.20861773,0.4737003,0.2093836,-0.34433514,0.1540234,-0.7115927,-0.36486685,-0.33693054,-0.23805264,-0.24047735,0.30138788,0.28048846,0.4742654,0.07455555,-0.2211321,-0.68739223,-0.6131907,0.2103024,0.18747772,0.3267317,0.75295913,0.29194245,0.35035172,-0.19381568,0.43701366,-0.5745993,-0.26620126,0.5364118,-0.34986496,-0.30871126,-0.17643657,-0.2589509,0.026048813,-0.26350546,-0.030991541,-0.14584984,-0.03692805,0.42572594,-0.4875599,-0.14242184,-0.3912052,0.30870733,0.42736202,-0.2995149,0.59928185,-0.0022699013,-0.34485313,0.26716965,0.25991637,-0.18403421,-0.54752904,0.15928428,0.04502892,-0.13109002,0.06761752,0.2321776,-0.19416378,-0.06149911,-0.07298383,0.0784197,-0.17425495,-0.30792806,-0.100155674,0.11687588,0.3094998,0.33050972,0.3499156,0.14994961,-0.46822816,-0.23007132,0.15147027,-0.10519865,-0.046154894,-0.45055452,-0.2368151,0.05443407,0.17724723,-0.21519604,0.24248126,-0.2130695,0.09881149,0.40952158,-0.45497766,-0.20322634,-0.29222608,0.16506007,-0.43537968,0.024286956,-0.44981822
source_dataset:MOLT-4,-0.6435257,0.5594466,0.36718115,0.044659074,-0.40194815,-0.3309287,0.54794425,-0.036908377,0.5854778,0.40815583,0.14840603,0.5472357,0.050887927,0.21930464,0.71496487,-0.5007441,-0.44542193,-0.29463792,-0.6857855,-0.5714108,-0.44228116,-0.3402453,0.501037,-0.47724515,0.13133843,0.5902688,0.20139235,-0.24576336,-0.058554213,-0.32653913,0.2656669,-0.44345045,-0.004346422,0.60442764,-0.5058559,1.2343708,0.5402496,0.46999064,0.28003824,0.57763785,0.32117447,0.2590933,-0.08963968,0.33275887,-0.0072604865,-0.73922884,-0.2924985,0.07311192,-0.4100189,-0.44117656,-0.48741603,-0.15006143,0.837586,-0.019309226,0.7494213,-0.76795805,0.0066012265,-0.024427213,-0.2326783,-0.009376955,0.2759201,0.096169025,-0.6212464,0.52009606,0.18073991,-0.532883,-0.7794797,-0.45290536,0.8944379,0.14453715,0.028760277,0.2990691,0.7720929,0.61544114,-0.104947045,0.033781733,0.71641904,0.15679061,-0.85351086,0.099003315,0.0037066713,-0.19999896,-0.6834824,0.050632104,-0.097529925,-0.2245318,-0.07171939,0.98952174,-0.26716363,0.40889773,-0.30777615,0.011023917,0.37843773,-0.022200584,-0.3095247,0.80092895,0.6824262,-0.014748117,-0.027960429,0.5497975,0.55670714,-0.7163995,0.029992482,-0.22395733,0.43230307
source_dataset:C-33 A,-0.5555777,0.9457423,0.7113569,-0.61061245,0.09317693,-0.90156454,0.28170007,-0.2561662,0.7008745,0.5394598,-0.18352035,0.45428583,0.41899237,0.17903316,1.0385731,-0.5594569,-0.041393116,-0.1612798,-0.9465307,0.013260568,-0.66726536,-0.14291729,1.2049886,-0.43431094,0.43227556,0.77433217,-0.3172602,-0.16674376,-0.11065362,-0.48254046,0.47259432,-0.5347137,0.31234208,0.7437692,-0.8791138,1.5995336,0.16400337,0.86821383,0.003070116,0.63218004,0.61708975,0.82215047,0.24309427,0.28939566,0.8071457,-0.20792368,0.042088635,-0.51132715,-0.05326704,-0.12033719,-0.44120347,0.1544378,1.9402459,-0.44310454,1.1574854,-0.8611167,0.02436667,-0.56113833,-0.53835213,-0.0670881,0.060290173,0.109358266,-0.97453964,1.1053717,0.2907335,-0.5928938,-0.2078643,-0.81738085,1.5833346,0.57666004,-0.1912847,0.5106459,1.288861,0.91469836,0.016895518,-0.13583264,0.76628673,0.77481616,-1.2232873,-0.0012509525,-0.26033187,-0.32207116,-0.6798601,0.5435647,0.6538955,-0.18456838,-0.22295836,1.347635,-0.7791115,0.9668871,0.6750969,-0.17034033,0.3980295,0.037577987,0.4007795,1.0425413,0.8679648,-0.032958217,0.043600205,0.5300222,0.52017075,-1.1555917,0.49398386,-0.718377,0.07086143
source_dataset:BB65-RCC,-0.772627,0.71001524,0.77329767,-0.9348857,0.40968725,0.106372684,-0.90106,0.2799164,-0.065110855,0.5257891,-1.4131087,0.54356706,0.16367899,0.29934382,1.5043308,-1.0657649,-0.15184954,-0.28372055,-2.4998112,0.2235259,-0.66544586,-0.11927239,0.6150242,0.4700545,2.0667942,-0.3341247,-0.66493464,0.043571066,-0.4185883,-0.6945114,1.7554648,0.25974646,1.3588878,-0.7724295,-0.04622652,1.1681534,-1.1903435,0.776473,-0.19799635,0.4483226,-0.29459438,2.487453,-1.0010226,-0.7824762,0.82378,0.5675695,0.5669946,-0.98462206,0.7741367,-0.386905,-0.42519963,0.40572095,1.2718185,0.23769446,0.27642408,-0.83478516,0.63993907,-0.8724901,0.89561766,0.6489447,0.79575634,-0.2399922,-0.41581553,0.77323586,-0.5132946,0.66705734,-0.75887454,-0.5710659,0.34154555,0.8846075,0.5741695,-0.6088307,1.2513958,0.84968007,0.5936813,-0.757083,0.67540914,1.8200228,0.12672837,-1.4497727,-1.3747467,-0.5225359,-0.06753421,1.0715779,1.640333,0.67338663,-0.981642,1.9343405,-0.43880984,1.5205687,1.1024609,-0.7189177,1.0020096,-0.48737904,0.21865368,0.47681108,0.6173809,-3.152184,-0.0539865,1.8085082,0.9892718,-2.2611592,1.6941323,-0.9919403,0.653916
source_dataset:LOX-IMVI,0.49373454,-0.10672101,-0.025831405,0.55481416,-0.30442578,0.5647353,0.06584092,0.0649166,-0.19448845,-0.0012085624,0.070972614,-0.09225291,-0.71996564,-0.54813623,-0.2844127,0.6946116,-0.015415885,0.8639014,0.53957355,-0.21953343,0.13022791,-0.613378,-0.4414073,0.06172183,-0.33281592,-0.55335397,0.100883074,0.28099722,0.15761922,0.24943632,-0.44210765,-0.59290636,-0.7387254,-0.013653191,0.47698125,0.060556594,0.38650358,-0.12897862,0.76597124,-0.18870635,0.22776186,-0.5298413,-0.0787352,0.32939273,-0.27537143,0.04233314,-0.17328635,-0.037624538,-0.049628183,0.09824327,0.2892335,-0.14107442,-0.2710454,0.34885648,-0.5932651,-0.1398012,-0.587101,0.4883691,0.37768328,-0.3499586,0.30087572,-0.3190586,-0.30863193,0.12992167,0.079155385,-0.31057784,-0.39256725,0.10281187,-0.18511942,-0.067312844,-0.2523102,-0.053223416,-0.34649214,-0.29255068,-0.23333964,-0.1555143,-0.1896143,-0.3882991,0.18961218,-0.11296705,0.42368114,0.079024106,0.66915846,0.33464113,-0.78463954,-0.18629344,0.36373967,-0.37827638,0.48499995,-0.429861,-0.15147406,0.29849368,-0.1327679,-0.2992028,0.12940887,-0.3033618,-0.047941215,0.3938926,-0.25855488,-0.33847064,-0.3716991,0.4921555,-0.5411305,0.3889913,-0.5911758
source_dataset:NCI-H748,0.14977385,-0.02823855,0.6060257,-0.6172637,0.046913385,-0.5327008,0.013666582,0.37883237,0.085442536,0.7430749,-0.11983085,0.40931466,0.15248033,0.39081463,0.5171306,-0.1055244,0.3706921,-0.047250547,-0.5627509,0.26926374,-0.38501453,-0.15310666,0.7923107,0.45129296,0.13140205,0.3643582,-0.27287456,0.156538,-0.22652997,-0.38585776,0.34676397,-0.42108947,0.43743896,0.10371424,-0.1593849,0.75755996,-0.16823743,0.06288776,0.11903221,0.72966987,0.42039284,0.83562654,1.0776168,-0.1476235,0.83780026,-0.04218682,0.59371585,-0.26288632,0.4764857,-0.14496298,-0.088969655,0.73887426,0.9744715,-0.22051467,0.5302882,-0.8415668,0.23041223,-0.10713477,-0.37647015,0.16704278,-0.27700344,0.022759497,-0.01989244,1.0065509,0.04612834,-0.3043621,-0.41764414,-0.8099461,1.0851392,0.17018797,-0.06997672,0.20805766,0.67298293,0.81793517,-0.11191648,-0.14100431,0.08600691,0.5631204,-0.5239775,0.10136731,-0.6450708,0.020414673,-0.25280067,0.6277106,0.4820656,-0.0438298,-0.31082126,1.0152336,0.01558321,0.17065068,0.7579775,0.17511968,0.26541528,0.10475411,0.0991742,0.6350857,0.15662158,-0.42703745,-0.29802707,0.40389144,0.09926454,-0.9574129,0.24328797,-0.4535913,-0.16046266
