,E0,E1,E2,E3,E4,E5,E6,E7,E8,E9,E10,E11,E12,E13,E14,E15,E16,E17,E18,E19,E20,E21,E22,E23,E24,E25,E26,E27,E28,E29,E30,E31,E32,E33,E34,E35,E36,E37,E38,E39,E40,E41,E42,E43,E44,E45,E46,E47,E48,E49,E50,E51,E52,E53,E54,E55,E56,E57,E58,E59,E60,E61,E62,E63,E64,E65,E66,E67,E68,E69,E70,E71,E72,E73,E74,E75,E76,E77,E78,E79,E80,E81,E82,E83,E84,E85,E86,E87,E88,E89,E90,E91,E92,E93,E94,E95,E96,E97,E98,E99,E100,E101,E102,E103,E104
target_dataset:SK-MM-2,0.48298356,-0.1770436,0.20465943,-0.2575516,0.45673993,0.75823486,-0.75547105,0.504256,-0.6893536,-0.2510685,-0.54005086,0.43782687,-1.2605716,-0.5600203,-0.52226704,1.0201252,0.33977804,0.5478378,-0.046158463,0.16140479,-0.22373614,-0.4208547,-0.30152407,0.6896231,0.37784472,-1.3777648,-0.27157477,0.567448,-0.5344606,0.3646891,-0.35171625,-0.33757725,-0.16962013,-0.80714923,1.0494914,-0.22577915,-0.74272716,-0.44363475,0.7504966,-0.47238052,-0.33194113,0.50635964,0.40985897,-0.37000394,0.32964975,0.81371266,0.21450171,-0.42042726,0.24871702,0.29100758,0.89311635,0.68738705,-0.32198304,0.46455634,-0.7070092,-0.31590503,-0.31099802,0.47605154,0.67750573,-0.5282512,0.18158793,-0.890855,-0.15360527,0.062329832,-0.46199527,0.21564826,-0.18823238,0.18158156,-0.5147582,0.6845498,-0.57561064,-0.30864877,-0.20916751,-0.3793815,0.25523207,-0.6206952,-0.19651054,0.10015505,0.80690026,-0.6350482,-0.18358529,-0.16087209,1.4313337,0.903016,-0.21077459,0.39451188,0.15544516,-0.1796106,1.1100062,0.1584524,0.51666415,0.6469141,-0.1742694,-0.50911295,-0.08606409,-0.22849599,-0.15501392,-0.28918788,0.087819405,-0.11339244,-4.377216e-05,0.04700717,-0.14736135,0.36640435,-0.24504101
target_dataset:Hep 3B2.1-7,-0.7672381,0.6491816,0.69563293,0.32815576,-1.1433783,-0.38158956,0.79401547,0.13843152,0.500413,-0.03720813,0.71923,0.43676147,0.37021002,0.46837547,1.1976745,-0.9825207,-0.7663186,0.040429324,-0.27163428,-0.6408782,0.1953887,-0.58745617,0.5197339,-1.1798388,-0.28311098,0.65917104,-0.48695567,-0.24463694,-0.18668392,-0.28326163,0.37613437,-0.59527105,-0.73661286,0.7195788,-0.8369794,1.4296225,0.52893955,0.6107438,0.029035553,1.2228177,0.39306515,-0.12059711,0.17120771,0.7449237,0.13302746,-0.61246455,-0.98077905,-0.06898789,-0.20087907,-0.43039858,-0.57063156,-0.41935706,1.2475357,-0.12033158,0.83772063,-0.9633718,-0.13046665,-0.36723962,-0.75477743,0.311512,0.31851417,0.2294819,-0.41616052,0.3487816,0.54894525,-0.7491139,-0.49271417,-0.8699896,0.9015746,-0.5016241,-0.5977187,0.5031266,0.8469095,0.57034165,0.12947069,-0.15323526,0.3933177,0.29379457,-1.4652783,-0.10971742,0.65421784,0.083475776,-1.0195484,0.20257822,-0.2402482,0.0329402,0.9840572,1.2458183,-0.47069156,-0.25607052,-0.45018354,0.032099362,0.41187742,-0.12915277,-0.07585606,1.2578186,0.71262646,0.2137971,0.068259455,0.08853324,-0.008211605,-0.6698803,0.08971026,-0.036548972,0.037214063
target_dataset:HPAF-II,-0.85035884,1.1022165,0.8489004,-1.0448586,0.38653734,-1.4000516,0.24651617,-0.0756835,0.70722663,0.5754715,-0.467129,0.78836846,1.1494786,0.40868813,1.2329551,-0.7430669,0.22784354,-0.8906199,-1.4760656,0.06250479,-0.9371342,0.18273199,1.4582952,-0.0969352,0.7719233,0.94250184,-0.42551276,-0.22757,-0.4749954,-0.77462804,0.88769776,0.034690693,1.0874016,0.6383555,-1.0003648,1.6508311,-0.16141002,0.7171654,-0.35491106,0.94221175,0.45530897,1.7255197,0.4041106,-0.010812908,1.0012064,-0.3347996,0.37132752,-0.47015408,-0.017490888,-0.60031986,-0.64100766,0.45938137,1.8504621,-0.7302624,1.5994011,-1.0182586,0.48833606,-0.6398776,-0.5022351,0.62838846,-0.4430822,0.2130828,-0.8746803,1.2608671,-0.023527998,-0.39936227,-0.118483275,-0.9708388,2.0884306,0.5026459,0.071069345,0.5574718,1.8735722,1.2747643,0.042135227,-0.24230778,0.9372034,1.1492581,-1.1905662,-0.12541223,-0.666821,-0.55286527,-0.7653485,0.57766634,1.123209,0.14019781,-0.6346157,1.873064,-0.63363236,1.3089092,0.8589504,-0.21700749,0.62281245,0.24315706,0.11243466,1.2402184,1.0585412,-0.6854136,0.06631985,1.0163051,0.7934089,-1.7951745,0.91617703,-0.75422585,0.56877136
target_dataset:Panc 08.13,0.7601288,0.17614324,0.00090396404,-0.08843118,0.8948021,-0.19979154,-0.5945053,-0.049007334,-0.5328412,-0.21769623,-0.2348264,-0.2656261,-0.6278748,-0.40585256,-0.4013737,0.7560939,0.7887087,0.587469,0.57752204,0.60239494,-0.0009947326,-0.18462624,0.27786776,0.86579496,0.09195933,-0.7597276,-0.0763588,0.390565,-0.04188714,0.4699768,-0.4374764,-0.45403394,-0.073660284,-0.47265062,0.3942056,-0.37844375,-0.3822554,0.07117592,0.44542003,-0.607545,0.34145576,-0.08695906,0.34319153,-0.11177587,0.77869576,0.63125426,0.6057116,-0.8432448,0.51136655,0.6548281,0.5454779,0.65238196,-0.23212433,0.4020341,-0.50866413,0.28365332,-0.40137747,0.17300649,0.2245855,-0.38909516,-0.35610127,-0.31562945,-0.057686538,0.32395548,0.18057387,-0.13238394,0.61124754,0.22635332,0.06956522,0.47760952,-0.38721412,0.06514655,-0.51439935,0.04872593,-0.29221192,-0.25840402,-0.57685024,-0.08918432,0.16046907,-0.3538718,-0.6229825,0.44329655,0.9110877,0.9218184,0.08043384,0.10155084,-0.12071501,-0.5136685,0.5541593,0.294926,0.9788992,0.70356405,-0.54484236,-0.5583007,0.62045944,-0.49819863,-0.5316965,0.18399389,-0.009522963,-0.7250971,-0.8579528,0.34919944,-0.19971624,0.1715308,-0.6598848
target_dataset:KLE,-0.7665496,0.4467996,-0.42219543,-0.27356955,0.37195706,-1.4178684,1.0415283,-0.40675735,0.9727401,-0.1961157,0.69047254,-0.7657731,0.5162108,0.84306186,0.47071934,-0.6184815,0.20869696,-1.0293703,0.09078575,0.24512541,-0.36821365,0.9930078,0.98831075,-0.13712926,-0.059664093,1.3338248,0.024880096,-0.57894707,0.14746526,0.13292377,-0.11270796,-0.41359922,1.216236,0.6508475,-1.372575,-0.23317607,0.5401219,0.8870907,-1.3160324,0.19933544,1.0362103,-0.34621176,0.044925973,0.20126085,1.1353089,-0.8015534,0.3173808,-0.38372773,-0.21827124,0.33834547,-0.32483685,0.3887818,0.33831176,-0.617658,1.1916233,0.021343464,0.49768928,-0.8503604,-0.30987978,0.91658217,-0.23135127,1.0367109,0.12267666,-0.02208782,0.85617816,0.19891009,1.6841614,0.42651737,0.8211323,-0.3807732,0.24813601,0.8159133,0.11769378,0.93319386,-0.89793473,0.37997904,0.11874401,-0.13573417,-1.7983179,0.27930182,-0.33061287,1.012602,-1.45419,-0.60161155,1.0090133,0.16791143,-0.4824885,0.4374737,-0.63346833,0.69892955,-0.21895349,0.07269547,-0.13561289,-0.28663212,0.4535581,0.34877276,0.43085426,0.07201208,0.33918923,-0.36157566,0.089160964,-0.44020188,0.3832913,-0.16981639,0.7699749
target_dataset:TE-4,-0.29811698,-0.23809555,-0.6478033,-0.09850888,0.7270118,0.41279116,-0.5740215,0.36394316,-0.09915509,-0.42906976,-0.4598151,-0.7820396,0.063730225,0.34662184,0.056929525,-0.43633664,-0.32748348,-0.3434114,-1.085376,0.35522735,0.19641194,0.2842077,-0.23251182,0.26059172,1.1773001,-0.4545924,0.3657323,-0.23236725,0.08042858,0.10535434,0.49310037,0.3427573,1.0627488,-1.2039952,0.12610148,-0.8364924,-0.73333263,-0.0025945902,-0.8237747,-0.60121286,-0.55146974,0.48862982,-0.64970505,-0.86405694,0.15646327,-0.031759255,0.33716157,-0.53884107,0.44526297,0.54142463,0.08434469,0.073089324,-0.6543159,0.4883055,-0.29622436,0.51735735,1.2189968,-0.5701833,1.2678251,0.6030029,0.9109609,0.32293332,0.9299568,-0.72964627,-0.13910064,1.1317394,0.6342722,0.7205265,-0.4451409,0.24881679,0.68509996,-0.67550725,-0.23993726,0.05243967,0.06069962,-0.24243614,-0.40812564,0.37291363,0.5291468,-0.41733897,-0.8442867,0.53735596,-0.22094171,-0.3992877,0.9128141,0.46371585,-1.0087626,0.22042742,0.23943445,0.48402965,-0.047390874,-0.5647686,0.26747394,-0.4728648,-0.30029884,-0.69178116,-0.31589946,-0.95790184,0.08342514,0.58572775,0.28655326,-0.5811038,0.61319965,-0.24019468,1.0677713
target_dataset:KMRC-20,0.39998776,-0.01885175,0.53183585,0.06948681,-0.4276938,1.0294914,-0.4597328,0.4874046,-0.32049143,-0.15776967,-0.4878666,0.5137414,-0.6776879,-0.40454632,0.32493383,0.38466567,-0.38174796,0.7109295,-0.5102734,-0.469007,0.12493056,-0.77891016,-0.41730827,-0.12818165,0.31731325,-1.010985,-0.43506467,0.5833603,-0.46073648,-0.16389787,0.088560656,-0.4676353,-0.58678484,-0.6486012,0.68705684,0.4799619,-0.5737469,-0.6490642,0.6099135,0.10299873,-0.36031178,0.50247973,-0.002238974,0.014939787,-0.4158511,0.5070312,-0.19699672,-0.4520164,0.12277273,-0.26921088,0.60143363,-0.12971182,0.45316762,0.503801,-0.5451213,-0.8300947,-0.038050286,0.18419085,0.65375257,0.022107646,0.79047924,-0.5111319,-0.17619997,0.35453552,-0.2520787,0.093772165,-0.9539201,-0.22806698,-0.27763093,0.34032378,-0.4678542,-0.25669497,0.44035503,-0.46742147,0.43293417,-0.95209414,-0.18413328,0.4929604,0.5058662,-0.72608143,0.48647645,-0.20556106,1.0512592,0.68521965,-0.33092016,0.4862211,0.71457714,0.5616954,0.7486248,-0.4497174,0.06946269,0.20487694,0.4882548,-0.17495093,-0.16093849,0.12536824,0.15491529,-0.34688875,-0.32049745,0.39054656,0.22631909,-0.52731204,0.12932388,0.19012064,-0.21909548
target_dataset:B-CPAP,0.68690884,-0.6613037,-0.15042397,0.059749685,0.12875111,0.8106801,-0.56749284,0.2866994,-0.35754645,0.2639529,-0.6940214,0.07033294,-0.42937857,-0.36815673,-0.18271863,0.74643743,-0.14630845,0.4924975,-0.17415313,-0.0622038,0.32046783,-0.21985689,-0.82427204,0.29282555,0.018900927,-1.0190624,-0.01582869,0.81857836,-0.04447921,-0.3585828,-0.006393075,0.09652799,-0.0024104344,-0.8814243,0.7782559,-0.80661565,-0.4834694,-0.8309824,0.016119435,-0.41155532,-0.47968495,0.31441534,-0.027140766,-0.5866863,-0.79132885,0.69451547,0.38993764,-0.1471736,0.40527412,0.15538576,0.69573104,-0.19991598,-0.7043509,0.20517837,-1.1718644,0.24359058,0.36410698,0.25370598,0.97610825,0.0076248646,0.31064928,0.09552595,0.5969695,0.2067099,-0.46944088,0.5779343,-0.49182865,0.028424226,-0.58090216,0.39071333,0.3989399,-1.320895,-0.34806666,-0.55518854,0.5386985,-0.5615117,-0.26110592,-0.00014434452,1.1013935,-0.4278367,0.41205898,-0.18908763,1.0347414,0.25832084,-0.084579796,0.45231065,-0.03407215,-0.28932834,0.7409792,-0.7544826,0.14911276,-0.19529358,0.36657512,0.21350324,-0.065441966,-0.8937176,-0.33203822,-0.37876368,-0.67249393,0.43040073,0.011123829,-0.3199261,-0.37603888,0.11792368,-0.12129527
target_dataset:A101D,0.94374806,0.4665879,0.689615,-0.74471676,0.9090963,-0.4602887,-0.93978786,0.14601418,-0.6037699,0.31625438,-1.2067337,0.8972228,-0.38737923,-0.25007617,0.12749963,0.45053363,0.7433288,0.2883619,-0.8542038,0.69261587,-0.67254895,-0.38095555,0.5577539,0.92891854,0.8031098,-0.6498593,-0.5780493,0.7615672,-0.3961764,-0.16724655,-0.13332121,-0.4327318,0.5835815,-0.38998878,0.3565901,0.5639896,-0.9054466,-0.21434051,0.051724494,-0.19830081,0.062690146,1.5106273,0.6943676,-0.39223045,0.73725784,0.92492175,0.86238146,-1.0648562,0.6478132,0.07641223,0.65900457,0.7368275,0.87029195,0.0471154,-0.13888785,-0.30841312,0.0720001,-0.043417614,0.2574623,-0.16076598,-0.008427493,-0.26051912,-0.70397663,1.5536094,-0.50583833,0.04492592,-0.17933518,-0.44328278,0.8665758,0.95971787,-0.14357106,-0.18123297,0.99375397,0.28284794,0.4098531,-0.8076776,-0.17592868,1.0918744,0.49087977,-0.6694122,-0.6628497,-0.5151519,1.2493289,1.6675286,0.88214564,0.39499313,-0.29948243,0.57876,0.4831865,0.8807385,1.7401124,0.25207102,0.26400578,0.06617337,0.58747774,0.12075474,-0.13258126,-0.44699073,-0.6404921,0.45726663,0.23645923,-1.050657,0.6694986,-0.49010357,-0.4404581
target_dataset:Panc 03.27,0.38342345,0.45679468,0.7533043,-0.7045092,0.8168014,0.3634592,-0.8377449,0.31633785,-0.24003209,0.42637423,-1.4665902,1.0754334,-0.5125436,-0.6620023,0.5652636,0.49387524,0.09777155,0.13708425,-1.4335152,-0.14576054,-0.8728548,-0.72787374,0.2715023,0.45690292,1.1634188,-0.7470893,-0.2621967,0.66361487,-0.834967,-0.57412726,0.6909771,-0.2932241,0.53809154,-0.55790305,0.63029337,1.0661238,-0.85647154,-0.2721377,0.67178583,-0.29829055,-0.27249995,1.7724675,-0.021848548,-0.38170534,0.15176468,0.59348476,0.34891427,-0.85785127,0.24816915,-0.49954727,0.42614442,0.49146664,0.8941284,0.28583875,-0.19059235,-0.42487618,0.32040638,0.05607485,0.81363416,-0.12854734,0.53086525,-0.53011715,-0.838552,0.884408,-0.71805364,0.15226352,-1.1063671,-0.2580165,0.5826593,1.1503874,0.13500263,-0.13904457,1.3280442,0.1984619,0.6289686,-0.96639836,0.49066857,1.2168599,0.5474762,-0.5850918,-0.5696821,-0.9543378,1.1382004,1.3790898,0.57051253,0.668295,-0.35958946,1.0728415,0.4566525,0.97349113,1.0160867,0.079787955,0.8524119,0.11308202,-0.029733967,0.20255734,0.4994149,-0.8091862,-0.34572068,1.3457668,1.0455748,-1.4426593,0.5197302,-0.4129706,0.002196487
target_dataset:SNU-449,-0.50074327,0.46551454,0.34847018,-0.51295924,0.10137269,-1.1334289,-0.02651696,0.060079087,0.26699612,0.34235853,-0.46942917,0.4944309,0.83357495,0.47396743,0.57055974,-0.80481607,0.2826115,-0.7197706,-1.2872707,0.35925466,-0.48895687,0.26397118,0.9788828,0.22189403,0.8048544,0.5180595,-0.04524487,-0.25628838,-0.13305594,-0.4588278,0.6687259,0.10514281,0.8439335,0.18159609,-0.5175454,0.75719035,-0.20565397,0.65398616,-0.18145093,0.3639597,-0.03131969,1.3078157,0.09708485,-0.11017555,0.60064965,-0.3357239,0.6074667,-0.32310122,0.2857767,-0.2171537,-0.5541873,0.3606099,0.8818901,-0.37556428,0.7075299,-0.3902304,0.689848,-0.44369707,-0.19151765,0.43698907,-0.064120725,0.24616536,-0.3059838,0.6143602,0.02538936,-0.1694501,-0.18625921,-0.6953648,0.91047543,0.37981927,0.43611428,0.21294004,0.99879473,0.7330345,-0.11303212,-0.059923317,0.50581807,0.7789753,-0.42844594,-0.12332501,-0.85924876,-0.37579325,-0.6781456,0.49585083,0.8726107,-0.049760066,-0.7410362,1.0694648,-0.42527002,0.9381846,0.73083925,-0.5237699,0.3871295,0.20526558,0.08022799,0.5257033,0.3844192,-0.47721902,0.09126744,0.9050524,0.55154216,-1.2313062,0.3989877,-0.75375736,0.41494802
target_dataset:Hs 746.T,0.4089713,0.6068661,0.63426256,0.16029906,0.19461142,0.32291156,-0.21869932,0.22307348,-0.18965887,-0.12646087,-0.35264918,0.11043289,-0.7651839,-0.80720484,0.5259729,0.60559034,0.15288462,0.9566748,-0.23902728,-0.006578605,-0.28080687,-0.96758056,0.31580088,-0.03128293,0.5884599,-0.6739341,-0.29252267,0.5054319,-0.07231447,0.1393466,0.0028867647,-0.9344904,-0.5417528,-0.09093637,0.30122083,0.93019414,-0.196995,0.4476247,0.73220193,0.18489602,0.39341715,0.19732721,-0.065933205,0.30376384,0.36755928,0.14288004,-0.17520878,-1.170459,0.2566249,-0.005282883,0.3406461,0.28077662,0.7006285,0.8394532,-0.36398447,-0.3682923,-0.7186235,0.03981021,0.5488629,-0.48260933,0.72411597,-0.50874203,-1.0418553,0.77744734,0.028215835,-0.33190888,-0.61870146,0.20461455,0.22064638,0.33241984,-0.509181,0.47243816,0.42538887,0.09158194,-0.02256532,-0.47305486,-0.20469941,0.46259046,-0.105895035,-0.37665698,-0.012996897,0.29314315,1.0063101,0.87155986,0.06642896,0.24471837,0.48559964,0.54722947,0.29622418,0.24696042,0.44639835,0.4011198,0.20696631,-0.57511514,0.45604274,-0.0542624,0.21319008,-0.15462342,-0.21995167,-0.08755668,-0.22178484,-0.27246264,0.38721314,0.054655835,-0.6632482
target_dataset:U-251MG,0.38879856,-0.29078194,-0.30712208,-0.46459287,1.0285174,-0.363251,-0.7718954,0.48851985,-0.77155954,-0.917302,-0.04519854,-0.19813779,-1.3102291,-0.08564388,-0.9203694,0.6433308,0.84185004,0.2829762,0.7288519,0.8008496,0.14930508,0.12431143,0.08534593,1.4627304,0.55351007,-0.9030073,-0.6371336,0.28048897,-0.72768253,1.0683091,-0.81250113,-0.3912817,0.22139049,-1.1503,0.71291983,-1.0410343,-0.83362174,-0.49825984,0.23707083,-0.7676756,-0.12636878,-0.096950375,0.4545925,-0.8472653,1.1491634,0.8729101,0.20342988,-0.72293955,0.1373855,0.92259157,1.0779021,0.985496,-0.7675174,0.61526054,-0.7243448,0.23922545,-0.1292397,0.15659282,0.40867496,-0.27469605,0.008528888,-0.73585796,0.05662702,-0.3992461,-0.13172923,0.42353603,1.4205306,0.83555895,-0.73879963,0.23227492,-0.904065,0.7399077,-0.680914,-0.15347336,-0.62295526,-0.4693324,-0.7545913,-0.06461094,0.40483308,-0.77998185,-0.20626843,0.5488347,1.0636746,0.7180631,0.28535402,0.5290898,0.23406664,-0.68368083,1.2984397,0.4917312,0.59188765,1.1863832,-0.95129114,-0.96136034,0.15609701,-0.29080325,-0.656973,-0.23325735,0.835352,-1.2208169,-0.5059012,0.53968287,0.016852878,0.71950907,0.08527632
target_dataset:SNU-C1,0.38356623,-0.18779583,-0.7136483,-0.42705747,1.344975,0.28449807,0.14753005,0.1273866,0.030324023,-0.052154608,-0.31961447,-0.60573167,-0.8364554,-0.39348465,-0.78815717,1.0716156,0.6041927,0.11405194,0.52747935,0.26892003,-0.6118095,-0.08779238,-0.11784533,1.0844676,0.2608393,-0.15817012,0.6146298,0.22396879,0.21505131,0.53162086,-0.7194889,-0.5719079,1.2321987,-0.28492466,0.29197982,-0.9317577,0.22912087,-0.0978542,0.12941341,-1.3767716,0.68344927,-0.43028283,-0.58226514,-0.09142634,0.76119816,-0.41193032,0.803587,-0.5814702,-0.29952574,0.5429525,0.2583906,0.83857274,-0.8595948,0.653393,-0.18896085,0.25602168,0.0016624108,0.5629355,1.0015999,-0.3327375,0.15134653,-0.084634386,-0.16991693,0.13131964,-0.13078018,0.58260125,0.45032337,1.292557,-0.47983462,0.2659767,0.3490666,0.66210234,-0.46408147,0.3254014,-0.9170308,0.22685146,0.090004176,-0.30248654,0.47223875,0.1187194,-0.8569419,0.5155244,0.61670464,-0.16310973,0.42183727,0.013354779,-1.0837542,-0.6454068,0.7131769,0.7126893,-0.20781685,0.81248885,-0.5043413,-0.60370207,-0.03585956,-0.6622134,-0.1305797,-0.13954231,0.060659423,-0.3924197,0.38148233,0.18483111,-0.10774977,0.7641256,0.6470981
target_dataset:TO 175.T,0.1055478,0.37261975,0.7170491,-0.30595693,-0.037672076,0.36436123,-0.104879916,0.5843433,0.061388772,0.08717853,-0.702216,0.14701085,-0.041936837,-0.13312624,0.87325,-0.026141023,-0.1890799,0.4010061,-1.13503,-0.17639096,-0.30835786,-0.4652947,0.13132934,-0.090628,0.70467985,-0.23435837,-0.14027058,0.3590208,-0.18675478,-0.618423,1.0124601,-0.3964664,0.568739,-0.32095745,0.010418318,0.60547507,-0.50228244,-0.182206,-0.313781,0.49787083,0.008759849,0.9619796,0.26152456,-0.36068863,0.091451705,-0.029795524,0.306181,-0.6012964,0.6316023,-0.3352003,-0.117119,0.30456853,0.82844335,0.021087378,0.2241458,-0.6164095,0.6185015,-0.64811105,0.90769315,0.486791,0.5194611,0.25968012,0.16747645,0.8661524,-0.1484713,0.3636002,-0.84257054,-0.26605147,0.6379194,0.51910937,0.23229575,-0.71706164,0.65976435,0.41223526,0.19942442,-0.51797,0.28576475,0.82597715,-0.072269924,0.047168832,-0.5475904,-0.107797086,0.44660562,0.20900032,0.63603795,0.43324795,-0.33996147,1.2603896,-0.05301352,0.088932455,0.27183154,-0.26906824,0.87394506,-0.03327856,0.1846221,0.2905349,0.6539724,-0.99372065,-0.5519131,0.6667745,0.31551892,-1.2751757,0.59592295,-0.7385418,0.11027134
target_dataset:OVKATE,-0.010544006,-0.19603327,-0.9027985,-0.23808545,1.6041396,-0.30005923,0.3649814,0.0037434692,0.15931262,-0.5357023,0.07093758,-0.8498887,-0.90830344,-0.22279993,-0.90145946,0.9456903,0.61732703,-0.0865207,0.75745296,0.2926222,-0.7921754,-0.06062716,-0.15317975,1.1059351,0.3945552,0.05534002,0.7245423,-0.35707152,0.27464873,0.98599017,-0.90727645,-0.66033,1.2086483,-0.18939069,0.112983994,-0.20631233,0.069551826,0.10510286,0.15168752,-1.5298947,0.8300388,-0.86387753,-0.8730665,-0.16622198,1.1850351,-0.18046504,0.7363318,-0.4906703,-0.5189084,0.6582925,0.24370447,0.99501956,-0.84557736,0.86267203,-0.15252936,0.29738835,-0.006533824,0.56245935,0.9553293,-0.36215562,0.15183653,-0.13115369,-0.36560822,-0.28408304,0.051479477,0.5060009,0.86102104,1.7800497,-0.64369947,0.14055647,0.31889018,0.7432852,-0.66828436,0.43562204,-1.3075885,0.2883452,-0.15520716,-0.5279852,0.4065833,0.21521667,-1.0210623,0.75219464,0.37398782,-0.39258915,0.31042123,-0.14179145,-1.3238612,-0.7402855,0.69235474,0.8653,-0.36849964,1.0072389,-0.83187556,-0.9120775,0.19450983,-0.47676885,-0.15286215,0.114385396,0.439171,-0.7072732,0.34167445,0.4733753,-0.21396299,0.91634935,0.82480145
target_dataset:AMO1,0.57674783,-0.2979203,-0.23255162,-0.18978715,0.080657154,0.27126455,0.10159931,0.17786153,-0.01723228,0.17169112,-0.3267152,-0.17848617,-0.7677174,-0.29795563,-0.40255842,0.90363884,0.23606548,0.4020303,0.22557588,-0.040528405,-0.42771283,-0.32790908,-0.34155023,0.60332984,0.098548956,-0.37581512,0.33044153,0.4544802,0.11382909,0.32887945,-0.6508145,-0.4368307,0.3236522,-0.27062225,0.4309617,-0.1594052,0.048666224,-0.5444565,0.3196925,-0.8275452,0.4401055,-0.20142092,-0.28820685,-0.24383909,0.23151301,-0.15836444,0.41793978,-0.4147287,-0.16012514,0.18621467,0.56534135,0.43230313,-0.40093085,0.40894353,-0.5310994,0.05474917,-0.011429194,0.48165622,0.8854019,-0.22550341,0.22434866,-0.0852551,-0.2165806,0.038887396,-0.17751272,0.23796003,-0.08311934,0.647517,-0.21327654,0.2940775,0.16055198,0.40518317,-0.21629734,-0.19170022,-0.33811912,-0.12893477,-0.0060357973,-0.20411803,0.41013148,-0.06357531,-0.27332792,0.16979958,0.73308027,0.12350071,-0.08807863,0.056518726,-0.4817661,-0.29726586,0.7053452,0.01942978,-0.01770496,0.626145,-0.047936074,-0.47176063,-0.13767935,-0.4996322,-0.012653636,-0.025451701,-0.24254175,-0.12349339,0.1693483,-0.099260256,-0.23335655,0.45582145,-0.0035458878
target_dataset:CAL-29,-0.68667483,0.7607131,0.38011718,0.35403028,-0.43853235,-0.20978066,0.66519046,-0.19396906,0.57715017,0.0914795,0.45280632,0.04774323,-0.06386423,-0.031428315,0.6806033,-0.38749737,-0.30750814,0.019820139,-0.2572804,-0.48276034,-0.30540577,-0.5889805,0.5496696,-0.24224085,0.08524894,0.524347,0.10806912,-0.12417017,0.1810367,-0.011429526,0.17417149,-0.7423468,-0.38696527,0.69541115,-0.5559294,1.3035305,0.7985091,0.89314485,0.39708784,0.5651881,0.67356837,-0.4628747,-0.16647997,0.69929093,0.56734335,-0.8995811,-0.30610514,-0.06625709,-0.24488777,-0.19064488,-0.6103399,-0.014806591,0.8759569,0.48540896,0.5542214,-0.85193884,-0.3924804,0.036612198,-0.15383826,-0.2529702,0.48710468,-0.2476933,-0.7014067,0.41941357,0.5033706,-0.5818116,-0.60853153,-0.108147964,0.5296547,-0.2502247,-0.3711434,0.79042435,0.4169597,0.6315083,-0.28952292,0.19776879,0.29011506,0.044268057,-1.1241494,0.37563753,-0.11403231,0.32705873,-0.90033245,0.10510685,-0.1302133,-0.38289195,0.13382901,0.76399386,-0.39374074,0.33685833,-0.42854112,0.39639956,0.12274152,-0.43342018,-0.08595765,0.7521251,0.6109229,0.30011192,0.04791712,-0.023006499,-0.054006014,-0.20087877,0.008854223,0.030576471,-0.19912054
target_dataset:MOLP-2,1.069206,0.40414518,0.9600395,-0.86369824,0.6513049,0.9115752,-1.2412776,0.82709396,-0.6461771,-0.20867127,-1.5133412,0.8996428,-1.1167483,-1.080651,0.6555937,0.7532151,0.026518412,0.727933,-1.295337,0.10222362,-0.5418703,-0.94426644,0.04842381,0.65000206,1.3085053,-1.5248601,-0.72288096,1.1346759,-0.8605377,-0.20242806,0.52447754,-0.44475654,0.33984718,-1.2155644,1.0186851,0.50869507,-1.472789,-0.5146702,0.6046095,-0.1914787,-0.52872,1.695374,0.19574133,-0.8393732,0.20825665,1.0304246,0.5877157,-1.2466651,0.62068987,-0.53155947,0.9069063,0.6232185,0.7798434,0.70599395,-0.6739611,-1.187592,0.099290505,-0.08894646,1.2742075,-0.017173124,0.78590864,-0.7167962,-0.39220768,0.853831,-0.8690391,0.5320145,-0.9284585,0.09112233,0.12188938,1.2362765,-0.33133,-1.2982261,0.9305659,-0.076080255,0.8297748,-1.4298744,-0.14476103,1.399644,1.1503248,-0.7429764,-0.46114284,-0.64752346,1.9622153,1.4203081,0.6941725,1.0283989,-0.0032926425,1.1865828,0.9682114,0.5171944,0.99909395,0.35186422,0.80535734,-0.39124817,0.18359269,0.09208988,0.13722573,-1.193175,-0.5580827,1.0209233,0.7031795,-1.4689876,1.2032171,-0.15887102,-0.13507217
target_dataset:ONS-76,0.8561237,-0.49118316,-0.11185713,0.53999066,-0.41686594,0.9323033,0.04907421,0.072387315,-0.06414201,0.31755808,-0.08734214,-0.16265617,-0.34553194,-0.2589236,-0.16027415,0.46332675,-0.3349876,0.8532219,0.20356528,-0.27234414,0.29014775,-0.33205608,-0.48783392,-0.12170743,-0.42850873,-0.48513657,0.1984808,0.5011123,0.34603694,-0.1541991,-0.22523415,-0.19622496,-0.37878603,-0.14575705,0.3032068,-0.29246658,0.10778667,-0.65966284,0.14108081,-0.16432118,-0.2825439,-0.3971439,-0.03812792,-0.06925302,-0.77578765,0.07259361,0.0047399877,0.16552158,0.1252634,0.008993959,0.3337619,-0.41571474,-0.46852213,-0.016681232,-0.7150701,0.09476724,-0.0041562784,0.30408257,0.5054695,-0.1325961,0.24428302,0.24356622,0.3357752,-0.056502536,-0.10281692,0.07971263,-0.58914214,-0.09456725,-0.2278829,-0.07608965,0.26541427,-0.36665794,-0.31536928,-0.25412995,0.31746638,-0.1787385,-0.18609689,-0.36524284,0.3810389,-0.058540322,0.31076884,0.0040241648,0.47105744,-0.013562752,-0.693883,-0.030807592,0.16973954,-0.2823423,0.2729686,-0.89043224,-0.21099211,-0.21333931,0.28945014,0.13128014,-0.1101766,-0.76279354,-0.12547165,0.21527602,-0.6751876,0.22249079,-0.2897327,0.0029748715,-0.6019731,-0.046465985,-0.35220206
target_dataset:TE-14,0.6697579,-0.37083858,-0.26723468,0.2829389,0.26789647,0.46700397,0.15581985,-0.041134678,0.08607554,0.4106774,-0.2704415,-0.38951033,-0.33157808,-0.31957003,-0.211619,0.64680374,-0.08704902,0.5548183,0.18666694,-0.119788826,0.0035185004,-0.25045016,-0.42424244,0.1793536,-0.07983913,-0.29187697,0.5217152,0.43780258,0.46051866,0.0058189183,-0.24784398,-0.3416624,0.2635783,-0.20091249,0.21460326,-0.4298453,0.25520077,-0.041403368,-0.036432832,-0.5225013,0.375063,-0.29740226,-0.22692052,-0.021011371,-0.46404028,0.024868079,0.34622827,-0.09659804,0.10748137,0.16910954,0.36356395,-0.078006595,-0.54486245,0.23514728,-0.7346194,0.15791257,0.039568752,0.29730016,0.80712116,-0.18337414,0.38715553,0.38003263,0.21386926,0.16508438,-0.04759583,0.18989186,-0.37847713,0.33762717,-0.18446203,0.07624639,0.5760879,0.021004155,-0.38137898,-0.05079736,0.00905637,-0.012961302,-0.08244868,-0.33353975,0.4851832,0.08804536,-0.085984886,0.18358286,0.5139818,-0.13106473,-0.22651704,-0.038281772,-0.48159403,-0.28771976,0.23175693,-0.42810908,-0.15437958,-0.081169076,0.23887706,0.23727603,-0.048642807,-0.8453747,-0.057220932,-0.029416516,-0.6539188,0.23119673,-0.10385081,-0.16015483,-0.40995532,-0.010806419,-0.031462025
target_dataset:COV434,-0.66451675,0.47806597,0.22481741,-0.889745,0.68902117,-0.74939007,0.0154567845,0.22868478,0.32462534,0.64473444,-0.6325617,-0.046675384,0.10131953,0.12907325,0.19367108,-0.26437014,0.020884246,-0.62593997,-1.3276066,0.17553352,-0.92999816,0.051542956,0.84536535,0.5437568,1.1143191,0.44298682,0.21852067,-0.25240055,-0.035129104,-0.5580045,0.6704952,0.13475426,1.3174253,0.12470104,-0.3577302,0.854856,-0.2166486,0.70615435,-0.40963253,0.023035258,0.21652469,1.2668974,0.23443861,-0.3224919,0.93547106,-0.5570768,0.71473986,-0.4055404,0.08207623,-0.13819067,-0.52130294,0.39689386,0.7068052,0.09660564,0.7583049,-0.66767234,0.346255,-0.20855927,0.5330761,0.2861701,0.13695276,-0.06903121,-0.59338516,0.63792855,-0.14259127,0.30395052,-0.32753792,-0.040250268,0.7660139,0.6904525,0.5963273,0.32608235,0.86538863,0.91260254,-0.22902687,0.027346546,0.8976079,0.6119356,-0.37090966,0.3551687,-1.2219274,-0.17560415,-0.43593085,0.15697333,0.9116368,-0.0068326257,-1.4007009,0.9490197,-0.334627,1.470575,0.18654151,-0.10186548,0.47606742,-0.18028244,-0.20424423,0.45231128,0.6112666,-0.99875987,0.014100645,0.91016144,0.5505105,-1.2077878,0.5343224,-0.5576859,0.68971336
target_dataset:CGTH-W-1,-0.18131864,1.1779273,0.83969223,-0.7173976,0.6084984,0.35557538,-0.47317156,0.72784853,0.059872583,0.0029814579,-1.0671899,0.42480314,-0.74935657,-0.45628616,1.0066307,-0.010124594,0.15718877,0.28963748,-1.6079118,-0.08338724,-1.0077189,-0.7513796,0.45545632,0.34529886,1.753397,-0.40134495,-0.28147563,0.33835644,-0.59832263,-0.2324907,0.8149922,-0.846639,1.1238338,-0.69949454,0.22741184,1.1775036,-0.9864984,0.49215028,0.21025053,0.11064438,-0.014600456,1.4139099,0.1837448,-0.4603275,1.3044999,-0.058210418,0.48470867,-1.395985,0.29919866,-0.48727,0.13096215,0.8996179,1.333506,0.87381,0.38376674,-0.43829897,0.4162548,-0.4357744,1.2911314,0.35404676,0.96533406,-0.4412206,-0.816158,1.0823957,-0.40082154,0.6090611,-0.7342642,0.3731675,0.4966686,1.0668305,-0.073340416,-0.14374143,1.1826422,0.78104657,0.056088846,-0.8466453,0.3317054,1.4519396,0.025030728,-0.36936185,-1.1101074,0.12750438,0.6847931,0.68093073,1.3396345,0.87051374,-0.5881397,1.7099538,0.11359236,1.0517277,0.36206788,0.33118752,0.7812341,-0.54777205,0.2276243,0.8629321,0.76450354,-1.2583356,0.23521039,0.86461717,0.87134385,-1.7779533,1.1489766,-0.4117273,0.40290108
target_dataset:TE-15,-0.7666629,0.74453324,0.407537,-0.9177983,0.6929749,-0.8531042,0.8705965,-0.044008385,1.0330827,0.76725495,-0.17012829,-0.21955763,0.19536024,0.108332805,0.7790173,-0.14642206,0.32564288,-0.732357,-0.8107101,-0.14418566,-1.3032612,-0.046385065,0.9073501,-0.04640124,0.7250532,1.2557108,0.48750934,-0.33147296,0.2819725,-0.55238754,0.69485396,-0.6179667,1.6096549,0.845707,-1.1094955,1.1258727,0.40260693,1.2118702,-0.7196418,0.36533737,1.1886241,0.4349222,-0.270567,0.077218406,1.3744819,-0.9973421,0.49467325,-0.6147836,-0.17576043,-0.3576696,-0.979289,0.8536369,1.1027925,-0.24248154,1.2146277,-0.6927243,0.30045444,-0.4533669,0.43413603,0.5667337,0.14473917,0.8155034,-0.8223037,1.1665576,0.30190295,0.21324413,-0.09509545,0.15554267,1.5032858,0.5272748,0.59968704,0.96258116,0.8932573,1.6232356,-0.6108764,0.30113328,0.99830544,0.40970066,-1.2788782,0.62038356,-0.9886366,0.35481992,-0.9252465,-0.25659922,1.1403679,-0.028519332,-1.3755991,1.2448273,-0.8383616,1.2760751,-0.23814772,0.007882126,0.6039731,-0.1058553,0.33539015,0.7946906,1.0549916,-0.47319943,-0.14231215,0.52634025,0.6358262,-1.2839279,0.70639193,-0.6076838,0.79241747
target_dataset:VCaP,-0.995457,1.3410022,1.3940736,-1.7776476,0.8897848,-2.3877563,-0.33602297,0.14990501,0.5679728,0.3112384,-0.5411039,1.3322536,1.1483474,0.9360585,1.5698094,-1.4706984,1.0257565,-1.2788609,-1.5959946,0.88274354,-0.8532203,0.69607866,2.6270778,0.5273896,1.0242074,1.0905619,-1.4126544,-0.12249187,-1.2142023,-0.7125717,0.93141484,0.012084663,1.3081582,0.18112181,-1.3126972,1.8023099,-1.2716297,0.58040285,-0.71982676,1.5037156,0.6003275,2.7088246,1.4861823,-0.79709476,2.3723087,0.34956595,0.70769566,-1.1028807,0.5272384,-0.6717636,-0.3528439,1.2150438,2.9093637,-1.3671004,2.2693937,-1.1513318,0.8606374,-1.7489419,-1.3325657,1.8154945,-0.76276827,0.17779377,-0.54067063,1.8277081,0.14604111,-0.5401183,0.90880495,-1.6216842,2.55671,1.3547883,-0.7160527,0.6872561,2.2615132,1.8841697,0.02065225,-0.6767241,0.4036572,2.0494874,-1.649332,-0.8706559,-0.9112222,-0.6624356,-0.8409758,1.9033746,2.3121204,0.7002857,-0.15103264,2.6992657,-0.35076645,1.835126,2.1340294,0.43130362,0.5031483,-0.11980028,0.64768,2.1007543,0.7707758,-0.8645923,0.63414437,0.53759825,0.8245743,-2.4029706,1.6207874,-1.1608502,0.5875016
target_dataset:NCI-H2171,0.6361539,0.09463257,-0.3657259,0.0915189,0.9531243,0.027397137,0.018715063,-0.050207246,-0.17782606,0.05413028,-0.13969976,-0.44751433,-0.86658853,-0.51994455,-0.69554764,1.032018,0.56815475,0.5397231,0.61793226,0.36907917,-0.35332605,-0.38821086,-0.067011,0.75573945,-0.029074863,-0.36194125,0.48171258,0.28364563,0.42734787,0.50154066,-0.8239609,-0.5193658,0.1044381,-0.04571399,0.38807082,-0.2207168,0.28700414,0.086824305,0.5658356,-0.86614543,0.5586712,-0.53768134,-0.19815597,0.18177539,0.5212908,-0.043613147,0.53668845,-0.38018936,0.06570042,0.40403482,0.3164554,0.5900817,-0.5715828,0.61611754,-0.59448373,0.13091224,-0.8331173,0.62277114,0.6137376,-0.56279325,0.1041745,-0.2181675,-0.4560879,0.13013265,0.112142146,0.08201993,0.14681837,0.8301905,-0.13656963,0.13704981,0.0105718,0.5142598,-0.59712934,0.04621853,-0.63610137,0.10062708,-0.21197009,-0.4269961,0.24995117,0.11553024,-0.5329124,0.46857327,0.6246907,0.32014534,-0.159659,-0.2762587,-0.6106299,-0.7162883,0.479224,0.3632143,0.20614429,0.6446756,-0.33083075,-0.668576,0.11931583,-0.6872707,-0.27226523,0.30252534,-0.083758265,-0.63013697,-0.33703703,0.4925636,-0.41379675,0.5021566,-0.2669068
target_dataset:CMK-86,0.59294146,0.27652544,-0.0800264,0.190219,0.74349284,-0.14047857,-0.119963005,-0.24210915,-0.285106,0.11472194,-0.32136586,-0.9767961,-0.58768606,-0.6908807,-0.35355133,0.8117739,0.64662325,0.8032261,0.39738137,0.5163483,-0.4129324,-0.5134903,0.32710195,0.73665076,0.47401336,-0.35505202,0.45268625,0.16166148,0.5873517,0.48029655,-0.34380725,-0.54107654,0.14981364,-0.067931965,0.039472863,-0.15508825,0.06583348,0.6185378,0.102191985,-0.59274745,0.73128164,-0.23880857,-0.13373874,0.29078925,0.685729,-0.25460237,0.44342586,-1.0386275,0.47889018,0.7387706,0.04923076,0.6337032,-0.2092009,0.6455006,-0.55375445,0.17768463,-0.4471873,0.2319398,0.747011,-0.6635729,0.28161246,-0.10784052,-0.5914777,0.43539363,0.3275274,-0.20401663,0.16545276,0.7206609,0.09651703,0.20077127,0.27772963,0.39145103,-0.75540674,0.20329362,-0.35994947,0.013468627,-0.24438366,-0.23277254,-0.13935211,0.23359448,-0.63374716,0.61414754,0.5314736,0.5530767,0.25383997,-0.21290092,-0.70640785,-0.50934,-0.06347717,0.759979,0.63034695,0.34822255,-0.22761735,-0.7011786,0.68031657,-0.7624357,-0.24030994,0.09032893,-0.37806815,-0.5497766,-0.7157579,0.30697283,-0.040863037,0.098826595,-0.6105822
target_dataset:SNU-C2A,-0.9072832,0.5329007,-0.506207,-1.2187158,0.97317374,-1.1475655,0.5796039,-0.38743278,0.636718,0.7294724,-0.5074426,0.23747757,-0.0005633533,-0.08454703,-0.38943735,0.07240395,0.51060086,-0.7212867,-0.7340749,0.13010027,-1.5594443,0.10524332,1.2797632,0.85574913,1.1602248,0.93542415,1.1437781,-0.7841116,0.4193278,0.069367126,-0.0717908,-0.22984678,1.9796891,0.7106187,-0.48110074,0.83960164,0.47513705,0.94375455,0.078116655,-1.0923294,0.827192,0.31549498,-0.9187794,-0.3597942,1.0857061,-1.2377288,0.84592307,-0.28651333,-0.70565933,0.13965188,-0.7046007,0.80723673,0.12959003,-0.0016019493,0.94719476,-0.1616116,0.51257014,0.39488,0.54850817,-0.3075142,0.024642088,-0.13737631,-1.2779989,0.32897514,0.08261518,-0.12864016,0.31798565,1.0273358,0.6899401,0.7253009,0.86825955,0.99382806,0.9533037,1.107892,-1.1026437,0.5362745,1.2381786,-0.16016836,-0.5373313,0.35105598,-1.4232193,-0.07740211,-0.9950024,-0.36498332,0.78433377,-0.54603195,-2.2122562,0.12809461,-0.3421817,2.538285,-0.17161073,0.43442038,-0.18042685,-0.75148606,-0.1847088,-0.11790742,0.56169546,-0.15997334,0.45337373,0.6148399,1.1106998,-0.46151748,0.3932108,0.0047406005,1.3699154
target_dataset:Huh-7,-0.12951867,0.16173509,-0.122766726,-0.51066744,0.80771226,-0.6007924,0.38399887,0.1765514,0.29205376,0.32086185,-0.09825303,-0.17991093,-0.12969694,0.11790918,-0.09479964,0.30466244,0.56201047,-0.21177751,-0.24536733,0.22455367,-0.60030687,-0.031785976,0.5576855,0.6834154,0.42941672,0.45786586,0.34876713,-0.028486572,0.090800315,-0.008565076,-0.12740324,-0.45131063,1.0945112,0.1304149,-0.24422625,0.2721893,0.3413965,0.30426088,-0.07089812,-0.26640964,0.67861444,0.18083939,0.05203597,0.38177904,1.0971849,-0.64054686,0.7135677,-0.37734607,-0.024614777,0.24394381,-0.17158857,0.82998675,0.23450436,0.20341581,0.41689178,-0.3461742,0.22739139,0.14762841,0.45321918,-0.0026334357,-0.023528213,0.120402254,-0.2507993,0.5302577,0.09313412,0.13115387,0.1836095,0.4342121,0.4605835,0.2411856,0.3056235,0.7243304,0.11652969,0.7806065,-0.81342405,0.20242064,0.25192568,0.15552959,-0.4045899,0.26874366,-0.9746658,0.15029272,-0.17702562,0.035383657,0.58343107,-0.12163505,-1.0072961,0.3651957,0.107130654,0.9182001,0.1458709,0.48542434,-0.10297482,-0.3163566,-0.046248894,0.11118227,0.21732754,-0.26832268,0.17449522,0.017899074,0.29928583,-0.4361203,0.22033796,-0.25932562,0.49664885
target_dataset:TC-71,0.27327797,-0.17548054,-0.2661872,-0.1518104,0.34954435,0.17504808,0.33236864,0.3416143,0.21300003,0.10724257,-0.1638637,-0.4223225,-0.53099823,-0.06815418,-0.14536242,0.63810164,0.13987495,0.2210702,-0.059833385,-0.12726837,-0.521763,-0.28678766,-0.063256554,0.42596433,0.27195936,0.036492683,0.4629264,0.119869746,0.1749907,0.15675193,-0.2604504,-0.51861495,0.71625054,-0.10174517,0.049097784,-0.052062318,0.20380192,-0.025274605,0.054482564,-0.6505609,0.6385242,-0.29238895,-0.35317743,0.26175296,0.38567922,-0.37809262,0.3120477,-0.46121955,-0.1858847,0.13479373,0.22079775,0.5696722,-0.27278462,0.47777876,-0.10331362,-0.10237439,0.15296097,0.33759534,0.79394746,0.02000656,0.32679445,0.16773844,-0.16854241,0.23852123,-0.009016897,0.11311334,-0.05504847,0.7580986,-0.11784261,0.09515759,0.33020082,0.55549383,-0.062214423,0.33768708,-0.5233186,0.034715366,0.090040535,-0.204537,0.047122713,0.069776,-0.3187052,0.42227185,0.27145314,-0.19734627,0.18643099,-0.037546203,-0.64664376,0.05458411,0.35717136,0.35576996,-0.3092626,0.48449662,0.1852903,-0.3755791,0.063952364,-0.19550501,0.12648736,-0.23767243,-0.13868162,-0.1722113,0.2829003,-0.25431606,-0.09785202,0.19866273,0.47779632
target_dataset:SCC-9,0.40934488,-0.38356194,-0.120031,0.09257768,0.03090126,0.62066746,0.2945413,0.3109992,0.015450895,0.15825583,-0.26073635,-0.22840731,-0.37084085,-0.23111634,-0.0501493,0.52272725,-0.11662009,0.38145214,-0.00042600185,-0.29210955,-0.1612131,-0.3490903,-0.31108013,0.17238264,0.09355357,-0.15991347,0.3772588,0.36385202,0.15892415,-0.030809429,-0.10203952,-0.4451961,0.2878293,-0.1755828,0.166307,0.03028658,0.13706778,-0.19830872,0.1410217,-0.46516678,0.1582058,-0.1727178,-0.23860995,0.08337308,-0.04114572,-0.19096148,0.21513137,-0.2795671,-0.04734668,0.0017322544,0.1883939,0.083883464,-0.18459919,0.20521766,-0.27777192,-0.14956355,0.18823633,0.32278413,0.8041363,-0.18346167,0.3399553,0.1664098,0.02034216,0.25583103,-0.12164976,0.52463424,-0.46250993,0.37446654,-0.17740318,0.13189593,0.34273273,0.26404482,-0.034652334,0.28054842,-0.059850864,-0.09394369,0.11325617,-0.0884633,0.23961206,0.0698781,-0.2839861,0.18272644,0.3395087,-0.104494154,-0.06833279,0.10928672,-0.40070596,0.09954811,0.35357597,-0.23995113,-0.2830944,0.17803238,0.26378426,-0.0055449237,0.046334296,-0.40648866,0.116113365,-0.12480765,-0.43811712,-0.0015306175,0.20973635,-0.32067737,-0.13524672,0.33153194,0.33812708
target_dataset:A-204,-0.7178751,0.020383544,0.3782349,1.1377813,-1.4698064,0.47387853,0.11720104,-0.020636104,0.08019745,-0.29056913,0.62607366,0.36812192,0.12174253,0.19999307,0.62255895,-0.7616751,-0.9200881,0.11020814,-0.30733323,-0.73491037,0.6210811,-0.48282462,0.14980224,-0.7724823,-0.23955429,-0.1781398,-0.37332213,-0.16808188,-0.3729154,0.16339356,0.044315226,-0.23385443,-1.4606566,0.46562105,-0.013747372,1.2169724,0.59642655,0.1642989,0.80684865,0.6346995,-0.36136845,-0.06331418,-0.027842663,0.8027957,-0.49991545,-0.31319612,-0.9622673,0.27607885,-0.40410453,-0.3488527,-0.17189628,-0.9054701,0.48882627,0.47495583,0.043262526,-0.69611007,-0.50886303,0.23378935,-0.68468004,-0.4224091,0.6149589,-0.64214927,-0.12872729,-0.25311944,0.08556016,-0.8978301,-0.9719198,-0.74796623,-0.118062146,-0.45853668,-0.7526198,0.39616203,0.85796106,-0.1419124,0.26144007,-0.1076174,0.1224873,-0.07368911,-0.6097948,-0.3455658,0.9967497,-0.33332032,-0.7933772,0.3437199,-1.0842407,-0.28200686,1.227462,0.5501952,0.02913928,-0.37078843,-0.35025865,-0.07066813,-0.0073879547,-0.40801996,-0.6387454,0.77312815,0.35642034,0.42707157,0.2572748,0.09820205,0.010408698,-0.1257081,-0.4634184,0.25791264,-0.28256392
target_dataset:IST-Mes1,0.2633687,-0.20858745,-0.58062065,-0.14109702,1.1691996,0.2788799,0.16613051,0.040518757,0.01587089,-0.08536425,-0.13821189,-0.53655803,-0.8491035,-0.30278906,-0.6208736,0.8638513,0.423249,0.14224145,0.33717886,0.12606907,-0.44399643,-0.2070708,0.1538028,0.8385087,0.47082376,-0.19909179,0.596149,0.0046780556,0.17003018,0.42484778,-0.68773067,-0.5777695,0.721576,-0.25109228,0.29255414,-0.699275,0.25133094,-0.07571791,0.23732282,-1.1706384,0.54453635,-0.4579612,-0.3510741,-0.41926163,0.598592,-0.28774074,0.48600805,-0.43978813,-0.37117556,0.40368578,0.39372298,0.6901925,-0.71121556,0.68892354,-0.34842315,0.14172553,-0.045067385,0.42187768,0.88224375,-0.4067339,0.21416008,-0.15364976,-0.23891932,-0.05364058,-0.042929698,0.4952976,0.3882761,1.1688995,-0.4308223,0.19369766,0.19454083,0.36122787,-0.4186816,0.3184502,-0.8052927,0.13074207,-0.05452541,-0.409838,0.15255344,0.059680372,-0.34767008,0.4643262,0.49522525,-0.17321956,0.011689115,-0.044184253,-0.7403418,-0.5224744,0.68334365,0.5124514,-0.137475,0.7557859,-0.43550512,-0.61109066,-0.020804025,-0.35139596,-0.10002108,-0.00755799,0.2360486,-0.42607802,0.116521455,0.2360989,-0.20796601,0.39598522,0.46580964
target_dataset:NCI-H929,-0.4791449,0.1051458,0.28244108,-0.99303514,0.7155462,-0.4151103,-0.7436993,0.0093775205,-0.23319702,0.14139211,-0.69913083,1.1384288,-0.38311365,-0.17531586,-0.21612471,-0.3909623,0.8222229,-0.3572803,-1.0322741,0.13323194,-0.6777195,-0.12091458,0.8973489,0.6871469,0.8355022,-0.23426175,-0.3879074,-0.12632383,-0.4879767,0.059232317,0.01565208,-0.19605835,0.35282645,0.090429425,0.38000208,0.78711474,-0.33775485,-0.05604618,0.4147709,-0.43033406,-0.16792528,1.4846771,0.18425871,-0.12422044,0.6607948,0.16083772,0.39790905,-0.23757079,-0.29664406,-0.047923952,0.032533646,0.5855434,0.49727547,0.033484932,0.36187026,-0.53614897,0.1999821,0.3334134,-0.17159075,-0.5409095,-0.19247992,-0.8813251,-1.0146874,0.43809846,-0.39255622,-0.46415672,-0.37178463,-0.3466245,0.47791326,1.2002299,-0.19883427,0.3419081,1.786973,0.30995423,-0.048387486,-0.32908347,0.76882416,0.5632485,0.08554301,-0.5218897,-0.4473226,-0.87106955,0.24699129,0.9837061,0.14132814,-0.14999466,-0.75887823,0.52057046,0.48874384,1.2768689,1.0298251,0.5889158,-0.18342601,-0.23553628,-0.45236978,0.3807145,0.26452112,-0.29260856,0.19758986,0.6550621,0.7155496,-0.58075917,0.2311875,-0.16490667,0.26737887
target_dataset:IM95,-0.08296968,0.310076,-0.2695287,0.03167989,0.59996414,-0.6053216,0.07241168,0.0053796563,-0.008357167,-0.325456,0.43883908,-0.398526,-0.8364167,-0.18364832,-0.6636073,0.46956733,0.71141064,0.26151177,0.5723624,0.44057363,-0.18120542,-0.2016812,0.554147,0.8718208,0.016197078,-0.090925865,0.2331844,-0.44668674,0.06715098,0.9583713,-0.65746754,-0.6331371,-0.027140293,0.14033036,0.078731656,-0.08578852,0.21761343,0.29745078,0.4618167,-0.21071681,0.80848706,-0.60700715,0.08728075,0.2984708,1.2424811,-0.26891753,0.40210754,-0.24700877,0.0017515523,0.52923125,0.043331273,1.0862918,-0.25459585,0.6754629,-0.07301101,-0.2056286,-0.56945175,0.32066512,-0.03645627,-0.60924405,-0.14028628,-0.44328335,-0.37668648,-0.007866684,0.35294777,-0.30689138,0.69423497,0.70808464,-0.0633293,-0.5316055,-0.49791154,0.8416456,-0.6341786,0.2991902,-0.9727576,0.35701808,-0.3017657,-0.33618727,-0.35752982,0.096688636,-0.6575534,0.6589177,0.01067888,0.38792527,-0.04742355,-0.42342713,-0.18693648,-0.45887387,0.42689255,0.72482103,0.29895484,0.90917504,-0.85452735,-0.91323376,0.17253126,-0.07681057,-0.12527764,0.35575056,0.5063559,-1.1176927,-0.59156865,0.7214972,-0.32011533,0.4876471,-0.27933767
target_dataset:SU.86.86,-2.0759203,0.84260404,0.63929564,0.66787136,-0.8354222,-1.0094172,0.94673926,0.014935101,1.1799062,-0.38415468,0.65127915,0.346773,0.48623613,0.6776747,1.3734285,-1.5694436,-0.32911402,-0.86933464,-1.2389851,-0.757331,-0.4976389,-0.20850147,1.3201625,-0.7803886,0.75873685,1.2211492,-0.1888404,-0.93081653,-0.40973142,-0.078975454,0.75906587,-0.32768863,0.28233948,0.8461063,-1.1726886,2.1222668,0.6836195,1.4178059,-0.15146735,1.1523571,0.51141804,0.4637764,-0.30099538,0.9213872,0.8846369,-1.4218495,-0.808539,-0.27345294,-0.85462004,-0.62477523,-0.9260249,-0.1112647,1.5513508,0.39557973,1.9135332,-1.1789525,0.12589186,-0.6550274,-0.48661616,0.3415076,0.57371336,-0.38236263,-0.943752,-0.30181792,0.4931981,-0.48732576,-0.29652348,-0.37861416,1.050843,-0.20169395,-0.5498736,0.6391094,1.4575169,1.2794174,-0.49606332,0.10944214,0.8839536,0.7232767,-2.0844345,-0.097562365,-0.16260016,0.15009196,-1.8040129,-0.26142034,0.6274657,-0.09146364,0.095747806,1.9394896,-0.73235565,1.1180769,-0.6540487,0.20498163,0.32901984,-0.58154154,-0.5205087,1.7604576,1.2488651,-0.28471673,0.84547096,0.5530068,0.90584004,-1.0577905,0.7245667,-0.18388277,0.9609971
target_dataset:SU-DHL-6,0.83136183,-0.08743293,0.31500566,0.058379725,0.14106944,0.9216718,-0.45009288,0.38626832,-0.015435681,0.05138144,-0.6336923,0.2875272,-0.54628724,-0.383992,0.25824618,0.46095237,-0.17293563,0.50988525,-0.5228688,-0.13280419,-0.014135603,-0.40205374,-0.36029604,0.071505025,0.2084668,-0.75495666,-0.4030326,0.78012866,-0.35698068,0.05670607,0.11950123,-0.41392007,0.0015769005,-0.70899147,0.36877468,0.039502002,-0.6499287,-0.30920112,0.2042397,-0.07640854,-0.18901189,0.53564024,0.16825487,-0.30316317,-0.19654171,0.7190052,0.14661825,-0.7258513,0.25636962,-0.19831672,0.69798225,0.06601285,0.24667642,0.34870183,-0.43716758,0.21819197,0.24324426,-0.104639575,0.7240706,0.20010829,0.48449606,0.056833573,0.14075366,0.31883505,-0.3284663,0.39669502,-0.31981257,-0.085560545,-0.117288336,0.4224201,-0.009312697,-0.44136024,0.31325614,-0.13078523,0.48421788,-0.6830828,-0.26468185,0.5680217,0.54770786,-0.6388356,0.22865048,-0.016134715,1.0552168,0.5768039,0.23602629,0.6146815,0.39525142,0.6076145,0.6397097,-0.52795386,0.34518698,0.13194294,0.4952155,0.040304597,0.15180847,-0.15964343,0.040636804,-0.54233205,-0.46017715,0.37172604,0.29370752,-0.7988982,0.26260793,-0.2093853,0.012271393
target_dataset:Reh,0.7194374,0.1847964,0.18314385,0.19964705,0.7172195,0.15420793,-0.09905711,-0.13050787,-0.22720899,0.25393972,-0.35813412,-0.36607942,-0.7402853,-0.81224453,-0.12615477,0.9083069,0.49199054,0.9171712,0.036870554,0.33313859,-0.34889877,-0.6253863,0.18550572,0.45895386,0.16648541,-0.41234085,0.27957875,0.25115508,0.45110625,0.015087694,-0.20731613,-0.69562566,-0.12899707,-0.025166279,0.39563602,0.16125625,0.14340132,0.43342185,0.23128475,-0.34078836,0.64095736,-0.275028,-0.08697838,0.14130427,0.4492123,0.02578994,0.42381528,-0.90969366,0.38444,0.44253078,0.16160724,0.56347775,-0.041643012,0.6207959,-0.56029475,-0.015879452,-0.28697315,0.31432343,0.64166594,-0.57218707,0.35175362,-0.18618248,-0.86027014,0.64453,0.16286619,-0.25672746,-0.20937046,0.5285734,0.21269606,0.15390997,-0.0045340694,0.15312794,-0.3756439,0.2570735,-0.17297654,-0.14510418,-0.1981366,-0.062103905,0.097913906,0.19525085,-0.39838037,0.46793053,0.7379435,0.6839198,-0.05163523,-0.2070273,-0.28751746,-0.2794336,0.13612887,0.2627957,0.5157596,0.36828628,-0.12581381,-0.38835216,0.65249777,-0.45085216,-0.046681035,0.1431896,-0.26433063,-0.44707257,-0.54459083,0.14124736,-0.013679557,0.14976323,-0.7252429
target_dataset:UACC-812,0.5316063,-0.17361097,-0.1732665,-0.035030782,0.54695535,0.64432514,-0.06945452,0.1141299,0.063266665,0.1721349,-0.47035336,-0.16660458,-0.4117954,-0.4217675,-0.05312692,0.8721811,0.05512494,0.47478405,-0.12888686,-0.17574804,-0.37740535,-0.3835341,-0.23316535,0.3476609,0.31843892,-0.28884748,0.39249104,0.38859135,0.24767946,-0.006296741,-0.24352142,-0.44715738,0.5517885,-0.24460734,0.29431233,0.0064112023,0.11766668,-0.19972305,0.08082181,-0.78227025,0.29068676,-0.017623387,-0.4123785,-0.002897136,-0.058703903,0.08292078,0.45068318,-0.48907295,-0.14491999,0.030238895,0.2780718,0.25581032,-0.2178802,0.3509337,-0.30910635,0.0010684114,0.16836481,0.44567227,0.9729832,-0.30085123,0.42446262,0.11990843,-0.18332982,0.27138457,-0.18819387,0.06249556,-0.34539628,0.60078776,-0.022730052,0.4367662,0.44605422,-0.3658068,-0.021907676,0.16275583,-0.13700268,-0.21618122,0.10584689,0.0062894356,0.49503583,-0.083498,-0.26865444,0.13860437,0.6333638,0.032334276,0.020942427,0.16189203,-0.59730834,0.024984898,0.41729712,0.13911317,0.008615077,0.22589517,0.22825207,-0.13249311,-0.24955967,-0.43017134,0.07694879,-0.18821062,-0.41213873,0.29205936,0.3857946,-0.3935344,-0.072740495,0.08140712,-0.010966986
target_dataset:59M,0.5197833,0.015368587,0.24947417,0.21157488,-0.07565737,0.68739575,-0.13019517,0.15253401,-0.1593256,0.057660203,-0.3787981,0.050497364,-0.50317824,-0.48177233,0.1724926,0.5695272,-0.12408023,0.7022916,-0.16666925,-0.2148972,-0.12603305,-0.63355416,-0.27796227,0.0009969175,0.067680135,-0.54407597,-0.07239852,0.5057228,0.043567736,-0.0803049,-0.122003205,-0.45332462,-0.26632124,-0.2842936,0.3294749,0.25863636,-0.1238658,-0.20943192,0.4453503,-0.16717812,0.14287512,0.04257921,0.03844812,0.106409974,-0.19650346,0.11326038,0.08013442,-0.39797607,0.10852189,-0.091085196,0.4323587,0.0332069,0.213384,0.33178902,-0.5006708,-0.41543645,-0.10590445,0.18271628,0.6004122,-0.12656279,0.530165,-0.039738055,-0.27474278,0.61484194,-0.059557576,-0.015698072,-0.5968754,0.051894035,0.04757178,0.27232978,-0.031888172,0.002525486,0.15833277,-0.18826841,0.35737178,-0.41968158,-0.14903907,0.17405793,0.2932128,-0.31723005,0.24454284,0.06009887,0.7112471,0.49409097,-0.19744895,0.26957956,0.29996505,0.30568677,0.38232523,-0.36985803,0.1294846,0.17962644,0.37923,0.16035351,0.23891234,-0.09728797,0.09650954,-0.061727107,-0.5004301,0.16684127,0.015326353,-0.39500266,-0.05793552,0.18961301,-0.2999399
target_dataset:JIMT-1,0.9961822,-0.5503737,-0.1919003,0.16760881,0.38868594,0.49541652,-0.010659648,0.14567947,-0.014691107,0.35961968,-0.3104642,-0.10356815,-0.41150638,-0.37533215,-0.20925729,0.7852125,-0.045606878,0.3064763,0.17863503,-0.140858,-0.030824672,-0.26710188,-0.94139993,0.24752365,-0.23325107,-0.54802,0.28600135,0.63781506,0.29569215,-0.07421378,-0.2567344,-0.24188048,-0.0073230304,-0.26280975,0.5720463,-0.3746891,0.12722462,-0.61087394,0.14566821,-0.39412755,0.0073258094,-0.21361613,-0.031794075,-0.07061828,-0.56278527,0.28069416,0.32223865,-0.077423476,0.14055018,0.055790342,0.46372035,-0.08326728,-0.47847384,-0.07733189,-0.7621187,0.062517375,0.0656914,0.46329656,0.7053801,-0.16917606,0.16801067,0.21611059,0.24644643,0.26680833,-0.21456364,0.30145282,-0.5296479,0.06653537,-0.19994512,0.19027878,0.3450291,-0.42378432,-0.3324738,-0.21208021,0.15196428,-0.16249701,-0.09204313,-0.25818357,0.608014,-0.14046733,0.28704643,-0.06791727,0.7057196,0.115397625,-0.35085267,0.062064864,-0.1994124,-0.31462905,0.5014613,-0.7143553,-0.036496274,0.04744493,0.20701085,0.19638155,0.02994532,-0.87635475,-0.09174513,0.06503465,-0.7122422,0.039031282,-0.059715703,-0.11428478,-0.5135234,0.04367788,-0.21613175
target_dataset:TM-31,-0.1788395,-0.0009185076,0.17422599,0.30748802,-0.42655575,0.21040973,0.6116399,-0.111342974,0.64061964,0.40181434,0.041995823,-0.35417807,-0.24240628,-0.40061593,0.4043639,-0.030345414,-0.464733,0.29050043,-0.26205608,-0.60954314,-0.31282035,-0.6377805,-0.15923913,-0.65043074,0.11339165,0.21361206,0.48938423,-0.10273162,0.49754483,-0.21223533,0.22868684,-0.49015474,-0.22451243,0.45358473,-0.24643531,0.8508648,0.99284637,0.54883796,0.4031241,-0.05711075,0.3711343,-0.2831668,-0.6294923,0.43477312,-0.33599126,-0.56794393,-0.34440404,-0.07707209,-0.3483846,-0.26885912,-0.4775049,-0.36250758,0.4012548,0.24442816,0.04801072,-0.3527466,-0.118546784,0.1843619,0.41598845,-0.12685369,0.6036406,0.09904321,-0.52636683,0.3433045,0.28412855,-0.33103856,-0.8391522,0.06856373,0.38642183,0.04802005,0.28490078,0.020991534,0.36659554,0.23263204,-0.10560398,0.12183831,0.4290724,-0.1561406,-0.5101175,0.24750388,0.050598796,0.039650645,-0.31470633,-0.14827353,-0.37412733,-0.36239943,-0.1822797,0.39448732,-0.40755868,0.13078243,-0.6100552,-0.16492482,0.44263762,0.002760224,-0.1266803,-0.12385906,0.62775046,0.22246706,-0.36149445,0.43711272,0.19396482,-0.25710252,-0.22670068,-0.02146919,-0.053939752
target_dataset:Hs 695T,-0.7008659,0.83921015,0.12415625,-0.93491757,0.6580745,-0.91695243,0.4286364,-0.32197598,0.71103454,0.6427922,-0.39724573,-0.11652826,0.19062877,-0.006797554,0.43617645,-0.06378271,0.35206947,-0.83303475,-0.9557155,0.10670784,-1.2011331,0.0010783933,0.94455343,0.27968717,0.7674448,0.91392446,0.5456275,-0.32019213,0.36547515,-0.32313603,0.28465176,-0.3849763,1.1757805,0.60527384,-0.73694044,1.2487943,0.5218854,0.9824129,-0.057186335,-0.2278189,0.8384488,0.58533466,-0.29301652,0.31023765,1.0400157,-1.0539143,0.5026022,-0.46828225,-0.27360773,-0.13264343,-0.65366113,0.5179923,0.97548777,-0.15773201,1.07521,-0.45931923,0.3382507,-0.14956692,0.15316668,0.12564175,-0.0035174014,0.16059583,-0.9273695,0.91282254,0.13552667,-0.21589863,-0.07633641,0.090358555,1.3371756,0.66031754,0.49912253,0.7092916,1.2404217,1.0916075,-0.49208048,0.18440416,0.84216046,0.23735346,-0.9236271,0.31013718,-0.89133084,-0.1529776,-0.5744404,0.2348614,0.86531526,-0.24892014,-1.2358271,0.8293302,-0.602702,1.6884437,-0.16408005,0.15404564,0.36258182,-0.096067384,0.072675735,0.31255773,0.75656027,-0.17622659,-0.018581223,0.7162293,0.807621,-0.9606686,0.41764814,-0.36723208,0.53858846
target_dataset:CL-11,0.9406472,0.21450047,0.28393376,-0.081874184,0.5683413,0.18024166,-0.2345216,-0.1282365,-0.1889328,0.54423296,-0.75211954,0.013452919,-0.34377533,-0.6781029,-0.09863712,0.8215431,0.37012076,0.5863485,-0.23415284,0.48820508,-0.48241875,-0.40931994,0.14396769,0.3548754,0.28662258,-0.41641656,0.19947243,0.43029076,0.4495013,-0.2639339,-0.064358905,-0.4305688,0.15519434,-0.071437694,0.28687567,0.2959542,-0.013975104,0.2607153,0.47796178,-0.35393006,0.4299308,0.3393591,0.05480226,0.057624344,0.112020336,0.14472954,0.5646404,-0.8402693,0.48701623,0.05340042,0.25231272,0.27331388,0.23979376,0.26659638,-0.48025912,-0.32532337,-0.19594267,0.23613976,0.6192205,-0.3266955,0.24034745,0.091203615,-0.6437082,0.91426855,-0.032129012,-0.15450881,-0.45309913,0.08717735,0.54836047,0.625585,0.39482868,0.0273055,0.12802508,0.12982652,0.085433766,-0.27272806,-0.07303549,0.28003913,0.28376538,-0.16941664,-0.41666758,-0.022250732,0.89198154,0.71621114,0.19806562,0.21155828,-0.44000342,-0.10070891,0.028832953,0.25844613,0.71556604,0.08132342,0.33409914,-0.022181513,0.56818855,-0.8723782,-0.006656617,0.10003464,-0.66275316,0.11297748,-0.09191087,-0.43624198,0.036350284,-0.25764778,-0.595725
target_dataset:Becker,-0.26981243,0.24859987,-0.2825773,-0.52172244,0.9118502,-1.2437615,0.99529785,-0.6718202,0.8050119,0.3067343,0.33461955,-0.80277544,0.16943483,0.03300485,-0.14649072,0.28352833,0.6196286,-0.466162,0.4301681,0.5683314,-0.8838806,-0.04764697,0.6260694,0.3212308,-0.0006945124,1.176833,0.624672,-0.49774626,0.6829435,0.24954468,-0.56374925,-0.6849426,1.0094024,0.96880496,-0.7623497,0.45293534,1.0285604,0.98390734,-0.3786418,-0.48047563,1.478347,-0.6672875,-0.5970398,0.2951535,1.1217718,-1.0726113,0.5183615,-0.38845542,-0.49556825,0.34606385,-0.564906,0.76020783,0.13673076,-0.1713788,0.83787006,0.032464534,-0.2618926,-0.007687755,-0.17881283,-0.12335737,-0.3188345,0.5263223,-1.0134475,0.49406695,0.67319834,-0.42905372,0.8817922,0.75604975,0.9651816,0.24462445,0.43399513,1.1168233,-0.056335986,1.0580273,-1.1559511,0.50010395,0.41143924,-0.4361731,-1.1534314,0.5285237,-0.78223073,0.6428357,-0.6823459,-0.25595918,0.5393737,-0.50042444,-1.2882582,-0.16033864,-0.5582491,1.2480044,-0.076600924,0.5451243,-0.26388258,-0.14885806,0.607858,-0.15829591,0.38184258,0.48918837,0.21227272,-0.55729294,-0.104844466,0.1828298,-0.013012297,0.20254026,0.53861415
target_dataset:NUGC-3,-1.561716,0.957137,0.9411256,-1.2719078,0.4026791,-1.6038867,0.2653202,0.02032914,0.8918009,0.15713587,-0.2158227,0.781124,0.7907135,0.67842454,1.3994536,-1.3298342,0.19312379,-1.1538067,-1.7213943,-0.0021433756,-1.143122,0.07868485,1.693121,-0.22602013,1.1148143,1.354423,-0.44862387,-0.64548635,-0.67182845,-0.6569476,1.0415267,-0.4585352,1.2938843,0.79381126,-1.214474,2.1367476,-0.09696231,1.1935745,-0.44251212,1.1042913,0.68632174,1.5988616,0.45979026,0.0011770129,1.5194768,-0.9256183,0.24607785,-0.5209742,-0.19298863,-0.5784396,-0.7848126,0.7662155,2.0944402,-0.32203436,2.0727577,-1.3797718,0.35498226,-0.5872085,-0.697398,0.24040294,-0.093401544,-0.018813832,-0.8164817,1.3607814,0.1607515,-0.46786156,-0.22716638,-0.90135056,1.896715,0.61464363,-0.09648986,0.80198103,1.9751464,1.7280056,-0.27782315,-0.07279365,0.9590039,1.2257031,-1.7098087,0.18338287,-0.9350929,-0.11102387,-1.32682,0.4814371,1.3925563,0.06791843,-0.7667187,2.269068,-0.76368326,1.7529514,0.7406511,-0.0025919154,0.5826392,-0.08613669,-0.19115919,1.7383165,1.2316746,-0.8022729,0.4352221,0.94436395,1.0528158,-1.87795,1.156779,-0.92708427,0.79710305
target_dataset:Hs 571.T,0.33585212,-0.17152523,0.18483695,-0.27884236,0.39440855,0.32028806,0.27301863,0.0123943165,0.38019076,0.97036994,-0.57059616,-0.16799325,0.074992076,-0.3036928,0.39835167,0.43856853,0.057636894,0.4199767,-0.5997566,-0.20404205,-0.54052365,-0.1905518,0.23578592,0.06422599,0.33989203,0.13912292,0.47499683,0.3852085,0.33955896,-0.5119093,0.34203032,-0.36163712,0.6815742,0.12644073,-0.14750136,0.3418312,0.25290304,0.15615946,-0.1303932,-0.16540559,0.37764362,0.30607152,-0.1607758,-0.07882982,-0.18573692,-0.33574307,0.54560626,-0.23806092,0.14487995,-0.22034688,-0.14329335,0.06351277,0.36163583,-0.1787172,0.1637345,-0.3431436,0.478268,0.08048679,0.85294795,0.0804601,0.3138873,0.26574033,-0.16521719,0.80678695,-0.08656212,0.18185829,-0.73450404,0.0049684756,0.6072435,0.5442684,0.67692107,-0.2219612,0.38213852,0.46190196,0.082601085,-0.0834026,0.51806885,0.23087701,-0.03903454,0.28280446,-0.5492155,-0.08715139,0.16955104,0.0005933307,0.3581861,0.04537768,-0.8994118,0.5332064,-0.21119258,0.29553932,-0.17333722,-0.15615256,0.6722797,0.24499008,0.20031682,-0.09138322,0.47596171,-0.32075194,-0.80721956,0.6852689,0.40749544,-0.868515,0.09187627,-0.3396066,0.15955049
target_dataset:RVH-421,-0.4907228,0.4078757,0.44206846,-0.6472467,0.819871,-1.6946216,0.9919923,-0.5369513,1.1291319,1.3273911,-0.09683036,-0.08409369,1.0765815,0.37495792,0.6029612,-0.36109066,1.1612315,-1.0499054,-0.60521,0.46374944,-1.1478895,0.32406005,1.4399009,0.16771054,0.0022611637,1.6560317,0.3032614,-0.36055672,0.42153496,-0.8182635,0.55242527,-0.32348922,1.4111739,1.4517047,-1.4576731,1.2130713,0.7602625,0.88184327,-0.703505,0.6735636,1.3208873,0.4503328,0.32788053,0.123821124,1.2146436,-1.1439704,0.93436825,-0.09749647,0.0062245335,-0.16628692,-1.0060145,0.6830399,1.3412683,-1.1355557,1.6648339,-0.73988533,0.108214185,-0.3892498,-0.8753306,0.4138014,-0.655047,0.8223482,-0.87208766,1.4698496,0.48708275,-0.63521963,0.21519426,-0.7839546,2.729627,0.6953382,0.6507655,0.79922605,0.9948861,1.5158118,-0.54088384,0.5250577,1.2020913,0.34388095,-1.6319212,0.69126636,-0.99988955,-0.18332347,-1.1631725,0.18314512,0.9750486,-0.5409479,-1.549598,1.0232973,-1.2754643,1.3464595,0.52398556,-0.09673002,0.4427023,0.44141993,0.52236956,0.5944878,0.7777202,0.104744,-0.25145367,0.46064767,0.41020173,-1.157454,0.29185963,-0.9336705,0.21697819
target_dataset:TE-9,0.26368904,0.07793283,0.4503285,0.24296108,-0.49674118,0.6846267,-0.23547024,0.4006567,-0.16715792,-0.2318089,-0.3359784,0.3356369,-0.5395609,-0.35749337,0.6419961,0.29344964,-0.3912217,0.5585755,-0.43312424,-0.45714164,0.08081423,-0.7525277,-0.24242087,-0.32813048,0.21361685,-0.6462575,-0.34431607,0.5028528,-0.2874338,-0.003793016,0.01817375,-0.54198784,-0.5032689,-0.4319304,0.38991353,0.57351375,-0.2465888,-0.1771428,0.4356615,0.07942009,-0.10838906,0.32768565,-0.11375105,0.10676101,-0.2839928,0.39125255,-0.435126,-0.62957126,0.023791365,-0.2903151,0.4617589,-0.16242771,0.46836337,0.49239075,-0.4288493,-0.35600114,-0.1151355,0.07605801,0.5114512,-0.06807776,0.67558247,-0.28575844,-0.23570445,0.49849623,-0.20529248,-0.057092033,-0.77258456,-0.13563374,-0.098367855,0.22643216,-0.29962155,-0.058852434,0.45354223,-0.07071042,0.38907704,-0.6161014,-0.209771,0.43236998,0.2543525,-0.53683925,0.40483114,-0.06897523,0.66079164,0.56735474,-0.20496704,0.4549325,0.67677075,0.5785601,0.508072,-0.4401353,-0.010414978,0.17148131,0.49901503,-0.067751676,-0.049725384,0.33774477,0.15286095,-0.2304867,-0.33288318,0.34722182,0.28359962,-0.57014436,0.12512136,0.14372142,-0.22577219
