,E0,E1,E2,E3,E4,E5,E6,E7,E8,E9,E10,E11,E12,E13,E14,E15,E16,E17,E18,E19,E20,E21,E22,E23,E24,E25,E26,E27,E28,E29,E30,E31,E32,E33,E34,E35,E36,E37,E38,E39,E40,E41,E42,E43,E44,E45,E46,E47,E48,E49,E50,E51,E52,E53,E54,E55,E56,E57,E58,E59,E60,E61,E62,E63,E64,E65,E66,E67,E68,E69,E70,E71,E72,E73,E74,E75,E76,E77,E78,E79,E80,E81,E82,E83,E84,E85,E86,E87,E88,E89,E90,E91,E92,E93,E94,E95,E96,E97,E98,E99,E100,E101,E102,E103,E104,E105,E106,E107,E108,E109,E110,E111,E112,E113,E114,E115,E116,E117,E118,E119,E120,E121,E122,E123,E124,E125,E126,E127,E128,E129,E130,E131,E132,E133,E134,E135,E136,E137,E138,E139,E140,E141,E142,E143,E144,E145,E146,E147,E148,E149,E150,E151,E152,E153,E154,E155,E156,E157,E158,E159,E160,E161,E162,E163,E164,E165,E166,E167,E168,E169,E170,E171,E172,E173,E174,E175,E176,E177,E178,E179,E180,E181,E182,E183,E184,E185,E186,E187,E188,E189,E190,E191,E192,E193,E194,E195,E196,E197,E198,E199,E200,E201,E202,E203,E204,E205,E206,E207,E208,E209
source_dataset:FU-OV-1,0.0057163835,-0.7782481,-0.48873347,-0.36214584,0.65435934,0.4601544,-0.015940793,0.27117157,0.08979738,0.9000304,-0.08301383,-0.16194892,-0.36725938,-1.3222241,0.34178627,-1.0650085,-0.32890993,0.21021897,-0.374856,0.79981756,0.2728627,-0.5385759,0.81124645,-0.69012165,-0.19467798,-0.635506,0.5799486,0.08128011,-0.34741586,-0.09678441,0.80403495,-0.108681254,-0.9414054,0.24527732,0.4035936,0.14314477,-1.0503209,0.5160823,-0.72097856,0.4085366,0.055235654,0.04533927,-0.46755442,-1.0267165,-0.10061708,0.00032514334,0.27931294,-0.14053121,-0.8316146,-0.11327247,0.8162529,-0.19813815,0.96749306,0.44629943,-0.39550358,0.39490393,0.4563139,-0.91445065,0.5829234,-0.7948773,-0.09348674,1.3076851,-0.2285252,0.40180683,-0.8761109,0.9946064,0.2882261,-0.68480587,0.807273,0.109853424,-1.0697373,0.38097495,0.15854058,0.047635615,0.41025764,0.27977902,0.46124586,-0.13788706,-0.25319773,0.6634503,-1.0928333,-0.5511737,0.86401397,-0.084576026,0.00032794476,0.087194145,-0.79957455,-0.17705289,-0.76027274,1.1446781,0.37377602,0.7870566,-0.051619403,-0.13875012,-0.23839696,0.07189496,-1.3206526,-0.5799806,0.6001622,0.5948577,0.14383978,-0.29635575,-0.637471,0.45246112,0.16127494,0.02704078,1.035961,-0.5172178,1.8528838,-0.17937103,-0.5789248,-0.48452502,-1.7108772,0.85519844,0.53337634,-0.5020035,-0.8878959,-0.5947345,1.6748623,1.8725905,-1.572542,-0.5246948,1.1015769,-1.8832644,-0.646368,-0.24214366,0.42129993,0.12027016,0.506942,-0.79985404,0.07589063,-0.3552634,-0.78521454,-0.6958286,1.1875595,-0.9119823,-0.7774912,0.92627275,-0.24310774,-0.792161,0.6311561,-1.3463222,1.5642964,0.639537,-0.39565945,0.75465316,-0.37411958,0.7008436,1.4337994,0.59425694,1.6531619,-1.0784161,-0.5727066,0.71229076,-0.7209004,1.2220567,-1.0672394,-0.6157269,1.6399063,-0.03696251,-0.083999604,1.6813575,-1.4645842,-0.71300185,-0.6743637,0.9088154,-1.0174912,-0.6551551,0.6190047,-0.53136754,1.3504326,1.6271783,1.16394,0.003348479,-0.047433868,-1.6186101,1.7245966,-1.8613079,-0.67214453,0.5323095,-1.1863475,1.0865102,0.36885977,1.103068,-0.7991027,0.3558966,1.2691331,0.30149096,-0.51196635,1.0719992,-0.5991013,-0.5442423,0.5696741,-0.028690264,1.527576,-0.28272215,0.47170657,0.8896255,0.32887203,1.291771,1.4104329,-0.9078673,1.1893759,-1.1180154,-1.2679468,0.06796468,-0.52022094,0.24975261,0.5880841,-0.52593637
source_dataset:GaMG,-0.6228241,-0.35695758,-0.053601474,0.65612817,0.21713994,0.33205816,0.10036386,-0.078740895,0.14372817,0.6151868,0.09793897,0.19841337,0.5632136,-0.6682069,0.034211814,-0.30284312,-0.27182645,-0.51311547,-0.29668683,0.5563376,-0.023870856,0.26872173,-0.046075635,0.22183722,0.051449195,-0.3872083,0.026492953,0.30876154,0.45138288,-0.02287054,0.012582898,-0.44374174,-0.39019278,0.4301973,-0.2542987,0.20393175,-0.5257815,0.21407825,0.25853127,-0.5772276,-0.29975414,-0.011342183,0.08099504,-0.019677281,0.13278872,0.27302584,0.05354446,0.30873963,-0.74977326,-0.50945836,0.07364033,0.25479752,0.43784088,0.22565383,0.5073818,0.2447231,-0.39826125,-0.09728141,0.42036113,-0.31198198,-0.54187596,0.8701552,0.34468332,0.31780308,-0.4825067,0.26979068,0.39302897,-0.4237718,0.29484937,0.21185477,-0.78593546,0.4982636,-0.53151834,0.01987937,-0.0035095438,-0.65517795,-0.35081413,0.2751156,-0.11618045,-0.057832778,-0.70048803,0.08787501,0.10688836,0.38261583,-0.021764725,-0.0021772087,-0.3938433,-0.2123699,-0.73645115,0.4711179,0.20000716,-0.19743097,-0.2839902,-0.58535844,0.07696232,0.12272833,-0.3666133,-0.09996012,0.54262066,-0.2300306,-0.17775522,0.44013193,0.19507794,0.4987977,0.6572547,0.38975203,-0.27000093,0.048771955,0.42117187,0.2554529,-0.343507,0.08207889,-0.340509,0.035887666,-0.06432159,-0.3554968,-0.46962714,-0.29007196,0.3180664,0.3402412,-0.46802157,-0.17089206,0.12302391,-0.49948502,0.18415718,0.3702569,0.099619865,-0.2630934,0.17817235,0.109138176,0.3343301,-0.25635412,-0.4503121,0.1497789,0.1564155,-0.2304309,-0.2653388,-0.13968721,0.3067576,-0.12029781,0.34073928,0.27771318,0.16683301,0.15917283,-0.050545808,0.3488065,-0.414835,0.22320752,0.06341962,0.23372492,0.12315023,-0.22501867,-0.07674469,0.25682756,-0.36253467,-0.17213032,-0.17078845,-0.18973571,0.2959706,0.28497812,-0.029952442,0.51861703,-0.28226972,-0.2895151,-0.24894214,-0.22279632,-0.37545902,-0.43004587,-0.30262926,0.057429105,0.38286328,0.5098612,0.4528782,-0.016472496,0.08495025,-0.3495325,0.29061267,-0.5087911,0.11812589,0.113592006,0.0591366,0.22554182,-0.14881611,0.4197241,0.13120109,0.2725555,0.15685828,0.27136135,0.2035763,0.272824,0.26442713,-0.10294701,0.32353693,0.06529816,0.37323898,0.38838047,0.13727006,-0.056693554,-0.015161164,0.20547691,0.17320174,-0.2151171,0.39449978,0.15636252,-0.36842552,-0.003577143,-0.08341847,-0.25553048,0.08826809,-0.17264143
source_dataset:C-33 A,-0.4336338,-0.17138363,0.078185156,0.47691512,0.09359991,0.41570494,0.07936214,0.23764993,0.3098902,0.40624273,-0.21841082,0.47452772,0.3472703,-0.14395739,-0.22824115,-0.39108938,0.043484166,-0.4125082,0.22968234,0.096427225,-0.37322217,0.054546446,-0.11256142,0.17246577,0.20885862,-0.48176754,0.3523622,0.3261996,0.1433638,-0.36774585,-0.115586996,-0.16570829,-0.16907114,0.26685354,0.1540626,0.3160938,-0.10023045,0.22746225,0.17934904,-0.39070052,-0.40763304,-0.18842143,0.32048407,-0.49012426,-0.46774134,0.24611238,0.15698454,0.39162627,-0.41662812,-0.33948746,0.20500295,0.36600706,0.23495597,0.06648253,0.12044745,0.46021244,-0.3610403,-0.24012221,0.3017738,-0.27035028,-0.30503368,0.36684972,0.0948388,0.09104489,-0.14254038,0.038106807,0.39589736,-0.30426195,-0.061488055,0.1475116,-0.24152339,0.47855276,-0.23002309,-0.17813435,-0.17626232,-0.27797037,-0.38998765,0.28675243,0.14250095,-0.35514376,-0.37677044,0.4025606,0.15029904,0.112507135,-0.32915407,-0.15003896,-0.0708213,-0.055231627,-0.33214188,0.002714023,0.07321898,-0.074723184,0.058953308,-0.21731247,0.062762655,0.105633184,-0.2454136,-0.45783326,0.18548103,0.116748475,-0.20799878,0.47219098,-0.23458618,0.3431042,0.15939087,0.7114702,0.34674767,-0.21629436,1.0469478,-0.20520988,-0.62733126,-0.40102923,-1.3751829,0.397795,-0.1517222,-0.54866105,-0.552202,-0.25505576,0.91580224,0.99755394,-1.2982008,-0.18500444,0.63275075,-1.4430906,-0.4109236,-0.33997098,-0.012388691,-0.3796538,0.45704776,-0.5581422,0.37846226,0.031546444,-0.5219755,-0.41624153,0.5526264,-0.17486219,-0.70990664,0.62393224,-0.13571072,-0.6663175,0.9706274,-0.3832089,0.6772102,0.53376776,-0.13752109,0.122399434,-0.48774117,0.10147531,1.0854806,0.7825255,1.0081718,-0.67024934,-0.6198271,0.85355806,-0.049829543,0.8601178,-0.93751067,-0.44245595,1.2373414,0.068773255,-0.098747075,1.5125058,-1.1345599,-0.6439271,-0.32516307,0.0667828,-0.40037662,-0.41051805,0.65625787,-0.13632613,0.7953121,1.0870321,0.4020588,-0.45187485,0.003277272,-0.74459654,0.8683336,-1.0645428,0.18189867,0.2037994,-0.3739645,1.0224062,-0.40502793,0.79000115,-0.16140842,0.73160934,0.5500498,0.34293765,0.16688344,0.85142523,0.03834325,-0.5685274,0.26921394,-0.08273427,0.78861,0.060558945,-0.09384732,0.7524785,0.5999449,0.40770704,0.46520123,-0.3898751,0.8441578,-0.8904885,-0.92438686,0.1618111,-0.5320889,0.31371984,0.28674957,-0.03287518
source_dataset:L-540,-0.622256,-0.38443482,-0.58109915,0.66047275,0.5544548,0.20260906,0.028843246,-0.15780687,-0.23266038,0.9188943,0.038018987,0.7122658,0.7602087,-0.080339685,-0.07827407,-0.83588296,-0.54141283,-0.7912594,0.27680287,-0.13752681,-0.15842083,-0.616403,-0.43842867,-0.43607557,-0.51812744,-0.78586966,-0.08847445,0.11300914,-0.09596364,0.09615925,0.56712514,-0.38312203,-0.93611836,0.46913645,0.01668334,0.110522255,0.18117717,0.6936357,0.37431264,-0.66311204,-0.17559253,0.3943845,0.15189923,-0.9677763,-0.81610954,-0.110016346,-0.4469266,0.6217321,-1.2355492,-0.5498065,-0.0035820901,-0.008694172,0.31757462,0.16546416,-0.15236308,0.847031,-0.7066833,-1.0330979,0.2592427,-0.26587918,-0.91371226,1.1502448,-0.2870577,-0.005621262,-0.0727678,0.5514584,0.60429263,-0.73541635,-0.2523354,-0.4376831,-0.030904561,0.83602405,-0.016075224,-0.37803423,-0.66731054,-0.2966677,0.19623843,0.4511969,0.18210456,0.5851019,-1.2306154,-0.5644171,0.08267772,-0.43865335,-0.56141603,0.5075233,-0.4030787,0.13650632,-0.9411094,-0.0007705204,0.20721728,0.073692955,-0.10964441,-0.63084143,-0.669675,-0.47769958,-0.4112207,-0.7186506,0.27428776,0.23671709,0.1761441,0.5572449,-0.37315714,0.54144156,-0.2560606,0.20398676,-0.5162224,-0.36146367,0.14968945,0.7112442,-0.73716795,-0.42460877,-0.4235884,-0.41469416,-0.8134269,-0.74737084,0.12851572,0.0050950944,0.10942853,0.4215663,-0.73019385,-0.044163898,-0.1452701,-0.34991813,-0.12893888,0.3131442,0.23401129,-0.8797054,0.20544735,0.22664405,1.0186646,-0.51235044,-0.6920252,0.64453477,0.120142,-0.52604514,-0.13882408,0.4334127,0.42480114,-0.5193771,0.9277036,0.63710856,0.02822993,-0.048344336,0.29890236,-0.17155781,-0.39027256,-0.27216667,-0.3715582,0.01633212,-0.100746475,-0.19377291,-0.4550999,0.013255373,0.00054124,0.048666716,0.1278002,-0.21633506,0.7790631,0.38239023,-0.24777776,0.5797181,-0.89482856,-0.6785135,-0.4983275,0.07688391,0.33227196,-0.903486,-0.5151024,0.38430235,0.079468146,0.20350812,0.29716426,-0.39999035,0.52317417,-0.04086098,0.5999813,-0.3450009,0.7394327,-0.40317848,0.64378154,0.9169594,0.085745364,0.13176085,0.59573627,0.7463206,-0.14062,-0.073010206,-0.17858946,-0.17712979,0.73501074,-0.4243046,-0.13548535,-0.09362151,0.18740241,0.09528494,-0.544525,0.26582646,0.50389546,0.33305895,-0.1129604,-0.42147726,0.4739853,-0.27214918,-0.6502925,0.016493876,-0.22988117,0.09586355,-0.30797678,0.54888296
source_dataset:NB(TU)1,-0.76541626,-0.44191462,-0.22241957,1.0161474,0.3446275,0.30590594,0.18152086,-0.31646335,-0.28185055,0.70615923,0.40740418,-0.15365636,0.9677541,-1.2101377,0.24955595,-0.34079835,-0.68439174,-0.75425446,-1.0846806,1.2488284,0.3711882,0.57455033,0.07840122,0.25915372,-0.078774035,-0.44786593,-0.5146028,0.16931868,0.82711697,0.23064885,0.46715736,-0.65979546,-0.91735375,0.44077933,-0.7318598,-0.10544509,-1.1466535,0.36508012,0.42557275,-1.1009461,-0.31136215,0.0857168,-0.09749183,0.65163845,0.77753323,0.4574299,-0.10700978,0.29153293,-1.3419628,-0.5791477,-0.012760401,-0.11859599,0.51168627,0.31264693,1.0006721,0.024842441,-0.27538723,-0.122786164,0.7559668,-0.25360233,-1.0840082,1.7715608,0.44814283,0.4115651,-0.894975,0.70806533,0.62068146,-0.5947629,0.61121863,0.26369718,-1.6485857,0.60167146,-0.7971604,0.21096194,0.19410707,-1.2221775,-0.075888485,0.3006981,-0.3558152,0.43833578,-1.3483744,-0.59649825,0.16403385,0.6244288,0.37785277,0.09373608,-0.9983404,-0.5318439,-1.3582015,0.9193316,0.24548468,-0.5529979,-0.6564847,-1.0898925,-0.05410871,0.20232081,-0.5077576,0.468734,0.8547839,-0.883193,-0.059167802,0.7127832,0.6949482,0.52119726,1.1581645,0.43210414,-0.37275532,0.086022004,0.30779627,0.2792649,-0.3206361,0.125143,-0.2357751,-0.027437085,-0.11859141,-0.3501309,-0.43803823,-0.25938353,0.20988567,0.2223009,-0.36585933,-0.14095843,0.035838816,-0.3898755,0.25117767,0.4113923,0.07740625,-0.30500454,0.13644065,0.18324909,0.34357396,-0.24759448,-0.4149262,0.21444826,0.059379384,-0.15981162,-0.20653081,-0.22474936,0.3555326,-0.07858091,0.31988847,0.39944324,0.06199291,0.10981048,-0.010594715,0.30812833,-0.40205947,0.18638183,-0.04228934,0.2038378,0.00013745105,-0.1539554,-0.053665817,0.22653946,-0.3198,-0.283753,-0.08839544,-0.16042629,0.18792243,0.3047929,-0.0343447,0.43312427,-0.19183627,-0.25893626,-0.20681982,-0.3050668,-0.3154392,-0.40299943,-0.3710403,0.11422112,0.30656305,0.41875398,0.3887072,-0.023605919,0.10473105,-0.24927483,0.17353405,-0.39863625,0.1965036,0.07763681,0.14839478,0.16773391,-0.20696712,0.36263177,0.20129961,0.26945832,0.06097845,0.26531622,0.27844644,0.21277408,0.34315863,-0.057875205,0.30925286,0.07391335,0.28608242,0.4325355,0.099454224,-0.13743253,-0.05062355,0.13011892,0.06667587,-0.14473648,0.32722476,0.25452712,-0.29370978,-0.012168026,-0.047985967,-0.29866406,0.036669336,-0.14002612
source_dataset:BB65-RCC,-0.33105746,-0.40680015,-0.44005525,0.20371553,0.46056712,0.34413424,0.07380537,0.23453695,0.05533606,0.7358836,-0.2499593,0.52771723,0.15029599,-0.3615386,0.008663148,-1.0114148,-0.28579485,-0.3295116,0.25833797,0.050216652,-0.22805235,-0.6703163,0.11101693,-0.46858513,-0.2920319,-0.6858261,0.31171906,0.10278915,-0.38618714,-0.23235767,0.57451355,-0.11556953,-0.7156653,0.21465811,0.33899745,0.16076578,-0.171057,0.54156786,-0.07150914,-0.1608951,-0.15325049,0.035147563,0.040847123,-1.1389425,-0.7558179,-0.010233939,-0.016665444,0.3732952,-0.8308361,-0.3126931,0.4394287,-0.051570356,0.5115316,0.15288527,-0.3895542,0.73641336,-0.13229057,-0.94074476,0.33900785,-0.4419341,-0.46559453,0.95932245,-0.3762012,0.015865624,-0.20673488,0.63985723,0.46282297,-0.636072,0.051717654,-0.22546493,-0.22475791,0.68001425,0.25315526,-0.28253376,-0.21712092,0.08001721,0.25191447,0.2745453,0.18271594,0.4193381,-1.0016644,-0.38585874,0.45568943,-0.44159514,-0.4114807,0.2177805,-0.35983607,0.13686082,-0.6406478,0.27031037,0.26115003,0.39391533,0.064809255,-0.28258896,-0.38124555,-0.29539406,-0.6431325,-0.8480344,0.21183476,0.5429137,0.15947425,0.2728176,-0.65800494,0.33227813,-0.303887,1.4472351,-0.13335629,-1.1731951,0.6625892,-0.19713497,-0.49879646,-1.1486154,-1.472827,0.31625447,-1.6988268,-1.8137857,0.12514973,0.4914588,0.7482849,0.98608494,-0.74735755,-0.0873007,-0.084398285,-1.0805737,-0.7017186,-0.66056323,0.42426574,-2.15964,-0.44543827,-0.19383454,0.6734754,-0.30745003,-0.24837482,-0.026270464,-0.46446055,0.73112684,0.48902768,0.8279575,0.27678385,-1.5521314,2.0559323,-0.20824596,0.7885317,-0.80047584,0.7810659,-0.9540949,0.43040803,-0.5803744,0.89885646,0.07306534,0.92845094,-0.01796925,-1.8190365,0.6272986,1.2236166,1.2100763,0.044528313,-0.45867822,1.5295013,-0.5524074,-0.66325665,1.8196944,-1.6702495,-1.2178272,-0.45567083,0.6707586,0.712901,-0.52038074,0.84347284,0.8862573,0.29534554,0.41351157,-0.18084928,-1.0217804,1.2925583,-0.533564,1.2325749,-0.5599729,1.8711287,-0.67694914,-0.17018183,2.3690054,-1.1592726,0.10092065,0.0148964375,1.4302171,-0.31178278,-0.059412718,0.9679367,0.8644661,1.0318729,-0.5014654,0.027970403,0.22263922,0.8583474,-0.98092365,-1.7898123,0.22344024,0.8820941,1.0995108,-0.13868938,0.60132825,0.7321675,-1.1543784,-0.9592762,0.14995778,-0.35475653,0.4143152,-0.7701917,1.2668562
source_dataset:EW-24,-0.42225152,-0.07165665,0.1132307,0.572458,0.018927403,0.46143,0.17623898,0.3773802,0.2598126,0.25378346,-0.32371476,0.44729635,0.35606286,-0.19342454,-0.2196843,-0.5027817,0.037212986,-0.44171154,0.08190475,0.26249462,-0.42312035,0.12343355,0.028017636,0.24779436,0.2714242,-0.48987186,0.25246203,0.25563127,0.1253925,-0.5256909,0.034528404,-0.08382128,-0.21511342,0.08641662,0.12397353,0.20022564,-0.28270823,0.23126343,0.21848232,-0.55150694,-0.49405047,-0.38052416,0.37233445,-0.32640293,-0.39399058,0.40271926,0.23925923,0.42323726,-0.44767395,-0.27570927,0.3089112,0.2066764,0.19584951,-0.019273922,0.19832176,0.42116594,-0.15086259,-0.22639534,0.433793,-0.21259569,-0.4270743,0.54599315,0.013434023,-0.011936285,-0.16734296,0.16621988,0.49951446,-0.29963264,-0.025313495,0.18261327,-0.45923275,0.5379648,-0.1443438,-0.15965393,-0.043796353,-0.38007537,-0.2890368,0.33683372,0.19891371,-0.31937575,-0.5090077,0.24589883,0.26672232,0.08764704,-0.20984872,-0.25367722,-0.17682636,-0.1056039,-0.38891116,0.031625796,0.06579885,-0.20361713,0.05263418,-0.27735057,0.11200887,0.13827386,-0.20744346,-0.3613538,0.1300998,-0.033018738,-0.15721317,0.6577019,-0.19852558,0.16690849,0.17448893,0.41304505,-0.34210965,0.07822395,0.34082192,0.27629173,-0.33061865,0.11401775,-0.26515028,-0.012020888,-0.09831162,-0.34653705,-0.44704998,-0.27098492,0.24055076,0.2569445,-0.4001093,-0.14952232,0.0633207,-0.4219689,0.23174502,0.40194434,0.08255051,-0.285962,0.15408933,0.16099478,0.34396243,-0.25053328,-0.42879087,0.19743957,0.093536474,-0.18866444,-0.22965273,-0.19780278,0.3401366,-0.087557554,0.32265577,0.36591408,0.09063114,0.13047375,-0.025389947,0.32341278,-0.41116157,0.19810392,-0.014668992,0.21449566,0.03405956,-0.17809169,-0.055026364,0.23408864,-0.33820975,-0.2528491,-0.1153815,-0.16880542,0.22020274,0.30378214,-0.031064762,0.45539638,-0.2184896,-0.26676723,-0.22027376,-0.28254935,-0.33488652,-0.4139024,-0.3550735,0.093796924,0.32939145,0.44673803,0.41034323,-0.020033402,0.09432785,-0.2774736,0.20744452,-0.43235222,0.16727376,0.08977557,0.12561381,0.18038973,-0.18284504,0.3810779,0.18326351,0.26876995,0.09193071,0.2669175,0.24849743,0.22625174,0.31748486,-0.07324303,0.3117112,0.068580225,0.30952704,0.42416826,0.11649038,-0.10922114,-0.039069444,0.14893305,0.09949203,-0.17296904,0.34773844,0.22561085,-0.31683967,-0.009684655,-0.059899803,-0.28486335,0.05523734,-0.15263715
source_dataset:NUGC-3,-0.26023898,-0.24383011,0.061149903,0.5909175,0.24104606,0.5176389,-0.038133204,0.079120636,-0.13652498,0.44361988,0.1376204,0.0095332265,0.68942904,-0.44084316,-0.29372928,-0.21578194,-0.114986226,-0.516677,-0.40707535,0.66239697,0.05685085,0.47397095,-0.09529738,0.11367616,0.34034014,-0.7503016,0.14110166,0.26197964,0.61131907,-0.17241378,0.19645381,-0.253532,-0.74776614,0.36922938,-0.03503649,0.13655815,-0.5364718,0.5068215,0.14026518,-0.72718036,-0.49970508,0.016359031,0.21835807,-0.034982175,-0.08942112,0.36925757,-0.012047619,0.2653995,-0.87996936,-0.18406086,0.1190939,0.17336875,0.107035816,0.1988937,0.4336356,0.27422413,-0.3130207,-0.41130733,0.632751,-0.24285075,-0.59385985,0.9169494,0.18797308,0.21759726,-0.5579625,0.19447547,0.6322056,-0.35345405,0.057146274,0.3186627,-0.9371791,0.34664392,-0.6043615,-0.042738758,-0.14228933,-0.6049548,-0.18834847,0.08974488,-0.17206246,-0.09697166,-0.7143464,0.04091063,0.17110614,0.49028045,-0.15080322,-0.2079721,-0.6377116,-0.56789744,-0.7232388,0.19219466,-0.12815434,-0.38101456,-0.0876724,-0.37207645,-0.1992936,0.4939829,-0.533983,0.14286265,0.39601433,-0.4761929,-0.25053316,0.63060164,0.0713336,0.50576067,0.5533141,1.2485682,0.11868504,-0.37302178,0.8140335,-0.38887677,-0.542942,-0.5466262,-1.4093858,0.3686097,-0.6859757,-0.888399,-0.39036307,0.029897928,0.74032795,0.7968192,-1.0405313,-0.07361269,0.3576852,-1.3367242,-0.41938424,-0.55246556,-0.045587063,-0.97029483,0.1512163,-0.46766558,0.3818972,0.13650274,-0.29180488,-0.38665372,0.06366294,0.4309517,-0.35269836,0.5572002,-0.036609232,-0.9027676,1.3407388,-0.20908293,0.5440136,0.16155328,0.17105086,-0.32823595,-0.2139729,-0.1850277,1.131324,0.7342843,0.9211748,-0.40254742,-1.0188239,0.96505594,0.53018737,0.91156304,-0.71665037,-0.4332018,1.1979133,-0.13846636,-0.2607659,1.666991,-1.1696126,-0.7584372,-0.18390262,-0.016499788,-0.004625708,-0.23822704,0.8809794,0.22670686,0.5903001,0.8442792,0.002005607,-0.7432698,0.32456952,-0.5237934,0.70020837,-0.7603774,0.8635515,-0.04492952,-0.26644218,1.3732074,-0.9903892,0.58458936,-0.05401659,1.0124385,0.1590185,0.302399,0.7384398,0.9498094,0.43568924,-0.50508755,0.21371767,0.006982781,0.68154013,-0.14216259,-0.6791815,0.5623844,0.69443685,0.37348092,0.062962554,0.12771656,0.7239002,-0.934464,-0.82125235,0.18928891,-0.501404,0.34154436,-0.05074545,0.37557116
source_dataset:ME-1 [Human leukemia],-0.48409715,-0.39161915,-0.02177006,0.54194814,0.2762543,0.3730412,-0.029972143,-0.1180996,0.09249288,0.66014904,0.19036917,0.13732833,0.586023,-0.55023116,-0.09918831,-0.1710333,-0.19086109,-0.4746442,-0.22369586,0.4734964,0.04432252,0.30690864,-0.1620828,0.1318,0.13086715,-0.51151043,0.16690618,0.3526305,0.52977264,0.034398705,-0.052878857,-0.42938143,-0.47121242,0.54583204,-0.13907453,0.2770869,-0.3965794,0.31079957,0.16915475,-0.49009496,-0.3103729,0.13783829,0.09176332,-0.1485247,-0.00025308132,0.1922675,-0.018451288,0.25612086,-0.75158757,-0.42817277,0.018202454,0.35999262,0.34522098,0.28392562,0.4197278,0.27598137,-0.5189655,-0.20954289,0.3978229,-0.33598992,-0.44250798,0.72486985,0.35905933,0.36716118,-0.49764925,0.12819141,0.3936279,-0.38996136,0.18579906,0.24156873,-0.67858505,0.38079333,-0.6313026,-0.011878982,-0.14490706,-0.54783916,-0.3820504,0.15588503,-0.18633246,-0.123737305,-0.57729423,0.21984148,0.044709846,0.45827615,-0.15890859,-0.015756235,-0.39557204,-0.31368572,-0.66896546,0.34813496,0.07838336,-0.16140546,-0.19855945,-0.4412175,-0.048321232,0.25554,-0.46352267,-0.07918337,0.53055435,-0.20226508,-0.25576276,0.35508335,0.118707284,0.6380342,0.61646277,0.43210414,-0.37275532,0.086022004,0.30779627,0.2792649,-0.3206361,0.125143,-0.2357751,-0.027437085,-0.11859141,-0.3501309,-0.43803823,-0.25938353,0.20988567,0.2223009,-0.36585933,-0.14095843,0.035838816,-0.3898755,0.25117767,0.4113923,0.07740625,-0.30500454,0.13644065,0.18324909,0.34357396,-0.24759448,-0.4149262,0.21444826,0.059379384,-0.15981162,-0.20653081,-0.22474936,0.3555326,-0.07858091,0.31988847,0.39944324,0.06199291,0.10981048,-0.010594715,0.30812833,-0.40205947,0.18638183,-0.04228934,0.2038378,0.00013745105,-0.1539554,-0.053665817,0.22653946,-0.3198,-0.283753,-0.08839544,-0.16042629,0.18792243,0.3047929,-0.0343447,0.43312427,-0.19183627,-0.25893626,-0.20681982,-0.3050668,-0.3154392,-0.40299943,-0.3710403,0.11422112,0.30656305,0.41875398,0.3887072,-0.023605919,0.10473105,-0.24927483,0.17353405,-0.39863625,0.1965036,0.07763681,0.14839478,0.16773391,-0.20696712,0.36263177,0.20129961,0.26945832,0.06097845,0.26531622,0.27844644,0.21277408,0.34315863,-0.057875205,0.30925286,0.07391335,0.28608242,0.4325355,0.099454224,-0.13743253,-0.05062355,0.13011892,0.06667587,-0.14473648,0.32722476,0.25452712,-0.29370978,-0.012168026,-0.047985967,-0.29866406,0.036669336,-0.14002612
source_dataset:CTB-1,-0.26845872,-0.38327152,-0.32669753,0.15998086,0.39613408,0.39595577,0.0718221,0.3007486,0.115384206,0.64884955,-0.2681008,0.42921174,0.08447918,-0.4220236,-0.015309602,-0.927642,-0.1938528,-0.25231522,0.18245631,0.15838584,-0.22020592,-0.5191157,0.19589989,-0.376108,-0.14853984,-0.655755,0.38371322,0.13183382,-0.31250954,-0.30213895,0.49248987,-0.077490374,-0.63606775,0.18141162,0.3569164,0.18001121,-0.28265154,0.48377192,-0.13209714,-0.121389195,-0.19734357,-0.056314766,0.049227506,-1.0213002,-0.6518798,0.06469749,0.08802256,0.3075689,-0.722253,-0.25180596,0.48716676,-0.010228068,0.49841967,0.15182817,-0.32335275,0.6460215,-0.041668773,-0.82029724,0.3830021,-0.45088175,-0.3697309,0.8768947,-0.30501753,0.049395002,-0.2703793,0.5761242,0.4427207,-0.5654451,0.11515605,-0.09959935,-0.34254405,0.59844935,0.19103286,-0.22886121,-0.107552364,0.068813056,0.17723891,0.21706177,0.14134878,0.28298694,-0.8830198,-0.25328127,0.48763025,-0.30972236,-0.34537673,0.09005141,-0.3610397,0.052971527,-0.56573117,0.30925307,0.2232312,0.35696295,0.08429211,-0.21330637,-0.2708181,-0.15022527,-0.65916145,-0.7496375,0.21912107,0.47921938,0.09038144,0.25600928,-0.61638135,0.30808905,-0.19354717,0.044728696,-0.11463997,-0.38022876,0.25843993,0.27347955,-0.90405655,0.04104901,-0.4328329,-0.943829,-0.02855426,0.1254189,-0.32144213,-0.02103959,-0.18275215,0.9958178,0.32594842,0.18506503,-0.8794736,-0.3209787,0.3045263,0.1947266,0.35962096,-0.13283755,-0.5114689,0.40057582,-0.045704305,-0.5242031,-0.39890704,0.7494992,-0.32387865,-0.6218325,0.77979374,0.6621187,0.87548184,-0.9988805,-0.21209562,0.040316105,0.40862042,0.2194925,1.0492278,-0.01807481,0.36855868,0.5167961,-0.93052685,0.35161212,-0.96947294,-0.72151786,-0.9411846,0.42362428,-0.027481109,-0.8917221,0.94465023,-0.7946229,0.4519323,0.99939895,-0.8243006,0.5327535,-1.0928954,-0.56565255,0.4559741,0.6933353,0.7163023,-0.31665185,-1.1965113,0.550019,0.44022453,0.34443524,0.23757342,-0.4407305,0.3132308,0.04809831,-0.09238647,-0.47258025,0.7130798,-0.06296934,-0.04187329,0.73192596,-0.16021213,0.33439678,0.5683563,0.4202956,-0.21714363,-0.5585196,0.06945413,-0.8503472,1.1902736,0.63865453,0.36578953,-0.68836844,0.33303812,0.27138376,0.046156604,0.5652557,-0.74345285,1.0195864,-0.62853813,-0.460427,0.036052227,-0.41884407,-0.37399092,-0.49065894,-0.43644562,-0.26844496,-0.8486177,-0.12594223
source_dataset:SK-N-SH,-0.6043922,-0.13116652,0.07579008,0.6146182,-0.0072462484,0.37868088,0.2607361,0.30527413,0.4018421,0.32007465,-0.3352596,0.48654795,0.2854007,-0.38704538,-0.029032692,-0.53468424,-0.04735127,-0.42517465,0.0515313,0.30186,-0.43555564,0.08253547,0.10720381,0.33841997,0.15431798,-0.2861244,0.17589036,0.27672166,0.08353124,-0.45674345,-0.04988513,-0.18464264,-0.034944914,0.09998864,-0.021015957,0.2162914,-0.37357232,0.0632706,0.26778936,-0.49161485,-0.40108067,-0.42858884,0.28425688,-0.22885992,-0.1866411,0.3939721,0.3060534,0.4201112,-0.38264236,-0.43242878,0.3049522,0.22860764,0.38148075,-0.00027874857,0.29412666,0.3564534,-0.14093702,-0.018850341,0.36374453,-0.25118735,-0.40532237,0.5677674,0.12440251,0.058413647,-0.18275177,0.22833776,0.3807217,-0.32773894,0.15687022,0.17284232,-0.49201137,0.60152817,-0.1364084,-0.09120934,0.09477919,-0.44953293,-0.37402272,0.41900855,0.19871423,-0.3025464,-0.5152634,0.25709903,0.25793833,0.08789767,-0.0811028,-0.18222237,-0.09482792,0.035278767,-0.4175102,0.23846775,0.23746513,-0.13875744,-0.074047446,-0.40578115,0.29312477,-0.007891208,-0.13761845,-0.41864166,0.23436378,0.032913245,-0.12824473,0.5683211,-0.084574565,0.14847954,0.30391046,0.6577085,-0.40848845,0.1384558,0.22149181,0.1823794,-0.4584139,0.042729057,-0.39929342,-0.12660596,-0.2986545,-0.341988,-0.35708094,-0.16848695,0.11164062,0.14173543,-0.52882963,-0.027488567,0.026041467,-0.5061231,0.1732468,0.21092801,-0.10112544,-0.40764597,0.23825994,0.077011526,0.46497095,-0.053209156,-0.38449624,0.17743997,0.017687809,-0.006539464,-0.34639,-0.07718405,0.26930606,-0.16914171,0.539331,0.53551584,-0.093933016,0.2521274,0.03671053,0.08138767,-0.49699333,-0.011168674,0.070911184,0.4413175,-0.01059016,-0.19656463,-0.17443956,0.42834014,-0.08330846,-0.15812697,-0.26402372,-0.18785518,0.32137957,0.34925213,-0.05328884,0.6204994,-0.33391044,-0.3227333,-0.10678306,-0.49095196,-0.1296411,-0.3424879,-0.16177493,0.15243927,0.25500342,0.42026016,0.16129592,-0.27589476,0.04667522,-0.06177658,0.04093869,-0.31571662,0.4214355,0.019404162,0.3126967,0.32073587,-0.44834417,0.3860264,0.35512874,0.4930716,-0.03292674,0.2798267,0.39775234,0.23345327,0.47149923,-0.1923597,0.18841892,-0.03203702,0.14430967,0.5036037,-0.069048956,0.102154896,0.18926582,-0.111487076,-0.15191095,-0.115514316,0.3390731,0.029977873,-0.3463673,0.049392253,-0.19847123,-0.11557031,0.015191827,0.010697633
source_dataset:CHP-126,0.035092354,0.14542751,0.2750242,0.63676,-0.00023593754,0.7436921,0.10154296,0.666419,-0.22038487,-0.09624183,-0.30504045,0.086835235,0.5932626,-0.07690261,-0.58794844,-0.48558366,0.16205469,-0.5046685,-0.37161982,0.7135338,-0.27772468,0.5367837,0.13647148,0.19834387,0.69453585,-0.9680796,0.21235849,0.10873261,0.40381944,-0.816313,0.4854632,0.19433497,-0.81028825,-0.15593907,0.282333,-0.05012065,-0.6134434,0.62990636,0.1212719,-0.9834898,-0.8348688,-0.5121387,0.55463564,-0.04054025,-0.45623788,0.71635985,0.21592844,0.3773097,-0.74560744,0.19457045,0.45318544,-0.111025125,-0.24501494,-0.10996389,0.28646213,0.36063984,0.19132912,-0.60016286,0.9017551,-0.065006554,-0.6951766,0.9407444,-0.22507142,-0.20390055,-0.38713664,0.2670647,0.93985295,-0.22942978,-0.21461178,0.38504735,-1.0516429,0.40250716,-0.22678873,-0.1720245,-0.038400196,-0.5242938,0.05463621,0.1369829,0.11801887,-0.25603697,-0.75929105,-0.074308366,0.4733526,0.27791604,-0.17120808,-0.6120316,-0.7115977,-0.6874157,-0.53933275,-0.19279498,-0.35619766,-0.62967503,0.2233583,-0.14968541,-0.20423134,0.6856173,-0.42470193,0.17110267,-0.03796974,-0.62633055,-0.19209307,1.1156034,-0.21420279,0.019833118,0.18078728,0.43210414,-0.37275532,0.086022004,0.30779627,0.2792649,-0.3206361,0.125143,-0.2357751,-0.027437085,-0.11859141,-0.3501309,-0.43803823,-0.25938353,0.20988567,0.2223009,-0.36585933,-0.14095843,0.035838816,-0.3898755,0.25117767,0.4113923,0.07740625,-0.30500454,0.13644065,0.18324909,0.34357396,-0.24759448,-0.4149262,0.21444826,0.059379384,-0.15981162,-0.20653081,-0.22474936,0.3555326,-0.07858091,0.31988847,0.39944324,0.06199291,0.10981048,-0.010594715,0.30812833,-0.40205947,0.18638183,-0.04228934,0.2038378,0.00013745105,-0.1539554,-0.053665817,0.22653946,-0.3198,-0.283753,-0.08839544,-0.16042629,0.18792243,0.3047929,-0.0343447,0.43312427,-0.19183627,-0.25893626,-0.20681982,-0.3050668,-0.3154392,-0.40299943,-0.3710403,0.11422112,0.30656305,0.41875398,0.3887072,-0.023605919,0.10473105,-0.24927483,0.17353405,-0.39863625,0.1965036,0.07763681,0.14839478,0.16773391,-0.20696712,0.36263177,0.20129961,0.26945832,0.06097845,0.26531622,0.27844644,0.21277408,0.34315863,-0.057875205,0.30925286,0.07391335,0.28608242,0.4325355,0.099454224,-0.13743253,-0.05062355,0.13011892,0.06667587,-0.14473648,0.32722476,0.25452712,-0.29370978,-0.012168026,-0.047985967,-0.29866406,0.036669336,-0.14002612
source_dataset:Ishikawa (Heraklio) 02 ER-,-0.40476018,-0.17229201,0.12941478,0.43937826,0.066103235,0.43759295,0.078186095,0.2666552,0.3529133,0.3742223,-0.22660871,0.42117357,0.29536122,-0.19496426,-0.22508931,-0.35304892,0.086716995,-0.3598001,0.19267745,0.15257496,-0.36403725,0.11959108,-0.05738287,0.21321489,0.27212206,-0.45502555,0.39716336,0.3433656,0.17075552,-0.39463332,-0.16171306,-0.15131266,-0.11945311,0.25549227,0.16370907,0.33176556,-0.16440508,0.1890882,0.1362351,-0.34625846,-0.4169111,-0.23145871,0.31010184,-0.44059283,-0.40474623,0.27537137,0.21663244,0.34929368,-0.35386193,-0.31504574,0.23504485,0.3908827,0.24845144,0.07363107,0.1474138,0.41122574,-0.31040418,-0.17285761,0.3169348,-0.28621998,-0.24135205,0.32173803,0.13656382,0.119106986,-0.1813576,0.011524555,0.3714895,-0.2717742,-0.0108075645,0.21137024,-0.30061355,0.4350541,-0.2577828,-0.14541867,-0.10917501,-0.27232897,-0.4298,0.25408125,0.11624533,-0.419581,-0.31278533,0.47313073,0.17119004,0.17825021,-0.29030827,-0.20804325,-0.066435404,-0.088146,-0.29169038,0.044222508,0.06671555,-0.072270505,0.06427769,-0.1804429,0.1276712,0.1715856,-0.26293063,-0.41925886,0.19930641,0.10393387,-0.24125117,0.44002816,-0.21687676,0.3360261,0.21997668,0.43210414,-0.37275532,0.086022004,0.30779627,0.2792649,-0.3206361,0.125143,-0.2357751,-0.027437085,-0.11859141,-0.3501309,-0.43803823,-0.25938353,0.20988567,0.2223009,-0.36585933,-0.14095843,0.035838816,-0.3898755,0.25117767,0.4113923,0.07740625,-0.30500454,0.13644065,0.18324909,0.34357396,-0.24759448,-0.4149262,0.21444826,0.059379384,-0.15981162,-0.20653081,-0.22474936,0.3555326,-0.07858091,0.31988847,0.39944324,0.06199291,0.10981048,-0.010594715,0.30812833,-0.40205947,0.18638183,-0.04228934,0.2038378,0.00013745105,-0.1539554,-0.053665817,0.22653946,-0.3198,-0.283753,-0.08839544,-0.16042629,0.18792243,0.3047929,-0.0343447,0.43312427,-0.19183627,-0.25893626,-0.20681982,-0.3050668,-0.3154392,-0.40299943,-0.3710403,0.11422112,0.30656305,0.41875398,0.3887072,-0.023605919,0.10473105,-0.24927483,0.17353405,-0.39863625,0.1965036,0.07763681,0.14839478,0.16773391,-0.20696712,0.36263177,0.20129961,0.26945832,0.06097845,0.26531622,0.27844644,0.21277408,0.34315863,-0.057875205,0.30925286,0.07391335,0.28608242,0.4325355,0.099454224,-0.13743253,-0.05062355,0.13011892,0.06667587,-0.14473648,0.32722476,0.25452712,-0.29370978,-0.012168026,-0.047985967,-0.29866406,0.036669336,-0.14002612
source_dataset:HCC1806,-0.3438231,-0.25219256,0.0023505539,0.3131887,0.16413078,0.43363288,0.075241014,0.29221606,0.30688325,0.45556378,-0.24472451,0.39009637,0.18158922,-0.3148297,-0.14263114,-0.5264979,0.01578217,-0.2835759,0.16835737,0.18855864,-0.30685502,-0.06419716,0.06832346,0.03528963,0.16192353,-0.49903068,0.42460883,0.284077,0.018026143,-0.37382543,0.027753815,-0.12126796,-0.25751856,0.2275402,0.23467022,0.29397252,-0.24706005,0.2593838,0.012433343,-0.22830924,-0.33998454,-0.1958484,0.20665903,-0.61307085,-0.44371492,0.21611369,0.21302485,0.30430552,-0.43540326,-0.28362626,0.34133667,0.27345288,0.3537218,0.109207734,0.0008600801,0.4590557,-0.18712772,-0.34646815,0.3433474,-0.35840553,-0.23686337,0.479346,0.016633846,0.119598396,-0.2385249,0.1892455,0.37157804,-0.3534155,0.07370281,0.14467905,-0.3491858,0.4628161,-0.120965704,-0.15047246,-0.06135898,-0.14691995,-0.2507296,0.22001223,0.10566784,-0.21857044,-0.46396983,0.27306482,0.29292208,0.052454486,-0.28232554,-0.13771394,-0.15948114,-0.05382177,-0.35819966,0.17217329,0.12386877,0.087376885,0.07112851,-0.16854648,0.038086288,0.09739388,-0.41257733,-0.5149282,0.22083957,0.23531152,-0.14833343,0.34356356,-0.34284198,0.32589734,0.11995461,0.15819824,0.22458091,-0.11625005,0.96348155,0.15863305,-0.46721548,-0.11779392,-0.836599,0.3257308,0.21453749,-0.35893866,-0.619908,-0.4483367,0.83187556,0.90562755,-0.9760481,-0.31340298,0.5490439,-1.0244905,-0.13603404,0.18441711,0.20015767,-0.033166736,0.4014588,-0.2482279,0.30339295,-0.2999227,-0.63490325,-0.15167107,0.64595735,-0.60391676,-0.5724571,0.2765362,0.06833169,-0.30615786,0.42622516,-0.29624024,0.6601216,0.4223715,-0.25525284,0.558187,-0.49913356,0.40364397,0.55538666,0.3850963,0.7033224,-0.57974386,-0.16402823,0.39621592,-0.5926397,0.3548511,-0.5777656,-0.32924825,0.8162733,0.21071738,-0.0003213212,0.91621375,-0.71617866,-0.43114364,-0.45552838,0.16448998,-0.67101574,-0.57245207,0.007530749,-0.23095036,0.7504271,0.95188206,0.7725128,0.024090117,-0.029669508,-0.82476085,0.8497995,-1.042713,-0.2843557,0.29275322,-0.35393733,0.48402563,0.16029462,0.70063806,-0.19383028,0.2805153,0.62850887,0.29958898,-0.18963039,0.5427591,-0.123977035,-0.3281871,0.38452443,0.011920273,0.78175867,0.19654533,0.34410194,0.34972912,0.15974174,0.5524163,0.6904433,-0.5850878,0.7202479,-0.3145739,-0.7316989,0.037433304,-0.25976628,-0.043882042,0.35032657,-0.34205517
source_dataset:MOLT-4,-0.95509136,-0.34942132,-0.44393742,0.92675674,0.30727887,0.1568169,0.34676677,-0.10381913,0.014314473,0.7356127,-0.06292197,0.53254956,0.6505177,-0.74715304,0.3315314,-0.86681044,-0.6664372,-0.7534876,-0.2738251,0.47828355,-0.15479219,-0.25238755,0.028576296,0.058871314,-0.46684882,-0.31293124,-0.40398285,0.10102108,0.04598944,-0.00285542,0.49544734,-0.5017304,-0.56852293,0.23611063,-0.4422014,-0.0313524,-0.53881776,0.26296148,0.51239246,-0.8346207,-0.17731528,-0.07441594,0.02748844,-0.1565535,0.051627874,0.24368411,-0.07739042,0.5607445,-1.0846636,-0.73956096,0.13624239,-0.14811406,0.6334244,0.10978542,0.4179204,0.45057118,-0.2936295,-0.33582407,0.4137156,-0.2554145,-1.0013036,1.4607127,0.024446346,0.09419309,-0.31920913,0.79545766,0.5008225,-0.69669545,0.33378547,-0.18594797,-0.7487972,0.9348438,-0.09788032,-0.07628128,-0.0024791583,-0.7658489,0.03364384,0.6159735,0.13082872,0.5122605,-1.3335209,-0.63204694,0.23328277,-0.164961,0.05999559,0.3362718,-0.478659,0.15732281,-1.0871648,0.610126,0.50101924,-0.13893719,-0.4522555,-0.9992635,-0.052779794,-0.48250538,-0.22855812,-0.40096948,0.5113987,-0.1052406,0.19337109,0.6631153,0.14170448,0.25651398,0.36588764,1.300555,-0.3031784,-0.04056029,0.31735784,-0.23931822,-0.5025363,-0.24375446,-0.9047478,0.034493007,-0.7187324,-0.6483119,-0.31339514,0.061338276,0.23083225,0.23749575,-0.69304055,0.06814067,0.05660206,-0.8757226,-0.07396406,-0.30787626,-0.23530865,-0.88144714,0.13774422,-0.17948231,0.4375823,0.23204207,-0.19722359,-0.11018635,-0.20546599,0.5706726,-0.30383867,0.17027703,0.12179826,-0.56947005,1.0921063,0.37978834,-0.0011896603,0.17732704,0.21554957,-0.37025914,-0.33712292,-0.28281045,0.6276206,0.723847,0.32646924,-0.19056094,-0.7124747,0.8528154,0.5290499,0.3347797,-0.49787468,-0.2935217,0.6743858,0.09067239,-0.19130956,1.2122813,-0.6947235,-0.5378412,0.025832623,-0.5120442,0.1379545,-0.1276123,0.50763285,0.32872584,0.29294097,0.51285183,-0.2164379,-0.71350706,0.20180938,-0.046889126,0.089072876,-0.31305757,0.97418886,-0.093844846,0.18354887,0.9020561,-1.110702,0.42201123,0.29796904,0.9150653,-0.16222113,0.32190573,0.90947336,0.6190384,0.66658986,-0.33932078,0.14415127,-0.032455035,0.2256298,0.25193065,-0.5968437,0.32281148,0.5294779,-0.12520014,-0.36580673,0.25117153,0.43182027,-0.4636086,-0.485372,0.15558755,-0.38826337,0.15723854,-0.12663761,0.34944493
source_dataset:NCI-H28,-0.10425615,-0.02618,0.1953347,0.45808294,0.059303463,0.61793065,0.06048897,0.50490934,0.047003865,0.1392766,-0.27566242,0.22329368,0.39368457,-0.12862302,-0.43368495,-0.44464093,0.15244219,-0.38297924,-0.07649244,0.43105498,-0.30438474,0.2954209,0.07204929,0.13865562,0.5045921,-0.7642387,0.3702725,0.21586522,0.25127238,-0.62711257,0.20542005,0.06464036,-0.5176795,0.04066032,0.3004953,0.14475963,-0.39312798,0.45445055,0.053215265,-0.60318124,-0.62468183,-0.35987982,0.4202395,-0.32533717,-0.4905848,0.4791932,0.22315452,0.33167404,-0.54901516,-0.0015833378,0.38869363,0.12459314,-0.006761104,-0.007327743,0.14032121,0.40527523,-0.015170127,-0.46664643,0.62659585,-0.1993224,-0.42624193,0.62475,-0.092545494,-0.046587996,-0.30191743,0.1513599,0.6650479,-0.2516725,-0.121723816,0.30256787,-0.6740432,0.38828862,-0.20888636,-0.1703803,-0.07778019,-0.31871188,-0.13752943,0.1476815,0.10713475,-0.31972742,-0.5327591,0.1875521,0.36477667,0.20947619,-0.26126465,-0.42744178,-0.4163015,-0.4150735,-0.39342278,-0.08278406,-0.17370424,-0.30041966,0.19067068,-0.09733911,-0.0847902,0.46536517,-0.41389638,-0.14393681,0.06068267,-0.21705788,-0.2136194,0.7411137,-0.2923079,0.18380027,0.14626506,0.43210414,-0.37275532,0.086022004,0.30779627,0.2792649,-0.3206361,0.125143,-0.2357751,-0.027437085,-0.11859141,-0.3501309,-0.43803823,-0.25938353,0.20988567,0.2223009,-0.36585933,-0.14095843,0.035838816,-0.3898755,0.25117767,0.4113923,0.07740625,-0.30500454,0.13644065,0.18324909,0.34357396,-0.24759448,-0.4149262,0.21444826,0.059379384,-0.15981162,-0.20653081,-0.22474936,0.3555326,-0.07858091,0.31988847,0.39944324,0.06199291,0.10981048,-0.010594715,0.30812833,-0.40205947,0.18638183,-0.04228934,0.2038378,0.00013745105,-0.1539554,-0.053665817,0.22653946,-0.3198,-0.283753,-0.08839544,-0.16042629,0.18792243,0.3047929,-0.0343447,0.43312427,-0.19183627,-0.25893626,-0.20681982,-0.3050668,-0.3154392,-0.40299943,-0.3710403,0.11422112,0.30656305,0.41875398,0.3887072,-0.023605919,0.10473105,-0.24927483,0.17353405,-0.39863625,0.1965036,0.07763681,0.14839478,0.16773391,-0.20696712,0.36263177,0.20129961,0.26945832,0.06097845,0.26531622,0.27844644,0.21277408,0.34315863,-0.057875205,0.30925286,0.07391335,0.28608242,0.4325355,0.099454224,-0.13743253,-0.05062355,0.13011892,0.06667587,-0.14473648,0.32722476,0.25452712,-0.29370978,-0.012168026,-0.047985967,-0.29866406,0.036669336,-0.14002612
source_dataset:C32 [Human melanoma],-0.012500405,-0.012067243,-0.1063074,0.43372878,0.20785083,0.6295896,0.16053602,0.68490905,-0.22362432,0.15057473,-0.44293597,0.30313104,0.34084806,-0.17204906,-0.34738192,-0.99382997,-0.053283542,-0.4247044,-0.14149909,0.4907932,-0.32296592,-0.1352571,0.291356,-0.21404682,0.24975754,-0.97108114,0.21680947,-0.024327934,-0.13652708,-0.75644755,0.8520649,0.22323774,-0.96416324,-0.21705413,0.4267677,-0.09925261,-0.52659494,0.7199106,-0.0124138,-0.7102411,-0.59783214,-0.42322206,0.37090203,-0.62642413,-0.73837,0.4859752,0.15086092,0.41776013,-0.88299197,0.10880342,0.63277817,-0.33888486,0.038891166,-0.089273416,-0.15000264,0.6093064,0.32060498,-0.9911176,0.7941821,-0.19966188,-0.72574186,1.1929075,-0.5624202,-0.28486693,-0.28899863,0.65985835,0.88185906,-0.4621743,-0.13719003,0.047568843,-0.8041148,0.61714435,0.24080914,-0.2787289,-0.05877154,-0.19121674,0.4217405,0.22657393,0.25601217,0.22256798,-1.1045744,-0.5221031,0.66891915,-0.24978374,-0.26126277,-0.29834515,-0.70487297,-0.33571035,-0.6471662,-0.021098007,-0.107948825,-0.18602815,0.2362974,-0.19359513,-0.39471966,0.21748598,-0.58125174,-0.32419795,-0.06157948,-0.11385277,0.095437974,0.90873444,-0.57980025,-0.042888552,-0.249835,0.22709356,-0.008194089,-0.023224853,0.62626994,0.18128672,-0.50660527,0.056278177,-0.5625012,-0.033502333,0.15838371,-0.16567135,-0.56067336,-0.34279197,0.42522338,0.68350846,-0.5333929,-0.15243115,0.1344705,-0.7095153,0.10946436,0.25800878,0.14087611,-0.026921421,0.17966612,-0.008837789,0.19964637,-0.27265972,-0.50753564,0.10098448,0.29861718,-0.46873546,-0.25529894,0.16049549,0.29263222,-0.31488523,0.19195028,-0.01151678,0.39445424,0.37380013,0.03355811,0.4165333,-0.3457573,0.39796335,0.09945422,0.39569256,0.14001065,-0.5077541,-0.21830833,0.39648378,-0.44434866,-0.13274507,-0.1887405,-0.37054753,0.502128,0.4358204,-0.14245947,0.679082,-0.5707867,-0.3555444,-0.14940046,0.046907336,-0.34476057,-0.41997826,-0.339015,-0.022305407,0.57740235,0.70272,0.5466802,-0.06459969,-0.013805389,-0.4610712,0.37601793,-0.7368572,-0.016237006,0.21826555,-0.15107222,0.33635464,-0.033723965,0.56844723,0.07479058,0.2665809,0.31613478,0.15423186,0.017846555,0.17490876,0.2386449,-0.036352992,0.38312477,-0.13047546,0.51594377,0.36998373,0.3104222,0.2669235,-0.11686098,0.43781382,0.23276894,-0.44621974,0.4497601,-0.13303116,-0.49845022,-0.082074456,-0.243407,-0.18112293,0.07354882,-0.32423744
source_dataset:SaOS-2,-0.13008267,-0.19974917,-0.37663615,0.35078347,0.42228413,0.48266974,0.072096914,0.42939973,-0.24964878,0.49572337,-0.31275895,0.4834726,0.36980402,-0.10431621,-0.25239286,-1.0776252,-0.22930814,-0.47604325,0.1289383,0.15783797,-0.26387632,-0.52921563,0.071535036,-0.49433982,-0.10574889,-0.987529,0.21612807,-0.011064917,-0.30428976,-0.45758682,0.8717672,0.07040912,-1.0538486,0.021979854,0.43780765,-0.0121032,-0.19976655,0.80043197,-0.0036670268,-0.53216946,-0.38676536,-0.0681961,0.24478509,-1.0445856,-0.9624098,0.172129,-0.08796148,0.46642298,-1.0320873,-0.07102533,0.48887283,-0.26907274,0.1786297,0.02284297,-0.38321722,0.8009479,0.0020949543,-1.2231939,0.5765598,-0.2857387,-0.729965,1.184415,-0.6124922,-0.21206999,-0.1855115,0.69828105,0.7755399,-0.6131275,-0.209266,-0.21470003,-0.40223897,0.70086694,0.30306563,-0.37288627,-0.3289551,-0.019567996,0.48104665,0.26247036,0.25663024,0.47418147,-1.200139,-0.6287466,0.5397566,-0.47993463,-0.46981132,0.05308795,-0.60383075,-0.10748257,-0.72747207,-0.02644037,0.013859682,0.091745906,0.19554296,-0.24991162,-0.6199414,-0.10101549,-0.643739,-0.6365366,0.012768149,0.2197063,0.18892342,0.6742309,-0.71778107,0.17856619,-0.45791012,1.2064768,-0.28757966,0.08675033,0.28071645,-0.16868734,-0.6970036,-0.25118083,-0.9776159,-0.11643211,-0.67059785,-0.47355664,-0.2631632,0.023222268,0.15841283,0.2143793,-0.9513198,0.13672489,0.1309571,-0.9641346,-0.12577277,-0.3481365,-0.38219085,-0.71082455,0.38517255,-0.27400172,0.61030805,0.33335185,-0.30139834,-0.0798953,-0.022847474,0.37848943,-0.59251636,0.34040216,0.025121272,-0.52345085,1.1154816,0.5087214,-0.14309679,0.47593915,0.1340039,-0.385821,-0.5730604,-0.362292,0.6033267,0.9330448,0.2726497,-0.33860463,-0.6096245,0.93419755,0.46654698,0.37025282,-0.71132493,-0.30829263,0.79403156,0.27201426,-0.13579161,1.2472589,-0.8008138,-0.54396605,0.040572226,-0.6595963,0.175441,-0.19526838,0.5094129,0.21570504,0.2920848,0.57322586,-0.24565575,-0.81271464,0.011304058,0.0847,0.019048885,-0.33188888,0.88579315,-0.06866823,0.37603527,0.8617656,-1.0087032,0.50325894,0.45903426,0.99540734,-0.10559348,0.3260013,0.70130885,0.5061703,0.64194655,-0.4988903,0.018016487,-0.1897891,0.08844164,0.43711945,-0.49270505,0.6304489,0.7167396,-0.3625772,-0.42266673,0.003697157,0.47779745,-0.61994505,-0.5713438,0.1925522,-0.5347074,0.3122091,-0.015719496,0.33171657
source_dataset:A-673,-0.5951108,-0.20212024,-0.31633502,0.6652695,0.31905174,0.27026016,0.08572654,0.05906129,0.006438136,0.65371495,-0.17293777,0.81035656,0.6356363,0.13568974,-0.21105112,-0.720368,-0.27278274,-0.7233622,0.46133322,-0.25547922,-0.4072294,-0.4566783,-0.4168999,-0.17664252,-0.25687942,-0.67745537,0.070988655,0.18632825,-0.10652317,-0.1817573,0.274105,-0.24637118,-0.558069,0.32856664,0.123355225,0.19590013,0.2829119,0.51155293,0.40539598,-0.6281504,-0.31142056,0.110338196,0.34110093,-0.8943591,-0.89900374,0.02690287,-0.23607324,0.6487441,-0.86594164,-0.48544005,0.05669065,0.14884289,0.19474986,0.035914674,-0.123811886,0.8036237,-0.6366881,-0.76123965,0.21442035,-0.19936946,-0.72084177,0.73525316,-0.23403691,-0.0928688,0.085916504,0.2941604,0.55609876,-0.55493855,-0.35523167,-0.30214983,0.123909146,0.77673537,0.014970243,-0.39513105,-0.59451824,-0.25738987,-0.046500176,0.48548856,0.30992842,0.16000539,-0.86606836,-0.15239796,0.06912511,-0.37666553,-0.5803882,0.26287794,-0.1423355,0.17651236,-0.6281255,-0.21089265,0.14214319,-0.01749355,0.027161956,-0.45378137,-0.40430284,-0.3612122,-0.19919994,-0.75489247,0.104650706,0.26117593,0.052874357,0.6389339,-0.40864685,0.3848977,-0.2841031,0.041932493,-0.4658063,-0.69014627,0.26909816,0.84329104,-0.70208573,-0.62996596,-0.46287614,-0.3366045,-0.9756846,-1.0415877,0.23540694,0.061758757,0.27885556,0.66767645,-0.69128454,-0.14320311,-0.18180604,-0.31807607,-0.26123554,0.36198747,0.51272166,-1.1395197,0.033263057,0.29424506,1.0748551,-0.7913705,-0.7655716,0.73885465,0.11653513,-0.65803206,0.118376255,0.5644313,0.51900244,-0.7194552,1.0562315,0.4450323,0.3005564,-0.3578123,0.41774383,-0.19430664,-0.17145394,-0.2552439,-0.4285358,-0.29940754,0.027116895,-0.14366572,-0.6516127,-0.19647992,0.016435772,0.1962103,0.37734333,-0.24161875,0.9526018,0.23175538,-0.35816854,0.6025722,-1.0999879,-0.8322433,-0.7084866,0.5033392,0.402406,-1.0959618,-0.6037764,0.5004,0.09267007,0.16326198,0.455148,-0.33964548,0.8367822,-0.24957773,0.99213284,-0.45652255,0.83045477,-0.5422077,0.5185663,1.2155232,0.28900185,0.026083171,0.4800617,0.7621148,-0.12294314,-0.20535877,-0.32069844,-0.1893561,0.76511955,-0.42025933,-0.13565946,0.005962521,0.40760344,-0.25176296,-0.7521283,0.14650254,0.49047863,0.78058547,0.069916934,-0.41792417,0.5539302,-0.34021136,-0.7668115,-0.021956995,-0.14907709,0.08108175,-0.46368882,0.7204212
source_dataset:AM-38,-0.9568,-0.2707895,-0.6213412,1.037756,0.30264115,0.1964418,0.6027023,0.17205457,-0.17145023,0.57403105,-0.30076376,0.46772698,0.5525242,-1.1041224,0.5626346,-1.4159445,-0.8862025,-0.7674792,-0.6743169,0.9162856,-0.1709683,-0.4159089,0.51604617,-0.022076473,-0.6008818,-0.3349922,-0.69991577,-0.15814316,-0.22921018,-0.25543773,1.1400654,-0.34666637,-0.8735112,-0.19140175,-0.51253223,-0.37398306,-1.0901607,0.34516653,0.4950264,-1.0775423,-0.21350776,-0.4289223,-0.045051277,0.0076695085,0.23815769,0.49256885,0.06526165,0.60310745,-1.3411288,-0.64601064,0.48612797,-0.71230125,0.76890254,-0.023811422,0.43407524,0.43270135,0.3206246,-0.5268878,0.726979,-0.22727686,-1.3546466,2.2007148,-0.31241155,-0.12460128,-0.45675117,1.4180362,0.7201947,-0.8564892,0.5900568,-0.26107806,-1.3269248,1.1816359,0.29977694,-0.02901195,0.37526578,-0.8899303,0.5346961,0.7462019,0.2491312,0.9800679,-1.9519551,-1.3761264,0.64953566,-0.443125,0.38677654,0.29448536,-0.8602339,0.16152118,-1.4018357,0.94032806,0.6488783,-0.19878805,-0.5418502,-1.2406085,-0.06069088,-0.6324021,-0.32138494,-0.3413652,0.4720859,-0.25876492,0.49089348,0.9508034,0.11021735,-0.15281054,0.29235616,0.4051884,-0.32947677,0.0750094,0.35443592,0.27506614,-0.33473372,0.10943164,-0.27725947,-0.0056659486,-0.08995178,-0.34505558,-0.45076486,-0.2757673,0.25319168,0.27122545,-0.414228,-0.15305257,0.07464941,-0.4351986,0.2237344,0.39804965,0.084671095,-0.27811217,0.16136456,0.151821,0.34412256,-0.25174472,-0.43450624,0.19042817,0.10761687,-0.20055829,-0.23918417,-0.18669473,0.33378997,-0.09125795,0.3237965,0.3520925,0.102436535,0.13899165,-0.03148891,0.32971337,-0.41491368,0.20293607,-0.003283199,0.21888909,0.0480431,-0.18804127,-0.055587217,0.2372006,-0.34579873,-0.24010974,-0.12650582,-0.17225951,0.2335095,0.30336547,-0.02971269,0.4645775,-0.22947678,-0.26999536,-0.22581981,-0.2732671,-0.34290317,-0.4183969,-0.3484916,0.08537756,0.33880186,0.45827374,0.41926217,-0.018560722,0.090039395,-0.28909782,0.22142327,-0.44625077,0.15522449,0.09477948,0.11622293,0.18560678,-0.17290132,0.38868183,0.17582858,0.26848617,0.10469,0.2675776,0.2361517,0.23180756,0.30690148,-0.07957803,0.3127246,0.06638178,0.3191915,0.4207191,0.1235131,-0.0975917,-0.034306556,0.1566887,0.11301966,-0.18460721,0.3561947,0.21369085,-0.32637438,-0.008660948,-0.06481098,-0.27917436,0.062891535,-0.15783574
source_dataset:TE-5,-0.6660117,0.12135051,0.10813692,0.90515244,-0.19473322,0.44661957,0.54837435,0.6365266,0.30120403,-0.033555776,-0.634996,0.5155755,0.3139474,-0.49477035,0.046820015,-0.8883259,-0.117008775,-0.5415714,-0.25736868,0.6477866,-0.6132021,0.15444106,0.4414261,0.52476174,0.21373194,-0.2578494,-0.13485613,0.08510831,-0.03931217,-0.8417054,0.34271204,-0.0040958524,-0.110781856,-0.36700958,-0.13364694,-0.08499426,-0.7787663,0.044031024,0.42981172,-0.91527295,-0.58645165,-0.9194328,0.41513854,0.14194256,-0.029838681,0.76399183,0.49417144,0.55440426,-0.472324,-0.34377944,0.55368584,-0.19334671,0.32548428,-0.23798066,0.4727369,0.2999829,0.3594851,0.019743696,0.65022504,-0.096309245,-0.7603669,1.045275,-0.108389184,-0.2310336,-0.18045335,0.59551513,0.6263676,-0.35155863,0.24108072,0.18528874,-0.9585581,0.82838947,0.14804062,-0.0675416,0.4105119,-0.71601963,-0.108204514,0.62077355,0.3978797,-0.16048431,-0.9010565,-0.19277343,0.5388708,-0.07268979,0.21405724,-0.37284976,-0.31049904,0.014348157,-0.5834832,0.31374457,0.28663927,-0.43790644,-0.11840196,-0.6224037,0.4274333,-0.05794187,0.021211326,-0.266747,0.0865393,-0.2828261,0.049366772,1.0508331,-0.0010981709,-0.3250396,0.28687203,-0.2817646,-0.7343589,-0.731542,0.005676836,1.2231294,-0.69991297,-0.5825145,-0.05656308,-0.58739775,-1.0740851,-1.0649332,0.42400795,0.08425492,0.043779626,0.5080716,-0.45877516,-0.14577983,-0.42135102,0.10157013,-0.12547424,0.6939022,0.6622284,-1.1997249,-0.052923784,0.6009123,1.2540703,-1.0611992,-0.86205107,1.1235852,0.036029555,-0.90772766,0.32364815,0.44359604,0.7362696,-0.5977403,0.90936655,0.74282455,0.13478063,-0.5643033,0.51455235,-0.15890345,-0.14065245,-0.2800061,-0.99348456,-0.6454392,-0.35782903,0.008884847,-0.49311256,-0.57787585,-0.12431173,-0.15172526,0.7883999,-0.15088533,0.7371098,0.35619736,-0.38100347,0.1803411,-0.94911146,-0.8013004,-0.81721187,0.57211757,0.54344714,-1.3077376,-1.1234787,0.6243378,-0.11886835,-0.12179208,0.54565257,-0.19312595,0.99489605,-0.08890435,0.9527302,-0.2637092,0.859962,-0.7018559,0.81011677,1.0678449,0.6169398,-0.18915758,0.68252623,0.64871097,-0.2877267,-0.34939072,-0.5510495,-0.57438356,0.91647327,-0.32534844,-0.22717875,0.028292656,0.25224975,-0.23016754,-0.77219874,-0.09125396,0.35439253,0.83389014,-0.012003072,-0.50119346,0.42892867,-0.0270904,-0.6571467,-0.09894378,0.009233005,-0.06886251,-0.6219417,0.8159735
source_dataset:PA-1,-1.1925284,-0.29512167,-0.22908889,1.1375735,0.05650357,0.14991403,0.5741066,-0.05420935,0.25660223,0.5354527,-0.12347412,0.341955,0.5717826,-1.2495772,0.5987416,-0.75749123,-0.6821797,-0.70235837,-0.72255135,0.98862463,-0.15331893,0.18231155,0.37274626,0.5468479,-0.30695572,0.08031237,-0.6006175,0.14017124,0.26541406,-0.10260099,0.30544722,-0.59355915,-0.19148698,0.07532713,-0.80723095,-0.10081476,-1.1096557,-0.123529375,0.6194454,-0.96669793,-0.22232589,-0.47093493,-0.034654945,0.58297116,0.7897013,0.56114894,0.25620717,0.48333108,-0.87656224,-0.8657044,0.21763399,-0.16734955,0.8329444,0.0683635,0.94214356,0.07684532,0.003981769,0.32977578,0.53580916,-0.23476608,-0.9985329,1.5745325,0.36331445,0.20811367,-0.52971303,0.8633045,0.39813736,-0.59589696,0.787873,0.105716266,-1.3333601,0.93979204,-0.2666905,0.18914077,0.53791106,-1.1680647,-0.21247667,0.7087438,0.056544423,0.2997195,-1.27173,-0.5139272,0.3076854,0.1807387,0.55926967,0.11570451,-0.4978772,0.108268544,-1.1276057,1.0547992,0.6799874,-0.36844617,-0.7068595,-1.237333,0.50809336,-0.3688525,-0.05482404,-0.06680012,0.7013612,-0.44178748,0.12269184,0.7444281,0.60697424,0.055474997,0.9503929,0.43210414,-0.37275532,0.086022004,0.30779627,0.2792649,-0.3206361,0.125143,-0.2357751,-0.027437085,-0.11859141,-0.3501309,-0.43803823,-0.25938353,0.20988567,0.2223009,-0.36585933,-0.14095843,0.035838816,-0.3898755,0.25117767,0.4113923,0.07740625,-0.30500454,0.13644065,0.18324909,0.34357396,-0.24759448,-0.4149262,0.21444826,0.059379384,-0.15981162,-0.20653081,-0.22474936,0.3555326,-0.07858091,0.31988847,0.39944324,0.06199291,0.10981048,-0.010594715,0.30812833,-0.40205947,0.18638183,-0.04228934,0.2038378,0.00013745105,-0.1539554,-0.053665817,0.22653946,-0.3198,-0.283753,-0.08839544,-0.16042629,0.18792243,0.3047929,-0.0343447,0.43312427,-0.19183627,-0.25893626,-0.20681982,-0.3050668,-0.3154392,-0.40299943,-0.3710403,0.11422112,0.30656305,0.41875398,0.3887072,-0.023605919,0.10473105,-0.24927483,0.17353405,-0.39863625,0.1965036,0.07763681,0.14839478,0.16773391,-0.20696712,0.36263177,0.20129961,0.26945832,0.06097845,0.26531622,0.27844644,0.21277408,0.34315863,-0.057875205,0.30925286,0.07391335,0.28608242,0.4325355,0.099454224,-0.13743253,-0.05062355,0.13011892,0.06667587,-0.14473648,0.32722476,0.25452712,-0.29370978,-0.012168026,-0.047985967,-0.29866406,0.036669336,-0.14002612
source_dataset:KM12,-0.71440333,-0.12254349,-0.13157265,0.75286496,0.10407434,0.28923026,0.2582272,0.19507998,0.23820801,0.45072052,-0.31473958,0.72904795,0.48617747,-0.13830924,-0.058495894,-0.69141483,-0.20686944,-0.6358783,0.2501864,0.026674643,-0.4934185,-0.20746002,-0.13600571,0.16101491,-0.10399705,-0.40151995,0.017067283,0.21143383,-0.049861804,-0.35600662,0.12271124,-0.23275775,-0.22240339,0.14912823,-0.033401728,0.16654252,-0.066496566,0.22234282,0.43978763,-0.65281785,-0.3628367,-0.2481407,0.3389535,-0.47656742,-0.4918779,0.25948617,0.059335724,0.59961647,-0.6194279,-0.5286688,0.18129036,0.14352186,0.31611794,-0.03443399,0.15178287,0.57677746,-0.36376995,-0.30762643,0.28314722,-0.18666677,-0.64630663,0.71031094,-0.059257597,-0.06566926,0.0028176308,0.3154297,0.4744432,-0.45569637,-0.078639954,-0.0997846,-0.1953993,0.7777499,-0.006857455,-0.24118502,-0.20397276,-0.4417188,-0.21847256,0.5529993,0.32114524,-0.056126654,-0.75131667,-0.0051416755,0.1656941,-0.20188187,-0.27028263,0.057299078,-0.083882615,0.18725121,-0.5556658,0.03447694,0.2580773,-0.13148607,-0.0742351,-0.5319692,0.019953594,-0.28703737,-0.058784425,-0.6099031,0.1579676,0.11993616,0.0049437582,0.6908268,-0.18815158,0.17974202,0.01889138,0.8066216,0.36076316,-0.26092243,1.059875,-0.27599046,-0.6113572,-0.429843,-1.4277046,0.421903,-0.20549966,-0.5978239,-0.5571511,-0.21568719,0.9286193,1.0221878,-1.2560749,-0.17456347,0.60283715,-1.4721873,-0.4260108,-0.40409413,-0.0057124496,-0.4574021,0.3898402,-0.56996286,0.33206642,0.052339107,-0.47602615,-0.44883484,0.4818083,-0.072443284,-0.63758945,0.63863444,-0.12760162,-0.73866236,1.0186013,-0.42743722,0.7128075,0.48261687,-0.07989236,0.06191419,-0.41421685,0.0890101,1.1410743,0.79389185,1.0330725,-0.6566179,-0.7194076,0.90368223,0.044746846,0.89559305,-0.91233855,-0.46646175,1.258727,0.024215907,-0.14043312,1.5813031,-1.1729462,-0.67106456,-0.2882995,0.098572075,-0.35250401,-0.36197376,0.72385824,-0.087318905,0.80253536,1.0868735,0.35071725,-0.50007737,0.051478073,-0.7523714,0.86657196,-1.057963,0.27634105,0.18665269,-0.4253283,1.1045622,-0.51345265,0.78243744,-0.18557146,0.77244556,0.5159945,0.33336717,0.2702429,0.8965341,0.085947424,-0.5413725,0.28831193,-0.07466771,0.8169941,0.0037784874,-0.17308134,0.7432249,0.5923237,0.45384103,0.42598823,-0.30515587,0.8374307,-0.93593395,-0.92319155,0.15866432,-0.540422,0.32023337,0.2336095,0.0070458204
source_dataset:LOX-IMVI,-0.28174192,-0.23315084,0.05835314,0.4169486,0.17660812,0.48854566,0.029371623,0.23614502,0.13054402,0.41573775,-0.10094653,0.20819728,0.3748085,-0.370887,-0.22138514,-0.38578933,-0.009082511,-0.36108586,-0.089117095,0.41363975,-0.16055603,0.19633007,0.026979778,0.08782974,0.28055558,-0.6069551,0.32730097,0.2765048,0.276449,-0.32413462,0.09064564,-0.15334114,-0.4503973,0.26441061,0.13848662,0.22711703,-0.39640266,0.35633504,0.04776547,-0.43295658,-0.42647225,-0.14141396,0.22223485,-0.3481711,-0.28481,0.30627427,0.14880171,0.27444792,-0.5940156,-0.21409878,0.2704796,0.23191291,0.23664032,0.13864371,0.18948972,0.3643592,-0.2030083,-0.35623237,0.483517,-0.30815667,-0.36582482,0.6450324,0.09056209,0.15636659,-0.38347423,0.17969695,0.48579395,-0.3340263,0.07295436,0.24844545,-0.6262228,0.39535427,-0.32593173,-0.09728961,-0.067944065,-0.33542526,-0.23181708,0.1508693,-0.012942538,-0.20175084,-0.54348755,0.20155933,0.25972205,0.25947988,-0.21433517,-0.20845816,-0.36448,-0.29390684,-0.488396,0.1781185,0.0012676939,-0.12216248,0.020070355,-0.22846903,-0.039505437,0.3044806,-0.46809775,-0.21629418,0.28289485,-0.08012791,-0.20516206,0.4720409,-0.17148167,0.38280666,0.31375277,0.39525288,-0.2676843,0.03766114,0.32340768,0.18692195,-0.44305605,0.17029251,-0.3066774,-0.22316554,-0.0021843314,-0.15187646,-0.48918274,-0.22751725,0.118925266,0.4054853,-0.16851163,-0.05170297,-0.16947868,-0.41837177,0.30192804,0.3252161,0.09802704,-0.17207387,-0.021805808,0.20227273,0.14999638,-0.24468747,-0.36756536,0.27274054,-0.042754695,-0.21371822,0.0111076385,-0.04748456,0.46052587,-0.2792973,0.1183162,0.26861423,0.14939651,0.20450872,0.22754467,0.26419997,-0.21732157,0.32121995,-0.1927267,0.3257551,-0.22950985,-0.32418948,-0.25312003,0.3575722,-0.2589868,-0.46202862,0.10863481,-0.33406594,0.20701203,0.48902407,-0.21615088,0.48456717,-0.36441398,-0.290313,0.032389462,-0.11750904,-0.117041886,-0.29247814,-0.5234969,0.18385407,0.38387734,0.45049536,0.33245346,-0.12090694,0.07591226,-0.18370801,0.026179269,-0.4317501,0.27339017,0.11430342,0.032940753,0.2348307,-0.273465,0.40800518,0.25498927,0.27406746,0.018765934,0.10005991,0.3012968,-0.0010672957,0.51873547,0.15754497,0.3762368,-0.12930536,0.30212423,0.4523754,0.16876179,0.049502343,-0.2782628,0.30468494,-0.115098,-0.19643523,0.2381441,0.0982178,-0.28062403,-0.13413918,-0.15928464,-0.31253296,-0.141101,-0.22812471
source_dataset:A-704,0.529867,0.60254496,0.51817274,0.76574385,-0.19917561,1.0924503,0.19039236,1.3111417,-0.6294607,-0.74849904,-0.647201,-0.06834203,0.7065624,0.27130952,-1.0352256,-0.7308347,0.41688848,-0.57532465,-0.668723,1.0679572,-0.45012826,0.83589476,0.39418626,0.23295838,1.2097517,-1.4490354,0.17819488,-0.13086206,0.41010222,-1.5107483,1.0620606,0.71825355,-1.2795371,-0.74997836,0.5975294,-0.39550367,-0.91120696,0.9961544,0.082825944,-1.5271931,-1.3215744,-1.0247693,0.93910456,0.16996121,-0.76964617,1.2086543,0.36331573,0.46338952,-0.8839306,0.77917755,0.80846125,-0.59086466,-0.80332386,-0.4263995,0.24942057,0.39719173,0.823424,-1.0075871,1.4349471,0.18755579,-1.0183508,1.2990844,-0.7287307,-0.68424654,-0.39164418,0.44451797,1.4947087,-0.11066674,-0.54713136,0.54044807,-1.5592492,0.4013401,0.03993982,-0.2847762,0.051380575,-0.5977092,0.50825226,0.07917224,0.3110223,-0.28298026,-1.0340431,-0.45702317,0.85487187,0.20100774,-0.13962333,-1.1395724,-1.1473908,-1.1461313,-0.5445521,-0.62744504,-0.79034853,-1.1297873,0.5527371,0.051527202,-0.42758024,1.1502498,-0.46125576,0.545576,-0.48728532,-1.16115,-0.13575915,1.843793,-0.42784393,-0.4856669,-0.112663105,1.0132711,-0.34888744,-0.1398426,0.12756418,-0.029258639,-0.8621304,-0.29499525,-0.8719935,-0.5162792,-0.77754974,-0.4091701,-0.114619195,0.1603846,-0.081499204,0.39064246,-0.56704307,0.24850643,-0.32185745,-0.73793757,-0.057926297,-0.30288032,-0.20077834,-0.7969792,0.06179773,-0.04670976,0.55348194,0.11544904,-0.3026188,0.2714054,-0.2675774,0.21056339,-0.0900497,0.57100725,0.31725073,-0.8275101,0.94024324,0.5223945,-0.09144424,0.32786813,0.58470994,-0.5462067,-0.23497918,-0.30078006,0.07179703,0.790649,-0.2129042,-0.40819222,-0.9143356,0.8319243,0.5938306,0.036826104,-0.13035053,-0.4782074,0.788642,0.5020872,-0.44173044,1.121571,-1.047558,-0.6599424,0.21725552,-0.2730759,0.63838637,-0.24230316,0.04083422,0.48191878,0.21583308,0.38368484,-0.30295375,-0.9206828,0.23004195,0.26167792,-0.07765676,-0.23531196,1.1823468,-0.23239386,0.43406922,1.0611827,-0.9306645,0.3584192,0.66519856,1.0348768,-0.32835627,-0.023677737,0.6202348,0.01044032,1.0492839,-0.20936441,-0.0036089122,-0.40186292,0.045475036,0.32666314,-0.62752336,0.7052682,0.43201107,-0.004573345,-0.7303721,-0.04445617,0.31338945,-0.71022475,-0.53900796,0.0007612519,-0.5758961,0.25190452,-0.44395345,0.4519672
source_dataset:CA46,-0.8309107,0.17383213,0.07195054,1.0541022,-0.2721401,0.4023011,0.7145489,0.69764614,0.35353526,-0.103036225,-0.75580853,0.5862096,0.2909087,-0.63987476,0.20660946,-1.059304,-0.21658094,-0.59328306,-0.3615427,0.7647783,-0.6993239,0.11522515,0.5935116,0.6388436,0.12383364,-0.112386614,-0.31618622,0.023866594,-0.13462491,-0.9262365,0.44067305,-0.01280272,-0.023126982,-0.52464217,-0.2754807,-0.18658909,-0.9522083,-0.0684993,0.5425549,-1.0403013,-0.5834676,-1.1167846,0.4083017,0.31350094,0.13573396,0.8772367,0.5864038,0.6221528,-0.47766632,-0.43407947,0.63009757,-0.33851495,0.43060356,-0.31712762,0.5859391,0.2597565,0.5253457,0.15191653,0.6924288,-0.060376957,-0.8962573,1.2424177,-0.13623299,-0.30238858,-0.1648118,0.7805373,0.63911784,-0.39286864,0.3735164,0.15166518,-1.1109053,0.97668874,0.27684596,-0.028521955,0.5915209,-0.8568527,-0.05723822,0.7694711,0.48812997,-0.07435632,-1.0666838,-0.37198135,0.6254401,-0.16739266,0.39010367,-0.36615485,-0.32231563,0.12936027,-0.6732724,0.46257004,0.4305687,-0.49650708,-0.22169177,-0.8031635,0.5789979,-0.21428324,0.1410043,-0.28042486,0.09470156,-0.334151,0.14944687,1.1751378,0.09426646,-0.5103481,0.33588827,0.43210414,-0.37275532,0.086022004,0.30779627,0.2792649,-0.3206361,0.125143,-0.2357751,-0.027437085,-0.11859141,-0.3501309,-0.43803823,-0.25938353,0.20988567,0.2223009,-0.36585933,-0.14095843,0.035838816,-0.3898755,0.25117767,0.4113923,0.07740625,-0.30500454,0.13644065,0.18324909,0.34357396,-0.24759448,-0.4149262,0.21444826,0.059379384,-0.15981162,-0.20653081,-0.22474936,0.3555326,-0.07858091,0.31988847,0.39944324,0.06199291,0.10981048,-0.010594715,0.30812833,-0.40205947,0.18638183,-0.04228934,0.2038378,0.00013745105,-0.1539554,-0.053665817,0.22653946,-0.3198,-0.283753,-0.08839544,-0.16042629,0.18792243,0.3047929,-0.0343447,0.43312427,-0.19183627,-0.25893626,-0.20681982,-0.3050668,-0.3154392,-0.40299943,-0.3710403,0.11422112,0.30656305,0.41875398,0.3887072,-0.023605919,0.10473105,-0.24927483,0.17353405,-0.39863625,0.1965036,0.07763681,0.14839478,0.16773391,-0.20696712,0.36263177,0.20129961,0.26945832,0.06097845,0.26531622,0.27844644,0.21277408,0.34315863,-0.057875205,0.30925286,0.07391335,0.28608242,0.4325355,0.099454224,-0.13743253,-0.05062355,0.13011892,0.06667587,-0.14473648,0.32722476,0.25452712,-0.29370978,-0.012168026,-0.047985967,-0.29866406,0.036669336,-0.14002612
source_dataset:NCI-H211,-0.32653576,-0.24967314,0.042261273,0.29255944,0.14153767,0.4487079,0.07455508,0.3109828,0.33801705,0.43054265,-0.24960081,0.3549495,0.15067565,-0.34488893,-0.14372182,-0.49375522,0.04803723,-0.2506428,0.14408915,0.22541699,-0.3028405,-0.012641571,0.10099678,0.07005443,0.20937431,-0.47907406,0.45406842,0.29810673,0.04269646,-0.39297003,-0.011129424,-0.1126357,-0.21827422,0.22089402,0.2384581,0.30613938,-0.28755644,0.23046573,-0.012091219,-0.20264949,-0.34933048,-0.22658259,0.20364557,-0.5725338,-0.39924502,0.23838513,0.25382417,0.27721766,-0.38941705,-0.2682003,0.3576388,0.29502156,0.35878557,0.112682894,0.02499786,0.4237862,-0.15745519,-0.29379916,0.35264406,-0.36638725,-0.19363257,0.44240564,0.04978574,0.13870698,-0.2627382,0.16414525,0.3549375,-0.328064,0.10492836,0.19082654,-0.3875553,0.4320757,-0.1452618,-0.12797405,-0.017508723,-0.1480008,-0.28490087,0.19908094,0.088186786,-0.27038854,-0.41441718,0.32902616,0.3023802,0.10220813,-0.25616077,-0.18001385,-0.15283665,-0.0776054,-0.32801425,0.19544056,0.117190816,0.08277758,0.07448865,-0.14388248,0.085848704,0.14526317,-0.41863912,-0.48487687,0.22941749,0.22141609,-0.17464907,0.32542974,-0.3258227,0.32147056,0.1651805,0.5813505,-0.22052719,-0.12645547,0.44300985,0.07631397,-0.31713605,0.02906496,-0.44155848,0.014966985,-0.1725092,-0.43970212,-0.4884146,-0.16730055,0.30556178,0.47864628,-0.1990047,-0.12489813,-0.08326927,-0.51696134,0.18917671,0.22333163,0.18382281,-0.4473859,-0.12244417,0.1449064,0.12395172,-0.26744813,-0.31050602,0.13680401,-0.10708928,0.0008113682,0.099199176,-0.06797141,0.4205116,-0.3895476,0.35418075,0.110936254,0.31446588,-0.021335669,0.2270282,0.18803674,-0.093572974,0.26593202,0.07253492,0.21988615,0.057022776,-0.21725813,-0.41909522,0.3681792,-0.107485026,-0.20294216,0.0770899,-0.31246763,0.31623077,0.22748336,-0.23007107,0.65597326,-0.42263794,-0.37174577,-0.07874519,-0.00633204,-0.16039173,-0.28180873,-0.2667596,0.24936077,0.4115855,0.47764647,0.32607695,-0.13766567,0.26012987,-0.35785186,0.24919957,-0.48702475,0.4074715,0.058686536,-0.12880139,0.46057138,-0.41735673,0.37602258,0.08060819,0.34608683,0.026298579,0.15273388,0.47567445,0.26849404,0.480708,0.10065673,0.41473198,0.034635324,0.46984833,0.20790511,-0.05829227,-0.09126141,-0.18705684,0.46859235,0.008478887,0.009722993,0.31946632,0.04030232,-0.3354899,-0.082479656,-0.101709165,-0.29434088,-0.16632962,-0.09188368
source_dataset:SNG-M,-1.0942287,-0.38414717,-0.24237974,1.0667143,0.16415197,0.16787139,0.4325053,-0.19187969,0.14220087,0.6513175,0.068669185,0.21274148,0.6698116,-1.2435598,0.5175894,-0.5947095,-0.68715113,-0.7001248,-0.771816,1.0036612,0.015591204,0.26575002,0.24443929,0.44722295,-0.27651498,-0.042154253,-0.54154503,0.18051626,0.4298203,0.062456816,0.2783078,-0.65612566,-0.35620573,0.25335354,-0.7894403,-0.05243981,-1.0607722,-0.0072755516,0.5512103,-0.9302973,-0.20276885,-0.24268362,-0.084219724,0.55053854,0.78395504,0.469074,0.13072464,0.41281915,-0.98533785,-0.8260703,0.11135372,-0.08491999,0.7791225,0.1753237,0.9399253,0.067356855,-0.15637428,0.22303432,0.5381685,-0.26889464,-0.9670273,1.5578563,0.4356928,0.31756207,-0.62803626,0.77258945,0.4046217,-0.59858567,0.7467878,0.13949199,-1.3426298,0.82381916,-0.45346403,0.19773829,0.40628964,-1.1497252,-0.22655417,0.579409,-0.085541055,0.3226081,-1.2367461,-0.4683505,0.21994756,0.32149744,0.4763699,0.15582189,-0.5880903,-0.03993699,-1.1710806,1.0306189,0.5782026,-0.36139256,-0.7040048,-1.1832707,0.3525657,-0.2316397,-0.19250305,0.042795062,0.7802417,-0.5003716,0.051479757,0.6481555,0.6315456,0.25700894,1.0220762,0.43210414,-0.37275532,0.086022004,0.30779627,0.2792649,-0.3206361,0.125143,-0.2357751,-0.027437085,-0.11859141,-0.3501309,-0.43803823,-0.25938353,0.20988567,0.2223009,-0.36585933,-0.14095843,0.035838816,-0.3898755,0.25117767,0.4113923,0.07740625,-0.30500454,0.13644065,0.18324909,0.34357396,-0.24759448,-0.4149262,0.21444826,0.059379384,-0.15981162,-0.20653081,-0.22474936,0.3555326,-0.07858091,0.31988847,0.39944324,0.06199291,0.10981048,-0.010594715,0.30812833,-0.40205947,0.18638183,-0.04228934,0.2038378,0.00013745105,-0.1539554,-0.053665817,0.22653946,-0.3198,-0.283753,-0.08839544,-0.16042629,0.18792243,0.3047929,-0.0343447,0.43312427,-0.19183627,-0.25893626,-0.20681982,-0.3050668,-0.3154392,-0.40299943,-0.3710403,0.11422112,0.30656305,0.41875398,0.3887072,-0.023605919,0.10473105,-0.24927483,0.17353405,-0.39863625,0.1965036,0.07763681,0.14839478,0.16773391,-0.20696712,0.36263177,0.20129961,0.26945832,0.06097845,0.26531622,0.27844644,0.21277408,0.34315863,-0.057875205,0.30925286,0.07391335,0.28608242,0.4325355,0.099454224,-0.13743253,-0.05062355,0.13011892,0.06667587,-0.14473648,0.32722476,0.25452712,-0.29370978,-0.012168026,-0.047985967,-0.29866406,0.036669336,-0.14002612
source_dataset:WSU-DLCL2,-0.40476018,-0.17229201,0.12941478,0.43937826,0.066103235,0.43759295,0.078186095,0.2666552,0.3529133,0.3742223,-0.22660871,0.42117357,0.29536122,-0.19496426,-0.22508931,-0.35304892,0.086716995,-0.3598001,0.19267745,0.15257496,-0.36403725,0.11959108,-0.05738287,0.21321489,0.27212206,-0.45502555,0.39716336,0.3433656,0.17075552,-0.39463332,-0.16171306,-0.15131266,-0.11945311,0.25549227,0.16370907,0.33176556,-0.16440508,0.1890882,0.1362351,-0.34625846,-0.4169111,-0.23145871,0.31010184,-0.44059283,-0.40474623,0.27537137,0.21663244,0.34929368,-0.35386193,-0.31504574,0.23504485,0.3908827,0.24845144,0.07363107,0.1474138,0.41122574,-0.31040418,-0.17285761,0.3169348,-0.28621998,-0.24135205,0.32173803,0.13656382,0.119106986,-0.1813576,0.011524555,0.3714895,-0.2717742,-0.0108075645,0.21137024,-0.30061355,0.4350541,-0.2577828,-0.14541867,-0.10917501,-0.27232897,-0.4298,0.25408125,0.11624533,-0.419581,-0.31278533,0.47313073,0.17119004,0.17825021,-0.29030827,-0.20804325,-0.066435404,-0.088146,-0.29169038,0.044222508,0.06671555,-0.072270505,0.06427769,-0.1804429,0.1276712,0.1715856,-0.26293063,-0.41925886,0.19930641,0.10393387,-0.24125117,0.44002816,-0.21687676,0.3360261,0.21997668,0.24568973,-0.4283334,-0.12940355,0.23870084,0.4814496,-0.45196536,-0.034005344,-0.21414183,-0.2260362,-0.3160693,-0.46296072,-0.24295835,-0.16521305,0.14064434,0.3498056,-0.32665795,-0.11411688,-0.14059965,-0.27845454,0.17485946,0.4535305,0.2271182,-0.48240978,0.040377773,0.29151806,0.5058026,-0.44595432,-0.50956917,0.4554204,0.021594632,-0.35991973,-0.0083471835,-0.0054008663,0.48174822,-0.26875275,0.40098152,0.4424713,0.107261516,-0.02556593,0.19279289,0.17994869,-0.28003433,0.114485,-0.3224923,0.034105077,-0.15963723,-0.16751797,-0.22391772,0.07065636,-0.25282717,-0.30738705,0.18821326,-0.21260497,0.32842577,0.37522396,-0.17632973,0.38736212,-0.43149439,-0.40162605,-0.28121877,-0.031336755,-0.04278767,-0.5898939,-0.60319656,0.26102352,0.22663747,0.29632592,0.40948582,-0.095674105,0.3137073,-0.1894108,0.3181159,-0.3759855,0.38314062,-0.101769075,0.2742197,0.4092596,-0.026048824,0.24172983,0.3360206,0.36379406,-0.03768128,0.062875316,0.08245577,-0.047158048,0.5387017,-0.0557534,0.19889718,-0.0010624081,0.28283238,0.27645153,-0.09227617,-0.06743257,-0.022893885,0.35729682,-0.009663917,-0.2482731,0.3241671,0.13647729,-0.3786164,-0.07171541,-0.06891466,-0.24673405,-0.18045366,0.06646335
source_dataset:MHH-PREB-1,-0.4335034,-0.20662907,0.033928663,0.5218927,0.15108263,0.41134956,0.051430546,0.15726742,0.19932832,0.46017683,-0.117664166,0.4039574,0.4517036,-0.20170923,-0.22350757,-0.3640006,-0.030854292,-0.46475443,0.11283257,0.18353586,-0.2717954,0.10210592,-0.14858772,0.13584493,0.17991492,-0.53679514,0.27586937,0.31068513,0.23543543,-0.27820194,-0.03945286,-0.21715596,-0.31118685,0.32027107,0.08842124,0.27833313,-0.1557604,0.29713127,0.19828871,-0.47345233,-0.40290257,-0.097124144,0.28584993,-0.4180962,-0.39892933,0.23892114,0.078574404,0.38363096,-0.5550035,-0.3436789,0.1537289,0.32500237,0.22306073,0.10571474,0.1818155,0.44238868,-0.40315932,-0.29885674,0.34834278,-0.26514152,-0.3972702,0.5091355,0.11405398,0.124158315,-0.21718113,0.08525778,0.44146144,-0.34008858,-0.046151727,0.14391428,-0.35129476,0.47496453,-0.31117174,-0.15961371,-0.20747113,-0.35686362,-0.33877146,0.26419666,0.07702552,-0.25540212,-0.48315972,0.29120404,0.12825747,0.16518933,-0.30804306,-0.10771225,-0.18744561,-0.13483064,-0.44799125,0.044524677,0.050831173,-0.12725118,0.0057382546,-0.2861763,-0.023498371,0.13636388,-0.29942912,-0.3555762,0.24633548,0.007450223,-0.1997757,0.49831447,-0.16233414,0.40392533,0.23046249,0.7013005,-0.3514596,0.047214996,0.3103125,0.11870882,-0.3774766,0.010862373,-0.44308683,-0.008821441,-0.30474073,-0.44212744,-0.39915735,-0.1599302,0.21585587,0.22658487,-0.46766976,-0.07584517,0.04219828,-0.54042476,0.15042543,0.18836981,-0.020017415,-0.48344874,0.1373563,0.0707516,0.3732029,-0.09856829,-0.34757596,0.114058845,-0.02257888,0.06643483,-0.23727122,-0.10207526,0.28295267,-0.230557,0.55935013,0.39406243,0.041704725,0.1313678,0.059446234,0.09759188,-0.3824945,0.040563434,0.16505805,0.36554277,0.10081008,-0.16546899,-0.2576249,0.42086524,-0.056598872,-0.09220126,-0.21567208,-0.20164625,0.3387487,0.23892584,-0.08288951,0.6745662,-0.3477754,-0.34534562,-0.13450421,-0.3698902,-0.17455651,-0.31769243,-0.098771036,0.18062356,0.3020985,0.44780615,0.20077461,-0.23782499,0.13440293,-0.18586057,0.14679554,-0.37180322,0.43768054,0.024413124,0.16007382,0.39516366,-0.48713386,0.38107798,0.23191339,0.46986085,-0.008388497,0.2828565,0.47382283,0.33827728,0.443637,-0.14542511,0.2576829,0.04054721,0.26670823,0.37714761,-0.11631696,0.0058357716,0.12964186,0.0500933,-0.06791763,-0.02238682,0.3595693,0.031732887,-0.35313436,0.039922327,-0.15377578,-0.15702058,-0.01384582,0.011815533
source_dataset:NCI-H748,-0.5739739,-0.34418148,-0.42469567,0.60930306,0.4501084,0.25424522,0.037132483,-0.0711067,-0.104929864,0.8041539,-0.011382639,0.6369418,0.6581633,-0.120056994,-0.10583232,-0.72302616,-0.40630358,-0.6930593,0.2458795,-0.06154877,-0.19305354,-0.44618675,-0.35095477,-0.292504,-0.3432438,-0.71103907,0.01778099,0.16549824,-0.028061345,-0.0035011768,0.4051817,-0.33764789,-0.75951564,0.4282518,0.043145195,0.15980808,0.093639255,0.5813647,0.3176595,-0.590345,-0.22565198,0.26181543,0.17930193,-0.84226835,-0.7102033,-0.025598407,-0.30060446,0.55517775,-1.044651,-0.4992563,0.047260657,0.08082783,0.30782893,0.15142766,-0.07884352,0.74373317,-0.61932933,-0.8386519,0.2743686,-0.27403462,-0.76349485,0.97319233,-0.1849323,0.030882217,-0.107800454,0.4338925,0.5501201,-0.63380075,-0.1885451,-0.2889313,-0.10376014,0.74275506,-0.07947187,-0.32055223,-0.53848475,-0.2957766,0.056301177,0.4024691,0.1580284,0.36609328,-1.029131,-0.33590314,0.10167884,-0.29136246,-0.49499804,0.35034028,-0.33572876,0.08021484,-0.8032204,0.02182024,0.17736211,0.04208862,-0.07732007,-0.5343654,-0.4920283,-0.32827622,-0.38574284,-0.64310324,0.26747787,0.20161152,0.08150017,0.52436113,-0.33020794,0.5029853,-0.13695388,1.2387062,-0.18120427,-0.98621035,0.4521805,-0.14540735,-0.6863929,-0.87646574,-1.2581613,-0.14989702,-1.4093236,-1.3007032,0.07333255,0.46171924,0.37357044,0.95372903,-0.4002653,0.08373338,-0.43808454,-0.8789402,-0.44039077,-0.55825555,0.34096795,-1.7439361,-0.5341941,-0.030898422,0.49136373,-0.2815346,-0.22327623,0.22120233,-0.58000195,0.5194792,0.6593344,0.87595797,0.4691411,-1.5390966,1.5443507,-0.06089911,0.6036166,-0.5285139,1.0138524,-0.90158665,0.484466,-0.39124078,0.3742747,0.24869236,0.29638213,-0.20913123,-1.7611709,0.6896388,1.1129284,0.62842,0.34669393,-0.6025646,1.2773333,-0.093007416,-0.80270404,1.5661916,-1.6218023,-1.0997703,-0.07717356,0.63991094,0.94418347,-0.38953352,0.34318313,0.91626054,0.27579322,0.3323941,-0.25680742,-1.0502576,1.0731843,-0.218533,0.7379863,-0.43285388,1.819715,-0.5896051,-0.052390307,2.0731628,-1.1058676,0.12802823,0.28477895,1.3042334,-0.4319835,-0.2559283,0.88103205,0.33737165,1.274396,-0.16925994,0.067294,-0.10819927,0.62566316,-0.6463175,-1.4683533,0.41635358,0.48993146,1.0216887,-0.50671065,0.41071767,0.48927313,-1.0828532,-0.7909337,-0.032266803,-0.45550275,0.29928824,-0.9338964,1.0219576
source_dataset:NCI-H841,-0.5521329,-0.2509306,-0.18537994,0.6207743,0.28018135,0.3138483,0.050629206,0.019365653,0.061405748,0.62889504,-0.066449285,0.58158946,0.60387504,-0.08604976,-0.18457887,-0.5152789,-0.21625094,-0.62729025,0.23740889,-0.008867428,-0.27260247,-0.1709556,-0.32294974,-0.041912153,-0.09299883,-0.6078466,0.121986866,0.25231877,0.116474956,-0.13416365,0.1295411,-0.29650843,-0.48922527,0.39047125,0.04227905,0.23316382,0.051696464,0.42212123,0.32359233,-0.5744639,-0.3246164,0.09059827,0.2715386,-0.6238976,-0.58945966,0.09939635,-0.13683067,0.5118966,-0.7875583,-0.45790902,0.0505199,0.23890796,0.23616366,0.110588185,0.07041764,0.61246455,-0.5862076,-0.5390196,0.2751725,-0.24152614,-0.60197145,0.6898017,-0.019510195,0.0610195,-0.105001025,0.21020213,0.49358368,-0.4783333,-0.17338349,-0.095778,-0.14508004,0.6303845,-0.20951405,-0.2610957,-0.42696208,-0.35500756,-0.1889713,0.37181634,0.14725922,0.01690662,-0.72708964,0.020625114,0.06037879,-0.07537545,-0.43283567,0.13902906,-0.20590168,0.007080473,-0.6105093,-0.0334752,0.11317119,-0.07657767,-0.038393915,-0.4305959,-0.25126565,-0.13091682,-0.27228177,-0.5199364,0.23802541,0.10058896,-0.06853162,0.5460252,-0.22669749,0.4580583,0.031223446,0.5387362,-0.30500042,-0.17437164,0.39826354,0.24435668,-0.39742264,-0.14610292,-0.48691243,0.015746603,-0.40693426,-0.62143934,-0.30739555,-0.13165441,0.33305195,0.41573286,-0.5021466,-0.1394023,0.036249045,-0.53608006,0.037017167,0.2242328,0.16364989,-0.63120174,0.06819853,0.10102752,0.45787758,-0.29557952,-0.43494475,0.19596745,0.028336326,-0.0967654,-0.11227789,0.039702207,0.3325385,-0.36834133,0.6543716,0.27286702,0.22193831,-0.031459145,0.12573923,0.087559834,-0.27412713,0.04205677,0.110448696,0.16832347,0.18697754,-0.16648318,-0.37527296,0.27201837,-0.07381825,0.026789635,-0.07449728,-0.2242873,0.5004775,0.17012827,-0.1517497,0.69384295,-0.5294719,-0.46287644,-0.29806,-0.071226016,-0.12023291,-0.48808458,-0.17594762,0.23634651,0.31572545,0.43465513,0.32672963,-0.20601776,0.32642227,-0.32137078,0.43821055,-0.4687037,0.4713096,-0.0724591,0.10699296,0.6076236,-0.28960955,0.32162434,0.17835622,0.4931432,0.026867695,0.18130842,0.3000364,0.29770866,0.45257586,-0.1802058,0.22905257,0.07918571,0.4070847,0.15628526,-0.23889878,-0.01222387,0.1594676,0.3429611,0.069833264,-0.09015484,0.4342699,-0.054112732,-0.46512726,0.017527377,-0.124830514,-0.13420758,-0.101594664,0.1312918
source_dataset:EB3 [Human Burkitt lymphoma],-0.24659574,-0.33560985,-0.06748757,0.13838986,0.23235156,0.45565566,0.070803694,0.35314682,0.3107602,0.5011954,-0.27316877,0.29444307,0.0024459064,-0.49917608,-0.05390282,-0.65986276,-0.005753979,-0.14217107,0.09916491,0.2925995,-0.2369774,-0.1760112,0.26366368,-0.09945749,0.12381618,-0.51248384,0.50631964,0.2434547,-0.10668765,-0.38444957,0.16798156,-0.07314013,-0.34061494,0.18518746,0.31929684,0.27371848,-0.40876642,0.2860558,-0.1665562,-0.05376658,-0.27178,-0.2104794,0.08768405,-0.7317312,-0.40874305,0.18994527,0.28044292,0.20746174,-0.44457358,-0.22210091,0.48669344,0.1821131,0.47829285,0.15439321,-0.117997244,0.44992125,0.0002914071,-0.445147,0.38864532,-0.45171565,-0.15629187,0.5879543,-0.057187825,0.15357137,-0.34372634,0.34067738,0.3425607,-0.39879864,0.22122812,0.15211394,-0.46970773,0.43954754,-0.013087705,-0.11666377,0.06792101,-0.010963589,-0.11368531,0.14594227,0.063455984,-0.08828518,-0.5434508,0.15106705,0.443276,0.0012321025,-0.22777256,-0.13441807,-0.2501301,-0.057705536,-0.37849241,0.35352358,0.17500672,0.25481153,0.08453779,-0.11231744,0.023182303,0.09959682,-0.5876723,-0.56750786,0.25951657,0.35540783,-0.0922423,0.20580398,-0.45152354,0.3070188,0.08914034,0.92038167,-0.34224543,-0.1612143,0.27189407,0.029811502,-0.55900747,-0.24010502,-0.7118354,-0.14892063,-0.6628267,-0.609054,-0.2253276,0.03952691,0.16453286,0.3523696,-0.53879225,0.04072137,-0.10358022,-0.66657215,-0.025209188,-0.088760406,-0.038951255,-0.817246,0.04344479,0.0008839369,0.4872213,-0.040470615,-0.31522512,0.15520847,-0.17351654,0.21826473,-0.1024397,0.23622414,0.29234552,-0.59380597,0.893808,0.39007357,0.06499584,0.07916972,0.32991225,-0.27110687,-0.23932801,-0.17441632,0.22219002,0.478599,0.088296525,-0.21716854,-0.67554027,0.5895715,0.34320274,0.11373037,-0.15858555,-0.32038963,0.6349171,0.22835141,-0.27427635,0.96843493,-0.74373174,-0.5612402,-0.05188574,-0.23263037,0.22672078,-0.31466624,0.074439436,0.3798022,0.2561798,0.4083787,-0.038216293,-0.5812885,0.3135278,-0.055340305,0.18925264,-0.32867682,0.89271057,-0.16101675,0.23699266,0.8698976,-0.7413691,0.3301139,0.36875364,0.7954862,-0.17236462,0.14020033,0.60112786,0.29227868,0.73639286,-0.22066884,0.12857932,-0.08571166,0.24577707,0.19783677,-0.51826745,0.2685157,0.34367317,0.13490401,-0.3231381,0.06083916,0.3854264,-0.36526033,-0.48652676,0.046569146,-0.32313794,0.059425324,-0.25833985,0.3358878
source_dataset:NCI-H2810,0.4799509,0.021699548,-0.82851505,0.3778243,0.7594572,0.7354378,0.0612503,0.89989835,-1.2801658,0.3011038,-0.5026701,0.4321534,0.65965414,0.25232154,-0.6020779,-1.9646473,-0.47587866,-0.7242992,-0.15455408,0.3706997,-0.1776148,-1.0357503,0.24791999,-1.3078501,-0.23903003,-1.9527488,-0.056314945,-0.5472193,-0.72823614,-0.84485984,2.3975284,0.5803362,-2.5084188,-0.50612116,0.8959359,-0.6104584,-0.36154622,1.7906346,-0.1421708,-1.150464,-0.6510778,-0.059485584,0.40519404,-1.5762489,-1.7923491,0.31346542,-0.4567979,0.66362256,-1.998118,0.5470904,0.88915294,-1.2835313,-0.29612806,-0.18790367,-0.96644896,1.2760441,0.603466,-2.7227376,1.1957899,-0.113683954,-1.5486368,2.4209197,-1.7330875,-0.8469309,-0.21547592,1.5461649,1.6057196,-0.94510305,-0.6982787,-0.6203381,-0.8188361,0.9830682,0.99022627,-0.70964885,-0.63776314,0.16367236,1.7864008,0.21440421,0.47882995,1.5121679,-2.4080963,-2.1360574,1.1061108,-1.2176787,-0.7023988,0.08204892,-1.533226,-0.47474664,-1.2956771,-0.4207034,-0.36177778,-0.08358433,0.51862836,-0.24305424,-1.7112126,-0.09646575,-1.1172814,-0.58168215,-0.4345078,-0.058650687,0.6893222,1.4028785,-1.3595666,-0.20607266,-1.3682361,-0.4132459,-0.58662343,-0.8927865,0.0040889382,1.1526179,-0.9479079,-0.571367,-0.16239613,-0.9794985,-0.96299225,-0.7892573,0.41710627,0.17201725,-0.129521,0.8524607,-0.12573802,0.008369952,-0.8203228,0.098780185,-0.07325801,0.5714008,0.75336677,-1.0542511,-0.34498006,0.6734436,1.00504,-1.1332631,-0.8223843,1.3107104,-0.14309792,-1.0719783,0.7508787,0.8139852,0.9542168,-0.9946146,0.6160674,0.5487447,0.2930771,-0.4641496,0.9768174,-0.27925256,0.20411882,-0.090638205,-1.3442074,-0.5147362,-0.7895418,-0.27056032,-0.88024676,-0.42713204,-0.00044721365,-0.44801974,1.2127796,-0.45075664,0.82221895,0.68019044,-0.72877514,0.24549504,-1.3198088,-0.90704656,-0.46070033,0.98012614,0.96849775,-1.2020302,-1.4588643,0.79329485,-0.025261015,-0.118033886,0.4630835,-0.3777332,1.0293312,0.039866492,0.77132374,-0.3082823,1.0560148,-0.7122096,0.67283607,1.2693657,0.5798291,-0.16285172,0.8211289,0.69263387,-0.39389077,-0.69389606,-0.5900739,-1.019389,1.2749331,0.022451904,-0.1619842,-0.3280422,0.27683103,-0.2586008,-0.73474574,0.23692723,-0.0015395507,1.2029617,-0.3343243,-0.62452394,0.28426257,-0.32453343,-0.66892016,-0.3184431,-0.17813429,-0.071109325,-0.992284,0.75396407
source_dataset:Kelly,-0.30271915,-0.094193384,0.17074598,0.46791798,0.041405965,0.5066435,0.08405029,0.37226334,0.24981424,0.26083374,-0.26583126,0.36826935,0.33855528,-0.14189939,-0.31411743,-0.3861346,0.12418347,-0.3802491,0.10742757,0.24295126,-0.36995748,0.1948027,-0.0160399,0.21133323,0.37189716,-0.56252265,0.38081035,0.29656652,0.1987099,-0.5068238,-0.038882054,-0.06134437,-0.24209055,0.1572217,0.21331504,0.26025867,-0.23545894,0.27617684,0.12685595,-0.46374243,-0.51030207,-0.30648744,0.3751991,-0.38352412,-0.44806036,0.36772224,0.22859108,0.3587327,-0.40833893,-0.19910899,0.29155132,0.29463044,0.136383,0.024786055,0.15404531,0.41115993,-0.19917999,-0.2634734,0.43077445,-0.23859835,-0.31680933,0.41575164,0.048291184,0.038715854,-0.2035794,0.04982095,0.48687753,-0.25374228,-0.07066091,0.24645925,-0.42517188,0.42648488,-0.23150496,-0.1611291,-0.09883447,-0.3010458,-0.33481866,0.2309384,0.13323143,-0.40845245,-0.38147342,0.3833677,0.23871821,0.18384907,-0.28081518,-0.30433205,-0.17749727,-0.20119454,-0.31468198,-0.030150268,-0.026607096,-0.17930883,0.118194416,-0.15031491,0.06520915,0.27787384,-0.28749555,-0.3192958,0.12822507,-0.024758518,-0.23380965,0.58051515,-0.24190645,0.257657,0.18399177,0.43210414,-0.37275532,0.086022004,0.30779627,0.2792649,-0.3206361,0.125143,-0.2357751,-0.027437085,-0.11859141,-0.3501309,-0.43803823,-0.25938353,0.20988567,0.2223009,-0.36585933,-0.14095843,0.035838816,-0.3898755,0.25117767,0.4113923,0.07740625,-0.30500454,0.13644065,0.18324909,0.34357396,-0.24759448,-0.4149262,0.21444826,0.059379384,-0.15981162,-0.20653081,-0.22474936,0.3555326,-0.07858091,0.31988847,0.39944324,0.06199291,0.10981048,-0.010594715,0.30812833,-0.40205947,0.18638183,-0.04228934,0.2038378,0.00013745105,-0.1539554,-0.053665817,0.22653946,-0.3198,-0.283753,-0.08839544,-0.16042629,0.18792243,0.3047929,-0.0343447,0.43312427,-0.19183627,-0.25893626,-0.20681982,-0.3050668,-0.3154392,-0.40299943,-0.3710403,0.11422112,0.30656305,0.41875398,0.3887072,-0.023605919,0.10473105,-0.24927483,0.17353405,-0.39863625,0.1965036,0.07763681,0.14839478,0.16773391,-0.20696712,0.36263177,0.20129961,0.26945832,0.06097845,0.26531622,0.27844644,0.21277408,0.34315863,-0.057875205,0.30925286,0.07391335,0.28608242,0.4325355,0.099454224,-0.13743253,-0.05062355,0.13011892,0.06667587,-0.14473648,0.32722476,0.25452712,-0.29370978,-0.012168026,-0.047985967,-0.29866406,0.036669336,-0.14002612
source_dataset:Caki-1,-0.37041217,-0.24515787,-0.026133046,0.35148865,0.17704815,0.41746303,0.07636081,0.2683396,0.2781396,0.47321436,-0.23711054,0.43274924,0.22972642,-0.2668877,-0.15155876,-0.5413616,-0.011139981,-0.3293305,0.19816,0.14341187,-0.3183174,-0.09857684,0.016775366,0.018741742,0.123036355,-0.5156734,0.38868615,0.275861,0.009535566,-0.35522938,0.047433928,-0.13449778,-0.28391403,0.23831841,0.22176507,0.28517342,-0.19215846,0.28269744,0.054743774,-0.27115476,-0.33911112,-0.1662659,0.22269997,-0.63666594,-0.4880614,0.1987876,0.16838872,0.3397633,-0.47619364,-0.30453143,0.31026295,0.26405162,0.33519095,0.100996256,-0.0078009814,0.49214768,-0.23506162,-0.38332868,0.32982984,-0.34071618,-0.28518096,0.5007943,-0.0052585453,0.09842482,-0.20474662,0.19514008,0.38995337,-0.37139422,0.028816657,0.101885624,-0.3008224,0.49336988,-0.11093326,-0.17471008,-0.11568517,-0.1611363,-0.23497823,0.24732585,0.12628254,-0.18601707,-0.50014293,0.23581745,0.26751298,0.012939498,-0.3122161,-0.099618785,-0.15538895,-0.031760957,-0.38337883,0.13074222,0.12422413,0.07284077,0.06657403,-0.19725974,-0.0036782473,0.053619698,-0.3874906,-0.53637606,0.20871572,0.23452063,-0.1306751,0.37545356,-0.34616774,0.33203313,0.08227523,1.1863744,0.26112863,-0.31193763,0.95735574,-0.44732872,-0.5601213,-0.5102984,-1.5087596,0.45366636,-0.49506015,-0.7803887,-0.49768606,-0.062082723,0.85882664,0.8972185,-1.1718032,-0.107454255,0.5054418,-1.483385,-0.44900936,-0.58094513,-0.07743787,-0.77676845,0.25983864,-0.57832766,0.32019746,0.18286559,-0.327014,-0.5079065,0.22493967,0.33134153,-0.5104928,0.59938943,-0.12528282,-0.8627391,1.265743,-0.34710822,0.6310748,0.32507622,0.051595494,-0.2006549,-0.2990993,-0.08789466,1.2792604,0.8438894,1.0552742,-0.520204,-0.9430036,1.040073,0.39730182,0.98837733,-0.89479905,-0.4601458,1.2599599,-0.11616135,-0.2053281,1.7368431,-1.1908247,-0.72825724,-0.19127733,-0.014275193,-0.16764338,-0.22224838,0.96162224,0.084818944,0.71151984,0.9958901,0.094797134,-0.69301593,0.18447861,-0.6370157,0.75549835,-0.90274465,0.6513764,0.07751295,-0.38753092,1.3030953,-0.9162731,0.7058954,-0.1486369,0.9550357,0.32025906,0.35842672,0.6448053,1.0345286,0.27346626,-0.5430131,0.26264668,-0.021032013,0.75888234,-0.08737126,-0.49654764,0.674298,0.69507414,0.36923915,0.20572218,0.0071900934,0.79104245,-0.99967337,-0.87593055,0.20178927,-0.549936,0.3678992,0.094220296,0.22169515
source_dataset:SW1463,-0.20645614,-0.5256337,-0.37596637,-0.1553595,0.37202293,0.43320778,0.25698674,0.55712724,0.3518161,0.6018748,-0.4859534,0.1661914,-0.49582607,-1.1608667,0.40437865,-1.289613,-0.24006279,0.15282923,-0.17440344,0.6612662,-0.14570333,-0.63018185,0.9479943,-0.39980876,-0.17779946,-0.3921142,0.48067302,0.039683282,-0.61763674,-0.47134537,0.7268002,0.028283343,-0.5150736,-0.10041773,0.3786847,0.086093694,-1.0067033,0.2591249,-0.5043954,0.27264768,-0.046461165,-0.4313767,-0.26458368,-0.93437105,-0.17199802,0.20420139,0.51996595,0.05153948,-0.53884506,-0.19382095,0.960468,-0.27120802,0.96746075,0.19031796,-0.35921937,0.42892373,0.6732723,-0.6355554,0.5385214,-0.66968954,-0.14339873,1.1761634,-0.33883572,0.1476416,-0.58571064,1.0265392,0.28399214,-0.6184204,0.7618701,0.058718786,-0.9206388,0.5979152,0.4817293,-0.0052432716,0.5857515,0.21436465,0.37665072,0.14703834,0.07483132,0.46305484,-1.0333865,-0.4831747,0.9522335,-0.33391756,0.09761158,-0.039861336,-0.5175314,0.1202635,-0.5860228,1.0243121,0.51605886,0.68448335,-0.013223492,-0.20925604,0.09853409,-0.16792451,-0.93167657,-0.7931292,0.3766334,0.6756883,0.22609684,-0.031033933,-0.6698889,0.04921621,-0.0033596903,0.34303316,-0.18202783,0.015067011,0.41211364,0.17557998,-0.47421283,0.14227077,-0.38768256,-0.18925062,0.056228936,-0.13496943,-0.51511836,-0.25729978,0.19739886,0.50469327,-0.25262517,-0.071261846,-0.103720054,-0.50506556,0.2519445,0.29682356,0.11251566,-0.11635241,0.019449905,0.14358863,0.14388883,-0.25242245,-0.40281573,0.22950377,0.044625,-0.2927022,-0.04256162,0.030965239,0.42331618,-0.31065938,0.118261546,0.1743124,0.2290441,0.2631441,0.19685203,0.30336565,-0.23479284,0.357477,-0.12457316,0.35869533,-0.14746323,-0.39488047,-0.26411176,0.3825533,-0.30586937,-0.38614026,0.043893434,-0.36283422,0.2938574,0.49312606,-0.21410803,0.5458994,-0.44190827,-0.31236815,0.005315572,-0.050498635,-0.16161546,-0.31749412,-0.4865157,0.13192147,0.44764885,0.526343,0.3881137,-0.11496459,0.047087457,-0.2565373,0.11123194,-0.5229441,0.19822717,0.14804924,-0.03211178,0.2710794,-0.2115488,0.45890367,0.20884095,0.2724006,0.09980493,0.09823398,0.22222045,0.02700609,0.4567042,0.124485865,0.38526902,-0.15103696,0.36527884,0.43077946,0.21678105,0.1316842,-0.25583166,0.3613335,-0.034235835,-0.27368253,0.28959778,0.0152852535,-0.3418638,-0.13201372,-0.19518462,-0.27621728,-0.098112606,-0.26502895
source_dataset:NCI-H196,0.48523474,-0.5199284,-0.3598957,-0.28869492,0.629342,0.7569294,-0.047882035,0.64624083,-0.42596433,0.50072527,-0.14624557,-0.48405075,-0.15543762,-1.1822212,-0.024976507,-1.1752815,-0.21714,0.13891959,-0.82495505,1.2561326,0.36884984,-0.20355159,0.98248535,-0.779284,0.20660785,-1.14814,0.5128089,-0.11970991,-0.16771828,-0.47306758,1.381527,0.23383598,-1.5920869,-0.09607425,0.6033242,-0.16456598,-1.4073125,0.95273864,-0.81943357,-0.06385124,-0.30707282,-0.15953454,-0.26165923,-0.7899126,-0.23334402,0.34860924,0.27316526,-0.15369073,-1.1607819,0.3952355,1.0340972,-0.6190913,0.51415265,0.30689248,-0.36651903,0.3774838,0.903209,-1.3749188,1.0939515,-0.6297077,-0.4216239,1.7948357,-0.58196104,0.12696202,-1.0658194,1.191534,0.7844152,-0.63981843,0.5969454,0.2688066,-1.6828922,0.30187416,0.19903526,0.005312383,0.43732208,0.16072586,0.9131427,-0.30426532,-0.27021182,0.7998676,-1.4418948,-0.9983573,1.1491446,-0.0035782307,0.043848217,-0.28143716,-1.3719623,-0.7336749,-0.9323219,0.90127355,-0.041500494,0.36143413,0.14909872,-0.017395064,-0.58808947,0.5729373,-1.5379406,-0.091557115,0.3703506,0.01727651,0.17191902,0.2352231,-0.72446513,0.21087551,0.06462073,0.17103675,0.06608394,-0.034641236,0.74010277,0.20251244,-0.5002767,0.00048517436,-0.6440182,0.08989832,0.19131334,-0.2213123,-0.5755083,-0.39570665,0.56741834,0.7451855,-0.7253515,-0.2142417,0.30475193,-0.8155229,0.02173981,0.2537235,0.1523121,-0.00417763,0.29815435,-0.09576899,0.26804638,-0.28427613,-0.5739844,0.019401148,0.4572869,-0.5542487,-0.41410348,0.19643193,0.20070812,-0.27782634,0.2717058,-0.087290555,0.46759936,0.4156277,-0.10227909,0.48692,-0.44255766,0.39361718,0.25124148,0.391976,0.3419645,-0.5359776,-0.15418905,0.37838876,-0.531863,0.040532053,-0.35436362,-0.34070265,0.6120661,0.36840844,-0.06769417,0.7416889,-0.6072867,-0.37295783,-0.28076535,0.06329045,-0.48363888,-0.49759406,-0.22860292,-0.12014512,0.63306355,0.792768,0.64426464,-0.018025432,-0.04139094,-0.58557296,0.5494482,-0.8471247,-0.14837913,0.24940105,-0.19336192,0.35882503,0.076381564,0.6193414,-0.008909136,0.26250032,0.4424948,0.21720856,-0.09819007,0.29757935,0.08518475,-0.16639432,0.36881712,-0.07939589,0.5950362,0.33290803,0.34794217,0.30407965,0.0036403276,0.44532287,0.4141608,-0.5302577,0.5546538,-0.18333173,-0.58648753,-0.03089408,-0.24790013,-0.12649676,0.20211345,-0.33927733
source_dataset:NCI-H345,-0.2804138,-0.39905804,-0.09259714,0.18984912,0.2858898,0.43669847,0.033447478,0.21872953,0.23323661,0.58327174,-0.12600178,0.19360659,0.11551045,-0.61004376,-0.023128703,-0.5630217,-0.08514845,-0.187723,-0.046797976,0.40591827,-0.10285589,-0.07207032,0.21386652,-0.09330861,0.100989684,-0.52143127,0.42750427,0.25865662,0.047025494,-0.24192166,0.1687867,-0.17304668,-0.43401745,0.2894265,0.2034513,0.26292378,-0.48457775,0.31188953,-0.14049001,-0.1173438,-0.24848425,-0.09331702,0.027187914,-0.5951911,-0.25312722,0.17455354,0.2069892,0.17678905,-0.5615171,-0.26344094,0.39769167,0.1938642,0.49654382,0.22277701,0.004439816,0.3885097,-0.08589296,-0.42062593,0.41449946,-0.45932359,-0.21871929,0.6966485,0.04547605,0.24361438,-0.44967806,0.34871128,0.34704262,-0.42232186,0.28256485,0.1819758,-0.6012292,0.41036206,-0.16929579,-0.06499734,0.056481063,-0.12675318,-0.13162768,0.11300413,-0.043693513,-0.026627898,-0.60241175,0.10488978,0.38202235,0.12806655,-0.1781792,-0.08658766,-0.34898624,-0.14624658,-0.49371397,0.44392258,0.16885306,0.19792876,-0.0074582547,-0.20026383,-0.014906853,0.14969242,-0.63535744,-0.42826685,0.3732223,0.2255158,-0.11690079,0.18777022,-0.31163484,0.41296828,0.25164947,0.9409871,0.030851066,-0.18965362,0.6711768,-0.23759148,-0.5089147,-0.23613529,-1.0301942,0.15414204,-0.34013224,-0.5368717,-0.49006325,-0.08945839,0.52142745,0.68991923,-0.69036174,-0.058091402,0.1655745,-1.039157,-0.12920028,-0.25260994,-0.011041217,-0.5846154,0.077124014,-0.24554688,0.2097051,0.029735148,-0.29786307,-0.18641447,0.029725324,0.19655862,-0.21706109,0.33768067,0.14107077,-0.67843145,0.81030184,-0.0948692,0.4288948,0.23907426,0.19503382,-0.07235792,-0.20033272,0.06628266,0.6718419,0.6470773,0.48897865,-0.42515063,-0.73938996,0.80117285,0.21540311,0.37274995,-0.4307896,-0.430951,0.8157385,0.124997586,-0.254425,1.2532487,-0.8690535,-0.5620419,-0.039793074,-0.049596786,-0.07547189,-0.19988482,0.37042215,0.18166673,0.564306,0.74781513,0.12797487,-0.5078367,0.17370827,-0.41570792,0.4044429,-0.6729691,0.5950908,0.071963586,-0.22762387,0.9123445,-0.7542685,0.5662561,0.03053476,0.7087395,0.13940522,0.23096092,0.5999907,0.60470253,0.447283,-0.21024024,0.31978077,-0.07753208,0.5618305,0.11310542,-0.28650838,0.41048837,0.26824313,0.35865647,-0.004857883,-0.0027570575,0.5328118,-0.56996965,-0.6092848,0.05098377,-0.39836568,0.084494054,-0.06826228,0.07033892
source_dataset:NCI-H2087,-0.39383042,-0.18310396,0.117237404,0.41886425,0.076643184,0.43914598,0.077678755,0.2728488,0.35083193,0.38209158,-0.22982123,0.41192052,0.27514526,-0.21591222,-0.21372038,-0.37270886,0.08131253,-0.34454829,0.18588853,0.16275269,-0.35548663,0.10111509,-0.03525354,0.19321203,0.26335472,-0.45838568,0.40511432,0.33704188,0.15286268,-0.39440092,-0.14067301,-0.1459086,-0.13326073,0.2506581,0.17415325,0.328185,-0.1816122,0.19486961,0.115510456,-0.32619295,-0.4074685,-0.2307774,0.2952274,-0.45902807,-0.40397757,0.27020353,0.221829,0.33922297,-0.3588298,-0.30850035,0.25217408,0.37748867,0.26386768,0.07908752,0.13030945,0.41298074,-0.28903365,-0.18975596,0.3219242,-0.29742122,-0.23468453,0.3385981,0.124438904,0.12184556,-0.19272837,0.032849222,0.3691768,-0.2796392,0.005363442,0.2084998,-0.31276134,0.43463793,-0.24206099,-0.14298126,-0.09636709,-0.25495744,-0.4095542,0.24639642,0.11232489,-0.39873534,-0.32698566,0.45299596,0.18952036,0.16762535,-0.28553706,-0.2041269,-0.07850768,-0.08667323,-0.29676569,0.065351196,0.073768124,-0.050606675,0.065704405,-0.17533456,0.12182762,0.16790774,-0.28468674,-0.42842722,0.20351364,0.12034887,-0.2319453,0.4240161,-0.23209906,0.33399236,0.21232037,0.381876,-0.32344452,0.024778407,0.30539227,0.2604531,-0.4094513,0.12469715,-0.27158868,-0.16761817,-0.08569735,-0.25836164,-0.43516606,-0.22667044,0.14842686,0.34416258,-0.25027594,-0.08722557,-0.10610932,-0.3878389,0.26708233,0.37039796,0.112773806,-0.2597474,0.033421315,0.21110344,0.26229632,-0.27771062,-0.40382996,0.285279,-0.0032373965,-0.22167715,-0.054279953,-0.0914768,0.43387705,-0.220177,0.22120535,0.33385745,0.11764729,0.14061245,0.15384421,0.26329437,-0.2802137,0.24957094,-0.1704351,0.24422167,-0.152622,-0.25041944,-0.1913767,0.27418768,-0.27540293,-0.38628224,0.06498385,-0.26495314,0.22096898,0.41810587,-0.15775901,0.45429978,-0.325761,-0.29913855,-0.0862184,-0.15739486,-0.1619356,-0.37167284,-0.4926198,0.17627177,0.33660483,0.41675436,0.36087096,-0.089029014,0.12219234,-0.20338169,0.11503729,-0.4133556,0.2689434,0.06925211,0.10456821,0.24353012,-0.21486445,0.36842722,0.25258672,0.28709978,0.021816425,0.14139956,0.25975612,0.0527502,0.4716887,0.061788116,0.32870543,-0.050643943,0.29444838,0.41856048,0.10717853,-0.022690907,-0.17228062,0.26314884,-0.046221018,-0.18993308,0.2773928,0.14906412,-0.30004168,-0.0892536,-0.11298312,-0.29804036,-0.0965273,-0.1557984
source_dataset:KTCTL-1M,-0.35904482,-0.15377529,0.13565731,0.43231153,0.066275366,0.46330392,0.077193804,0.30662346,0.31491452,0.34167537,-0.2405286,0.39516476,0.296333,-0.1891403,-0.2503938,-0.37571377,0.09744393,-0.35522524,0.16002251,0.18920387,-0.35863844,0.13313836,-0.02980498,0.19654039,0.30187294,-0.4969459,0.40005082,0.3236612,0.16925915,-0.4319443,-0.1058376,-0.11619927,-0.1731021,0.22057435,0.19056217,0.30610278,-0.19843078,0.22513582,0.11647485,-0.37067747,-0.4425809,-0.2537819,0.32218578,-0.43667233,-0.4218443,0.30185312,0.22298193,0.34432828,-0.37615693,-0.26882747,0.2655346,0.35038882,0.2189206,0.061865646,0.1357569,0.41309282,-0.25939903,-0.21833023,0.35920045,-0.27826276,-0.26055974,0.36308435,0.09785308,0.094369546,-0.19736901,0.036949344,0.40958062,-0.27045318,-0.02216829,0.2220163,-0.34990492,0.42941734,-0.2395935,-0.1497514,-0.09940592,-0.26768374,-0.38337442,0.23823556,0.11789638,-0.402315,-0.34398353,0.43064427,0.20618418,0.17416467,-0.28645656,-0.23869738,-0.11325304,-0.12807009,-0.30181155,0.031092376,0.037115473,-0.09300398,0.085605755,-0.16349453,0.099477634,0.208267,-0.28879175,-0.39094847,0.1775597,0.07186417,-0.23367447,0.47529697,-0.23787044,0.310427,0.20130326,0.35245383,-0.45511374,-0.06287444,0.22317658,0.4409828,-0.43510944,-0.03952861,-0.2457129,-0.16724941,-0.36019874,-0.4908706,-0.24288394,-0.16517049,0.14913592,0.25691563,-0.43009198,-0.11014457,-0.05838122,-0.3241018,0.15399036,0.41177556,0.1444197,-0.5127693,0.1270676,0.23706357,0.55974793,-0.35594356,-0.4958663,0.38598704,0.04303126,-0.2665317,-0.13961989,-0.049697056,0.4075631,-0.20781878,0.49929076,0.5062569,0.032887682,0.014788888,0.10772696,0.15118161,-0.37634355,0.03773898,-0.20090476,0.10042035,-0.07449016,-0.13330695,-0.17541596,0.12210577,-0.21445382,-0.2221534,0.03785018,-0.16619907,0.335182,0.32752943,-0.10901095,0.43502307,-0.38314408,-0.3853215,-0.30093277,-0.18161589,-0.09155525,-0.5670757,-0.46298367,0.22699052,0.20700136,0.31102142,0.35642025,-0.12818049,0.26657924,-0.16467628,0.29230356,-0.34841698,0.39224547,-0.094635606,0.3268091,0.39068127,-0.10971731,0.2587797,0.34066677,0.40796602,-0.035090953,0.14638728,0.14589092,0.061068207,0.49381274,-0.14905614,0.16808076,0.03511278,0.23960796,0.319843,-0.12214047,-0.06109374,0.0975973,0.20326746,-0.010284245,-0.20787367,0.3508923,0.13529247,-0.3811749,-0.012289763,-0.07868252,-0.20140705,-0.10112292,0.093465626
